-3.126732632517814636e-02,3.243302926421165466e-02,2.027827687561511993e-02,-1.314226444810628891e-02,-3.363738954067230225e-02,-3.645911440253257751e-02,1.341922581195831299e-02,2.629890292882919312e-02,1.301480680704116821e-01,-3.712777048349380493e-02,1.785814911127090454e-01,5.879253521561622620e-02,3.056769073009490967e-02,-4.057656228542327881e-02,-1.867275498807430267e-02,5.515275150537490845e-02,-5.130419880151748657e-02,5.152304843068122864e-02,9.545193053781986237e-03,6.234320998191833496e-02,4.442018643021583557e-02,4.971899837255477905e-02,-3.686490654945373535e-02,-7.637953013181686401e-02,-4.043296352028846741e-02,5.004171654582023621e-02,1.034206002950668335e-01,3.416928276419639587e-02,4.815879743546247482e-03,6.962351500988006592e-03,4.304052516818046570e-02,1.988722570240497589e-02,4.990569502115249634e-02,-2.448408678174018860e-02,-9.398984722793102264e-03,8.951617032289505005e-02,2.022954262793064117e-02,-1.132408156991004944e-03,7.085963338613510132e-02,-5.303252860903739929e-02,1.619780361652374268e-01,1.275994926691055298e-01,-1.119494624435901642e-02,2.492046542465686798e-02,-4.391495510935783386e-02,1.149014011025428772e-01,3.792496630921959877e-03,-1.369298994541168213e-01,3.468153625726699829e-02,-3.628722042776644230e-04,-8.069287054240703583e-03,-5.829589441418647766e-03,7.427558302879333496e-02,9.708138555288314819e-02,-3.541914001107215881e-02,6.954521685838699341e-02,-5.275420099496841431e-02,-5.665724724531173706e-02,5.977652966976165771e-03,-6.699927151203155518e-02,-5.759398918598890305e-03,-2.101701311767101288e-02,3.365394473075866699e-02,-2.864127606153488159e-02,1.916326768696308136e-02,-2.614625915884971619e-02,-6.391143053770065308e-02,3.386417776346206665e-02,-1.853286102414131165e-02,-5.760749918408691883e-04,-3.771756216883659363e-02,-7.121043652296066284e-02,4.132702201604843140e-02,-5.814742296934127808e-03,-1.221382617950439453e-02,3.188015520572662354e-02,-2.098923362791538239e-02,9.923620522022247314e-02,1.433762069791555405e-02,-9.112554602324962616e-03,6.763936579227447510e-02,1.192149240523576736e-02,3.685288876295089722e-02,1.279765181243419647e-02,7.086479663848876953e-02,-4.810889437794685364e-02,5.553574487566947937e-02,8.704119175672531128e-02,2.970989421010017395e-02,4.958487302064895630e-02,2.584474906325340271e-02,4.168109223246574402e-02,1.032445579767227173e-01,3.731718985363841057e-03,2.871610596776008606e-02,-1.825256198644638062e-01,8.945312350988388062e-02,-6.620373576879501343e-03,-5.259082466363906860e-02,2.721054479479789734e-02,5.239338427782058716e-02,9.343120455741882324e-02,2.476504817605018616e-02,-3.064664825797080994e-02,-1.681050658226013184e-02,-3.665151074528694153e-02,-2.200589142739772797e-02,8.840643800795078278e-03,3.091574180871248245e-03,4.033318161964416504e-02,-4.945413675159215927e-03,1.245059892535209656e-01,4.426688328385353088e-02,5.934359505772590637e-02,-9.422796574654057622e-05,6.293347477912902832e-02,1.340786460787057877e-02,-7.773259282112121582e-02,-1.539089344441890717e-02,-6.577394437044858932e-03,1.294889673590660095e-02,9.040997177362442017e-02,8.218830823898315430e-02,8.378899097442626953e-02,-3.698740899562835693e-02,-3.977650776505470276e-02,1.194958388805389404e-02,3.150813654065132141e-02,-9.972167201340198517e-03,-7.667181640863418579e-02,-5.081347748637199402e-02,-8.584111928939819336e-02,-1.161082386970520020e-01,-4.427673667669296265e-02,-2.572511695325374603e-02,-4.372920095920562744e-02,-2.414496988058090210e-02,-8.173618465662002563e-03,9.552209079265594482e-02,-9.369911998510360718e-02,-4.990025237202644348e-02,6.618731468915939331e-02,1.752043515443801880e-02,8.984352648258209229e-02,-1.100331079214811325e-02,3.628237172961235046e-02,-6.913683842867612839e-03,4.915372468531131744e-03,1.607752218842506409e-02,1.175570487976074219e-02,-2.307345531880855560e-02,-7.797214388847351074e-02,-4.298364743590354919e-02,-5.765856429934501648e-02,1.469715386629104614e-01,2.396807260811328888e-02,4.153358191251754761e-02,-1.125382110476493835e-01,4.703475162386894226e-03,2.183159254491329193e-02,6.997372955083847046e-02,9.054423123598098755e-02,5.340537801384925842e-02,5.852824822068214417e-02,2.818363485857844353e-03,8.637348562479019165e-02,6.225758790969848633e-02,6.881304830312728882e-02,1.376484781503677368e-01,-7.990930974483489990e-02,1.003129035234451294e-01,1.023260131478309631e-01,1.045288592576980591e-01,-4.007173702120780945e-02,2.864103950560092926e-02,2.762070298194885254e-02,7.967357523739337921e-03,8.504056371748447418e-03,-4.581587016582489014e-02,2.670804411172866821e-02,1.427466887980699539e-02,-2.596866711974143982e-02,7.401611655950546265e-02,-1.622829213738441467e-02,4.644426703453063965e-02,8.184348791837692261e-02,-1.655566692352294922e-02,4.038633778691291809e-02,5.562275275588035583e-02,9.320834279060363770e-02,2.882119081914424896e-02,3.875854983925819397e-02,6.409531831741333008e-02,-6.588437594473361969e-03,3.206788096576929092e-03,-3.657134622335433960e-02,-1.835875511169433594e-01,7.184149324893951416e-02,-3.244803100824356079e-02,1.244431734085083008e-01
