3.902565836906433105e-01,-2.408176064491271973e-01,3.703403770923614502e-01,4.077744204550981522e-03,-8.089330792427062988e-02,-3.256037831306457520e-01,-1.157693937420845032e-01,1.986841261386871338e-01,1.799165084958076477e-02,2.588280737400054932e-01,-2.701738476753234863e-01,-2.643502354621887207e-01,1.850463598966598511e-01,-2.429941445589065552e-01,-2.258639037609100342e-01,3.611221015453338623e-01,-5.074165016412734985e-02,3.222096264362335205e-01,-1.437859833240509033e-01,3.498482406139373779e-01,-4.312527179718017578e-02,3.752589523792266846e-01,-1.255683898925781250e-01,1.758175045251846313e-01,2.494721487164497375e-02,1.239533126354217529e-01,-6.465851515531539917e-02,3.704051375389099121e-01,1.059517115354537964e-01,3.133134841918945312e-01,-1.679596006870269775e-01,4.224515855312347412e-01,2.546127736568450928e-01,-2.841713428497314453e-01,5.616850405931472778e-02,1.160175204277038574e-01,-3.166550099849700928e-01,-4.290103614330291748e-01,3.067879974842071533e-01,-4.896183963865041733e-03,-2.635153532028198242e-01,-2.497392445802688599e-01,3.912136852741241455e-01,-2.089956998825073242e-01,-1.970651000738143921e-01,-3.617853224277496338e-01,1.425538212060928345e-01,-1.246191263198852539e-01,3.866617083549499512e-01,3.158551156520843506e-01,-3.204144239425659180e-01,3.736733198165893555e-01,-1.766186058521270752e-01,-1.955979764461517334e-01,-1.742528080940246582e-01,2.898294664919376373e-02,1.079733818769454956e-01,2.238266617059707642e-01,-1.696443855762481689e-01,-2.123546600341796875e-01,-2.959231436252593994e-01,4.570735618472099304e-02,1.048909723758697510e-01,-1.105421036481857300e-01,-1.222017481923103333e-01,-1.210420206189155579e-01,-6.739049404859542847e-02,9.628129750490188599e-02,-1.317447721958160400e-01,3.971822187304496765e-02,2.294011563062667847e-01,-9.361685067415237427e-02,2.559542655944824219e-01,5.308215618133544922e-01,2.197166979312896729e-01,2.509188652038574219e-01,-1.003751754760742188e-01,-5.333645269274711609e-02,3.239580392837524414e-01,-2.893782258033752441e-01,2.196411788463592529e-01,3.762778341770172119e-01,2.348874509334564209e-02,2.697671949863433838e-01,8.174717426300048828e-02,-1.006612032651901245e-01,2.707243859767913818e-01,-3.190026879310607910e-01,-6.874472647905349731e-02,-1.668570935726165771e-02,-6.619568914175033569e-02,3.093739748001098633e-01,1.268063485622406006e-01,2.874904572963714600e-01,4.313767850399017334e-01,-2.236984521150588989e-01,3.273218274116516113e-01,4.785915091633796692e-02,3.948628604412078857e-01,4.226852357387542725e-01,-8.124215155839920044e-02,-5.510146915912628174e-02,2.439613044261932373e-01,2.946467697620391846e-01,-9.745761007070541382e-02,-7.561688125133514404e-02,-1.132541894912719727e-01,-1.058978140354156494e-01,2.724069058895111084e-01,2.221322357654571533e-01,7.875923812389373779e-02,2.776760756969451904e-01,-8.265558630228042603e-02,-3.442510664463043213e-01,3.803696036338806152e-01,-2.452235966920852661e-01,2.914259955286979675e-02,-1.926851868629455566e-01,4.528347253799438477e-01,4.322978854179382324e-02,-2.453818619251251221e-01,-1.005068793892860413e-01,-1.094262972474098206e-01,-2.279798127710819244e-02,9.293258190155029297e-02,8.772116899490356445e-02,-2.129720989614725113e-03,3.222826421260833740e-01,9.823305904865264893e-02,-3.537476062774658203e-01,2.917634844779968262e-01,-2.244876772165298462e-01,-4.616054147481918335e-02,1.753651797771453857e-01,-5.002370104193687439e-02,4.385643303394317627e-01,4.203114509582519531e-01,-3.363810181617736816e-01,-7.486932724714279175e-02,-8.680525422096252441e-02,-2.737224102020263672e-01,-1.349893659353256226e-01,3.511873483657836914e-01,9.887421131134033203e-02,2.517679035663604736e-01,-2.862723469734191895e-01,-4.387022461742162704e-03,4.035577178001403809e-01,9.277166426181793213e-02,1.984132230281829834e-01,-1.100218296051025391e-01,2.217641323804855347e-01,1.791849881410598755e-01,1.434565037488937378e-01,-1.406041383743286133e-01,2.970721423625946045e-01,-1.172264367341995239e-01,-1.372068524360656738e-01,-1.381191760301589966e-01,-1.717337220907211304e-01,7.973411679267883301e-02,1.898502260446548462e-01,6.793307512998580933e-02,-1.440342068672180176e-01,-8.928102254867553711e-02,-1.797550320625305176e-01,-1.655698865652084351e-01,2.530759871006011963e-01,-1.837203204631805420e-01,-6.492581963539123535e-02,-5.469214543700218201e-02,-3.429380804300308228e-02,4.091939628124237061e-01,-1.160258054733276367e-01,2.364672571420669556e-01,-9.384634345769882202e-02,3.524855375289916992e-01,-3.313897550106048584e-01,-9.981496632099151611e-02,3.869493901729583740e-01,4.972040653228759766e-01,-7.565991580486297607e-02,-3.364902436733245850e-01,-1.541130095720291138e-01,-5.346860736608505249e-02,-3.149947524070739746e-01,3.378066718578338623e-01,2.511469125747680664e-01,2.374437749385833740e-01,5.143614411354064941e-01,-1.357309520244598389e-01,2.630102336406707764e-01,-2.282333225011825562e-01,1.422644406557083130e-01,2.154407054185867310e-01,3.958759307861328125e-01,-2.491812407970428467e-01,-1.654658317565917969e-01,-2.802118360996246338e-01,1.282139271497726440e-01
-1.632073894143104553e-02,-2.131279408931732178e-01,-1.065779179334640503e-01,7.413440197706222534e-02,-9.290722012519836426e-02,6.145776808261871338e-02,-3.198941051959991455e-02,-4.607312381267547607e-02,-7.294294238090515137e-02,4.160733893513679504e-02,-8.533852547407150269e-02,1.142323482781648636e-02,-9.105856716632843018e-02,-1.786125153303146362e-01,-3.749538958072662354e-02,2.653476223349571228e-02,2.305359393358230591e-02,6.363337486982345581e-02,-1.888742297887802124e-01,6.481804698705673218e-02,6.965851038694381714e-02,-7.662678509950637817e-02,3.724559023976325989e-02,-3.160301223397254944e-02,-3.250262141227722168e-02,2.123704105615615845e-01,4.681059718132019043e-02,-2.407770790159702301e-02,1.243697330355644226e-01,-1.210367754101753235e-01,-5.070793628692626953e-02,-6.829909980297088623e-02,-4.828718677163124084e-02,-9.277144819498062134e-02,8.890546113252639771e-02,2.389605157077312469e-02,1.102180331945419312e-01,1.844195723533630371e-01,-2.058962434530258179e-01,-1.415923088788986206e-01,3.774426504969596863e-02,-1.297113150358200073e-01,9.199395775794982910e-02,3.250064328312873840e-02,7.202263921499252319e-02,-8.588569611310958862e-02,-1.782950945198535919e-02,-1.405837684869766235e-01,-7.036690413951873779e-02,-9.243362396955490112e-02,1.863277703523635864e-02,4.171453416347503662e-02,3.970905020833015442e-02,1.179249119013547897e-02,-1.967010945081710815e-01,-1.019468158483505249e-01,6.390123069286346436e-02,-7.134168595075607300e-02,2.223282307386398315e-01,-3.208727762103080750e-02,-8.352709002792835236e-03,-3.659202530980110168e-02,3.272813856601715088e-01,-9.236081689596176147e-02,-1.153646633028984070e-01,-1.711404472589492798e-01,-1.023385748267173767e-01,-2.826683036983013153e-02,-4.571006819605827332e-02,7.273946702480316162e-02,5.640209466218948364e-02,6.194591894745826721e-02,-5.889092013239860535e-02,-1.611214876174926758e-01,1.102456822991371155e-01,-4.143436625599861145e-02,-3.535276278853416443e-03,2.076895721256732941e-02,-8.181513100862503052e-02,1.872556656599044800e-02,-6.542298197746276855e-02,-1.577349845319986343e-03,4.755714908242225647e-02,-1.015487536787986755e-01,-5.225572362542152405e-02,6.192616000771522522e-02,-3.363762795925140381e-02,-1.762511730194091797e-01,-5.621065199375152588e-02,8.854617364704608917e-03,-5.646172910928726196e-02,5.241931648924946785e-04,-1.556180715560913086e-01,3.339838981628417969e-02,8.127038180828094482e-02,3.912300989031791687e-02,3.501495346426963806e-02,-3.342008218169212341e-02,-1.374731212854385376e-02,9.475031495094299316e-02,-3.085877895355224609e-01,-1.475537717342376709e-01,-7.068000733852386475e-02,1.252698153257369995e-01,-4.212128371000289917e-02,1.351089179515838623e-01,-5.501220002770423889e-02,-4.627809301018714905e-02,3.317997790873050690e-03,2.882776549085974693e-03,7.416946440935134888e-02,5.873796343803405762e-02,-6.116821244359016418e-02,2.224727533757686615e-02,9.151351451873779297e-02,-5.511657148599624634e-02,3.447853401303291321e-02,6.505941599607467651e-02,-7.039623707532882690e-02,8.781758695840835571e-02,-3.589898347854614258e-03,-1.497589051723480225e-01,-3.553284704685211182e-02,5.798607319593429565e-02,-2.458762004971504211e-02,-7.922329753637313843e-02,2.283094683662056923e-03,-8.790046907961368561e-03,-4.414760693907737732e-02,-5.879061296582221985e-03,2.558802254498004913e-02,-5.631402134895324707e-02,1.181346178054809570e-01,4.350447282195091248e-02,1.429700013250112534e-02,9.909143671393394470e-03,6.739148497581481934e-02,-1.067951321601867676e-01,1.160814538598060608e-01,1.464524567127227783e-01,7.735449820756912231e-02,1.429632026702165604e-02,-1.788794994354248047e-01,-5.719720851629972458e-03,1.059146001935005188e-01,-9.622887708246707916e-03,1.129418686032295227e-01,6.902829557657241821e-02,-7.833141088485717773e-02,8.116947114467620850e-02,-5.230521038174629211e-02,9.596075862646102905e-02,4.486719146370887756e-02,-9.388896636664867401e-03,-4.146154038608074188e-03,-1.031428277492523193e-01,-1.331437472254037857e-02,3.626531362533569336e-02,8.647747337818145752e-02,1.345007866621017456e-01,-1.815411262214183807e-02,-3.554688394069671631e-02,2.198734879493713379e-01,-2.639993727207183838e-01,3.150174021720886230e-02,4.823448881506919861e-02,4.609572887420654297e-02,-2.140764705836772919e-02,5.559686571359634399e-02,-1.377943903207778931e-01,6.836373358964920044e-02,1.435349788516759872e-02,4.681441560387611389e-02,-1.913813203573226929e-01,2.219272218644618988e-02,1.091546490788459778e-01,-1.051231101155281067e-01,1.125525496900081635e-02,1.528021320700645447e-02,1.704075932502746582e-02,-1.398856379091739655e-02,1.809696406126022339e-01,5.129613727331161499e-02,-1.405847966670989990e-01,4.830493032932281494e-02,-5.718983337283134460e-02,6.456737965345382690e-02,-1.520661711692810059e-01,9.715782105922698975e-02,-4.906032234430313110e-02,3.940651938319206238e-02,-6.593117956072092056e-03,3.120657801628112793e-02,-1.388960778713226318e-01,-1.058120727539062500e-01,-7.906484603881835938e-02,-8.148951828479766846e-02,1.149050071835517883e-01,-6.534644961357116699e-02,3.837076947093009949e-02
5.289844051003456116e-02,6.554122082889080048e-03,5.333583429455757141e-02,-3.550024703145027161e-02,-6.936723738908767700e-02,-2.761355414986610413e-02,2.891164459288120270e-02,-6.990072876214981079e-02,2.954180818051099777e-03,-4.952598735690116882e-02,4.605641122907400131e-03,6.374268978834152222e-02,1.536352187395095825e-01,-1.664263159036636353e-01,-1.347150932997465134e-02,4.744664579629898071e-02,-2.467739023268222809e-02,1.471088547259569168e-02,-1.486458033323287964e-01,-1.496887858957052231e-02,1.172498092055320740e-01,1.003980040550231934e-01,-4.851580411195755005e-02,-1.353090405464172363e-01,-8.399773389101028442e-02,-1.116433180868625641e-02,-5.960261449217796326e-02,7.004495710134506226e-02,1.255507674068212509e-02,-9.029252082109451294e-02,-8.017488569021224976e-02,1.116223484277725220e-01,1.634508371353149414e-01,-2.787742204964160919e-02,3.009787574410438538e-02,-1.313924882560968399e-02,-7.705152034759521484e-02,-5.123983323574066162e-02,7.964459806680679321e-02,5.771686509251594543e-02,-2.144011855125427246e-02,8.323542028665542603e-02,1.517600938677787781e-02,-3.890511766076087952e-02,-1.488184183835983276e-01,-1.016090661287307739e-01,-7.647442072629928589e-02,-1.311253905296325684e-01,1.328191161155700684e-02,-7.071058452129364014e-02,3.846792131662368774e-02,-1.017282083630561829e-01,1.120650675147771835e-02,5.573649331927299500e-02,-8.347828686237335205e-02,-1.019204873591661453e-02,1.353585626929998398e-03,3.227665275335311890e-02,-1.287439018487930298e-01,-1.133316531777381897e-01,-1.111523136496543884e-01,8.180363476276397705e-02,-1.095538511872291565e-01,-1.098792031407356262e-01,4.417936503887176514e-02,-2.016574889421463013e-01,-2.235769666731357574e-02,1.375500708818435669e-01,5.492329224944114685e-02,4.846301302313804626e-02,-9.029525332152843475e-03,9.745541028678417206e-03,-6.958690471947193146e-03,8.453452587127685547e-02,7.628805935382843018e-02,1.152375116944313049e-01,-7.762666791677474976e-02,7.827034592628479004e-02,1.106045022606849670e-01,-1.556844115257263184e-01,1.290139257907867432e-01,1.319012641906738281e-01,-7.942314445972442627e-02,1.542728859931230545e-02,-1.079706847667694092e-01,-1.635358184576034546e-01,1.793972402811050415e-02,1.029786244034767151e-01,1.105043198913335800e-02,-1.319520641118288040e-02,-1.623143553733825684e-01,6.749168038368225098e-03,-5.243655294179916382e-03,-8.057534694671630859e-02,8.850992657244205475e-03,-1.715744137763977051e-01,1.138161718845367432e-01,-1.954478956758975983e-02,-3.127877041697502136e-02,1.165714561939239502e-01,-1.877800375223159790e-02,8.463498204946517944e-02,-6.966853886842727661e-02,4.660413041710853577e-02,-1.983406767249107361e-02,-6.140033528208732605e-02,-4.588514938950538635e-02,1.338773816823959351e-01,-4.924025014042854309e-02,1.758454591035842896e-01,2.436930127441883087e-02,1.508805006742477417e-01,-1.960687525570392609e-02,6.123588234186172485e-02,7.137464731931686401e-02,1.296585891395807266e-02,-9.707225859165191650e-02,4.461401700973510742e-02,5.013384297490119934e-02,1.792542785406112671e-01,7.464260607957839966e-02,-4.123304411768913269e-02,9.908010810613632202e-02,1.902268677949905396e-01,7.886646687984466553e-02,5.404211580753326416e-02,1.092140842229127884e-02,3.718521213158965111e-03,-1.850133985280990601e-01,-3.450889512896537781e-02,-5.390326678752899170e-02,5.467712506651878357e-02,-8.216718584299087524e-02,-2.437176182866096497e-02,-6.757801771163940430e-02,6.999482214450836182e-02,1.059003695845603943e-01,1.724130287766456604e-02,1.697403639554977417e-01,-1.130027845501899719e-01,-6.528412550687789917e-02,-7.110600173473358154e-02,1.081600561738014221e-01,1.603833734989166260e-01,1.154014747589826584e-02,1.007219254970550537e-01,-9.160453826189041138e-02,1.622595489025115967e-01,-1.167403981089591980e-01,-5.124874413013458252e-02,-8.457978256046772003e-03,-2.567127346992492676e-02,5.501442775130271912e-02,-3.562658652663230896e-02,2.520689666271209717e-01,-1.161789745092391968e-01,1.427842825651168823e-01,-6.796579062938690186e-02,-1.066250428557395935e-01,-6.484349071979522705e-02,5.901383608579635620e-02,1.720611937344074249e-02,-3.427624702453613281e-03,-6.480641663074493408e-02,2.668397873640060425e-02,1.047422438859939575e-01,1.223701387643814087e-01,1.599828749895095825e-01,-5.095631256699562073e-02,-1.781150139868259430e-02,1.010082587599754333e-01,8.958145231008529663e-02,2.785208262503147125e-02,2.186039276421070099e-02,4.659062623977661133e-02,-2.728815563023090363e-02,3.335995227098464966e-02,9.301362931728363037e-02,-8.755266666412353516e-02,-1.881235046312212944e-03,1.889864355325698853e-01,7.494687288999557495e-02,7.373172789812088013e-02,3.804656863212585449e-02,-6.061588972806930542e-02,1.828116923570632935e-02,-3.789654001593589783e-02,7.380636781454086304e-02,9.650948643684387207e-02,5.838036164641380310e-02,-1.523896008729934692e-01,1.415937989950180054e-01,5.721381679177284241e-02,-5.796077102422714233e-02,-5.378707498311996460e-02,-8.617677539587020874e-02,-2.566423118114471436e-01,1.256865859031677246e-01,9.551087766885757446e-02,1.580518484115600586e-02
-4.732671380043029785e-02,3.259004093706607819e-03,1.981139630079269409e-01,1.136179044842720032e-01,-9.616331011056900024e-02,-6.863792240619659424e-02,-4.159279167652130127e-02,9.865581989288330078e-02,3.108431398868560791e-02,2.082434296607971191e-01,-3.026041761040687561e-02,-2.227604836225509644e-01,1.237256005406379700e-01,-3.293786570429801941e-02,-8.132913708686828613e-02,2.975887432694435120e-02,8.060249686241149902e-02,-5.277314037084579468e-02,2.887479588389396667e-02,-4.870746657252311707e-02,-4.610737785696983337e-02,2.300330549478530884e-01,9.345890581607818604e-02,-5.996068567037582397e-02,-2.536903619766235352e-01,-7.329961657524108887e-02,1.751471310853958130e-01,4.722259938716888428e-02,2.871253713965415955e-02,-1.228857189416885376e-01,-1.044625639915466309e-01,-1.578996479511260986e-01,-1.165739223361015320e-01,6.400760263204574585e-03,-3.503485769033432007e-02,2.371519804000854492e-01,-3.330226615071296692e-02,6.170824542641639709e-02,-1.175735369324684143e-01,1.299329660832881927e-02,1.365812271833419800e-01,3.779192641377449036e-02,1.330473721027374268e-01,8.483538776636123657e-02,-4.161902144551277161e-02,1.672989130020141602e-01,-5.360242724418640137e-02,1.366077363491058350e-01,1.353979296982288361e-02,5.628622695803642273e-02,1.124962121248245239e-01,-2.258664965629577637e-01,3.544904291629791260e-02,1.075970977544784546e-01,5.700703337788581848e-02,1.467909365892410278e-01,1.133315488696098328e-01,9.875377145363017917e-05,4.987078905105590820e-02,1.039840746670961380e-02,-1.496945135295391083e-02,5.800026655197143555e-02,-1.011072695255279541e-01,9.821071475744247437e-02,-4.914953559637069702e-02,1.347396373748779297e-01,-1.875112354755401611e-01,-1.344272345304489136e-01,-3.621533513069152832e-02,-1.563340984284877777e-02,-7.890924811363220215e-02,2.344336174428462982e-02,-7.667089253664016724e-02,2.251475900411605835e-01,-2.452607303857803345e-01,-6.663849577307701111e-03,-2.436120659112930298e-01,1.877099573612213135e-01,-1.080237776041030884e-01,-2.159014791250228882e-01,1.707047037780284882e-02,1.719895564019680023e-02,1.160848215222358704e-01,1.420047134160995483e-01,5.129646882414817810e-02,2.046644687652587891e-02,-1.602463722229003906e-01,-9.377162903547286987e-02,3.315990790724754333e-02,-2.872520983219146729e-01,6.528382003307342529e-02,5.550248920917510986e-02,7.155374158173799515e-03,1.009243354201316833e-01,2.931036427617073059e-02,5.253565683960914612e-02,1.463089436292648315e-01,-1.605221778154373169e-01,-2.293519973754882812e-01,1.180748045444488525e-01,1.365545988082885742e-01,-2.149858139455318451e-02,1.753323525190353394e-01,-2.295758277177810669e-01,-1.310354322195053101e-01,-1.711628213524818420e-02,4.319972917437553406e-02,7.999861240386962891e-02,-3.676285035908222198e-03,-2.069872021675109863e-01,1.924999356269836426e-01,1.025326102972030640e-01,-2.032177299261093140e-01,-1.213805451989173889e-01,5.263844877481460571e-02,-5.718262493610382080e-02,-6.432834925362840295e-05,7.669638842344284058e-02,9.467807598412036896e-03,-4.648767411708831787e-02,-8.797200024127960205e-02,1.190110445022583008e-01,7.343368232250213623e-02,-3.204470574855804443e-01,7.192713767290115356e-02,-1.134095862507820129e-01,-3.836653754115104675e-02,-2.283498346805572510e-01,-8.141963183879852295e-02,1.254736930131912231e-01,-4.094672203063964844e-01,5.760417506098747253e-02,-1.332663744688034058e-01,-1.779464930295944214e-01,6.513880938291549683e-02,-6.341198086738586426e-02,1.120753511786460876e-01,-3.124386444687843323e-02,-1.387977004051208496e-01,1.749878525733947754e-01,-1.429865974932909012e-02,-4.325239732861518860e-02,-1.084560677409172058e-01,-6.981862336397171021e-02,-2.324324101209640503e-01,-6.497215479612350464e-02,2.336862236261367798e-01,-1.988079249858856201e-01,2.564640641212463379e-01,-2.312077730894088745e-01,1.206064447760581970e-01,-4.117810353636741638e-02,-1.148442700505256653e-01,5.302865803241729736e-02,1.907072588801383972e-02,1.111272443085908890e-02,9.660566598176956177e-02,-1.632079295814037323e-02,4.293297603726387024e-02,-6.697380542755126953e-02,1.087174117565155029e-01,2.086444795131683350e-01,6.652452051639556885e-02,6.553476210683584213e-03,7.477214187383651733e-02,-1.724768131971359253e-01,-1.761568896472454071e-02,5.536361038684844971e-02,-2.605536580085754395e-01,-2.707107961177825928e-01,1.662828922271728516e-01,1.112179234623908997e-01,4.473806917667388916e-02,1.469583064317703247e-01,6.684419512748718262e-02,-9.195428341627120972e-02,1.360628455877304077e-01,-1.891354471445083618e-02,-9.133948944509029388e-03,-5.480108410120010376e-02,1.114492341876029968e-01,3.860776871442794800e-02,6.996392458677291870e-02,-2.894107066094875336e-02,-4.142979532480239868e-02,9.363434463739395142e-02,1.096528209745883942e-02,-5.128791555762290955e-02,-1.178194731473922729e-01,-1.972727179527282715e-01,1.106205508112907410e-01,-1.725832819938659668e-01,-9.014154970645904541e-02,-1.646967679262161255e-01,3.802276030182838440e-02,5.605567246675491333e-02,-1.327535510063171387e-02,1.172465551644563675e-02,8.133879862725734711e-03,1.403971761465072632e-01
-1.350505501031875610e-01,7.443342357873916626e-02,3.174799978733062744e-01,-1.457026749849319458e-01,6.293448805809020996e-02,2.614438831806182861e-01,1.989730298519134521e-01,2.166283875703811646e-01,2.711226232349872589e-02,2.147020399570465088e-01,-2.585853636264801025e-01,-4.103897213935852051e-01,1.886428333818912506e-02,2.236409634351730347e-01,4.318895339965820312e-01,9.403067082166671753e-02,-2.550987005233764648e-01,-1.024400219321250916e-01,3.441836535930633545e-01,2.561017274856567383e-01,-1.312301158905029297e-01,1.799653768539428711e-01,2.541202008724212646e-01,2.741768360137939453e-01,4.815068542957305908e-01,-3.751696944236755371e-01,3.033943101763725281e-02,-1.872225254774093628e-01,1.532972455024719238e-01,-1.410981416702270508e-01,-1.912747770547866821e-01,9.002345055341720581e-02,-2.727364301681518555e-01,-6.530325859785079956e-02,1.130709499120712280e-01,3.643263876438140869e-01,-2.623534761369228363e-02,2.141223698854446411e-01,-1.440380215644836426e-01,-3.122355639934539795e-01,-1.465721130371093750e-01,-5.819667130708694458e-02,2.671653628349304199e-01,-2.040360271930694580e-01,-2.073261737823486328e-01,-3.553163707256317139e-01,1.554163694381713867e-01,8.362151682376861572e-02,-6.769768893718719482e-03,2.039556503295898438e-01,-4.818769171833992004e-03,-2.125160843133926392e-01,-1.460703909397125244e-01,-3.779765963554382324e-01,-2.014245651662349701e-02,-3.880271315574645996e-01,3.270805999636650085e-02,3.633832558989524841e-02,-1.142709702253341675e-01,-3.365832865238189697e-01,-3.929205238819122314e-02,4.098802506923675537e-01,3.140920996665954590e-01,2.753843180835247040e-02,-3.337607085704803467e-01,7.664473354816436768e-02,2.273206859827041626e-01,8.391059190034866333e-02,1.734373867511749268e-01,-1.330606043338775635e-01,3.736682236194610596e-02,9.557916200719773769e-04,2.929586768150329590e-01,-2.354746013879776001e-01,1.339922547340393066e-01,-4.430288970470428467e-01,2.987323887646198273e-02,-4.717790707945823669e-02,3.055676221847534180e-01,-2.871867120265960693e-01,1.395542025566101074e-01,-4.942427575588226318e-02,-2.495080232620239258e-01,-5.171445012092590332e-01,-4.157731831073760986e-01,-2.653377652168273926e-01,2.256602048873901367e-01,-6.156304106116294861e-02,5.431164503097534180e-01,-9.375938773155212402e-02,-2.167640030384063721e-01,1.338461041450500488e-01,-5.151088349521160126e-03,4.050503019243478775e-03,1.077508926391601562e-01,-1.648370772600173950e-01,4.048792421817779541e-01,-2.275456041097640991e-01,2.493622601032257080e-01,1.792824268341064453e-01,-1.768611371517181396e-01,-1.558017283678054810e-01,-2.139806002378463745e-01,2.453857213258743286e-01,1.055535897612571716e-01,-8.224949985742568970e-02,-1.932869702577590942e-01,-1.023524701595306396e-01,2.384584993124008179e-01,1.190088614821434021e-01,-1.670893430709838867e-01,-8.611580729484558105e-02,3.634195327758789062e-01,-9.400659054517745972e-02,1.524042487144470215e-01,-4.763916730880737305e-01,-2.156643420457839966e-01,3.581993579864501953e-01,-6.140507757663726807e-02,-8.185080438852310181e-02,-4.302364587783813477e-01,-2.247475087642669678e-01,-5.142289996147155762e-01,-8.371800184249877930e-02,1.851349622011184692e-01,-9.439541399478912354e-02,2.722680335864424706e-03,3.434658348560333252e-01,2.510423064231872559e-01,9.704674035310745239e-02,8.312079310417175293e-02,1.388128101825714111e-01,2.982578240334987640e-02,2.951108217239379883e-01,-1.625814884901046753e-01,2.667146502062678337e-03,1.846055388450622559e-01,-1.708212345838546753e-01,-1.034444645047187805e-01,6.157199665904045105e-02,1.209721714258193970e-01,2.712399661540985107e-01,1.478773355484008789e-01,-3.648813068866729736e-01,1.276854276657104492e-01,-5.044354125857353210e-02,6.553547829389572144e-02,3.569590151309967041e-01,-3.311084955930709839e-02,2.138561159372329712e-01,1.659152060747146606e-01,1.200124546885490417e-01,1.354069709777832031e-01,3.181863725185394287e-01,1.354280263185501099e-01,-1.738906651735305786e-02,-2.174741029739379883e-01,-3.192476555705070496e-02,1.337137222290039062e-01,-2.171286046504974365e-01,4.430650174617767334e-02,3.909569382667541504e-01,-1.834360808134078979e-01,-1.477032154798507690e-01,-1.778633147478103638e-01,-2.088583856821060181e-01,4.062716383486986160e-03,-6.877088453620672226e-03,-2.404534667730331421e-01,3.358641266822814941e-01,-2.232310771942138672e-01,1.762976050376892090e-01,1.593170613050460815e-01,1.607887148857116699e-01,8.583563379943370819e-03,-1.502549350261688232e-01,3.226462006568908691e-01,-2.920730710029602051e-01,-5.330673605203628540e-02,1.376997232437133789e-01,-1.936230063438415527e-01,1.146084070205688477e-01,-2.298300564289093018e-01,1.016789376735687256e-01,-3.253726363182067871e-01,-3.858560919761657715e-01,-4.949283227324485779e-02,9.995003044605255127e-02,3.523819521069526672e-02,-2.464450299739837646e-01,-2.524585425853729248e-01,3.427428603172302246e-01,1.003219932317733765e-01,2.052176930010318756e-02,3.354894816875457764e-01,1.137654036283493042e-01,-3.518239781260490417e-02,-1.483924239873886108e-01,9.135308116674423218e-02,2.854744791984558105e-01
-5.316622182726860046e-02,3.790130466222763062e-02,9.423361718654632568e-02,1.245710551738739014e-01,-1.931749880313873291e-01,2.883850596845149994e-02,-8.849152922630310059e-02,-8.121247589588165283e-02,1.389608811587095261e-02,-1.473375856876373291e-01,-8.297995477914810181e-02,-3.288952112197875977e-01,-1.568192988634109497e-01,8.365828543901443481e-02,1.053282767534255981e-01,1.580612510442733765e-01,-1.420916467905044556e-01,2.431492805480957031e-01,-1.024655029177665710e-01,2.214270830154418945e-01,1.143207773566246033e-01,-6.320285610854625702e-03,-2.785457670688629150e-02,3.422584012150764465e-02,-8.400566130876541138e-02,7.499106228351593018e-02,-1.959821134805679321e-01,-4.091583192348480225e-02,-2.498853951692581177e-02,8.861472457647323608e-02,-4.563376680016517639e-02,1.785608828067779541e-01,-3.649781690910458565e-03,4.690916463732719421e-02,1.018906943500041962e-02,1.271722465753555298e-02,-3.741909563541412354e-02,8.454980701208114624e-02,-3.006121888756752014e-02,1.113316267728805542e-01,1.014407910406589508e-02,1.627315431833267212e-01,7.832205295562744141e-02,-1.609163731336593628e-01,1.035013049840927124e-01,1.665177196264266968e-01,-2.916936278343200684e-01,-2.426199764013290405e-01,1.960028894245624542e-02,2.141725970432162285e-03,-1.525355726480484009e-01,-2.727665472775697708e-03,1.345483660697937012e-01,1.370054017752408981e-02,-1.659630984067916870e-01,7.670817524194717407e-02,6.906521972268819809e-03,4.894319176673889160e-02,-8.047974668443202972e-03,2.443015808239579201e-03,-1.264773607254028320e-01,-6.474388390779495239e-02,1.416310369968414307e-01,5.689249187707901001e-02,6.136031821370124817e-02,1.747522386722266674e-03,-2.448906153440475464e-01,1.023489683866500854e-01,9.185238182544708252e-02,-1.577579975128173828e-02,4.613568261265754700e-02,-3.091093711555004120e-02,-6.790821254253387451e-02,1.254649460315704346e-01,1.112287417054176331e-01,2.037453949451446533e-01,-1.773642003536224365e-01,1.001930087804794312e-01,6.600742042064666748e-02,-1.404466331005096436e-01,-1.563356444239616394e-02,1.229898259043693542e-01,-5.419824272394180298e-02,-6.218259781599044800e-02,2.408028766512870789e-02,-2.023182623088359833e-02,8.340158313512802124e-02,-1.608072966337203979e-01,7.100496906787157059e-03,-1.885895244777202606e-02,-7.111948728561401367e-02,1.399390399456024170e-01,-2.823140025138854980e-01,-1.418968588113784790e-01,-1.409353911876678467e-01,-9.708910435438156128e-02,-7.179731130599975586e-02,1.754103302955627441e-01,7.233331352472305298e-02,6.371398339979350567e-04,8.716288208961486816e-02,1.361369341611862183e-01,4.873666330240666866e-04,-8.413471281528472900e-02,-5.233299359679222107e-02,-1.569622159004211426e-01,2.955515496432781219e-02,-3.264621645212173462e-02,9.619012475013732910e-03,4.561816155910491943e-02,1.267634928226470947e-01,-7.684858143329620361e-02,-3.188798204064369202e-02,-1.639442890882492065e-01,1.276846826076507568e-01,-8.429273217916488647e-02,2.878142893314361572e-02,2.043706132099032402e-03,7.805295288562774658e-02,8.200125396251678467e-02,-1.942932456731796265e-01,-3.717072308063507080e-02,1.328752189874649048e-01,6.308034062385559082e-02,-1.479904204607009888e-01,5.704784765839576721e-02,-1.130108013749122620e-01,-7.830164395272731781e-03,-1.053415238857269287e-01,-7.000583410263061523e-02,-2.969805710017681122e-02,2.649172395467758179e-02,8.171159774065017700e-02,2.146028541028499603e-02,3.431204333901405334e-02,4.994275793433189392e-02,1.999618709087371826e-01,8.740940131247043610e-03,4.359152633696794510e-03,5.316555872559547424e-02,5.049240216612815857e-02,-1.128878369927406311e-01,9.419381618499755859e-02,-5.892432853579521179e-02,7.645475119352340698e-02,1.308349221944808960e-01,-4.776580259203910828e-02,-3.115664795041084290e-02,-2.158460021018981934e-02,6.340519338846206665e-02,1.217671930789947510e-01,6.640705466270446777e-02,-3.774848207831382751e-02,7.507123053073883057e-02,-2.203336209058761597e-01,9.443870931863784790e-02,-1.302880495786666870e-01,9.659493225626647472e-04,9.130235016345977783e-02,1.467348337173461914e-01,-3.571509942412376404e-02,-1.968200691044330597e-02,-1.591310650110244751e-01,7.152830064296722412e-02,1.986140012741088867e-01,-7.349397242069244385e-02,9.907315671443939209e-02,2.204650044441223145e-01,-1.960962312296032906e-03,-6.737811118364334106e-02,-1.130649000406265259e-01,-4.992065951228141785e-02,1.197114512324333191e-01,-1.159260869026184082e-01,-3.306168317794799805e-02,-4.601502791047096252e-03,4.027788527309894562e-03,-2.068873308598995209e-02,-8.110845834016799927e-02,2.258032560348510742e-01,2.322807759046554565e-01,-7.261303067207336426e-02,-1.193963438272476196e-01,-1.529012769460678101e-01,7.868072390556335449e-02,3.515572845935821533e-02,1.328068077564239502e-01,3.857008181512355804e-03,1.352507025003433228e-01,-2.106312848627567291e-02,-1.756803132593631744e-02,1.850843057036399841e-02,5.372258368879556656e-03,-7.442568987607955933e-02,-3.166242735460400581e-03,-1.385200396180152893e-02,-9.769558161497116089e-02,-7.485657930374145508e-02,8.765273541212081909e-02,-5.884911864995956421e-03
-3.068750537931919098e-02,1.633672267198562622e-01,2.343957871198654175e-02,-3.277938812971115112e-02,-1.647722125053405762e-01,4.682530462741851807e-02,-5.423597246408462524e-02,1.105867251753807068e-01,1.326977461576461792e-01,1.384944170713424683e-01,1.254015117883682251e-01,1.008495837450027466e-01,1.524768471717834473e-01,-2.563451528549194336e-01,1.835639476776123047e-01,-1.200836151838302612e-01,-7.734158635139465332e-02,1.347018312662839890e-02,-2.573578990995883942e-02,-1.230718791484832764e-01,-1.704616704955697060e-03,4.850129038095474243e-02,2.588812410831451416e-01,-9.412796050310134888e-02,-9.404403716325759888e-02,7.354249060153961182e-02,4.576858133077621460e-02,-4.729710519313812256e-02,-3.102864623069763184e-01,-1.634765118360519409e-01,5.948347970843315125e-03,-1.029310226440429688e-01,-1.373000741004943848e-01,2.445268779993057251e-01,-1.481771655380725861e-02,1.376284807920455933e-01,1.744475960731506348e-01,-4.217696189880371094e-02,-2.105609141290187836e-02,-9.870934486389160156e-02,2.187944352626800537e-01,-1.617775559425354004e-01,-1.797424256801605225e-01,9.533067792654037476e-02,1.205093562602996826e-01,-2.545389831066131592e-01,3.463601171970367432e-01,1.010007038712501526e-01,-5.591601505875587463e-02,3.496563807129859924e-02,1.717699505388736725e-02,8.984561264514923096e-02,-2.298184204846620560e-03,-3.798940032720565796e-02,2.403711825609207153e-01,-7.151556015014648438e-02,1.425315719097852707e-02,8.866760134696960449e-02,1.805724650621414185e-01,-2.596368826925754547e-02,2.500298619270324707e-01,-1.474713832139968872e-01,-1.663992553949356079e-01,-5.556971300393342972e-03,-1.528193354606628418e-01,-7.456876337528228760e-02,2.317772805690765381e-01,-4.625405743718147278e-02,-8.881827234290540218e-04,-2.221191115677356720e-02,-2.158694416284561157e-01,-1.779496967792510986e-01,-1.006494741886854172e-02,8.313158899545669556e-02,-1.548944264650344849e-01,8.831607550382614136e-02,-1.931048929691314697e-02,1.099215522408485413e-01,5.730155855417251587e-02,9.500770270824432373e-02,7.819324731826782227e-02,3.390103578567504883e-02,-5.302935373038053513e-03,-1.134969890117645264e-01,-5.261841788887977600e-02,6.968440115451812744e-02,1.140906810760498047e-01,1.430921722203493118e-02,-8.657535165548324585e-02,-1.256538331508636475e-01,6.069147493690252304e-04,1.487644314765930176e-01,2.286713272333145142e-01,-4.625691473484039307e-02,2.174688577651977539e-01,-1.441608369350433350e-01,2.740315720438957214e-02,6.123295798897743225e-02,3.692691773176193237e-02,-8.277532458305358887e-02,5.349307321012020111e-03,4.367166757583618164e-02,-1.096329540014266968e-01,-1.075808927416801453e-01,1.784485578536987305e-01,-1.028981432318687439e-01,1.225602775812149048e-01,1.014578789472579956e-01,1.330731511116027832e-01,-5.580813437700271606e-02,-1.394389569759368896e-01,-7.929027080535888672e-03,-8.453904837369918823e-02,1.163940206170082092e-01,-2.295075729489326477e-02,5.179123207926750183e-02,8.280009962618350983e-03,-3.720667213201522827e-02,4.336671158671379089e-02,-8.559469878673553467e-02,6.191324070096015930e-02,9.155989438295364380e-02,3.486650064587593079e-02,2.869837684556841850e-03,3.841805830597877502e-02,-5.376869346946477890e-03,4.911085218191146851e-02,-7.725141197443008423e-02,1.269777654670178890e-03,4.565292969346046448e-02,9.230341762304306030e-02,8.439083397388458252e-02,-3.120412528514862061e-01,5.382507666945457458e-02,-3.545943275094032288e-02,-1.994962245225906372e-02,-8.771783858537673950e-02,7.525719702243804932e-02,-1.111530438065528870e-01,-2.004381269216537476e-01,1.238840520381927490e-01,8.520407229661941528e-02,-1.878843009471893311e-01,5.283618718385696411e-02,3.569876030087471008e-02,2.773412875831127167e-02,-1.115978434681892395e-01,9.608478844165802002e-02,9.887991473078727722e-03,1.066698059439659119e-01,1.725753955543041229e-02,-8.950036019086837769e-02,-1.899992227554321289e-01,-1.581369340419769287e-01,3.126965165138244629e-01,-9.322160482406616211e-02,1.536780595779418945e-01,-1.085642129182815552e-01,-4.408413469791412354e-01,1.147872582077980042e-01,-9.046670794486999512e-02,-2.098929733037948608e-01,4.900543391704559326e-02,-3.164494037628173828e-02,1.323337405920028687e-01,1.687717996537685394e-02,3.459382336586713791e-03,5.282087624073028564e-02,-8.413075469434261322e-03,5.112626776099205017e-02,1.668590605258941650e-01,-9.822228550910949707e-02,-1.603504270315170288e-01,-2.158789932727813721e-01,-5.314378533512353897e-03,2.810902595520019531e-01,4.983717203140258789e-02,2.337289750576019287e-01,8.200202882289886475e-02,-2.439949288964271545e-02,-1.194250881671905518e-01,1.491034626960754395e-01,1.814288794994354248e-01,-5.536725744605064392e-03,1.388788521289825439e-01,2.715130709111690521e-02,8.631379902362823486e-02,3.820912912487983704e-02,-2.142884433269500732e-01,-9.767149388790130615e-02,1.204623579978942871e-01,-5.639835819602012634e-02,4.345691204071044922e-02,-4.570078104734420776e-02,-2.950863540172576904e-01,-1.024108752608299255e-01,-4.656038433313369751e-02,1.292424649000167847e-01,2.299637719988822937e-02,-1.255728155374526978e-01
-1.629656553268432617e-01,2.081474512815475464e-01,6.840248405933380127e-02,-1.732819527387619019e-01,2.086160518229007721e-02,1.577773392200469971e-01,1.263075917959213257e-01,-9.181756526231765747e-02,7.799883186817169189e-02,-8.582969754934310913e-02,2.299788445234298706e-01,1.955003291368484497e-01,2.222101576626300812e-02,8.407818526029586792e-02,-1.002694964408874512e-01,-1.378263235092163086e-01,1.118343397974967957e-01,-1.367138978093862534e-02,6.950394064188003540e-02,-3.109173662960529327e-02,-3.876993432641029358e-02,1.410233508795499802e-02,6.787051260471343994e-02,-1.894426643848419189e-01,3.672746568918228149e-02,-1.432121265679597855e-02,1.574599146842956543e-01,-1.170300971716642380e-02,1.889142692089080811e-01,-9.860917925834655762e-02,-7.548463344573974609e-02,-9.614669531583786011e-02,5.706465244293212891e-02,-1.375495046377182007e-01,4.699599370360374451e-02,1.009099378279643133e-05,-6.723638623952865601e-02,-4.618823528289794922e-02,-5.754875764250755310e-02,-3.723885864019393921e-02,1.852089762687683105e-01,1.343868523836135864e-01,1.531804949045181274e-01,7.056023459881544113e-03,-3.908899426460266113e-02,2.827776372432708740e-01,1.008787099272012711e-02,-2.299121022224426270e-01,5.707039963454008102e-03,-1.944443732500076294e-01,-1.991630941629409790e-01,9.621665813028812408e-03,8.164300769567489624e-02,2.170116901397705078e-01,-2.830425091087818146e-02,1.896635591983795166e-01,-5.543750151991844177e-02,-2.337871342897415161e-01,-1.196372136473655701e-01,2.947668544948101044e-02,1.092692539095878601e-01,2.083182632923126221e-01,6.126840412616729736e-02,1.227193176746368408e-01,1.199285127222537994e-02,2.239824384450912476e-01,-1.160656884312629700e-01,-2.262147702276706696e-02,-4.736321046948432922e-02,1.297878921031951904e-01,3.002091310918331146e-02,-2.190677821636199951e-02,7.684625685214996338e-02,-6.121983379125595093e-02,7.523365318775177002e-02,2.672635763883590698e-02,1.098367273807525635e-01,-6.077731400728225708e-02,-1.485114842653274536e-01,6.986264884471893311e-02,1.049528196454048157e-01,-1.884689033031463623e-01,-1.774493455886840820e-01,5.599492415785789490e-02,3.759008273482322693e-02,-6.764587014913558960e-02,1.683273911476135254e-02,2.363719791173934937e-01,4.020719230175018311e-02,7.877075672149658203e-02,1.889195740222930908e-01,-1.839191019535064697e-01,-7.975410670042037964e-03,1.681512966752052307e-02,-1.152318343520164490e-01,-9.825750440359115601e-02,3.099845722317695618e-03,-1.800529509782791138e-01,-1.888880431652069092e-01,5.937692150473594666e-02,-2.407378554344177246e-01,1.884874999523162842e-01,2.339706867933273315e-01,-3.080552220344543457e-01,-9.053637832403182983e-02,7.712878286838531494e-02,1.390220373868942261e-01,2.665512450039386749e-02,-9.002228081226348877e-02,6.645892560482025146e-02,1.554600745439529419e-01,8.766133338212966919e-02,-2.620567753911018372e-02,1.413786411285400391e-01,3.494402393698692322e-02,1.794247180223464966e-01,1.857380196452140808e-02,-1.206618994474411011e-01,-7.935195416212081909e-02,-1.180766746401786804e-01,1.164123192429542542e-01,1.079707145690917969e-01,6.760394573211669922e-02,-7.539622485637664795e-02,6.013289093971252441e-02,2.095304615795612335e-02,9.628005325794219971e-02,-1.367732733488082886e-01,1.112257093191146851e-01,-1.658076420426368713e-02,-7.497199624776840210e-02,9.621105343103408813e-02,-1.931061223149299622e-02,-1.506091207265853882e-01,-1.986839473247528076e-01,1.597170904278755188e-02,-5.673369020223617554e-02,-1.364547163248062134e-01,-8.155372738838195801e-02,-7.346130907535552979e-02,-4.184106364846229553e-03,2.283631414175033569e-01,-2.484703436493873596e-02,1.425297707319259644e-01,-8.818224072456359863e-03,-4.532326385378837585e-02,2.427411079406738281e-02,-2.346571348607540131e-02,1.128622442483901978e-01,-3.231090307235717773e-01,3.322468325495719910e-02,-1.727210730314254761e-01,1.318117082118988037e-01,4.494512081146240234e-02,2.142623662948608398e-01,1.420742869377136230e-01,1.963530480861663818e-01,-1.388105452060699463e-01,1.167188212275505066e-02,-1.141306608915328979e-01,5.940447747707366943e-02,1.333709508180618286e-01,6.359210703521966934e-03,3.075795993208885193e-02,-1.995579004287719727e-01,9.637882560491561890e-02,5.363842938095331192e-03,-1.424244195222854614e-01,2.370961159467697144e-01,1.034598350524902344e-01,1.381648778915405273e-01,6.514346599578857422e-02,6.860706955194473267e-02,2.215607464313507080e-01,-2.483711205422878265e-02,-1.855608075857162476e-01,4.748003184795379639e-02,-1.684804558753967285e-01,1.998932808637619019e-01,-1.723646968603134155e-01,-1.224276199936866760e-01,-7.688967138528823853e-02,2.011011168360710144e-02,-6.253222376108169556e-02,1.708663851022720337e-01,9.189303219318389893e-02,-1.177426353096961975e-01,-1.161831244826316833e-01,-2.538279592990875244e-01,1.026716232299804688e-01,3.083555400371551514e-01,-5.876727774739265442e-02,-1.774139851331710815e-01,1.396822035312652588e-01,-1.110950559377670288e-01,-4.747344553470611572e-02,-1.904236897826194763e-02,4.404825344681739807e-02,-1.506965607404708862e-01,1.872723847627639771e-01
-1.761940270662307739e-01,-4.851651191711425781e-02,1.429045796394348145e-01,-2.207082882523536682e-02,2.190127819776535034e-01,-2.067931294441223145e-01,-2.815254628658294678e-01,4.640592634677886963e-02,-4.267503619194030762e-01,1.039069220423698425e-01,2.721222043037414551e-01,3.251398503780364990e-01,2.291103452444076538e-01,7.815708220005035400e-02,2.143753170967102051e-01,-2.276333719491958618e-01,9.941793978214263916e-02,5.495848879218101501e-02,9.927821904420852661e-02,-2.338191121816635132e-01,-7.571835815906524658e-02,3.829580545425415039e-02,2.037488222122192383e-01,1.148568242788314819e-01,-2.655608765780925751e-02,1.137328818440437317e-01,3.678315505385398865e-02,4.628850519657135010e-02,-2.127127163112163544e-02,4.678770154714584351e-02,2.190905064344406128e-01,-1.272903531789779663e-01,-8.755554258823394775e-02,2.028255760669708252e-01,-1.875382363796234131e-01,9.883280098438262939e-02,5.251786857843399048e-02,-1.123389080166816711e-01,-4.171302914619445801e-02,-1.028237789869308472e-01,1.066738888621330261e-01,1.207808852195739746e-01,-4.607245326042175293e-02,8.659984171390533447e-02,1.168059036135673523e-01,-4.577887058258056641e-02,2.356339246034622192e-01,-8.393301069736480713e-02,-3.994514048099517822e-02,-6.925995647907257080e-02,8.224299550056457520e-02,-1.571747064590454102e-01,9.272025525569915771e-02,1.811978518962860107e-01,1.356633007526397705e-02,-9.216569364070892334e-02,-8.287960290908813477e-02,-7.824265956878662109e-02,-5.116480588912963867e-02,-1.986641138792037964e-01,1.144110783934593201e-01,9.365350008010864258e-02,-4.603569954633712769e-02,-2.542974650859832764e-01,-6.959231197834014893e-02,-2.744137644767761230e-01,1.378417313098907471e-01,-1.214364022016525269e-01,1.026839092373847961e-01,-2.241982966661453247e-01,-1.928451098501682281e-02,1.960019916296005249e-01,2.128936648368835449e-01,2.660655044019222260e-02,-2.202807962894439697e-01,1.268626451492309570e-01,-3.130606114864349365e-01,6.048566102981567383e-02,8.848235011100769043e-02,1.919585764408111572e-01,1.527170240879058838e-01,-3.079163469374179840e-02,3.106313943862915039e-01,3.596501052379608154e-02,-2.269552946090698242e-01,1.208060309290885925e-01,8.072106540203094482e-02,1.671773195266723633e-01,-3.024184890091419220e-02,-2.082204818725585938e-02,-1.502658575773239136e-01,7.215200364589691162e-02,1.569396406412124634e-01,3.063068166375160217e-02,1.127040684223175049e-01,4.606074839830398560e-02,1.444401890039443970e-01,-1.097289472818374634e-01,8.145706355571746826e-02,9.733593463897705078e-02,7.176519930362701416e-02,-9.325402230024337769e-02,1.506823003292083740e-01,5.639078095555305481e-02,-8.418527245521545410e-02,2.876541316509246826e-01,1.981469839811325073e-01,2.222437709569931030e-01,1.767735183238983154e-01,5.038559436798095703e-02,-1.428293883800506592e-01,1.131345480680465698e-01,-6.335438787937164307e-02,2.409609034657478333e-02,-1.090144738554954529e-02,9.130427241325378418e-02,2.097546309232711792e-01,4.316321760416030884e-02,2.718625590205192566e-02,-2.061719596385955811e-01,1.163078919053077698e-01,1.472642570734024048e-01,-2.453786088153719902e-03,1.414182782173156738e-01,1.399249434471130371e-01,-2.627708762884140015e-02,-7.134639192372560501e-03,8.810023963451385498e-02,-1.807269752025604248e-01,-7.538966834545135498e-02,7.613572478294372559e-02,-5.973482504487037659e-03,-1.951440870761871338e-01,-5.770156159996986389e-02,-1.456482857465744019e-01,-8.884952962398529053e-02,-8.707249909639358521e-02,1.432197391986846924e-01,1.375566720962524414e-01,1.430084705352783203e-01,-1.338055822998285294e-02,-5.805021151900291443e-03,9.070833772420883179e-02,-9.446637332439422607e-02,9.730796329677104950e-03,2.341454029083251953e-01,5.634277313947677612e-02,1.186617091298103333e-01,-3.632672503590583801e-02,3.909809049218893051e-03,-2.710541784763336182e-01,1.296302955597639084e-02,-1.658015139400959015e-02,5.664850398898124695e-02,9.942346066236495972e-02,-3.173864260315895081e-02,2.729294002056121826e-01,5.911195650696754456e-02,7.796542346477508545e-02,1.155435070395469666e-01,1.737927645444869995e-01,2.566060423851013184e-01,1.431092917919158936e-01,1.087616570293903351e-02,-4.044032469391822815e-02,5.755381286144256592e-02,5.004793033003807068e-02,2.161700511351227760e-03,1.738971620798110962e-01,-1.055856347084045410e-01,3.845435380935668945e-02,2.631531357765197754e-01,-1.287608593702316284e-01,1.521575152873992920e-01,1.206620559096336365e-01,2.747327685356140137e-01,1.820408701896667480e-01,3.729589283466339111e-01,1.375230550765991211e-01,-3.505657985806465149e-02,-2.174943238496780396e-01,-3.855363279581069946e-02,9.289120137691497803e-02,2.981875240802764893e-01,1.037872359156608582e-01,1.963799633085727692e-02,-1.935561150312423706e-01,-1.569850146770477295e-01,-1.052015423774719238e-01,1.588777005672454834e-01,-1.469155400991439819e-01,1.152308285236358643e-01,5.627804249525070190e-02,-3.978352621197700500e-02,2.292099595069885254e-01,-7.938776165246963501e-02,-1.130516231060028076e-01,1.963501982390880585e-02,2.507755458354949951e-01,-1.245279610157012939e-01
-4.650109261274337769e-02,-9.388673305511474609e-02,8.955308794975280762e-02,4.016636312007904053e-02,2.602192759513854980e-02,-8.900199830532073975e-02,-1.736167073249816895e-02,7.199712097644805908e-02,1.276493519544601440e-01,-7.217420637607574463e-02,-3.052049875259399414e-02,1.122355908155441284e-01,-9.528049081563949585e-02,4.500535130500793457e-02,4.408714175224304199e-02,-1.279090344905853271e-01,-4.839279502630233765e-02,-8.632173389196395874e-02,-1.168012619018554688e-01,-2.655925601720809937e-02,4.972860217094421387e-03,-5.935034155845642090e-02,-4.312098026275634766e-03,7.819993793964385986e-02,-9.752377867698669434e-02,-1.659239828586578369e-02,-3.811084479093551636e-02,4.483774304389953613e-02,1.227959990501403809e-02,-1.320070475339889526e-01,-9.281420707702636719e-02,5.715979635715484619e-02,-9.880257397890090942e-02,-1.113673895597457886e-01,-5.987022817134857178e-02,-8.425216376781463623e-02,3.759145736694335938e-02,-1.304508596658706665e-01,-1.841709017753601074e-02,-3.578918427228927612e-02,3.210414946079254150e-02,-1.282680779695510864e-01,1.036384999752044678e-01,-6.390574574470520020e-02,-1.260176450014114380e-01,-5.672920495271682739e-02,-1.045283004641532898e-01,-4.580607265233993530e-02,-6.841810792684555054e-02,-1.230471283197402954e-01,1.689018309116363525e-02,-1.299628615379333496e-01,7.177881896495819092e-02,7.520192861557006836e-02,-9.084099531173706055e-02,1.121859997510910034e-01,1.282666474580764771e-01,3.277893364429473877e-02,8.946040272712707520e-02,4.304774105548858643e-02,-2.641186118125915527e-02,8.309657871723175049e-02,2.190712094306945801e-02,-7.121963053941726685e-02,1.632128655910491943e-02,-6.757131218910217285e-02,3.406360745429992676e-03,-8.542132377624511719e-02,-4.298675805330276489e-02,6.835944950580596924e-02,6.974790990352630615e-02,3.788961470127105713e-02,-1.189152970910072327e-01,8.155669271945953369e-02,1.928672194480895996e-03,9.644638001918792725e-02,7.087157666683197021e-02,1.174677014350891113e-01,-1.857951283454895020e-03,1.082207709550857544e-01,-1.149526983499526978e-01,-8.472336828708648682e-02,-1.362653821706771851e-02,2.909962832927703857e-02,8.877950906753540039e-02,-4.038378596305847168e-03,-1.022445261478424072e-01,-1.177594885230064392e-01,2.329692244529724121e-03,1.280083507299423218e-01,6.274659931659698486e-02,9.813712537288665771e-02,-9.726463258266448975e-02,2.027110755443572998e-02,5.236926674842834473e-02,9.770035743713378906e-02,-1.188046187162399292e-01,-1.171618849039077759e-01,-1.868376135826110840e-02,5.960494279861450195e-02,-5.418074131011962891e-02,-6.204005330801010132e-02,-1.120425462722778320e-01,7.929192483425140381e-02,1.695811748504638672e-03,7.988360524177551270e-02,-1.133592501282691956e-01,-3.319503366947174072e-02,-9.294854104518890381e-02,2.855306863784790039e-02,-9.952533245086669922e-02,-4.485153406858444214e-02,1.302464753389358521e-01,6.196151673793792725e-02,9.157590568065643311e-02,-2.969379723072052002e-02,1.211476325988769531e-02,6.089259684085845947e-02,9.840705990791320801e-02,8.952088654041290283e-02,8.713322877883911133e-02,8.234852552413940430e-02,-5.144813656806945801e-02,-4.256130009889602661e-02,2.837544679641723633e-02,-7.234223186969757080e-03,9.482675790786743164e-02,3.424192965030670166e-02,8.019749820232391357e-02,6.114272773265838623e-02,1.249994188547134399e-01,-1.163585186004638672e-01,-9.905079007148742676e-02,-2.869734168052673340e-02,-2.761987596750259399e-02,1.201124638319015503e-01,-5.014462769031524658e-02,3.895366191864013672e-02,-1.445844024419784546e-02,5.276758968830108643e-02,-5.815044790506362915e-02,-6.132934987545013428e-02,-1.066605299711227417e-01,-8.703734725713729858e-02,7.762432098388671875e-02,2.125959098339080811e-02,-6.333928555250167847e-02,-1.078409031033515930e-01,3.188695013523101807e-02,1.403616368770599365e-02,1.799926161766052246e-02,-1.027098745107650757e-01,-1.219005808234214783e-01,1.268924325704574585e-01,-6.640363484621047974e-02,2.615363895893096924e-02,-6.321959942579269409e-02,9.470525383949279785e-02,-8.783297240734100342e-02,-6.152699887752532959e-02,3.468541800975799561e-02,-1.084662079811096191e-01,-1.238954961299896240e-01,1.005353629589080811e-01,5.975747108459472656e-02,-5.146612226963043213e-02,-1.687241345643997192e-02,-8.500905334949493408e-02,8.750669658184051514e-02,1.267268508672714233e-01,-1.190584078431129456e-01,-9.535433351993560791e-02,4.268403351306915283e-02,2.367390692234039307e-02,8.275406062602996826e-02,5.376379191875457764e-02,-2.959602326154708862e-02,7.605731487274169922e-02,-1.167378574609756470e-02,-8.098264038562774658e-02,-9.883566945791244507e-02,7.301630079746246338e-02,-1.114173009991645813e-01,4.898235201835632324e-03,-1.285321116447448730e-01,-5.994400382041931152e-02,-1.092515960335731506e-01,-1.310318261384963989e-01,-1.557815819978713989e-02,1.204322725534439087e-01,-6.971919536590576172e-02,-5.449548363685607910e-03,-9.626311808824539185e-02,-1.257390230894088745e-01,7.223296165466308594e-02,1.214617639780044556e-01,-2.796960622072219849e-02,5.575418472290039062e-04,4.036313295364379883e-02,2.513287961483001709e-02
1.373300105333328247e-01,2.278066799044609070e-02,5.231343209743499756e-02,-2.405247837305068970e-02,-1.743567436933517456e-01,1.024678647518157959e-01,7.182356715202331543e-02,2.261471897363662720e-01,1.510762572288513184e-01,8.963970839977264404e-02,8.530099689960479736e-02,1.246405988931655884e-01,-4.938846826553344727e-02,-1.695473343133926392e-01,-2.258769869804382324e-01,-1.902771927416324615e-02,-1.557410955429077148e-01,8.028938621282577515e-02,3.152994811534881592e-02,-6.246259808540344238e-02,6.227661855518817902e-03,-3.561088442802429199e-02,1.580260545015335083e-01,2.295381156727671623e-03,-4.124395549297332764e-03,-2.340185195207595825e-01,-4.215566068887710571e-02,1.360841989517211914e-01,-9.502606093883514404e-02,-7.464382797479629517e-03,1.548468917608261108e-01,-4.056357443332672119e-01,2.655469253659248352e-02,3.832263499498367310e-02,8.206327259540557861e-02,1.927658617496490479e-01,1.113609075546264648e-01,2.119159549474716187e-01,-2.676121592521667480e-01,-1.966008991003036499e-01,1.689438819885253906e-01,2.367921918630599976e-01,-2.875350713729858398e-01,8.902616798877716064e-02,7.134512811899185181e-02,-1.714034974575042725e-01,-1.141783781349658966e-03,-3.882675617933273315e-02,-2.805967628955841064e-01,-1.201502904295921326e-01,-1.266984343528747559e-01,3.630518540740013123e-02,-8.701539784669876099e-02,-1.631924360990524292e-01,7.396834343671798706e-02,1.344565674662590027e-02,-1.350468546152114868e-01,-1.473072618246078491e-01,6.731579452753067017e-02,1.218370497226715088e-01,-5.956302210688591003e-02,-2.089276760816574097e-01,5.457088723778724670e-02,1.644196920096874237e-03,-3.862084448337554932e-02,-2.050385326147079468e-01,-2.435913085937500000e-01,2.448144741356372833e-02,1.882030367851257324e-01,1.980363577604293823e-02,-1.550786644220352173e-01,6.570274382829666138e-02,-4.564892351627349854e-01,-1.859860122203826904e-01,-3.793160617351531982e-02,1.883123884908854961e-03,-1.389771550893783569e-01,3.697481751441955566e-02,-1.511961594223976135e-02,-5.469911731779575348e-03,1.191341504454612732e-01,-5.326884239912033081e-02,1.878240108489990234e-01,-8.417165279388427734e-02,-9.628413617610931396e-02,-2.392372637987136841e-01,-1.897988766431808472e-01,-1.411879658699035645e-01,-2.057598531246185303e-01,-6.425020843744277954e-02,4.232382029294967651e-02,5.853428971022367477e-03,6.882342696189880371e-02,-1.412110477685928345e-01,-1.890869587659835815e-01,-5.812921561300754547e-03,1.011748537421226501e-01,1.585725247859954834e-01,-3.002225048840045929e-02,-4.299519360065460205e-01,-1.419915705919265747e-01,6.287597864866256714e-02,-1.328461021184921265e-01,9.334219247102737427e-02,1.179021317511796951e-02,-2.060774117708206177e-01,-4.526454210281372070e-02,-1.584636233747005463e-02,-2.041644603013992310e-02,-3.106071949005126953e-01,-1.269855648279190063e-01,3.531967103481292725e-01,1.709441542625427246e-01,-1.024225354194641113e-01,4.567164927721023560e-02,-4.688758030533790588e-02,9.771257638931274414e-02,-2.677464187145233154e-01,-1.643013805150985718e-01,-2.865533530712127686e-01,1.816232204437255859e-01,-1.551736239343881607e-02,-1.036746278405189514e-01,-5.440722778439521790e-02,-1.971692442893981934e-01,-2.646164596080780029e-02,-8.690067566931247711e-03,-3.088750243186950684e-01,-2.606207132339477539e-01,1.533347517251968384e-01,-8.322717994451522827e-02,-2.294633239507675171e-01,-1.108014676719903946e-02,-8.968587964773178101e-03,5.227260291576385498e-02,-3.173761665821075439e-01,-1.370753049850463867e-01,-1.853971481323242188e-01,3.252309560775756836e-02,-6.540916860103607178e-02,6.534077972173690796e-02,2.014408446848392487e-02,-1.883855760097503662e-01,-1.020974218845367432e-01,-1.601116359233856201e-02,-6.961215287446975708e-02,-1.111701428890228271e-01,-2.857325077056884766e-01,1.928257495164871216e-01,-1.898216903209686279e-01,-1.825515739619731903e-02,4.901842400431632996e-02,3.185021281242370605e-01,-1.012108847498893738e-01,2.208312153816223145e-01,1.292459070682525635e-01,6.732997298240661621e-02,7.383269071578979492e-02,2.183122932910919189e-01,2.354941330850124359e-02,2.141356170177459717e-01,8.408515900373458862e-02,5.535909906029701233e-02,2.364804744720458984e-01,-6.410869210958480835e-02,2.093644738197326660e-01,1.168877407908439636e-01,-1.533313840627670288e-01,2.980208583176136017e-02,5.090858414769172668e-02,1.629127264022827148e-01,-6.025581806898117065e-02,-1.614233404397964478e-01,5.438537150621414185e-02,-1.565548926591873169e-01,1.202519014477729797e-01,-1.001375317573547363e-01,2.755779959261417389e-02,8.143536746501922607e-03,2.825457043945789337e-02,2.599636092782020569e-02,-3.654600083827972412e-01,4.080874845385551453e-02,-8.732506632804870605e-02,2.261461317539215088e-02,2.230419069528579712e-01,-1.855627596378326416e-01,-4.282120242714881897e-02,5.726789310574531555e-02,-2.549296803772449493e-02,-1.617941856384277344e-01,-1.924742758274078369e-01,7.486083544790744781e-03,1.091521605849266052e-01,4.019682109355926514e-02,-2.239500135183334351e-01,-1.248073205351829529e-01,1.688191592693328857e-01,-8.721298724412918091e-02,4.992133378982543945e-02
-2.293944507837295532e-01,4.013278484344482422e-01,-1.346231549978256226e-01,-1.879441551864147186e-02,9.568812698125839233e-02,3.009219467639923096e-01,-4.277310147881507874e-02,-1.857552528381347656e-01,1.469658315181732178e-02,-1.164770424365997314e-01,2.397691756486892700e-01,2.074553072452545166e-01,2.056632563471794128e-02,-1.530564725399017334e-01,4.999243095517158508e-02,-8.371337503194808960e-02,2.383534461259841919e-01,5.687325075268745422e-02,5.166896060109138489e-02,-3.376778960227966309e-01,-4.566256105899810791e-01,-5.482757464051246643e-02,5.932875722646713257e-02,-1.414644271135330200e-01,-8.686986565589904785e-02,-9.013158828020095825e-02,-6.645856052637100220e-02,-7.493903487920761108e-02,-1.351845264434814453e-01,-5.341693386435508728e-02,1.215164214372634888e-01,-1.530715227127075195e-01,-2.682991558685898781e-03,2.503659725189208984e-01,1.841539889574050903e-01,1.344427168369293213e-01,2.442098222672939301e-02,3.559967270120978355e-03,4.372199252247810364e-02,-4.013411700725555420e-02,3.507287502288818359e-01,2.645834684371948242e-01,-1.303448677062988281e-01,3.528413772583007812e-01,-1.831863820552825928e-02,3.396344184875488281e-01,-5.411217361688613892e-02,-1.508746761828660965e-02,1.229770779609680176e-01,-6.720970571041107178e-02,-1.158804446458816528e-01,-3.538582101464271545e-02,1.818263083696365356e-01,2.687908411026000977e-01,1.339031755924224854e-01,3.096197843551635742e-01,-1.902348101139068604e-01,-8.102637529373168945e-02,-2.171670086681842804e-02,7.246884703636169434e-02,3.371815979480743408e-01,-2.446449100971221924e-01,-2.869419157505035400e-01,1.212543901056051254e-02,-1.278966516256332397e-01,-1.845399662852287292e-02,-1.046358719468116760e-01,1.289498805999755859e-01,-2.585524916648864746e-01,1.407600492238998413e-01,-2.214612662792205811e-01,1.224565133452415466e-01,2.043058872222900391e-01,-1.978853046894073486e-01,-2.674271166324615479e-01,1.001204177737236023e-01,5.662865936756134033e-02,3.325813412666320801e-01,-2.493836730718612671e-01,2.524975836277008057e-01,1.423027515411376953e-01,-1.791855692863464355e-01,3.996281325817108154e-01,1.043815687298774719e-01,3.007990121841430664e-01,-1.160239893943071365e-02,-1.144792437553405762e-01,2.508178651332855225e-01,1.622715592384338379e-01,1.411923673003911972e-02,-9.128955751657485962e-02,-3.138163301628082991e-04,-3.122592344880104065e-03,-1.137907207012176514e-01,-1.445995122194290161e-01,6.382649391889572144e-02,1.530330479145050049e-01,1.843874901533126831e-01,-3.658103942871093750e-02,-1.044531464576721191e-01,1.545253843069076538e-01,-3.125429898500442505e-02,-1.228901743888854980e-01,3.174991533160209656e-02,-3.286073505878448486e-01,-6.133754551410675049e-02,2.707861661911010742e-01,-3.612686321139335632e-02,-8.841522037982940674e-02,-2.647920250892639160e-01,-4.430214688181877136e-02,-1.906682550907135010e-02,9.575427323579788208e-02,2.532796859741210938e-01,-1.158619970083236694e-01,2.909600436687469482e-01,-1.042145565152168274e-01,-1.645159423351287842e-01,-2.052721977233886719e-01,-1.517232805490493774e-01,2.393797039985656738e-01,3.579458594322204590e-01,1.534235328435897827e-01,-1.036142632365226746e-01,-9.471080452203750610e-02,1.820445954799652100e-01,2.739419601857662201e-02,-8.206523954868316650e-02,-2.170109450817108154e-01,-3.684072494506835938e-01,-1.118336915969848633e-01,-9.096519649028778076e-02,-1.168975234031677246e-01,-1.131177917122840881e-01,-1.433570683002471924e-01,-2.525702714920043945e-01,-2.211364358663558960e-01,-1.812695860862731934e-01,8.406214416027069092e-03,1.708812266588211060e-02,-6.129056960344314575e-02,-1.147260330617427826e-02,-1.096551716327667236e-01,1.412748824805021286e-04,6.248698383569717407e-02,-5.001694709062576294e-02,-2.810576371848583221e-02,-6.379499286413192749e-02,1.375236511230468750e-01,-2.569037377834320068e-01,-7.442677021026611328e-02,-3.020744919776916504e-01,-2.951077818870544434e-01,-9.625568240880966187e-02,1.221240672748535872e-04,-1.929695457220077515e-01,2.117040753364562988e-01,1.692906394600868225e-02,-1.987425386905670166e-01,1.885124593973159790e-01,1.010649800300598145e-01,2.053433656692504883e-02,1.398518383502960205e-01,4.079655408859252930e-01,7.232654374092817307e-03,1.734157353639602661e-01,-1.643402129411697388e-02,-5.593527108430862427e-02,1.670769453048706055e-01,-1.100587006658315659e-02,1.326240748167037964e-01,-2.960594892501831055e-01,-1.924818754196166992e-01,-7.645731419324874878e-02,5.397242493927478790e-03,-7.276932150125503540e-02,1.137365698814392090e-01,-1.320048514753580093e-02,2.453404814004898071e-01,-2.451449930667877197e-01,-1.283638477325439453e-01,-5.050325021147727966e-02,3.349838256835937500e-01,3.049885295331478119e-02,4.992839321494102478e-02,3.515430688858032227e-01,-7.787798345088958740e-02,5.530629679560661316e-02,-3.189918696880340576e-01,-5.745317786931991577e-02,1.983043849468231201e-01,-6.845982372760772705e-02,-1.176314726471900940e-01,1.436006724834442139e-01,1.109712198376655579e-01,-9.823028929531574249e-03,2.394044995307922363e-01,1.451023519039154053e-01,9.263910353183746338e-02,1.481984257698059082e-01
-2.404158115386962891e-01,-1.065813302993774414e-01,-1.817010343074798584e-01,4.517579451203346252e-02,-8.369793184101581573e-03,3.148035705089569092e-01,-2.592519298195838928e-02,-1.519987583160400391e-01,1.544590294361114502e-01,-1.244018301367759705e-01,5.209071189165115356e-02,7.115770131349563599e-02,5.391589924693107605e-02,-1.034938767552375793e-01,-6.913224607706069946e-02,5.844590812921524048e-02,1.774884760379791260e-02,-1.634434610605239868e-01,6.367234047502279282e-03,-1.963577419519424438e-01,9.544276446104049683e-02,-2.669653594493865967e-01,-8.358751982450485229e-02,-8.872702717781066895e-02,-4.108327254652976990e-02,3.285429254174232483e-02,7.112455554306507111e-03,-1.665324568748474121e-01,-9.241589903831481934e-02,-3.551230579614639282e-02,2.487613409757614136e-01,-1.606178134679794312e-01,-3.539303690195083618e-02,2.823800742626190186e-01,-4.674298223108053207e-03,-6.534168869256973267e-02,2.073879539966583252e-01,2.649256587028503418e-01,8.886352181434631348e-02,4.982430860400199890e-02,7.591043412685394287e-02,8.082048594951629639e-02,-1.258517950773239136e-01,1.845078021287918091e-01,-2.701468393206596375e-02,8.616110682487487793e-02,-3.631352260708808899e-02,-5.596989020705223083e-02,1.059315875172615051e-01,-1.503413617610931396e-01,3.336561620235443115e-01,-1.979837566614151001e-02,-1.178100109100341797e-01,1.702370345592498779e-01,-4.873509705066680908e-02,3.292843326926231384e-02,-2.607034519314765930e-02,-6.146809458732604980e-02,3.145171701908111572e-01,1.842558681964874268e-01,2.716006040573120117e-01,-1.970421671867370605e-01,3.417727723717689514e-02,-1.467583626508712769e-01,2.347680777311325073e-01,2.547288239002227783e-01,4.062241315841674805e-02,-1.824213564395904541e-01,2.163348160684108734e-02,9.804897755384445190e-02,8.307418227195739746e-02,9.747932665050029755e-03,-1.333595067262649536e-01,-1.008414626121520996e-01,-1.071368902921676636e-01,2.787516079843044281e-02,-5.234234407544136047e-02,-1.500280052423477173e-01,-1.359772384166717529e-01,1.266077756881713867e-01,-1.724785864353179932e-01,1.028734892606735229e-01,-2.518030069768428802e-02,2.245047390460968018e-01,1.266858279705047607e-01,3.271843194961547852e-01,-1.052729785442352295e-01,2.656191289424896240e-01,4.254877939820289612e-02,3.757824655622243881e-03,2.883558869361877441e-01,-7.060319930315017700e-02,-3.869150206446647644e-02,-9.883314371109008789e-02,-1.433486640453338623e-01,1.225944794714450836e-02,3.243632987141609192e-02,4.126536101102828979e-02,-2.651799917221069336e-01,-1.280725598335266113e-01,-8.117881417274475098e-02,1.106628216803073883e-02,6.645686924457550049e-02,-6.566387414932250977e-02,-1.563446670770645142e-01,4.971249774098396301e-02,3.654634207487106323e-02,-6.392263621091842651e-02,-1.744484007358551025e-01,-1.435928344726562500e-01,-3.018462285399436951e-02,-1.022315546870231628e-01,1.935741156339645386e-01,2.235581278800964355e-01,-5.299954488873481750e-02,1.405768394470214844e-01,2.509546875953674316e-01,-1.256797015666961670e-01,-5.264311656355857849e-02,6.661307066679000854e-02,5.445403605699539185e-02,2.641377151012420654e-01,9.750010818243026733e-02,-1.253995448350906372e-01,-6.106586661189794540e-03,2.101614512503147125e-02,2.409377247095108032e-01,-1.442255675792694092e-01,8.248659223318099976e-02,5.971619486808776855e-02,-3.047697842121124268e-01,-4.261495918035507202e-02,-1.470988988876342773e-01,-1.966494023799896240e-01,6.340682506561279297e-02,3.464468987658619881e-03,-2.106331735849380493e-01,-3.587343916296958923e-02,2.032339125871658325e-01,-1.750600486993789673e-01,3.335920572280883789e-01,-1.041236799210309982e-02,-1.145912483334541321e-01,7.705792784690856934e-02,-1.122394278645515442e-01,2.107868343591690063e-01,2.289176136255264282e-01,-9.183175116777420044e-02,1.729407459497451782e-01,-3.702640905976295471e-02,1.525782048702239990e-01,2.462504245340824127e-02,5.564045906066894531e-02,-1.152464449405670166e-01,5.498474836349487305e-02,-8.732831478118896484e-02,2.215638905763626099e-01,-1.847664639353752136e-02,-5.501050129532814026e-02,1.143410578370094299e-01,-5.879432335495948792e-02,-1.163706183433532715e-01,1.749999225139617920e-01,2.956832526251673698e-03,8.981997519731521606e-02,2.816211804747581482e-02,2.861618064343929291e-02,3.977794572710990906e-02,5.288893729448318481e-02,8.215900510549545288e-02,1.349745243787765503e-01,5.336804687976837158e-02,-1.338518708944320679e-01,-1.812856197357177734e-01,-9.994461387395858765e-02,-7.584739476442337036e-02,-1.972669810056686401e-01,5.443826317787170410e-02,2.569552138447761536e-02,-1.924952417612075806e-01,-5.783540010452270508e-02,-4.228936880826950073e-02,2.505167126655578613e-01,-3.691905364394187927e-02,7.112209498882293701e-02,1.738381385803222656e-01,-2.280005216598510742e-01,-4.110483452677726746e-02,-6.052075326442718506e-02,1.006169319152832031e-01,3.073350787162780762e-01,-1.945019811391830444e-01,1.818065196275711060e-01,-6.870123744010925293e-02,-1.060765385627746582e-01,-3.630475699901580811e-02,-1.680922694504261017e-02,1.516878604888916016e-01,-1.265600472688674927e-01,-1.017838343977928162e-01
2.752338051795959473e-01,-1.096558645367622375e-01,1.269003599882125854e-01,-3.339095711708068848e-01,2.153111621737480164e-02,5.554731190204620361e-02,-1.290192455053329468e-01,-1.468212604522705078e-01,-8.739849179983139038e-02,9.470735490322113037e-02,-6.133309006690979004e-02,-7.692328840494155884e-02,-7.493768632411956787e-02,-4.326340183615684509e-02,1.008832305669784546e-01,-5.878425762057304382e-02,-9.024804830551147461e-02,9.077415615320205688e-02,-1.180053278803825378e-01,1.730441004037857056e-01,-1.088727861642837524e-01,9.414217621088027954e-02,-9.298340976238250732e-02,6.055992469191551208e-02,-3.226025402545928955e-02,-1.254795789718627930e-01,1.589264348149299622e-02,5.005902051925659180e-02,9.062643349170684814e-02,6.084367632865905762e-03,-2.602659761905670166e-01,1.125590130686759949e-01,-9.558009878674056381e-06,7.950852066278457642e-02,4.891687259078025818e-02,-1.771078407764434814e-01,4.391159862279891968e-02,4.248023033142089844e-02,2.124921185895800591e-03,-1.965534985065460205e-01,-6.714779138565063477e-02,-2.411481738090515137e-01,-6.951086223125457764e-02,1.881879143184050918e-04,-4.040895700454711914e-01,1.839521341025829315e-02,-1.290108859539031982e-01,1.127389445900917053e-01,1.227301880717277527e-01,3.705953955650329590e-01,-9.633032977581024170e-02,-1.685899868607521057e-02,-2.116316929459571838e-03,-2.380872666835784912e-01,-6.541704293340444565e-03,-6.763756275177001953e-02,3.064053952693939209e-01,1.384837627410888672e-01,-1.199981942772865295e-01,-1.475247144699096680e-01,1.197542157024145126e-02,-1.075345352292060852e-01,-7.267609983682632446e-02,3.115553222596645355e-02,9.061837196350097656e-02,-6.266003102064132690e-02,1.843482106924057007e-01,7.710824906826019287e-02,2.768081612884998322e-02,-5.804689601063728333e-02,5.445976927876472473e-02,-4.002536833286285400e-02,2.903662063181400299e-02,1.819945871829986572e-01,1.545546650886535645e-01,9.177715331315994263e-02,2.296235114336013794e-01,-1.316236257553100586e-01,1.701268553733825684e-01,-1.483281701803207397e-01,-2.222385704517364502e-01,-2.938979491591453552e-02,-1.538189053535461426e-01,-1.223634555935859680e-01,-1.588535308837890625e-01,-9.234649688005447388e-02,2.669611573219299316e-01,-1.008496880531311035e-01,-6.865392625331878662e-02,-3.840154409408569336e-02,-1.708550006151199341e-02,-2.016846463084220886e-02,-9.919106028974056244e-03,-8.132255822420120239e-02,-8.513816446065902710e-02,-3.390168026089668274e-02,7.798039913177490234e-02,6.166582927107810974e-02,-4.086758196353912354e-02,8.397983014583587646e-02,6.635578721761703491e-02,2.114153951406478882e-01,6.562831997871398926e-02,6.833969056606292725e-02,1.506928354501724243e-01,-8.113804459571838379e-02,-2.661154568195343018e-01,-2.767405286431312561e-02,8.081384003162384033e-02,-1.811283826828002930e-01,5.905243381857872009e-02,-2.852225303649902344e-01,-5.047505348920822144e-02,-1.012270301580429077e-01,5.248944833874702454e-02,-1.506005525588989258e-01,-1.189101636409759521e-01,3.452835381031036377e-01,2.259218543767929077e-01,5.156482383608818054e-02,-1.303350627422332764e-01,-2.356396615505218506e-02,-7.836583536118268967e-04,1.653085947036743164e-01,-3.263540938496589661e-02,-4.420701414346694946e-02,2.360947243869304657e-02,1.534464508295059204e-01,-9.945115447044372559e-02,-1.347442716360092163e-01,2.304365336894989014e-01,-5.410369113087654114e-02,1.344423443078994751e-01,1.576872020959854126e-01,1.182446256279945374e-01,2.349188327789306641e-01,1.316250562667846680e-01,-2.508054673671722412e-01,-1.719733923673629761e-01,-1.231775507330894470e-01,7.961555570363998413e-02,-4.273414984345436096e-02,1.681639701128005981e-01,-2.551002800464630127e-01,-5.788896605372428894e-02,-1.188143566250801086e-01,2.171724736690521240e-01,-5.633907765150070190e-02,-8.838853985071182251e-02,-1.723715215921401978e-01,-1.280948333442211151e-02,2.568344473838806152e-01,-1.511847674846649170e-01,9.600108861923217773e-02,6.014939863234758377e-03,2.616209089756011963e-01,-1.160973608493804932e-01,2.965963445603847504e-02,5.935017764568328857e-02,-3.409243524074554443e-01,1.407896727323532104e-01,-7.768736034631729126e-02,-1.736179888248443604e-01,-2.850909158587455750e-02,-6.181893497705459595e-02,-2.502068281173706055e-01,2.489067018032073975e-01,1.239227354526519775e-01,-3.275333717465400696e-02,1.584869995713233948e-02,-1.343016922473907471e-01,-1.255355924367904663e-01,7.145705074071884155e-02,8.455459773540496826e-02,-8.203252218663692474e-03,8.914061821997165680e-03,1.867520213127136230e-01,4.739735275506973267e-02,-1.467216163873672485e-01,1.836793720722198486e-01,2.642410695552825928e-01,-1.389028131961822510e-01,-3.486407548189163208e-02,-1.493851989507675171e-01,-2.670411467552185059e-01,-4.913513734936714172e-02,4.292230680584907532e-02,-2.609019353985786438e-02,1.641371250152587891e-01,-7.015714049339294434e-02,-1.701034009456634521e-01,-1.321761868894100189e-02,-4.846659675240516663e-02,1.281552910804748535e-01,6.194102764129638672e-02,6.016138941049575806e-02,-5.994752049446105957e-02,-1.691877543926239014e-01,6.371632218360900879e-02,-1.271392107009887695e-01
-9.616305679082870483e-02,1.716485768556594849e-01,-1.333009898662567139e-01,-1.222217828035354614e-01,-1.959406435489654541e-01,1.927656084299087524e-01,2.282810658216476440e-01,-3.375191241502761841e-02,8.492562919855117798e-02,-1.358676403760910034e-01,1.521280109882354736e-01,7.289004325866699219e-02,8.233755826950073242e-02,-1.135735511779785156e-01,-1.580464988946914673e-01,-1.694516539573669434e-01,-3.241231441497802734e-01,-6.582888215780258179e-02,4.592447355389595032e-02,-1.946039870381355286e-02,-1.617488712072372437e-01,1.112023927271366119e-02,1.196512132883071899e-01,-1.150104030966758728e-01,1.824768930673599243e-01,1.178423017263412476e-01,2.133508771657943726e-01,-1.509611904621124268e-01,-1.253379732370376587e-01,-3.344752639532089233e-02,1.620339900255203247e-01,-2.242745161056518555e-01,-1.126549318432807922e-01,5.895046517252922058e-02,-1.236647963523864746e-01,1.056844964623451233e-01,7.071214262396097183e-03,-9.451524168252944946e-02,6.632930040359497070e-02,-8.754002302885055542e-02,2.267592102289199829e-01,-8.904179930686950684e-02,-5.084778741002082825e-02,-1.631082892417907715e-01,1.013567447662353516e-01,1.381470263004302979e-01,-1.910112611949443817e-02,6.071432307362556458e-02,-2.158800065517425537e-01,2.950615994632244110e-02,2.048991024494171143e-01,-8.498219773173332214e-03,-2.207742780447006226e-01,2.848075516521930695e-02,-5.618917755782604218e-03,2.308583259582519531e-02,-1.216093003749847412e-01,-1.500827670097351074e-01,-2.660577893257141113e-01,-1.089446917176246643e-01,6.431831512600183487e-03,8.887963742017745972e-02,-1.011040806770324707e-01,8.739491552114486694e-02,-5.931254848837852478e-02,-2.264427840709686279e-01,2.217772006988525391e-01,-1.671953499317169189e-01,-1.770762354135513306e-01,-4.172082841396331787e-01,-1.832700520753860474e-01,7.317443192005157471e-02,-1.184986606240272522e-01,-7.649779319763183594e-02,-3.363085091114044189e-01,4.100372269749641418e-02,-4.366130381822586060e-02,-2.282873541116714478e-01,-8.092397451400756836e-02,1.176223531365394592e-01,-1.254859268665313721e-01,-1.889806091785430908e-01,-2.880157530307769775e-01,-7.554763555526733398e-02,-2.412672489881515503e-01,-7.472388446331024170e-02,9.356035850942134857e-03,2.534514069557189941e-01,-1.252990663051605225e-01,5.986300483345985413e-02,1.881487667560577393e-01,9.816020727157592773e-02,8.815426379442214966e-02,-1.748132854700088501e-01,2.021628469228744507e-01,-1.255666762590408325e-01,-2.918234169483184814e-01,-1.033569872379302979e-01,-8.800017088651657104e-02,-2.244046032428741455e-01,1.408311724662780762e-01,2.213238924741744995e-02,8.120165020227432251e-02,8.459804207086563110e-02,1.560758501291275024e-01,5.637827888131141663e-02,1.951353996992111206e-02,2.110330909490585327e-01,1.614678651094436646e-01,3.776243329048156738e-02,-7.895959913730621338e-02,3.145169466733932495e-02,-1.695809066295623779e-01,2.146567218005657196e-02,-5.302467197179794312e-02,-4.390043020248413086e-02,9.353321045637130737e-02,1.691326051950454712e-01,-8.594270795583724976e-02,-2.032398134469985962e-01,6.875779479742050171e-02,-4.062114953994750977e-01,9.584178030490875244e-02,2.093976736068725586e-01,-8.701249212026596069e-02,2.296466194093227386e-02,-1.669124960899353027e-01,-1.067344844341278076e-01,2.666479647159576416e-01,-1.240836307406425476e-01,-1.836984008550643921e-01,1.062432974576950073e-01,-2.626848220825195312e-01,1.771801523864269257e-02,1.311027705669403076e-01,-1.866457313299179077e-01,-4.526404663920402527e-02,1.855034008622169495e-02,-9.715038537979125977e-02,-2.524738013744354248e-01,-2.448860108852386475e-01,2.480634301900863647e-01,-6.099046766757965088e-02,-3.817373886704444885e-02,-8.573700487613677979e-02,1.484178453683853149e-01,-8.621741831302642822e-02,-9.240488708019256592e-02,2.137766778469085693e-02,3.995666280388832092e-02,-2.076992541551589966e-01,-6.201697885990142822e-02,-1.997469812631607056e-01,7.117557525634765625e-02,2.122568339109420776e-01,8.107354491949081421e-02,2.567027211189270020e-01,-4.485907033085823059e-02,-6.395801901817321777e-02,2.928630821406841278e-02,-8.817884325981140137e-02,-1.322203278541564941e-01,-2.370667308568954468e-01,2.138121053576469421e-02,-2.075879275798797607e-01,5.471096932888031006e-02,-6.754323095083236694e-02,-1.738436520099639893e-01,-3.812286257743835449e-02,1.445438861846923828e-01,7.994191348552703857e-02,-9.820225089788436890e-02,-1.183397695422172546e-01,-2.490426450967788696e-01,-2.870370149612426758e-01,1.720656603574752808e-01,4.374794196337461472e-03,-3.025033473968505859e-01,3.756212815642356873e-02,-1.038764938712120056e-01,-3.103275597095489502e-01,-1.247090324759483337e-01,8.849180489778518677e-02,-7.509125769138336182e-02,-9.852030873298645020e-02,-9.278835356235504150e-02,-2.358510643243789673e-01,-2.217301353812217712e-02,-1.361434608697891235e-01,-1.376337409019470215e-01,-1.036436110734939575e-01,-1.074875444173812866e-01,1.531192213296890259e-01,4.533161595463752747e-02,-1.191990263760089874e-02,-7.975722849369049072e-02,-2.841801568865776062e-02,-3.283661305904388428e-01,2.992774844169616699e-01,-4.140569642186164856e-02
-1.768339276313781738e-01,3.954185172915458679e-02,-1.394382566213607788e-01,5.848729237914085388e-02,-1.003205701708793640e-01,-1.529643833637237549e-01,-9.881215542554855347e-02,2.798340469598770142e-02,-1.986726373434066772e-01,-7.050427794456481934e-02,1.684662997722625732e-01,1.177168563008308411e-01,-2.327577769756317139e-01,7.248639129102230072e-03,-1.528321653604507446e-01,-8.402138203382492065e-02,-1.264537423849105835e-01,-2.184957563877105713e-01,1.802362352609634399e-01,7.983114570379257202e-02,2.309913747012615204e-02,-1.668608337640762329e-01,-2.179554253816604614e-01,-9.339165687561035156e-02,-3.430851921439170837e-02,7.872366905212402344e-02,2.553945779800415039e-01,1.594143547117710114e-02,1.061838492751121521e-01,-4.179349169135093689e-03,-6.450985372066497803e-02,-3.097422122955322266e-01,1.680831164121627808e-01,-1.380319595336914062e-01,2.859236598014831543e-01,7.275892049074172974e-02,-9.974351525306701660e-02,1.011489629745483398e-01,1.833900958299636841e-01,-8.222788572311401367e-02,2.300097942352294922e-01,2.895709872245788574e-01,-7.221102714538574219e-02,1.216570809483528137e-01,8.152820914983749390e-02,1.679528206586837769e-01,1.660703122615814209e-01,-5.576686933636665344e-02,2.115318179130554199e-02,-2.026585191488265991e-01,-8.801415562629699707e-02,-1.788280755281448364e-01,1.331088244915008545e-01,3.303991556167602539e-01,1.323845982551574707e-01,1.523407995700836182e-01,-2.286793738603591919e-01,-2.042041905224323273e-02,-2.380312792956829071e-02,1.334900557994842529e-01,1.799706369638442993e-01,2.480401471257209778e-02,7.719833403825759888e-02,1.575621962547302246e-02,8.064175397157669067e-02,1.813752762973308563e-02,-7.942796498537063599e-02,-5.865301564335823059e-02,-1.363544762134552002e-01,4.456771165132522583e-02,7.611993700265884399e-03,1.743896156549453735e-01,-1.072479784488677979e-01,-1.050489917397499084e-01,-8.705793879926204681e-03,4.394309595227241516e-02,3.135635331273078918e-02,1.894253492355346680e-02,-2.876670844852924347e-02,2.528491914272308350e-01,1.357657928019762039e-02,4.667823761701583862e-02,1.848649680614471436e-01,1.707801967859268188e-01,1.146391108632087708e-01,-1.252785176038742065e-01,3.797340020537376404e-02,2.851174771785736084e-01,9.588394314050674438e-02,-7.963120937347412109e-02,7.827311009168624878e-02,-2.153967618942260742e-01,-9.419793635606765747e-02,1.269523501396179199e-01,7.526674866676330566e-02,2.215752843767404556e-03,1.052683517336845398e-01,-1.956572756171226501e-02,2.312129549682140350e-02,1.573260873556137085e-02,1.436386555433273315e-01,1.839603334665298462e-01,1.437367647886276245e-01,-1.326441951096057892e-02,-7.990792393684387207e-02,1.154332384467124939e-01,2.213339507579803467e-01,1.048378180712461472e-02,-1.728684604167938232e-01,-7.704436779022216797e-03,1.772888749837875366e-02,1.229975838214159012e-03,3.194336220622062683e-02,2.616937756538391113e-01,-1.930096000432968140e-01,3.437425792217254639e-01,-2.506845071911811829e-02,-2.985586971044540405e-02,6.453874707221984863e-02,2.711256220936775208e-02,3.092302381992340088e-01,1.644367426633834839e-01,3.646015226840972900e-01,-2.659853696823120117e-01,3.582665324211120605e-02,-1.762873977422714233e-01,2.191619277000427246e-01,-9.342659264802932739e-02,1.469880938529968262e-01,1.588101387023925781e-01,-1.340544223785400391e-01,-1.189903244376182556e-01,1.113823577761650085e-01,-1.132865250110626221e-01,8.388983085751533508e-03,-9.623545408248901367e-02,-2.352751642465591431e-01,2.163705080747604370e-01,3.717601671814918518e-02,-2.555477432906627655e-02,1.540969610214233398e-01,6.858538091182708740e-02,-7.319831103086471558e-02,2.561112642288208008e-01,-1.512550860643386841e-01,1.575785428285598755e-01,-1.074302643537521362e-01,-1.807366125285625458e-02,5.720385536551475525e-02,-1.892168372869491577e-01,-1.614575833082199097e-02,-5.214689299464225769e-02,3.192313387989997864e-02,-5.638532340526580811e-02,1.977608054876327515e-01,9.190360456705093384e-02,2.652208209037780762e-01,-6.426066905260086060e-02,-1.039476245641708374e-01,1.217531412839889526e-01,2.236444968730211258e-03,-5.953926965594291687e-02,1.973374001681804657e-02,-2.038185298442840576e-02,1.877684146165847778e-02,1.583577543497085571e-01,-1.064196154475212097e-01,-8.373279124498367310e-02,2.952716946601867676e-01,-1.126067489385604858e-01,5.262939259409904480e-02,-1.712473779916763306e-01,-1.123580634593963623e-01,2.090948633849620819e-03,-1.215754151344299316e-01,1.396660208702087402e-01,8.274547010660171509e-02,-3.241742774844169617e-02,-5.267649516463279724e-02,-7.571578025817871094e-02,-4.066653177142143250e-02,3.611392155289649963e-02,1.818169504404067993e-01,9.061469882726669312e-02,1.324905604124069214e-01,2.269148081541061401e-01,-1.103501990437507629e-01,-9.496570378541946411e-02,-3.519294410943984985e-02,2.342243939638137817e-01,3.002101927995681763e-02,-1.980792172253131866e-02,-8.132105320692062378e-02,1.083742156624794006e-01,1.084913015365600586e-01,-1.870450675487518311e-01,1.205644682049751282e-01,1.802062839269638062e-01,-1.060702279210090637e-01,-1.373373568058013916e-01
1.391970664262771606e-01,-2.849558889865875244e-01,-1.206319853663444519e-01,2.541566491127014160e-01,-1.195336598902940750e-02,2.274971455335617065e-02,-1.061498187482357025e-03,-7.058237493038177490e-02,2.148275524377822876e-01,-1.169438585638999939e-01,3.774923086166381836e-01,3.181696832180023193e-01,-1.160076782107353210e-01,8.262383192777633667e-02,-1.780223846435546875e-01,-2.443082183599472046e-01,-1.614180207252502441e-01,3.793524578213691711e-02,5.111302062869071960e-02,-2.750840485095977783e-01,1.212744489312171936e-01,-9.943373501300811768e-02,-4.859974980354309082e-02,-9.015149623155593872e-02,-2.038362473249435425e-01,3.625534176826477051e-01,1.260664761066436768e-01,-6.927131116390228271e-02,7.159220427274703979e-02,-7.943423092365264893e-02,4.125109910964965820e-01,1.228181086480617523e-02,2.214509248733520508e-01,8.152291178703308105e-02,-1.268762052059173584e-01,-1.177071779966354370e-01,1.153344884514808655e-01,-1.852644532918930054e-01,2.799802692607045174e-03,1.837720125913619995e-01,2.574435174465179443e-01,2.667433321475982666e-01,-2.161211222410202026e-01,3.489212095737457275e-01,4.014969468116760254e-01,1.940651386976242065e-01,2.287660725414752960e-02,-1.683898419141769409e-01,1.734462529420852661e-01,-2.879592180252075195e-01,4.310151934623718262e-01,-2.374010719358921051e-02,4.157356023788452148e-01,2.921246886253356934e-01,2.032363712787628174e-01,7.840041071176528931e-02,-1.145199537277221680e-01,3.761100769042968750e-02,2.477429658174514771e-01,-8.862885087728500366e-02,1.863613128662109375e-01,-1.784495860338211060e-01,-3.845251724123954773e-02,2.877310812473297119e-01,1.928237378597259521e-01,1.015085801482200623e-01,-2.699345648288726807e-01,5.399964004755020142e-02,-1.568067967891693115e-01,1.196394190192222595e-01,7.491391897201538086e-02,8.296567946672439575e-02,-2.118303924798965454e-01,1.898558251559734344e-02,-5.397611483931541443e-02,2.036014050245285034e-01,-1.276049464941024780e-01,-1.764073409140110016e-02,-3.408237174153327942e-02,3.203977644443511963e-01,-2.710952162742614746e-01,2.464140206575393677e-01,4.449607431888580322e-01,3.903388604521751404e-02,1.658691167831420898e-01,2.032189667224884033e-01,-7.919900119304656982e-02,3.236958086490631104e-01,2.745216339826583862e-02,4.431087523698806763e-03,2.700521647930145264e-01,-2.020339369773864746e-01,-2.611063122749328613e-01,-7.309591025114059448e-02,-1.299106925725936890e-01,2.045357227325439453e-01,-2.578775882720947266e-01,3.289613500237464905e-02,-2.067200988531112671e-01,-8.940732479095458984e-02,1.202054973691701889e-02,1.646808832883834839e-01,3.132471814751625061e-02,-2.197296768426895142e-01,-2.353577911853790283e-01,2.756931483745574951e-01,1.281865835189819336e-01,-2.716700136661529541e-01,-4.853723198175430298e-02,6.820564717054367065e-02,1.600947380065917969e-01,-2.048145048320293427e-02,-1.892903149127960205e-01,1.041568592190742493e-01,-2.405318617820739746e-01,3.173418939113616943e-01,2.352232336997985840e-01,-1.376464515924453735e-01,-1.534541696310043335e-01,-3.052775859832763672e-01,1.929710358381271362e-01,2.461613863706588745e-01,2.618757784366607666e-01,-1.621879786252975464e-01,-4.205611944198608398e-01,-1.030324548482894897e-01,5.968374013900756836e-02,-2.131824940443038940e-01,5.973006784915924072e-02,7.372473925352096558e-02,-1.210115328431129456e-01,-2.975320219993591309e-01,-3.319980204105377197e-01,-6.314153224229812622e-02,1.574270278215408325e-01,2.794700674712657928e-02,-2.032431215047836304e-01,2.356984019279479980e-01,-1.117120683193206787e-02,3.016986511647701263e-02,3.059932589530944824e-01,8.836319297552108765e-02,-3.011319339275360107e-01,9.706919640302658081e-02,-2.224700152873992920e-01,4.094982147216796875e-01,7.877442985773086548e-02,-1.117326170206069946e-01,9.861633181571960449e-02,-2.577444612979888916e-01,9.435993432998657227e-02,-1.197173744440078735e-01,-1.449790149927139282e-01,-6.317742168903350830e-02,-5.579600855708122253e-02,-5.463919043540954590e-02,2.411308735609054565e-01,8.275878429412841797e-02,-1.987526863813400269e-01,4.444014132022857666e-01,-1.391580551862716675e-01,-5.825935304164886475e-02,1.929129213094711304e-01,3.626890107989311218e-02,3.098763227462768555e-01,1.938313841819763184e-01,-1.874505355954170227e-02,1.198999211192131042e-01,1.772562265396118164e-01,-2.607279717922210693e-01,2.095290124416351318e-01,-1.858555674552917480e-01,-2.247428596019744873e-01,-2.152060568332672119e-01,-1.234376579523086548e-01,1.598828732967376709e-01,-1.201626509428024292e-01,-7.878107018768787384e-03,2.579117715358734131e-01,-1.976342946290969849e-01,1.255939751863479614e-01,-4.302575252950191498e-04,2.881285250186920166e-01,1.688743233680725098e-01,2.414360344409942627e-01,3.678168356418609619e-01,-2.736203670501708984e-01,-6.175813078880310059e-02,-2.945788204669952393e-01,8.787079714238643646e-03,4.641389548778533936e-01,-1.432417482137680054e-01,1.073649823665618896e-01,1.387142576277256012e-02,-1.208629384636878967e-01,-1.773778349161148071e-02,8.876941353082656860e-02,3.571013808250427246e-01,-7.855048775672912598e-02,-2.693520300090312958e-02
-8.950351178646087646e-02,2.426441013813018799e-02,-5.776160582900047302e-02,-2.043406069278717041e-01,4.880668595433235168e-02,1.376760154962539673e-01,-3.040347434580326080e-02,2.488366514444351196e-01,-5.763170868158340454e-02,6.995208561420440674e-02,1.934648305177688599e-01,-1.296900212764739990e-02,-1.548519283533096313e-01,1.318942569196224213e-02,-1.166593953967094421e-01,-5.366623774170875549e-02,8.086140453815460205e-02,-1.375838518142700195e-01,5.531820654869079590e-02,-1.025261506438255310e-01,-9.112104773521423340e-02,1.061216965317726135e-01,1.609237790107727051e-01,2.046096175909042358e-01,2.206936627626419067e-01,-7.837661355733871460e-02,1.111395880579948425e-01,-2.727590035647153854e-03,1.515284478664398193e-01,1.420034468173980713e-01,1.571517996490001678e-02,2.478181011974811554e-02,-1.702483743429183960e-01,3.422092646360397339e-02,5.673285201191902161e-02,2.320122718811035156e-02,-6.259547173976898193e-02,-5.605088174343109131e-02,-1.710942983627319336e-01,3.172601759433746338e-02,2.790827862918376923e-02,1.104249358177185059e-01,-6.761076301336288452e-02,1.393613964319229126e-01,4.700549691915512085e-02,9.719950705766677856e-02,1.579972449690103531e-03,3.139368444681167603e-02,1.142793744802474976e-01,3.215967416763305664e-01,-1.255570501089096069e-01,-4.382932931184768677e-02,1.707092672586441040e-01,-1.293360292911529541e-01,2.507429420948028564e-01,-2.665508389472961426e-01,-8.509695529937744141e-02,-1.252904534339904785e-01,9.130840003490447998e-02,-3.174427151679992676e-02,-1.252185255289077759e-01,1.012611538171768188e-01,-9.071957319974899292e-02,1.747187227010726929e-01,-2.260112762451171875e-01,-1.246570795774459839e-01,-7.680726796388626099e-02,3.528015911579132080e-01,7.382680475711822510e-02,1.293306946754455566e-01,5.669348314404487610e-02,1.233793273568153381e-01,1.639824062585830688e-01,1.103890538215637207e-01,-1.238951608538627625e-01,-9.845037758350372314e-02,-9.378513693809509277e-02,2.008994668722152710e-01,3.644664213061332703e-02,-1.712223887443542480e-02,4.058586955070495605e-01,-9.082008153200149536e-03,-8.868075907230377197e-02,-1.448670476675033569e-01,-2.406546920537948608e-01,-6.555748730897903442e-02,-2.444808632135391235e-01,-7.456390559673309326e-02,1.771015673875808716e-01,1.858997792005538940e-01,5.119053274393081665e-02,-1.633356511592864990e-01,-7.767210155725479126e-02,-2.069590538740158081e-01,-1.249779164791107178e-01,-1.341466605663299561e-01,-4.694334417581558228e-02,1.534358710050582886e-01,1.160627231001853943e-01,-3.991749882698059082e-02,-2.799148298799991608e-02,-1.113114431500434875e-01,4.704497009515762329e-02,4.646305367350578308e-02,-1.132720522582530975e-02,4.804021120071411133e-02,-7.326076179742813110e-02,-1.353836059570312500e-01,3.190076351165771484e-01,4.866437520831823349e-03,-1.279339790344238281e-01,-7.316144555807113647e-02,-3.008485771715641022e-02,1.889771074056625366e-01,-1.402745842933654785e-01,-1.336955558508634567e-02,9.070255793631076813e-03,2.313201427459716797e-01,-3.320128098130226135e-02,-2.273547053337097168e-01,2.424013018608093262e-01,-9.392338991165161133e-02,-1.679815351963043213e-01,1.775372773408889771e-01,1.920902729034423828e-01,-1.499706506729125977e-01,-4.829806461930274963e-02,1.781244277954101562e-01,2.281206250190734863e-01,-1.732251793146133423e-01,-9.716909378767013550e-02,7.002248615026473999e-02,-3.338969871401786804e-02,-1.017496362328529358e-02,-6.609521061182022095e-02,-1.445656758733093739e-03,-2.141002267599105835e-01,-1.407801061868667603e-01,1.838683038949966431e-01,1.422688215970993042e-01,8.629385847598314285e-04,2.924068272113800049e-01,1.087429746985435486e-01,-5.543639138340950012e-02,9.202042967081069946e-02,2.615078985691070557e-01,4.455833882093429565e-02,1.634726077318191528e-01,-4.733747988939285278e-02,-2.355716377496719360e-02,1.229343041777610779e-01,1.104941666126251221e-01,1.079536229372024536e-01,2.681623697280883789e-01,-1.205818653106689453e-01,-9.257393889129161835e-03,-1.521158404648303986e-02,-4.472404718399047852e-03,-1.782898604869842529e-01,1.789071410894393921e-01,1.459302306175231934e-01,-1.777085890353191644e-05,2.236020117998123169e-01,1.750218719244003296e-01,-6.588178128004074097e-02,-1.606938838958740234e-01,5.351611971855163574e-02,4.837243258953094482e-02,-2.875326573848724365e-01,2.766833081841468811e-02,-1.539428681135177612e-01,-1.134293004870414734e-01,-5.662828311324119568e-02,1.128090322017669678e-01,-1.373053193092346191e-01,-2.718500420451164246e-02,2.239397317171096802e-01,-8.562698028981685638e-03,3.495562821626663208e-02,-2.001139707863330841e-02,7.495404034852981567e-02,2.714717090129852295e-01,1.229792162775993347e-01,9.765023738145828247e-02,-2.857342064380645752e-01,2.568510547280311584e-02,-1.604526787996292114e-01,1.739347428083419800e-01,-8.432298898696899414e-02,-2.035349607467651367e-01,1.070777419954538345e-02,2.889126725494861603e-02,1.607860475778579712e-01,3.259907662868499756e-02,8.085714653134346008e-03,3.370114136487245560e-03,-1.003589201718568802e-02,2.054809331893920898e-01,-4.779030755162239075e-02,3.107994794845581055e-02
-1.797086894512176514e-01,2.189331948757171631e-01,-8.039402216672897339e-02,3.605193272233009338e-02,-1.789695918560028076e-01,3.723882138729095459e-01,1.459583640098571777e-01,-1.865737438201904297e-01,1.433356851339340210e-01,-1.472396403551101685e-01,1.389456838369369507e-01,2.014092057943344116e-01,2.748567797243595123e-02,-1.165767461061477661e-01,-4.483893513679504395e-02,-6.118575111031532288e-02,9.477721527218818665e-03,-3.544952273368835449e-01,2.661077380180358887e-01,-2.239658869802951813e-02,-6.046999990940093994e-02,-2.729567289352416992e-01,-1.163171604275703430e-01,-2.416171431541442871e-01,9.313123300671577454e-03,8.419575542211532593e-02,-9.594294242560863495e-04,-2.050002217292785645e-01,1.683254987001419067e-01,-9.210460120812058449e-04,-3.145688772201538086e-01,-1.680365204811096191e-01,-4.577631130814552307e-02,2.869175933301448822e-02,5.914249643683433533e-02,-6.042411923408508301e-02,-1.534823030233383179e-01,2.656028866767883301e-01,1.100244000554084778e-01,-2.268626121804118156e-03,2.536383569240570068e-01,2.419565320014953613e-01,-2.344639301300048828e-01,3.137000501155853271e-01,-1.802076399326324463e-01,3.781902790069580078e-01,-8.239456266164779663e-02,1.680672168731689453e-02,-1.832886338233947754e-01,3.508351743221282959e-02,-1.386740654706954956e-01,-1.919969171285629272e-01,-1.114365011453628540e-01,3.341779112815856934e-01,-1.160683482885360718e-01,1.457477807998657227e-01,-2.903453409671783447e-01,-8.426967263221740723e-02,2.240507900714874268e-01,9.004891663789749146e-02,2.642945647239685059e-01,-2.654047906398773193e-01,6.828655302524566650e-02,1.583450585603713989e-01,1.830288171768188477e-01,3.375338315963745117e-01,-1.997721642255783081e-01,2.805731445550918579e-02,-1.134557276964187622e-01,-1.520603150129318237e-01,-9.318678081035614014e-02,1.083110198378562927e-01,-6.197417899966239929e-02,-1.399740874767303467e-01,-1.287705898284912109e-01,-4.172361642122268677e-02,-1.124880537390708923e-01,-1.605842858552932739e-01,-1.742021292448043823e-01,1.418311446905136108e-01,-3.063216507434844971e-01,-2.414801716804504395e-01,-7.914309203624725342e-02,6.749052554368972778e-02,1.931736469268798828e-01,3.646609559655189514e-02,-1.293107271194458008e-01,4.093487560749053955e-01,1.282405853271484375e-02,-1.950365006923675537e-01,4.429699778556823730e-01,-1.427891403436660767e-01,-3.162445127964019775e-01,-8.521155267953872681e-02,-2.059789597988128662e-01,1.121864840388298035e-01,-1.329874396324157715e-01,-7.402638904750347137e-03,-6.254781782627105713e-02,-1.957815885543823242e-01,2.988643012940883636e-02,7.180241495370864868e-02,-1.722154170274734497e-01,2.303148619830608368e-02,1.445238739252090454e-01,-6.354770064353942871e-02,-7.500394433736801147e-02,-2.792905271053314209e-01,-9.117329865694046021e-02,-2.348229736089706421e-01,8.449367433786392212e-02,-2.513257265090942383e-01,1.118533089756965637e-01,3.561064302921295166e-01,-1.736793518066406250e-01,3.811063468456268311e-01,1.995366811752319336e-01,1.256706863641738892e-01,-1.782935708761215210e-01,-9.863912314176559448e-02,2.992863357067108154e-01,2.992712892591953278e-02,4.459657967090606689e-01,-1.763368844985961914e-01,2.753124339506030083e-03,-3.231012523174285889e-01,2.021526247262954712e-01,-1.008926481008529663e-01,2.202257961034774780e-01,-4.788887500762939453e-02,-3.057084977626800537e-01,-3.713220953941345215e-01,2.186336964368820190e-01,-3.345734179019927979e-01,-2.986920811235904694e-02,-7.675794512033462524e-02,-1.887400895357131958e-01,-2.107912003993988037e-01,-8.134833723306655884e-02,-5.278933420777320862e-02,2.008797526359558105e-01,9.717839956283569336e-02,-1.125595048069953918e-01,-2.204646542668342590e-02,-2.000875324010848999e-01,-4.321118444204330444e-02,1.470632702112197876e-01,-1.200229823589324951e-01,4.944967478513717651e-02,-1.956009417772293091e-01,2.906941473484039307e-01,-1.542249321937561035e-01,-2.147887349128723145e-01,-9.948411025106906891e-03,1.391180455684661865e-01,8.908364688977599144e-04,1.790481656789779663e-01,6.038736179471015930e-02,8.912550657987594604e-02,1.099090129137039185e-01,-3.630506098270416260e-01,-1.782155334949493408e-01,3.402258828282356262e-02,1.510731875896453857e-01,6.852765381336212158e-02,1.927071213722229004e-01,-1.134276241064071655e-01,-1.703083813190460205e-01,9.865939617156982422e-02,-1.911800950765609741e-01,1.116287428885698318e-02,3.094896487891674042e-02,-1.507351845502853394e-01,-7.919424027204513550e-02,-7.279491424560546875e-02,8.448221720755100250e-03,-1.140552908182144165e-01,1.756998747587203979e-01,1.759227067232131958e-01,-1.923500373959541321e-02,-3.310039937496185303e-01,1.171632185578346252e-01,2.156327962875366211e-01,-1.652974784374237061e-01,-6.582032889127731323e-02,9.782527573406696320e-03,-7.483366876840591431e-02,-2.572264671325683594e-01,9.967732330551370978e-05,1.123266518115997314e-01,4.145753085613250732e-01,-1.765321195125579834e-01,7.543156389147043228e-03,3.258802369236946106e-02,-3.384703397750854492e-02,-3.392334282398223877e-01,5.052686482667922974e-02,4.618844017386436462e-02,-3.703373670578002930e-01,1.072451770305633545e-01
