-1.957605034112930298e-02,-8.203840255737304688e-02,1.212074831128120422e-01,-2.874670922756195068e-01,-1.981045901775360107e-01,-1.406663507223129272e-01,2.050137072801589966e-01,-8.179894089698791504e-02,-2.076036930084228516e-01,1.618450433015823364e-01,-3.440304696559906006e-01,-4.874664545059204102e-02,2.455933094024658203e-01,-1.687070131301879883e-01,-4.186730831861495972e-02,-1.830426454544067383e-01,9.107398241758346558e-02,1.696085557341575623e-02,7.649480551481246948e-02,6.301474571228027344e-02,1.636649668216705322e-01,6.497494131326675415e-02,-1.866165846586227417e-01,-1.168255507946014404e-01,2.118758559226989746e-01,-1.586421430110931396e-01,6.179822608828544617e-02,4.994140937924385071e-02,1.790959239006042480e-01,-6.442698067985475063e-04,-1.780134290456771851e-01,-9.524048119783401489e-02,3.434562683105468750e-02,-2.869083583354949951e-01,1.618293696083128452e-03,3.740138188004493713e-02,-2.057260423898696899e-01,-2.655933797359466553e-01,-8.727375417947769165e-02,6.128474697470664978e-02,3.017121180891990662e-02,-8.753301203250885010e-02,4.474579170346260071e-02,-1.668673604726791382e-01,-4.544840455055236816e-01,-1.086650639772415161e-01,-5.144140124320983887e-02,-2.503360062837600708e-02,3.011976182460784912e-01,1.769926100969314575e-01,-1.328306347131729126e-01,9.941200911998748779e-02,-3.701333701610565186e-01,-1.542123109102249146e-01,-5.413648323155939579e-04,-1.043598866090178490e-03,1.557015925645828247e-01,-1.055858954787254333e-01,-1.777221262454986572e-01,-4.965820536017417908e-02,1.032744254916906357e-02,-4.294482991099357605e-02,-9.183018654584884644e-02,-1.004703789949417114e-01,-1.372714787721633911e-01,-2.480508759617805481e-02,-2.399981021881103516e-01,-6.490273028612136841e-02,-2.243216484785079956e-01,-2.588040232658386230e-01,2.746827304363250732e-01,1.230972819030284882e-02,1.042472496628761292e-01,1.170457825064659119e-01,-3.175816382281482220e-04,5.659634619951248169e-02,1.206595264375209808e-02,8.480456657707691193e-03,1.245443671941757202e-01,-1.022529155015945435e-01,-1.322721987962722778e-01,-1.226674318313598633e-01,-7.499548047780990601e-02,-8.759459853172302246e-02,-1.577521562576293945e-01,-1.978830248117446899e-02,5.847563967108726501e-02,-1.172810643911361694e-01,1.378777325153350830e-01,1.067647561430931091e-01,-1.666401773691177368e-01,-2.645019628107547760e-02,-1.625057905912399292e-01,1.684760861098766327e-02,-4.863175377249717712e-02,4.547242820262908936e-02,1.833074837923049927e-01,-1.705193519592285156e-01,1.484117656946182251e-01,2.902166247367858887e-01,-3.925606608390808105e-02,-2.443215101957321167e-01,2.456252127885818481e-01,7.180334627628326416e-02,-3.155370354652404785e-01,-1.275808066129684448e-01,-1.427987217903137207e-01,-1.276817917823791504e-01,2.533105611801147461e-01,1.320242732763290405e-01,-9.377174824476242065e-02,-5.219830945134162903e-02,-2.022429928183555603e-02,-1.545941922813653946e-02,9.732834994792938232e-02,-1.562800705432891846e-01,2.341303080320358276e-01,-3.829628601670265198e-02,2.215076535940170288e-01,1.783697605133056641e-01,-2.458903342485427856e-01,-1.839508563280105591e-01,-2.590503692626953125e-01,7.037672400474548340e-02,1.107471361756324768e-01,5.688116699457168579e-02,-1.792699247598648071e-01,1.986769586801528931e-01,-1.304088383913040161e-01,-2.195763438940048218e-01,1.160850450396537781e-01,-9.077962487936019897e-02,9.474568814039230347e-02,1.235442459583282471e-01,-9.461543709039688110e-02,1.682514697313308716e-01,-8.111430704593658447e-02,-9.389976412057876587e-02,-2.139447033405303955e-01,-5.574020370841026306e-02,-3.554855883121490479e-01,-1.982609042897820473e-03,1.952621340751647949e-01,-4.374253004789352417e-02,-4.081500694155693054e-03,-3.324399888515472412e-01,-4.119629040360450745e-02,1.761502623558044434e-01,-3.387481346726417542e-02,-1.880756951868534088e-02,-2.683073049411177635e-03,-1.625765413045883179e-01,-2.095034569501876831e-01,2.543072104454040527e-01,8.344871550798416138e-02,1.361676119267940521e-02,-7.886390388011932373e-02,1.077954173088073730e-01,-1.960947513580322266e-01,-3.450967371463775635e-02,-2.075038552284240723e-01,6.049707531929016113e-02,-3.728159666061401367e-01,-7.238484919071197510e-02,-3.871426880359649658e-01,-2.388077825307846069e-01,-9.569887071847915649e-02,-6.165233254432678223e-02,-1.087741255760192871e-01,-1.187275350093841553e-01,-2.264652848243713379e-01,2.829449772834777832e-01,2.488842159509658813e-01,2.899818867444992065e-02,1.956028863787651062e-02,-2.193552404642105103e-01,1.575846076011657715e-01,-1.879910677671432495e-01,-2.428260073065757751e-02,-5.519263818860054016e-02,3.471894934773445129e-02,-2.182686775922775269e-01,-1.857463568449020386e-01,-3.047654628753662109e-01,-1.044093146920204163e-01,-2.689539194107055664e-01,1.590521186590194702e-01,-1.158613711595535278e-01,-1.279771178960800171e-01,-1.364668924361467361e-02,-1.722908020019531250e-01,-1.362692415714263916e-01,-2.347452342510223389e-01,3.404503315687179565e-02,-7.725860923528671265e-02,2.735038995742797852e-01,-3.681495413184165955e-02,-1.406324356794357300e-01,-2.718879580497741699e-01,4.012484569102525711e-03
1.457919627428054810e-01,-8.795404434204101562e-02,6.515817344188690186e-02,-1.107887476682662964e-01,8.386864326894283295e-03,-2.269631251692771912e-02,7.955877482891082764e-02,-1.768368296325206757e-02,-3.045723587274551392e-02,1.928528249263763428e-01,-1.600968837738037109e-01,-9.016846120357513428e-02,1.781815141439437866e-01,-1.747395396232604980e-01,1.024414692074060440e-02,2.634469270706176758e-01,5.919216945767402649e-02,7.169535756111145020e-02,4.152322188019752502e-02,7.020583003759384155e-02,-5.817463621497154236e-02,1.830577850341796875e-01,4.640841484069824219e-02,1.503847688436508179e-01,1.051713526248931885e-01,1.609844565391540527e-01,-3.196702599525451660e-01,-7.150014489889144897e-02,9.141200780868530273e-02,1.198912933468818665e-01,-1.761049777269363403e-01,2.589616179466247559e-01,1.845514774322509766e-01,-1.111592948436737061e-01,-3.051884770393371582e-01,-3.267880156636238098e-02,3.340948745608329773e-02,-9.050909429788589478e-02,7.292668800801038742e-03,2.070455104112625122e-01,-2.140298336744308472e-01,-3.024119436740875244e-01,1.348155885934829712e-01,1.049950495362281799e-01,5.785500630736351013e-02,-4.193356037139892578e-01,-8.530633896589279175e-02,5.148758366703987122e-02,2.973894774913787842e-01,1.474225670099258423e-01,3.809806704521179199e-02,1.559582799673080444e-01,-2.422874420881271362e-01,-1.967956870794296265e-01,1.488730311393737793e-01,2.589179389178752899e-02,1.335500329732894897e-01,-2.587258256971836090e-02,1.189347207546234131e-01,-8.409858494997024536e-02,-1.283485721796751022e-02,-1.615856215357780457e-02,-1.311468034982681274e-01,-2.585794031620025635e-01,6.112227961421012878e-02,9.822086989879608154e-02,-2.187329158186912537e-02,2.144398540258407593e-01,-2.281368672847747803e-01,2.698898613452911377e-01,7.735013216733932495e-02,-1.522181034088134766e-01,1.194388344883918762e-01,-1.890981383621692657e-02,7.475459575653076172e-02,-1.457064412534236908e-02,1.315815299749374390e-01,-3.624403476715087891e-02,1.300183832645416260e-01,-2.296257615089416504e-01,-1.253114938735961914e-01,3.148236274719238281e-01,-3.051586151123046875e-01,1.411146223545074463e-01,1.945965737104415894e-02,-4.153659567236900330e-02,1.113732680678367615e-01,-1.559486836194992065e-01,-1.333857178688049316e-01,-4.021578729152679443e-01,-2.027248591184616089e-01,2.874537110328674316e-01,5.549037083983421326e-02,1.496844291687011719e-01,3.282040953636169434e-01,-3.920808061957359314e-02,1.536447554826736450e-01,4.635619744658470154e-02,4.958084598183631897e-02,1.149982139468193054e-01,-2.514988183975219727e-02,-6.025751680135726929e-02,-1.237799413502216339e-02,-6.370083242654800415e-02,1.178555097430944443e-02,-9.522327780723571777e-02,2.169049717485904694e-02,-2.507246844470500946e-02,1.897199898958206177e-01,1.344519853591918945e-01,-3.937207460403442383e-01,3.799938410520553589e-02,-1.360074337571859360e-02,2.355437353253364563e-02,1.591467261314392090e-01,-1.097562089562416077e-01,2.381874918937683105e-01,4.010605067014694214e-02,1.488951593637466431e-01,1.753373891115188599e-01,-4.361501038074493408e-01,-2.330902591347694397e-02,-1.160573884844779968e-01,2.333822697401046753e-01,1.784701086580753326e-02,4.511460661888122559e-02,-6.753296405076980591e-02,5.719637498259544373e-02,-3.322931379079818726e-02,-1.786164790391921997e-01,2.034229636192321777e-01,-2.698173522949218750e-01,1.498656123876571655e-01,2.000401914119720459e-01,1.043141260743141174e-01,1.191501691937446594e-01,-8.405060507357120514e-03,2.061606571078300476e-02,-2.782661020755767822e-01,-1.175826489925384521e-01,-1.979083269834518433e-01,1.079353094100952148e-01,1.600754112005233765e-01,9.709087759256362915e-02,3.256606161594390869e-01,-2.071913480758666992e-01,1.156313065439462662e-02,2.048601210117340088e-01,4.130769520998001099e-02,3.317986726760864258e-01,-1.591661870479583740e-01,1.312438100576400757e-01,1.113581657409667969e-02,7.416643947362899780e-02,-4.195666313171386719e-02,-7.092658430337905884e-02,1.495453342795372009e-02,-8.933874778449535370e-03,-1.799359619617462158e-01,-4.089495167136192322e-02,5.986887216567993164e-02,9.256582707166671753e-02,-7.375487685203552246e-02,-1.919950693845748901e-01,2.015956491231918335e-01,-1.159047111868858337e-01,-2.386324666440486908e-02,7.589580118656158447e-02,-5.848912522196769714e-02,2.305178791284561157e-01,-1.404726058244705200e-01,-1.289925128221511841e-01,1.661908030509948730e-01,-8.235562592744827271e-02,8.641456067562103271e-02,-1.820860356092453003e-01,9.477858245372772217e-02,-2.135165184736251831e-01,1.357687860727310181e-01,8.492445945739746094e-02,2.076142281293869019e-01,-3.848820924758911133e-01,-9.650049358606338501e-02,7.629395276308059692e-02,5.454079434275627136e-02,-1.578714698553085327e-01,3.143707215785980225e-01,1.286052316427230835e-01,1.218917816877365112e-01,1.317105293273925781e-01,-6.660502403974533081e-02,2.602988779544830322e-01,-3.273366391658782959e-01,1.429229527711868286e-01,9.409208595752716064e-02,1.774045825004577637e-01,-6.633625179529190063e-02,-1.892192959785461426e-01,-3.206550478935241699e-01,-5.745539814233779907e-02
1.733771860599517822e-01,-1.859649717807769775e-01,2.743738889694213867e-01,8.077945560216903687e-02,-1.170267537236213684e-01,-8.095593750476837158e-02,4.756731167435646057e-02,1.633967608213424683e-01,1.773975640535354614e-01,2.110068202018737793e-01,-1.327809840440750122e-01,1.119787469506263733e-01,1.100402772426605225e-01,-1.708339452743530273e-01,-1.565930098295211792e-01,2.389729197602719069e-04,5.604057386517524719e-02,1.527526080608367920e-01,-2.938386499881744385e-01,-2.075982540845870972e-01,-5.545109882950782776e-02,2.149895131587982178e-01,-8.786836639046669006e-03,-3.071364946663379669e-02,1.287620961666107178e-01,-3.025221638381481171e-02,2.147459425032138824e-02,3.201514482498168945e-02,7.725110650062561035e-02,2.352229654788970947e-01,1.177618652582168579e-01,2.644825279712677002e-01,2.523910403251647949e-01,1.451837122440338135e-01,1.164053678512573242e-01,-5.316376686096191406e-02,2.952731773257255554e-02,-6.291288137435913086e-02,2.336570769548416138e-01,1.771057546138763428e-01,6.682176142930984497e-03,3.124417271465063095e-04,2.848289906978607178e-01,-1.838980824686586857e-05,-2.916524112224578857e-01,-3.858821690082550049e-01,1.374651491641998291e-01,2.006512582302093506e-01,2.994877398014068604e-01,1.607279777526855469e-01,-4.888516664505004883e-02,1.836031973361968994e-01,-1.754065006971359253e-01,-7.555896788835525513e-02,-1.316552795469760895e-02,-6.656218320131301880e-02,2.824115939438343048e-02,1.652133613824844360e-01,-2.155791074037551880e-01,1.669866889715194702e-01,-9.325657784938812256e-02,1.816559582948684692e-01,-3.325421214103698730e-01,-2.902117967605590820e-01,-1.739516407251358032e-01,1.236585993319749832e-02,3.191158920526504517e-02,1.423523277044296265e-01,-3.449280261993408203e-01,-6.465301383286714554e-03,4.255678877234458923e-02,3.133199363946914673e-02,1.251654326915740967e-01,1.086143553256988525e-01,-4.807621985673904419e-02,1.470198184251785278e-01,1.733302772045135498e-01,1.480983197689056396e-02,2.924700081348419189e-01,-7.638065144419670105e-04,6.345858424901962280e-02,1.479124575853347778e-01,5.765538290143013000e-02,2.952277958393096924e-01,5.702470242977142334e-02,1.577989384531974792e-02,-6.414006650447845459e-02,1.250355504453182220e-02,-5.777871981263160706e-02,-1.658115349709987640e-02,6.060127541422843933e-02,1.947355270385742188e-02,2.360755801200866699e-01,1.825500428676605225e-01,2.273101657629013062e-01,-8.662848174571990967e-02,3.555530607700347900e-01,1.246623508632183075e-02,2.732998728752136230e-01,7.710082828998565674e-02,-6.389820575714111328e-02,1.574576459825038910e-02,1.679789870977401733e-01,2.085122764110565186e-01,4.359794408082962036e-02,-2.034789621829986572e-01,4.472209140658378601e-02,5.992420390248298645e-02,2.692004442214965820e-01,3.199145793914794922e-01,-1.267890483140945435e-01,1.961415112018585205e-01,1.926327869296073914e-02,-1.126157119870185852e-01,6.495080143213272095e-02,-9.134023636579513550e-02,-6.074478477239608765e-02,-2.425740659236907959e-01,2.763169407844543457e-01,-9.202881902456283569e-02,-4.764298722147941589e-02,-2.122499644756317139e-01,8.163584768772125244e-02,1.563489884138107300e-01,1.142115220427513123e-01,1.516215503215789795e-01,-2.121921032667160034e-01,4.427596330642700195e-01,-2.100135385990142822e-01,-3.668908029794692993e-04,1.418975740671157837e-01,-6.246095150709152222e-02,-4.575594142079353333e-02,2.002560794353485107e-01,-5.432284995913505554e-02,3.462006151676177979e-01,2.053696066141128540e-01,-1.225849688053131104e-01,-1.786593049764633179e-01,-2.511031627655029297e-01,-2.727813720703125000e-01,8.769048750400543213e-02,4.031831324100494385e-01,1.567924469709396362e-01,-1.137760430574417114e-01,-5.909518525004386902e-02,4.807015135884284973e-02,3.455448448657989502e-01,1.247296035289764404e-01,-2.118909657001495361e-01,1.611568406224250793e-02,-1.418726705014705658e-02,1.251209378242492676e-01,2.518236637115478516e-01,-7.418514788150787354e-02,1.575340926647186279e-01,-8.310201764106750488e-02,-5.994166433811187744e-02,-2.454927265644073486e-01,-9.295046329498291016e-02,-1.620355397462844849e-01,3.280592262744903564e-01,-9.855724871158599854e-02,-3.198043256998062134e-02,-1.298559457063674927e-01,4.874832555651664734e-02,1.085574366152286530e-02,7.928031682968139648e-02,8.376181125640869141e-02,-3.240162506699562073e-02,3.930449858307838440e-02,2.704696357250213623e-01,3.735529780387878418e-01,1.120775341987609863e-01,2.348967194557189941e-01,-1.901404708623886108e-01,3.771962821483612061e-01,-2.375517338514328003e-01,1.640655100345611572e-02,1.105794012546539307e-01,1.980119347572326660e-01,-1.877627223730087280e-01,-9.453152865171432495e-02,-1.899111121892929077e-01,1.075828224420547485e-01,-1.192754879593849182e-02,2.554939985275268555e-01,2.221216559410095215e-01,-1.606245189905166626e-01,2.453883737325668335e-01,-5.732952803373336792e-02,1.632356494665145874e-01,-1.500350832939147949e-01,2.497139871120452881e-01,2.320720404386520386e-01,1.538724452257156372e-01,-1.379324644804000854e-01,-2.302991449832916260e-01,-3.488222062587738037e-01,1.581080853939056396e-01
1.433852966874837875e-02,-9.826395660638809204e-02,-6.739309430122375488e-02,-2.222431451082229614e-01,-1.201377511024475098e-01,-1.230828613042831421e-01,-1.102048531174659729e-01,4.211494699120521545e-02,-6.730850040912628174e-02,2.314384840428829193e-02,-6.311293691396713257e-02,6.719812005758285522e-02,-1.177717372775077820e-01,8.690641075372695923e-02,-1.169470846652984619e-01,-1.084671393036842346e-01,8.695328724570572376e-04,-2.660967595875263214e-02,3.779764100909233093e-02,-9.124932438135147095e-02,-1.404194384813308716e-01,1.960861496627330780e-02,-7.536707073450088501e-02,-1.333553940057754517e-01,-6.933457404375076294e-02,-7.471745368093252182e-03,9.755704551935195923e-02,5.597869306802749634e-02,-1.286367624998092651e-01,6.983006000518798828e-02,-4.545226320624351501e-02,-1.848839223384857178e-03,1.242201775312423706e-02,9.002351015806198120e-02,8.369106217287480831e-04,9.845418483018875122e-02,-1.045305877923965454e-01,-3.231766447424888611e-02,-1.111702620983123779e-01,-1.566353142261505127e-01,-1.030443236231803894e-03,-1.926677823066711426e-01,-1.368161886930465698e-01,5.441278964281082153e-02,-6.294578313827514648e-02,-1.292258650064468384e-01,5.264261364936828613e-02,8.174452930688858032e-02,-5.639472231268882751e-02,-1.150105521082878113e-02,-7.421702146530151367e-02,2.400200068950653076e-02,1.995554659515619278e-03,-6.864895112812519073e-03,-1.505569219589233398e-01,-1.461686044931411743e-01,-1.014579311013221741e-01,6.755792349576950073e-02,3.950681537389755249e-02,1.749933511018753052e-02,-6.230498477816581726e-02,-1.096427440643310547e-01,3.125861659646034241e-02,-1.560433655977249146e-01,-6.454338878393173218e-02,5.056599527597427368e-02,1.237033829092979431e-01,5.192467942833900452e-02,-1.404480189085006714e-01,7.057654112577438354e-02,3.854795172810554504e-02,-1.007946431636810303e-01,-1.508150435984134674e-02,3.404611349105834961e-02,-1.129317432641983032e-01,-4.514237400144338608e-03,-1.142381653189659119e-01,3.467572107911109924e-02,-2.405996620655059814e-02,-1.011145338416099548e-01,7.554281502962112427e-02,3.008226491510868073e-02,4.776169732213020325e-02,-6.100997328758239746e-02,1.092913225293159485e-01,-1.354949027299880981e-01,-1.513855606317520142e-01,-4.614054784178733826e-02,-1.014719065278768539e-02,9.173962473869323730e-02,3.182435035705566406e-02,-6.959682703018188477e-02,-1.065933704376220703e-02,2.483665384352207184e-02,-1.186507269740104675e-01,6.633023917675018311e-02,5.765276029706001282e-02,-1.422344446182250977e-01,6.938453763723373413e-02,-5.683519691228866577e-02,5.791924521327018738e-02,-4.143690317869186401e-02,-6.849191337823867798e-02,-8.025816828012466431e-02,-1.926784589886665344e-02,-5.706682801246643066e-02,3.597189113497734070e-02,4.849605262279510498e-02,-3.179822117090225220e-02,-1.257225573062896729e-01,4.078573733568191528e-02,2.508385293185710907e-02,-1.309112012386322021e-01,-9.043566882610321045e-02,4.359783604741096497e-03,-1.461519002914428711e-01,-1.126955226063728333e-01,-1.672031357884407043e-02,6.911722570657730103e-02,-1.033904179930686951e-01,5.147707462310791016e-02,-3.887889906764030457e-02,-1.362006813287734985e-01,-1.825447231531143188e-01,-1.456352174282073975e-01,-1.250019669532775879e-01,-1.063915118575096130e-01,-1.534984707832336426e-01,1.086363121867179871e-01,1.589624211192131042e-02,4.061343520879745483e-02,2.975348755717277527e-02,2.377648092806339264e-02,-1.642234325408935547e-01,4.853662848472595215e-02,-1.308149546384811401e-01,-1.331560760736465454e-01,-1.214626282453536987e-01,-2.843258716166019440e-02,5.523737519979476929e-02,-1.779743731021881104e-01,-1.128594577312469482e-01,8.394477516412734985e-02,-5.932871252298355103e-02,-8.458448946475982666e-02,-8.803579956293106079e-02,-8.140946924686431885e-02,7.100310176610946655e-02,-9.892277419567108154e-02,-1.183323562145233154e-01,-7.394258677959442139e-02,-2.147977612912654877e-02,-2.989205904304981232e-02,-1.066702138632535934e-02,4.777964204549789429e-02,-1.488234698772430420e-01,-7.023792713880538940e-02,-2.814623899757862091e-02,-1.133810877799987793e-01,-4.965906962752342224e-03,-1.104751750826835632e-01,1.528211985714733601e-03,1.330823451280593872e-01,3.792554512619972229e-02,-3.579936455935239792e-03,-6.847786251455545425e-03,-7.172633707523345947e-02,-1.612294167280197144e-01,-1.206884086132049561e-01,5.613633617758750916e-02,-1.565020084381103516e-01,2.736082300543785095e-02,-1.403156816959381104e-01,-5.224550887942314148e-02,5.375476926565170288e-02,6.956851482391357422e-02,3.712088987231254578e-02,6.458316743373870850e-02,-7.874560356140136719e-02,-1.215511113405227661e-01,-7.666284590959548950e-02,-2.377578429877758026e-02,-5.010893568396568298e-03,1.622747816145420074e-02,3.398609161376953125e-02,-1.669869720935821533e-01,-8.363355696201324463e-02,-1.908291429281234741e-01,-2.633207850158214569e-02,-4.091450572013854980e-02,-9.877194464206695557e-02,2.174955559894442558e-03,1.024305894970893860e-01,-3.870252519845962524e-02,7.332403212785720825e-03,1.348531711846590042e-02,6.495819240808486938e-02,1.048496924340724945e-02,-9.781405329704284668e-02,1.088155210018157959e-01
-1.240921858698129654e-02,-1.079877391457557678e-01,-3.752850592136383057e-01,1.739058494567871094e-01,3.554282709956169128e-02,6.937602162361145020e-02,-2.386417388916015625e-01,-2.424720525741577148e-01,1.445106603205204010e-02,-9.137906879186630249e-02,4.698383808135986328e-02,1.990716718137264252e-02,-1.566743552684783936e-01,1.114533320069313049e-01,-1.000298485159873962e-01,-1.781650930643081665e-01,6.615771912038326263e-03,6.099285185337066650e-02,-2.633665204048156738e-01,-1.166644617915153503e-01,3.472552169114351273e-03,-2.420477122068405151e-01,2.401061542332172394e-02,-3.432690501213073730e-01,-3.459931537508964539e-02,1.297613885253667831e-02,4.677756503224372864e-02,-8.867128193378448486e-02,-2.432654052972793579e-02,2.072676271200180054e-02,1.979103535413742065e-01,6.727048754692077637e-02,9.458336979150772095e-02,3.689772635698318481e-02,4.983843863010406494e-02,-2.739044427871704102e-01,5.408234521746635437e-02,7.772299461066722870e-03,1.275179982185363770e-01,-4.922917485237121582e-02,1.471890956163406372e-01,2.753392159938812256e-01,2.449923567473888397e-02,-4.468129947781562805e-03,9.172993153333663940e-02,-2.725877054035663605e-02,-2.275468707084655762e-01,-2.552374899387359619e-01,-7.506311684846878052e-02,-2.277476936578750610e-01,1.338527202606201172e-01,1.605383008718490601e-01,2.358264476060867310e-01,8.165793865919113159e-02,-2.073198854923248291e-01,1.260992884635925293e-01,9.244728088378906250e-02,-2.756666839122772217e-01,1.176830455660820007e-01,2.249488048255443573e-02,1.990279853343963623e-01,-4.691067636013031006e-01,2.528411746025085449e-01,1.108519174158573151e-02,1.854513138532638550e-01,-4.482584446668624878e-02,1.040815282613039017e-02,-2.604016959667205811e-01,1.438193172216415405e-01,1.880288496613502502e-02,-1.718255318701267242e-02,-2.517510354518890381e-01,-3.076386153697967529e-01,-1.514827311038970947e-01,8.339940756559371948e-02,8.041384816169738770e-02,8.821271359920501709e-03,-2.842844426631927490e-01,-5.313510298728942871e-01,1.804910898208618164e-01,-2.096831053495407104e-01,6.292564421892166138e-02,9.457705914974212646e-02,3.329928964376449585e-02,2.682729810476303101e-02,1.315854340791702271e-01,1.840376108884811401e-01,8.327499032020568848e-02,-1.824524700641632080e-01,-1.406394690275192261e-01,6.645139306783676147e-02,-2.669841945171356201e-01,-1.717300564050674438e-01,-1.797826290130615234e-01,-1.583678424358367920e-01,-3.135228529572486877e-03,-1.497000306844711304e-01,1.435182690620422363e-01,-2.590675354003906250e-01,-4.181154444813728333e-02,-1.697208732366561890e-01,5.528170615434646606e-02,4.043081775307655334e-02,-3.013471066951751709e-01,-2.577567994594573975e-01,3.254504203796386719e-01,2.426654696464538574e-01,-3.256753319874405861e-03,-9.837651252746582031e-02,1.630260497331619263e-01,5.898588523268699646e-02,3.620967268943786621e-02,1.225164160132408142e-01,7.136445492506027222e-02,-8.992761373519897461e-02,4.003540426492691040e-02,2.314758300781250000e-01,-7.353248540312051773e-03,-1.937351822853088379e-01,1.583765144459903240e-03,1.237877681851387024e-01,1.842208355665206909e-01,5.246010795235633850e-02,-4.071234762668609619e-01,-1.685281842947006226e-01,-6.157429143786430359e-02,1.804416440427303314e-02,-2.711339890956878662e-01,-5.955376848578453064e-02,-3.420823439955711365e-02,2.601553872227668762e-02,1.997444033622741699e-01,3.788192197680473328e-02,2.208109945058822632e-02,2.025562226772308350e-01,-7.875471562147140503e-02,-9.719010442495346069e-02,1.192756593227386475e-01,5.162254348397254944e-02,1.120452359318733215e-01,4.401751235127449036e-02,-1.762931197881698608e-01,-3.872522413730621338e-01,2.971049025654792786e-02,-1.324843019247055054e-01,3.766026198863983154e-01,-8.571147918701171875e-02,-1.445511877536773682e-01,-5.850322917103767395e-02,-7.837963849306106567e-02,-4.833057895302772522e-02,-7.957036606967449188e-03,6.774000823497772217e-02,-7.419066131114959717e-02,-1.267116665840148926e-01,-9.887620061635971069e-02,9.776552766561508179e-02,5.327069759368896484e-02,-5.420659109950065613e-02,1.873600631952285767e-01,-6.524913758039474487e-02,-3.659126162528991699e-02,-8.745688013732433319e-03,-2.017166018486022949e-01,1.414466053247451782e-01,3.447132930159568787e-02,-1.121877804398536682e-01,-7.874543219804763794e-02,2.300919592380523682e-01,-4.824145510792732239e-02,3.118035197257995605e-01,-1.198410764336585999e-01,-2.465575747191905975e-02,-1.615412384271621704e-01,-1.690071076154708862e-01,9.828051179647445679e-02,-2.314666807651519775e-01,3.817696496844291687e-02,1.674223393201828003e-01,-1.016292199492454529e-01,6.516563892364501953e-02,-5.915284901857376099e-02,2.060467302799224854e-01,3.415703028440475464e-02,2.355355918407440186e-01,1.579322963953018188e-01,-3.546192497014999390e-02,1.363293081521987915e-01,-9.445696137845516205e-03,2.435581199824810028e-02,1.818791627883911133e-01,-1.715380884706974030e-02,-1.278839707374572754e-01,9.209077805280685425e-02,2.965915761888027191e-02,-1.159033849835395813e-01,-1.020701155066490173e-01,6.657121330499649048e-02,-1.707442291080951691e-02,9.513384103775024414e-02
-1.673114299774169922e-02,-4.251887276768684387e-02,-5.954250320792198181e-02,4.441454634070396423e-02,1.594734191894531250e-01,-2.739885635673999786e-02,3.693520650267601013e-02,1.547483801841735840e-01,-1.353876888751983643e-01,4.146065190434455872e-02,2.424985319375991821e-01,-1.036358326673507690e-01,-1.301247030496597290e-01,1.476169079542160034e-01,-6.395196914672851562e-02,-1.671527028083801270e-01,1.405370831489562988e-01,1.176277641206979752e-02,1.215221285820007324e-01,8.936641365289688110e-02,1.322164684534072876e-01,5.163635686039924622e-02,7.135181128978729248e-02,2.432144731283187866e-01,1.409764438867568970e-01,2.145079663023352623e-03,-2.317631989717483521e-02,1.249860227108001709e-01,-6.763409078121185303e-02,-2.858324050903320312e-01,1.204768195748329163e-01,4.427944868803024292e-02,-7.618830353021621704e-02,-1.850911825895309448e-01,6.674085743725299835e-03,-1.171410270035266876e-02,3.631021454930305481e-02,3.291332423686981201e-01,-2.275464534759521484e-01,-3.414902463555335999e-02,-2.198976874351501465e-01,-9.449733048677444458e-02,4.521958529949188232e-02,1.456582248210906982e-01,3.488607406616210938e-01,-2.588511705398559570e-01,-4.258736595511436462e-02,1.830307841300964355e-01,9.654629975557327271e-02,2.036075480282306671e-02,1.068868022412061691e-02,-2.771416492760181427e-02,3.732725083827972412e-01,1.113195344805717468e-01,1.654306948184967041e-01,-5.712569132447242737e-02,1.929972618818283081e-01,3.110708482563495636e-02,-5.667924880981445312e-03,-7.277180999517440796e-02,-6.975503265857696533e-02,-1.259668171405792236e-01,-2.481467090547084808e-03,2.057302594184875488e-01,5.386233702301979065e-02,-1.270341426134109497e-01,2.082067579030990601e-01,2.387499436736106873e-02,3.564921021461486816e-01,5.452125333249568939e-03,1.445646286010742188e-01,2.587424218654632568e-01,-5.032017827033996582e-02,9.424246102571487427e-02,9.879571944475173950e-02,-2.142400294542312622e-01,8.002001047134399414e-02,4.933197796344757080e-01,-1.772247701883316040e-01,-1.366433054208755493e-01,2.282575219869613647e-01,2.288830094039440155e-02,1.959086507558822632e-01,-2.439823448657989502e-01,-2.523984014987945557e-02,3.545149043202400208e-02,1.029940247535705566e-01,5.564338341355323792e-02,-4.745440930128097534e-02,1.137817502021789551e-01,-2.802346050739288330e-01,-3.902079910039901733e-02,2.203397452831268311e-01,4.105788841843605042e-02,-1.482221186161041260e-01,1.835455894470214844e-01,-1.179284453392028809e-01,1.545473635196685791e-01,1.827253401279449463e-02,1.636902689933776855e-01,1.511473208665847778e-01,-1.639786362648010254e-01,-2.549979388713836670e-01,-3.449313044548034668e-01,-5.560804903507232666e-02,-5.465513095259666443e-02,9.126485139131546021e-02,9.534890949726104736e-02,-4.235550016164779663e-02,-2.176224589347839355e-01,-5.170529335737228394e-02,-2.563863992691040039e-02,5.181807279586791992e-02,-1.497777700424194336e-01,1.888462901115417480e-02,-1.613367348909378052e-01,-2.170292586088180542e-01,3.924423754215240479e-01,-4.573076032102108002e-03,1.628040671348571777e-01,-5.113507807254791260e-02,1.638466268777847290e-01,-1.717498004436492920e-01,2.806517779827117920e-01,-3.723816946148872375e-02,-1.245412901043891907e-01,-1.129789054393768311e-01,-6.529268622398376465e-02,-4.266034439206123352e-02,9.249019622802734375e-02,-2.108093351125717163e-01,-3.600939363241195679e-02,2.243252992630004883e-01,3.667270764708518982e-02,1.570224612951278687e-01,4.829394817352294922e-02,-2.356604039669036865e-01,1.564328521490097046e-01,3.299579918384552002e-01,3.709164261817932129e-01,2.521429955959320068e-01,-7.903599739074707031e-02,6.245378870517015457e-03,-1.322393715381622314e-01,7.817084342241287231e-02,5.396837741136550903e-02,5.388121306896209717e-02,-7.436402142047882080e-02,-9.818159788846969604e-02,2.276884317398071289e-01,-2.250679396092891693e-02,7.987787574529647827e-02,8.637285977602005005e-02,2.373740822076797485e-02,-4.610075056552886963e-02,-1.397667974233627319e-01,5.186783522367477417e-02,3.455792367458343506e-02,3.321230113506317139e-01,3.134066760540008545e-01,6.615936756134033203e-02,-2.713353037834167480e-01,1.886855363845825195e-01,-9.120876342058181763e-02,3.954582512378692627e-01,-1.206312254071235657e-01,2.092546075582504272e-01,2.974548935890197754e-01,-2.172482013702392578e-01,8.443408459424972534e-02,-2.094840407371520996e-01,4.199332557618618011e-03,-1.160560324788093567e-01,-2.106425464153289795e-01,-1.407536212354898453e-02,1.947799026966094971e-01,4.731123149394989014e-02,2.368736267089843750e-01,-2.141914963722229004e-01,-4.431695118546485901e-02,3.623651713132858276e-02,2.112064957618713379e-01,2.781248465180397034e-02,2.022368907928466797e-01,-7.088610529899597168e-02,8.526454865932464600e-02,-1.322224140167236328e-01,1.333439722657203674e-02,1.934287995100021362e-01,-5.570597201585769653e-02,-1.030799448490142822e-01,1.174967363476753235e-01,9.183041751384735107e-02,-3.194504678249359131e-01,9.360597282648086548e-02,1.205253526568412781e-01,-2.969737350940704346e-02,1.620518974959850311e-02,2.189502269029617310e-01,-2.637773454189300537e-01
-1.180286630988121033e-01,-5.827237665653228760e-02,1.212771013379096985e-01,1.252643465995788574e-01,2.072825878858566284e-01,3.083793818950653076e-01,-5.374655500054359436e-02,-1.042886748909950256e-01,2.016992717981338501e-01,-2.575177848339080811e-01,1.285622566938400269e-01,2.688914537429809570e-01,-1.384968403726816177e-02,1.110786199569702148e-01,-9.663497656583786011e-02,-1.174705401062965393e-01,6.860961019992828369e-02,-9.013935178518295288e-02,-2.223178297281265259e-01,1.217028684914112091e-02,-3.062211573123931885e-01,-1.141020506620407104e-01,-1.133058816194534302e-01,-4.339978098869323730e-01,-4.670960605144500732e-01,-5.228853598237037659e-02,-8.462288230657577515e-02,8.802334219217300415e-02,-1.090005114674568176e-01,-1.235090643167495728e-01,2.847876846790313721e-01,-2.034583836793899536e-01,1.790419220924377441e-01,5.621114000678062439e-02,7.950458675622940063e-02,-2.304390221834182739e-01,-3.682348877191543579e-02,-6.660261750221252441e-02,-5.000834539532661438e-02,8.657567203044891357e-02,2.294194996356964111e-01,5.746752396225929260e-02,-2.207588404417037964e-01,-1.136281900107860565e-02,-4.758050292730331421e-02,3.103022277355194092e-01,4.396751523017883301e-02,1.884164288640022278e-02,2.658183276653289795e-01,2.159277051687240601e-01,4.817707464098930359e-02,1.023806855082511902e-01,9.178170934319496155e-03,7.039634138345718384e-02,-1.449982374906539917e-01,8.418711274862289429e-02,4.166950285434722900e-02,6.613676249980926514e-02,-8.896465599536895752e-02,4.594008028507232666e-01,-8.197015523910522461e-02,-1.652130335569381714e-01,-2.970430627465248108e-02,-3.107783384621143341e-02,5.013255402445793152e-02,2.074753046035766602e-01,-1.810282468795776367e-01,3.082468211650848389e-01,5.431194975972175598e-02,1.160247549414634705e-01,-1.939712762832641602e-01,1.953175365924835205e-01,-6.450905930250883102e-03,5.712068453431129456e-02,-2.232820242643356323e-01,7.697574049234390259e-02,2.455268949270248413e-01,1.894132345914840698e-01,5.220736935734748840e-02,1.183307170867919922e-01,-1.028890684247016907e-01,-1.326147764921188354e-01,7.430995255708694458e-02,-2.104830055031925440e-04,-6.536728702485561371e-03,-3.885264322161674500e-02,1.802232116460800171e-02,1.258700937032699585e-01,-1.465620696544647217e-01,-3.238782286643981934e-02,3.574208542704582214e-02,-9.753338992595672607e-02,-8.063017576932907104e-02,9.537258185446262360e-03,-1.111298054456710815e-01,-1.269468963146209717e-01,-2.960317432880401611e-01,8.823831379413604736e-02,1.466901153326034546e-01,9.018776565790176392e-02,-7.046598196029663086e-02,-2.362055936828255653e-03,2.326689809560775757e-01,-1.813408136367797852e-01,-8.523230999708175659e-02,1.640272289514541626e-01,-6.715464405715465546e-03,1.582767628133296967e-02,1.973280608654022217e-01,-9.813687950372695923e-02,1.057987436652183533e-01,5.365968868136405945e-02,1.602481864392757416e-02,1.614055968821048737e-02,-9.239573031663894653e-02,2.149076461791992188e-01,-3.102386742830276489e-02,-1.772987991571426392e-01,-1.395234018564224243e-01,-4.518517106771469116e-02,1.317054182291030884e-01,-6.367781013250350952e-02,1.566713452339172363e-01,-8.000962436199188232e-02,-6.358484923839569092e-02,9.422179311513900757e-02,1.069295629858970642e-01,-1.341317743062973022e-01,3.021692633628845215e-01,-1.607849001884460449e-01,-2.580785751342773438e-01,-1.195282936096191406e-01,-3.181567192077636719e-01,-4.407293722033500671e-02,2.016303688287734985e-01,1.425520777702331543e-01,-1.379343271255493164e-01,5.252159759402275085e-02,1.255467683076858521e-01,1.581362187862396240e-01,6.132383272051811218e-02,3.039589896798133850e-02,-7.124618440866470337e-02,-1.016832143068313599e-01,-3.781876266002655029e-01,1.458944380283355713e-01,-1.225598379969596863e-01,-1.649749577045440674e-01,-2.923804335296154022e-02,-2.256700545549392700e-01,1.749091148376464844e-01,-4.337453469634056091e-02,-2.525939345359802246e-01,-2.029864639043807983e-01,-2.684900760650634766e-01,2.473450452089309692e-01,7.015373557806015015e-02,8.221073448657989502e-02,-9.151233732700347900e-02,-7.428305596113204956e-02,-5.508999899029731750e-02,4.920547455549240112e-02,-2.329126186668872833e-02,-4.377563297748565674e-02,-1.234338209033012390e-01,9.032608568668365479e-02,-1.380142271518707275e-01,2.002373486757278442e-01,1.354986727237701416e-01,-2.475723177194595337e-01,7.597430958412587643e-04,-1.432483792304992676e-01,8.608590811491012573e-02,6.010609865188598633e-02,-3.459205105900764465e-02,-4.126869142055511475e-02,2.205118983983993530e-01,1.833263933658599854e-01,3.767714649438858032e-02,-6.988966464996337891e-02,1.720193922519683838e-01,-2.103311866521835327e-01,1.410757154226303101e-01,-7.596230506896972656e-02,-2.904455468524247408e-04,1.406885236501693726e-01,-2.061877697706222534e-01,2.353394329547882080e-01,-1.621189713478088379e-01,6.238592043519020081e-02,3.171721398830413818e-01,-1.808516979217529297e-01,1.753108948469161987e-02,1.852619647979736328e-01,-5.275186523795127869e-02,2.964533306658267975e-02,-1.788979172706604004e-01,-8.522284775972366333e-02,1.677020937204360962e-01,2.685290575027465820e-02
-2.489193826913833618e-01,7.543617486953735352e-02,2.742753624916076660e-01,-6.813054531812667847e-02,3.373879492282867432e-01,1.932081729173660278e-01,-2.186824232339859009e-01,2.415307238698005676e-02,-8.327268064022064209e-02,-1.131239980459213257e-01,9.566783159971237183e-02,7.842919975519180298e-02,5.684669315814971924e-02,1.333119720220565796e-01,1.777577102184295654e-01,-1.029475033283233643e-01,4.504083096981048584e-02,-2.453296035528182983e-01,2.025389373302459717e-01,-3.240765929222106934e-01,-2.345509976148605347e-01,1.702244430780410767e-01,9.009193629026412964e-02,2.003885656595230103e-01,-1.369345337152481079e-01,-2.846921980381011963e-02,2.981808781623840332e-01,-1.358586549758911133e-01,-1.191805154085159302e-01,-2.427906841039657593e-01,1.943440437316894531e-01,-2.510516643524169922e-01,-1.747395098209381104e-01,-1.076779812574386597e-01,9.888078272342681885e-02,1.825472116470336914e-01,-2.455690875649452209e-02,-4.534768313169479370e-02,-2.364238202571868896e-01,-1.113393530249595642e-01,1.197236217558383942e-02,-1.628200523555278778e-02,-2.607123553752899170e-01,-1.793468445539474487e-01,-1.961963176727294922e-01,-1.659025251865386963e-01,-8.329697698354721069e-02,-1.304470561444759369e-02,1.331616342067718506e-01,1.229800879955291748e-01,-1.822224706411361694e-01,-9.757792949676513672e-02,8.594927191734313965e-02,8.708160370588302612e-03,1.832414418458938599e-01,-1.953070759773254395e-01,1.158677190542221069e-01,8.823673427104949951e-02,-1.063584536314010620e-01,1.674788817763328552e-02,1.713403500616550446e-03,2.095912955701351166e-02,-1.417099386453628540e-01,-1.381752938032150269e-01,-1.246922910213470459e-01,-2.338583320379257202e-01,7.633206993341445923e-02,1.199152618646621704e-01,2.631978690624237061e-01,1.259538084268569946e-01,-3.277419209480285645e-01,2.305328994989395142e-01,8.514446020126342773e-02,-1.869795620441436768e-01,-3.541336655616760254e-01,-2.271782457828521729e-01,7.849466055631637573e-02,1.743703335523605347e-01,2.281170934438705444e-01,3.898028284311294556e-02,1.514692604541778564e-01,-5.606513470411300659e-02,4.238200373947620392e-03,-3.107374310493469238e-01,-1.410312503576278687e-01,1.024118810892105103e-01,2.051215767860412598e-01,1.311684697866439819e-01,-3.900407999753952026e-02,-1.034857481718063354e-01,-2.824995517730712891e-01,-6.929778307676315308e-02,2.715386450290679932e-01,2.991890013217926025e-01,8.540648967027664185e-02,1.796206459403038025e-02,7.911849766969680786e-02,-3.862427175045013428e-01,-1.683312584646046162e-03,1.520514022558927536e-02,-5.307167023420333862e-02,7.091320585459470749e-03,-1.337283849716186523e-02,-7.883490063250064850e-03,6.614083051681518555e-02,2.080562859773635864e-01,-3.484767675399780273e-01,3.368713259696960449e-01,2.193046547472476959e-02,-6.493682414293289185e-02,-9.069100022315979004e-02,2.149058692157268524e-02,1.127394959330558777e-01,5.726314708590507507e-02,-1.852794587612152100e-01,-2.209267914295196533e-01,-2.233601212501525879e-01,1.930195242166519165e-01,9.913397580385208130e-02,-6.508353352546691895e-02,-2.012622505426406860e-01,1.381372660398483276e-01,-1.014371737837791443e-01,3.554605245590209961e-01,-3.017924260348081589e-03,-1.342846006155014038e-01,6.799799948930740356e-02,1.456860899925231934e-01,2.290003187954425812e-02,-1.326809972524642944e-01,-1.298929601907730103e-01,-1.481158733367919922e-01,9.678184241056442261e-02,6.247397512197494507e-02,1.005823388695716858e-01,-3.890442848205566406e-02,-2.426908165216445923e-01,-1.183132082223892212e-02,1.923770010471343994e-01,1.055088564753532410e-01,2.376507967710494995e-02,1.102267857640981674e-02,1.566314697265625000e-01,7.538514584302902222e-02,4.600240290164947510e-02,4.661458730697631836e-02,-1.317156553268432617e-01,1.072626188397407532e-01,-3.925701975822448730e-01,1.969114392995834351e-01,2.361035160720348358e-02,-5.628041923046112061e-02,1.530840843915939331e-01,2.815565764904022217e-01,-5.519425496459007263e-02,-1.299523264169692993e-01,-1.251311227679252625e-02,2.369317691773176193e-03,7.997032254934310913e-02,-1.032288447022438049e-01,2.130804397165775299e-02,-1.779665425419807434e-02,1.383614391088485718e-01,-1.621829569339752197e-01,-3.656729683279991150e-02,2.675095759332180023e-02,5.599168315529823303e-02,6.329908221960067749e-02,-1.898032240569591522e-02,-3.299592062830924988e-02,8.820784837007522583e-02,2.173159420490264893e-01,-8.965257555246353149e-03,1.335787177085876465e-01,3.892238810658454895e-02,1.154439523816108704e-01,2.018670141696929932e-01,5.565685406327247620e-02,-1.372082680463790894e-01,-1.463323924690485001e-02,-2.175012603402137756e-02,-3.414478525519371033e-02,-1.291141957044601440e-01,1.394789963960647583e-01,-1.805863827466964722e-01,-2.355201169848442078e-03,-1.410457342863082886e-01,-1.460477560758590698e-01,-1.859282143414020538e-02,-4.123699292540550232e-02,-2.838279604911804199e-01,1.017406433820724487e-01,1.693316251039505005e-01,-8.430973440408706665e-02,7.396944612264633179e-02,-1.942711174488067627e-01,-1.706261187791824341e-01,7.486943900585174561e-02,1.577545553445816040e-01,-1.064995229244232178e-01
-7.073016464710235596e-02,-2.335962140932679176e-03,2.108642272651195526e-02,1.132213473320007324e-01,5.604046862572431564e-03,-8.122175931930541992e-03,-2.536593377590179443e-02,-1.043729707598686218e-01,-5.847951397299766541e-02,-4.564772918820381165e-02,6.279750913381576538e-02,-5.927903950214385986e-02,1.258892589248716831e-03,7.100757211446762085e-02,-7.229164987802505493e-02,6.638348102569580078e-02,-4.698963835835456848e-02,-9.092744439840316772e-02,-2.561841625720262527e-03,-1.097622811794281006e-01,-1.125681102275848389e-01,6.697795540094375610e-02,-2.016079612076282501e-02,-1.205344796180725098e-01,-7.635741680860519409e-02,-4.109979420900344849e-02,3.072195313870906830e-02,-5.914059281349182129e-02,-7.632608711719512939e-02,-6.831881403923034668e-02,9.568838030099868774e-02,4.609606415033340454e-02,-8.379215002059936523e-02,1.225742977112531662e-03,-2.905199304223060608e-02,-7.919463515281677246e-02,-1.333968937397003174e-01,-1.009104177355766296e-01,-6.837177276611328125e-02,-9.092926979064941406e-02,1.761358603835105896e-02,9.236707352101802826e-03,3.884593769907951355e-02,-5.473608523607254028e-02,-5.690139159560203552e-02,7.406667619943618774e-02,7.473465055227279663e-02,-2.897646836936473846e-02,6.167501583695411682e-02,-5.195750389248132706e-03,7.584238797426223755e-02,-1.023526638746261597e-01,3.895985707640647888e-02,-9.021903574466705322e-02,8.079408109188079834e-02,-5.354520678520202637e-02,-6.676995754241943359e-02,8.803859353065490723e-02,-4.646302259061485529e-04,-2.941156551241874695e-02,-1.219972372055053711e-01,7.000061124563217163e-02,-6.598053872585296631e-02,-2.473464235663414001e-02,2.409976534545421600e-02,8.992276340723037720e-02,-3.703074529767036438e-02,-4.555165395140647888e-02,-9.022173285484313965e-02,-5.095646902918815613e-02,2.701565064489841461e-02,-6.579988449811935425e-02,-3.260916098952293396e-02,9.216478466987609863e-02,3.146202862262725830e-02,-1.214358210563659668e-01,-4.381950199604034424e-02,1.761680468916893005e-02,-5.786503106355667114e-02,-3.301353752613067627e-02,-1.500546373426914215e-02,8.360134065151214600e-02,-1.242169141769409180e-01,-5.777061451226472855e-03,2.045868150889873505e-02,-2.944985590875148773e-02,-6.851720809936523438e-02,1.017733737826347351e-01,1.060083806514739990e-01,-3.915860131382942200e-02,-6.466923654079437256e-02,4.836257547140121460e-03,-7.556130737066268921e-02,-9.801723062992095947e-04,-6.304030865430831909e-02,-8.214153349399566650e-02,3.799593821167945862e-02,8.301676809787750244e-02,1.567152328789234161e-02,-1.101671233773231506e-01,-8.090740442276000977e-02,3.123463690280914307e-02,-3.944026678800582886e-02,-3.523160703480243683e-03,-6.654072552919387817e-02,-1.236970871686935425e-01,-1.149175986647605896e-01,-8.004584163427352905e-02,-9.809078648686408997e-03,9.269207715988159180e-02,3.051540581509470940e-03,-9.051618725061416626e-02,3.041507676243782043e-02,-1.097338572144508362e-01,-1.085210666060447693e-01,7.102390378713607788e-02,4.678151011466979980e-02,6.927430164068937302e-03,-5.467673018574714661e-02,-5.099311843514442444e-02,-1.112131699919700623e-01,-1.050187572836875916e-01,-6.552246958017349243e-02,-9.273222833871841431e-02,-9.604400396347045898e-02,-1.289322972297668457e-01,8.150272071361541748e-02,-7.447208464145660400e-02,-7.891321927309036255e-02,-1.410418562591075897e-02,2.831952273845672607e-02,1.003660708665847778e-01,-9.635803848505020142e-02,7.322569191455841064e-02,7.282057404518127441e-02,-1.348039358854293823e-01,-4.073959589004516602e-02,-1.312547177076339722e-01,-4.598349332809448242e-02,-1.213291436433792114e-01,5.179220438003540039e-02,-6.079573649913072586e-03,2.681300416588783264e-02,-9.884774684906005859e-02,-3.288353979587554932e-02,7.593224197626113892e-02,-6.646842509508132935e-02,-4.648753255605697632e-02,2.506483905017375946e-02,7.177497260272502899e-03,4.976246133446693420e-02,9.275718033313751221e-02,-5.119299888610839844e-02,-1.217107400298118591e-01,6.343153119087219238e-02,-4.673169751185923815e-04,-4.930482432246208191e-02,1.050923615694046021e-01,-2.282239310443401337e-02,3.745436668395996094e-02,-6.746406853199005127e-02,-6.193656474351882935e-02,-7.077990472316741943e-02,-5.957964807748794556e-02,1.025554165244102478e-01,-1.163499578833580017e-01,7.235127687454223633e-02,-1.204214803874492645e-02,-1.032865233719348907e-02,-2.508844621479511261e-02,-8.405975252389907837e-02,2.806098572909832001e-02,5.485655739903450012e-02,-5.168771371245384216e-02,3.717677295207977295e-02,1.083388850092887878e-01,6.240376830101013184e-02,-9.152226848527789116e-04,-1.261457204818725586e-01,-1.268822699785232544e-01,7.807049900293350220e-02,-1.245702430605888367e-01,4.903098568320274353e-02,-9.624748677015304565e-02,-7.597412168979644775e-02,-8.983258157968521118e-02,-3.643052652478218079e-02,-1.274165809154510498e-01,5.795090273022651672e-02,-3.710912168025970459e-02,-7.876354455947875977e-02,3.253654390573501587e-02,1.564073190093040466e-02,-1.123733073472976685e-01,5.942226573824882507e-02,-3.292790427803993225e-02,-1.164650470018386841e-01,4.855873994529247284e-03,1.964232511818408966e-02,-5.866527557373046875e-02
9.880714863538742065e-02,1.994265615940093994e-01,2.717919349670410156e-01,5.453555658459663391e-02,-3.363415971398353577e-02,9.462212026119232178e-02,4.959796071052551270e-01,1.902247518301010132e-01,3.080721199512481689e-02,2.193208336830139160e-01,-1.408568471670150757e-01,-1.528710275888442993e-01,1.971312016248703003e-01,-2.893161214888095856e-02,1.325327251106500626e-02,3.305607438087463379e-01,-1.584411859512329102e-01,3.234816789627075195e-01,1.779049783945083618e-01,3.408409357070922852e-01,5.341563746333122253e-02,3.254128396511077881e-01,-2.716839313507080078e-03,7.887391000986099243e-02,1.395554989576339722e-01,-3.142229095101356506e-02,-6.979087740182876587e-02,2.816141843795776367e-01,2.218405157327651978e-01,2.929755449295043945e-01,7.419181615114212036e-02,2.468031942844390869e-01,1.488935500383377075e-01,3.392953872680664062e-01,2.621714770793914795e-01,2.624560296535491943e-01,-2.572143971920013428e-01,4.271932691335678101e-02,3.094607591629028320e-01,1.071199476718902588e-01,6.453681737184524536e-02,1.451989412307739258e-01,4.020187556743621826e-01,1.154433265328407288e-01,-1.041686981916427612e-01,6.309416890144348145e-02,1.222094744443893433e-01,8.924917131662368774e-02,4.239941239356994629e-01,4.187583625316619873e-01,-2.053568698465824127e-02,1.421755850315093994e-01,-1.927608065307140350e-02,1.714274734258651733e-01,8.341886103153228760e-02,1.493378579616546631e-01,4.345840215682983398e-01,4.625643491744995117e-01,-7.950650900602340698e-02,4.294812083244323730e-01,8.885847777128219604e-02,1.695414781570434570e-01,3.033489584922790527e-01,4.390596747398376465e-01,-2.391589339822530746e-03,4.797794520854949951e-01,6.255919486284255981e-02,4.283377826213836670e-01,7.492036372423171997e-02,1.603217124938964844e-01,6.584521383047103882e-02,1.163058057427406311e-01,3.499144911766052246e-01,3.844154179096221924e-01,1.409841179847717285e-01,1.532094478607177734e-01,1.957004070281982422e-01,1.431585848331451416e-01,6.021993756294250488e-01,-1.376262400299310684e-02,1.563063710927963257e-01,-8.466433733701705933e-03,-2.153244800865650177e-02,3.519450724124908447e-01,2.094781547784805298e-01,1.102988645434379578e-01,2.268725484609603882e-01,2.173709571361541748e-01,1.362457126379013062e-01,2.917725443840026855e-01,6.185563653707504272e-02,2.527909539639949799e-02,-3.477020561695098877e-02,2.301524579524993896e-01,7.342685014009475708e-02,6.304736435413360596e-02,-6.012757867574691772e-02,2.194305658340454102e-01,2.947591245174407959e-01,4.051964282989501953e-01,3.193245455622673035e-02,2.024698257446289062e-01,2.807990014553070068e-01,3.089396059513092041e-01,7.128965854644775391e-02,7.727985829114913940e-02,4.181231185793876648e-02,5.334553308784961700e-03,1.587402820587158203e-01,3.807349801063537598e-01,3.121419548988342285e-01,-7.753697782754898071e-02,2.096533775329589844e-01,-1.122897788882255554e-01,1.770745366811752319e-01,2.240927517414093018e-02,8.510001748800277710e-02,1.983405053615570068e-01,2.516672313213348389e-01,2.907059490680694580e-01,-1.489851064980030060e-02,1.268013417720794678e-01,1.923014037311077118e-02,2.243687957525253296e-01,1.669193953275680542e-01,1.916687488555908203e-01,2.173403799533843994e-01,4.013809263706207275e-01,3.567275404930114746e-01,-1.079837232828140259e-01,1.941367238759994507e-01,-1.522558927536010742e-01,1.797134727239608765e-01,2.828616797924041748e-01,6.927939504384994507e-02,4.330019950866699219e-01,3.663316667079925537e-01,-2.629820704460144043e-01,1.434437185525894165e-01,1.276973485946655273e-01,2.626447975635528564e-01,2.150413952767848969e-02,3.369910418987274170e-01,7.780310511589050293e-02,3.368285000324249268e-01,-1.306690126657485962e-01,2.555975317955017090e-01,3.237402439117431641e-01,2.258099764585494995e-01,1.035089492797851562e-01,3.611033260822296143e-01,2.660799026489257812e-01,1.890700906515121460e-01,2.576046586036682129e-01,-3.950010985136032104e-02,4.600892961025238037e-01,3.563901782035827637e-02,4.428705945611000061e-02,1.811906248331069946e-01,1.394046247005462646e-01,1.367810368537902832e-01,3.343591392040252686e-01,1.754788905382156372e-01,2.957498729228973389e-01,5.102567747235298157e-02,4.588332399725914001e-02,3.081703782081604004e-01,3.523539602756500244e-01,5.009020492434501648e-02,2.211891859769821167e-01,-3.050918281078338623e-01,1.850666850805282593e-01,1.951372176408767700e-01,3.585238382220268250e-02,1.878396421670913696e-01,-4.630195498466491699e-01,3.931999802589416504e-01,-1.394022256135940552e-01,2.426845729351043701e-01,2.251363992691040039e-01,4.848688244819641113e-01,9.779804944992065430e-02,-3.503435105085372925e-02,-1.326958537101745605e-01,7.420106977224349976e-02,1.929207891225814819e-01,1.396365016698837280e-01,4.690904319286346436e-01,1.338073015213012695e-01,1.724117696285247803e-01,2.366834878921508789e-01,3.187260925769805908e-01,1.338262259960174561e-01,2.909671068191528320e-01,2.514548301696777344e-01,9.158565849065780640e-02,2.035432122647762299e-02,1.026027053594589233e-01,2.260955981910228729e-02,-4.541102796792984009e-02
-2.441648840904235840e-01,4.057928547263145447e-02,-4.728204756975173950e-02,-1.382863223552703857e-01,3.608423843979835510e-02,1.173074990510940552e-01,4.231393337249755859e-02,-1.263894140720367432e-01,1.778745800256729126e-01,5.016491934657096863e-02,-2.760543860495090485e-02,3.211922012269496918e-03,1.063236873596906662e-02,-3.851741179823875427e-02,5.627841129899024963e-02,-5.901749059557914734e-02,-1.023558452725410461e-01,-4.142866432666778564e-01,3.775553405284881592e-01,1.381079554557800293e-01,-3.709714710712432861e-01,-1.576501280069351196e-01,2.297461926937103271e-01,-1.177674159407615662e-01,2.934641838073730469e-01,-9.762798249721527100e-02,8.934627287089824677e-03,-1.450334638357162476e-01,-9.866809705272316933e-04,-2.149169743061065674e-01,-1.996332556009292603e-01,7.184661179780960083e-02,-1.624530106782913208e-01,-1.072915494441986084e-01,1.472787857055664062e-01,5.554923415184020996e-02,6.259796209633350372e-04,4.499462991952896118e-02,-1.578098535537719727e-01,-2.703895233571529388e-02,1.373661868274211884e-02,-5.813670810312032700e-03,-9.691309533081948757e-04,-1.563674956560134888e-02,-7.646234333515167236e-02,-7.388756424188613892e-02,-1.271828413009643555e-01,-5.179127678275108337e-02,-1.108452528715133667e-01,-4.508249834179878235e-02,-7.302397489547729492e-02,8.720609359443187714e-03,1.371493935585021973e-01,-2.133776247501373291e-02,2.338483184576034546e-02,-9.240289032459259033e-02,9.313947707414627075e-02,-1.343128681182861328e-01,3.800538182258605957e-02,3.386430442333221436e-02,1.234152764081954956e-01,-2.323394268751144409e-02,2.237484902143478394e-01,1.626924127340316772e-01,5.015845596790313721e-02,2.201731353998184204e-01,-1.191022843122482300e-01,3.452926501631736755e-02,9.543836116790771484e-02,-5.137461796402931213e-02,-7.073545455932617188e-02,5.618795403279364109e-04,6.385307013988494873e-02,-3.020028769969940186e-01,7.534179091453552246e-02,2.908556256443262100e-03,2.384628355503082275e-01,-5.638628825545310974e-02,-1.446326971054077148e-01,-6.244947016239166260e-02,-1.790960729122161865e-01,-3.792883828282356262e-02,-2.331212162971496582e-01,-6.991824507713317871e-02,5.336668714880943298e-02,1.335364729166030884e-01,8.319650590419769287e-02,-6.994734983891248703e-03,2.905639447271823883e-02,2.245215512812137604e-02,1.486024074256420135e-02,-2.519094152376055717e-03,-9.529297053813934326e-02,2.021270245313644409e-02,1.193434149026870728e-01,-9.819591045379638672e-02,6.974843889474868774e-02,-2.416497319936752319e-01,-1.232951432466506958e-01,4.747105296701192856e-03,-2.813851237297058105e-01,-2.445269189774990082e-02,-2.993752658367156982e-01,1.504948735237121582e-01,3.027078807353973389e-01,-1.673252433538436890e-01,-2.265988886356353760e-01,-1.050045937299728394e-01,-2.318273484706878662e-01,-1.566481143236160278e-01,3.545423969626426697e-02,-1.861280798912048340e-01,1.184900552034378052e-01,2.254043221473693848e-01,3.816616162657737732e-02,-7.199865579605102539e-02,1.285506784915924072e-01,2.741467058658599854e-01,-1.556118130683898926e-01,-1.020755618810653687e-01,-7.849174737930297852e-02,1.905185282230377197e-01,9.249384514987468719e-03,-1.316027939319610596e-01,-8.286172151565551758e-02,-1.448636651039123535e-01,2.873829901218414307e-01,7.107386738061904907e-02,2.299064211547374725e-02,-3.557687997817993164e-02,-1.036727353930473328e-01,-1.507367044687271118e-01,3.345007896423339844e-01,-7.240393199026584625e-03,-2.108210921287536621e-01,-4.979582875967025757e-02,-1.104623228311538696e-01,-3.323598504066467285e-01,-2.241006344556808472e-01,1.775401458144187927e-02,3.094150125980377197e-02,2.627546489238739014e-01,9.023812017403542995e-04,-1.399229653179645538e-02,1.310360524803400040e-02,-1.152865216135978699e-01,1.627416312694549561e-01,4.172341898083686829e-02,2.077160179615020752e-01,1.470268797129392624e-02,8.791434019804000854e-02,9.141597151756286621e-02,7.194179296493530273e-02,1.651605069637298584e-01,1.695854067802429199e-01,-2.350274324417114258e-01,-2.081801742315292358e-01,-1.656064391136169434e-01,4.029146581888198853e-02,-8.920026570558547974e-02,3.350678831338882446e-02,3.612975776195526123e-02,1.222598180174827576e-01,-2.269706688821315765e-02,-5.337854847311973572e-02,-2.401285571977496147e-03,-5.030227079987525940e-02,-1.274573951959609985e-01,-5.266383662819862366e-02,1.820592433214187622e-01,8.625701069831848145e-02,6.575628370046615601e-02,-1.999791413545608521e-01,-1.461762487888336182e-01,-4.570190608501434326e-02,-9.731339663267135620e-02,2.071147039532661438e-02,-2.910604774951934814e-01,1.674285382032394409e-01,2.014532834291458130e-01,-1.735893785953521729e-01,-2.479776367545127869e-02,-8.350781351327896118e-02,6.644335109740495682e-03,-7.354234810918569565e-03,-1.061894297599792480e-01,-1.599560678005218506e-02,-6.632070988416671753e-02,5.013681948184967041e-02,-3.024365901947021484e-01,-7.971420884132385254e-02,-2.379816770553588867e-01,1.026049628853797913e-02,1.447372138500213623e-01,-1.358816027641296387e-01,-5.223705619573593140e-02,-8.849500119686126709e-02,1.660830974578857422e-01,-1.202450543642044067e-01,-1.398997604846954346e-01
-8.697182685136795044e-02,4.956906661391258240e-02,-7.602801918983459473e-02,1.037148460745811462e-01,7.010912895202636719e-02,-8.644532412290573120e-02,-2.612384557723999023e-01,-5.930120870471000671e-02,-6.391536444425582886e-02,-5.492823943495750427e-02,-8.354823105037212372e-03,-1.227697208523750305e-01,2.978414855897426605e-02,2.371789664030075073e-01,1.510977279394865036e-02,-5.142019316554069519e-02,1.208520457148551941e-01,-2.768152952194213867e-01,-1.969373971223831177e-01,-6.829669326543807983e-02,-4.800626635551452637e-02,-5.452403426170349121e-02,1.354365646839141846e-01,-2.301597297191619873e-01,-1.728339791297912598e-01,-9.126747027039527893e-03,1.455187797546386719e-01,6.054458022117614746e-02,-2.510085105895996094e-01,1.227825134992599487e-02,6.379111856222152710e-02,-1.035823151469230652e-01,-1.725272983312606812e-01,1.361313760280609131e-01,-7.095767557621002197e-02,-9.166695922613143921e-02,1.980476528406143188e-01,2.485516248270869255e-03,-5.740965902805328369e-02,8.584728837013244629e-02,-1.468423008918762207e-01,-1.424269974231719971e-01,-1.171939522027969360e-01,1.092310547828674316e-01,8.442588895559310913e-02,5.067436769604682922e-02,1.398449242115020752e-01,1.352053284645080566e-01,-1.282473355531692505e-01,-1.455966532230377197e-01,5.395912751555442810e-02,-4.813973233103752136e-02,1.494997143745422363e-01,-1.414210884831845760e-03,1.356870383024215698e-01,-2.200473248958587646e-01,3.135278355330228806e-03,-1.434087604284286499e-01,-6.077022477984428406e-02,-8.082581311464309692e-02,1.726157069206237793e-01,-9.672884643077850342e-02,-1.918435245752334595e-01,1.565684676170349121e-01,-1.444700062274932861e-01,1.121711805462837219e-01,-1.552665926283225417e-04,-1.719424128532409668e-01,-2.998470701277256012e-02,1.096608862280845642e-01,-2.808877080678939819e-02,-3.059855699539184570e-01,-2.553326487541198730e-01,-1.143784970045089722e-01,1.174742728471755981e-01,-2.405118644237518311e-01,2.704888023436069489e-02,-1.096507608890533447e-01,-1.656896173954010010e-01,6.572714447975158691e-02,-7.191954553127288818e-02,-6.857234984636306763e-02,-8.100997656583786011e-02,-5.254048854112625122e-02,-2.149324119091033936e-01,-7.387525402009487152e-03,-1.743624508380889893e-01,2.650924213230609894e-02,3.257159888744354248e-02,-1.586085408926010132e-01,1.799087077379226685e-01,-1.667865514755249023e-01,-6.339970976114273071e-02,-1.728056520223617554e-01,-1.113562583923339844e-01,-6.193472445011138916e-02,-1.448687463998794556e-01,-1.392571479082107544e-01,-1.856369972229003906e-01,-6.966063380241394043e-02,-1.104660928249359131e-01,-2.514573931694030762e-01,-1.764766126871109009e-01,1.202702447772026062e-01,6.295810453593730927e-03,-7.426485419273376465e-02,-8.769892156124114990e-02,-8.520832657814025879e-02,-1.726189851760864258e-01,-1.460907757282257080e-01,-1.290319710969924927e-01,-2.480037212371826172e-01,1.434208918362855911e-02,-1.539527904242277145e-02,-1.397612243890762329e-01,1.360898613929748535e-01,7.743876427412033081e-03,-1.432137787342071533e-01,-5.098909139633178711e-02,-1.369448304176330566e-01,6.352592259645462036e-02,1.501231342554092407e-01,-9.376386553049087524e-02,-2.487546205520629883e-02,1.824855059385299683e-01,2.426507882773876190e-02,7.210512459278106689e-02,-8.827351033687591553e-02,3.457501158118247986e-02,1.226356923580169678e-01,-2.144931703805923462e-01,9.977628290653228760e-02,1.309866011142730713e-01,-1.198863536119461060e-01,-1.574687212705612183e-01,-8.958289772272109985e-02,-6.749720126390457153e-02,7.096072286367416382e-02,-1.043143942952156067e-01,2.303969673812389374e-02,3.036300092935562134e-02,1.321669965982437134e-01,-8.774082362651824951e-02,-1.032079756259918213e-01,-1.535970121622085571e-01,-1.074535325169563293e-01,-6.235551834106445312e-02,-1.253279596567153931e-01,-2.117154747247695923e-02,-1.782676875591278076e-01,1.395536512136459351e-01,3.810207173228263855e-02,-1.646068543195724487e-01,-2.328475937247276306e-02,-6.767439097166061401e-02,-1.853093504905700684e-01,-1.244732961058616638e-01,2.883996255695819855e-02,-2.811286151409149170e-01,-1.170985549688339233e-01,-2.719531655311584473e-01,-1.487508714199066162e-01,-6.126816850155591965e-03,1.100765988230705261e-01,-2.072548866271972656e-01,1.464575976133346558e-01,-2.289833575487136841e-01,-1.317528486251831055e-01,-4.213230684399604797e-02,1.673060506582260132e-01,-4.106954857707023621e-02,-2.661579549312591553e-01,-1.204349771142005920e-01,1.286649703979492188e-01,-8.875206112861633301e-02,1.064668521285057068e-01,-1.657126247882843018e-01,1.207681372761726379e-01,3.904694691300392151e-02,-2.928804755210876465e-01,-1.355678886175155640e-01,-6.340711377561092377e-03,1.141705513000488281e-01,1.154050603508949280e-01,1.142935827374458313e-01,-8.480400592088699341e-02,6.809008121490478516e-02,-2.402977347373962402e-01,-3.340030089020729065e-02,7.010810077190399170e-02,1.094433292746543884e-01,-2.992409169673919678e-01,1.135464757680892944e-01,-4.792394489049911499e-02,-1.023629531264305115e-01,3.032760508358478546e-02,2.469283938407897949e-01,-1.854728534817695618e-02,-8.810389041900634766e-02,-2.046475559473037720e-01
2.912373282015323639e-02,-2.069068104028701782e-01,-1.672968864440917969e-01,2.753181457519531250e-01,-4.634464532136917114e-02,-1.070334091782569885e-01,5.765472725033760071e-02,-2.197816073894500732e-01,-2.749121189117431641e-01,-5.448612570762634277e-02,-1.890840679407119751e-01,-2.059348076581954956e-01,-1.205432787537574768e-01,-2.335928678512573242e-01,-2.127207070589065552e-01,1.719484291970729828e-02,8.851348422467708588e-03,1.438226401805877686e-01,3.981608524918556213e-02,3.344382941722869873e-01,1.240661367774009705e-01,-1.881126016378402710e-01,9.157805144786834717e-02,-6.258239597082138062e-02,1.824188232421875000e-01,9.066043794155120850e-02,4.038118571043014526e-02,5.210445821285247803e-02,-1.560022532939910889e-01,1.463864147663116455e-01,-1.233567390590906143e-02,2.103002667427062988e-01,1.529607474803924561e-01,-3.179374337196350098e-01,-1.516701132059097290e-01,-3.544844090938568115e-01,-5.613788962364196777e-02,5.666726827621459961e-02,9.946130961179733276e-02,8.546259999275207520e-02,-4.045239388942718506e-01,-7.800778374075889587e-03,2.732717394828796387e-01,-9.365288913249969482e-02,1.340025514364242554e-01,-6.547649204730987549e-02,-2.664617300033569336e-01,-3.675069212913513184e-01,-8.615267276763916016e-02,-2.034540921449661255e-01,4.896714910864830017e-02,3.532341495156288147e-02,2.296426594257354736e-01,1.089670956134796143e-01,-2.940384447574615479e-01,1.095756813883781433e-01,1.622653915546834469e-03,-2.528963051736354828e-02,1.608898937702178955e-01,-1.458616852760314941e-01,-4.145948588848114014e-01,-1.139502078294754028e-01,6.548514962196350098e-02,1.603824086487293243e-02,2.070116996765136719e-01,-1.778560727834701538e-01,-1.264679133892059326e-01,-1.241509094834327698e-01,5.924900248646736145e-02,2.387996166944503784e-01,2.439183443784713745e-01,-1.040895283222198486e-02,-1.222971826791763306e-01,1.427575796842575073e-01,3.881484866142272949e-01,1.967723369598388672e-01,-5.345463752746582031e-02,1.048101410269737244e-01,-2.662406861782073975e-01,1.405327171087265015e-01,-6.441836059093475342e-02,2.687829136848449707e-01,6.569584459066390991e-02,-7.797786593437194824e-02,1.365384459495544434e-01,1.837623864412307739e-01,-1.943426020443439484e-02,3.162878379225730896e-02,-2.595835924148559570e-01,-1.381191611289978027e-01,-1.123469099402427673e-01,1.624526083469390869e-01,-9.577711671590805054e-02,-2.564444730523973703e-05,-1.758849471807479858e-01,1.434852033853530884e-01,-2.863096594810485840e-01,4.769288375973701477e-02,6.331563740968704224e-02,7.881178706884384155e-02,-9.123741835355758667e-02,8.331286162137985229e-02,-2.832142449915409088e-02,-2.323688752949237823e-02,9.069195389747619629e-02,-1.601597666740417480e-01,-1.461402028799057007e-01,-9.746468067169189453e-02,-1.233284324407577515e-01,2.073007822036743164e-01,1.500607430934906006e-01,-1.088965386152267456e-01,-1.749487817287445068e-01,9.639188647270202637e-02,1.132498532533645630e-01,-1.934144645929336548e-02,1.147483363747596741e-01,1.787676811218261719e-01,1.085745543241500854e-01,3.881616890430450439e-02,5.815514922142028809e-02,2.285405695438385010e-01,-6.239489093422889709e-02,-9.014242328703403473e-03,4.320525750517845154e-02,-2.231563329696655273e-01,2.328991889953613281e-02,-1.400670558214187622e-01,-1.730928868055343628e-01,-3.753248751163482666e-01,1.265982687473297119e-01,9.647937119007110596e-02,1.341948062181472778e-01,3.660582751035690308e-02,1.705513745546340942e-01,1.140242591500282288e-01,-5.479224398732185364e-02,-9.283302724361419678e-02,1.558631360530853271e-01,1.739199161529541016e-01,-1.713147014379501343e-01,7.012790441513061523e-02,1.517134606838226318e-01,-8.674944192171096802e-02,2.813732624053955078e-02,2.875511944293975830e-01,2.065306007862091064e-01,2.283571055158972740e-03,1.398308854550123215e-02,2.477147579193115234e-01,4.216374084353446960e-02,9.414257109165191650e-02,-1.807065457105636597e-01,4.621515423059463501e-02,-1.853418201208114624e-01,-4.358174651861190796e-02,-1.934094429016113281e-01,-4.316414147615432739e-02,4.916170984506607056e-02,7.517527788877487183e-02,1.865430921316146851e-02,-1.488306522369384766e-01,2.139174938201904297e-01,-1.832017302513122559e-02,2.717256546020507812e-01,-1.655013412237167358e-01,6.747225299477577209e-03,1.679563671350479126e-01,-4.296085610985755920e-02,-6.604829430580139160e-02,-6.843240559101104736e-02,-3.018834069371223450e-02,1.875553429126739502e-01,-2.329986989498138428e-01,-1.047035027295351028e-02,1.449921727180480957e-01,-3.474181983619928360e-03,3.865024074912071228e-02,-1.094887554645538330e-01,9.921144694089889526e-02,2.056051343679428101e-01,5.390798673033714294e-02,-2.751456201076507568e-01,2.830798737704753876e-02,1.600575894117355347e-01,7.013749331235885620e-02,2.606603205204010010e-01,-1.512786895036697388e-01,3.081364929676055908e-01,9.033273160457611084e-02,-7.123298943042755127e-02,5.183334648609161377e-02,1.057521700859069824e-01,-8.766540139913558960e-02,5.719098821282386780e-02,2.164887040853500366e-01,-6.577278021723031998e-03,-3.293339908123016357e-02,-1.357858330011367798e-01,-1.240216419100761414e-01
1.424331814050674438e-01,-3.308213651180267334e-01,-2.341575473546981812e-01,7.453609257936477661e-02,-1.305876076221466064e-01,2.884995006024837494e-02,-9.937644749879837036e-02,-6.076983362436294556e-02,-2.005226910114288330e-01,2.528090476989746094e-01,-1.573574393987655640e-01,-3.301962465047836304e-02,-3.261901736259460449e-01,-2.671149969100952148e-01,-1.754303425550460815e-01,-2.530087344348430634e-02,-1.142751350998878479e-01,7.073404639959335327e-02,-1.823052614927291870e-01,1.077403351664543152e-01,-7.549107074737548828e-02,9.117536246776580811e-02,-1.732282638549804688e-01,1.196257770061492920e-01,-1.134671345353126526e-01,-6.097470875829458237e-03,-1.939141601324081421e-01,-8.849450945854187012e-02,7.087177783250808716e-02,2.917479351162910461e-02,-1.199173033237457275e-01,-7.068382948637008667e-02,3.169199451804161072e-02,-3.547979146242141724e-02,-6.676645576953887939e-02,-1.592021286487579346e-01,6.136676296591758728e-03,-1.779841259121894836e-02,-6.333781778812408447e-02,-6.086944788694381714e-02,-3.763392269611358643e-01,-3.027399778366088867e-01,1.421259250491857529e-02,-8.852934837341308594e-02,-5.516450479626655579e-02,-2.333375662565231323e-01,-1.163429617881774902e-01,2.461798787117004395e-01,-1.950568407773971558e-01,9.784791618585586548e-02,-2.131616622209548950e-01,8.607838302850723267e-02,1.185412034392356873e-01,1.848763227462768555e-02,-6.394147872924804688e-02,-2.826654016971588135e-01,1.150967627763748169e-01,8.303308486938476562e-02,-9.091653674840927124e-02,-3.937980532646179199e-02,-1.917962729930877686e-01,-1.764230281114578247e-01,1.243002638220787048e-01,-3.113178908824920654e-01,2.482464537024497986e-03,-5.137458816170692444e-02,-7.772655226290225983e-03,1.543702185153961182e-01,1.046439036726951599e-01,-5.379492416977882385e-02,1.524459272623062134e-01,5.393602326512336731e-02,-1.195237636566162109e-01,-1.307946890592575073e-01,1.926104575395584106e-01,2.709692716598510742e-02,1.841235756874084473e-01,1.445946693420410156e-01,1.283475160598754883e-01,5.502129346132278442e-02,-2.263906784355640411e-02,-2.324162609875202179e-02,-6.991318613290786743e-02,5.770710483193397522e-02,-1.944725662469863892e-01,-1.025076881051063538e-01,-2.154076844453811646e-01,-2.704095542430877686e-01,-7.764508575201034546e-02,-1.547788083553314209e-01,-2.385388761758804321e-01,-7.764132320880889893e-02,1.620558053255081177e-01,1.493348330259323120e-01,3.371904790401458740e-02,1.207195296883583069e-01,-3.918025270104408264e-02,-1.093923747539520264e-01,3.984926640987396240e-02,1.893273144960403442e-01,3.264624625444412231e-02,-2.368396967649459839e-01,-1.600183248519897461e-01,-2.842812053859233856e-02,-1.844267249107360840e-01,2.539180777966976166e-02,6.506057083606719971e-02,4.715370479971170425e-03,-4.372103139758110046e-02,4.263439774513244629e-02,-3.094092309474945068e-01,-1.218003705143928528e-01,-2.551943659782409668e-01,-1.688661724328994751e-01,2.485248260200023651e-02,-2.021452784538269043e-01,-3.796816989779472351e-02,2.420941591262817383e-01,-3.011883795261383057e-02,4.218070954084396362e-02,-3.572320342063903809e-01,-4.716065898537635803e-02,-1.086234748363494873e-01,8.843000978231430054e-02,-9.739501029253005981e-02,-2.718472480773925781e-02,-1.752593219280242920e-01,-1.283459831029176712e-02,5.917260795831680298e-02,-2.488173842430114746e-01,-4.612884670495986938e-02,-2.308215647935867310e-01,3.405922353267669678e-01,1.348416060209274292e-01,4.656688868999481201e-02,1.251178979873657227e-01,8.875083923339843750e-02,-7.273329794406890869e-02,1.570793986320495605e-01,1.880955845117568970e-01,-2.909202314913272858e-02,-4.044314473867416382e-02,9.928164631128311157e-02,-1.107848212122917175e-01,2.989028692245483398e-01,-1.066660974174737930e-02,1.373974829912185669e-01,1.027670577168464661e-01,-4.188609123229980469e-02,5.175755918025970459e-02,-1.640217453241348267e-01,3.664482235908508301e-01,-1.534783989191055298e-01,2.931191027164459229e-01,-1.602706611156463623e-01,-6.826222687959671021e-02,-9.121782332658767700e-02,-1.240402162075042725e-01,9.874061495065689087e-02,6.749297026544809341e-03,1.019578352570533752e-01,-2.057757377624511719e-01,-2.052213847637176514e-01,-2.573764622211456299e-01,1.130398288369178772e-01,-1.069205775856971741e-01,8.614276349544525146e-02,1.296297609806060791e-01,-3.009711802005767822e-01,-1.741714030504226685e-01,-1.931346058845520020e-01,-2.371849417686462402e-01,-4.880768433213233948e-02,-3.786304593086242676e-02,-2.970970794558525085e-02,-7.752612233161926270e-02,4.145263880491256714e-02,1.337952464818954468e-01,-1.747649610042572021e-01,1.998221427202224731e-01,-3.272270783782005310e-02,-1.086683794856071472e-01,-2.467929422855377197e-01,-6.913660466670989990e-02,-1.221283525228500366e-01,-1.667703241109848022e-01,-1.753205806016921997e-01,1.106435656547546387e-01,1.857775598764419556e-01,-7.305077463388442993e-02,-2.214268147945404053e-01,-1.116143986582756042e-01,-2.917790412902832031e-01,8.125951141119003296e-02,5.935401096940040588e-02,-9.577822685241699219e-02,1.403474807739257812e-01,-2.864510416984558105e-01,-1.203698813915252686e-01,1.934459619224071503e-02
-1.471149772405624390e-01,2.345180064439773560e-01,-1.474501490592956543e-01,-1.249417886137962341e-01,-4.902403801679611206e-02,3.297523260116577148e-01,2.057237625122070312e-01,-1.215768530964851379e-01,1.128290221095085144e-01,4.655747115612030029e-02,3.783250227570533752e-02,4.375985264778137207e-02,-1.879460662603378296e-01,-1.836185455322265625e-01,-1.472983062267303467e-01,1.410401426255702972e-02,1.416752636432647705e-01,-1.001461297273635864e-01,1.207080855965614319e-01,1.031550392508506775e-01,-9.868842363357543945e-02,-5.403058975934982300e-02,-1.717729121446609497e-01,-8.230943977832794189e-02,1.154979690909385681e-02,-5.487053468823432922e-02,9.005013853311538696e-02,-2.417831718921661377e-01,8.000634610652923584e-02,9.851749986410140991e-02,-1.259537786245346069e-01,-1.833074688911437988e-01,-5.203424766659736633e-02,2.205309718847274780e-01,1.089826896786689758e-01,-3.084971383213996887e-02,-1.621854305267333984e-02,2.246089428663253784e-01,2.183689735829830170e-03,-3.563034161925315857e-02,3.800291195511817932e-02,1.263585537672042847e-01,-3.210944831371307373e-01,2.907023727893829346e-01,-1.572811007499694824e-01,2.634751796722412109e-01,-1.434656977653503418e-01,-1.770223230123519897e-01,-3.196124136447906494e-01,-1.344179920852184296e-02,-2.095001041889190674e-01,-9.692433476448059082e-02,3.981666266918182373e-02,7.810905575752258301e-02,-1.192845106124877930e-01,1.186812520027160645e-01,7.797056343406438828e-03,-1.871705502271652222e-01,2.270694673061370850e-01,-7.953792065382003784e-02,1.431831121444702148e-01,-5.294923484325408936e-02,-2.250964641571044922e-01,8.376692980527877808e-02,5.448378250002861023e-02,2.894780635833740234e-01,-2.585758864879608154e-01,1.968851871788501740e-02,-9.140730649232864380e-02,1.418853998184204102e-01,-2.991991303861141205e-02,-1.940791681408882141e-02,5.146814137697219849e-02,-2.569140195846557617e-01,-1.170359477400779724e-01,-1.692809164524078369e-01,2.920070886611938477e-01,-9.424540214240550995e-03,-1.863284558057785034e-01,2.688741683959960938e-02,-3.335760533809661865e-02,-3.324014367535710335e-03,2.016271650791168213e-02,-3.999663144350051880e-02,2.890271246433258057e-01,5.649470910429954529e-02,-3.537336131557822227e-03,-4.844200611114501953e-02,9.262988716363906860e-02,-1.912313327193260193e-02,4.118775129318237305e-01,-1.031444445252418518e-01,-1.191097125411033630e-01,-1.234353035688400269e-01,-2.424200922250747681e-01,2.407128922641277313e-02,-4.041630774736404419e-03,1.345194429159164429e-01,-1.097020432353019714e-01,1.792781800031661987e-02,-2.542225718498229980e-01,-1.881428211927413940e-01,1.443624217063188553e-02,-1.183967664837837219e-01,-7.868718355894088745e-02,-1.248581334948539734e-01,-1.996697783470153809e-01,-3.488045930862426758e-01,-6.974501907825469971e-02,-1.026673614978790283e-01,1.839071959257125854e-01,-1.108526289463043213e-01,1.357847303152084351e-01,2.093313038349151611e-01,-2.379737049341201782e-02,1.664060950279235840e-01,-6.869903951883316040e-02,4.200592264533042908e-02,1.178955845534801483e-02,-4.804993048310279846e-03,2.760944068431854248e-01,1.744633466005325317e-01,1.462556272745132446e-01,-7.226272672414779663e-02,-1.239876896142959595e-01,-6.815931200981140137e-02,5.512531399726867676e-01,-4.165831705904565752e-05,2.747372984886169434e-01,-2.557875812053680420e-01,-2.621966600418090820e-01,4.558486863970756531e-02,-2.389430068433284760e-03,-2.588794529438018799e-01,-3.079297952353954315e-02,-1.187483444809913635e-01,-4.524540901184082031e-02,-4.462121054530143738e-02,6.761265546083450317e-02,1.954980343580245972e-01,2.563099265098571777e-01,1.303508579730987549e-01,-6.304586678743362427e-02,-7.891146093606948853e-02,1.352439820766448975e-01,-1.436815131455659866e-03,4.712155088782310486e-02,-2.122693806886672974e-01,2.300572991371154785e-01,-1.909134089946746826e-01,1.804738044738769531e-01,1.175637394189834595e-01,7.156061381101608276e-02,-6.601302325725555420e-02,1.541104465723037720e-01,1.103236153721809387e-01,-1.134352479130029678e-02,-1.206621900200843811e-01,6.229379400610923767e-02,1.202702373266220093e-01,-1.999085843563079834e-01,9.895537048578262329e-03,5.029079690575599670e-02,1.508273929357528687e-01,-5.019675567746162415e-02,1.293627172708511353e-01,5.318048223853111267e-02,1.848663687705993652e-01,1.079021990299224854e-01,-1.917378008365631104e-01,-2.431790903210639954e-02,4.448949173092842102e-02,-4.130452498793601990e-02,-1.090092770755290985e-02,-9.247783571481704712e-02,-1.158829033374786377e-01,-9.876656532287597656e-02,5.228615552186965942e-02,1.808568537235260010e-01,-2.462586015462875366e-01,4.755922779440879822e-02,2.528955638408660889e-01,2.029648572206497192e-01,-2.837376594543457031e-01,-4.907579720020294189e-02,4.018060117959976196e-02,-1.208651363849639893e-01,-8.681217581033706665e-02,-1.221670135855674744e-01,-1.400626543909311295e-02,2.202934622764587402e-01,-2.473217844963073730e-01,1.353541016578674316e-01,-2.363199368119239807e-03,-1.582905650138854980e-01,5.900967493653297424e-02,-1.339735537767410278e-01,2.808869816362857819e-02,-1.823855936527252197e-01,2.138500213623046875e-01
2.011935412883758545e-02,-2.505873143672943115e-01,1.243289038538932800e-01,1.671533882617950439e-01,-1.425781250000000000e-01,-3.466826379299163818e-01,1.571453958749771118e-01,9.596553631126880646e-03,-2.888655066490173340e-01,1.269051730632781982e-01,-2.800270617008209229e-01,-1.727542281150817871e-01,-3.843563795089721680e-02,-1.757362633943557739e-01,-2.088510245084762573e-02,1.474790126085281372e-01,1.797192692756652832e-01,3.720524162054061890e-02,-1.409026235342025757e-01,4.328571632504463196e-02,-3.341560810804367065e-02,1.150313988327980042e-01,1.093711927533149719e-01,4.011330306529998779e-01,1.281697899103164673e-01,6.065432727336883545e-02,-7.423870731145143509e-03,7.497773319482803345e-02,1.380697637796401978e-01,4.117275774478912354e-02,-2.356729954481124878e-01,2.671275436878204346e-01,-1.730176061391830444e-02,-2.896789014339447021e-01,5.975096300244331360e-02,4.549207910895347595e-02,1.080526933073997498e-01,-6.090859882533550262e-03,7.943652570247650146e-02,1.144566908478736877e-01,-4.877785742282867432e-01,-4.525930583477020264e-01,2.338237166404724121e-01,-1.697885990142822266e-01,-2.096863463521003723e-02,-3.654597699642181396e-01,1.541664749383926392e-01,9.118394553661346436e-02,2.075800597667694092e-01,5.483987554907798767e-02,-1.173454970121383667e-01,3.740051761269569397e-02,-5.962465703487396240e-02,-8.709889650344848633e-02,5.795112252235412598e-02,-1.613139510154724121e-01,4.035036265850067139e-01,1.299479454755783081e-01,9.432306140661239624e-02,7.521413266658782959e-02,-2.499168813228607178e-01,1.096532568335533142e-01,2.638881281018257141e-02,-9.964556992053985596e-02,-4.910844564437866211e-02,-2.490036487579345703e-01,-3.191774711012840271e-02,1.203942075371742249e-01,-1.294883638620376587e-01,1.024408638477325439e-01,2.126375883817672729e-01,-2.067068219184875488e-01,-9.049981832504272461e-02,1.501474380493164062e-01,1.350557506084442139e-01,1.773450225591659546e-01,1.587444394826889038e-01,-2.901477925479412079e-02,1.050232350826263428e-01,-2.973225116729736328e-01,1.336484551429748535e-01,9.390481561422348022e-02,-2.254474535584449768e-02,-1.198772061616182327e-02,-1.380713731050491333e-01,-5.428479239344596863e-02,2.210723608732223511e-01,-2.715669274330139160e-01,-1.507879942655563354e-01,-1.435820907354354858e-01,-1.208395585417747498e-01,-9.823796339333057404e-03,1.873228698968887329e-01,1.702159047126770020e-01,7.704890519380569458e-02,9.917908348143100739e-03,2.003747224807739258e-01,-3.975497093051671982e-03,1.694643795490264893e-01,1.223916634917259216e-01,7.420704513788223267e-02,-3.081150949001312256e-01,1.098388656973838806e-01,2.349163889884948730e-01,-8.154438436031341553e-02,9.385776519775390625e-02,-7.320552319288253784e-02,-1.993812769651412964e-01,1.097757741808891296e-01,1.308243274688720703e-01,-4.896477237343788147e-02,-1.065788511186838150e-02,-3.017235100269317627e-01,-9.231956303119659424e-02,1.596743166446685791e-01,-1.859526187181472778e-01,-8.275595307350158691e-02,7.381586730480194092e-02,3.762739524245262146e-02,1.830706894397735596e-01,-2.319644391536712646e-01,-1.998822838068008423e-01,-6.310842931270599365e-02,8.640090376138687134e-02,5.275432392954826355e-02,2.817452512681484222e-02,-3.162382543087005615e-01,2.777531445026397705e-01,-6.152071803808212280e-02,-1.853858977556228638e-01,2.808933258056640625e-01,-1.728474646806716919e-01,2.705336213111877441e-01,1.904784142971038818e-01,1.063268333673477173e-01,2.129927426576614380e-01,1.864112168550491333e-01,-8.505558222532272339e-02,-1.311942189931869507e-01,-5.860291793942451477e-02,-1.663719862699508667e-01,9.429050981998443604e-02,2.819560468196868896e-01,8.108080923557281494e-02,1.523861885070800781e-01,1.160403490066528320e-01,2.414910048246383667e-01,1.672236919403076172e-01,-1.002593338489532471e-01,3.763768076896667480e-01,-9.771732240915298462e-02,2.593889534473419189e-01,7.379552721977233887e-02,1.820573508739471436e-01,-2.366377264261245728e-01,1.371961785480380058e-03,-1.395165473222732544e-01,-3.790112584829330444e-02,-8.571273088455200195e-02,9.074914455413818359e-02,2.510587871074676514e-02,-1.449091881513595581e-01,-1.230996996164321899e-01,-2.611989378929138184e-01,1.219874098896980286e-01,-1.542493253946304321e-01,1.893967390060424805e-01,1.299061030149459839e-01,6.698887795209884644e-02,1.090334728360176086e-01,-5.282580107450485229e-02,-9.674122184514999390e-02,7.840385288000106812e-02,-2.243056334555149078e-02,3.529857844114303589e-02,3.015195950865745544e-02,-1.819016225636005402e-02,-2.234343588352203369e-01,-2.734096944332122803e-01,2.043368518352508545e-01,3.344321250915527344e-02,-1.496039181947708130e-01,-4.119777381420135498e-01,-6.432072818279266357e-02,-1.661572456359863281e-01,-1.200591772794723511e-01,3.390599489212036133e-01,1.605561226606369019e-01,2.756785154342651367e-01,1.001677736639976501e-01,-7.788053154945373535e-02,1.805779933929443359e-01,-2.335569262504577637e-01,1.318423002958297729e-01,-1.346038933843374252e-02,1.186443939805030823e-01,9.012145549058914185e-02,-1.528513729572296143e-01,-2.568724751472473145e-01,-1.076128259301185608e-01
-2.745692804455757141e-02,-7.078374922275543213e-02,6.138271465897560120e-02,2.177645415067672729e-01,-7.184945046901702881e-02,-9.372677654027938843e-03,-9.663732349872589111e-02,-2.413799911737442017e-01,-8.965221047401428223e-02,-1.808015108108520508e-01,1.877487897872924805e-01,8.734307438135147095e-02,-1.910057663917541504e-01,1.677708514034748077e-02,-2.396035045385360718e-01,-2.273191213607788086e-01,6.804616004228591919e-02,6.638263817876577377e-03,-6.762350350618362427e-02,-1.647080630064010620e-01,5.922710523009300232e-02,-4.143138825893402100e-01,-4.096514359116554260e-02,-1.314730644226074219e-01,-1.585800386965274811e-02,1.383370161056518555e-01,1.083375513553619385e-02,1.834225840866565704e-02,7.790502905845642090e-02,-3.706856071949005127e-02,1.603788882493972778e-01,-1.302210055291652679e-02,2.530266344547271729e-01,-1.987669914960861206e-01,-2.777921557426452637e-01,-3.970577120780944824e-01,1.596645414829254150e-01,-8.993890136480331421e-02,-1.979927718639373779e-02,1.287282109260559082e-01,-2.640471756458282471e-01,9.435611218214035034e-02,-1.392611563205718994e-01,3.185767680406570435e-02,2.399145811796188354e-01,-9.324174374341964722e-02,-1.505242288112640381e-01,1.341761089861392975e-02,1.620757877826690674e-01,-2.631247341632843018e-01,-2.944988012313842773e-02,6.931941956281661987e-02,1.191038265824317932e-01,1.667975932359695435e-01,-1.400823593139648438e-01,1.085034012794494629e-01,-3.048478364944458008e-01,-1.045316681265830994e-01,7.184652984142303467e-02,-1.691637337207794189e-01,-6.635615974664688110e-02,-3.836926817893981934e-01,-6.160304695367813110e-02,-4.588520154356956482e-02,8.609859645366668701e-02,-1.756584197282791138e-01,-6.397736817598342896e-02,-2.709743082523345947e-01,-9.658883512020111084e-02,1.557000577449798584e-01,9.058280289173126221e-02,-2.464287132024765015e-01,-9.871479123830795288e-02,-1.758184470236301422e-02,-1.712095290422439575e-01,9.542322158813476562e-02,-9.659288823604583740e-02,-1.528680417686700821e-02,-3.270339369773864746e-01,9.964243322610855103e-02,-3.008808195590972900e-01,6.252127885818481445e-02,-5.299701541662216187e-02,-1.276622340083122253e-02,1.359978467226028442e-01,1.188383772969245911e-01,-1.367420554161071777e-01,-2.356787212193012238e-02,-1.136464178562164307e-01,-1.476236581802368164e-01,-5.911064147949218750e-02,-7.657613605260848999e-02,-1.579101979732513428e-01,-7.350539416074752808e-02,-9.877943992614746094e-02,2.363890111446380615e-01,-3.959444165229797363e-01,6.271445006132125854e-02,-3.407825529575347900e-01,-2.213014662265777588e-01,-1.461936682462692261e-01,2.105873376131057739e-01,-7.697055488824844360e-02,-3.688791394233703613e-01,-2.350993007421493530e-01,1.006070971488952637e-01,7.869626581668853760e-02,6.424334645271301270e-02,-7.087724655866622925e-02,-1.038686856627464294e-01,-3.401778042316436768e-01,-1.142215169966220856e-02,3.320535272359848022e-02,-3.171119838953018188e-03,-5.953527614474296570e-02,7.283239066600799561e-02,2.020903527736663818e-01,-1.106708962470293045e-02,-7.917030900716781616e-02,-1.000014469027519226e-01,1.265182048082351685e-01,6.473923474550247192e-02,1.926430761814117432e-01,-2.131812423467636108e-01,-8.128772675991058350e-02,-2.251199930906295776e-01,-5.701322481036186218e-02,-3.123559653759002686e-01,8.097471296787261963e-02,4.043325781822204590e-02,-1.532776057720184326e-01,-1.121351215988397598e-02,-3.279041051864624023e-01,-2.300119698047637939e-01,-9.978428483009338379e-02,2.088528685271739960e-02,-2.153203040361404419e-01,-1.768730580806732178e-01,1.276303976774215698e-01,-1.748764514923095703e-01,-4.916839674115180969e-02,-3.525514304637908936e-01,-1.382052004337310791e-01,-8.840600959956645966e-03,-7.227139919996261597e-02,9.203522652387619019e-02,-1.066163778305053711e-01,-2.660514712333679199e-01,-1.518720835447311401e-01,-4.132341966032981873e-02,-2.161394357681274414e-01,-2.119087129831314087e-01,-4.107978343963623047e-01,-7.778652757406234741e-02,-1.378328949213027954e-01,-2.275253832340240479e-02,-1.249057725071907043e-01,-9.463672526180744171e-03,-1.678853332996368408e-01,-7.495367527008056641e-02,-4.172633588314056396e-02,-2.024925351142883301e-01,-6.080316379666328430e-03,-3.827445954084396362e-02,1.458303779363632202e-01,-1.193577125668525696e-01,-6.520170718431472778e-02,-1.516299098730087280e-01,5.434897541999816895e-02,-4.437461867928504944e-02,1.743305623531341553e-01,-3.476320505142211914e-01,1.613137573003768921e-01,-2.594189047813415527e-01,1.358457189053297043e-02,-2.972555719316005707e-02,-1.329976767301559448e-01,-2.000780403614044189e-01,3.652001172304153442e-02,-1.799641847610473633e-01,-1.643631458282470703e-01,-1.161518618464469910e-01,1.095956042408943176e-01,2.786804921925067902e-03,1.183614134788513184e-01,2.113087177276611328e-01,-1.219817176461219788e-01,-2.219480574131011963e-01,1.002497225999832153e-02,8.732549101114273071e-02,-6.341675668954849243e-02,5.508949607610702515e-02,-4.964613541960716248e-02,1.296007484197616577e-01,-5.567103624343872070e-02,1.288383174687623978e-02,-9.135332703590393066e-02,-1.904876157641410828e-02,-1.726312190294265747e-01,-1.830869466066360474e-01
-6.900792568922042847e-02,-2.025069901719689369e-03,-2.712771594524383545e-01,2.446759678423404694e-02,1.373817622661590576e-01,1.573038548231124878e-01,7.937107980251312256e-02,-1.592918932437896729e-01,-1.228313427418470383e-02,-4.374489933252334595e-02,1.663667261600494385e-01,3.853783011436462402e-01,4.793706163763999939e-02,2.539108395576477051e-01,1.001936271786689758e-01,-3.797913193702697754e-01,-5.565778538584709167e-02,-1.950284242630004883e-01,-1.425352990627288818e-01,-2.807516455650329590e-01,-5.932584032416343689e-02,-1.174620464444160461e-01,4.508995637297630310e-02,4.126925766468048096e-02,-6.941884011030197144e-02,1.017375886440277100e-01,1.768490970134735107e-01,1.204461455345153809e-01,-3.411442637443542480e-01,1.818837411701679230e-02,1.211403775960206985e-02,-2.710532546043395996e-01,2.955746836960315704e-02,5.145514756441116333e-02,-5.875430256128311157e-02,-1.062938570976257324e-01,3.142618834972381592e-01,-1.386342346668243408e-01,8.360303938388824463e-02,5.581664666533470154e-02,1.155681163072586060e-01,-2.429437264800071716e-02,-2.682658135890960693e-01,8.784779906272888184e-02,1.799539774656295776e-01,3.864834606647491455e-01,-1.622887142002582550e-02,-5.958623066544532776e-02,-4.045345187187194824e-01,-1.932631880044937134e-01,1.631925553083419800e-01,-9.252094477415084839e-02,-6.610743701457977295e-02,1.505039632320404053e-01,2.675554454326629639e-01,1.773730218410491943e-01,-3.352714180946350098e-01,-1.740446239709854126e-01,1.251444071531295776e-01,2.275657951831817627e-01,3.992732465267181396e-01,-1.019254699349403381e-01,-1.368290036916732788e-01,7.482422888278961182e-02,5.040320381522178650e-02,1.889540851116180420e-01,1.267180033028125763e-02,4.361344873905181885e-02,4.148677922785282135e-03,-1.256768871098756790e-02,-2.377888113260269165e-01,-6.634558737277984619e-02,-2.437231242656707764e-01,-2.153505086898803711e-01,-2.194865643978118896e-01,5.079887434840202332e-02,-1.131664067506790161e-01,3.305468335747718811e-02,-3.862788379192352295e-01,1.969985514879226685e-01,8.996389806270599365e-02,-2.418504804372787476e-01,1.226280331611633301e-01,1.795073449611663818e-01,-2.637471817433834076e-02,1.399421840906143188e-01,-2.455874383449554443e-01,6.519681960344314575e-02,2.309089899063110352e-01,2.342478185892105103e-02,2.354442179203033447e-01,1.034891232848167419e-01,3.434756770730018616e-02,-1.502228677272796631e-01,7.966140657663345337e-02,-1.079751253128051758e-01,-2.694202065467834473e-01,-6.908710114657878876e-03,-3.098337054252624512e-01,-3.192002177238464355e-01,-2.935651838779449463e-01,1.131277624517679214e-02,-6.303311884403228760e-02,-9.245260804891586304e-02,-1.283479332923889160e-01,5.198132991790771484e-01,7.511731237173080444e-02,5.970793962478637695e-02,1.246314495801925659e-02,-2.803773283958435059e-01,-2.190237119793891907e-02,7.454390823841094971e-02,-4.396224394440650940e-02,2.518754005432128906e-01,-7.280950993299484253e-02,2.373764216899871826e-01,6.355091929435729980e-02,-8.551622927188873291e-02,-2.115113846957683563e-02,-2.070567309856414795e-01,3.934153616428375244e-01,1.765074580907821655e-01,7.450832519680261612e-03,4.924184177070856094e-03,-1.227180138230323792e-01,2.762841619551181793e-02,1.090925186872482300e-01,-1.282939016819000244e-01,1.665927022695541382e-01,6.599650532007217407e-02,-1.683598160743713379e-01,2.326894700527191162e-01,-1.129515841603279114e-01,1.207813918590545654e-01,2.824433147907257080e-01,-4.606676399707794189e-01,-2.506462335586547852e-01,1.641665548086166382e-01,3.158043697476387024e-02,-3.495614975690841675e-02,2.885763049125671387e-01,1.494618803262710571e-01,-3.381899297237396240e-01,-1.877340301871299744e-02,-3.129667341709136963e-01,2.013062834739685059e-01,-2.231291979551315308e-01,-1.049453467130661011e-01,4.632601514458656311e-02,-5.423207208514213562e-02,3.169086202979087830e-02,-1.588150411844253540e-01,-4.925091937184333801e-02,-2.123248726129531860e-01,3.185909390449523926e-01,2.998806303367018700e-04,3.284893333911895752e-01,-6.208727136254310608e-02,-1.777209937572479248e-01,1.460833251476287842e-01,-1.013335585594177246e-01,-2.566486299037933350e-01,3.061186075210571289e-01,8.482804149389266968e-02,-9.779375046491622925e-02,1.856352388858795166e-01,-1.544794887304306030e-01,-1.967453509569168091e-01,3.000764846801757812e-01,1.489998698234558105e-01,2.876933813095092773e-01,-5.164057761430740356e-02,-1.853262782096862793e-01,2.547714486718177795e-02,-5.717642605304718018e-02,2.254862040281295776e-01,-1.626415997743606567e-01,6.204400211572647095e-02,1.080544441938400269e-01,-2.657540142536163330e-01,-3.870336115360260010e-01,4.027736559510231018e-02,3.458030223846435547e-01,1.413190215826034546e-01,6.608545780181884766e-02,7.958964258432388306e-02,-6.610290706157684326e-02,-4.181419312953948975e-01,-1.879650056362152100e-01,-5.054339766502380371e-02,3.458958566188812256e-01,-2.171263545751571655e-01,3.247005641460418701e-01,-8.099720580503344536e-04,-4.031869173049926758e-01,-2.318288087844848633e-01,2.108358740806579590e-01,1.958793252706527710e-01,-1.087051704525947571e-01,-3.934510052204132080e-01
-1.760980784893035889e-01,2.494426630437374115e-02,2.393227368593215942e-01,-1.636582165956497192e-01,2.272418141365051270e-01,7.835451513528823853e-02,1.341563314199447632e-01,2.653957605361938477e-01,-2.375531569123268127e-02,9.134645760059356689e-02,8.855003863573074341e-02,-1.630436629056930542e-01,2.340507209300994873e-01,1.655334830284118652e-01,2.854753732681274414e-01,-1.033614203333854675e-01,-8.298683911561965942e-02,-2.130503803491592407e-01,1.298737972974777222e-01,1.395966261625289917e-01,5.407435074448585510e-02,1.449016928672790527e-01,1.967141777276992798e-01,2.992132306098937988e-01,3.149097561836242676e-01,4.768195375800132751e-02,2.662474811077117920e-01,2.050901502370834351e-01,-3.099635057151317596e-02,-1.166042988188564777e-03,9.560601413249969482e-02,-9.144204668700695038e-03,-1.367216259241104126e-01,-1.722851544618606567e-01,1.788151562213897705e-01,2.959350347518920898e-01,-2.709884569048881531e-02,-2.573709785938262939e-01,-1.584674715995788574e-01,-3.730908930301666260e-01,1.456546485424041748e-01,6.530371308326721191e-02,1.231157556176185608e-01,-1.865780800580978394e-01,4.599303379654884338e-02,-2.889707870781421661e-02,3.233770430088043213e-01,-1.114452461479231715e-04,-7.730535231530666351e-03,1.821715384721755981e-01,-5.507160909473896027e-03,-9.356071799993515015e-02,1.368194222450256348e-01,-2.282279431819915771e-01,1.739259660243988037e-01,-2.072571367025375366e-01,3.428000211715698242e-02,-3.637788817286491394e-02,-1.709319502115249634e-01,-4.059451818466186523e-02,1.267326027154922485e-01,1.967279464006423950e-01,1.169736757874488831e-01,2.216623350977897644e-02,-2.486389726400375366e-01,8.545228093862533569e-02,4.826240986585617065e-02,7.170963287353515625e-02,2.845945656299591064e-01,-3.311219215393066406e-01,2.854484319686889648e-02,3.488011360168457031e-01,2.489228546619415283e-01,3.232681751251220703e-02,2.031073868274688721e-01,-2.762492001056671143e-01,2.511423267424106598e-02,8.300010859966278076e-02,3.053371906280517578e-01,-2.023392319679260254e-01,2.536984682083129883e-01,-1.240463033318519592e-01,2.632341682910919189e-01,-2.503850162029266357e-01,-2.432198375463485718e-01,-2.838498353958129883e-01,-1.319179534912109375e-01,4.458133131265640259e-02,2.726775109767913818e-01,3.220589160919189453e-01,-1.780774146318435669e-01,-2.085952274501323700e-02,1.327629536390304565e-01,2.389545887708663940e-01,2.126186937093734741e-01,1.512624621391296387e-01,2.015423327684402466e-01,-1.314934194087982178e-01,1.035379767417907715e-01,9.862571209669113159e-02,1.746253520250320435e-01,-2.731339931488037109e-01,2.408994138240814209e-01,3.713645339012145996e-01,-3.208552300930023193e-02,-3.854593262076377869e-02,-7.840588688850402832e-02,2.597128152847290039e-01,2.926033176481723785e-02,-1.582495421171188354e-01,1.179925724864006042e-01,1.755549460649490356e-01,3.005872070789337158e-01,-1.625767648220062256e-01,1.783776879310607910e-01,-1.446995139122009277e-01,-1.011974886059761047e-01,1.267884969711303711e-01,-3.206655755639076233e-02,-6.028142571449279785e-02,8.562120050191879272e-02,3.325570374727249146e-03,-2.627210915088653564e-01,1.618225127458572388e-01,-4.692987725138664246e-02,-1.810976564884185791e-01,3.132986128330230713e-01,2.820859849452972412e-01,2.500563263893127441e-01,2.425207495689392090e-01,4.232287034392356873e-02,-8.009241521358489990e-02,-9.915743023157119751e-02,1.966095715761184692e-02,1.408824622631072998e-01,-1.133307814598083496e-01,6.078649684786796570e-02,7.885544002056121826e-02,2.756006419658660889e-01,1.608864963054656982e-01,1.559947989881038666e-02,-1.918167062103748322e-02,1.248717457056045532e-01,-2.419584840536117554e-01,2.584405839443206787e-01,1.630086600780487061e-01,-2.481154054403305054e-01,3.279675543308258057e-01,1.263971328735351562e-01,-1.761238463222980499e-02,1.302137621678411961e-03,-1.346608847379684448e-01,1.426149755716323853e-01,1.010135188698768616e-01,2.232427895069122314e-01,1.234385371208190918e-01,1.607713103294372559e-01,1.531615108251571655e-01,3.459003567695617676e-01,1.102828755974769592e-01,2.796485722064971924e-01,4.943578541278839111e-01,-3.734323254320770502e-04,-5.298099666833877563e-02,1.491926461458206177e-01,-2.386789070442318916e-03,-7.730568200349807739e-02,-1.262785941362380981e-01,-7.917565852403640747e-02,6.154934316873550415e-02,-2.566294074058532715e-01,5.617280602455139160e-01,-2.402803450822830200e-01,1.571741551160812378e-01,3.575417399406433105e-02,4.824718832969665527e-02,2.078176736831665039e-01,1.210403665900230408e-01,-1.818435341119766235e-01,-4.665528237819671631e-02,-3.361732512712478638e-02,1.506565958261489868e-01,-2.663058042526245117e-02,1.141925230622291565e-01,-1.360980719327926636e-01,-4.977902024984359741e-02,9.903346747159957886e-02,-6.361264735460281372e-02,-1.174085363745689392e-01,-2.630346268415451050e-02,-1.854208558797836304e-01,3.096660673618316650e-01,4.692535400390625000e-01,-2.514038980007171631e-01,2.134810239076614380e-01,1.244711577892303467e-01,-1.512550711631774902e-01,1.281954348087310791e-01,1.453321427106857300e-01,-2.949609979987144470e-02
