-8.778046071529388428e-02,-4.889046773314476013e-02,2.803979441523551941e-02,-5.330986529588699341e-02,-5.257966462522745132e-03,5.622658506035804749e-02,-2.601152844727039337e-02,-6.491313874721527100e-02,-1.868371292948722839e-02,2.401316016912460327e-01,-5.440169014036655426e-03,-8.316308259963989258e-02,-2.422937564551830292e-02,-9.680535644292831421e-02,2.013698779046535492e-02,-2.463204786181449890e-02,-3.980264812707901001e-02,2.451414614915847778e-02,9.071788936853408813e-02,-5.969476327300071716e-02,-3.139300271868705750e-02,-3.903330862522125244e-02,-2.746161073446273804e-02,-4.892217740416526794e-02,1.493718195706605911e-02,-5.888651357963681221e-04,-1.365683693438768387e-02,6.339236348867416382e-02,-9.049039334058761597e-02,-6.683075428009033203e-02,3.373942151665687561e-02,4.786198586225509644e-02,1.488010492175817490e-02,1.833565533161163330e-01,9.903506375849246979e-03,-5.591373890638351440e-02,-3.169481083750724792e-02,6.835542619228363037e-02,8.616416901350021362e-02,-4.570630192756652832e-02,4.485858976840972900e-02,-5.314512923359870911e-02,2.349382266402244568e-02,-4.537038132548332214e-02,-5.312726274132728577e-02,-2.952950634062290192e-02,-7.381943613290786743e-02,-6.510691344738006592e-02,-3.892489708960056305e-03,-1.134693063795566559e-02,-3.405268490314483643e-02,-1.285780966281890869e-01,9.557481389492750168e-04,8.004255592823028564e-02,-6.141322851181030273e-02,-2.722710743546485901e-02,1.845443435013294220e-02,-7.940721698105335236e-03,-5.617507733404636383e-03,5.781945213675498962e-02,-1.172849610447883606e-01,-2.415821887552738190e-02,-3.219436109066009521e-02,-3.889238461852073669e-02,-4.035657644271850586e-02,-1.698462106287479401e-02,2.916948497295379639e-02,-5.870675295591354370e-02,-4.717114567756652832e-02,-1.696658693253993988e-02,1.618265360593795776e-02,-7.953803986310958862e-02,-2.767240861430764198e-03,-7.676977664232254028e-02,-1.003889739513397217e-01,7.827137596905231476e-03,-3.233531489968299866e-02,1.452736854553222656e-01,2.172352075576782227e-01,-4.499098658561706543e-02,4.176529496908187866e-02,-5.104232579469680786e-03,3.884828835725784302e-02,-2.740958519279956818e-02,3.345797583460807800e-02,-2.023412287235260010e-02,-8.236625231802463531e-03,2.935752738267183304e-03,1.494847536087036133e-01,4.069895297288894653e-02,-4.455744847655296326e-02,-9.916060417890548706e-02,7.087901979684829712e-02,7.080394029617309570e-02,-4.122012853622436523e-02,2.809105515480041504e-01,3.905823687091469765e-04,-3.911858052015304565e-02,8.582933992147445679e-02,1.389929056167602539e-01,-1.047770753502845764e-01,3.591298311948776245e-02,-2.968598157167434692e-02,5.156457424163818359e-02,3.067250177264213562e-02,-2.079096063971519470e-02,8.220451325178146362e-02,-7.134091109037399292e-02,-1.586882956326007843e-02,5.604183766990900040e-03,1.761275976896286011e-01,-3.009456023573875427e-02,-9.535844437777996063e-03,-5.933175608515739441e-02,-5.885879322886466980e-02,2.619852684438228607e-02,-1.047194153070449829e-01,1.319951191544532776e-02,2.004444003105163574e-01,1.050254330039024353e-02,-1.919909007847309113e-02,-9.179349988698959351e-02,-5.701080337166786194e-02,-7.217229902744293213e-02,-6.755966693162918091e-03,-7.779762893915176392e-02,-1.933063496835529804e-03,-1.696245931088924408e-02,4.146895185112953186e-02,-4.822286218404769897e-02,1.540261507034301758e-01,-6.642504036426544189e-02,-9.177588671445846558e-02,4.499099776148796082e-02,3.725593909621238708e-02,-4.178666695952415466e-02,-3.469752520322799683e-02,-2.316224388778209686e-02,-2.472571469843387604e-02,-3.919143229722976685e-02,-1.860484667122364044e-02,-5.692454054951667786e-02,-1.433739811182022095e-02,-5.063595250248908997e-02,-1.189725100994110107e-02,3.321925923228263855e-02,-2.272534184157848358e-03,8.213303238153457642e-02,-6.207998842000961304e-02,-1.439546141773462296e-02,-8.140039443969726562e-02,8.518245816230773926e-02,-1.629165746271610260e-02,4.021824896335601807e-02,-4.450009390711784363e-02,1.422351878136396408e-02,1.810625893995165825e-03,-5.453785136342048645e-02,2.336214995011687279e-03,-1.139552146196365356e-02,-1.247529964894056320e-02,1.001775171607732773e-02,7.034682482481002808e-02,3.084250539541244507e-02,-6.660156697034835815e-02,1.507914811372756958e-01,4.150866717100143433e-02,-6.184456497430801392e-02,-4.609771817922592163e-02,2.783263102173805237e-02,-1.790094934403896332e-02,2.384190447628498077e-03,-6.683723628520965576e-02,-5.499162152409553528e-02,6.492727994918823242e-02,-1.223298758268356323e-01,2.050722390413284302e-02,1.705370470881462097e-02,-1.879964768886566162e-02,9.482868015766143799e-02,-8.331741206347942352e-03,-8.738444745540618896e-02,-1.998569257557392120e-02,2.529959194362163544e-02,-7.495187222957611084e-02,2.564809471368789673e-02,1.394752226769924164e-02,-5.602522939443588257e-02,-1.688431948423385620e-02,1.227923929691314697e-01,-3.416934236884117126e-02,1.817398369312286377e-01,5.285280197858810425e-02,7.447391003370285034e-02,-2.603403106331825256e-02,1.085437275469303131e-02,-7.728259544819593430e-03,3.016943112015724182e-02,4.911413788795471191e-02,-4.842199385166168213e-02
