-7.065572589635848999e-02,-3.365419059991836548e-02,-1.251506153494119644e-02,1.213771924376487732e-01,-3.724187240004539490e-02,5.277110729366540909e-03,1.118358075618743896e-01,-5.087075009942054749e-02,9.789333492517471313e-02,5.907526984810829163e-02,-2.807150781154632568e-02,-1.064574625343084335e-02,3.185057640075683594e-02,-1.743406243622303009e-02,3.932365507353097200e-05,1.800511777400970459e-02,-1.188630834221839905e-01,8.440490067005157471e-02,-8.885253965854644775e-02,4.527704790234565735e-03,-7.162693142890930176e-02,-5.795131996273994446e-02,-4.165355488657951355e-02,-9.392327815294265747e-02,1.167282536625862122e-01,-7.152581214904785156e-02,5.229173228144645691e-02,-8.236001431941986084e-02,2.792406827211380005e-02,-6.207021325826644897e-02,-6.499283481389284134e-03,-6.527404487133026123e-02,-1.382334381341934204e-01,-7.621404365636408329e-04,-4.540259391069412231e-02,-1.135216429829597473e-01,6.886078417301177979e-02,4.306318610906600952e-02,-5.911673232913017273e-02,2.305322885513305664e-02,-1.830548048019409180e-01,1.177827194333076477e-01,-1.550953742116689682e-02,-1.247822120785713196e-01,8.418976515531539917e-02,4.611661192029714584e-03,-5.854737013578414917e-02,-2.531667798757553101e-02,-6.674319505691528320e-02,-1.336251050233840942e-01,2.594428602606058121e-03,-1.684993803501129150e-01,-2.998804487287998199e-02,7.062876969575881958e-02,5.230765417218208313e-02,2.577325887978076935e-02,-1.661610156297683716e-01,3.899599611759185791e-02,5.200460553169250488e-02,-1.894674263894557953e-02,-5.257410183548927307e-02,3.699383139610290527e-02,6.039404775947332382e-03,-1.357858255505561829e-02,8.186665177345275879e-02,-8.304413408041000366e-02,2.109453454613685608e-02,-1.126215606927871704e-01,-1.267796605825424194e-01,4.570880904793739319e-02,5.547064542770385742e-02,8.577155321836471558e-02,-8.069003373384475708e-02,-6.893241405487060547e-02,-2.479306422173976898e-02,-3.561341390013694763e-02,-8.717058598995208740e-02,-1.373110115528106689e-01,-3.837795811705291271e-04,-1.670266240835189819e-01,5.163269490003585815e-02,6.922876462340354919e-03,7.355869561433792114e-02,-2.300554513931274414e-02,3.123393654823303223e-02,-1.500809192657470703e-02,6.669856607913970947e-02,-9.674312919378280640e-02,1.104766502976417542e-03,-7.559730857610702515e-02,3.629240393638610840e-02,-6.297899782657623291e-02,7.856283336877822876e-02,-1.243940219283103943e-01,-7.720221579074859619e-02,-1.208235882222652435e-02,-2.761664800345897675e-02,6.647891551256179810e-02,-1.253714412450790405e-01,-3.209422528743743896e-02,-1.708201318979263306e-01,7.208957523107528687e-02,4.249745234847068787e-02,-3.022109903395175934e-02,-4.255239292979240417e-02,-4.022432863712310791e-02,5.377736315131187439e-02,-7.981295883655548096e-02,8.696945756673812866e-02,-9.145139902830123901e-02,-1.638622283935546875e-01,-8.415544778108596802e-02,1.699021202512085438e-03,-3.797051310539245605e-02,-9.474693238735198975e-02,-1.236366387456655502e-02,-1.008934602141380310e-01,-8.721385151147842407e-02,7.784773409366607666e-02,-1.103934571146965027e-01,-7.829717546701431274e-02,1.188864698633551598e-03,-4.216302931308746338e-02,-1.947944425046443939e-02,-1.396294087171554565e-01,-4.521146044135093689e-02,2.054551616311073303e-02,-4.224500153213739395e-03,4.396782442927360535e-02,6.593620870262384415e-03,-4.377248231321573257e-03,-8.630647510290145874e-02,-5.034494772553443909e-02,-1.511742472648620605e-01,-1.698943600058555603e-02,2.748358435928821564e-02,-1.487635076045989990e-02,-1.384156290441751480e-02,-1.204984709620475769e-01,-1.399568617343902588e-01,-9.482064843177795410e-02,-6.383828818798065186e-02,1.514457724988460541e-02,3.021441586315631866e-02,-3.177824243903160095e-02,-6.349201500415802002e-02,-8.510520309209823608e-02,-5.537872761487960815e-02,9.666413068771362305e-02,-4.767091199755668640e-02,1.057717651128768921e-01,-1.388745661824941635e-02,2.835815958678722382e-02,-2.881434373557567596e-02,-1.130342781543731689e-01,1.116643473505973816e-01,-8.305772393941879272e-02,1.805304549634456635e-02,5.799463018774986267e-02,-1.172113195061683655e-01,5.528676882386207581e-02,5.606179684400558472e-02,-4.134189710021018982e-02,-1.323213726282119751e-01,-1.712388843297958374e-01,7.165552675724029541e-02,-1.063724011182785034e-01,-1.829392015933990479e-01,-7.612147182226181030e-02,-6.596512347459793091e-02,-1.728464961051940918e-01,-1.358583122491836548e-01,-1.364015787839889526e-01,1.754998043179512024e-02,9.807067364454269409e-02,-5.065562576055526733e-02,-6.601996719837188721e-02,-4.940839111804962158e-02,-5.800619721412658691e-02,6.384793668985366821e-02,5.116347689181566238e-03,-1.726324707269668579e-01,7.478976994752883911e-02,9.475262835621833801e-03,-6.508667021989822388e-02,1.086441501975059509e-01,-1.558505892753601074e-01,-1.408624947071075439e-01,-1.038948073983192444e-01,-8.980739116668701172e-02,7.226260006427764893e-02,-8.217700570821762085e-02,-3.947459906339645386e-02,5.504192039370536804e-02,-6.862825155258178711e-02,4.886047169566154480e-02,7.062544673681259155e-02,-1.213043704628944397e-01,-1.578253954648971558e-01,-1.228605490177869797e-02
1.798267811536788940e-01,3.249153867363929749e-02,1.079009324312210083e-01,1.231573224067687988e-01,6.479132175445556641e-02,2.362482398748397827e-01,-1.294873505830764771e-01,-7.181511074304580688e-02,-4.213774204254150391e-02,5.234222486615180969e-02,5.465092509984970093e-02,-2.630223929882049561e-01,5.726527422666549683e-02,1.630474776029586792e-01,9.837722033262252808e-02,2.142889946699142456e-01,8.538921177387237549e-02,9.090958535671234131e-02,-6.844435632228851318e-02,-5.995058920234441757e-03,-7.223811745643615723e-02,5.392147228121757507e-03,-1.439169943332672119e-01,2.063200436532497406e-02,-4.177203401923179626e-02,-1.559349298477172852e-01,-1.475206669420003891e-02,-3.937946632504463196e-02,5.317602679133415222e-02,4.178814124315977097e-03,3.987573832273483276e-02,-8.000274002552032471e-02,1.625392585992813110e-01,-2.700210213661193848e-01,7.298535108566284180e-02,-3.970369696617126465e-02,-2.589022926986217499e-02,-3.065345250070095062e-02,-4.873868543654680252e-03,8.495313674211502075e-02,-1.629952192306518555e-01,-6.547337770462036133e-02,-9.236829355359077454e-03,-8.379401639103889465e-03,2.123360186815261841e-01,1.675513535737991333e-01,8.922022767364978790e-03,1.003388036042451859e-02,1.669507101178169250e-02,4.737889766693115234e-02,-1.976283639669418335e-02,-1.936529874801635742e-01,1.694464087486267090e-01,3.231329098343849182e-02,1.965202018618583679e-02,1.380134969949722290e-01,-7.030382752418518066e-02,-2.031361125409603119e-02,-5.946033447980880737e-02,4.389409720897674561e-02,8.304528892040252686e-02,1.073950082063674927e-01,9.355332702398300171e-02,-1.101072356104850769e-01,-1.803804039955139160e-01,6.371213495731353760e-02,9.386563301086425781e-02,-7.169792056083679199e-02,-1.587374657392501831e-01,-1.219889968633651733e-01,4.590609669685363770e-02,-8.582344651222229004e-02,4.082063585519790649e-02,-2.723863907158374786e-02,-1.232032757252454758e-02,8.971273154020309448e-02,-1.947240531444549561e-02,1.756522506475448608e-01,-8.967725932598114014e-02,1.014470122754573822e-02,-1.004134188406169415e-03,1.658669300377368927e-02,-4.016539081931114197e-02,-9.413550794124603271e-02,2.080688811838626862e-02,-1.530874222517013550e-01,2.358292490243911743e-01,4.697354044765233994e-03,1.972672492265701294e-01,1.543545275926589966e-01,6.041914969682693481e-02,-9.787538647651672363e-02,-3.560988605022430420e-02,-1.082345396280288696e-01,3.350243717432022095e-02,1.987555921077728271e-01,-7.034588605165481567e-02,-4.415255039930343628e-02,5.309253931045532227e-02,2.120571583509445190e-01,1.867463737726211548e-01,1.270877420902252197e-01,1.572764068841934204e-01,4.976724833250045776e-02,5.957107990980148315e-02,4.661069810390472412e-02,1.737249195575714111e-01,1.571185886859893799e-01,3.856467083096504211e-02,2.161250412464141846e-01,9.466676414012908936e-02,6.861650198698043823e-02,-4.666825756430625916e-02,-1.935318410396575928e-01,-6.129786744713783264e-02,1.853067427873611450e-02,7.197462767362594604e-02,1.471022516489028931e-01,-1.385669261217117310e-01,-3.784942999482154846e-02,-9.034332633018493652e-02,-7.223706692457199097e-02,-4.143941774964332581e-02,-9.724110364913940430e-02,8.876200020313262939e-02,-1.009488180279731750e-01,-1.997631639242172241e-01,5.984905734658241272e-02,2.278192341327667236e-01,6.158100906759500504e-03,1.213736832141876221e-01,4.679885692894458771e-03,-4.411391168832778931e-02,6.701631844043731689e-02,1.981870383024215698e-01,1.175946295261383057e-01,1.697214990854263306e-01,2.164756953716278076e-01,8.457367122173309326e-02,1.003396213054656982e-01,-6.092859432101249695e-03,-1.037182100117206573e-02,1.407618671655654907e-01,2.728695981204509735e-02,1.294997334480285645e-01,-2.993310801684856415e-02,1.338633745908737183e-01,-7.335311919450759888e-02,-9.281907230615615845e-02,1.317565678618848324e-03,-3.591031208634376526e-02,1.743706874549388885e-02,1.320112645626068115e-01,2.629777193069458008e-01,6.836719065904617310e-02,-8.063042908906936646e-02,1.729910522699356079e-01,-2.546506524085998535e-01,-1.767063289880752563e-01,6.730365753173828125e-02,1.803738623857498169e-01,1.607811003923416138e-01,1.694671362638473511e-01,4.019398242235183716e-02,1.490949392318725586e-01,1.901768555399030447e-04,-2.035918086767196655e-02,2.586036622524261475e-01,1.075732484459877014e-01,-1.280793696641921997e-01,1.424695849418640137e-01,-6.683384068310260773e-03,-9.222654998302459717e-02,-4.049069806933403015e-02,1.554110646247863770e-01,9.270270913839340210e-02,-1.942186653614044189e-01,-2.298947721719741821e-01,9.311024844646453857e-02,2.297076284885406494e-01,8.974218368530273438e-02,-7.351993769407272339e-02,4.176772385835647583e-02,1.355686504393815994e-02,-3.583221137523651123e-02,5.951776355504989624e-02,1.274068839848041534e-03,8.525811880826950073e-02,1.223477944731712341e-01,3.245139494538307190e-02,1.985878311097621918e-02,-7.801000773906707764e-02,-1.032657325267791748e-01,1.338510215282440186e-01,-8.160351961851119995e-02,-2.444556802511215210e-01,4.869207367300987244e-02,-8.197257667779922485e-02,6.715596467256546021e-02,-1.130018606781959534e-01
2.136525139212608337e-02,1.637877337634563446e-02,2.990902587771415710e-02,3.674470633268356323e-02,-2.958652935922145844e-02,-7.073063170537352562e-04,2.697610110044479370e-02,-1.352726817131042480e-01,-2.361967228353023529e-03,2.407026588916778564e-01,1.519899368286132812e-01,-1.344998478889465332e-01,1.173824891448020935e-01,-5.592641606926918030e-02,2.932012975215911865e-01,2.795079350471496582e-01,2.287900820374488831e-02,-6.778481602668762207e-02,1.604059934616088867e-01,-1.130957528948783875e-02,-1.938504283316433430e-03,-1.688278913497924805e-01,5.229843407869338989e-02,4.413842782378196716e-02,1.174992322921752930e-01,-1.020788922905921936e-01,-1.240691542625427246e-01,-5.785433575510978699e-02,1.845531612634658813e-01,8.876188844442367554e-02,-1.066351756453514099e-01,2.001270838081836700e-02,5.063813645392656326e-03,2.111669629812240601e-02,-9.832330793142318726e-02,2.920669913291931152e-01,7.982558757066726685e-02,-1.544622629880905151e-01,2.122333198785781860e-01,-2.010203711688518524e-02,-1.668607443571090698e-02,8.260312676429748535e-02,3.399126231670379639e-02,2.527615129947662354e-01,3.036489784717559814e-01,2.829018831253051758e-01,2.347651170566678047e-03,2.709873020648956299e-01,-7.311195135116577148e-02,-7.540029287338256836e-02,-6.875643879175186157e-02,-1.168881207704544067e-01,2.200885675847530365e-02,1.519626379013061523e-01,5.797722935676574707e-02,2.787612751126289368e-02,-2.057524397969245911e-02,4.500680789351463318e-02,1.304572969675064087e-01,3.590818494558334351e-02,2.437008321285247803e-01,1.815533638000488281e-01,8.632577210664749146e-02,9.727887809276580811e-02,-2.531231194734573364e-02,9.640301764011383057e-02,3.446297049522399902e-01,1.106059923768043518e-01,-2.490891329944133759e-02,1.130513194948434830e-02,1.472349744290113449e-03,-8.980808407068252563e-02,3.025596439838409424e-01,-4.399248212575912476e-02,2.482792735099792480e-01,3.731703385710716248e-02,-3.373206034302711487e-02,-8.051513880491256714e-02,-1.013974919915199280e-01,2.883163280785083771e-02,-1.864039152860641479e-02,1.590117663145065308e-01,1.907978057861328125e-01,-2.185247465968132019e-02,-5.675930529832839966e-02,-7.364539802074432373e-02,3.835389018058776855e-02,5.000206083059310913e-02,1.287658065557479858e-01,8.866277337074279785e-02,2.777214050292968750e-01,2.680324763059616089e-02,4.187186434864997864e-02,-1.489641517400741577e-01,1.326665282249450684e-01,1.009736433625221252e-01,-2.055950015783309937e-01,-1.004403680562973022e-01,4.831762984395027161e-02,2.493230402469635010e-01,2.433281093835830688e-01,1.692794710397720337e-01,5.937909334897994995e-02,-9.300172328948974609e-03,1.598249524831771851e-01,-1.055715829133987427e-01,1.364115476608276367e-01,1.556289494037628174e-01,-2.023995295166969299e-02,3.606871068477630615e-01,-8.580568432807922363e-02,1.168881729245185852e-02,1.409337967634201050e-01,1.490274444222450256e-03,-5.728330090641975403e-02,1.512270420789718628e-01,5.293980240821838379e-02,1.697150915861129761e-01,-1.586219370365142822e-01,3.412313386797904968e-02,-5.191947147250175476e-02,-1.447914242744445801e-01,-2.407107688486576080e-02,1.961782947182655334e-02,3.741578385233879089e-02,-1.656748056411743164e-01,-3.081987425684928894e-02,7.460683584213256836e-02,1.969059258699417114e-01,6.435323506593704224e-02,1.984665095806121826e-01,4.325554147362709045e-02,1.692336499691009521e-01,6.041529029607772827e-02,1.917926943860948086e-03,-5.055200681090354919e-02,3.365753591060638428e-01,2.323434501886367798e-01,6.029840931296348572e-02,1.677618026733398438e-01,1.438142210245132446e-01,-1.403480023145675659e-02,2.916431725025177002e-01,2.390612661838531494e-02,1.118100583553314209e-01,2.182241976261138916e-01,2.625698447227478027e-01,2.314704842865467072e-02,9.473831206560134888e-02,3.799422457814216614e-02,4.072651267051696777e-02,2.601614408195018768e-02,6.791823357343673706e-02,3.210186362266540527e-01,8.574020117521286011e-02,3.484975993633270264e-01,1.590322405099868774e-01,3.662011027336120605e-02,1.485240012407302856e-01,8.890929818153381348e-02,1.160399094223976135e-01,1.026744395494461060e-01,1.091923788189888000e-01,4.972143098711967468e-02,1.597281396389007568e-01,1.123258471488952637e-01,-3.446881845593452454e-02,1.549842804670333862e-01,2.523675374686717987e-02,-6.789526436477899551e-03,1.601143777370452881e-01,-8.740993589162826538e-02,-1.777640283107757568e-01,7.808766514062881470e-02,2.163166552782058716e-01,1.430702060461044312e-01,-1.095376238226890564e-01,-8.642361313104629517e-02,1.715111434459686279e-01,1.072988212108612061e-01,-2.070127986371517181e-02,4.764148592948913574e-02,1.346942633390426636e-01,5.117000639438629150e-02,2.543383836746215820e-01,8.410396426916122437e-02,2.022879570722579956e-01,3.203929662704467773e-01,2.095356732606887817e-01,8.492824435234069824e-02,6.686342530883848667e-04,1.133501157164573669e-01,-4.974173381924629211e-02,1.524413675069808960e-01,-5.812359973788261414e-02,8.106233924627304077e-02,-2.795523405075073242e-01,1.737607121467590332e-01,1.309004127979278564e-01,5.727681890130043030e-02
6.217797100543975830e-02,2.284052819013595581e-01,-2.414020244032144547e-03,-3.239094465970993042e-02,-7.146625220775604248e-02,1.851517148315906525e-02,-2.224973589181900024e-02,4.048528149724006653e-02,6.204188615083694458e-02,8.225762099027633667e-02,-1.157122626900672913e-01,8.497123420238494873e-02,5.460453778505325317e-02,2.478442639112472534e-01,-3.273075446486473083e-02,-7.041390985250473022e-02,1.411588303744792938e-02,9.945064038038253784e-02,9.292565286159515381e-02,1.006390675902366638e-01,2.830851264297962189e-02,3.844514861702919006e-02,-1.522498903796076775e-03,-6.692922860383987427e-02,-6.274259090423583984e-02,-2.422161214053630829e-02,-2.111070975661277771e-02,8.375106006860733032e-02,-5.281241238117218018e-02,-3.485920280218124390e-02,1.252565532922744751e-01,5.205423757433891296e-02,-1.297122687101364136e-01,-1.045723259449005127e-01,9.910657070577144623e-03,1.007286608219146729e-01,1.314099580049514771e-01,-1.598249673843383789e-01,-1.263177115470170975e-02,-5.530963465571403503e-02,1.641183197498321533e-01,-1.495423614978790283e-01,-7.722144573926925659e-02,2.816952168941497803e-01,-2.639225423336029053e-01,1.439993083477020264e-01,8.681856840848922729e-02,-7.136040180921554565e-02,-1.037500649690628052e-01,-4.058971628546714783e-02,3.988818079233169556e-02,5.878919363021850586e-02,-9.276457130908966064e-02,-1.095184087753295898e-01,1.088489429093897343e-03,-1.343924924731254578e-02,-1.916766613721847534e-01,-9.403305128216743469e-03,1.506533324718475342e-01,1.257128417491912842e-01,6.861622631549835205e-02,2.054431475698947906e-02,7.645139843225479126e-02,9.041801095008850098e-02,-1.973473876714706421e-01,2.357008606195449829e-01,6.067312508821487427e-02,-8.903023600578308105e-02,-3.206471214070916176e-03,2.142628431320190430e-01,7.795444875955581665e-02,1.407422870397567749e-01,-1.266847830265760422e-02,1.352604571729898453e-02,-4.838248714804649353e-02,-2.208209224045276642e-02,-2.252740226686000824e-02,-1.298615932464599609e-01,-2.564267814159393311e-01,1.151282712817192078e-01,2.843089997768402100e-01,-9.585753828287124634e-02,1.805920898914337158e-01,-1.811513006687164307e-01,-1.602864712476730347e-01,-4.044065251946449280e-02,2.594460546970367432e-01,6.930061429738998413e-02,-5.394440516829490662e-02,2.188684791326522827e-01,-3.811748325824737549e-02,4.986879229545593262e-02,1.478512585163116455e-01,1.095245406031608582e-01,-2.000547051429748535e-01,4.037192836403846741e-02,1.588144153356552124e-02,-2.895039021968841553e-01,-1.264439374208450317e-01,4.584531765431165695e-03,-8.828815072774887085e-03,1.647208184003829956e-01,-1.394014656543731689e-01,-5.067485198378562927e-02,-7.187478989362716675e-02,1.122182905673980713e-01,5.547164380550384521e-02,1.840364560484886169e-02,2.198024243116378784e-01,-1.410212218761444092e-01,5.202813819050788879e-02,8.640572428703308105e-02,1.615522243082523346e-02,1.493009477853775024e-01,1.577476561069488525e-01,-1.502677649259567261e-01,1.591793298721313477e-01,8.759041130542755127e-02,6.669019907712936401e-02,6.533651798963546753e-02,-4.984069988131523132e-02,-1.493482738733291626e-01,3.863472118973731995e-02,-1.163779944181442261e-01,-7.143594324588775635e-02,3.817923739552497864e-02,2.918624579906463623e-01,-2.053746879100799561e-01,4.372021928429603577e-02,1.473296806216239929e-02,-5.919685121625661850e-03,-1.837160289287567139e-01,1.081590875983238220e-01,-1.875541638582944870e-03,3.116016648709774017e-02,-1.730272471904754639e-01,-1.841992288827896118e-01,6.731938570737838745e-02,-2.405136823654174805e-01,-2.207747288048267365e-02,-2.426866907626390457e-03,1.668007522821426392e-01,-3.951010107994079590e-02,-2.445340715348720551e-02,5.821026116609573364e-02,-1.958197057247161865e-01,1.704126596450805664e-01,7.355259731411933899e-03,-3.908618912100791931e-02,1.357032507658004761e-01,-1.502956002950668335e-01,2.377383969724178314e-02,1.800749450922012329e-01,-8.209478855133056641e-02,-9.206802584230899811e-03,-7.417149096727371216e-02,1.977039128541946411e-01,-2.347529307007789612e-02,-3.907845914363861084e-02,-3.683688119053840637e-02,-2.258584834635257721e-03,-3.272606804966926575e-02,4.266452416777610779e-02,2.057857625186443329e-02,-1.004199013113975525e-01,7.903102785348892212e-02,-7.954174280166625977e-02,1.851158775389194489e-02,1.555889397859573364e-01,8.833020180463790894e-02,6.986182928085327148e-02,-5.914322659373283386e-02,-6.124040856957435608e-02,-1.370357722043991089e-01,-3.039104677736759186e-02,-5.457780882716178894e-02,9.471797198057174683e-02,-7.258228212594985962e-02,2.508482336997985840e-02,1.208197548985481262e-01,3.071498870849609375e-02,1.680044084787368774e-01,2.091796249151229858e-01,-1.780786514282226562e-01,-1.807032823562622070e-01,-2.848841995000839233e-02,2.880647033452987671e-02,-6.463577598333358765e-02,4.092272743582725525e-02,-2.524990737438201904e-01,-6.184659898281097412e-02,-1.128330305218696594e-01,-2.285108529031276703e-02,9.565937519073486328e-02,5.149418860673904419e-02,8.185210824012756348e-02,4.605315625667572021e-02,3.923782706260681152e-02,7.235134486109018326e-03,-5.022748187184333801e-02
2.511945664882659912e-01,-1.725680679082870483e-01,2.006115466356277466e-01,-6.811571307480335236e-03,1.311707198619842529e-01,1.683257967233657837e-01,1.055620238184928894e-01,2.397927194833755493e-01,3.884666413068771362e-02,-3.659119829535484314e-02,5.788817629218101501e-02,-3.377968668937683105e-01,-1.152923107147216797e-01,2.765568904578685760e-02,-6.866191327571868896e-02,9.707814082503318787e-03,4.233384504914283752e-02,-2.917206883430480957e-01,-4.331894218921661377e-02,-1.421785354614257812e-01,4.380097240209579468e-02,2.938014268875122070e-01,3.673183172941207886e-02,1.436897218227386475e-01,-1.182356327772140503e-01,1.830824315547943115e-01,1.710277944803237915e-01,-1.823832243680953979e-01,-9.972020238637924194e-02,-1.896256804466247559e-01,2.567486464977264404e-02,-7.409600913524627686e-02,2.484029829502105713e-01,1.202528476715087891e-01,1.087749004364013672e-01,-9.045961499214172363e-02,1.291250288486480713e-01,-2.328809117898344994e-03,-1.372379511594772339e-01,-2.275827719131484628e-04,1.867235451936721802e-02,-4.337345436215400696e-02,5.468630045652389526e-02,-6.847053766250610352e-02,-4.243593662977218628e-02,-1.470731347799301147e-01,1.909073442220687866e-01,-2.664680480957031250e-01,-6.053205952048301697e-02,9.659873694181442261e-02,3.036074042320251465e-01,2.470976114273071289e-02,5.797287821769714355e-02,3.101408015936613083e-03,6.411931663751602173e-02,2.356734424829483032e-01,-4.942763131111860275e-03,1.839077174663543701e-01,-1.217185035347938538e-01,7.978289574384689331e-02,-1.185303404927253723e-01,1.892226487398147583e-01,7.646279991604387760e-04,-4.717601463198661804e-02,-1.786563992500305176e-01,-6.614214181900024414e-02,-1.291239410638809204e-01,1.792552620172500610e-01,-3.643236309289932251e-02,-1.317807585000991821e-01,9.427358396351337433e-03,9.153601527214050293e-02,1.533203572034835815e-01,-1.165774241089820862e-01,-6.805634498596191406e-02,1.735119074583053589e-01,4.978437349200248718e-02,1.785616576671600342e-01,1.548898667097091675e-01,1.541680991649627686e-01,3.177145123481750488e-02,-5.093240179121494293e-03,4.181810840964317322e-02,1.778108626604080200e-01,1.419492717832326889e-02,-1.772007532417774200e-02,-6.821214407682418823e-02,7.523281872272491455e-02,1.785327494144439697e-02,-5.050332099199295044e-02,4.075143858790397644e-02,-2.013103365898132324e-01,-1.429444458335638046e-02,-4.026931524276733398e-02,-1.306368559598922729e-01,2.640354074537754059e-02,1.123678237199783325e-01,2.934509515762329102e-01,5.820973590016365051e-02,-1.231494694948196411e-01,1.914011538028717041e-01,-3.520177677273750305e-02,-1.535614428576081991e-04,-1.150638014078140259e-01,1.177085116505622864e-01,9.701240062713623047e-02,-1.297226101160049438e-01,-8.714228123426437378e-02,8.468329161405563354e-02,1.443099929019808769e-03,3.516658395528793335e-02,-1.695400178432464600e-01,-3.250983655452728271e-01,-5.627594515681266785e-02,-4.562172398436814547e-04,9.610784798860549927e-02,-1.716564744710922241e-01,-2.553559653460979462e-02,1.618548333644866943e-01,-1.407510638236999512e-01,-1.029727887362241745e-02,7.441217452287673950e-02,3.264193236827850342e-02,9.592945873737335205e-02,1.255071610212326050e-01,2.721012569963932037e-02,1.059756726026535034e-01,-7.229655981063842773e-02,5.390952527523040771e-02,2.391302287578582764e-01,-1.764025837182998657e-01,-5.907467007637023926e-02,-1.228087693452835083e-01,2.364635616540908813e-01,6.382463127374649048e-02,-2.798214741051197052e-02,-9.622354805469512939e-02,1.448246240615844727e-01,1.813297271728515625e-01,1.854134649038314819e-01,-1.730721443891525269e-01,-6.992311775684356689e-02,-5.543553084135055542e-02,-4.849816858768463135e-02,-6.189279630780220032e-02,-2.037323415279388428e-01,-2.051756381988525391e-01,1.302003413438796997e-01,-1.573487222194671631e-01,-1.326105147600173950e-01,3.179936408996582031e-01,2.345260977745056152e-01,3.767991438508033752e-02,2.463412433862686157e-01,-1.524780094623565674e-01,-1.742399996146559715e-03,-7.651826739311218262e-02,2.021262496709823608e-01,-2.160926163196563721e-01,-1.580761373043060303e-02,5.623289197683334351e-02,8.548400364816188812e-03,-2.497088536620140076e-02,2.039142549037933350e-01,-1.472116410732269287e-01,3.586023673415184021e-02,2.325569987297058105e-01,3.326073521748185158e-03,2.000222206115722656e-01,-4.742931947112083435e-02,3.898070007562637329e-02,2.656965851783752441e-01,1.361761242151260376e-01,2.691139653325080872e-02,-2.281282842159271240e-01,2.829433977603912354e-01,9.151217341423034668e-02,8.023493736982345581e-02,1.152504011988639832e-01,-3.721489757299423218e-02,-1.511120790382847190e-04,-1.700399369001388550e-01,-1.333331912755966187e-01,4.272390529513359070e-02,-2.788930833339691162e-01,8.329122513532638550e-02,8.635061979293823242e-02,-2.491028010845184326e-01,-1.723903417587280273e-01,2.219408601522445679e-01,-1.028735563158988953e-01,-7.252950966358184814e-02,-6.565636396408081055e-02,-2.537255883216857910e-01,1.247872263193130493e-01,-2.434223145246505737e-01,4.773825779557228088e-02,-1.363451927900314331e-01,1.022223904728889465e-01,5.592003837227821350e-02
-1.994317024946212769e-02,-4.641380626708269119e-03,2.569809369742870331e-02,-3.007180988788604736e-01,-7.760610431432723999e-02,-8.722741156816482544e-02,-3.505994379520416260e-02,1.303912550210952759e-01,2.542712725698947906e-02,-1.390269119292497635e-02,-9.041793644428253174e-02,2.593078017234802246e-01,1.190190911293029785e-01,-2.225202172994613647e-01,-2.255303412675857544e-01,-1.660055369138717651e-01,-4.235816374421119690e-02,-1.476653218269348145e-01,1.761751770973205566e-01,-7.483661174774169922e-02,2.010675370693206787e-01,1.878058537840843201e-02,1.130935177206993103e-01,-1.876880675554275513e-01,1.562570929527282715e-01,2.255355715751647949e-01,-1.659905910491943359e-01,1.492277234792709351e-01,3.203060925006866455e-01,1.235052496194839478e-01,4.191500321030616760e-02,1.597378402948379517e-01,-1.012697219848632812e-01,1.975279748439788818e-01,-2.928904071450233459e-02,-1.255575567483901978e-01,-1.058315262198448181e-01,3.665828406810760498e-01,9.730463474988937378e-02,-2.050029933452606201e-01,1.159742567688226700e-02,2.203271239995956421e-01,2.302874326705932617e-01,-3.534062504768371582e-01,-1.262700557708740234e-01,-2.613036632537841797e-01,-2.676636911928653717e-03,-1.527109146118164062e-01,-1.863164752721786499e-01,1.758798807859420776e-01,1.836498826742172241e-01,1.875992715358734131e-01,-1.599373519420623779e-01,2.080964595079421997e-01,-8.279498666524887085e-02,2.823785180225968361e-03,1.048338338732719421e-01,6.216948106884956360e-02,1.482668817043304443e-01,-5.407846719026565552e-02,-1.318479478359222412e-01,-1.087684184312820435e-01,-5.442767590284347534e-02,-1.057639345526695251e-01,2.090086191892623901e-01,-2.337624728679656982e-01,-1.036774963140487671e-01,-5.600518546998500824e-03,8.355519175529479980e-02,3.733113035559654236e-02,-4.291172698140144348e-02,1.822431236505508423e-01,-3.009868860244750977e-01,2.132603526115417480e-02,-9.563341736793518066e-03,9.697861969470977783e-02,-1.249205227941274643e-02,-3.552450099959969521e-03,1.755013763904571533e-01,-5.726629868149757385e-02,8.745884895324707031e-02,-1.394618600606918335e-01,-5.377105250954627991e-02,1.615746468305587769e-01,2.585980296134948730e-01,7.263188064098358154e-02,-2.011833786964416504e-01,-7.595589756965637207e-02,-8.033144474029541016e-02,-1.294278502464294434e-01,1.291590929031372070e-01,1.550574600696563721e-01,7.004967331886291504e-02,-1.937062479555606842e-02,1.614857912063598633e-01,-1.110959127545356750e-01,1.863667815923690796e-01,4.008604586124420166e-02,-7.633838057518005371e-02,-2.883508205413818359e-01,2.437619678676128387e-02,-3.081171214580535889e-01,-1.517763435840606689e-01,-6.985553354024887085e-02,-4.081850126385688782e-02,1.471516042947769165e-01,-1.871714293956756592e-01,-1.099121794104576111e-01,-7.510920614004135132e-02,-5.106006938149221241e-05,4.253992810845375061e-02,-1.181732863187789917e-01,1.429360955953598022e-01,1.066727377474308014e-02,1.203317865729331970e-01,2.881412208080291748e-02,1.352243721485137939e-01,-1.721603125333786011e-01,7.125549018383026123e-02,-1.317387819290161133e-01,8.770875632762908936e-02,9.519276022911071777e-02,-8.377686887979507446e-02,-5.217078700661659241e-02,-8.589226752519607544e-02,1.294015347957611084e-01,2.417355775833129883e-02,-4.874382168054580688e-03,6.214641779661178589e-02,1.789177805185317993e-01,1.507175117731094360e-01,9.545750170946121216e-02,7.767062634229660034e-02,-4.700952768325805664e-02,-2.447560429573059082e-01,9.308373928070068359e-02,2.674401402473449707e-01,-4.804318305104970932e-03,1.328377425670623779e-01,-2.754201553761959076e-02,1.455623060464859009e-01,-1.682818233966827393e-01,2.383852563798427582e-02,-7.429140061140060425e-02,2.133367583155632019e-02,1.215669810771942139e-01,1.584114693105220795e-02,-1.855337023735046387e-01,9.519007802009582520e-02,-3.330794721841812134e-02,1.558763533830642700e-01,-1.347732692956924438e-01,4.052868857979774475e-02,-1.164785996079444885e-01,7.479682099074125290e-03,2.808709740638732910e-01,-3.802235051989555359e-02,2.178838700056076050e-01,2.339376509189605713e-01,1.445894986391067505e-01,-6.693654507398605347e-02,-2.476551830768585205e-01,-9.442460536956787109e-02,1.394308656454086304e-01,-1.279847621917724609e-01,3.676265105605125427e-02,-5.392225459218025208e-02,-1.021176110953092575e-02,-7.739469408988952637e-02,-2.397174946963787079e-02,-6.050751078873872757e-03,4.253084771335124969e-03,1.290236711502075195e-01,3.624654412269592285e-01,-1.609117686748504639e-01,-5.063421279191970825e-02,2.564108185470104218e-02,1.794818192720413208e-01,-1.978526413440704346e-01,-8.252379298210144043e-02,1.500612944364547729e-01,-8.350215852260589600e-02,-1.173710525035858154e-01,2.544032037258148193e-01,2.052452117204666138e-01,-1.302520930767059326e-01,-5.906182900071144104e-02,-2.490121722221374512e-01,-2.352476119995117188e-01,6.542654335498809814e-02,2.405461668968200684e-01,4.992824047803878784e-02,2.140568345785140991e-01,-2.868964970111846924e-01,-1.398390717804431915e-02,2.071040421724319458e-01,3.911645337939262390e-02,1.496696770191192627e-01,8.089487999677658081e-02,1.507409662008285522e-01
-3.365227207541465759e-02,-1.100111156702041626e-01,-6.516882684081792831e-03,3.261484950780868530e-02,3.701261430978775024e-02,1.229357793927192688e-01,-1.740230619907379150e-01,-1.740002632141113281e-01,9.313318878412246704e-03,1.719173043966293335e-01,-1.166389361023902893e-01,-1.608352176845073700e-02,-6.081559509038925171e-02,1.049968078732490540e-01,2.939280867576599121e-02,1.621261611580848694e-02,2.430338561534881592e-01,-1.910314857959747314e-01,9.944249689579010010e-02,1.243389844894409180e-01,1.150535568594932556e-01,-6.743756122887134552e-03,1.521561294794082642e-01,-9.513833373785018921e-02,2.169682532548904419e-01,-9.194152802228927612e-02,-2.823801338672637939e-01,-9.466917067766189575e-02,1.346288919448852539e-01,4.808772727847099304e-02,1.469644811004400253e-02,-2.685287967324256897e-02,-2.529017813503742218e-02,-1.714536994695663452e-01,-7.912338525056838989e-02,2.523252554237842560e-02,-7.651535421609878540e-02,-2.069750279188156128e-01,2.107754200696945190e-01,2.443996220827102661e-01,1.492603402584791183e-02,3.327820003032684326e-01,-1.041365042328834534e-01,2.790116965770721436e-01,1.365560740232467651e-01,3.017303645610809326e-01,4.328598827123641968e-02,-3.753331303596496582e-02,6.877167522907257080e-02,-8.408280462026596069e-02,-1.554783154278993607e-02,-2.082859724760055542e-01,-8.736803382635116577e-02,-1.599857583642005920e-02,2.162038981914520264e-01,-1.134514808654785156e-01,-3.563657030463218689e-02,3.085935115814208984e-02,7.409502565860748291e-02,-5.480705201625823975e-02,1.371978819370269775e-01,-1.689711809158325195e-01,1.071671843528747559e-01,-1.098874509334564209e-01,5.424302071332931519e-02,1.433119177818298340e-01,9.950359910726547241e-02,-5.356040596961975098e-02,-3.460291028022766113e-02,3.589675202965736389e-02,-7.542022038251161575e-03,1.027176752686500549e-01,1.312431246042251587e-01,-3.030479699373245239e-02,7.709646224975585938e-02,1.755209453403949738e-02,-1.622333228588104248e-01,-1.623635552823543549e-02,-1.639695093035697937e-02,1.229440979659557343e-02,-1.396044641733169556e-01,1.864199899137020111e-02,3.259168192744255066e-02,1.357261091470718384e-01,-1.366382688283920288e-01,-2.181880921125411987e-01,2.030091583728790283e-01,-7.771496474742889404e-02,9.519501030445098877e-02,3.705200180411338806e-02,-1.910653263330459595e-01,-7.774820923805236816e-02,1.491993069648742676e-01,-1.692589819431304932e-01,-1.369924750179052353e-02,8.692718297243118286e-02,3.000327385962009430e-02,-4.588462412357330322e-02,3.387442976236343384e-02,2.345408499240875244e-01,3.468974232673645020e-01,7.517556846141815186e-02,3.028881549835205078e-01,3.610735014081001282e-02,-1.610347256064414978e-02,-2.199855744838714600e-01,2.716364562511444092e-01,1.280780136585235596e-01,2.510221861302852631e-02,9.464326500892639160e-02,-6.262270361185073853e-02,2.115046232938766479e-01,-9.007209539413452148e-02,2.339929901063442230e-02,-4.535048454999923706e-02,-6.321053206920623779e-02,1.012557670474052429e-01,4.042349010705947876e-02,-9.167442098259925842e-03,-6.337765604257583618e-02,-2.040657680481672287e-03,-7.646645605564117432e-02,-2.273439466953277588e-01,1.832531839609146118e-01,1.464830636978149414e-01,-7.086870819330215454e-02,-1.516972631216049194e-01,2.370302937924861908e-02,2.374537289142608643e-01,7.652365416288375854e-02,-1.938234716653823853e-01,1.666122227907180786e-01,3.022127412259578705e-02,1.715267775580286980e-03,-6.333494558930397034e-03,8.916170895099639893e-02,-1.051673293113708496e-02,2.755228877067565918e-01,-1.074766069650650024e-01,2.634598016738891602e-01,1.276350170373916626e-01,2.473783195018768311e-01,1.707568168640136719e-01,8.250229060649871826e-02,-8.384053409099578857e-02,1.523577570915222168e-01,1.913009285926818848e-01,1.705224663019180298e-01,8.345314860343933105e-02,7.038175314664840698e-02,1.266916692256927490e-01,-3.322833403944969177e-02,1.565844565629959106e-01,2.402980476617813110e-01,-1.501246392726898193e-01,-6.390203535556793213e-02,1.365571022033691406e-01,3.439750894904136658e-02,-1.076087281107902527e-01,-1.523070335388183594e-01,1.129152923822402954e-01,6.232415512204170227e-02,1.398561745882034302e-01,-1.378267705440521240e-01,7.370560616254806519e-02,7.788772135972976685e-02,-7.441553473472595215e-02,2.813178300857543945e-01,3.219070285558700562e-02,-4.308551177382469177e-02,2.814679741859436035e-01,-1.830353885889053345e-01,-5.252375453710556030e-02,-1.590544730424880981e-02,1.368049234151840210e-01,-6.149397790431976318e-02,-2.935795783996582031e-01,-1.013059690594673157e-01,5.967830121517181396e-02,-2.334060147404670715e-02,1.277972310781478882e-01,1.470247805118560791e-01,3.952765837311744690e-03,4.434455558657646179e-02,5.246666260063648224e-03,8.704628050327301025e-02,-6.414519995450973511e-02,-1.228200569748878479e-01,-4.708974435925483704e-02,-1.858266815543174744e-02,5.558459553867578506e-03,-5.082124099135398865e-02,8.293692022562026978e-02,1.611450910568237305e-01,8.900594711303710938e-02,-2.033338099718093872e-01,2.750223502516746521e-02,-1.437676977366209030e-02,4.676902201026678085e-03,-5.672056600451469421e-02
-1.770771145820617676e-01,1.058295592665672302e-01,-1.074007526040077209e-01,-8.248977363109588623e-02,-4.933195933699607849e-02,-1.609328538179397583e-01,-1.420616060495376587e-01,-3.175092861056327820e-02,2.189520746469497681e-02,-4.061093553900718689e-02,-1.345155388116836548e-01,9.025995433330535889e-02,2.974670194089412689e-02,-1.133541017770767212e-01,-2.298563420772552490e-01,9.405826218426227570e-03,-1.387756131589412689e-02,-5.436585843563079834e-02,-2.986030094325542450e-02,-1.097877603024244308e-02,-4.663835838437080383e-02,7.322876155376434326e-02,-8.878526836633682251e-02,7.910166680812835693e-02,-1.199410185217857361e-01,-2.384499646723270416e-02,-4.207026958465576172e-02,1.908071525394916534e-02,4.100840538740158081e-03,3.254243731498718262e-02,-1.390531361103057861e-01,-7.865429855883121490e-03,-2.091329097747802734e-01,-2.993715368211269379e-02,4.350967705249786377e-02,-4.834809526801109314e-02,-9.058418124914169312e-02,-6.819455325603485107e-02,5.278182774782180786e-02,7.080715149641036987e-03,1.029183268547058105e-01,6.639447063207626343e-02,1.448965221643447876e-01,-2.977850660681724548e-02,8.690155297517776489e-02,9.295525401830673218e-02,-8.131963014602661133e-02,9.552274644374847412e-02,-9.935589134693145752e-02,1.180854514241218567e-01,-1.108817309141159058e-01,-2.598493359982967377e-02,-1.369384862482547760e-02,-1.129660755395889282e-01,-1.179023161530494690e-01,5.979271978139877319e-02,-1.882090978324413300e-02,-1.288797706365585327e-01,-7.961825281381607056e-02,-4.073234274983406067e-02,-6.610317528247833252e-02,-8.615138381719589233e-02,1.188077852129936218e-01,1.448915749788284302e-01,7.436935603618621826e-02,-1.518416702747344971e-01,1.156868785619735718e-01,2.182551473379135132e-02,-1.185586750507354736e-01,1.819690875709056854e-02,-3.165932744741439819e-02,4.323453083634376526e-02,-1.506652981042861938e-01,-4.772782698273658752e-02,9.770642220973968506e-02,6.399111449718475342e-02,1.280763298273086548e-01,3.265350311994552612e-02,7.201968878507614136e-02,-6.552271544933319092e-02,-3.524547815322875977e-02,-2.203479036688804626e-02,-6.242390722036361694e-02,-1.264070123434066772e-01,1.180805638432502747e-01,-1.272127926349639893e-01,-1.541513949632644653e-01,-7.309509441256523132e-03,6.492525339126586914e-03,-2.963871881365776062e-02,-4.257844761013984680e-02,7.636998780071735382e-03,-1.261114329099655151e-01,1.288633793592453003e-01,5.977287515997886658e-02,-6.088742986321449280e-02,1.199349910020828247e-01,-1.758571863174438477e-01,3.282370418310165405e-02,2.164626680314540863e-02,6.412674486637115479e-02,-8.673298358917236328e-02,3.829939663410186768e-02,-1.886824220418930054e-01,-2.993041835725307465e-02,-9.886256605386734009e-02,-4.755201563239097595e-02,-7.639223337173461914e-02,4.869018867611885071e-02,7.320744544267654419e-02,1.102474853396415710e-01,-9.385214187204837799e-03,-1.194513440132141113e-01,-1.834959089756011963e-01,-1.203296482563018799e-01,-1.260900199413299561e-01,2.772571519017219543e-02,-7.088983803987503052e-02,-1.157379895448684692e-01,7.549881935119628906e-02,2.177754975855350494e-02,4.002031311392784119e-02,1.387540902942419052e-02,-9.353543817996978760e-02,9.713378734886646271e-03,9.172989428043365479e-02,-5.850295349955558777e-02,1.130596399307250977e-01,-1.357160806655883789e-01,-1.401420533657073975e-01,6.025052815675735474e-02,-8.734858036041259766e-02,-1.807125955820083618e-01,-9.468842297792434692e-02,-5.669709667563438416e-02,-7.017469406127929688e-02,-1.584889739751815796e-02,1.072965413331985474e-01,6.112084910273551941e-02,4.605537652969360352e-02,3.381590172648429871e-02,-6.323734670877456665e-02,2.354044653475284576e-02,-1.028151065111160278e-01,-8.816807717084884644e-02,-1.497158110141754150e-01,-1.947627961635589600e-02,-3.064307011663913727e-02,-8.386629074811935425e-02,-6.633195281028747559e-02,-8.730257302522659302e-02,-7.233686745166778564e-02,-5.800838768482208252e-02,-6.580098718404769897e-02,-3.786224639043211937e-03,7.729804515838623047e-02,-4.719282314181327820e-02,3.902155160903930664e-02,2.217664383351802826e-02,-8.219388313591480255e-03,-3.759611397981643677e-02,-2.114252932369709015e-02,-4.112509638071060181e-02,-1.381821483373641968e-01,-1.953027844429016113e-01,-1.123718619346618652e-01,-2.074971795082092285e-02,2.978756651282310486e-02,1.580449636094272137e-03,1.002268958836793900e-02,-1.245431602001190186e-02,-2.503213845193386078e-02,-1.089465618133544922e-01,-4.665318131446838379e-02,-7.563311606645584106e-02,-1.628073751926422119e-01,-7.070362567901611328e-02,-1.098581030964851379e-02,3.021384775638580322e-02,-3.796128183603286743e-02,-8.080130815505981445e-02,5.067331716418266296e-03,5.187592282891273499e-02,-6.235637236386537552e-03,-2.732515148818492889e-02,-1.656070500612258911e-01,-3.242227435111999512e-02,-3.831811249256134033e-03,1.924703014083206654e-03,-1.876605004072189331e-01,-1.809280365705490112e-01,3.362081199884414673e-02,-4.649860039353370667e-02,1.078915596008300781e-01,-6.436223629862070084e-03,6.276851147413253784e-02,-8.304493129253387451e-02,1.336396187543869019e-01,-9.524563699960708618e-02,-6.303687393665313721e-02
5.789095908403396606e-02,1.184745281934738159e-01,-6.090767309069633484e-02,9.477111697196960449e-02,3.870710358023643494e-02,4.959805309772491455e-02,4.312154650688171387e-02,-1.245510652661323547e-01,1.358621120452880859e-01,9.178464114665985107e-02,9.082575887441635132e-02,3.181179463863372803e-01,2.379596531391143799e-01,-2.875330448150634766e-01,-9.797082096338272095e-02,8.162270300090312958e-03,-9.104415774345397949e-03,-6.297038495540618896e-02,1.016485225409269333e-02,-1.001147553324699402e-01,4.721296578645706177e-02,-1.296927481889724731e-01,3.788187727332115173e-02,-2.973745167255401611e-01,2.479953877627849579e-02,1.123964935541152954e-01,-1.550710014998912811e-02,9.676106274127960205e-02,2.530348002910614014e-01,1.046191826462745667e-01,7.420209050178527832e-02,-5.399897694587707520e-02,-6.551490724086761475e-02,2.349461168050765991e-01,-2.000952214002609253e-01,2.153828740119934082e-01,3.794730082154273987e-02,2.521665096282958984e-01,1.038302704691886902e-01,1.249693855643272400e-01,4.900719225406646729e-02,1.512510776519775391e-01,2.806118726730346680e-01,-5.095886997878551483e-03,-1.955872960388660431e-02,-5.244066566228866577e-02,-1.384298056364059448e-01,2.347065955400466919e-01,-1.713752560317516327e-02,-9.647283703088760376e-02,-8.704058080911636353e-02,-7.478927727788686752e-05,-3.602968901395797729e-02,5.863538756966590881e-02,8.680498600006103516e-02,-1.119127050042152405e-01,4.472792521119117737e-02,-1.268205195665359497e-01,1.622184813022613525e-01,1.655702129937708378e-03,-1.083825007081031799e-01,-1.601579934358596802e-01,9.654336422681808472e-02,1.845398247241973877e-01,1.929817050695419312e-01,5.949515849351882935e-02,2.051512338221073151e-02,-8.222876489162445068e-02,1.462179422378540039e-01,1.240419745445251465e-01,-7.699287682771682739e-02,-3.486382961273193359e-02,-1.976783573627471924e-01,-2.622327208518981934e-02,-4.095801711082458496e-02,-1.427717804908752441e-01,1.071399003267288208e-01,1.573076695203781128e-01,1.284006610512733459e-02,-3.142084926366806030e-02,4.696217179298400879e-02,2.029227092862129211e-02,-1.248445436358451843e-01,-7.752036303281784058e-02,2.881865575909614563e-02,6.761683523654937744e-02,-1.280228197574615479e-01,6.651622056961059570e-02,-3.284510374069213867e-01,-1.076965034008026123e-01,-6.149813998490571976e-03,2.456344366073608398e-01,6.954894959926605225e-02,-2.854534611105918884e-02,1.051379963755607605e-01,-9.356149472296237946e-03,1.432335525751113892e-01,-4.613980278372764587e-02,-1.762824654579162598e-01,-1.363642662763595581e-01,-1.701597124338150024e-01,-4.664703831076622009e-02,-1.721778959035873413e-01,8.110758662223815918e-02,-6.160959228873252869e-02,7.416163384914398193e-02,-3.035511076450347900e-01,5.750607326626777649e-02,1.002570018172264099e-01,-7.047746330499649048e-02,-1.545034348964691162e-01,2.103535458445549011e-02,1.795160919427871704e-01,1.311686486005783081e-01,-7.286994159221649170e-02,-1.250978857278823853e-01,5.660661309957504272e-02,4.060934484004974365e-02,-6.759275496006011963e-02,1.456775516271591187e-01,2.200984656810760498e-01,-1.118134260177612305e-01,-1.460323482751846313e-01,-2.368524372577667236e-01,1.347124725580215454e-01,4.225835949182510376e-02,1.292068958282470703e-01,2.665296895429491997e-03,-1.874168366193771362e-01,-1.820887178182601929e-01,7.595850527286529541e-02,6.403537839651107788e-02,1.850042641162872314e-01,-3.960229456424713135e-02,-1.146101504564285278e-01,1.282481104135513306e-01,-1.712185330688953400e-02,6.103676557540893555e-02,-2.474688440561294556e-01,9.506805986166000366e-02,-5.909504368901252747e-02,4.407762363553047180e-02,-3.557912260293960571e-02,3.165562078356742859e-02,-4.706932231783866882e-03,2.583078145980834961e-01,1.087570115923881531e-01,7.730549573898315430e-02,-1.305329240858554840e-02,4.701639711856842041e-02,-2.255901545286178589e-01,1.202000379562377930e-01,2.076211571693420410e-02,-2.350451350212097168e-01,-2.788161486387252808e-02,1.381438672542572021e-01,-8.730950206518173218e-02,2.373851090669631958e-01,7.566519826650619507e-02,-7.589938491582870483e-02,-1.042990535497665405e-01,6.760383397340774536e-02,-1.222415193915367126e-01,-3.952063992619514465e-02,5.663433670997619629e-02,-7.964975386857986450e-02,3.524202480912208557e-02,-1.080541387200355530e-01,-2.404238879680633545e-01,6.837072968482971191e-02,-1.543021500110626221e-01,-2.357272058725357056e-01,-8.927644812501966953e-04,1.283928453922271729e-01,2.145160436630249023e-01,-2.079683840274810791e-01,2.013575583696365356e-01,1.172577291727066040e-01,-9.293649345636367798e-03,3.459222987294197083e-02,1.794844716787338257e-01,1.774094700813293457e-01,-1.189070045948028564e-01,-6.016952916979789734e-02,4.287225753068923950e-02,6.523413211107254028e-02,-9.290438145399093628e-02,4.915202409029006958e-02,1.151277031749486923e-02,-2.612989544868469238e-01,6.295028328895568848e-02,7.255336642265319824e-02,6.973255425691604614e-02,8.106683939695358276e-02,-1.709258258342742920e-01,2.604608237743377686e-01,-2.515953592956066132e-02,1.978812068700790405e-01,-8.031891286373138428e-02,-7.986461371183395386e-02
-1.339299827814102173e-01,-4.597337171435356140e-02,1.852859742939472198e-02,-1.293977797031402588e-01,5.794002860784530640e-02,1.503730416297912598e-01,-1.176129207015037537e-01,1.234688833355903625e-01,3.928346186876296997e-02,3.548027575016021729e-02,-1.011625677347183228e-01,2.267092466354370117e-02,-8.898851275444030762e-02,1.105642169713973999e-01,3.455036878585815430e-02,6.110911071300506592e-02,-8.010062389075756073e-03,1.492224335670471191e-01,-4.818773642182350159e-02,5.046496540307998657e-02,-3.550556302070617676e-02,-3.823735285550355911e-03,-4.563459195196628571e-03,1.681150496006011963e-01,1.454074382781982422e-01,-2.298481203615665436e-02,-2.645434346050024033e-03,-1.514411568641662598e-01,-7.712313532829284668e-02,-4.051376879215240479e-02,4.368713870644569397e-02,8.137536793947219849e-02,-1.060659438371658325e-01,1.429004371166229248e-01,9.177044034004211426e-02,-9.285631030797958374e-02,1.125608533620834351e-01,2.371111810207366943e-01,-5.187642946839332581e-02,-2.367033995687961578e-02,6.082496047019958496e-02,1.087777689099311829e-01,8.303568512201309204e-02,-6.114128604531288147e-02,7.198742777109146118e-02,1.223618611693382263e-01,-5.245806183665990829e-03,-7.787425816059112549e-02,1.355413347482681274e-01,1.116738021373748779e-01,5.636206641793251038e-02,-1.301725506782531738e-01,-2.733903378248214722e-02,8.863221108913421631e-02,-1.320935785770416260e-01,-1.431973874568939209e-01,1.696292161941528320e-01,-1.021294966340065002e-01,1.136740371584892273e-01,1.081181317567825317e-01,-1.766623184084892273e-02,1.103661656379699707e-01,8.938083052635192871e-02,-7.294472306966781616e-02,1.579199731349945068e-01,-5.818819254636764526e-02,-1.455736607313156128e-01,1.378114148974418640e-02,4.318942956160753965e-04,1.745245754718780518e-01,-1.447268575429916382e-01,-1.029693558812141418e-01,1.112557053565979004e-01,6.724420934915542603e-03,1.924182474613189697e-02,-1.567660272121429443e-01,2.886313013732433319e-03,3.959617577493190765e-03,-7.890337705612182617e-02,2.343402616679668427e-02,2.652053907513618469e-02,1.225073784589767456e-01,-1.041769683361053467e-01,5.410094559192657471e-02,1.191397085785865784e-01,9.615325182676315308e-02,-1.071807295083999634e-01,-9.736837446689605713e-02,-9.847336262464523315e-02,-1.064956635236740112e-01,1.477249991148710251e-02,-3.609729232266545296e-03,2.126375585794448853e-02,-5.576538667082786560e-02,2.076185643672943115e-01,-9.945582598447799683e-02,-8.736355602741241455e-02,1.256815195083618164e-01,-3.564722090959548950e-02,-1.633490324020385742e-01,7.353529334068298340e-02,7.522415835410356522e-03,-1.745882630348205566e-02,-3.019694797694683075e-02,-1.109014078974723816e-02,-1.067884862422943115e-01,-1.156213060021400452e-01,-7.252153940498828888e-03,-4.467873647809028625e-02,7.569317519664764404e-02,2.206963300704956055e-01,1.531949937343597412e-01,5.778862163424491882e-02,-3.651010617613792419e-02,-4.594783857464790344e-02,1.525935679674148560e-01,-9.823898971080780029e-02,6.035094708204269409e-02,1.086944043636322021e-01,-1.412962377071380615e-01,-1.872812956571578979e-02,8.197547495365142822e-02,1.112863188609480858e-03,8.015350997447967529e-02,-4.351532831788063049e-02,-1.926458254456520081e-02,-7.838954031467437744e-02,-7.902237027883529663e-02,-8.362472988665103912e-03,-1.099529936909675598e-01,1.851280964910984039e-02,4.422831907868385315e-02,2.838889323174953461e-02,-3.574436902999877930e-02,-7.569181919097900391e-02,4.623831436038017273e-02,9.706516563892364502e-02,6.147645041346549988e-02,9.231463074684143066e-02,7.712138444185256958e-02,1.039462313055992126e-01,-6.366425752639770508e-02,3.155431151390075684e-02,-1.279575973749160767e-01,1.660379022359848022e-02,1.358450502157211304e-01,3.614360094070434570e-02,-7.334981858730316162e-02,-1.572753675282001495e-02,1.311968713998794556e-01,3.683573007583618164e-02,-9.997517615556716919e-02,-1.123830396682024002e-02,1.839661300182342529e-01,-1.204453632235527039e-01,9.146873652935028076e-02,-1.333788689225912094e-02,4.647788777947425842e-02,9.584819898009300232e-03,-8.597875386476516724e-02,2.487086318433284760e-02,-8.088634908199310303e-02,5.838979780673980713e-02,1.124216020107269287e-01,-1.267887055873870850e-01,1.488429605960845947e-01,2.260736674070358276e-01,9.658595174551010132e-02,-1.555886119604110718e-01,-6.839647144079208374e-02,-1.032314449548721313e-01,-6.625986099243164062e-02,-1.192003786563873291e-01,1.182975843548774719e-01,-4.872122779488563538e-02,5.086608603596687317e-02,4.315226152539253235e-02,-1.096555888652801514e-01,-2.583478391170501709e-02,-7.798427343368530273e-02,1.774759739637374878e-01,7.777840644121170044e-02,4.657635465264320374e-02,1.472690887749195099e-02,8.012203872203826904e-02,7.197342813014984131e-02,6.930464506149291992e-02,5.486407130956649780e-02,-1.184202078729867935e-02,1.361314058303833008e-01,2.109080925583839417e-02,-9.597793221473693848e-02,6.860525161027908325e-02,1.066378578543663025e-01,1.305391490459442139e-01,9.906051307916641235e-02,6.927690654993057251e-02,-9.819287806749343872e-02,-1.483002454042434692e-01,1.479138731956481934e-01
-1.328807920217514038e-01,3.013347275555133820e-03,1.159307807683944702e-01,1.843118667602539062e-01,-1.725924387574195862e-02,-7.343372702598571777e-02,-9.715578705072402954e-02,-5.285288393497467041e-02,1.315430551767349243e-02,-1.471760123968124390e-01,-5.109693109989166260e-02,-8.083260059356689453e-02,4.130442161113023758e-03,-1.286367923021316528e-01,-1.458911970257759094e-02,-9.814203530550003052e-02,4.274166375398635864e-02,4.850546270608901978e-02,7.819636166095733643e-02,8.115870878100395203e-03,-1.996926590800285339e-02,9.435582906007766724e-02,-2.418588101863861084e-02,-1.345565915107727051e-02,-1.525742709636688232e-01,-4.943726211786270142e-02,-5.091559514403343201e-02,-1.137334778904914856e-01,-4.549235850572586060e-02,-1.469713151454925537e-01,2.735618315637111664e-02,-1.619075238704681396e-02,-3.709218651056289673e-02,8.550572395324707031e-02,-2.825223654508590698e-02,2.861720137298107147e-02,-1.027215048670768738e-01,9.349727630615234375e-02,-1.581922322511672974e-01,3.806397318840026855e-03,-1.694327890872955322e-01,5.244686268270015717e-03,-9.214223921298980713e-02,-1.353049725294113159e-01,3.212695475667715073e-03,7.931869477033615112e-02,-5.840489268302917480e-02,-1.406784206628799438e-01,-8.894211798906326294e-02,2.310299314558506012e-03,9.297347068786621094e-02,6.011996418237686157e-02,7.522852718830108643e-02,-8.522205054759979248e-02,-9.265545010566711426e-02,-4.414327442646026611e-02,-6.267764419317245483e-02,-1.953386329114437103e-02,3.008997254073619843e-02,2.999448217451572418e-02,-2.242721319198608398e-01,-2.710825391113758087e-02,-9.042248874902725220e-02,-5.945416167378425598e-02,-9.803088009357452393e-02,5.113272741436958313e-02,-8.179980516433715820e-02,-1.171155199408531189e-01,4.311060905456542969e-02,9.649118036031723022e-02,-1.125043332576751709e-01,-7.907970249652862549e-02,2.837239019572734833e-02,-1.272279396653175354e-02,4.870116338133811951e-02,1.971307210624217987e-03,-1.848023682832717896e-01,3.725563362240791321e-02,-1.000257879495620728e-01,-4.508379846811294556e-03,-2.659653872251510620e-02,-1.307681649923324585e-01,6.500601302832365036e-03,-1.411025971174240112e-01,2.452035993337631226e-02,-4.394385591149330139e-02,-5.259669944643974304e-02,-7.606500387191772461e-02,1.950699090957641602e-02,-8.258193731307983398e-02,-3.556829644367098808e-03,7.049379497766494751e-02,9.373504668474197388e-03,-1.320155113935470581e-01,-6.639862060546875000e-02,-5.387476831674575806e-02,2.775075472891330719e-02,-4.896182939410209656e-02,-1.311791837215423584e-01,-7.352801505476236343e-03,7.487034797668457031e-02,9.432413615286350250e-03,-1.426734216511249542e-02,-6.943622976541519165e-02,7.789722830057144165e-02,-1.108837500214576721e-01,-1.184661686420440674e-01,-1.336940098553895950e-02,-6.989133358001708984e-02,-3.858963400125503540e-02,-1.891280114650726318e-01,4.487151280045509338e-02,6.345801800489425659e-02,-1.072986200451850891e-01,3.451890125870704651e-02,5.959466844797134399e-02,-6.270299851894378662e-02,-3.830942511558532715e-02,-9.329073131084442139e-02,-1.879536062479019165e-01,-4.342618957161903381e-02,-1.285922229290008545e-01,-5.786307156085968018e-02,-3.057636693120002747e-02,5.550544336438179016e-02,-1.497119665145874023e-01,-1.202758401632308960e-01,9.123129397630691528e-02,2.576976083219051361e-02,5.942864343523979187e-03,7.547763735055923462e-02,-4.579775780439376831e-02,-1.022536531090736389e-01,5.823381617665290833e-02,-2.968083694577217102e-02,-1.407913118600845337e-01,-1.109335720539093018e-01,-8.584652841091156006e-02,-1.975814700126647949e-01,5.389660131186246872e-03,2.090865932404994965e-02,-5.839630588889122009e-02,-1.442375034093856812e-01,-1.643616706132888794e-01,9.262850880622863770e-02,3.841443732380867004e-02,-5.551786720752716064e-02,-2.306772023439407349e-02,-6.094264239072799683e-02,-1.150385290384292603e-01,5.802031606435775757e-02,-9.243763238191604614e-02,4.108129069209098816e-02,-1.576293376274406910e-03,-2.021942660212516785e-02,9.913440793752670288e-02,2.075829170644283295e-02,1.674370467662811279e-02,-3.624857589602470398e-02,-2.908448455855250359e-03,-2.558744698762893677e-02,-1.827512308955192566e-02,2.416125312447547913e-02,-7.910163700580596924e-02,5.497963726520538330e-02,-7.094112038612365723e-02,-1.412703394889831543e-01,-1.287854369729757309e-02,-8.795669674873352051e-02,-1.132913380861282349e-01,-7.508821785449981689e-02,4.661858081817626953e-02,-8.369807898998260498e-02,-2.199654653668403625e-02,7.051625102758407593e-02,-2.566749975085258484e-02,-1.139626875519752502e-01,-2.755136042833328247e-02,-4.360690712928771973e-02,-1.696287691593170166e-01,1.038855761289596558e-01,-1.107624918222427368e-01,-4.178697988390922546e-02,1.109346002340316772e-01,1.204309687018394470e-01,-8.179822564125061035e-02,-1.304848492145538330e-01,4.525588080286979675e-02,-3.905054181814193726e-02,-1.602602601051330566e-01,8.913901448249816895e-02,-1.104967892169952393e-01,-2.027041912078857422e-01,-1.021156013011932373e-01,-1.519291251897811890e-01,9.081491827964782715e-02,7.777184993028640747e-02,-1.332458555698394775e-01,7.836099714040756226e-02,-4.766976088285446167e-02
-6.281863152980804443e-02,4.079107195138931274e-02,-2.530982717871665955e-02,-1.289859563112258911e-01,7.211025804281234741e-02,1.806024648249149323e-02,2.663508355617523193e-01,2.197059243917465210e-01,1.859824210405349731e-01,-3.039255142211914062e-01,5.963826924562454224e-02,-1.760830134153366089e-01,9.705000370740890503e-02,3.309236839413642883e-02,-1.985132545232772827e-01,-3.141158819198608398e-01,5.171558633446693420e-02,-1.420827358961105347e-01,-9.921547025442123413e-03,-2.971809543669223785e-02,1.233759801834821701e-02,2.450977116823196411e-01,9.796781092882156372e-02,4.592034593224525452e-02,6.018847599625587463e-02,2.741667330265045166e-01,-1.283245235681533813e-01,1.576175093650817871e-01,1.378279477357864380e-01,1.026093065738677979e-01,1.549081411212682724e-02,1.497390866279602051e-01,1.434823423624038696e-01,3.958973661065101624e-02,1.502057909965515137e-01,-1.557935476303100586e-01,-2.551476005464792252e-03,1.737727224826812744e-01,-7.877167314291000366e-02,-5.157214030623435974e-02,1.484778244048357010e-02,2.177534997463226318e-02,1.240329742431640625e-01,-2.270903587341308594e-01,-2.474210411310195923e-01,-3.339383602142333984e-01,-5.312645062804222107e-02,-1.488138735294342041e-01,-2.971044182777404785e-02,2.135266214609146118e-01,2.536641955375671387e-01,1.814088374376296997e-01,-1.932641118764877319e-01,3.888880833983421326e-02,-2.371638417243957520e-01,1.009014993906021118e-02,-2.249918319284915924e-02,1.588552445173263550e-01,-2.648858912289142609e-02,-3.057773597538471222e-02,-2.419830113649368286e-01,1.182310376316308975e-02,-3.128658235073089600e-01,-1.825083941221237183e-01,9.580178558826446533e-02,-1.618367992341518402e-02,-2.404002994298934937e-01,-1.051745563745498657e-01,1.154391691088676453e-01,-1.157872155308723450e-01,-1.235688105225563049e-01,6.192779913544654846e-02,-3.929123580455780029e-01,-7.888842374086380005e-02,-2.195924073457717896e-01,5.094533413648605347e-02,1.317084282636642456e-01,-1.040858924388885498e-01,8.937806636095046997e-02,-1.425217837095260620e-01,1.480383425951004028e-01,-1.036501079797744751e-01,3.859671577811241150e-02,8.966125547885894775e-02,8.241319656372070312e-02,1.370819807052612305e-01,-3.799477592110633850e-02,8.056270331144332886e-02,4.564674943685531616e-02,-2.954173386096954346e-01,-1.382495909929275513e-01,-1.787656545639038086e-01,-1.777918785810470581e-01,2.140211910009384155e-01,-3.315703198313713074e-02,-1.974377185106277466e-01,3.221609070897102356e-02,3.295442759990692139e-01,-1.334024965763092041e-02,-6.186948716640472412e-02,-1.155942305922508240e-01,-9.464978426694869995e-02,1.428934396244585514e-03,-6.014301441609859467e-03,6.169890239834785461e-02,1.718905866146087646e-01,-1.427455544471740723e-01,-1.979301124811172485e-01,-4.702107608318328857e-02,-6.319096684455871582e-02,1.180847063660621643e-01,-5.353734269738197327e-02,-1.567367166280746460e-01,1.867768764495849609e-01,8.118879050016403198e-02,1.928357034921646118e-01,-3.698413074016571045e-02,-8.023536950349807739e-02,1.123198717832565308e-01,-1.418223977088928223e-01,-6.749942898750305176e-02,7.436145842075347900e-02,1.901223808526992798e-01,1.984985172748565674e-02,2.254803897812962532e-03,9.752481244504451752e-03,6.729502975940704346e-02,2.525913156569004059e-02,-1.517039090394973755e-01,4.656893014907836914e-02,-8.317560702562332153e-02,-2.573733218014240265e-02,-1.767822504043579102e-01,-1.182136405259370804e-02,-9.426523000001907349e-02,-4.368519783020019531e-02,-1.087411865592002869e-01,1.073575168848037720e-01,1.050907224416732788e-01,-3.506415337324142456e-02,-3.940241411328315735e-02,-1.834948062896728516e-01,-1.662106066942214966e-01,-1.991879045963287354e-01,-1.223177909851074219e-01,-8.669532090425491333e-02,-1.285149902105331421e-01,-4.246307164430618286e-02,3.614982217550277710e-02,-4.678753018379211426e-02,9.124198555946350098e-02,4.125387594103813171e-02,-2.228730022907257080e-01,-2.237154394388198853e-01,-1.759555637836456299e-01,1.924005001783370972e-01,1.210291832685470581e-01,1.987523287534713745e-01,-1.082482114434242249e-01,-1.176349818706512451e-01,-6.494245678186416626e-02,-1.761100441217422485e-01,-6.465911865234375000e-02,2.190586179494857788e-01,-7.658533006906509399e-02,-2.530357241630554199e-01,1.792082339525222778e-01,-1.171464622020721436e-01,-5.836795084178447723e-03,4.257050156593322754e-02,-5.861439928412437439e-02,1.470171809196472168e-01,9.479983896017074585e-02,1.035107895731925964e-01,-3.689286708831787109e-01,-4.666014015674591064e-02,1.240127161145210266e-01,2.466594725847244263e-01,-2.355060130357742310e-01,-1.416405141353607178e-01,5.152827873826026917e-02,-7.365608215332031250e-02,-1.378366202116012573e-01,1.158109903335571289e-01,-1.854565590620040894e-01,2.581265835033264011e-05,7.153353840112686157e-02,-3.253684639930725098e-01,-1.990424096584320068e-01,1.915061026811599731e-01,5.671982653439044952e-03,-5.656982585787773132e-02,2.358014136552810669e-01,-2.575252950191497803e-01,6.731764227151870728e-02,1.699772030115127563e-01,1.067941561341285706e-01,-3.369367215782403946e-03,1.601371541619300842e-02,7.137543708086013794e-02
4.467166215181350708e-02,4.544459283351898193e-02,1.276022940874099731e-02,1.364932060241699219e-01,-1.061161160469055176e-01,1.759943366050720215e-01,-2.717523835599422455e-02,-1.512463986873626709e-01,-5.930358916521072388e-02,2.320740669965744019e-01,-2.257465384900569916e-02,-6.259217113256454468e-02,-9.610463678836822510e-02,1.891737729310989380e-01,2.629706859588623047e-01,2.985081970691680908e-01,-1.627193689346313477e-01,6.569742411375045776e-02,-5.194526165723800659e-02,2.468621879816055298e-01,-2.239420823752880096e-02,-1.265797764062881470e-01,-2.447321712970733643e-01,1.734650135040283203e-01,9.817246347665786743e-02,-3.114463686943054199e-01,-4.614049941301345825e-02,-1.167455688118934631e-01,-1.366602927446365356e-01,6.749466806650161743e-02,2.687887847423553467e-02,-7.973611354827880859e-02,1.167307142168283463e-02,-1.309188604354858398e-01,4.360572248697280884e-02,2.016696780920028687e-01,-6.762415915727615356e-02,-2.432384192943572998e-01,1.035775989294052124e-01,1.482219994068145752e-01,-4.156948253512382507e-02,-4.439125582575798035e-02,-3.290342167019844055e-03,2.790995240211486816e-01,2.212977856397628784e-01,3.926118314266204834e-01,1.196642741560935974e-01,1.575821340084075928e-01,-2.237898483872413635e-02,-2.105381935834884644e-01,-1.945195943117141724e-01,-1.695082038640975952e-01,2.048339247703552246e-01,4.082331433892250061e-03,2.795411646366119385e-02,9.580830484628677368e-02,1.471622940152883530e-02,4.311854764819145203e-02,-1.954402588307857513e-02,8.108247816562652588e-02,1.917483359575271606e-01,2.393198907375335693e-01,9.844022989273071289e-02,8.914729952812194824e-02,-6.341568380594253540e-02,2.553077340126037598e-01,1.276181042194366455e-01,1.141709014773368835e-01,-4.474217072129249573e-02,-4.976712912321090698e-02,4.042774438858032227e-02,-8.279746770858764648e-02,3.092235028743743896e-01,5.460996925830841064e-02,1.168083697557449341e-01,-2.270757220685482025e-02,-2.243550568819046021e-01,2.223318442702293396e-02,-1.183996945619583130e-01,2.287915050983428955e-01,-9.304114431142807007e-02,8.764390647411346436e-02,5.250250920653343201e-02,-1.297903209924697876e-01,-1.259109675884246826e-01,-2.030124068260192871e-01,1.460052430629730225e-01,6.446797400712966919e-02,4.182256385684013367e-02,3.836257457733154297e-01,-5.765559896826744080e-02,-6.213390454649925232e-02,9.105781465768814087e-02,-3.615387529134750366e-02,-1.141763925552368164e-01,1.454303413629531860e-01,-1.991525292396545410e-01,-1.407432109117507935e-01,8.058595657348632812e-02,2.855427265167236328e-01,2.178436964750289917e-01,3.283523917198181152e-01,1.907443553209304810e-01,2.224543541669845581e-01,9.133487939834594727e-02,-8.800737559795379639e-02,1.640486121177673340e-01,7.816012203693389893e-02,2.013369798660278320e-01,2.845163345336914062e-01,4.930112138390541077e-02,2.084768414497375488e-01,-5.510832369327545166e-02,-2.129581384360790253e-02,-9.434067457914352417e-02,-4.760927334427833557e-02,1.708442717790603638e-01,2.305190712213516235e-01,-7.460176199674606323e-02,-5.113524943590164185e-02,4.947483912110328674e-02,-2.397079579532146454e-02,-1.045375019311904907e-01,1.150548458099365234e-01,1.528884470462799072e-01,-1.289446502923965454e-01,-1.752018742263317108e-02,2.095773443579673767e-02,5.283524468541145325e-02,-1.473475545644760132e-01,1.024605929851531982e-01,1.606877446174621582e-01,1.698679178953170776e-01,8.996761590242385864e-02,2.169265896081924438e-01,3.303449973464012146e-02,-2.518183737993240356e-02,9.752768278121948242e-02,-7.044786959886550903e-02,2.450445294380187988e-02,3.108409605920314789e-02,7.334307581186294556e-02,1.790112853050231934e-01,-4.954705364070832729e-04,1.411836966872215271e-02,-6.889908015727996826e-02,1.731187254190444946e-01,2.830325663089752197e-01,1.111622005701065063e-01,1.824980974197387695e-01,8.379083871841430664e-02,4.147819429636001587e-02,1.744074076414108276e-01,2.333150506019592285e-01,2.247762829065322876e-01,3.521258383989334106e-02,2.573464214801788330e-01,-1.218763217329978943e-01,-1.143882647156715393e-01,-3.761525824666023254e-02,2.071120291948318481e-01,4.771046340465545654e-03,1.855973452329635620e-01,-1.837323307991027832e-01,1.182254999876022339e-01,1.864455193281173706e-01,7.293064147233963013e-02,2.856284379959106445e-01,7.015305757522583008e-02,-8.484835922718048096e-02,2.313217967748641968e-01,-1.255614757537841797e-01,-4.324791207909584045e-02,-1.448313444852828979e-01,3.460725843906402588e-01,2.311608940362930298e-01,-1.653178334236145020e-01,-6.078412383794784546e-02,2.833493947982788086e-01,2.060475647449493408e-01,8.844628930091857910e-02,1.682711094617843628e-01,1.483322381973266602e-01,1.740788668394088745e-02,-1.398925930261611938e-01,7.392622530460357666e-02,-5.548955500125885010e-02,1.336899846792221069e-01,1.461232751607894897e-01,-1.077408902347087860e-02,1.219145487993955612e-02,5.710136517882347107e-02,-5.477329716086387634e-02,3.923660516738891602e-01,-1.440091729164123535e-01,-1.984339207410812378e-02,-1.531394571065902710e-01,4.800578951835632324e-02,6.022975966334342957e-02,1.832167804241180420e-02
-3.527599945664405823e-02,1.157920286059379578e-01,-1.428380757570266724e-01,-1.756351739168167114e-01,2.719160169363021851e-02,5.518341436982154846e-02,-1.651889532804489136e-01,6.289090216159820557e-02,-7.883301004767417908e-03,2.073863744735717773e-01,-2.341791614890098572e-02,2.625012397766113281e-01,1.990839391946792603e-01,4.789216443896293640e-02,1.618424244225025177e-02,-4.695482924580574036e-02,-6.591622531414031982e-02,9.546402096748352051e-02,-1.318222880363464355e-01,-3.355425596237182617e-02,4.582859203219413757e-02,1.075869351625442505e-01,6.212893500924110413e-02,3.557830303907394409e-02,1.009879335761070251e-01,9.049303084611892700e-02,-2.270306050777435303e-01,-8.491733670234680176e-02,4.737041890621185303e-02,1.308266818523406982e-01,-7.078956067562103271e-02,-4.189951345324516296e-02,-1.135661303997039795e-01,1.179789975285530090e-01,-9.101770073175430298e-02,-9.714336134493350983e-03,-2.819310314953327179e-02,1.467591673135757446e-01,1.178492233157157898e-01,-1.862605661153793335e-02,1.728252172470092773e-01,1.802667230367660522e-01,2.040076553821563721e-01,2.245748043060302734e-01,-8.859439194202423096e-02,7.681793719530105591e-02,-1.586150676012039185e-01,1.569339632987976074e-01,1.081240549683570862e-01,-1.870281398296356201e-01,1.764961481094360352e-01,9.327478706836700439e-02,-1.092368662357330322e-01,-2.657191827893257141e-02,4.014990478754043579e-02,-1.972878277301788330e-01,1.276453584432601929e-01,-4.365353845059871674e-03,8.810659497976303101e-02,1.439881324768066406e-01,-2.355009689927101135e-02,6.415928155183792114e-02,-9.868767857551574707e-02,-1.012108405120670795e-03,1.605204641819000244e-01,2.141965180635452271e-01,8.281553164124488831e-03,4.578279703855514526e-02,-4.897417128086090088e-02,3.805928304791450500e-02,-2.636888921260833740e-01,-1.034359931945800781e-01,-2.005548775196075439e-02,-3.590058907866477966e-02,7.849449664354324341e-02,-1.383482515811920166e-01,-2.371585741639137268e-02,1.707482635974884033e-01,-1.520478278398513794e-01,2.352748438715934753e-02,5.874202772974967957e-02,-5.332638695836067200e-02,-6.983977556228637695e-02,3.140795603394508362e-02,-3.792463615536689758e-02,1.766395866870880127e-01,1.134118065237998962e-02,4.276619479060173035e-02,3.178914543241262436e-03,-5.624512583017349243e-02,-2.623991668224334717e-01,2.009065002202987671e-01,1.332598030567169189e-01,4.808553960174322128e-03,5.261208117008209229e-02,-8.932687342166900635e-02,-3.622324392199516296e-02,1.988264359533786774e-02,1.737941987812519073e-02,-1.061124131083488464e-01,1.462580561637878418e-01,2.451019734144210815e-02,1.891468316316604614e-01,2.156116664409637451e-01,1.030539646744728088e-01,9.771319106221199036e-03,3.865877166390419006e-02,1.572754979133605957e-01,2.343346551060676575e-02,-3.803848847746849060e-02,4.816776141524314880e-02,1.176779344677925110e-01,2.267078608274459839e-01,1.236716434359550476e-01,-1.514499634504318237e-01,1.137036457657814026e-01,1.433999538421630859e-01,-4.264965653419494629e-03,-1.058909222483634949e-01,1.758011877536773682e-01,1.933317333459854126e-01,-2.974243648350238800e-02,-2.553214132785797119e-01,8.678950369358062744e-02,4.831825569272041321e-02,1.799509972333908081e-01,1.379586458206176758e-01,-1.310011595487594604e-01,-1.685348749160766602e-01,-6.757082417607307434e-03,1.303550153970718384e-01,2.959392033517360687e-02,9.513815492391586304e-02,-8.581810444593429565e-02,-1.017084941267967224e-01,-2.149986103177070618e-02,1.947996788658201694e-03,-1.397478580474853516e-01,1.838799007236957550e-02,-9.519538283348083496e-02,-4.314318671822547913e-02,5.309902131557464600e-03,-1.028595939278602600e-01,1.659972667694091797e-01,-1.306445244699716568e-02,1.085907295346260071e-01,1.003484129905700684e-01,8.702610433101654053e-02,1.106376424431800842e-01,1.824829131364822388e-01,9.462314099073410034e-02,-2.657618820667266846e-01,1.100322231650352478e-01,-6.424998492002487183e-02,9.116502106189727783e-02,-6.606031954288482666e-02,1.139722838997840881e-01,7.988436520099639893e-02,1.631080806255340576e-01,-1.053816676139831543e-01,3.858479857444763184e-02,2.452103421092033386e-03,1.511619687080383301e-01,-9.399088472127914429e-02,4.554171115159988403e-02,-1.287643313407897949e-01,-5.363769084215164185e-02,-8.614600449800491333e-02,-1.287365704774856567e-01,7.382000982761383057e-02,1.406854987144470215e-01,-6.554267834872007370e-03,-1.281301677227020264e-01,1.260519772768020630e-01,9.494738280773162842e-02,-2.065497217699885368e-03,-6.028105691075325012e-02,-7.744076848030090332e-02,3.110181423835456371e-04,-1.427747458219528198e-01,1.908445656299591064e-01,2.399689704179763794e-01,7.607500255107879639e-02,4.707974195480346680e-02,2.254764437675476074e-01,-6.248855590820312500e-02,-9.476941823959350586e-02,-2.046010494232177734e-01,-8.116421848535537720e-02,1.458645910024642944e-01,-1.095780283212661743e-01,1.786907911300659180e-01,9.544231742620468140e-02,2.284871488809585571e-01,-8.025989867746829987e-03,1.116195023059844971e-01,5.878817290067672729e-02,5.054512619972229004e-02,-2.887730598449707031e-01,1.459640413522720337e-01
1.852588206529617310e-01,1.185792982578277588e-01,1.169991791248321533e-01,1.299615949392318726e-01,-3.123719990253448486e-02,1.067711934447288513e-01,1.587783396244049072e-01,8.735667169094085693e-02,-1.561549156904220581e-01,-7.945886254310607910e-02,1.060189679265022278e-01,-1.285400986671447754e-01,-8.585876971483230591e-02,1.597455888986587524e-01,3.652735846117138863e-03,-6.661581993103027344e-02,4.391677677631378174e-02,-1.551289260387420654e-01,-9.739597328007221222e-03,8.150164037942886353e-02,-3.849769756197929382e-02,1.578811407089233398e-01,-2.506016790866851807e-01,1.370018124580383301e-01,-1.239411681890487671e-01,9.513104334473609924e-03,2.826462984085083008e-01,2.723338082432746887e-02,-1.212047226727008820e-02,-1.778636276721954346e-01,-2.646039985120296478e-02,-7.090263068675994873e-02,1.285830587148666382e-01,-3.771245107054710388e-02,3.114384114742279053e-01,-1.813537254929542542e-02,7.341036200523376465e-02,-1.366293877363204956e-01,-6.190547347068786621e-02,3.684077411890029907e-03,-1.375970803201198578e-02,-1.932405084371566772e-01,5.301402509212493896e-02,-9.254956990480422974e-02,-9.405034594237804413e-03,-1.382931619882583618e-01,1.873665750026702881e-01,-1.282168924808502197e-01,5.827235430479049683e-02,1.945420652627944946e-01,1.572353839874267578e-01,1.401909440755844116e-01,8.013647049665451050e-02,-1.247572451829910278e-01,-1.153475418686866760e-01,1.313534080982208252e-01,-2.651011012494564056e-02,7.875693589448928833e-02,2.606424316763877869e-02,7.786173373460769653e-02,6.612084805965423584e-02,1.435050517320632935e-01,-1.516290456056594849e-01,-1.372949779033660889e-01,-2.420936077833175659e-01,4.963412880897521973e-03,-5.795407667756080627e-02,6.965873297303915024e-03,9.022153168916702271e-02,-1.931672990322113037e-01,5.997609347105026245e-02,3.453281521797180176e-02,-8.317520469427108765e-02,-1.141340136528015137e-01,-1.084051579236984253e-01,-1.764095872640609741e-01,7.746072113513946533e-02,3.691213950514793396e-02,-1.553128287196159363e-02,2.869320474565029144e-02,1.340098381042480469e-01,-5.418518558144569397e-02,-9.438963606953620911e-03,-6.000689789652824402e-02,1.462040990591049194e-01,1.016960516571998596e-01,3.770130453631281853e-03,-7.718718796968460083e-02,5.997738242149353027e-02,-1.196453906595706940e-02,2.616772428154945374e-03,-1.209244430065155029e-01,-1.262217164039611816e-01,2.055614888668060303e-01,-1.042116209864616394e-01,-3.940795734524726868e-02,8.558756113052368164e-02,4.987859353423118591e-02,-6.977254152297973633e-02,-6.524247676134109497e-02,-1.558869797736406326e-02,2.834580838680267334e-03,-2.726163528859615326e-02,-1.279413849115371704e-01,2.491261810064315796e-01,2.167026549577713013e-01,6.890439987182617188e-02,-2.583394758403301239e-02,1.920966617763042450e-02,1.186024281196296215e-03,9.630227088928222656e-02,9.847708977758884430e-03,-1.107391621917486191e-02,-1.450844667851924896e-02,2.526010572910308838e-01,1.124724298715591431e-01,-1.288909614086151123e-01,5.767717957496643066e-02,7.317426055669784546e-02,-5.882305279374122620e-02,-5.228289589285850525e-02,7.621198147535324097e-02,2.394063770771026611e-01,-3.315360099077224731e-02,-3.672788292169570923e-02,3.144843876361846924e-02,7.631706446409225464e-02,-6.098767369985580444e-02,5.119810625910758972e-02,6.891874223947525024e-02,-8.514896780252456665e-02,-5.662243813276290894e-02,-4.847364872694015503e-02,1.156742200255393982e-01,1.708622835576534271e-02,-9.587401873432099819e-04,-1.449207067489624023e-01,-5.715482681989669800e-02,1.302890926599502563e-01,-1.293589919805526733e-01,2.165384404361248016e-02,-1.931866109371185303e-01,-1.140098646283149719e-01,-1.943502724170684814e-01,6.623135507106781006e-02,-1.477821022272109985e-01,2.743929391726851463e-03,6.852170079946517944e-02,-1.684992462396621704e-01,6.991016119718551636e-02,8.025938272476196289e-02,1.969777345657348633e-01,-2.127277851104736328e-01,-9.035643935203552246e-02,6.936927139759063721e-02,-1.462171971797943115e-01,1.746624708175659180e-02,3.323228284716606140e-02,-2.352350205183029175e-01,2.952640317380428314e-02,-2.088892459869384766e-01,-2.629241719841957092e-02,6.822837889194488525e-02,1.234990428201854229e-03,1.240302547812461853e-01,-8.136490732431411743e-02,1.614368893206119537e-02,-1.746892184019088745e-01,8.338972181081771851e-02,-3.825325891375541687e-02,6.851714104413986206e-02,2.556344866752624512e-01,-5.313097313046455383e-02,-1.355846375226974487e-01,-1.476909965276718140e-01,3.058075718581676483e-02,1.277229040861129761e-01,7.599472254514694214e-02,1.018123105168342590e-01,-9.604588150978088379e-02,-4.923657700419425964e-02,-6.852106004953384399e-02,7.378961890935897827e-02,5.730312317609786987e-02,-1.109699010848999023e-01,7.805248349905014038e-02,1.123820245265960693e-01,-1.800231263041496277e-02,-4.422564059495925903e-02,-6.569118797779083252e-02,2.266542315483093262e-01,-1.034891754388809204e-01,-8.638324588537216187e-02,-1.244968473911285400e-01,-1.997343264520168304e-03,-4.172743111848831177e-02,-1.058734953403472900e-02,-7.378099113702774048e-02,7.363417744636535645e-02,-3.734296187758445740e-02
1.737125664949417114e-01,1.579045355319976807e-01,8.432437479496002197e-02,-1.620798110961914062e-01,7.880952209234237671e-02,2.390570938587188721e-02,1.012345850467681885e-01,6.015687435865402222e-02,8.031444996595382690e-02,-1.983461678028106689e-01,-1.161555722355842590e-01,1.517290808260440826e-02,-9.681017836555838585e-04,9.041476249694824219e-02,-8.297067880630493164e-02,5.594562366604804993e-02,-7.829541712999343872e-02,8.209486305713653564e-02,-3.355440124869346619e-02,-1.483826488256454468e-01,4.359968751668930054e-02,1.951783448457717896e-01,-1.501195412129163742e-02,-1.178230121731758118e-01,6.015796586871147156e-02,1.539444923400878906e-01,1.430785208940505981e-01,1.431605219841003418e-01,-2.355660125613212585e-02,2.766727469861507416e-02,1.472089737653732300e-01,1.183406189084053040e-01,1.083321869373321533e-01,1.133064627647399902e-01,1.156096681952476501e-01,-2.166483551263809204e-01,-1.317898035049438477e-01,2.179882377386093140e-01,-1.019049510359764099e-01,-1.231982037425041199e-01,-1.375159341841936111e-02,-9.099722653627395630e-02,2.314330786466598511e-01,-2.259913831949234009e-01,-2.887500226497650146e-01,-2.478089928627014160e-01,7.655786816030740738e-03,-1.842184137785807252e-04,-9.493713080883026123e-02,3.014188706874847412e-01,2.277694791555404663e-01,2.153114676475524902e-01,-1.175713762640953064e-01,1.208789274096488953e-02,-3.332748711109161377e-01,1.530112177133560181e-01,2.318447232246398926e-01,1.540185064077377319e-01,-7.548851519823074341e-02,7.520602643489837646e-02,-1.523475795984268188e-01,1.199360191822052002e-01,-2.276103943586349487e-01,1.871926039457321167e-01,2.459974586963653564e-01,1.310111433267593384e-01,4.230180382728576660e-02,-5.171224847435951233e-02,4.944175854325294495e-02,-9.583894908428192139e-02,5.925395339727401733e-02,4.952241666615009308e-03,-1.818472146987915039e-01,1.226460337638854980e-01,-2.852676212787628174e-01,-8.105070143938064575e-02,1.111910119652748108e-02,1.602190583944320679e-01,8.288561552762985229e-02,3.946131095290184021e-03,8.493670821189880371e-02,-8.654431439936161041e-03,2.323772059753537178e-03,-1.550789773464202881e-01,3.643966913223266602e-01,2.565317749977111816e-01,-1.331513524055480957e-01,7.253386080265045166e-02,5.902290716767311096e-02,-2.818163633346557617e-01,5.070227384567260742e-02,8.508041501045227051e-02,-1.580286771059036255e-01,2.390013933181762695e-01,4.014090448617935181e-02,-2.476790696382522583e-01,7.311705499887466431e-02,1.616339981555938721e-01,-1.576116383075714111e-01,-1.850261688232421875e-01,-2.630281746387481689e-01,1.440978329628705978e-02,-2.994258105754852295e-01,-7.111714035272598267e-02,1.836474537849426270e-01,2.238214313983917236e-01,-2.264287471771240234e-01,-1.588185131549835205e-01,-8.068443834781646729e-02,-4.471863503567874432e-04,1.986515969038009644e-01,-2.345523387193679810e-01,4.923334345221519470e-02,1.730411946773529053e-01,1.726481020450592041e-01,2.311540096998214722e-01,-2.237093867734074593e-04,-2.052578330039978027e-01,1.998718529939651489e-01,2.204537019133567810e-02,7.768505066633224487e-02,2.333972007036209106e-01,1.512114256620407104e-01,-3.459221124649047852e-02,-8.283524960279464722e-02,6.120661273598670959e-02,1.801365911960601807e-01,6.676572561264038086e-02,-1.518822759389877319e-01,-4.397277161478996277e-02,8.020898699760437012e-02,-1.093374006450176239e-02,-1.620416045188903809e-01,2.558520436286926270e-01,-1.088520586490631104e-01,3.261588513851165771e-02,-5.302498489618301392e-02,-4.079623147845268250e-02,2.270391732454299927e-01,-1.568718552589416504e-01,-1.528187096118927002e-01,-1.508736759424209595e-01,8.819475769996643066e-02,-1.094137206673622131e-01,-7.008771598339080811e-02,-2.440191991627216339e-02,-5.191552266478538513e-02,-6.461812183260917664e-03,-7.117434591054916382e-02,1.931581995449960232e-03,3.322812169790267944e-02,-5.138477310538291931e-02,-1.430146098136901855e-01,-1.108097583055496216e-01,9.706802666187286377e-02,2.232143431901931763e-01,1.064277663826942444e-01,1.199022307991981506e-01,6.883011013269424438e-02,8.138860762119293213e-02,-2.572733163833618164e-01,-1.082894802093505859e-01,4.565811157226562500e-02,1.977499127388000488e-01,5.241854488849639893e-02,-1.844229996204376221e-01,4.701434075832366943e-02,-2.377713769674301147e-01,1.165732815861701965e-01,1.808885186910629272e-01,9.969867020845413208e-02,7.188861817121505737e-02,1.848567090928554535e-02,2.582832574844360352e-01,-1.119181886315345764e-01,1.140160262584686279e-01,3.043832480907440186e-01,2.727468013763427734e-01,-4.014772921800613403e-02,-2.491676062345504761e-02,2.592598786577582359e-03,-5.896470323204994202e-02,-2.013402879238128662e-01,3.324418142437934875e-02,1.454276312142610550e-02,1.123688817024230957e-01,1.904496103525161743e-01,-1.556657850742340088e-01,3.939452581107616425e-03,1.575304865837097168e-01,1.240250170230865479e-01,4.524082411080598831e-03,1.841840445995330811e-01,-1.710378229618072510e-01,1.348873227834701538e-01,3.224344551563262939e-01,4.845904558897018433e-02,-2.887988276779651642e-02,1.928732246160507202e-01,1.164068654179573059e-01
4.964616894721984863e-02,-1.032601594924926758e-01,-1.124017089605331421e-01,1.714478582143783569e-01,-3.211673349142074585e-02,2.000231444835662842e-01,-4.666672274470329285e-02,-1.494568139314651489e-01,1.329314708709716797e-02,2.416486889123916626e-01,-4.419081285595893860e-02,-9.570957720279693604e-02,7.544271647930145264e-02,-5.642747506499290466e-02,1.992638260126113892e-01,1.380749940872192383e-01,1.986923366785049438e-01,-1.027622446417808533e-02,6.010014191269874573e-02,1.328857541084289551e-01,-1.724657975137233734e-02,-5.748269334435462952e-02,-3.882939741015434265e-02,-1.035237237811088562e-01,1.443592905998229980e-01,-6.386952847242355347e-02,-1.836427003145217896e-01,-6.042684614658355713e-02,-1.359057277441024780e-01,-4.785444587469100952e-02,1.136536803096532822e-02,-6.180909648537635803e-02,-2.737167105078697205e-02,-1.840757727622985840e-01,-4.835166502743959427e-03,3.350279107689857483e-02,-4.108588397502899170e-02,-3.124648332595825195e-01,2.344765812158584595e-01,7.967010140419006348e-02,-8.778149634599685669e-02,9.417667239904403687e-02,2.552282251417636871e-02,1.236359775066375732e-01,1.880357563495635986e-01,2.069187909364700317e-01,-2.295897528529167175e-02,1.190718933939933777e-01,-6.183739006519317627e-02,-5.599373206496238708e-02,-1.318384408950805664e-01,-2.456561028957366943e-01,1.199447363615036011e-01,1.797345350496470928e-03,2.626511752605438232e-01,9.257093071937561035e-02,-7.076839357614517212e-02,-1.094923242926597595e-01,3.331612795591354370e-03,5.384366214275360107e-02,-8.278778195381164551e-02,1.374118477106094360e-01,2.088703028857707977e-02,3.706935793161392212e-02,2.059977687895298004e-02,-7.246917579323053360e-03,1.116463765501976013e-01,1.642660200595855713e-01,-2.267689444124698639e-02,-1.134601533412933350e-01,1.797347217798233032e-01,-7.876631803810596466e-03,1.424451470375061035e-01,-1.132587715983390808e-02,-1.154138967394828796e-01,5.121213197708129883e-02,-1.678365021944046021e-01,1.183667965233325958e-02,4.544398281723260880e-03,1.187073513865470886e-01,1.529603172093629837e-02,4.677480459213256836e-02,1.391282081604003906e-01,-4.557999595999717712e-02,-1.696756035089492798e-01,-5.324979498982429504e-02,1.279686763882637024e-02,9.336642175912857056e-02,2.259885966777801514e-01,8.560860902070999146e-02,3.339891135692596436e-02,-1.934032142162322998e-01,2.209787815809249878e-02,-5.831622332334518433e-02,1.065120846033096313e-01,2.390200942754745483e-01,-5.619988590478897095e-02,-1.257693618535995483e-01,4.589115828275680542e-02,6.195227056741714478e-02,5.317576229572296143e-02,-1.081889681518077850e-02,1.013033241033554077e-01,1.086241453886032104e-01,8.597217500209808350e-02,-3.295135498046875000e-02,8.267968893051147461e-02,1.390568614006042480e-01,-1.488083750009536743e-01,1.962845921516418457e-01,-5.609477683901786804e-02,6.870036572217941284e-02,-1.055265143513679504e-01,5.605342332273721695e-03,-9.130300581455230713e-02,-1.386122554540634155e-01,2.635241299867630005e-02,2.433338761329650879e-01,-1.084571480751037598e-01,1.107925400137901306e-01,-9.998050332069396973e-02,-2.254664152860641479e-01,-3.365001082420349121e-02,8.934899419546127319e-02,2.357948422431945801e-01,-2.683660201728343964e-02,-3.682437911629676819e-02,-1.018590107560157776e-01,1.608867496252059937e-01,-1.060460656881332397e-01,-9.139143675565719604e-02,-9.007963538169860840e-02,-6.071105599403381348e-02,-5.437003448605537415e-02,1.049729734659194946e-01,4.414672404527664185e-02,-1.111605018377304077e-01,-5.878667533397674561e-02,-1.444702148437500000e-01,7.532302290201187134e-03,1.134805455803871155e-01,5.781950056552886963e-02,9.471484459936618805e-03,6.280392408370971680e-02,-3.425044566392898560e-02,2.328182384371757507e-02,-1.067409291863441467e-01,1.425534784793853760e-01,-8.672113530337810516e-03,-7.432715594768524170e-02,-5.197350401431322098e-03,1.923973113298416138e-01,7.063160836696624756e-02,1.365735977888107300e-01,-7.885359227657318115e-02,9.952078014612197876e-02,3.673823922872543335e-02,1.052316352725028992e-01,2.719290927052497864e-02,-8.405560627579689026e-03,1.641369760036468506e-01,1.870958954095840454e-01,2.210428938269615173e-02,-4.218640923500061035e-02,-5.913153290748596191e-03,9.607784450054168701e-02,4.066971689462661743e-02,2.771700620651245117e-01,-6.330826878547668457e-02,-1.749836504459381104e-01,2.900635823607444763e-02,3.438937664031982422e-02,-1.516613215208053589e-01,-5.477985832840204239e-03,8.132800459861755371e-02,1.260033547878265381e-01,-2.177227735519409180e-01,-5.040333792567253113e-02,5.451912060379981995e-02,4.139259085059165955e-02,7.143031805753707886e-02,1.398606151342391968e-01,9.392492473125457764e-02,-9.520045667886734009e-02,8.975049108266830444e-02,9.445324540138244629e-02,2.841020375490188599e-02,6.503151357173919678e-02,-6.445285677909851074e-02,-7.482392340898513794e-02,-8.544652909040451050e-02,-1.031943410634994507e-01,-9.967552870512008667e-02,1.895251683890819550e-02,-1.581040769815444946e-01,-2.655567228794097900e-01,-1.293621212244033813e-01,-1.080312281847000122e-01,-8.474904298782348633e-02,-4.115702211856842041e-02
7.574650645256042480e-02,5.036140605807304382e-02,-1.137983240187168121e-02,2.321683019399642944e-01,-1.158425658941268921e-01,1.365726739168167114e-01,-1.979877948760986328e-01,-1.286645829677581787e-01,-5.512174963951110840e-02,1.036881282925605774e-01,5.584177747368812561e-02,1.801706403493881226e-01,-4.477401450276374817e-02,-1.802086085081100464e-02,1.183674931526184082e-01,1.248687133193016052e-01,2.230894938111305237e-02,-1.518981009721755981e-01,1.694695651531219482e-01,2.266938835382461548e-01,2.224903255701065063e-01,-2.373117804527282715e-01,-2.665948681533336639e-02,-1.848128437995910645e-02,1.272698491811752319e-01,-1.323145776987075806e-01,-1.103093177080154419e-01,-8.238336443901062012e-02,-7.222045958042144775e-02,2.041116058826446533e-01,-5.154206603765487671e-02,4.804518818855285645e-02,6.779444962739944458e-02,-5.861816927790641785e-02,-6.325612962245941162e-02,1.142271310091018677e-01,1.664910763502120972e-01,-1.910413354635238647e-01,2.275124937295913696e-01,1.104590892791748047e-01,6.183449551463127136e-02,1.203663870692253113e-01,-7.129667699337005615e-02,2.907378375530242920e-01,1.802082955837249756e-01,2.555622458457946777e-01,-1.111430674791336060e-01,2.433477044105529785e-01,6.518760323524475098e-02,-2.549391686916351318e-01,-5.770513042807579041e-02,-1.636592149734497070e-01,-7.826942950487136841e-02,-1.109429821372032166e-01,1.625989675521850586e-01,-7.363799214363098145e-02,-1.203209757804870605e-01,3.319763019680976868e-02,3.565728664398193359e-02,3.782584518194198608e-02,8.078490942716598511e-02,-5.680132284760475159e-02,1.220965608954429626e-01,5.594907328486442566e-02,1.825890243053436279e-01,1.228996068239212036e-01,1.584408283233642578e-01,-2.836895640939474106e-03,4.894864186644554138e-02,1.930015981197357178e-01,1.417921632528305054e-01,1.811166107654571533e-02,1.505509167909622192e-01,3.230555355548858643e-02,1.245882734656333923e-01,1.112279519438743591e-01,1.058610156178474426e-02,4.257958754897117615e-02,6.219177320599555969e-02,3.608130663633346558e-02,-8.666080981492996216e-02,2.005358636379241943e-01,-6.859064102172851562e-02,-1.172109469771385193e-01,-7.891804724931716919e-02,-7.532512396574020386e-02,2.000457346439361572e-01,1.201621815562248230e-01,2.670697681605815887e-02,4.032917320728302002e-01,-8.065549284219741821e-02,2.353677600622177124e-01,2.371353358030319214e-01,-2.123741656541824341e-01,2.396901138126850128e-02,2.085397392511367798e-01,2.964121662080287933e-02,-2.552414536476135254e-01,1.767937391996383667e-01,3.137898445129394531e-01,1.388149708509445190e-01,1.270706355571746826e-01,1.139596700668334961e-01,2.532000839710235596e-01,8.442442119121551514e-02,-4.529616795480251312e-03,3.275695443153381348e-01,2.380597740411758423e-01,9.542666375637054443e-02,6.163504719734191895e-02,-6.002477928996086121e-02,1.870057135820388794e-01,1.410210579633712769e-01,1.783078610897064209e-01,-1.639421582221984863e-01,-1.764034777879714966e-01,1.685257405042648315e-01,2.237909585237503052e-01,-1.790569908916950226e-02,1.216719597578048706e-01,3.929808735847473145e-02,-2.282320111989974976e-01,-5.826331675052642822e-02,1.659933477640151978e-02,1.496892422437667847e-01,4.465783759951591492e-02,-1.325213313102722168e-01,4.726933687925338745e-02,1.361781060695648193e-01,-9.049005806446075439e-02,4.511848092079162598e-03,2.098717726767063141e-02,2.070541828870773315e-01,-1.777938604354858398e-01,8.101324737071990967e-02,1.438214182853698730e-01,-2.837782260030508041e-03,1.443347185850143433e-01,-5.467540770769119263e-02,7.432155311107635498e-02,1.734599769115447998e-01,1.302769035100936890e-01,9.543845802545547485e-02,5.799510329961776733e-02,-9.730604290962219238e-02,1.163901463150978088e-01,2.988689839839935303e-01,2.001821547746658325e-01,1.462612152099609375e-01,2.521499991416931152e-01,-2.645034343004226685e-02,1.085281595587730408e-01,2.695700526237487793e-01,5.178003013134002686e-02,9.149535000324249268e-02,6.780438125133514404e-02,6.447270512580871582e-02,-2.317617181688547134e-04,4.190755262970924377e-02,6.255279481410980225e-02,1.868760734796524048e-01,-9.039019932970404625e-04,2.416084557771682739e-01,-2.298189848661422729e-01,-3.631221875548362732e-02,2.586749792098999023e-01,-4.955355543643236160e-03,1.401545703411102295e-01,9.158009290695190430e-02,6.389683485031127930e-02,1.478308141231536865e-01,-2.236320525407791138e-01,-1.804735511541366577e-03,-4.731623828411102295e-02,2.723424732685089111e-01,-9.044309146702289581e-03,-1.293449550867080688e-01,-2.365499138832092285e-01,7.933756709098815918e-02,2.232402861118316650e-01,1.429756581783294678e-01,2.627933025360107422e-01,8.187237381935119629e-02,9.649708122014999390e-02,1.177809014916419983e-01,4.671806469559669495e-02,3.738813847303390503e-02,9.606763720512390137e-02,1.281026601791381836e-01,-1.008620932698249817e-01,-1.064893379807472229e-01,1.021803542971611023e-01,3.750248625874519348e-02,4.064092040061950684e-01,-1.510865837335586548e-01,6.147185713052749634e-02,-6.619234383106231689e-02,1.306089907884597778e-01,-1.446757018566131592e-01,-1.952962949872016907e-02
3.439765796065330505e-02,-4.957462474703788757e-02,2.958652935922145844e-02,7.000875473022460938e-02,-9.631929546594619751e-02,-8.411761373281478882e-02,-1.209610700607299805e-01,-2.377412915229797363e-01,-8.233852568082511425e-04,1.803070157766342163e-01,8.268301188945770264e-02,1.657292544841766357e-01,5.494634807109832764e-02,7.443369925022125244e-02,1.632203757762908936e-01,1.551122963428497314e-01,-5.230458453297615051e-02,-1.807314753532409668e-01,3.791167587041854858e-02,9.390126913785934448e-02,3.644903376698493958e-02,-2.151830047369003296e-01,4.627322778105735779e-03,6.572978943586349487e-02,1.541476100683212280e-01,-6.894932687282562256e-02,-2.075088471174240112e-01,4.967539105564355850e-03,1.099346205592155457e-01,1.865483820438385010e-01,4.123189300298690796e-02,5.542816594243049622e-02,5.342741310596466064e-02,3.972383216023445129e-02,-5.438505485653877258e-02,8.822444081306457520e-02,4.178156331181526184e-02,-1.687760055065155029e-01,1.747172325849533081e-01,-6.579279154539108276e-02,1.592056602239608765e-01,2.655402123928070068e-01,2.101568132638931274e-01,2.833361327648162842e-01,9.581267833709716797e-02,1.480997502803802490e-01,1.147099435329437256e-01,2.425738424062728882e-01,-2.666541747748851776e-02,-4.629045352339744568e-02,-2.567840553820133209e-02,-1.842428445816040039e-01,3.291728347539901733e-02,3.448167070746421814e-02,3.474801182746887207e-01,-1.790954917669296265e-01,7.096697390079498291e-02,-1.556857377290725708e-01,1.261550188064575195e-01,-1.570564345456659794e-03,8.737964928150177002e-02,1.700583994388580322e-01,2.032698094844818115e-01,7.225147634744644165e-02,7.377287000417709351e-02,1.105768606066703796e-01,9.660633653402328491e-02,7.802262157201766968e-02,-1.656126230955123901e-01,1.523360460996627808e-01,1.000842675566673279e-01,-1.498603075742721558e-01,8.572766929864883423e-02,6.343308091163635254e-02,6.189676001667976379e-02,1.684817969799041748e-01,-1.342072039842605591e-01,8.502621948719024658e-02,2.564364671707153320e-02,-5.399784445762634277e-02,-1.023066490888595581e-01,1.234673559665679932e-01,1.323066204786300659e-01,-4.882420226931571960e-02,-1.079793199896812439e-01,-4.900986328721046448e-02,9.220373630523681641e-02,1.264782696962356567e-01,8.679623156785964966e-02,1.815696209669113159e-01,-6.346093118190765381e-02,1.504345387220382690e-01,4.575952142477035522e-02,-1.836722940206527710e-01,3.504203632473945618e-02,1.146031022071838379e-01,-8.661384345032274723e-04,-1.152228936553001404e-01,9.531946480274200439e-02,1.094858124852180481e-01,2.069088667631149292e-01,1.020771414041519165e-01,7.407087087631225586e-02,2.847512960433959961e-01,1.463350653648376465e-01,-1.270371079444885254e-01,7.876490056514739990e-02,8.955145627260208130e-02,7.582232356071472168e-02,2.064517289400100708e-01,-5.400769785046577454e-02,1.618360579013824463e-01,8.638790249824523926e-02,-3.003581613302230835e-02,-1.951638013124465942e-01,-7.217860221862792969e-02,1.383241266012191772e-01,9.742966294288635254e-02,-1.247138008475303650e-01,1.662604957818984985e-01,2.084050141274929047e-02,-1.086024045944213867e-01,-7.026106864213943481e-02,5.099419038742780685e-03,1.660917997360229492e-01,1.083251163363456726e-01,-5.683257058262825012e-02,-5.036966502666473389e-02,1.917325109243392944e-01,-5.775937065482139587e-02,5.357801914215087891e-02,1.627336442470550537e-01,4.690161347389221191e-02,6.072471663355827332e-02,1.333369165658950806e-01,-4.882705211639404297e-02,1.831052601337432861e-01,6.515640765428543091e-02,1.013905256986618042e-01,-3.707474330440163612e-03,1.081948876380920410e-01,2.362938672304153442e-01,6.719750165939331055e-02,1.186228990554809570e-01,1.695302575826644897e-01,5.571985617280006409e-02,3.441298305988311768e-01,3.346260637044906616e-02,-1.629961282014846802e-02,1.160978600382804871e-01,-2.171737328171730042e-02,-2.002519369125366211e-02,2.571167647838592529e-01,1.595387905836105347e-01,-6.697566062211990356e-02,1.428299397230148315e-01,1.030564308166503906e-01,6.394224613904953003e-02,-1.212916616350412369e-02,-1.000913307070732117e-01,1.094130128622055054e-01,1.441379487514495850e-01,2.059023082256317139e-01,1.285054981708526611e-01,-2.893775328993797302e-02,9.558691829442977905e-02,6.977956742048263550e-02,2.121691107749938965e-01,-1.661733388900756836e-01,-1.627564430236816406e-01,1.114300414919853210e-01,-1.540345549583435059e-01,4.768287017941474915e-02,1.727215349674224854e-01,2.250146120786666870e-01,1.103669963777065277e-02,-2.648011595010757446e-02,-3.996895253658294678e-02,5.260225012898445129e-02,-4.551812261343002319e-02,4.220595583319664001e-02,1.788622736930847168e-01,7.086647674441337585e-03,1.278766840696334839e-01,1.116824969649314880e-01,4.766492173075675964e-02,9.086071699857711792e-02,2.351752668619155884e-01,1.466711312532424927e-01,1.419662535190582275e-01,1.364379376173019409e-01,-1.935498602688312531e-02,-4.463792964816093445e-02,3.917946219444274902e-01,-1.650264412164688110e-01,-8.979981392621994019e-02,9.212958812713623047e-02,-1.016187444329261780e-01,-2.169792354106903076e-01,-4.829925019294023514e-03
