4.025391861796379089e-02,-1.908794045448303223e-02,2.016308531165122986e-02,-1.138652302324771881e-02,-9.714064747095108032e-02,6.147610396146774292e-02,8.088494651019573212e-03,7.661091629415750504e-03,-1.140395030379295349e-01,6.238329410552978516e-02,-8.708029240369796753e-02,6.138067319989204407e-02,-8.800342679023742676e-03,-1.171850878745317459e-02,5.128782615065574646e-02,4.416771605610847473e-02,-1.697779819369316101e-02,2.034313976764678955e-02,4.132975824177265167e-03,3.072448819875717163e-02,-2.044203318655490875e-02,-1.936691813170909882e-02,3.896377235651016235e-02,5.913013964891433716e-02,-3.329627914354205132e-03,1.076739630661904812e-03,6.870598532259464264e-03,-3.147899731993675232e-02,-2.602531574666500092e-02,3.057369403541088104e-02,-2.792311832308769226e-02,-7.778489030897617340e-03,2.471654117107391357e-02,5.001825839281082153e-02,8.831915445625782013e-03,-2.836600644513964653e-03,-1.218956522643566132e-02,-3.707304829731583595e-03,1.037982059642672539e-03,1.741369022056460381e-03,-1.493802387267351151e-02,-1.564574986696243286e-02,6.967063248157501221e-02,3.491147607564926147e-02,6.021225452423095703e-02,4.004950448870658875e-02,4.114547278732061386e-03,6.421918421983718872e-02,1.921072416007518768e-02,1.727015897631645203e-02,-7.326328754425048828e-02,-4.768929630517959595e-02,1.750741340219974518e-02,8.630407974123954773e-03,-2.521139383316040039e-02,3.093772754073143005e-02,-6.352607160806655884e-02,-3.522082930430769920e-03,2.383694238960742950e-02,-3.625676408410072327e-02,-3.604225069284439087e-02,5.521361157298088074e-02,-1.688179373741149902e-02,-1.525440346449613571e-02,1.905430108308792114e-02,1.329302974045276642e-02,4.148921743035316467e-02,-4.745288752019405365e-03,6.467486731708049774e-03,-5.225633457303047180e-02,2.957282029092311859e-02,-1.684062415733933449e-03,8.759133517742156982e-03,-1.132634351961314678e-03,5.167623609304428101e-02,-4.515651240944862366e-02,-4.042915999889373779e-03,-5.029886588454246521e-02,-1.731959730386734009e-02,5.056244879961013794e-02,-3.490969073027372360e-03,4.215540736913681030e-02,-2.824217081069946289e-02,6.083882600069046021e-02,1.050951983779668808e-02,8.039817214012145996e-03,6.441588699817657471e-02,-2.592222765088081360e-02,-1.051399707794189453e-01,3.781152144074440002e-02,-3.658175095915794373e-02,-6.483656819909811020e-03,4.083052650094032288e-02,8.062974549829959869e-03,-3.475318104028701782e-02,6.000689417123794556e-02,-6.501191761344671249e-03,-2.103988640010356903e-02,1.012077927589416504e-02,2.923829481005668640e-02,2.916325628757476807e-02,6.899577565491199493e-03,3.042365051805973053e-02,1.643373817205429077e-02,3.362209722399711609e-02,3.556530177593231201e-02,-3.049574978649616241e-02,1.515350211411714554e-02,-1.183451269753277302e-03,1.320708636194467545e-02,-1.729554869234561920e-02,2.169044502079486847e-02,2.765540592372417450e-02,-9.641295764595270157e-04,-5.227739363908767700e-02,-4.071248322725296021e-02,6.225608289241790771e-02,3.116928227245807648e-02,-1.727970317006111145e-02,-7.476478815078735352e-02,-8.478945493698120117e-02,2.777450531721115112e-02,-2.767466381192207336e-02,-3.711687773466110229e-02,3.244271874427795410e-02,2.379982359707355499e-02,-5.197311565279960632e-02,-8.370751887559890747e-02,3.696045652031898499e-02,-1.320717204362154007e-02,-5.719602108001708984e-02,5.584119260311126709e-02,-5.369739606976509094e-02,2.323091961443424225e-02,3.321338817477226257e-02,4.882065579295158386e-02,3.238439932465553284e-02,-5.531621281988918781e-04,-1.073363125324249268e-01,3.299013152718544006e-02,-1.836577989161014557e-02,4.917753860354423523e-02,8.474099449813365936e-03,-1.180026233196258545e-01,1.101598609238862991e-02,4.159710556268692017e-02,2.253762446343898773e-02,4.265303909778594971e-02,-1.325573679059743881e-02,2.942967787384986877e-02,3.898868709802627563e-02,5.920087173581123352e-02,2.603320963680744171e-02,5.950093641877174377e-02,4.927445575594902039e-02,3.974179923534393311e-02,-4.134246706962585449e-02,6.927450746297836304e-02,-7.560892496258020401e-03,-1.199086681008338928e-01,-5.059511959552764893e-02,-4.671784117817878723e-02,1.692868024110794067e-02,2.065264433622360229e-02,8.975958917289972305e-04,-5.593577865511178970e-03,-1.564843230880796909e-03,3.396902978420257568e-02,-4.600799828767776489e-02,2.825304400175809860e-03,-4.731614887714385986e-02,5.192693322896957397e-02,-6.973190605640411377e-02,1.006969437003135681e-01,3.001598641276359558e-03,4.526758193969726562e-02,-1.394949201494455338e-02,-9.705715812742710114e-03,3.260476142168045044e-02,4.185764119029045105e-02,5.466776713728904724e-02,7.477538019884377718e-05,1.038623601198196411e-02,-7.884232327342033386e-03,2.411356382071971893e-02,6.523125618696212769e-02,-3.035312891006469727e-02,2.757731080055236816e-02,8.776666224002838135e-02,-3.179791569709777832e-02,-2.317609265446662903e-03,3.381853923201560974e-02,7.196697406470775604e-03,3.392497450113296509e-02,1.798209920525550842e-02,2.794895693659782410e-02,-8.165556192398071289e-02,1.741942949593067169e-02,-5.733006075024604797e-02,-1.088805589824914932e-02
