2.978079393506050110e-02,3.715917840600013733e-02,1.108200326561927795e-01,9.644398093223571777e-02,4.344024509191513062e-02,5.507554486393928528e-02,1.323120296001434326e-01,1.095132455229759216e-01,2.541924268007278442e-02,5.547051504254341125e-02,1.021489799022674561e-01,5.318779498338699341e-02,2.731669247150421143e-01,3.001775406301021576e-02,2.418501861393451691e-02,-1.583350598812103271e-01,8.643554896116256714e-02,-1.231116056442260742e-01,9.883995354175567627e-02,1.135195121169090271e-01,-6.422500312328338623e-02,4.824890638701617718e-04,1.813271045684814453e-01,1.220420468598604202e-02,1.531575769186019897e-01,-2.354620955884456635e-02,1.877859830856323242e-01,6.056357920169830322e-02,1.703588962554931641e-01,3.002291359007358551e-02,-1.618021540343761444e-02,1.611164957284927368e-01,2.935943659394979477e-03,-2.619114704430103302e-02,-3.268607333302497864e-02,-8.025594055652618408e-02,-7.777743041515350342e-02,4.159312322735786438e-02,1.924949437379837036e-01,1.294070780277252197e-01
1.437455266714096069e-01,2.820032536983489990e-01,1.155849918723106384e-01,3.436141833662986755e-02,2.336125262081623077e-02,2.702967226505279541e-01,2.455059736967086792e-01,3.044480681419372559e-01,3.137272223830223083e-02,1.809631437063217163e-01,-4.851870238780975342e-02,1.959850192070007324e-01,3.813655674457550049e-01,1.941851079463958740e-01,1.689121276140213013e-01,7.569999247789382935e-02,2.689495980739593506e-01,1.534554362297058105e-01,9.152550995349884033e-02,2.685842216014862061e-01,3.160493969917297363e-01,2.787857949733734131e-01,2.911976277828216553e-01,1.051928400993347168e-01,2.613171339035034180e-01,3.116712868213653564e-01,2.072182297706604004e-01,1.719383448362350464e-01,2.143148630857467651e-01,4.214250445365905762e-01,3.615036979317665100e-02,1.112260445952415466e-01,-6.309139728546142578e-02,-1.174908876419067383e-01,1.483404636383056641e-01,7.230272889137268066e-02,-4.990446940064430237e-02,-1.586462110280990601e-01,8.664064854383468628e-02,-4.484311863780021667e-02
1.632474213838577271e-01,1.731095016002655029e-01,3.508171439170837402e-02,-5.146662890911102295e-02,-1.808504108339548111e-03,1.219386011362075806e-01,2.020473033189773560e-01,2.656983435153961182e-01,-5.757458042353391647e-03,-1.775969984009861946e-03,1.956902071833610535e-02,2.780604660511016846e-01,5.842693522572517395e-02,1.580800563097000122e-01,1.416604518890380859e-01,2.347584813833236694e-01,8.717121183872222900e-02,2.917784154415130615e-01,4.725852981209754944e-02,7.229575514793395996e-02,2.710002958774566650e-01,3.552040755748748779e-01,-2.367841266095638275e-02,2.291377186775207520e-01,2.982783019542694092e-01,2.141519784927368164e-01,3.200716674327850342e-01,5.387239903211593628e-02,-1.359518244862556458e-02,1.950968950986862183e-01,-7.318649441003799438e-02,2.210121452808380127e-01,1.414927989244461060e-01,-1.124531477689743042e-01,5.362744256854057312e-02,1.289489567279815674e-01,-1.104317009449005127e-01,2.695706188678741455e-01,1.040315851569175720e-01,-3.695565834641456604e-02
3.246259093284606934e-01,-6.557951681315898895e-03,2.981411218643188477e-01,5.285307019948959351e-02,1.406559944152832031e-01,9.046510607004165649e-02,1.935803741216659546e-01,7.039374858140945435e-02,2.578065693378448486e-01,2.137898206710815430e-01,1.373945772647857666e-01,1.074094325304031372e-01,2.844260036945343018e-01,3.028409183025360107e-01,3.686968684196472168e-01,-2.092953212559223175e-02,-1.345670083537697792e-03,1.524024605751037598e-01,3.176120519638061523e-01,2.597988843917846680e-01,3.380174189805984497e-02,1.594907790422439575e-01,9.322375804185867310e-02,2.232372760772705078e-01,2.534051612019538879e-02,2.933722138404846191e-01,2.510777413845062256e-01,3.325269222259521484e-01,1.157821044325828552e-01,2.692802250385284424e-01,6.529089063405990601e-02,2.113831937313079834e-01,7.108751684427261353e-02,2.561200261116027832e-01,1.045000180602073669e-01,2.893448173999786377e-01,3.269923329353332520e-01,4.819379374384880066e-02,3.099969923496246338e-01,1.477332264184951782e-01
-4.311220720410346985e-02,1.605818122625350952e-01,1.410367637872695923e-01,3.060566186904907227e-01,1.868084967136383057e-01,1.525887697935104370e-01,1.327932924032211304e-01,1.931217461824417114e-01,2.141261994838714600e-01,4.978282377123832703e-02,2.048589587211608887e-01,2.084829807281494141e-01,7.455293089151382446e-02,1.992921829223632812e-01,1.295712031424045563e-02,2.850877642631530762e-01,3.509480040520429611e-03,2.169353067874908447e-01,2.883819937705993652e-01,4.593987017869949341e-02,5.516849085688591003e-02,1.879151761531829834e-01,2.560988962650299072e-01,1.276105791330337524e-01,5.345307290554046631e-02,1.061121895909309387e-01,4.345771670341491699e-02,1.535620093345642090e-01,1.635218411684036255e-01,1.826806068420410156e-01,2.802819907665252686e-01,1.860228031873703003e-01,2.135436832904815674e-01,3.016094565391540527e-01,1.655652523040771484e-01,1.468343287706375122e-01,2.191121578216552734e-01,-2.029651850461959839e-01,5.605407059192657471e-02,-1.433977019041776657e-02
-1.615933775901794434e-01,2.452676445245742798e-01,2.087665945291519165e-01,1.831237822771072388e-01,8.998715877532958984e-02,1.341593861579895020e-01,1.014692429453134537e-02,4.934799298644065857e-02,6.844830233603715897e-03,2.022409290075302124e-01,-1.222475990653038025e-02,-2.564414776861667633e-02,1.304267197847366333e-01,2.260366082191467285e-01,1.771805435419082642e-01,2.228812426328659058e-01,-5.661527067422866821e-02,-1.741309911012649536e-01,1.825470626354217529e-01,7.996287196874618530e-02,7.714782655239105225e-02,1.125286221504211426e-01,2.031897753477096558e-01,1.510483324527740479e-01,6.200765259563922882e-03,2.189477980136871338e-01,-1.923095732927322388e-01,7.822903804481029510e-03,9.175913780927658081e-02,-1.014278382062911987e-01,4.114697501063346863e-02,8.846978656947612762e-03,1.621243953704833984e-01,2.375792413949966431e-01,1.642865687608718872e-01,2.478598952293395996e-01,1.131342574954032898e-01,3.253369927406311035e-01,8.404360711574554443e-02,2.378607392311096191e-01
2.110693156719207764e-01,8.598303422331809998e-03,9.122080355882644653e-02,7.406421005725860596e-02,-6.816275417804718018e-02,8.131735026836395264e-02,1.793423146009445190e-01,1.677048355340957642e-01,6.179275363683700562e-02,8.237794041633605957e-02,2.158628106117248535e-01,2.327582612633705139e-02,1.179897561669349670e-01,1.111890599131584167e-01,2.188834175467491150e-02,2.155497968196868896e-01,8.877515792846679688e-02,6.408769637346267700e-02,2.365389913320541382e-01,3.924232721328735352e-02,1.863466650247573853e-01,3.635180890560150146e-01,3.709680959582328796e-02,-8.055109530687332153e-03,2.476731687784194946e-01,6.589035689830780029e-02,2.019054442644119263e-02,1.815547468140721321e-03,2.392913699150085449e-01,6.189393997192382812e-02,-4.544006660580635071e-02,1.048429962247610092e-02,-9.062223136425018311e-02,-1.954871863126754761e-01,2.231546193361282349e-01,1.028432771563529968e-01,7.295035570859909058e-02,-2.330765500664710999e-02,1.101770624518394470e-01,1.362442225217819214e-01
1.134088784456253052e-01,1.896107196807861328e-01,1.063132882118225098e-01,1.619661152362823486e-01,-1.062707751989364624e-01,1.668561846017837524e-01,3.875691443681716919e-02,9.864435531198978424e-03,6.127495691180229187e-02,1.215155944228172302e-01,-7.160372287034988403e-02,6.554196588695049286e-03,7.843477278947830200e-02,1.092167478054761887e-02,-5.984273552894592285e-02,-3.601060807704925537e-02,-1.072851493954658508e-01,-8.835119754076004028e-02,-2.450560033321380615e-02,2.815625071525573730e-02,-7.921984791755676270e-02,-1.417242884635925293e-01,1.188894435763359070e-01,2.381628304719924927e-01,1.503561288118362427e-01,1.697963774204254150e-01,-8.523848652839660645e-02,6.329464912414550781e-02,1.149306073784828186e-01,-1.363180428743362427e-01,3.923374693840742111e-03,1.378831416368484497e-01,-1.011864095926284790e-01,7.177763432264328003e-02,1.234219036996364594e-02,1.005227789282798767e-01,4.477082565426826477e-02,-4.377537593245506287e-02,3.699282184243202209e-02,2.085014581680297852e-01
2.319049388170242310e-01,1.660715043544769287e-01,6.233410164713859558e-02,9.546699374914169312e-02,-3.750343108549714088e-03,7.977689802646636963e-02,-1.576432585716247559e-02,9.564816951751708984e-02,1.000688746571540833e-01,7.810808718204498291e-02,1.456067860126495361e-01,-2.971646143123507500e-03,2.196761667728424072e-01,2.303805798292160034e-01,2.124248147010803223e-01,1.420612782239913940e-01,-6.297565996646881104e-04,-1.264584660530090332e-01,3.576670587062835693e-01,2.949600219726562500e-01,1.922636330127716064e-01,-1.363457646220922470e-02,2.390137501060962677e-02,3.601996302604675293e-01,9.718342125415802002e-02,8.563166856765747070e-02,-3.763590753078460693e-02,1.581278592348098755e-01,-3.800221253186464310e-03,9.739644080400466919e-02,2.794833183288574219e-01,1.324573010206222534e-01,1.672541648149490356e-01,6.192575395107269287e-02,2.447132393717765808e-02,2.556443028151988983e-02,2.120751440525054932e-01,4.149000942707061768e-01,8.640647679567337036e-02,1.243228986859321594e-01
-1.153249293565750122e-01,2.095000147819519043e-01,1.360062956809997559e-01,-3.001023456454277039e-02,6.147423014044761658e-02,-9.062271565198898315e-02,1.371938288211822510e-01,2.076221816241741180e-02,1.843741089105606079e-01,2.053093537688255310e-02,-1.873187571763992310e-01,1.148505732417106628e-01,-4.918556287884712219e-02,1.821009209379553795e-03,2.091817110776901245e-01,-3.748800605535507202e-02,2.150436192750930786e-01,-7.039029896259307861e-02,-3.185687959194183350e-02,-4.046513140201568604e-02,7.715348154306411743e-02,1.890091150999069214e-01,1.054376289248466492e-01,-7.510685175657272339e-02,1.073139831423759460e-01,7.569798082113265991e-02,-4.352460801601409912e-02,1.900552213191986084e-01,7.982058823108673096e-02,1.109629347920417786e-01,5.568112060427665710e-02,1.231632977724075317e-01,9.607097506523132324e-02,2.136265486478805542e-02,9.403770416975021362e-02,6.238522008061408997e-02,1.031862720847129822e-01,1.658761948347091675e-01,1.989178359508514404e-01,2.789621949195861816e-01
1.269299536943435669e-01,4.438295960426330566e-02,-1.180428788065910339e-01,-5.331859737634658813e-02,-1.353421062231063843e-01,1.907960884273052216e-02,1.133615896105766296e-01,-1.877067685127258301e-01,1.269565802067518234e-02,-1.101800203323364258e-01,5.639430508017539978e-02,-1.263521760702133179e-01,1.219971328973770142e-01,-7.328973710536956787e-02,6.707420945167541504e-02,-1.110256463289260864e-01,-3.751131519675254822e-02,-7.693580538034439087e-02,1.099048852920532227e-01,-1.737354099750518799e-01,-7.810343988239765167e-03,-1.526808273047208786e-02,9.689348936080932617e-02,-9.635190665721893311e-02,2.356835268437862396e-02,1.121079921722412109e-01,1.892595440149307251e-01,-2.128031849861145020e-01,-1.378052085638046265e-01,-1.641391776502132416e-02,-1.267372965812683105e-01,1.007942855358123779e-01,-2.096264064311981201e-01,5.908607691526412964e-02,3.079973533749580383e-02,-1.398829929530620575e-02,-4.556077718734741211e-02,8.144208043813705444e-02,-3.437282890081405640e-02,4.654992744326591492e-02
-2.366335690021514893e-01,5.615762248635292053e-02,1.887429952621459961e-01,1.228088214993476868e-01,1.886449754238128662e-01,1.134423166513442993e-01,2.692721784114837646e-01,3.209272027015686035e-01,2.236899733543395996e-01,2.218687385320663452e-01,-3.202506527304649353e-02,9.189153462648391724e-02,-5.621040612459182739e-02,1.120189949870109558e-01,1.407268941402435303e-01,2.498980909585952759e-01,2.215218096971511841e-01,-3.599642962217330933e-02,3.087863326072692871e-01,1.945314556360244751e-01,1.211908087134361267e-01,2.876886352896690369e-02,9.147938340902328491e-02,8.327726274728775024e-02,7.378858327865600586e-02,1.402987092733383179e-01,-1.570902317762374878e-01,2.373422831296920776e-01,1.945149600505828857e-01,2.742060124874114990e-01,9.111571311950683594e-02,6.689915060997009277e-02,1.430652886629104614e-01,4.910582602024078369e-01,1.186420992016792297e-01,1.825620830059051514e-01,1.664297431707382202e-01,1.350961923599243164e-01,1.772994846105575562e-01,1.352959424257278442e-01
3.361916244029998779e-01,-1.581006683409214020e-02,-1.174933928996324539e-02,6.244989484548568726e-02,2.168568670749664307e-01,2.575302496552467346e-02,1.151631623506546021e-01,3.121293485164642334e-01,1.789523847401142120e-02,1.396818011999130249e-01,1.500660479068756104e-01,2.309626787900924683e-01,1.061680763959884644e-01,-5.292414501309394836e-02,1.586932092905044556e-01,2.896500527858734131e-01,2.273821830749511719e-02,2.521093189716339111e-01,3.453658521175384521e-02,1.078038141131401062e-01,7.937353849411010742e-02,2.223543524742126465e-01,8.700907230377197266e-02,2.259027361869812012e-01,-1.728909276425838470e-02,1.676787137985229492e-01,2.860051393508911133e-01,-8.222097158432006836e-02,6.092675775289535522e-02,1.718940585851669312e-02,1.770967841148376465e-01,1.905587762594223022e-01,1.281822174787521362e-01,-1.423996835947036743e-01,9.835685789585113525e-02,9.854544699192047119e-02,1.318229138851165771e-01,-1.124664116650819778e-02,1.811289191246032715e-01,1.817656904458999634e-01
2.797508239746093750e-01,1.618420630693435669e-01,2.350569218397140503e-01,9.706367552280426025e-02,1.914929151535034180e-01,2.944506108760833740e-01,1.148243248462677002e-01,2.376634478569030762e-01,8.806915581226348877e-02,1.932593733072280884e-01,1.547072678804397583e-01,6.305130571126937866e-02,3.140006959438323975e-02,1.949252188205718994e-01,3.317130357027053833e-02,2.658685147762298584e-01,1.473222114145755768e-02,-4.827065020799636841e-02,1.909187138080596924e-01,2.041337341070175171e-01,9.682118147611618042e-02,1.230816245079040527e-01,7.219740003347396851e-02,3.359322249889373779e-02,1.186062544584274292e-01,1.066985912621021271e-02,-6.897582858800888062e-02,-7.714556902647018433e-02,2.658076882362365723e-01,-7.684463169425725937e-03,1.118987053632736206e-01,1.547916382551193237e-01,5.578089132905006409e-02,-3.376618027687072754e-02,1.554664224386215210e-01,2.404753565788269043e-01,9.473358839750289917e-02,3.334108591079711914e-01,-7.538282871246337891e-02,1.926507502794265747e-01
2.717828005552291870e-02,2.494079023599624634e-01,3.268049061298370361e-01,-1.996924541890621185e-02,3.591274619102478027e-01,2.382385432720184326e-01,9.673503041267395020e-02,3.962123394012451172e-01,2.965849824249744415e-02,2.168556749820709229e-01,8.771722018718719482e-02,1.220770925283432007e-01,2.423209697008132935e-01,2.918373048305511475e-01,4.929427057504653931e-02,4.300238192081451416e-02,1.661257296800613403e-01,1.777721643447875977e-01,1.221342757344245911e-01,1.730836629867553711e-01,7.366809248924255371e-02,-5.587624385952949524e-02,-4.582825675606727600e-02,2.104228138923645020e-01,1.165262237191200256e-01,2.513470947742462158e-01,2.665970623493194580e-01,1.436284631490707397e-01,1.745716333389282227e-01,2.171376943588256836e-01,1.564971357583999634e-01,2.455458790063858032e-01,6.108520179986953735e-02,3.423326015472412109e-01,-5.660542845726013184e-02,1.635180562734603882e-01,1.830030679702758789e-01,7.191392779350280762e-02,1.600763946771621704e-02,1.368872225284576416e-01
2.000024914741516113e-02,1.070128753781318665e-01,2.224223911762237549e-01,9.734845906496047974e-02,2.282146215438842773e-01,2.072962820529937744e-01,1.968519985675811768e-01,3.597682714462280273e-01,2.074451744556427002e-01,1.299400180578231812e-01,-7.189246267080307007e-02,2.590251266956329346e-01,1.235499680042266846e-01,2.729398906230926514e-01,1.483431458473205566e-01,2.313479483127593994e-01,8.078660070896148682e-02,1.365066170692443848e-01,2.968052923679351807e-01,1.936062276363372803e-01,2.807887196540832520e-01,-4.371286183595657349e-02,1.044746637344360352e-01,-9.494037949480116367e-04,2.823527455329895020e-01,1.974860727787017822e-01,1.554743051528930664e-01,-4.383689258247613907e-03,9.117393940687179565e-02,8.697173558175563812e-03,6.522867083549499512e-02,-1.761350408196449280e-02,2.006177902221679688e-01,3.245835304260253906e-01,6.936151534318923950e-02,7.200779765844345093e-02,-8.578329533338546753e-02,3.030654191970825195e-01,1.442533135414123535e-01,1.186155751347541809e-01
2.231889814138412476e-01,1.590355485677719116e-01,1.355096548795700073e-01,1.583699136972427368e-02,-6.967538595199584961e-02,6.619894504547119141e-02,-1.670451015233993530e-01,1.685028225183486938e-01,1.780195236206054688e-01,1.935692280530929565e-01,4.406554216984659433e-04,2.511373460292816162e-01,1.366986632347106934e-01,1.659163683652877808e-01,1.486233621835708618e-01,2.866616547107696533e-01,3.449663519859313965e-02,2.259030640125274658e-01,1.651271134614944458e-01,1.113852933049201965e-01,3.068498671054840088e-01,2.964532673358917236e-01,-1.198297291994094849e-01,1.837742328643798828e-01,-4.986931383609771729e-02,1.476597338914871216e-01,1.448549926280975342e-01,1.965215653181076050e-01,-5.728561803698539734e-02,9.698387980461120605e-02,4.287387803196907043e-02,-3.253582166507840157e-03,1.200708793476223946e-03,-1.011839359998703003e-01,2.303076386451721191e-01,6.904862076044082642e-02,-3.098528459668159485e-02,-6.661885976791381836e-02,2.302824556827545166e-01,1.786563247442245483e-01
3.858128488063812256e-01,1.604772210121154785e-01,1.455925405025482178e-01,-6.906904280185699463e-02,1.060906574130058289e-01,-1.809385255910456181e-03,7.951852679252624512e-02,7.961774617433547974e-02,-1.336562354117631912e-02,1.020476147532463074e-01,2.347654849290847778e-01,1.768329925835132599e-02,3.311775997281074524e-02,-1.351818908005952835e-02,1.544495820999145508e-01,1.373438388109207153e-01,1.524660736322402954e-01,1.266916841268539429e-01,7.080665975809097290e-02,2.550893127918243408e-01,1.262358725070953369e-01,3.039489686489105225e-01,-3.659790381789207458e-02,2.220076322555541992e-01,-2.302257530391216278e-02,1.401833742856979370e-01,2.008814364671707153e-01,6.478373706340789795e-02,1.020485609769821167e-01,1.481775343418121338e-01,1.881715953350067139e-01,3.402572125196456909e-02,1.804348677396774292e-01,-7.544192671775817871e-02,1.141439154744148254e-01,1.245876252651214600e-01,1.023804247379302979e-01,1.252338588237762451e-01,7.746291346848011017e-03,1.120342016220092773e-01
2.908218204975128174e-01,-1.484239567071199417e-02,2.214931696653366089e-01,-7.301504909992218018e-02,1.185191571712493896e-01,-4.978619143366813660e-02,4.568722844123840332e-02,1.675954163074493408e-01,7.159017026424407959e-02,-7.405358552932739258e-02,-3.427168726921081543e-02,2.686982750892639160e-01,1.761471927165985107e-01,1.105601084418594837e-03,5.034668371081352234e-02,1.737649440765380859e-01,2.523791417479515076e-02,1.734373569488525391e-01,1.011924743652343750e-01,1.818860471248626709e-01,1.162062734365463257e-01,2.928257286548614502e-01,1.860739439725875854e-01,2.601537704467773438e-01,3.202904760837554932e-02,1.046611368656158447e-01,8.812894672155380249e-02,9.983760863542556763e-02,1.665669083595275879e-01,2.594352960586547852e-01,1.746778786182403564e-01,-5.437272787094116211e-02,1.006598696112632751e-01,-1.127910092473030090e-01,1.450065672397613525e-01,1.111315041780471802e-01,-7.834459096193313599e-02,2.125201672315597534e-01,1.370254009962081909e-01,1.562498956918716431e-01
1.973417848348617554e-01,8.446507155895233154e-02,4.958457499742507935e-02,2.691222727298736572e-01,1.802039295434951782e-01,5.669763311743736267e-02,1.684857606887817383e-01,-4.820709303021430969e-02,2.599969506263732910e-01,8.242047578096389771e-02,-5.751687567681074142e-03,-3.688893467187881470e-02,6.483557820320129395e-02,1.118945479393005371e-01,-7.550052367150783539e-03,-6.293305754661560059e-02,5.356337409466505051e-03,-6.266847997903823853e-02,1.177764460444450378e-01,3.766460716724395752e-02,-3.875482827425003052e-02,1.559419482946395874e-01,3.599525243043899536e-02,-5.637916177511215210e-02,1.361176371574401855e-01,3.111360967159271240e-01,1.367584168910980225e-01,1.020496413111686707e-01,5.554914474487304688e-02,2.031545042991638184e-01,2.598339319229125977e-02,-4.500518087297677994e-03,1.294515430927276611e-01,4.193231165409088135e-01,1.351277828216552734e-01,8.863410353660583496e-02,2.057969421148300171e-01,3.437778055667877197e-01,2.784664928913116455e-01,2.382728010416030884e-01
3.140044510364532471e-01,1.679187119007110596e-01,7.586805522441864014e-02,-3.837073966860771179e-02,-3.941678255796432495e-02,2.278040051460266113e-01,2.029481679201126099e-01,1.460596770048141479e-01,1.680222456343472004e-03,4.810642078518867493e-02,1.046018898487091064e-01,2.517810165882110596e-01,2.452204823493957520e-01,2.001665830612182617e-01,1.621522358618676662e-03,5.029541626572608948e-02,1.621713489294052124e-01,8.345922827720642090e-02,1.423846930265426636e-01,2.438308000564575195e-01,3.242791164666414261e-03,3.265671432018280029e-01,7.472895830869674683e-02,2.431947290897369385e-01,-3.924405667930841446e-03,1.510409056209027767e-03,2.666277885437011719e-01,1.847741305828094482e-01,9.906499087810516357e-02,2.946596443653106689e-01,-3.297980129718780518e-02,6.638080626726150513e-02,-4.408850148320198059e-02,-1.683312468230724335e-02,2.834850177168846130e-02,1.044492796063423157e-01,1.922224760055541992e-01,1.774015575647354126e-01,2.006411254405975342e-01,2.157341688871383667e-01
3.177215456962585449e-01,1.873424351215362549e-01,-3.848124295473098755e-02,1.512866765260696411e-01,3.913914859294891357e-01,8.979896456003189087e-02,2.609165012836456299e-01,-7.707165926694869995e-02,2.030126601457595825e-01,1.137386448681354523e-02,-3.701558336615562439e-02,2.521941252052783966e-02,1.538744866847991943e-01,2.115171402692794800e-01,-2.243591696023941040e-01,1.340238600969314575e-01,1.535602211952209473e-01,8.209849148988723755e-02,2.674859464168548584e-01,1.400880068540573120e-01,2.152292877435684204e-01,1.313015967607498169e-01,1.517414450645446777e-01,5.264849588274955750e-02,2.478424161672592163e-01,1.501134634017944336e-01,1.266158819198608398e-01,1.901931315660476685e-01,1.950840502977371216e-01,2.501928210258483887e-01,5.038464814424514771e-02,2.537342607975006104e-01,1.086808592081069946e-01,-1.683969050645828247e-02,1.411696374416351318e-01,6.746271252632141113e-02,1.331198364496231079e-01,1.558482646942138672e-01,-2.188915573060512543e-02,1.659841984510421753e-01
9.309089183807373047e-02,-2.375914156436920166e-02,1.871500760316848755e-01,1.708219349384307861e-01,-3.365237265825271606e-02,1.239823102951049805e-01,7.567379623651504517e-02,-4.169769212603569031e-02,2.045883387327194214e-01,-9.933205693960189819e-02,4.304140806198120117e-02,7.288895547389984131e-02,1.687538027763366699e-01,-3.940223902463912964e-02,-7.975791394710540771e-02,1.085768193006515503e-01,1.124417707324028015e-01,3.852207213640213013e-02,1.366508901119232178e-01,-7.470967713743448257e-03,-3.903109952807426453e-02,1.688924990594387054e-02,-5.267699062824249268e-02,1.950101703405380249e-01,-1.037912517786026001e-01,1.359192579984664917e-01,1.106973811984062195e-01,1.645404100418090820e-01,5.877938866615295410e-02,1.323750708252191544e-02,1.051841378211975098e-01,2.546365559101104736e-01,-7.613482326269149780e-02,9.409213811159133911e-02,2.729117274284362793e-01,1.694870442152023315e-01,1.926606744527816772e-01,1.533522605895996094e-01,1.158030107617378235e-01,1.884302347898483276e-01
1.165625676512718201e-01,1.499870121479034424e-01,7.371098548173904419e-02,-8.485412597656250000e-02,-1.104353293776512146e-01,6.212280318140983582e-02,2.159796468913555145e-02,5.986952781677246094e-02,-1.496314257383346558e-01,1.617590636014938354e-01,3.428296744823455811e-02,-7.675717771053314209e-02,-4.375440627336502075e-02,-6.822779774665832520e-02,9.181624650955200195e-02,1.153109893202781677e-01,4.324269294738769531e-02,-1.790663227438926697e-02,8.810630068182945251e-03,5.672522634267807007e-02,1.461596935987472534e-01,1.315682660788297653e-02,-1.554869581013917923e-03,-1.553450804203748703e-02,-7.846005260944366455e-03,5.481627956032752991e-02,5.336182937026023865e-02,6.698825210332870483e-02,-6.339930696412920952e-04,-2.730960585176944733e-02,-5.322147160768508911e-03,-3.103760816156864166e-02,-8.208244293928146362e-02,1.132682934403419495e-01,1.747624017298221588e-02,1.199095603078603745e-02,3.733082488179206848e-02,6.199711188673973083e-02,-5.031007155776023865e-02,-6.523214280605316162e-02
1.421804307028651237e-03,6.685075163841247559e-02,1.190088465809822083e-01,8.584687858819961548e-02,5.182171240448951721e-02,1.121627446264028549e-02,6.036072596907615662e-02,-6.156889349222183228e-02,1.603702604770660400e-01,1.665267050266265869e-01,-6.960104405879974365e-02,1.937307119369506836e-01,1.672039777040481567e-01,2.177082300186157227e-01,6.842443346977233887e-02,2.178630977869033813e-01,-2.335020573809742928e-03,1.930622309446334839e-01,1.417316682636737823e-02,1.098264604806900024e-01,2.639453411102294922e-01,1.511305868625640869e-01,1.200794875621795654e-01,1.601347029209136963e-01,2.786950170993804932e-01,5.536795407533645630e-02,-1.168221086263656616e-01,-1.394663471728563309e-02,2.988789975643157959e-01,2.664462327957153320e-01,1.293838620185852051e-01,4.784735292196273804e-02,2.222647517919540405e-01,-3.914418071508407593e-02,2.346036434173583984e-01,-3.522713854908943176e-02,6.097416952252388000e-02,2.580921165645122528e-02,1.585263200104236603e-02,9.738320857286453247e-02
4.352054744958877563e-02,2.654770612716674805e-01,1.647166758775711060e-01,2.040329128503799438e-01,1.533382236957550049e-01,1.717527061700820923e-01,5.080965161323547363e-02,1.450974345207214355e-01,2.690904736518859863e-01,1.156205832958221436e-01,2.268617749214172363e-01,1.715036928653717041e-01,2.413858622312545776e-01,1.611355394124984741e-01,3.443573415279388428e-02,1.043278649449348450e-01,2.430765777826309204e-01,-4.491042636800557375e-04,1.476439088582992554e-01,1.511127948760986328e-01,2.384109646081924438e-01,6.448169797658920288e-02,1.824744045734405518e-01,4.593845829367637634e-02,7.859964668750762939e-02,8.063425123691558838e-02,-9.361153095960617065e-02,1.547880619764328003e-01,1.784189492464065552e-01,4.955862462520599365e-02,2.719227671623229980e-01,2.038078904151916504e-01,6.350649893283843994e-02,-1.299248933792114258e-01,3.631578087806701660e-01,5.081949010491371155e-02,2.067746818065643311e-01,1.395734995603561401e-01,1.205392107367515564e-01,1.913781464099884033e-01
1.200867667794227600e-01,2.958978712558746338e-01,1.573790311813354492e-01,2.265129238367080688e-01,1.536705940961837769e-01,1.639531999826431274e-01,1.915863715112209320e-02,2.204460054636001587e-01,2.475631684064865112e-01,1.326894462108612061e-01,1.670071631669998169e-01,-2.871393598616123199e-02,2.973047196865081787e-01,-3.949067369103431702e-02,1.280725300312042236e-01,-1.281859911978244781e-02,2.290024906396865845e-01,1.915283203125000000e-01,2.055173367261886597e-01,1.740813106298446655e-01,1.223437301814556122e-02,2.745694518089294434e-01,2.029832154512405396e-01,-5.734538286924362183e-02,1.322344876825809479e-02,-2.259343303740024567e-02,6.988530606031417847e-02,2.168693095445632935e-01,1.861090809106826782e-01,1.294141113758087158e-01,1.050806045532226562e-01,1.819370239973068237e-01,-6.618194282054901123e-02,2.524728178977966309e-01,1.299164742231369019e-01,2.611198723316192627e-01,2.739538811147212982e-02,1.463833749294281006e-01,3.959061577916145325e-03,1.157174166291952133e-02
2.118835896253585815e-01,1.038159728050231934e-01,1.936239935457706451e-02,2.159662693738937378e-01,-1.194820180535316467e-02,2.039081305265426636e-01,1.041386201977729797e-01,1.755465120077133179e-01,1.762074828147888184e-01,-7.043018937110900879e-02,7.396090030670166016e-02,1.202005445957183838e-01,1.350089758634567261e-01,-1.920587942004203796e-02,-4.759081453084945679e-02,4.627815261483192444e-02,1.038508787751197815e-01,1.219910457730293274e-01,3.178727626800537109e-01,-1.345274411141872406e-02,1.129983812570571899e-01,3.340849280357360840e-01,-8.812138438224792480e-02,5.840655416250228882e-02,1.182671636343002319e-01,-4.088846966624259949e-02,-3.818997368216514587e-02,4.909820482134819031e-02,-1.367412786930799484e-02,1.923672109842300415e-01,1.483975797891616821e-01,-1.478780340403318405e-02,1.005917116999626160e-01,4.441069811582565308e-02,8.088648319244384766e-02,5.859175696969032288e-02,-8.606166392564773560e-02,1.333200335502624512e-01,6.235604360699653625e-02,-2.933917380869388580e-02
1.234544664621353149e-01,2.288432270288467407e-01,7.579443603754043579e-02,1.546305567026138306e-01,7.711045444011688232e-02,1.776384860277175903e-01,2.041555792093276978e-01,2.340446114540100098e-01,2.002483308315277100e-01,1.082447096705436707e-01,2.154245972633361816e-01,8.857483416795730591e-02,2.703502774238586426e-01,-1.072470471262931824e-02,4.590422287583351135e-02,9.143177419900894165e-02,2.432257533073425293e-01,3.182312846183776855e-01,2.359803020954132080e-01,1.977500766515731812e-01,2.522121667861938477e-01,2.435503005981445312e-01,2.169528901576995850e-01,2.042727172374725342e-01,2.754403278231620789e-02,1.492453645914793015e-02,2.699414193630218506e-01,1.888640224933624268e-01,8.006237447261810303e-02,-1.205534953624010086e-02,2.467683330178260803e-02,1.119537353515625000e-01,1.057459637522697449e-01,3.709966540336608887e-01,1.999976187944412231e-01,1.409004032611846924e-01,2.068619281053543091e-01,1.513287276029586792e-01,1.107548400759696960e-01,1.037629991769790649e-01
1.872516125440597534e-01,3.012917339801788330e-01,3.351071774959564209e-01,1.211323738098144531e-01,3.639015555381774902e-01,1.549541801214218140e-01,2.463212460279464722e-01,4.062875807285308838e-01,-1.049158126115798950e-01,7.735914736986160278e-02,-6.705589592456817627e-02,2.664625458419322968e-02,5.103693529963493347e-02,2.750568389892578125e-01,2.253130674362182617e-01,2.952603399753570557e-01,4.309277515858411789e-03,8.311122655868530273e-02,3.304599821567535400e-01,2.453288286924362183e-01,2.032916396856307983e-01,2.179415896534919739e-03,3.975274041295051575e-02,2.258214950561523438e-01,6.628239154815673828e-02,1.216269657015800476e-01,2.265565991401672363e-01,2.052550613880157471e-01,4.497227072715759277e-02,2.828241586685180664e-01,1.614837497472763062e-01,3.240954503417015076e-02,-1.475367462262511253e-03,1.940543502569198608e-01,1.990930289030075073e-01,5.924627184867858887e-02,2.850715443491935730e-02,7.121210545301437378e-02,5.361852049827575684e-02,2.444554567337036133e-01
-7.663828879594802856e-02,1.043437421321868896e-01,-2.970471978187561035e-02,-1.303562223911285400e-01,6.185109913349151611e-02,-5.535273626446723938e-02,8.585757017135620117e-02,-3.369353339076042175e-02,-3.807216510176658630e-02,-7.151619065552949905e-03,-1.452444642782211304e-01,1.226578056812286377e-01,1.416912674903869629e-01,8.447221666574478149e-02,1.224167924374341965e-02,-8.529723435640335083e-02,2.381765656173229218e-02,3.127356246113777161e-02,4.490066692233085632e-02,1.296221911907196045e-01,6.633052229881286621e-02,1.436537951231002808e-01,1.053697317838668823e-01,3.801384195685386658e-02,-1.529747247695922852e-01,6.892341375350952148e-02,1.371501386165618896e-01,-1.220658048987388611e-01,1.064700260758399963e-02,-9.890650399029254913e-03,-1.050295531749725342e-01,9.567837417125701904e-02,1.064674705266952515e-01,7.539405673742294312e-02,-2.251845970749855042e-02,-2.105323597788810730e-02,-3.232800960540771484e-02,8.603465557098388672e-02,-1.440660953521728516e-01,-2.400303492322564125e-03
-1.852290146052837372e-02,2.497958689928054810e-01,-2.994898147881031036e-02,-2.198030613362789154e-02,1.754375845193862915e-01,1.001353263854980469e-01,8.788224309682846069e-02,2.481560260057449341e-01,2.264283038675785065e-02,3.495388478040695190e-02,7.760677952319383621e-03,2.211005240678787231e-02,-4.893319681286811829e-03,2.117615640163421631e-01,8.901634812355041504e-02,2.077303230762481689e-01,-3.037664666771888733e-02,-8.252086490392684937e-02,2.605054974555969238e-01,6.181392818689346313e-02,2.721667587757110596e-01,3.338135778903961182e-01,7.960821688175201416e-02,2.621558904647827148e-01,3.275513648986816406e-01,2.807946503162384033e-01,9.609455615282058716e-02,2.037950456142425537e-01,1.704970598220825195e-01,2.147381603717803955e-01,2.616047561168670654e-01,-2.400638535618782043e-02,-1.177546679973602295e-01,-5.014118179678916931e-02,7.327432185411453247e-02,2.636929154396057129e-01,-4.365598410367965698e-02,8.641353249549865723e-02,2.032480537891387939e-01,1.677422672510147095e-01
-1.578995287418365479e-01,2.369986474514007568e-02,1.196426898241043091e-01,-5.299168080091476440e-02,1.970181614160537720e-01,4.315629228949546814e-02,5.566133186221122742e-02,3.058687150478363037e-01,1.485156863927841187e-01,1.154053285717964172e-01,-3.634895011782646179e-02,1.916941627860069275e-02,-2.136680297553539276e-02,2.671212255954742432e-01,1.996137052774429321e-01,9.870122373104095459e-02,3.419579863548278809e-01,-8.875959366559982300e-02,2.175797671079635620e-01,-4.124591872096061707e-02,1.103543266654014587e-01,1.385397613048553467e-01,2.364946007728576660e-01,1.792057752609252930e-01,1.042027771472930908e-01,3.310854732990264893e-02,4.470834881067276001e-02,3.629297763109207153e-02,1.986238509416580200e-01,1.280588805675506592e-01,-8.564103394746780396e-02,-4.292440135031938553e-03,1.752421855926513672e-01,1.150541007518768311e-01,1.232243031263351440e-01,2.230741269886493683e-02,-1.001659780740737915e-01,3.603470921516418457e-01,2.394417375326156616e-01,4.602250084280967712e-02
2.921436131000518799e-01,-1.042177100316621363e-04,1.848793774843215942e-01,3.361074253916740417e-02,-1.021174713969230652e-02,5.317068845033645630e-02,1.938825696706771851e-01,3.751378133893013000e-02,1.911495327949523926e-01,1.461052298545837402e-01,1.157161518931388855e-01,2.549976296722888947e-02,8.316927123814821243e-04,1.708667129278182983e-01,2.116217464208602905e-01,2.529118657112121582e-01,2.445292770862579346e-01,3.155306279659271240e-01,1.135848984122276306e-01,8.282758295536041260e-02,2.965032160282135010e-01,1.372420694679021835e-02,-3.339972347021102905e-02,8.232519030570983887e-02,1.019991263747215271e-01,3.509970009326934814e-02,2.696736156940460205e-01,4.881581664085388184e-02,3.671880345791578293e-03,2.504180967807769775e-01,1.821149140596389771e-01,3.750560283660888672e-01,1.833405494689941406e-01,-8.571166545152664185e-02,1.981039941310882568e-01,1.182951405644416809e-01,5.950542911887168884e-02,4.853253811597824097e-02,8.590243756771087646e-02,-8.686020970344543457e-03
5.402269586920738220e-02,-1.450553983449935913e-01,1.360217779874801636e-01,-7.370583713054656982e-02,-9.787692874670028687e-02,5.902470648288726807e-02,-8.834727108478546143e-02,-5.173017829656600952e-02,1.809768974781036377e-01,-1.157920509576797485e-01,-3.430627111811190844e-04,1.485018283128738403e-01,1.601946651935577393e-01,1.736697256565093994e-01,-2.662941114977002144e-03,1.595242768526077271e-01,5.436044186353683472e-02,9.786191582679748535e-02,1.078466027975082397e-01,-1.680417917668819427e-02,2.204964682459831238e-02,-1.165846437215805054e-01,-1.493181884288787842e-01,1.533289402723312378e-01,-1.224692463874816895e-01,-1.168022304773330688e-01,-9.839452058076858521e-02,1.124819964170455933e-01,-1.039748825132846832e-02,-1.019716542214155197e-02,5.326410382986068726e-02,1.070078685879707336e-01,9.195382893085479736e-02,1.565253585577011108e-01,-8.261118084192276001e-02,1.041870787739753723e-01,2.023530006408691406e-01,9.921190887689590454e-02,-1.580918207764625549e-02,-1.202122718095779419e-01
2.117551565170288086e-01,1.968688517808914185e-01,1.027979031205177307e-01,2.224191129207611084e-01,1.317753344774246216e-01,4.153953865170478821e-02,2.041018009185791016e-01,2.364507168531417847e-01,-5.903090350329875946e-03,2.371675223112106323e-01,2.271620780229568481e-01,2.390855252742767334e-01,4.355544969439506531e-02,3.234251141548156738e-01,3.455768525600433350e-02,1.714268773794174194e-01,2.892473042011260986e-01,1.973066478967666626e-01,1.712368875741958618e-01,9.499666839838027954e-02,1.950747221708297729e-01,-1.609582751989364624e-01,7.518627494573593140e-02,3.729321062564849854e-01,2.055796831846237183e-01,3.146424591541290283e-01,2.231624722480773926e-01,1.795474588871002197e-01,2.221290022134780884e-01,2.005313783884048462e-01,1.148394718766212463e-01,8.301873505115509033e-02,2.128538936376571655e-01,1.263683848083019257e-02,2.629941403865814209e-01,7.308845221996307373e-02,5.162383615970611572e-02,-4.171941056847572327e-02,1.921897977590560913e-01,5.386226624250411987e-02
1.796409636735916138e-01,1.517864614725112915e-01,2.125206440687179565e-01,1.467193663120269775e-01,-5.607614759355783463e-03,-4.864377528429031372e-02,4.165510088205337524e-02,1.186295449733734131e-01,-3.107488155364990234e-02,-1.562354899942874908e-02,-1.947290822863578796e-02,1.995742619037628174e-01,1.085862964391708374e-01,1.235611289739608765e-01,1.195883937180042267e-02,-2.307729795575141907e-02,-1.258494518697261810e-02,2.886098064482212067e-02,1.703260987997055054e-01,1.123768463730812073e-01,1.384869515895843506e-01,2.310966700315475464e-01,1.585409641265869141e-01,1.721829324960708618e-01,1.489178836345672607e-01,6.534722447395324707e-02,-1.437910795211791992e-01,9.225632995367050171e-02,-3.044645767658948898e-03,1.000007707625627518e-02,-8.669809438288211823e-03,-1.418774947524070740e-02,1.657191812992095947e-01,2.706928849220275879e-01,7.939611375331878662e-02,2.926935553550720215e-01,1.594693213701248169e-01,3.547528684139251709e-01,1.928433626890182495e-01,1.827388256788253784e-01
-1.145778410136699677e-02,-7.658170908689498901e-02,-1.586604416370391846e-01,1.623355224728584290e-02,-5.044483393430709839e-02,7.640364766120910645e-02,-1.523577515035867691e-02,-3.613362461328506470e-02,-5.922518670558929443e-02,-1.605126708745956421e-01,-1.186910551041364670e-02,3.545673191547393799e-02,1.041023805737495422e-02,-3.212792426347732544e-02,9.771201759576797485e-02,-6.320998817682266235e-02,-8.489827811717987061e-02,1.029974874109029770e-02,1.777327060699462891e-01,-1.351562887430191040e-01,9.389746934175491333e-02,-2.097035571932792664e-02,1.390810310840606689e-01,-1.847195066511631012e-02,-2.790575101971626282e-02,1.717574894428253174e-01,8.518362417817115784e-03,-9.173237532377243042e-02,-9.456547349691390991e-02,1.288198530673980713e-01,1.741195172071456909e-01,6.435743719339370728e-02,9.857835620641708374e-02,-1.101815849542617798e-01,-5.542742088437080383e-03,-7.297080755233764648e-02,1.390143036842346191e-01,-1.195370629429817200e-01,-3.688587807118892670e-03,-4.915581084787845612e-03
9.805473685264587402e-02,8.125041425228118896e-02,2.704505026340484619e-01,1.293090581893920898e-01,2.267537117004394531e-01,2.902448773384094238e-01,1.579312235116958618e-01,2.881917059421539307e-01,2.059428989887237549e-01,7.141404598951339722e-02,3.122103512287139893e-01,6.680721789598464966e-02,2.950456738471984863e-01,2.047475576400756836e-01,-1.853996654972434044e-03,2.250359207391738892e-01,3.013193309307098389e-01,-1.195541396737098694e-02,3.024478852748870850e-01,2.679607570171356201e-01,3.331315144896507263e-02,8.233255892992019653e-02,-2.897811867296695709e-02,1.544089764356613159e-01,1.673876047134399414e-01,2.304533720016479492e-01,-1.611739397048950195e-01,3.452312052249908447e-01,1.799215078353881836e-01,3.460589349269866943e-01,4.251049458980560303e-02,2.240413725376129150e-01,1.675282567739486694e-01,4.260500073432922363e-01,1.805339157581329346e-01,1.855761110782623291e-01,1.348684281110763550e-01,2.068137079477310181e-01,2.316912859678268433e-01,1.789425462484359741e-01
1.994832754135131836e-01,3.367492258548736572e-01,5.028807371854782104e-02,7.870756834745407104e-02,1.393973231315612793e-01,1.838329434394836426e-01,1.474181115627288818e-01,2.607837915420532227e-01,2.502620816230773926e-01,3.211622834205627441e-01,3.122003078460693359e-01,2.956195473670959473e-01,8.370396494865417480e-02,2.555956505239009857e-02,8.001783490180969238e-02,2.237911075353622437e-01,2.232664078474044800e-01,2.728199064731597900e-01,1.711431592702865601e-01,2.265353053808212280e-01,9.965410828590393066e-02,2.108820080757141113e-01,1.022851169109344482e-01,1.969080716371536255e-01,2.203491479158401489e-01,1.259181797504425049e-01,2.398302704095840454e-01,2.098329812288284302e-01,2.061217278242111206e-01,2.522497475147247314e-01,2.699032127857208252e-01,-6.669796071946620941e-03,9.642843157052993774e-02,3.454008996486663818e-01,1.204691156744956970e-01,1.080691963434219360e-01,1.996064931154251099e-01,1.305895019322633743e-02,8.207944035530090332e-02,1.621448099613189697e-01
1.073703020811080933e-01,-1.115609928965568542e-01,2.179061472415924072e-01,3.429404273629188538e-02,-1.359362304210662842e-01,-4.803474619984626770e-02,1.437769681215286255e-01,3.867558389902114868e-02,-1.132505834102630615e-01,-8.664734661579132080e-02,1.593138277530670166e-02,1.435767300426959991e-02,7.253068685531616211e-02,-4.744404181838035583e-02,-5.022706091403961182e-02,-8.607091754674911499e-02,1.920932829380035400e-01,-2.704746425151824951e-01,5.253737047314643860e-02,1.238369196653366089e-02,1.754751801490783691e-01,-2.435205318033695221e-02,3.960845619440078735e-02,1.162210553884506226e-01,-1.025683432817459106e-01,-1.243716999888420105e-01,1.029947102069854736e-01,1.488538831472396851e-01,4.756641387939453125e-02,3.951803967356681824e-02,8.472814224660396576e-03,1.045631766319274902e-01,-1.113248392939567566e-01,2.901811338961124420e-02,3.335910290479660034e-02,1.833955943584442139e-01,1.151720508933067322e-01,3.683405928313732147e-03,1.471140086650848389e-01,1.349558085203170776e-01
8.864460885524749756e-02,1.563625037670135498e-01,1.520353555679321289e-01,9.521695226430892944e-02,3.100310564041137695e-01,4.980978965759277344e-01,4.047642927616834641e-03,8.917610347270965576e-02,-2.689715474843978882e-04,-1.655369880609214306e-03,1.666966378688812256e-01,2.352260202169418335e-01,2.901051044464111328e-01,2.793171107769012451e-01,1.919552087783813477e-01,1.517963707447052002e-01,5.200193449854850769e-02,3.201905786991119385e-01,3.400851190090179443e-01,1.747289001941680908e-01,2.281794548034667969e-01,-1.619751453399658203e-01,2.995623648166656494e-01,5.458241701126098633e-02,2.873792350292205811e-01,2.070203721523284912e-01,9.858462214469909668e-02,3.044253587722778320e-01,1.865598410367965698e-01,2.251235991716384888e-01,1.680098772048950195e-01,1.829472035169601440e-01,8.749212324619293213e-02,5.634364858269691467e-02,-1.315410248935222626e-02,3.470457196235656738e-01,4.295487329363822937e-02,5.441180244088172913e-02,2.261105030775070190e-01,3.225542837753891945e-03
-2.235442548990249634e-01,1.077933423221111298e-02,-3.414725139737129211e-02,7.088115438818931580e-03,-1.579745113849639893e-01,-1.113404631614685059e-01,1.390467435121536255e-01,2.170669138431549072e-01,6.599120050668716431e-02,-5.525797605514526367e-02,1.080444678664207458e-01,-5.791787803173065186e-02,2.279661446809768677e-01,-7.791259139776229858e-02,1.254021227359771729e-01,1.882450655102729797e-02,-7.919291406869888306e-02,-1.406895834952592850e-02,-9.641589969396591187e-02,-1.382789909839630127e-01,-7.832537591457366943e-02,3.503830432891845703e-01,8.339097350835800171e-02,1.043998263776302338e-02,4.145204275846481323e-02,-1.183536574244499207e-01,-5.124298110604286194e-02,8.935952559113502502e-03,-7.006596773862838745e-03,5.231919512152671814e-02,1.650285273790359497e-01,-2.231031283736228943e-02,-2.830165252089500427e-02,-1.395257860422134399e-01,-4.870799835771322250e-03,-7.227359712123870850e-02,-6.236806884407997131e-02,5.282563343644142151e-02,1.271386295557022095e-01,-1.251098960638046265e-01
2.708873450756072998e-01,1.042265668511390686e-01,2.608442902565002441e-01,1.680870726704597473e-02,2.009106129407882690e-01,2.509643509984016418e-02,1.069503948092460632e-01,2.078950591385364532e-02,-9.877470880746841431e-02,1.849561482667922974e-01,1.950216591358184814e-01,1.363686770200729370e-01,3.150565549731254578e-02,1.811419427394866943e-01,2.811801731586456299e-01,5.354902893304824829e-02,1.631505638360977173e-01,1.810338115319609642e-03,2.425042539834976196e-01,2.080906182527542114e-01,7.923525571823120117e-02,3.049520850181579590e-01,7.848116755485534668e-02,1.594614088535308838e-01,6.019978225231170654e-02,7.060838490724563599e-02,1.838899217545986176e-02,3.424262106418609619e-01,2.257918268442153931e-01,1.656414568424224854e-01,-1.245643422007560730e-01,-4.024391993880271912e-03,-6.682951748371124268e-02,-1.474409103393554688e-01,1.154580041766166687e-01,2.091566622257232666e-01,1.931508779525756836e-01,2.893210947513580322e-01,1.042467504739761353e-01,2.813977897167205811e-01
6.850267946720123291e-02,2.381256222724914551e-01,2.194266766309738159e-01,2.871577441692352295e-01,2.645280361175537109e-01,2.708834111690521240e-01,2.057922035455703735e-01,3.116343617439270020e-01,1.266818195581436157e-01,2.318731993436813354e-01,-8.549391292035579681e-03,1.767998337745666504e-01,8.479746431112289429e-02,1.062081456184387207e-01,2.605863511562347412e-01,8.214936405420303345e-02,1.941564828157424927e-01,2.209735363721847534e-01,1.121397539973258972e-01,1.959822624921798706e-01,1.292925029993057251e-01,-2.008060514926910400e-01,1.207534298300743103e-01,-2.793669328093528748e-02,2.829343676567077637e-01,7.617226988077163696e-02,1.112255081534385681e-01,2.080923318862915039e-01,2.484616041183471680e-01,1.332042813301086426e-01,2.063964605331420898e-01,9.088378399610519409e-02,1.190468892455101013e-01,2.449098229408264160e-01,3.740392625331878662e-01,7.362963259220123291e-02,4.063002020120620728e-02,2.716073095798492432e-01,7.874269038438796997e-02,9.709777683019638062e-02
1.332275569438934326e-01,-2.996300533413887024e-02,-9.016606956720352173e-02,-1.407243162393569946e-01,2.021028287708759308e-02,4.810830578207969666e-04,-1.190851479768753052e-01,-2.770807221531867981e-02,1.832901835441589355e-01,-1.343933194875717163e-01,8.990200608968734741e-02,-1.385013312101364136e-01,-6.945315003395080566e-02,-2.114447951316833496e-02,-1.350364387035369873e-01,-1.978745311498641968e-02,-8.189322799444198608e-02,1.067936071194708347e-03,-1.639640927314758301e-01,1.497409939765930176e-01,-2.359321340918540955e-02,-7.974377274513244629e-02,-5.001164972782135010e-02,7.791521400213241577e-02,8.903494477272033691e-02,1.442560404539108276e-01,-5.196927860379219055e-02,-5.188395828008651733e-02,1.231453418731689453e-01,1.405086368322372437e-01,1.094840243458747864e-01,-7.783465832471847534e-02,-1.265420168638229370e-01,4.794972389936447144e-02,1.751753687858581543e-01,-2.688973210752010345e-02,-2.804110012948513031e-02,1.469723600894212723e-02,7.909274101257324219e-02,-1.245154365897178650e-01
-2.304796874523162842e-02,8.452935516834259033e-02,1.259778439998626709e-01,1.030291095376014709e-01,9.591291099786758423e-02,2.710094749927520752e-01,-1.265872418880462646e-01,4.152727872133255005e-02,2.574381530284881592e-01,5.202414840459823608e-02,2.645981013774871826e-01,1.250861138105392456e-01,1.219535320997238159e-01,2.804367244243621826e-01,-7.066360116004943848e-02,2.944127023220062256e-01,-1.399119105190038681e-02,-2.621190845966339111e-01,1.575513929128646851e-01,1.591401398181915283e-01,2.097873836755752563e-01,3.410402312874794006e-02,3.097138702869415283e-01,-9.523373097181320190e-03,2.987117171287536621e-01,2.262946218252182007e-01,-9.771078824996948242e-02,1.753781139850616455e-01,3.695431351661682129e-02,-9.608430787920951843e-03,1.694461852312088013e-01,2.636660635471343994e-01,-1.034954749047756195e-02,2.268250882625579834e-01,5.945023894309997559e-02,6.217345967888832092e-02,1.970038414001464844e-01,1.623046994209289551e-01,1.088961958885192871e-01,-5.687849596142768860e-02
3.261602520942687988e-01,3.068091161549091339e-02,6.848081946372985840e-02,8.381877094507217407e-02,1.718201190233230591e-01,2.968514859676361084e-01,-8.848920464515686035e-02,1.655126363039016724e-01,-3.975396230816841125e-02,2.978272140026092529e-01,1.464269161224365234e-01,6.038098596036434174e-03,1.891950666904449463e-01,1.711353361606597900e-01,1.872442811727523804e-01,4.212441295385360718e-02,1.469127386808395386e-01,2.570136785507202148e-01,3.045202493667602539e-01,6.542512774467468262e-02,3.001483976840972900e-01,1.922866888344287872e-02,1.153735592961311340e-01,1.349033713340759277e-01,2.016421221196651459e-02,2.065140753984451294e-01,1.055508404970169067e-01,1.451733522117137909e-02,1.344604343175888062e-01,8.723611384630203247e-02,1.240702271461486816e-01,2.329459041357040405e-01,5.911150574684143066e-02,2.331402897834777832e-01,2.397029846906661987e-01,1.303211897611618042e-01,-5.639117956161499023e-02,2.314819693565368652e-01,1.530625522136688232e-01,2.741283774375915527e-01
3.084129691123962402e-01,5.994794517755508423e-02,1.320746392011642456e-01,2.872840464115142822e-01,3.003126680850982666e-01,7.476160675287246704e-02,1.636971235275268555e-01,1.780497841536998749e-02,3.780774176120758057e-01,-3.000779543071985245e-04,7.840663939714431763e-02,1.772000789642333984e-01,2.593979835510253906e-01,1.646440774202346802e-01,1.834641695022583008e-01,1.703862249851226807e-01,6.678771972656250000e-02,3.170040547847747803e-01,9.897651616483926773e-04,1.402538120746612549e-01,-3.858272731304168701e-02,2.548664808273315430e-01,3.136957064270973206e-02,1.809216439723968506e-01,6.616260856389999390e-02,8.495704829692840576e-02,2.622726261615753174e-01,2.448828667402267456e-01,-6.991905719041824341e-02,3.824123740196228027e-01,2.104560136795043945e-01,3.492292463779449463e-01,1.571858078241348267e-01,1.602568477392196655e-01,1.801906079053878784e-01,1.306342780590057373e-01,2.771871089935302734e-01,1.269454956054687500e-01,1.371889114379882812e-01,2.511490583419799805e-01
2.162294089794158936e-01,-3.512347117066383362e-02,-1.209378689527511597e-01,3.188165128231048584e-01,1.386272460222244263e-01,1.786106079816818237e-01,3.157809376716613770e-02,-1.002140045166015625e-01,2.304911464452743530e-01,-1.370030920952558517e-03,2.679986357688903809e-01,7.751354575157165527e-02,2.209681123495101929e-01,2.048747390508651733e-01,2.201370447874069214e-01,-1.379114808514714241e-03,2.107165008783340454e-01,-1.980967633426189423e-02,1.472166031599044800e-01,-9.205588698387145996e-02,2.522056736052036285e-02,3.429752290248870850e-01,2.022480964660644531e-01,-9.970242530107498169e-02,1.135143414139747620e-01,1.202076599001884460e-01,7.918146252632141113e-02,2.946269512176513672e-02,1.080458164215087891e-01,2.327225357294082642e-01,2.278359830379486084e-01,1.049829795956611633e-01,1.267493702471256256e-03,-9.034208208322525024e-02,2.619228661060333252e-01,3.077215887606143951e-02,7.400945574045181274e-02,1.858560554683208466e-02,2.133546322584152222e-01,-1.935712061822414398e-02
5.929942801594734192e-02,-6.318438798189163208e-02,-1.901001632213592529e-01,6.027058232575654984e-03,2.916037477552890778e-02,-1.383189298212528229e-02,-8.142252266407012939e-02,-7.389714568853378296e-02,-2.993625588715076447e-02,-8.677260018885135651e-03,1.481184363365173340e-01,1.725121885538101196e-01,3.783835470676422119e-02,-1.067831218242645264e-01,3.166046366095542908e-02,-5.745431035757064819e-02,6.821949034929275513e-02,2.387203974649310112e-03,1.792970001697540283e-01,-1.258836686611175537e-01,-6.061476469039916992e-02,1.031444668769836426e-01,-7.679761946201324463e-02,1.623148657381534576e-02,1.384576708078384399e-01,1.568041741847991943e-01,-3.917361795902252197e-02,1.513055153191089630e-02,-5.930915102362632751e-02,5.154739320278167725e-02,-7.173392921686172485e-02,1.288784891366958618e-01,4.823642224073410034e-02,-5.163092538714408875e-02,2.492532692849636078e-02,-9.943054616451263428e-02,-9.396906197071075439e-02,-1.280328482389450073e-01,-9.788385778665542603e-02,2.764892950654029846e-02
-3.288542106747627258e-02,2.750790715217590332e-01,2.214135974645614624e-01,-5.457435548305511475e-02,1.893720477819442749e-01,8.335697650909423828e-02,1.445539742708206177e-01,2.092391252517700195e-01,-9.975227527320384979e-03,2.688004374504089355e-01,-1.934945350512862206e-03,1.774406582117080688e-01,8.275484293699264526e-02,3.027032911777496338e-01,1.439348906278610229e-01,2.676402404904365540e-02,-5.783580243587493896e-03,2.234985679388046265e-01,2.349881082773208618e-02,2.514973878860473633e-01,1.313616037368774414e-01,-1.391304433345794678e-01,1.780257672071456909e-01,8.345812559127807617e-02,-5.103584378957748413e-02,2.510625422000885010e-01,9.497280418872833252e-02,2.683037817478179932e-01,1.970455348491668701e-01,2.738471925258636475e-01,2.478079199790954590e-01,6.487723439931869507e-02,2.917613685131072998e-01,2.407992780208587646e-01,1.683437079191207886e-01,1.176292151212692261e-01,3.714824318885803223e-01,7.117358595132827759e-02,2.857442498207092285e-01,1.065554246306419373e-01
3.176348805427551270e-01,3.207018971443176270e-02,2.452202290296554565e-01,2.739401347935199738e-02,1.814862638711929321e-01,1.605833023786544800e-01,1.303098052740097046e-01,1.195712760090827942e-01,4.475756734609603882e-02,8.485372364521026611e-02,2.829384207725524902e-01,5.730444192886352539e-02,9.303441643714904785e-02,2.339364960789680481e-02,1.466279942542314529e-02,-4.246722534298896790e-02,1.069269254803657532e-01,-6.109214201569557190e-02,1.764787435531616211e-01,5.381659045815467834e-02,1.698793619871139526e-01,3.280887305736541748e-01,8.847117424011230469e-02,2.959508597850799561e-01,2.245782166719436646e-01,3.510939329862594604e-02,2.032265365123748779e-01,8.424551784992218018e-02,8.601917326450347900e-02,1.046794280409812927e-02,-7.677814364433288574e-02,2.639833390712738037e-01,1.380708366632461548e-01,-2.543466389179229736e-01,2.951797246932983398e-01,2.607012689113616943e-01,2.109434008598327637e-01,1.689536571502685547e-01,1.828926801681518555e-01,2.569183111190795898e-01
1.240289807319641113e-01,2.703995630145072937e-02,-1.788755692541599274e-02,6.192509084939956665e-02,1.173345074057579041e-01,-7.153467088937759399e-02,3.218219801783561707e-02,1.282406970858573914e-02,1.444147825241088867e-01,1.378414630889892578e-01,6.089890003204345703e-02,-1.166801899671554565e-02,-6.520280148833990097e-03,2.597638405859470367e-02,6.480102241039276123e-02,-5.902023240923881531e-02,-8.113463968038558960e-02,4.426663368940353394e-02,-8.690103888511657715e-02,7.373277842998504639e-02,-1.020612008869647980e-02,1.319288164377212524e-01,-9.737259149551391602e-02,2.071853429079055786e-01,2.756516635417938232e-02,-1.193212810903787613e-02,-5.522832646965980530e-02,2.970435470342636108e-02,1.190317869186401367e-01,-5.429395660758018494e-02,4.723215848207473755e-02,-6.437034904956817627e-02,5.818429961800575256e-02,-3.167122974991798401e-02,1.234379932284355164e-01,8.447984606027603149e-02,-4.173988848924636841e-02,-8.614994585514068604e-02,1.335730403661727905e-01,-3.782968223094940186e-02
1.947758346796035767e-01,6.262999773025512695e-02,1.999553442001342773e-01,1.592488586902618408e-01,2.990288436412811279e-01,1.266675591468811035e-01,6.441073864698410034e-02,2.596516609191894531e-01,1.277101933956146240e-01,2.273375540971755981e-01,2.810190320014953613e-01,3.222367763519287109e-01,8.033668994903564453e-02,5.829018726944923401e-02,4.081939533352851868e-02,7.068274170160293579e-02,1.753469556570053101e-01,1.182278171181678772e-01,1.879648417234420776e-01,1.925159096717834473e-01,9.654320776462554932e-02,7.704457733780145645e-03,4.569482430815696716e-02,2.740229368209838867e-01,3.192316591739654541e-01,1.209064945578575134e-01,1.405428349971771240e-01,1.750574856996536255e-01,3.156445622444152832e-01,1.347520798444747925e-01,2.001421302556991577e-01,2.128462074324488640e-03,2.778015732765197754e-01,2.553424537181854248e-01,1.144870817661285400e-01,3.396951034665107727e-02,5.765923112630844116e-02,2.269452512264251709e-01,3.840163052082061768e-01,2.586445808410644531e-01
3.376693427562713623e-01,1.267348825931549072e-01,2.752989828586578369e-01,2.280452549457550049e-01,-4.614429548382759094e-02,2.572055757045745850e-01,1.025442313402891159e-02,2.094660699367523193e-02,7.537005841732025146e-02,6.744092702865600586e-02,3.067118227481842041e-01,3.697304427623748779e-02,1.877991366200149059e-03,7.403451949357986450e-02,-1.220494229346513748e-02,2.400971353054046631e-01,9.193842113018035889e-02,-9.939622133970260620e-03,1.300975829362869263e-01,1.846917569637298584e-01,2.161719501018524170e-01,1.153855398297309875e-01,2.285058945417404175e-01,3.724846243858337402e-02,1.099291816353797913e-01,1.001595184206962585e-01,1.677464991807937622e-01,1.077455133199691772e-01,1.662161760032176971e-02,2.108252048492431641e-02,5.310522019863128662e-02,9.314272552728652954e-02,1.946075707674026489e-01,-1.327299028635025024e-01,2.959253787994384766e-01,4.487072676420211792e-02,1.681651771068572998e-01,3.629218041896820068e-01,1.826248317956924438e-01,7.447008043527603149e-02
2.295768260955810547e-01,9.354002028703689575e-02,-2.857356704771518707e-02,5.968020111322402954e-02,2.212435193359851837e-02,1.844418942928314209e-01,-3.389658033847808838e-02,1.617353111505508423e-01,1.230672895908355713e-01,9.573626518249511719e-02,4.500593990087509155e-03,1.399556845426559448e-01,8.466639369726181030e-02,1.369451079517602921e-02,-7.450929842889308929e-03,1.813901215791702271e-01,6.191933900117874146e-02,-3.152148425579071045e-02,2.813464701175689697e-01,2.523404061794281006e-01,3.154906928539276123e-01,3.086152970790863037e-01,2.387802349403500557e-03,2.215310931205749512e-01,1.395514793694019318e-02,-1.344684977084398270e-02,8.732531964778900146e-02,1.028873771429061890e-01,4.854055494070053101e-02,5.226535350084304810e-02,2.125274389982223511e-02,2.430546134710311890e-01,3.812512010335922241e-02,-2.261503366753458977e-03,1.386863291263580322e-01,2.405733615159988403e-01,-7.135232537984848022e-02,6.870531290769577026e-02,2.770335376262664795e-01,1.240170467644929886e-02
-3.054317459464073181e-02,1.769915968179702759e-02,-2.198696369305253029e-03,5.239953845739364624e-02,2.478061914443969727e-01,4.612177237868309021e-02,2.859413027763366699e-01,4.719777032732963562e-02,1.730618476867675781e-01,-5.549384653568267822e-02,-4.393891617655754089e-02,3.132691979408264160e-02,4.237834364175796509e-02,1.142951399087905884e-01,4.593437165021896362e-02,2.065104059875011444e-02,-2.237431704998016357e-03,-3.587198257446289062e-01,2.668566815555095673e-02,5.800626799464225769e-02,1.474774777889251709e-01,-6.188238784670829773e-02,2.563813030719757080e-01,1.136356070637702942e-01,2.008744329214096069e-01,1.850748211145401001e-01,7.204708456993103027e-02,2.537630498409271240e-01,5.257788114249706268e-03,1.770611479878425598e-02,2.568782567977905273e-01,7.757105678319931030e-02,1.365764588117599487e-01,3.334571123123168945e-01,4.027032479643821716e-02,-1.732230931520462036e-02,1.627120748162269592e-02,1.513994038105010986e-01,3.990663588047027588e-02,-6.773852556943893433e-02
-3.387102782726287842e-01,1.592426598072052002e-01,1.279069036245346069e-01,2.503165230154991150e-02,1.163996756076812744e-01,-3.847998008131980896e-02,1.346959322690963745e-01,1.765997111797332764e-01,6.122890859842300415e-02,1.479557007551193237e-01,5.446599051356315613e-02,2.256791591644287109e-01,2.764542102813720703e-01,1.514562070369720459e-01,2.505296468734741211e-01,2.202746719121932983e-01,3.342078626155853271e-01,-6.297308951616287231e-02,1.402686238288879395e-01,2.473231963813304901e-02,1.426015794277191162e-01,4.490738362073898315e-02,2.378119900822639465e-02,1.338356882333755493e-01,3.336458802223205566e-01,1.570978462696075439e-01,3.395643085241317749e-02,2.043698281049728394e-01,5.728798732161521912e-02,8.718370646238327026e-02,3.217149376869201660e-01,-9.134475886821746826e-02,2.912763059139251709e-01,1.778339445590972900e-01,3.781321644783020020e-01,2.354302853345870972e-01,-4.375546425580978394e-02,1.973671615123748779e-01,1.542715728282928467e-01,3.844825029373168945e-01
1.167904958128929138e-02,2.284276038408279419e-01,4.120141863822937012e-01,9.184538573026657104e-02,1.111792773008346558e-01,9.784120321273803711e-02,2.631289139389991760e-02,2.055119872093200684e-01,2.250094860792160034e-01,1.177382245659828186e-01,3.579776883125305176e-01,4.263610243797302246e-01,3.508509397506713867e-01,6.857445836067199707e-02,4.931427240371704102e-01,3.207982778549194336e-01,3.213261365890502930e-01,-4.120566695928573608e-02,1.920522451400756836e-01,1.895312964916229248e-01,3.180939257144927979e-01,-4.769337549805641174e-02,1.187846809625625610e-01,7.826881855726242065e-02,2.115930765867233276e-01,3.103101253509521484e-01,4.117240756750106812e-02,2.177751660346984863e-01,3.039868175983428955e-01,1.848624199628829956e-01,3.166241943836212158e-01,-3.988651186227798462e-02,3.279223293066024780e-02,3.748437464237213135e-01,2.630021274089813232e-01,2.305534631013870239e-01,1.932068318128585815e-01,5.783442780375480652e-02,9.162145107984542847e-02,2.936741895973682404e-02
2.675775438547134399e-02,1.600066274404525757e-01,8.777921646833419800e-02,1.650426685810089111e-01,-1.433513909578323364e-01,-6.931009888648986816e-02,1.594973653554916382e-01,6.606528908014297485e-02,2.535489499568939209e-01,1.797083616256713867e-01,7.621020544320344925e-03,1.579257398843765259e-01,1.619802713394165039e-01,1.125033572316169739e-01,1.108161881566047668e-01,6.136072054505348206e-02,-1.319240778684616089e-02,-4.894166067242622375e-02,-6.988807022571563721e-02,-2.254530042409896851e-02,-3.981117904186248779e-02,1.279528252780437469e-03,1.789073646068572998e-02,1.093294620513916016e-01,2.464681398123502731e-03,1.253271009773015976e-02,1.898829489946365356e-01,-8.657220751047134399e-02,-2.864370495080947876e-02,1.745313289575278759e-03,2.172687202692031860e-01,6.341409683227539062e-02,1.475060582160949707e-01,-8.917224407196044922e-02,1.343347430229187012e-01,8.861172199249267578e-02,1.456808745861053467e-01,3.650359809398651123e-01,-7.933314144611358643e-02,2.119317650794982910e-02
7.503796368837356567e-02,2.457272559404373169e-01,1.783680915832519531e-01,1.751740425825119019e-01,1.120110750198364258e-01,1.225772947072982788e-01,-3.975778818130493164e-02,7.562123239040374756e-02,1.251820772886276245e-01,6.394378095865249634e-02,-4.005327820777893066e-02,1.411378681659698486e-01,1.240142062306404114e-01,1.479110866785049438e-01,-1.705731749534606934e-01,5.557166412472724915e-02,-2.706920960918068886e-03,-7.854511961340904236e-03,1.591193303465843201e-02,2.008021622896194458e-01,-2.285856008529663086e-02,2.588295042514801025e-01,8.008359372615814209e-02,2.451098896563053131e-02,6.813766807317733765e-02,1.198632493615150452e-01,1.342803239822387695e-01,1.369788497686386108e-01,2.571073770523071289e-01,1.141785085201263428e-02,-5.564705654978752136e-02,1.949407756328582764e-01,1.922849714756011963e-01,1.144001111388206482e-01,-1.999977417290210724e-02,7.697489112615585327e-02,-9.083250164985656738e-02,3.134338259696960449e-01,1.743809431791305542e-01,1.440026164054870605e-01
5.894716829061508179e-02,1.749487668275833130e-01,1.078635975718498230e-01,1.055541709065437317e-01,6.698239594697952271e-02,1.206729412078857422e-01,9.483749419450759888e-02,2.785502970218658447e-01,2.049739658832550049e-01,2.166562899947166443e-02,1.227529123425483704e-01,1.005913242697715759e-01,2.294324189424514771e-01,2.515012323856353760e-01,1.315740048885345459e-01,2.081088125705718994e-01,1.635677516460418701e-01,2.680999934673309326e-01,1.341592818498611450e-01,2.601783573627471924e-01,2.037603706121444702e-01,-1.939385384321212769e-01,1.594555228948593140e-01,9.177561849355697632e-02,7.375494390726089478e-02,2.695261836051940918e-01,-3.527023643255233765e-02,2.722849547863006592e-01,6.204538047313690186e-02,8.951543271541595459e-02,2.704605460166931152e-01,-4.093428328633308411e-02,1.839012652635574341e-01,3.194507658481597900e-01,1.355439871549606323e-01,2.637853622436523438e-01,2.440541982650756836e-01,1.394704282283782959e-01,2.070215642452239990e-01,1.982966214418411255e-01
5.450475215911865234e-02,-4.375352710485458374e-02,-6.164821237325668335e-02,1.622592359781265259e-01,-2.688864991068840027e-02,-4.461289197206497192e-02,-1.042754054069519043e-01,-8.426566421985626221e-02,6.036059558391571045e-02,1.432745307683944702e-01,-3.980503976345062256e-02,-3.411110863089561462e-02,5.004921182990074158e-02,-7.001185417175292969e-02,-1.524451971054077148e-01,1.181053742766380310e-01,-3.811977431178092957e-02,-1.092570349574089050e-01,1.600526422262191772e-01,-1.413705013692378998e-02,1.309954077005386353e-01,1.831632107496261597e-01,-8.002168685197830200e-02,-9.117693454027175903e-02,7.526187598705291748e-02,-1.261867135763168335e-01,1.762106642127037048e-02,-1.440331935882568359e-01,-3.693693876266479492e-02,1.750239729881286621e-01,-1.504344195127487183e-01,1.373047977685928345e-01,7.034151256084442139e-02,-1.521133035421371460e-01,-1.375870034098625183e-02,-1.543092429637908936e-01,9.366648644208908081e-02,-4.725763946771621704e-02,1.196943819522857666e-01,1.365297734737396240e-01
1.847806125879287720e-01,9.832922369241714478e-02,5.816256627440452576e-02,3.370719850063323975e-01,1.100962758064270020e-01,9.562760591506958008e-02,5.024919658899307251e-02,-6.404002755880355835e-02,-1.400456130504608154e-01,2.876417338848114014e-01,-2.303604222834110260e-02,3.372994363307952881e-01,1.823612675070762634e-02,5.305325984954833984e-02,4.582958761602640152e-03,2.097549140453338623e-01,3.250051736831665039e-01,-3.488840535283088684e-02,1.690241545438766479e-01,1.300822943449020386e-01,2.379266917705535889e-01,-7.273561507463455200e-02,2.160271257162094116e-01,2.223481088876724243e-01,2.731240093708038330e-01,4.006661474704742432e-02,1.175250783562660217e-01,9.261839091777801514e-02,3.218542933464050293e-01,4.539328813552856445e-02,1.027765497565269470e-01,3.622048497200012207e-01,2.440781146287918091e-02,-5.010468140244483948e-02,1.690723747014999390e-01,5.782582610845565796e-02,2.137069702148437500e-01,4.272591471672058105e-01,1.712555289268493652e-01,1.014295220375061035e-01
-3.413675129413604736e-01,-9.801961481571197510e-02,-5.242532491683959961e-02,-1.560411155223846436e-01,6.936451792716979980e-02,-6.067626178264617920e-02,-7.227499037981033325e-02,6.445921957492828369e-02,-1.532901376485824585e-01,-1.618987647816538811e-03,-7.827761024236679077e-02,9.463418275117874146e-02,-3.514996170997619629e-02,-3.773316368460655212e-02,7.089847326278686523e-02,6.408759206533432007e-02,-2.245078086853027344e-01,-1.585375219583511353e-01,-5.253355577588081360e-02,-1.085502207279205322e-01,-6.888060271739959717e-02,-1.152208819985389709e-01,-2.566043287515640259e-02,-1.916090250015258789e-01,1.068653091788291931e-01,-2.452712953090667725e-01,1.839333795942366123e-03,-1.395533680915832520e-01,-8.432590402662754059e-03,-5.977070704102516174e-02,-8.017470128834247589e-03,-9.507185220718383789e-02,-2.628531455993652344e-01,2.812326326966285706e-02,-1.170347779989242554e-01,-2.651667967438697815e-02,5.117957666516304016e-02,2.261416018009185791e-01,-2.409773617982864380e-01,-7.433453947305679321e-02
2.233168184757232666e-01,-8.795010298490524292e-02,1.469886749982833862e-01,5.040356889367103577e-02,3.154336214065551758e-01,1.354046016931533813e-01,-5.966168642044067383e-02,1.855980455875396729e-01,5.612807720899581909e-02,-8.170254528522491455e-02,9.705511480569839478e-02,1.580471992492675781e-01,2.266060560941696167e-01,1.896841526031494141e-01,-4.467193409800529480e-02,2.651241421699523926e-01,8.649712800979614258e-02,3.890919685363769531e-02,3.750061243772506714e-02,3.035482019186019897e-03,2.171535491943359375e-01,1.216419786214828491e-01,8.904957026243209839e-02,7.984333485364913940e-02,1.238563731312751770e-01,1.008131261914968491e-02,-1.376703567802906036e-02,6.590827554464340210e-02,-7.969027757644653320e-02,1.502518355846405029e-01,8.005624264478683472e-02,1.035205945372581482e-01,1.824917793273925781e-01,-8.287455141544342041e-02,-2.076218463480472565e-02,5.531032755970954895e-02,4.693862795829772949e-02,1.339470893144607544e-01,1.027986332774162292e-01,2.481771633028984070e-03
1.173294261097908020e-01,2.386296726763248444e-02,2.848394513130187988e-01,1.377278864383697510e-01,3.076041936874389648e-01,1.290075331926345825e-01,-4.965692386031150818e-02,8.498647063970565796e-02,2.579456269741058350e-01,1.734669208526611328e-01,1.053252890706062317e-01,2.101695388555526733e-01,1.417411565780639648e-01,2.840472161769866943e-01,7.505085319280624390e-02,1.262575089931488037e-01,1.826160550117492676e-01,2.882411777973175049e-01,1.860690675675868988e-02,1.783066242933273315e-01,6.765534728765487671e-02,5.971942469477653503e-02,2.140603661537170410e-01,8.364256471395492554e-02,2.236781716346740723e-01,2.038369029760360718e-01,3.140168190002441406e-01,2.012922614812850952e-01,3.436902463436126709e-01,2.621591985225677490e-01,1.892891526222229004e-01,9.055516868829727173e-02,1.549906134605407715e-01,7.566217333078384399e-02,3.075697422027587891e-01,3.357712030410766602e-01,1.543100178241729736e-01,8.850430138409137726e-03,1.353257149457931519e-01,1.880466341972351074e-01
-7.292652875185012817e-02,9.530372917652130127e-03,9.988012164831161499e-02,1.446199715137481689e-01,1.254873722791671753e-01,-1.241684332489967346e-02,-7.804424315690994263e-02,-1.065327152609825134e-01,9.784139692783355713e-02,1.807604730129241943e-02,2.394951283931732178e-01,2.450419366359710693e-01,8.876127004623413086e-02,8.700025826692581177e-02,1.829078644514083862e-01,2.162971943616867065e-01,1.790657639503479004e-01,9.433270245790481567e-02,1.250777542591094971e-01,7.860470563173294067e-02,2.432296872138977051e-01,2.261739075183868408e-01,-6.132721528410911560e-02,1.894601732492446899e-01,1.401559263467788696e-01,4.986564442515373230e-02,2.277054041624069214e-01,1.795760691165924072e-01,-3.873738646507263184e-02,1.757896244525909424e-01,5.151189118623733521e-02,1.439799070358276367e-01,2.645010054111480713e-01,1.892201751470565796e-01,6.431840360164642334e-02,-7.565934211015701294e-02,-6.606524437665939331e-02,2.054650485515594482e-01,-6.484982371330261230e-02,1.374581903219223022e-01
-7.704240083694458008e-02,9.584393352270126343e-02,1.918978244066238403e-02,-7.156670838594436646e-02,-1.236417070031166077e-01,1.003868058323860168e-01,-7.524078339338302612e-02,-1.335821598768234253e-01,-1.349767018109560013e-02,2.653731219470500946e-02,3.055106662213802338e-02,1.119953393936157227e-01,2.710387110710144043e-02,-1.356055587530136108e-01,1.081072445958852768e-02,-1.360911428928375244e-01,1.450401395559310913e-01,9.146547317504882812e-02,-7.464981079101562500e-02,1.234962344169616699e-01,-4.472298175096511841e-02,1.577570438385009766e-01,3.029181063175201416e-02,3.729141503572463989e-02,6.872849166393280029e-02,-1.306736469268798828e-01,1.397020369768142700e-01,1.555697526782751083e-02,1.367748975753784180e-01,1.507720351219177246e-01,1.056329384446144104e-01,1.175530478358268738e-01,4.934717714786529541e-02,-1.104782000184059143e-01,-1.133956946432590485e-02,-1.478101909160614014e-01,-1.437762975692749023e-01,-4.137270525097846985e-02,-1.168000511825084686e-02,4.509141203016042709e-03
2.816440463066101074e-01,-1.105447262525558472e-01,5.687939375638961792e-02,-9.718791581690311432e-03,1.485511958599090576e-01,-7.785603404045104980e-03,1.040461659431457520e-01,4.664628952741622925e-02,-3.887907788157463074e-02,1.693865954875946045e-01,2.529065907001495361e-01,2.348606139421463013e-01,2.489709705114364624e-01,2.405817210674285889e-01,2.800248861312866211e-01,1.860226690769195557e-01,2.261510491371154785e-02,6.054659187793731689e-02,1.030363515019416809e-01,1.289417892694473267e-01,1.846432983875274658e-01,1.406799703836441040e-01,9.503162652254104614e-02,2.142688930034637451e-01,1.355427503585815430e-01,1.414529383182525635e-01,-3.663568198680877686e-02,1.967682838439941406e-01,8.701553940773010254e-02,5.172516033053398132e-02,6.735412031412124634e-02,1.110635814256966114e-03,1.826035380363464355e-01,-1.150459423661231995e-01,1.340017467737197876e-01,8.749226480722427368e-02,1.461161971092224121e-01,3.309684395790100098e-01,2.072723023593425751e-02,2.417408972978591919e-01
8.094102144241333008e-02,1.100834161043167114e-01,1.007918938994407654e-01,2.992606759071350098e-01,2.187921255826950073e-01,1.694802492856979370e-01,2.616883721202611923e-04,1.016307920217514038e-01,2.398255094885826111e-02,9.904440492391586304e-02,9.610975533723831177e-02,9.368543326854705811e-02,2.630876190960407257e-02,2.204855978488922119e-01,8.961185812950134277e-03,-6.982562690973281860e-02,3.289094567298889160e-01,2.571003437042236328e-01,3.294499814510345459e-01,4.206411540508270264e-03,1.982740163803100586e-01,-5.484304204583168030e-02,1.841020584106445312e-01,1.053596138954162598e-01,4.583289474248886108e-02,2.045260965824127197e-01,6.238148361444473267e-02,2.575915753841400146e-01,2.165365815162658691e-01,3.640404641628265381e-01,-1.102940645068883896e-02,-5.130483955144882202e-02,3.162296414375305176e-01,2.198862284421920776e-01,2.155155539512634277e-01,2.382225394248962402e-01,2.966118156909942627e-01,4.357132315635681152e-02,2.123266309499740601e-01,2.089709937572479248e-01
2.466976791620254517e-01,5.785640329122543335e-03,1.767517775297164917e-01,1.444734632968902588e-01,2.310614585876464844e-01,2.267415374517440796e-01,4.526062309741973877e-02,2.781568169593811035e-01,8.810024708509445190e-02,2.373256236314773560e-01,6.316184252500534058e-02,3.214881420135498047e-01,1.058930382132530212e-01,7.204172015190124512e-02,1.470474898815155029e-01,8.275678381323814392e-03,4.269468039274215698e-02,3.278195261955261230e-01,2.186764776706695557e-01,7.684083282947540283e-02,6.167153269052505493e-02,2.202919572591781616e-01,-5.970222991891205311e-04,1.316452622413635254e-01,-1.276321616023778915e-02,5.205102637410163879e-02,2.426944226026535034e-01,1.823175549507141113e-01,8.791602402925491333e-02,1.429155319929122925e-01,-3.801283240318298340e-02,2.081753760576248169e-01,1.092533171176910400e-01,2.056686729192733765e-01,2.296182066202163696e-01,1.476453989744186401e-01,4.754674062132835388e-02,1.321366727352142334e-01,6.755991280078887939e-02,1.446255147457122803e-01
1.445997357368469238e-01,2.027179449796676636e-01,5.360127612948417664e-02,-5.280668288469314575e-02,1.440790593624114990e-01,1.413644999265670776e-01,8.448658138513565063e-02,3.305557966232299805e-01,1.232163086533546448e-01,9.162084758281707764e-02,2.483231723308563232e-01,1.257944554090499878e-01,5.943637713789939880e-02,6.413599103689193726e-02,2.184403985738754272e-01,5.787624791264533997e-02,4.989025369286537170e-02,2.239736467599868774e-01,1.148950010538101196e-01,2.933729067444801331e-02,1.332316398620605469e-01,2.584102153778076172e-01,8.874793350696563721e-02,2.266915738582611084e-01,1.879361271858215332e-01,3.304684162139892578e-02,2.234466075897216797e-01,8.241715282201766968e-02,-4.160525649785995483e-02,2.551701366901397705e-01,1.353292167186737061e-01,2.191841006278991699e-01,3.059768490493297577e-02,2.142685353755950928e-01,2.652674317359924316e-01,1.167396232485771179e-01,3.227862715721130371e-02,1.660397499799728394e-01,8.848466910421848297e-03,7.224555313587188721e-02
3.337568044662475586e-01,7.220301032066345215e-02,1.603148430585861206e-01,1.586363315582275391e-01,2.070455849170684814e-01,1.658968627452850342e-01,2.509084045886993408e-01,2.588194012641906738e-01,1.541188508272171021e-01,1.345140635967254639e-01,4.892925545573234558e-02,2.205653190612792969e-01,2.760789692401885986e-01,1.120768487453460693e-01,1.962480545043945312e-01,2.237602770328521729e-01,9.799779951572418213e-02,2.781900763511657715e-01,3.449141383171081543e-01,1.482177525758743286e-01,2.826699428260326385e-02,8.585444837808609009e-02,2.017775923013687134e-01,3.279662728309631348e-01,1.111272946000099182e-01,-4.474766552448272705e-02,1.934842765331268311e-01,-1.039953622967004776e-02,1.827423721551895142e-01,1.521255373954772949e-01,2.060180604457855225e-01,3.139185309410095215e-01,2.062196880578994751e-01,7.501567155122756958e-02,2.847365438938140869e-01,1.436440199613571167e-01,2.624479830265045166e-01,3.404005467891693115e-01,7.782717701047658920e-03,3.096896708011627197e-01
-2.018586844205856323e-01,6.032069399952888489e-02,9.605325013399124146e-02,4.772689566016197205e-02,-5.753630306571722031e-03,-9.705084562301635742e-02,-6.653691828250885010e-02,8.530946448445320129e-03,4.897940903902053833e-03,2.806813456118106842e-02,9.165106713771820068e-02,-1.179753057658672333e-02,-2.537432312965393066e-02,1.352056711912155151e-01,1.433065235614776611e-01,7.249221205711364746e-02,-1.477292627096176147e-01,-1.786999106407165527e-01,4.857012256979942322e-02,-5.780653282999992371e-02,1.677969284355640411e-02,2.558118104934692383e-01,1.207135394215583801e-01,-1.300229728221893311e-01,-9.545329213142395020e-02,1.001660823822021484e-01,6.902553886175155640e-02,1.232564151287078857e-01,-2.027362734079360962e-01,3.789351880550384521e-02,-3.584260493516921997e-02,1.264419257640838623e-01,1.230423972010612488e-01,9.317956864833831787e-02,7.386156916618347168e-02,7.357692718505859375e-02,-1.948999166488647461e-01,1.325398981571197510e-01,1.374105960130691528e-01,5.158735066652297974e-02
2.032287567853927612e-01,1.355548799037933350e-01,-1.004881225526332855e-02,1.109039038419723511e-01,6.407534331083297729e-02,2.157478034496307373e-01,1.577702313661575317e-01,1.182683706283569336e-01,9.926211088895797729e-02,1.990631520748138428e-01,-1.615352369844913483e-02,1.475779116153717041e-01,-8.727255463600158691e-02,3.091117180883884430e-02,9.178148955106735229e-02,1.625908166170120239e-02,8.881867676973342896e-02,-1.828127950429916382e-01,1.798730641603469849e-01,4.733978956937789917e-02,-3.731336817145347595e-02,3.824895918369293213e-01,4.998369887471199036e-02,1.429604589939117432e-01,7.036454230546951294e-02,9.216345846652984619e-02,1.198836117982864380e-01,2.061393707990646362e-01,1.747124344110488892e-01,9.333556890487670898e-02,-9.432757273316383362e-03,2.098017036914825439e-01,8.833355456590652466e-02,1.289024204015731812e-01,1.600190252065658569e-01,3.239797428250312805e-02,1.651544123888015747e-01,2.927353978157043457e-01,-1.352369189262390137e-01,5.407872796058654785e-02
2.453506886959075928e-01,4.657343402504920959e-02,1.700711995363235474e-01,9.826088696718215942e-02,1.778871715068817139e-01,7.304371148347854614e-02,2.221776396036148071e-01,-1.906352341175079346e-01,2.679765224456787109e-01,4.324650019407272339e-02,2.696680724620819092e-01,1.417995393276214600e-01,1.499502509832382202e-01,1.049278825521469116e-01,5.281603708863258362e-02,2.435935437679290771e-01,1.929737925529479980e-01,-2.990793995559215546e-02,2.445505708456039429e-01,1.379296183586120605e-02,8.818838000297546387e-02,5.519652739167213440e-02,2.511855661869049072e-01,5.429471377283334732e-03,5.086024478077888489e-02,1.885999739170074463e-01,2.437602132558822632e-01,8.509138971567153931e-02,3.860246017575263977e-02,3.354118466377258301e-01,1.249641459435224533e-02,3.199162781238555908e-01,5.607554316520690918e-02,3.469032794237136841e-02,1.544253528118133545e-01,1.827121712267398834e-02,1.993471831083297729e-01,-9.098256938159465790e-03,1.619253158569335938e-01,2.279019802808761597e-01
1.283254623413085938e-01,1.579547822475433350e-01,3.162309229373931885e-01,1.871207207441329956e-01,4.111702367663383484e-02,1.351934224367141724e-01,1.537123322486877441e-01,1.140796765685081482e-01,1.030349433422088623e-01,3.508275374770164490e-02,2.495721727609634399e-01,2.205186784267425537e-01,-3.958142548799514771e-02,1.361525952816009521e-01,2.212104499340057373e-01,2.333700656890869141e-01,1.801351457834243774e-01,7.479550689458847046e-02,6.750997155904769897e-03,2.326036393642425537e-01,1.759147197008132935e-01,3.909661173820495605e-01,1.789476871490478516e-01,1.557236760854721069e-01,6.627772003412246704e-02,1.362094432115554810e-01,4.706976190209388733e-02,5.355593189597129822e-02,2.141866087913513184e-01,-2.065471187233924866e-02,3.643152117729187012e-02,7.447078824043273926e-02,-3.658742085099220276e-02,1.053531616926193237e-01,4.498320072889328003e-02,8.403712511062622070e-02,-1.378189474344253540e-01,3.124552667140960693e-01,5.418599396944046021e-02,1.957365423440933228e-01
9.222032874822616577e-02,1.053962111473083496e-01,1.675525754690170288e-01,6.738264113664627075e-02,3.942920863628387451e-01,3.615916073322296143e-01,3.872030079364776611e-01,3.548734784126281738e-01,1.526505351066589355e-01,5.961197614669799805e-02,-1.604464277625083923e-02,3.676087558269500732e-01,3.124926984310150146e-01,2.444642037153244019e-01,3.385134786367416382e-02,1.590798348188400269e-01,1.433371156454086304e-01,2.720289528369903564e-01,3.243291974067687988e-01,2.366329282522201538e-01,2.826221585273742676e-01,5.000811815261840820e-02,2.353294789791107178e-01,2.412137538194656372e-01,2.665094137191772461e-01,1.148426830768585205e-01,3.245789110660552979e-01,1.676367372274398804e-01,3.289547562599182129e-01,1.727100908756256104e-01,2.818633019924163818e-01,2.439116537570953369e-01,1.598951518535614014e-01,6.259505450725555420e-02,2.409094870090484619e-01,3.002950223162770271e-03,1.006239801645278931e-01,6.958145648241043091e-03,1.373700052499771118e-01,1.201655268669128418e-01
2.110244780778884888e-01,3.012835383415222168e-01,2.637267112731933594e-01,4.664132371544837952e-02,7.780666649341583252e-02,1.942823082208633423e-02,1.008952781558036804e-01,2.523879706859588623e-01,-3.421691432595252991e-02,2.950043976306915283e-02,9.950446337461471558e-02,-2.303852140903472900e-02,1.705411821603775024e-01,1.771651059389114380e-01,6.578341871500015259e-02,8.850053697824478149e-02,2.166124135255813599e-01,2.830825746059417725e-01,1.314517557621002197e-01,2.899178862571716309e-01,7.195169106125831604e-03,2.397824227809906006e-01,1.705662459135055542e-01,-2.786867693066596985e-02,2.161397039890289307e-01,8.902471512556076050e-02,2.393462322652339935e-02,2.514871954917907715e-01,8.429014682769775391e-02,4.306174442172050476e-02,2.456783950328826904e-01,9.787666797637939453e-02,1.815260499715805054e-01,2.906667292118072510e-01,1.263062655925750732e-01,3.036708533763885498e-01,2.115461416542530060e-02,-7.325308024883270264e-02,2.790186926722526550e-02,3.024769127368927002e-01
3.487394750118255615e-01,1.412765532732009888e-01,-3.902925923466682434e-02,8.230770379304885864e-02,2.695500850677490234e-01,9.660292416810989380e-02,-3.209425136446952820e-02,2.671198546886444092e-01,-1.259169727563858032e-02,2.117707431316375732e-01,2.425108104944229126e-01,-2.876099385321140289e-02,1.026497855782508850e-01,-2.919075824320316315e-02,-3.814971446990966797e-02,1.651170700788497925e-01,6.754646450281143188e-02,1.903881132602691650e-01,2.324779517948627472e-02,9.090187400579452515e-02,1.392791569232940674e-01,3.575609922409057617e-01,8.545395731925964355e-02,3.035593330860137939e-01,2.366447895765304565e-01,9.183523058891296387e-02,1.865420937538146973e-01,2.729582190513610840e-01,1.691284179687500000e-01,1.987375020980834961e-01,1.119328886270523071e-01,3.204798400402069092e-01,7.039946317672729492e-02,-2.122505605220794678e-01,6.983357667922973633e-02,3.100772202014923096e-01,1.862647682428359985e-01,-2.032959312200546265e-01,-2.538448944687843323e-02,3.298355042934417725e-01
-1.307709887623786926e-02,1.899146586656570435e-01,-2.480402030050754547e-02,-3.831997886300086975e-02,2.684508562088012695e-01,2.546804249286651611e-01,2.412313669919967651e-01,3.247495889663696289e-01,2.357639968395233154e-01,-2.683270163834095001e-02,-3.372039273381233215e-02,2.609218358993530273e-01,1.432063728570938110e-01,-5.755800753831863403e-02,2.735323011875152588e-01,4.133946821093559265e-02,1.306266337633132935e-01,1.515435278415679932e-01,-1.652077399194240570e-02,1.141158342361450195e-01,-1.875215396285057068e-02,1.899389177560806274e-01,-3.134925663471221924e-02,1.046967580914497375e-01,3.071849234402179718e-02,6.556847691535949707e-02,1.646547466516494751e-01,4.094394855201244354e-03,-2.036624588072299957e-02,5.410259217023849487e-02,1.064086854457855225e-01,9.462814778089523315e-02,2.053483575582504272e-02,1.710188984870910645e-01,5.579590052366256714e-02,1.788274496793746948e-01,7.804385572671890259e-02,1.931523345410823822e-02,2.889113724231719971e-01,-5.732300877571105957e-02
1.692094057798385620e-01,2.057112008333206177e-01,1.011218801140785217e-01,1.291442960500717163e-01,4.102104809135198593e-03,3.212645649909973145e-01,3.424198031425476074e-01,1.816155314445495605e-01,1.867194660007953644e-02,4.757617786526679993e-02,2.526944875717163086e-01,-5.212473683059215546e-03,3.150222003459930420e-01,-7.344335317611694336e-03,2.140683680772781372e-01,1.286017000675201416e-01,2.134790867567062378e-01,2.228890210390090942e-01,2.156332284212112427e-01,-1.467299275100231171e-02,2.844403684139251709e-01,3.225748240947723389e-01,5.303542315959930420e-02,2.903763391077518463e-02,6.787181645631790161e-02,2.998782992362976074e-01,2.894624471664428711e-01,2.432764321565628052e-01,9.332009404897689819e-02,5.713596194982528687e-02,1.676365137100219727e-01,1.101917698979377747e-01,-1.348331291228532791e-02,-2.344754338264465332e-02,2.197173237800598145e-01,1.725140661001205444e-01,7.297385949641466141e-03,1.342046707868576050e-01,3.240565955638885498e-01,1.979866921901702881e-01
2.243254035711288452e-01,2.816293537616729736e-01,1.364731043577194214e-01,1.813846677541732788e-01,2.218282818794250488e-01,1.751024872064590454e-01,1.736302673816680908e-01,6.628103554248809814e-02,2.776623666286468506e-01,3.000069856643676758e-01,2.395497411489486694e-01,1.052040699869394302e-02,3.070855140686035156e-01,1.210345923900604248e-01,7.201139349490404129e-03,1.302566230297088623e-01,3.142606019973754883e-01,-8.960886858403682709e-03,3.338043093681335449e-01,3.233425319194793701e-01,2.034795731306076050e-01,6.079959869384765625e-02,1.906445920467376709e-01,3.127338886260986328e-01,2.056986689567565918e-01,3.033596873283386230e-01,1.153431162238121033e-01,4.592124223709106445e-01,2.340431660413742065e-01,2.926200032234191895e-01,1.879299730062484741e-01,8.411834388971328735e-02,4.191077873110771179e-02,5.218597054481506348e-01,2.132270932197570801e-01,3.019469976425170898e-01,1.240811571478843689e-01,4.809578955173492432e-01,9.371202439069747925e-02,1.750269979238510132e-01
-1.143087670207023621e-01,-8.050006628036499023e-02,1.833820641040802002e-01,9.314452111721038818e-02,9.404710680246353149e-02,2.136892974376678467e-01,-1.992477476596832275e-01,-1.314902901649475098e-01,2.406440824270248413e-01,6.136543303728103638e-02,7.327494025230407715e-02,1.776394397020339966e-01,-3.343486925587058067e-03,7.902109622955322266e-02,-1.214948520064353943e-01,-2.851169323548674583e-03,1.979328989982604980e-01,-8.605814725160598755e-02,3.460975736379623413e-02,2.056662887334823608e-01,1.209775209426879883e-01,-9.430315345525741577e-02,4.258298501372337341e-02,1.750056445598602295e-02,3.435785770416259766e-01,-1.918852515518665314e-02,-4.319870844483375549e-02,-1.821790449321269989e-02,2.321576029062271118e-01,1.912936866283416748e-01,-9.090340882539749146e-02,3.432281315326690674e-02,5.457705259323120117e-02,1.346879918128252029e-02,2.752292342483997345e-02,8.596936613321304321e-02,1.869386881589889526e-01,2.593191564083099365e-01,1.155402958393096924e-01,9.300234168767929077e-02
2.286883443593978882e-01,-7.038057316094636917e-03,-1.263618320226669312e-01,9.670804440975189209e-02,7.586932182312011719e-02,2.254196256399154663e-01,-5.302687734365463257e-02,-1.437643766403198242e-01,2.458717441186308861e-03,-1.753258518874645233e-02,-1.337907910346984863e-01,2.063266932964324951e-01,1.231816112995147705e-01,-1.027196869254112244e-01,1.675579845905303955e-01,1.029209420084953308e-01,7.360766083002090454e-02,1.226153150200843811e-01,1.109763681888580322e-01,2.695080041885375977e-01,-1.574617996811866760e-02,-1.959683299064636230e-01,-7.658812403678894043e-02,1.845781654119491577e-01,1.589270830154418945e-01,2.589502371847629547e-02,1.021572276949882507e-01,1.108781993389129639e-01,1.103093102574348450e-01,-1.071206927299499512e-01,2.418280020356178284e-02,5.210146680474281311e-02,2.156764268875122070e-01,1.103821173310279846e-01,8.517227321863174438e-02,1.562376469373703003e-01,-9.860896319150924683e-02,2.571243233978748322e-02,-2.272806689143180847e-02,6.247797980904579163e-02
2.521234750747680664e-01,1.869879513978958130e-01,2.543072104454040527e-01,1.212622821331024170e-01,7.004509121179580688e-02,3.525003492832183838e-01,2.256591916084289551e-01,1.774797290563583374e-01,-3.697841241955757141e-02,1.190086677670478821e-01,2.341248989105224609e-01,1.578973084688186646e-01,2.855832278728485107e-01,3.769073486328125000e-01,2.653293311595916748e-01,1.095937192440032959e-01,2.246854156255722046e-01,3.475914895534515381e-01,3.473774194717407227e-01,4.063284099102020264e-01,9.066933393478393555e-02,-2.398697659373283386e-02,8.572665043175220490e-03,2.101173251867294312e-01,1.009427234530448914e-01,8.755853772163391113e-02,1.575382500886917114e-01,2.549909949302673340e-01,1.081368103623390198e-01,2.136483192443847656e-01,1.901181340217590332e-01,2.430157512426376343e-01,3.173764050006866455e-01,-1.215359941124916077e-01,3.645727410912513733e-02,2.031675167381763458e-02,-5.918825790286064148e-02,1.255813837051391602e-01,7.628532499074935913e-02,1.990548819303512573e-01
7.722690701484680176e-03,-1.663441583514213562e-02,1.523654814809560776e-02,-9.255534037947654724e-03,-2.241503261029720306e-02,-3.458591178059577942e-02,1.015744879841804504e-01,-5.837235972285270691e-02,6.809139996767044067e-02,-4.224097356200218201e-02,4.282062500715255737e-02,9.416078776121139526e-02,1.143239438533782959e-01,-1.771396100521087646e-01,8.428312093019485474e-02,-4.401180520653724670e-02,5.782523378729820251e-02,-7.627869956195354462e-03,3.248315677046775818e-02,-1.465491801500320435e-01,9.669814258813858032e-02,1.122017297893762589e-02,-1.618226319551467896e-01,2.007605582475662231e-01,1.696686446666717529e-02,-1.023546755313873291e-01,5.473996698856353760e-02,-9.869258105754852295e-02,-1.167906746268272400e-01,1.374918669462203979e-01,4.483453929424285889e-02,1.270051002502441406e-01,1.593560725450515747e-01,4.038950428366661072e-02,-1.102893054485321045e-01,-2.021484225988388062e-01,2.356591224670410156e-01,1.384759973734617233e-02,1.384931355714797974e-01,-4.808325320482254028e-03
-5.405276268720626831e-02,-3.146113827824592590e-02,-8.015857636928558350e-02,2.033613175153732300e-01,7.373340427875518799e-02,2.234411239624023438e-01,8.322417736053466797e-02,2.383268177509307861e-01,1.294576525688171387e-01,1.347769945859909058e-01,1.268352568149566650e-02,2.479350715875625610e-01,4.418230429291725159e-02,2.001179940998554230e-02,2.341141849756240845e-01,-9.289789199829101562e-02,2.825012803077697754e-01,-1.029974594712257385e-01,2.339697480201721191e-01,1.187562271952629089e-01,1.107065230607986450e-01,3.955290913581848145e-01,1.246428489685058594e-01,1.827307045459747314e-01,1.404322236776351929e-01,1.579911410808563232e-01,1.411558389663696289e-01,2.898971736431121826e-01,1.539021581411361694e-01,1.270119547843933105e-01,-4.030100256204605103e-02,1.948500722646713257e-01,4.006258025765419006e-02,2.249493449926376343e-01,2.407163679599761963e-01,4.545366764068603516e-02,4.168244451284408569e-02,2.623092532157897949e-01,3.151520341634750366e-02,-1.350168697535991669e-02
4.441603273153305054e-02,1.435684710741043091e-01,4.135838896036148071e-02,1.048679091036319733e-02,3.256875574588775635e-01,2.924417257308959961e-01,1.601317673921585083e-01,2.382386922836303711e-01,3.311591967940330505e-02,1.865136027336120605e-01,1.563478410243988037e-01,6.701409816741943359e-02,4.603427276015281677e-02,3.756282925605773926e-01,2.775970697402954102e-01,2.588737308979034424e-01,1.765825152397155762e-01,2.820410430431365967e-01,2.700974941253662109e-01,1.361235976219177246e-01,8.157742768526077271e-02,2.888413844630122185e-03,-1.727194176055490971e-03,1.965411454439163208e-01,5.530379340052604675e-02,1.832552552223205566e-01,9.838178008794784546e-02,1.300129592418670654e-01,2.454710751771926880e-01,1.378903687000274658e-01,1.029417142271995544e-01,-1.560083031654357910e-02,3.089420199394226074e-01,3.060414791107177734e-01,2.615326941013336182e-01,1.299588233232498169e-01,6.439374387264251709e-02,-1.151699051260948181e-01,3.043717741966247559e-01,5.369408801198005676e-02
2.330017238855361938e-01,1.494087427854537964e-01,7.169919461011886597e-02,2.495792508125305176e-01,2.364934831857681274e-01,5.717600509524345398e-02,1.906760334968566895e-01,1.376845538616180420e-01,-1.723135709762573242e-01,-5.385034903883934021e-02,3.522743284702301025e-02,1.011001169681549072e-01,1.485933512449264526e-01,2.337339147925376892e-02,8.721157908439636230e-02,2.160798758268356323e-01,5.778706073760986328e-02,8.539408445358276367e-02,1.434448510408401489e-01,8.730658143758773804e-02,3.345701396465301514e-01,3.008411526679992676e-01,2.682819664478302002e-01,2.104400545358657837e-01,7.884519547224044800e-02,3.234819322824478149e-02,3.023915458470582962e-03,2.444015890359878540e-01,2.046315968036651611e-01,3.724852949380874634e-02,9.539866447448730469e-02,1.102052479982376099e-01,-1.565959863364696503e-02,-2.157952040433883667e-01,9.141153097152709961e-02,2.638746500015258789e-01,1.727087497711181641e-01,-1.020492147654294968e-02,1.309315115213394165e-01,2.427894249558448792e-02
-1.059533096849918365e-02,1.705570146441459656e-02,8.870635926723480225e-02,1.581757366657257080e-01,1.354886293411254883e-01,3.971777558326721191e-01,2.199718654155731201e-01,1.616671681404113770e-01,7.491135597229003906e-02,2.621841728687286377e-01,1.690939515829086304e-01,3.378375768661499023e-01,1.228752583265304565e-01,2.605328261852264404e-01,4.682601429522037506e-04,4.472953379154205322e-01,-1.520688682794570923e-01,1.471908539533615112e-01,1.275930702686309814e-01,2.315541207790374756e-01,2.663473486900329590e-01,1.481518000364303589e-01,1.105864867568016052e-01,8.976562321186065674e-02,2.285062372684478760e-01,9.912963956594467163e-02,1.847963631153106689e-01,7.207506150007247925e-02,1.699361652135848999e-01,3.411712870001792908e-02,3.603719770908355713e-01,1.575648933649063110e-01,8.846513926982879639e-02,7.229859475046396255e-03,2.426044642925262451e-02,4.364101588726043701e-02,1.230591721832752228e-02,4.955864697694778442e-02,1.993157118558883667e-01,-2.770554088056087494e-02
9.533589333295822144e-02,9.889341890811920166e-02,1.872896105051040649e-01,6.049004942178726196e-02,2.331187278032302856e-01,1.679470092058181763e-01,2.690033614635467529e-01,1.985919326543807983e-01,1.180488988757133484e-01,9.969630837440490723e-02,3.825306519865989685e-02,1.376168429851531982e-01,1.210119388997554779e-02,1.080188155174255371e-01,1.111395284533500671e-01,2.075162902474403381e-02,1.758597493171691895e-01,2.703928351402282715e-01,9.569954127073287964e-02,1.825253665447235107e-01,2.298291921615600586e-01,-5.038201063871383667e-02,1.550605595111846924e-01,3.460301160812377930e-01,3.343088924884796143e-01,5.813488736748695374e-02,2.694559693336486816e-01,6.986077129840850830e-02,-2.407121658325195312e-02,1.640664190053939819e-01,6.103655323386192322e-02,1.597486585378646851e-01,2.209463715553283691e-01,3.369620740413665771e-01,5.080784112215042114e-02,1.679567694664001465e-01,3.687427937984466553e-01,3.253240287303924561e-01,3.179202973842620850e-01,1.618261486291885376e-01
1.052603423595428467e-01,1.547846496105194092e-01,2.460389584302902222e-01,3.037779629230499268e-01,1.698534637689590454e-01,4.932709783315658569e-02,2.335557788610458374e-01,1.909601688385009766e-01,1.510090827941894531e-01,3.121207952499389648e-01,2.640919946134090424e-02,2.538300752639770508e-01,2.187715321779251099e-01,1.204942688345909119e-01,2.738856971263885498e-01,1.860239356756210327e-01,1.189822256565093994e-01,2.088904678821563721e-01,2.106465697288513184e-01,1.876240968704223633e-01,1.290327608585357666e-01,9.185697138309478760e-02,4.555042460560798645e-02,2.976396083831787109e-01,1.138385459780693054e-01,1.053158268332481384e-01,1.135515570640563965e-01,1.594579219818115234e-01,1.948319822549819946e-01,2.313345074653625488e-01,8.117313683032989502e-02,1.784021034836769104e-02,1.625276356935501099e-01,-1.602904051542282104e-01,1.418453007936477661e-01,3.088963031768798828e-01,1.733577996492385864e-01,1.918126046657562256e-01,1.525781154632568359e-01,3.677854686975479126e-02
2.703955173492431641e-01,-3.696012496948242188e-02,7.921227812767028809e-02,-3.156411647796630859e-02,1.808528229594230652e-02,2.052046805620193481e-01,-9.360472857952117920e-02,-6.994985789060592651e-02,-9.874529391527175903e-02,2.367631494998931885e-01,3.083657920360565186e-01,3.697843849658966064e-02,4.723740369081497192e-02,9.068734198808670044e-02,2.694947123527526855e-01,6.364738941192626953e-02,6.777934730052947998e-02,-3.053980134427547455e-02,-1.895921677350997925e-02,3.830444812774658203e-02,-2.447872608900070190e-02,1.572038829326629639e-01,1.444588899612426758e-01,2.705583274364471436e-01,1.596068590879440308e-01,1.228193566203117371e-01,-1.258977055549621582e-01,2.913629710674285889e-01,-1.104367598891258240e-01,1.064098179340362549e-01,2.244986966252326965e-02,2.489966712892055511e-02,1.941047608852386475e-03,-3.595046699047088623e-02,9.949333965778350830e-02,2.406579107046127319e-01,2.262257188558578491e-01,3.589809834957122803e-01,9.895268827676773071e-02,6.375832017511129379e-03
1.298130899667739868e-01,1.200036630034446716e-01,9.695437550544738770e-02,2.746088989078998566e-02,1.766223758459091187e-01,-1.974213682115077972e-02,4.010725766420364380e-02,6.238276138901710510e-02,-1.415697671473026276e-02,3.989228233695030212e-02,-8.504240214824676514e-02,-1.447149068117141724e-01,4.800950735807418823e-02,-3.707392513751983643e-02,-8.912606281228363514e-04,-1.237155031412839890e-02,-1.411881446838378906e-01,-1.194098740816116333e-01,1.785593181848526001e-01,1.045321747660636902e-01,3.490826487541198730e-02,1.356262862682342529e-01,1.790126711130142212e-01,-7.004675269126892090e-02,1.346423327922821045e-01,-1.452478617429733276e-01,-9.442327171564102173e-02,2.567761242389678955e-01,1.037591323256492615e-02,-1.071059703826904297e-01,1.765182316303253174e-01,1.648815125226974487e-01,1.117294207215309143e-01,-6.979042291641235352e-02,-3.172066295519471169e-03,-3.715428337454795837e-02,-8.561597764492034912e-02,1.872117370367050171e-01,2.751386351883411407e-02,1.498873382806777954e-01
3.526637256145477295e-01,2.710247635841369629e-01,1.675013601779937744e-01,1.531736403703689575e-01,2.489800602197647095e-01,1.258402615785598755e-01,1.181274056434631348e-01,-8.426787704229354858e-02,1.623447835445404053e-01,1.511556804180145264e-01,1.433783322572708130e-01,6.679152697324752808e-02,1.260317116975784302e-01,6.919277459383010864e-02,2.935915589332580566e-01,2.316326349973678589e-01,2.626401372253894806e-02,1.412145793437957764e-01,-2.022008225321769714e-02,6.685861200094223022e-02,1.364800631999969482e-01,4.812709987163543701e-02,5.339859426021575928e-02,2.757313251495361328e-01,1.141645312309265137e-01,8.945724111981689930e-04,1.516957730054855347e-01,6.906942278146743774e-02,1.571079492568969727e-01,1.875154972076416016e-01,-1.533816661685705185e-02,2.984804213047027588e-01,3.243131637573242188e-01,-6.298479437828063965e-02,1.603668481111526489e-01,1.684783399105072021e-01,7.077574729919433594e-02,1.169387996196746826e-01,3.105087578296661377e-01,2.070230245590209961e-02
2.372788488864898682e-01,1.400517970323562622e-01,9.817375242710113525e-02,1.135063022375106812e-01,3.015848994255065918e-01,2.887951731681823730e-01,6.225708127021789551e-02,2.160085439682006836e-01,1.167497709393501282e-01,9.698566980659961700e-03,1.714819818735122681e-01,8.110556751489639282e-02,2.823129594326019287e-01,2.167646884918212891e-01,7.885211706161499023e-02,1.420878916978836060e-01,1.585202366113662720e-01,2.964862585067749023e-01,2.735669016838073730e-01,3.490216434001922607e-01,3.903470635414123535e-01,-1.567239016294479370e-01,1.982842087745666504e-01,3.255249932408332825e-02,2.645210325717926025e-01,1.962896734476089478e-01,1.547487080097198486e-01,2.440169751644134521e-01,5.942589044570922852e-02,1.126550510525703430e-01,2.126065790653228760e-01,8.240442723035812378e-02,7.852835953235626221e-02,2.135871946811676025e-01,3.080082833766937256e-01,2.353329658508300781e-01,1.976770162582397461e-01,6.477675586938858032e-02,1.377598494291305542e-01,2.250727415084838867e-01
