-2.071377784013748169e-01,6.527557224035263062e-02,4.594946652650833130e-02,-4.026688039302825928e-01,-1.383159309625625610e-01,1.082670222967863083e-02,3.947014212608337402e-01,6.592198610305786133e-01,4.660120978951454163e-02,-6.648147702217102051e-01,-1.561873257160186768e-01,1.547788977622985840e-01,2.798090279102325439e-01,2.466786503791809082e-01,2.693763561546802521e-02,-3.482026457786560059e-01,1.304609775543212891e-01,-1.641306877136230469e-01,-7.137699052691459656e-03,-2.274499684572219849e-01,-1.229258836247026920e-03,7.857410907745361328e-01,-4.073306173086166382e-02,1.699220538139343262e-01,-3.299743533134460449e-01,6.731056571006774902e-01,-6.796865910291671753e-02,5.621294379234313965e-01,5.344236269593238831e-02,6.435001641511917114e-02,2.836165428161621094e-01,3.495294749736785889e-01,3.045131266117095947e-02,2.513863444328308105e-01,5.302644371986389160e-01,-3.466486036777496338e-01,1.805422008037567139e-01,5.037968158721923828e-01,-3.598439395427703857e-01,1.340532209724187851e-02,1.602797210216522217e-01,-1.603587567806243896e-01,2.325492352247238159e-01,-2.669405639171600342e-01,-4.673885405063629150e-01,-6.436078548431396484e-01,1.421357095241546631e-01,-4.827663600444793701e-01,-1.280540823936462402e-01,7.138644456863403320e-01,1.068644970655441284e-01,7.367836833000183105e-01,-2.442435175180435181e-01,-2.922832965850830078e-02,-2.323089540004730225e-01,-7.056918460875749588e-03,1.157859787344932556e-01,4.117629826068878174e-01,-2.623990476131439209e-01,9.865537285804748535e-02,-4.043653309345245361e-01,-1.737820915877819061e-02,-5.179316401481628418e-01,1.136570721864700317e-01,6.187218055129051208e-02,-2.128618359565734863e-01,-4.240606129169464111e-01,3.082844242453575134e-02,5.997036099433898926e-01,-9.810448437929153442e-02,-2.722861468791961670e-01,3.050598502159118652e-01,-7.111921310424804688e-01,-3.017288148403167725e-01,-4.591470062732696533e-01,-1.307936608791351318e-01,6.250291466712951660e-01,4.855244234204292297e-02,-1.251122541725635529e-02,-1.969147920608520508e-01,5.736107826232910156e-01,-3.552472591400146484e-01,-1.773334145545959473e-01,-1.660309731960296631e-01,4.651410281658172607e-01,6.274296045303344727e-01,-4.244842231273651123e-01,-1.651109755039215088e-01,-1.205128878355026245e-01,-6.069098114967346191e-01,-8.748010545969009399e-02,6.883645057678222656e-02,-3.911018744111061096e-02,6.444548368453979492e-01,-1.654294580221176147e-01,-4.831946790218353271e-01,6.010549068450927734e-01,4.759707748889923096e-01,5.224805697798728943e-02,-4.482423663139343262e-01,-5.602680444717407227e-01,-3.019234538078308105e-01,-2.656907439231872559e-01,1.208785101771354675e-01,5.646507441997528076e-02,7.310082316398620605e-01,-1.829076856374740601e-01,-3.501321971416473389e-01,-9.959120303392410278e-02,-4.183912277221679688e-01,6.385027170181274414e-01,-1.301959995180368423e-02,-1.108111348003149033e-02,-5.176100879907608032e-02,7.010424137115478516e-01,3.737596794962882996e-02,-3.105080127716064453e-01,-3.511870801448822021e-01,6.361442208290100098e-01,1.759197115898132324e-01,9.891639463603496552e-03,6.240714192390441895e-01,4.069899618625640869e-01,-1.778544113039970398e-02,-3.274412751197814941e-01,5.032202005386352539e-01,4.875205755233764648e-01,2.621369995176792145e-02,-3.643158674240112305e-01,4.779705703258514404e-01,2.073459923267364502e-01,-1.474380791187286377e-01,-5.766618996858596802e-02,9.412730485200881958e-02,-2.260085046291351318e-01,8.192197978496551514e-02,-1.284096091985702515e-01,5.758848786354064941e-02,-9.092328138649463654e-03,-4.651418030261993408e-01,-1.950600892305374146e-01,-2.088088393211364746e-01,-3.238292932510375977e-01,5.378635972738265991e-02,1.751036942005157471e-01,-5.853403732180595398e-02,-4.319140017032623291e-01,-2.218233197927474976e-01,-3.697990179061889648e-01,3.522796928882598877e-02,8.195045590400695801e-02,-1.285959035158157349e-01,-2.498699724674224854e-01,-4.243871271610260010e-01,1.831357777118682861e-01,7.585301250219345093e-02,4.844043031334877014e-02,3.345947563648223877e-01,-1.086555048823356628e-01,-5.263980478048324585e-02,-2.799148857593536377e-01,1.078582704067230225e-01,-2.514114379882812500e-01,1.058490127325057983e-01,4.064418002963066101e-02,-8.769481629133224487e-02,2.111222445964813232e-01,9.595330804586410522e-02,3.991637825965881348e-01,5.819312930107116699e-01,-6.239983811974525452e-02,5.874349474906921387e-01,1.535498201847076416e-01,1.215427890419960022e-01,-4.551765322685241699e-01,-1.922612488269805908e-01,6.700972318649291992e-01,5.910900235176086426e-01,-2.143778055906295776e-01,-5.607359409332275391e-01,-1.400399655103683472e-01,-1.443964689970016479e-01,-4.591709077358245850e-01,1.080403104424476624e-02,-4.937950149178504944e-02,1.394331157207489014e-01,1.423259377479553223e-01,-5.790472626686096191e-01,-2.897774875164031982e-01,2.535358071327209473e-01,4.918114095926284790e-02,1.886113137006759644e-01,2.998190820217132568e-01,-5.775656104087829590e-01,4.829789996147155762e-01,2.772757709026336670e-01,-3.747708722949028015e-02,1.262192875146865845e-01,-6.117292493581771851e-02,-1.725288666784763336e-02
7.631670683622360229e-02,-1.179324164986610413e-01,1.066695302724838257e-01,-9.029268473386764526e-02,-6.615706533193588257e-02,-3.406066447496414185e-02,2.135644480586051941e-02,1.755249127745628357e-02,2.864581905305385590e-02,4.841622710227966309e-02,-2.908961288630962372e-02,6.308271735906600952e-02,5.822881124913692474e-03,-1.902504637837409973e-02,-1.203650087118148804e-01,-2.294779755175113678e-02,4.194897785782814026e-02,-1.218247599899768829e-02,1.413993351161479950e-02,3.735655685886740685e-03,7.749351114034652710e-02,-1.071954332292079926e-02,-1.186771988868713379e-01,2.769103646278381348e-02,-1.819506883621215820e-01,2.576021291315555573e-02,2.785424590110778809e-01,4.006363078951835632e-02,-7.317651808261871338e-02,-1.008907780051231384e-01,-8.333269506692886353e-02,-6.397636979818344116e-02,-7.478892058134078979e-02,4.120381549000740051e-02,1.010413318872451782e-01,5.465726181864738464e-02,4.468412324786186218e-02,-6.096009537577629089e-02,-3.981024771928787231e-02,-1.169946119189262390e-01,-3.815963491797447205e-02,-5.877191200852394104e-03,-3.822858259081840515e-02,-1.755642443895339966e-01,3.812909871339797974e-02,1.517643965780735016e-02,1.028777509927749634e-01,-7.934078574180603027e-02,-1.445052176713943481e-01,3.003008291125297546e-02,2.739729546010494232e-02,3.725389018654823303e-03,3.680863231420516968e-02,-1.210862118750810623e-02,1.996819488704204559e-02,9.356286376714706421e-02,-5.001124367117881775e-02,-1.924856454133987427e-01,-1.674298048019409180e-01,-1.314564496278762817e-01,1.273206993937492371e-02,9.819583594799041748e-02,1.087083518505096436e-01,6.684833765029907227e-02,-7.410635054111480713e-02,-2.752842903137207031e-01,8.695714175701141357e-03,-2.537963911890983582e-02,-3.464152291417121887e-02,-1.366396695375442505e-01,2.288355529308319092e-01,1.504158228635787964e-02,-4.811550304293632507e-02,-1.004881039261817932e-01,1.825669221580028534e-02,-9.927640855312347412e-02,4.419776424765586853e-02,-3.217336535453796387e-02,5.021736957132816315e-03,8.840335905551910400e-02,-4.014703631401062012e-02,2.229686360806226730e-03,1.019185036420822144e-01,8.347176946699619293e-03,-4.013839364051818848e-02,-5.215182900428771973e-02,-6.898128241300582886e-02,5.209286883473396301e-02,9.141094982624053955e-02,-6.198484078049659729e-02,7.046598196029663086e-02,1.086756438016891479e-01,5.665705073624849319e-03,-4.593819379806518555e-02,7.138230651617050171e-02,1.000146418809890747e-01,1.108429357409477234e-01,-9.936402551829814911e-03,4.952003434300422668e-02,-2.945705875754356384e-02,4.972886666655540466e-02,-1.185825914144515991e-01,-1.691460423171520233e-02,-1.981626823544502258e-02,-1.058896072208881378e-02,-3.985542804002761841e-02,1.015238463878631592e-01,-2.168516367673873901e-01,-2.091499269008636475e-01,-3.592640906572341919e-02,-3.880851343274116516e-02,-3.902545198798179626e-02,-1.651187688112258911e-01,5.183576047420501709e-02,1.668130010366439819e-01,-9.306164830923080444e-02,1.658130623400211334e-02,7.929981499910354614e-02,-8.907294832170009613e-03,-3.392313420772552490e-02,1.121955439448356628e-01,-2.991439541801810265e-03,1.234884038567543030e-01,2.633502706885337830e-02,2.911353670060634613e-02,-4.893194511532783508e-02,-5.120718479156494141e-02,3.733760118484497070e-02,3.136243671178817749e-02,-1.362999249249696732e-02,3.224503993988037109e-02,-4.663605988025665283e-02,-9.123019129037857056e-02,-8.191764354705810547e-02,1.282319426536560059e-01,-1.188485324382781982e-01,-1.066197976469993591e-01,-9.010563045740127563e-02,-7.688113301992416382e-02,1.394211202859878540e-01,4.583811014890670776e-02,1.671427786350250244e-01,7.787138968706130981e-02,4.971063137054443359e-02,7.020815461874008179e-02,4.278655350208282471e-02,2.628784254193305969e-02,-5.740619450807571411e-02,-8.112870156764984131e-02,1.830524764955043793e-02,-9.032607078552246094e-02,1.764203608036041260e-01,-1.200113520026206970e-01,-2.362054772675037384e-02,1.065291613340377808e-01,-9.590393304824829102e-02,4.735163971781730652e-02,8.972171694040298462e-02,2.189824283123016357e-01,-3.860012814402580261e-02,3.487977012991905212e-02,1.371180564165115356e-01,-1.555768847465515137e-01,8.809938281774520874e-02,-5.872461572289466858e-02,2.127736359834671021e-01,-7.315828464925289154e-03,4.583827219903469086e-03,-1.204911395907402039e-01,-7.539936900138854980e-02,-4.069973155856132507e-02,-1.279827207326889038e-01,1.954321563243865967e-01,-6.463079154491424561e-02,4.561568796634674072e-02,5.706898868083953857e-02,-2.129272185266017914e-02,-5.385858193039894104e-02,-1.561872544698417187e-03,6.773573160171508789e-02,3.120206110179424286e-02,-1.211317405104637146e-01,-2.112412303686141968e-01,3.631944069638848305e-03,1.857109367847442627e-02,6.065403297543525696e-02,1.334996800869703293e-02,-7.588774710893630981e-02,1.520949155092239380e-01,-1.059753149747848511e-01,3.048221394419670105e-02,9.096252173185348511e-02,6.902079284191131592e-02,-5.996278300881385803e-02,-3.020353242754936218e-02,-3.230888769030570984e-02,-4.422646015882492065e-02,-1.792039424180984497e-01,1.632246524095535278e-01,-3.929944708943367004e-03
7.689332216978073120e-02,-1.098774187266826630e-02,9.658431634306907654e-03,3.628960251808166504e-02,-8.804901689291000366e-02,5.020719766616821289e-02,-4.306520149111747742e-02,9.059406816959381104e-02,-8.459158986806869507e-02,3.129516914486885071e-02,-1.004955247044563293e-01,1.193578615784645081e-01,1.217634305357933044e-01,6.154702603816986084e-02,-7.245989143848419189e-02,4.095420613884925842e-02,-1.395906060934066772e-01,-4.107190296053886414e-02,9.493102319538593292e-03,1.367283016443252563e-01,3.282549604773521423e-02,-1.247302144765853882e-01,2.092621475458145142e-02,7.253533601760864258e-02,7.905280590057373047e-02,-1.050280258059501648e-01,-1.204459816217422485e-01,-1.459105499088764191e-02,7.284118980169296265e-02,9.363061189651489258e-02,1.524167787283658981e-02,-1.211668597534298897e-03,1.346994042396545410e-01,8.449508994817733765e-02,-5.536721646785736084e-02,1.943924278020858765e-02,-1.035164520144462585e-01,-1.727079972624778748e-02,1.029684320092201233e-01,1.353684514760971069e-01,7.357387244701385498e-02,3.819574415683746338e-02,-2.420376427471637726e-02,-9.177295863628387451e-02,7.307661324739456177e-02,4.545543342828750610e-02,7.755564898252487183e-02,4.180715605616569519e-02,8.206638693809509277e-02,-2.225379645824432373e-02,-9.772276878356933594e-02,-7.744798064231872559e-02,8.982345461845397949e-02,-8.829633705317974091e-03,6.592456251382827759e-02,1.146940607577562332e-02,-9.575502015650272369e-03,1.674039661884307861e-02,-2.348553389310836792e-02,7.216512411832809448e-02,-1.138395145535469055e-01,-3.385107219219207764e-02,1.003711298108100891e-01,3.307176753878593445e-02,2.471578307449817657e-02,-9.260800480842590332e-02,1.247101649641990662e-01,-7.549411058425903320e-02,8.299472741782665253e-03,6.097315624356269836e-02,4.434558749198913574e-02,-1.089814007282257080e-01,8.562251925468444824e-02,-2.055221982300281525e-02,-7.940790802240371704e-02,-5.368697270750999451e-02,-3.009495325386524200e-02,-1.462053954601287842e-01,7.506167143583297729e-02,-2.170387189835309982e-03,-4.200571030378341675e-02,7.939847558736801147e-02,6.303323805332183838e-02,-2.727465890347957611e-02,-9.638874232769012451e-02,7.083152234554290771e-02,9.088856726884841919e-02,5.078050494194030762e-02,-1.270274072885513306e-01,7.480409741401672363e-02,7.339163124561309814e-02,-1.080780848860740662e-01,-6.348893791437149048e-02,5.060856416821479797e-02,-9.931176900863647461e-02,-2.373608993366360664e-03,-1.235360465943813324e-02,-6.739720236510038376e-03,-1.673331670463085175e-02,2.917701844125986099e-03,-5.932375788688659668e-02,1.150050535798072815e-01,1.564418822526931763e-01,6.791303306818008423e-02,8.961072564125061035e-02,-6.691566854715347290e-02,-4.073970019817352295e-02,1.916552893817424774e-02,-6.877572834491729736e-02,-1.489170454442501068e-02,-2.318726107478141785e-02,5.266070738434791565e-02,-7.140263170003890991e-02,4.321357700973749161e-03,-7.534386217594146729e-02,-1.102044954895973206e-01,1.503225509077310562e-02,6.492783129215240479e-02,1.123649626970291138e-02,-1.515007857233285904e-02,3.010064549744129181e-02,-2.251446433365345001e-02,4.113845527172088623e-03,-1.019181832671165466e-01,1.715217381715774536e-01,-8.193276077508926392e-02,-5.690342932939529419e-02,-1.606351695954799652e-02,2.813680842518806458e-02,-9.041126072406768799e-02,-1.181578189134597778e-01,-8.418066799640655518e-02,5.737649276852607727e-02,1.039282158017158508e-01,1.390183866024017334e-01,-2.533622272312641144e-02,1.470499634742736816e-01,2.475941739976406097e-02,-2.204819917678833008e-01,-7.620446383953094482e-02,1.631222851574420929e-02,4.823092743754386902e-02,1.066021770238876343e-01,-3.280070796608924866e-02,-9.062567353248596191e-02,9.720599278807640076e-03,6.506241858005523682e-02,-7.060229778289794922e-02,1.489133946597576141e-02,-7.806689292192459106e-02,-5.997122451663017273e-02,1.384513378143310547e-01,3.538874909281730652e-02,-3.523186082020401955e-03,1.053947675973176956e-02,1.189823970198631287e-01,-1.337174177169799805e-01,8.062253892421722412e-02,6.369505822658538818e-02,-5.129405856132507324e-02,6.355155259370803833e-02,-1.319115012884140015e-01,-3.090038895606994629e-02,-7.752204313874244690e-03,-5.020558461546897888e-02,5.538556724786758423e-02,-4.915625974535942078e-02,-8.375969529151916504e-02,8.192960917949676514e-02,9.829711914062500000e-02,4.561737552285194397e-02,-3.934602811932563782e-02,-1.347382068634033203e-01,2.974619902670383453e-02,1.328195035457611084e-01,1.503104418516159058e-01,-9.879525005817413330e-02,8.086326718330383301e-02,1.558074206113815308e-01,2.622086368501186371e-02,-5.083751678466796875e-02,1.243604198098182678e-01,1.328202057629823685e-02,6.982950866222381592e-02,7.992658764123916626e-02,1.258924882858991623e-02,4.957626760005950928e-02,-6.779040396213531494e-02,2.378383837640285492e-02,-5.158108100295066833e-02,-9.861128032207489014e-02,-2.571180090308189392e-02,4.748883843421936035e-02,9.092070907354354858e-02,-4.193193092942237854e-02,-3.222528472542762756e-02,5.010960623621940613e-02,-1.033139601349830627e-01,-1.724884510040283203e-01,4.110606759786605835e-02
8.053896576166152954e-02,-1.582641303539276123e-01,5.035036057233810425e-02,-3.844271227717399597e-02,8.796347677707672119e-02,8.878222107887268066e-02,1.562823653221130371e-01,2.409898936748504639e-01,6.183332949876785278e-02,1.112312152981758118e-01,1.159030944108963013e-01,6.477252393960952759e-02,6.681271642446517944e-02,-7.764472067356109619e-02,-1.201629862189292908e-01,-1.891689300537109375e-01,2.563897892832756042e-02,1.092783063650131226e-01,-9.903215616941452026e-02,-1.465207487344741821e-01,-2.025538869202136993e-02,-4.367539193481206894e-03,9.265173226594924927e-02,1.598161011934280396e-01,-1.969646811485290527e-01,8.513034321367740631e-03,9.238275699317455292e-03,-9.572936594486236572e-02,-1.614625006914138794e-01,2.923301979899406433e-02,1.543573290109634399e-01,-1.498521566390991211e-01,-5.608246475458145142e-02,5.715637654066085815e-02,2.029225975275039673e-01,-1.499822437763214111e-01,-2.672070860862731934e-01,-8.289443701505661011e-02,5.699884891510009766e-02,-2.339811772108078003e-01,2.060040831565856934e-02,-5.930291861295700073e-02,1.275685727596282959e-01,-3.549382388591766357e-01,-3.580676019191741943e-02,-2.266150563955307007e-01,6.669847667217254639e-02,-3.297071158885955811e-01,-2.162670046091079712e-01,2.635400593280792236e-01,1.352590788155794144e-02,1.053867489099502563e-01,2.190778702497482300e-01,-1.024016663432121277e-01,3.298731520771980286e-02,-9.757961332798004150e-02,-4.249443486332893372e-02,-8.585869520902633667e-02,9.071237593889236450e-02,-1.192436218261718750e-01,1.222938578575849533e-02,6.181350350379943848e-02,-8.860482275485992432e-02,6.778876483440399170e-02,1.872141659259796143e-01,-1.012752205133438110e-01,-3.683051839470863342e-02,-7.416693121194839478e-02,1.294247061014175415e-01,-1.761029213666915894e-01,1.103865280747413635e-01,-1.210732385516166687e-01,1.169002279639244080e-01,-1.816659932956099510e-03,-3.348750174045562744e-01,5.165852233767509460e-02,3.274302780628204346e-01,-3.266987577080726624e-02,-1.765717566013336182e-02,2.268006559461355209e-03,-1.331531535834074020e-02,3.240692615509033203e-02,-4.631817340850830078e-03,1.738319098949432373e-01,1.427557617425918579e-01,-3.763510845601558685e-03,-2.595378458499908447e-01,5.228687822818756104e-02,-8.234455436468124390e-02,-8.186446130275726318e-02,4.131290316581726074e-02,2.065012454986572266e-01,-1.161241456866264343e-01,2.351769059896469116e-01,-6.677337735891342163e-02,1.073934212327003479e-01,-2.691827118396759033e-01,2.309661656618118286e-01,-1.649672165513038635e-02,-1.750541031360626221e-01,-2.964137494564056396e-01,-2.793536782264709473e-01,-1.026592925190925598e-01,-1.770157068967819214e-01,1.182009428739547729e-01,1.313341688364744186e-02,-2.803354561328887939e-01,-6.670287996530532837e-02,-1.193181350827217102e-01,5.038547515869140625e-02,-3.189428895711898804e-02,-2.772016823291778564e-01,3.959096968173980713e-03,-5.200719926506280899e-03,-1.076527610421180725e-01,-1.276684850454330444e-01,-1.057233139872550964e-01,2.750800363719463348e-02,2.063713371753692627e-01,1.495593488216400146e-01,6.650914251804351807e-02,1.418974548578262329e-01,2.302907854318618774e-01,3.413611650466918945e-02,6.572984158992767334e-02,1.901595592498779297e-01,-5.851271748542785645e-02,2.911186590790748596e-02,-1.820903271436691284e-01,1.416436433792114258e-01,-9.941025637090206146e-03,-2.043328732252120972e-01,3.607554361224174500e-02,-5.796504020690917969e-02,3.787942975759506226e-02,-9.353259205818176270e-02,5.430876463651657104e-02,3.634837642312049866e-02,-5.884488672018051147e-02,2.841223776340484619e-02,-3.889333456754684448e-02,-1.282400917261838913e-02,1.171558722853660583e-01,-5.760176107287406921e-02,1.729388087987899780e-01,1.032844111323356628e-01,-2.271715402603149414e-01,1.056651249527931213e-01,-6.513857096433639526e-02,-2.689253389835357666e-01,8.890099823474884033e-02,1.859349310398101807e-01,-2.629569768905639648e-01,-4.384354129433631897e-02,1.799805611371994019e-01,-1.964356005191802979e-02,-1.148821413516998291e-01,2.774622440338134766e-01,1.762710362672805786e-01,1.716434769332408905e-02,-3.489833474159240723e-01,-2.251023501157760620e-01,-1.697493642568588257e-01,9.854220598936080933e-02,1.127877980470657349e-01,5.698245018720626831e-02,3.570150956511497498e-02,-6.995330005884170532e-02,5.347079783678054810e-02,4.024637117981910706e-02,-1.715196967124938965e-01,-2.781217731535434723e-02,5.627605319023132324e-02,2.144514918327331543e-01,-6.067313998937606812e-02,1.060529574751853943e-01,3.235097229480743408e-02,4.076052829623222351e-02,-3.192085772752761841e-02,6.437570601701736450e-02,-1.147292703390121460e-01,5.779649317264556885e-02,-1.493598818778991699e-01,4.005406796932220459e-02,-2.097178846597671509e-01,1.116125285625457764e-01,-1.354252994060516357e-01,-1.800446808338165283e-01,-7.610262185335159302e-02,-1.516138911247253418e-01,-1.679381132125854492e-01,1.624552011489868164e-01,6.701431423425674438e-02,-3.229776024818420410e-01,1.697664558887481689e-01,-1.030586734414100647e-01,9.872290492057800293e-02,-2.184379845857620239e-02,9.843333810567855835e-02,2.044814378023147583e-01
1.806160807609558105e-02,8.941202610731124878e-02,-6.666426360607147217e-02,-2.147842943668365479e-01,-1.392446737736463547e-02,-1.192207038402557373e-01,-2.035405188798904419e-01,-2.228487730026245117e-01,1.041045114398002625e-01,-4.809451103210449219e-02,-2.134515903890132904e-03,2.844779752194881439e-02,1.123199760913848877e-01,-4.348131641745567322e-02,-2.171504497528076172e-01,-1.279458999633789062e-01,1.894000321626663208e-01,-2.491747140884399414e-01,1.170840188860893250e-01,2.791672199964523315e-02,1.092983260750770569e-01,2.566490136086940765e-02,-9.888321161270141602e-03,-4.882759973406791687e-02,-5.946782231330871582e-02,1.371304783970117569e-02,1.020867899060249329e-01,1.612931936979293823e-01,1.970096677541732788e-01,4.041260574012994766e-03,4.206950962543487549e-02,1.986433565616607666e-01,-1.180432811379432678e-01,1.616068035364151001e-01,-2.292431443929672241e-01,-1.165460273623466492e-01,1.772285699844360352e-01,1.420138925313949585e-01,-2.009994834661483765e-01,3.336764872074127197e-02,-1.089118607342243195e-02,5.741186812520027161e-02,-8.389482274651527405e-03,-1.780096068978309631e-02,-3.043112754821777344e-01,-1.612695492804050446e-02,3.030189871788024902e-02,2.899521589279174805e-02,-1.164398901164531708e-02,1.876911520957946777e-02,-1.598976999521255493e-01,-9.621381759643554688e-02,-6.596544384956359863e-02,-1.656048148870468140e-01,7.009920477867126465e-02,-3.285741508007049561e-01,-6.673765182495117188e-02,-1.253809928894042969e-01,3.265801817178726196e-02,1.142719686031341553e-01,-2.171633206307888031e-02,-1.658303663134574890e-02,-7.037267088890075684e-02,-8.046920597553253174e-02,-1.524714082479476929e-01,-8.841083943843841553e-02,-2.308816015720367432e-01,8.171393722295761108e-02,-1.053133085370063782e-01,2.612604498863220215e-01,4.076323285698890686e-02,5.767638236284255981e-02,-1.308423429727554321e-01,-4.789728671312332153e-02,2.225973010063171387e-01,-2.484081871807575226e-02,-6.067124381661415100e-02,2.555303275585174561e-01,3.853787854313850403e-02,5.279689282178878784e-02,1.452014893293380737e-01,-7.767783850431442261e-02,-4.786665737628936768e-02,-3.520807623863220215e-02,4.968784749507904053e-03,9.439399838447570801e-02,-2.255266346037387848e-02,-9.710329025983810425e-02,-6.808695197105407715e-02,-4.225124139338731766e-03,-1.633538305759429932e-01,6.662786006927490234e-02,9.272567927837371826e-02,-3.955186530947685242e-02,1.445046216249465942e-01,1.436684131622314453e-01,-1.655269786715507507e-02,-2.330023050308227539e-01,8.464376628398895264e-02,-1.191679388284683228e-03,8.082477003335952759e-02,5.214526504278182983e-02,5.335719138383865356e-02,2.248969674110412598e-01,2.395277284085750580e-02,9.945286437869071960e-03,1.560288518667221069e-01,9.987504035234451294e-02,1.727978698909282684e-02,-1.294532790780067444e-02,-4.603643715381622314e-02,1.260425001382827759e-01,2.854285836219787598e-01,2.165353894233703613e-01,1.609268784523010254e-02,2.881089411675930023e-02,-3.510786592960357666e-02,-2.183623239398002625e-02,-6.302397698163986206e-02,1.004902645945549011e-02,1.488236933946609497e-01,-1.918011456727981567e-01,-1.122001186013221741e-01,2.446944080293178558e-02,-1.257731467485427856e-01,1.613072454929351807e-01,8.767050690948963165e-03,-3.767641633749008179e-02,1.501969397068023682e-01,-1.162623334676027298e-02,1.079369261860847473e-01,1.462332457304000854e-01,8.973653614521026611e-02,-1.304339617490768433e-01,1.332149207592010498e-01,-4.703576862812042236e-02,-1.800256818532943726e-01,1.011729016900062561e-01,-1.003929413855075836e-02,1.596601754426956177e-01,-1.419749693013727665e-03,1.015039253979921341e-02,7.659422606229782104e-02,-7.832010090351104736e-02,-3.338905870914459229e-01,1.325448006391525269e-01,2.187875658273696899e-01,-1.684030592441558838e-01,-1.174206845462322235e-02,-2.653696946799755096e-02,-1.999320238828659058e-01,-5.142924934625625610e-02,1.309166289865970612e-02,-1.716221570968627930e-01,-1.875458955764770508e-01,1.802632212638854980e-02,2.863064175471663475e-03,8.837341517210006714e-02,1.226010844111442566e-01,-1.312623769044876099e-01,1.811671555042266846e-01,5.898736417293548584e-02,1.419279128313064575e-01,1.189771071076393127e-01,-1.261315494775772095e-01,-1.356482356786727905e-01,-1.522117853164672852e-01,-2.157477736473083496e-01,-2.175817033275961876e-03,1.479406952857971191e-01,2.227751910686492920e-02,-1.915233284235000610e-01,3.804658353328704834e-02,1.017539128661155701e-01,1.591567397117614746e-01,6.290338188409805298e-02,1.420648992061614990e-01,-7.834116369485855103e-02,-1.284892559051513672e-01,-2.318465895950794220e-02,1.063546016812324524e-01,-3.090980947017669678e-01,3.364486619830131531e-03,2.371423691511154175e-02,2.537593990564346313e-02,-2.636855542659759521e-01,9.321560710668563843e-02,1.045643314719200134e-01,-9.912717342376708984e-02,1.611931063234806061e-02,9.710156172513961792e-02,2.207884937524795532e-02,-3.299510478973388672e-02,2.496020197868347168e-01,1.163235008716583252e-01,2.351519465446472168e-01,1.211712416261434555e-02,-5.810005962848663330e-02,-8.557601273059844971e-02,-8.404660969972610474e-02
9.224937856197357178e-02,-1.433819681406021118e-01,9.773881733417510986e-02,1.234965324401855469e-01,-6.650121510028839111e-02,1.631233692169189453e-01,7.477577030658721924e-02,1.635926216840744019e-01,-4.022902250289916992e-02,-9.122766554355621338e-02,-2.225360088050365448e-02,-1.308286096900701523e-02,5.874478444457054138e-02,-2.656586654484272003e-02,1.177224218845367432e-01,-1.751284435158595443e-05,8.566737174987792969e-02,-1.981815248727798462e-01,-3.227264806628227234e-02,-5.523589625954627991e-02,-2.668747492134571075e-02,-3.902884200215339661e-02,2.243652939796447754e-02,5.449994280934333801e-02,-5.873624607920646667e-02,8.146455138921737671e-02,-4.007002338767051697e-03,-1.258602291345596313e-01,1.328642666339874268e-02,1.068277508020401001e-01,6.910789757966995239e-02,-1.655227132141590118e-02,9.327698498964309692e-02,1.348634250462055206e-02,1.510250270366668701e-01,-6.993514299392700195e-02,3.535011783242225647e-02,9.812745265662670135e-03,-6.215370446443557739e-02,8.987987786531448364e-02,3.560556433512829244e-05,-6.844220310449600220e-02,5.608247593045234680e-02,2.157252430915832520e-01,3.358486667275428772e-02,-7.731543481349945068e-02,1.730703711509704590e-01,9.889419376850128174e-02,-1.382276415824890137e-01,9.493777528405189514e-03,-8.755614981055259705e-03,3.366596531122922897e-03,2.834080019965767860e-03,-3.697866108268499374e-03,1.109400838613510132e-01,1.038797795772552490e-01,-4.618041589856147766e-02,1.187801361083984375e-01,-1.286156326532363892e-01,-5.340567231178283691e-02,-2.134251445531845093e-01,4.632432758808135986e-02,-2.776773869991302490e-01,5.182808265089988708e-02,8.575890213251113892e-02,-3.615936636924743652e-02,4.560662060976028442e-02,2.999091148376464844e-02,-1.412868499755859375e-01,-4.381297901272773743e-02,9.639313817024230957e-02,1.668990030884742737e-02,6.216133385896682739e-02,-1.249655038118362427e-01,-1.126868054270744324e-01,3.489331342279911041e-03,-6.228471919894218445e-02,6.320249289274215698e-02,1.134041547775268555e-01,4.940334707498550415e-02,-5.733825266361236572e-02,7.690986245870590210e-02,-2.528950199484825134e-02,3.756143897771835327e-02,1.248600929975509644e-01,-6.313177198171615601e-02,1.209186911582946777e-01,-6.245348975062370300e-02,3.276366740465164185e-02,-8.271202445030212402e-02,4.601086303591728210e-02,-4.585629701614379883e-02,-5.986788123846054077e-02,-4.102457314729690552e-02,3.704693540930747986e-02,1.043328121304512024e-01,-1.277127116918563843e-01,1.435822397470474243e-01,-7.554093748331069946e-02,5.731182917952537537e-02,-8.055203408002853394e-02,7.314652949571609497e-02,1.336887776851654053e-01,1.426040828227996826e-01,5.545511469244956970e-02,1.313336789608001709e-01,4.913221113383769989e-03,7.618398219347000122e-02,1.117798835039138794e-01,-1.583690056577324867e-03,3.109292127192020416e-02,2.951691299676895142e-02,-1.688281446695327759e-01,-6.336316466331481934e-02,-1.665684282779693604e-01,-8.033947646617889404e-02,-8.135934360325336456e-03,1.222910061478614807e-01,1.206565648317337036e-01,-6.519076973199844360e-02,2.281863801181316376e-02,-6.505237543024122715e-04,8.873865008354187012e-02,-7.050132006406784058e-02,-3.189865127205848694e-02,-1.262106448411941528e-01,-9.387828409671783447e-02,-8.989566564559936523e-02,3.656662255525588989e-02,1.089892834424972534e-01,-6.862223148345947266e-02,-4.010284319519996643e-02,1.122326496988534927e-02,1.703352108597755432e-02,9.233084321022033691e-02,1.016637235879898071e-01,-6.740591675043106079e-02,1.086332499980926514e-01,2.432651259005069733e-02,3.274765983223915100e-02,-1.052674204111099243e-01,-1.029298752546310425e-01,-7.454077154397964478e-02,-1.985505372285842896e-01,1.317460685968399048e-01,4.425962641835212708e-02,2.299074828624725342e-02,-2.752291224896907806e-02,-7.099170703440904617e-03,1.313973963260650635e-01,8.500459790229797363e-02,1.539052873849868774e-01,-9.009801596403121948e-02,2.459709718823432922e-02,-8.357044309377670288e-02,1.389290094375610352e-01,7.474641501903533936e-02,-6.696574855595827103e-04,1.331243850290775299e-02,-9.924716316163539886e-03,2.817589789628982544e-02,-8.928098529577255249e-02,1.423814743757247925e-01,-1.624439060688018799e-01,-6.717492640018463135e-02,-2.391629666090011597e-02,8.132030069828033447e-02,3.284918516874313354e-02,-2.511309273540973663e-02,-4.508563503623008728e-02,2.020860835909843445e-02,1.764352321624755859e-01,-4.599800333380699158e-02,5.839056149125099182e-02,6.244965270161628723e-02,1.998796910047531128e-01,-3.145236149430274963e-02,4.236420989036560059e-02,8.237930387258529663e-02,1.538069844245910645e-01,-4.136787727475166321e-02,-3.369368612766265869e-02,-1.088009402155876160e-01,-5.889756977558135986e-02,-1.600085198879241943e-01,1.742854863405227661e-01,9.661380946636199951e-02,-1.846396923065185547e-01,-7.827813923358917236e-02,1.689098216593265533e-02,-1.946402043104171753e-01,-1.165782809257507324e-01,-2.424269542098045349e-02,-1.023241728544235229e-01,-1.253813952207565308e-01,-7.970421761274337769e-02,3.379238769412040710e-02,-7.340046763420104980e-02,-1.940555274486541748e-01,-9.879397600889205933e-02
-6.665808707475662231e-02,8.150364458560943604e-02,-1.357133984565734863e-01,-4.223992675542831421e-02,-1.155985817313194275e-01,-4.610454291105270386e-02,-6.831586360931396484e-02,-5.442649498581886292e-02,-5.467760562896728516e-02,1.546093821525573730e-01,-9.834890067577362061e-02,-6.962795555591583252e-02,1.085231229662895203e-01,6.774301826953887939e-02,-1.468290295451879501e-02,-9.157463163137435913e-02,4.532542824745178223e-02,-3.954418748617172241e-02,7.167630642652511597e-02,9.481143206357955933e-02,-4.244115948677062988e-02,1.068321168422698975e-01,6.401752680540084839e-02,1.140757743269205093e-02,1.436251401901245117e-01,2.209257148206233978e-02,-1.049282923340797424e-01,2.017763070762157440e-02,1.039986982941627502e-01,7.341865450143814087e-02,-4.851903766393661499e-02,1.565662324428558350e-01,-1.295716762542724609e-01,-3.587600588798522949e-02,-1.092272102832794189e-01,2.310219705104827881e-01,8.204299956560134888e-02,7.247757911682128906e-02,5.539212375879287720e-02,-9.605047106742858887e-02,-2.305028028786182404e-02,-6.102852523326873779e-02,-3.177130967378616333e-02,4.399882629513740540e-02,-6.759878993034362793e-02,7.805337756872177124e-02,6.182913854718208313e-02,9.202922135591506958e-02,-3.768499707803130150e-03,-8.023474365472793579e-02,-1.799510717391967773e-01,-1.067596971988677979e-01,-1.893740296363830566e-01,-7.709245383739471436e-02,-1.333027780055999756e-01,-4.225058481097221375e-02,-4.080987721681594849e-02,6.040431186556816101e-02,-6.627516448497772217e-02,5.990491434931755066e-02,7.244046777486801147e-02,-2.274486720561981201e-01,1.279298365116119385e-01,4.309114441275596619e-02,-5.674879252910614014e-02,4.996614530682563782e-02,-5.216159392148256302e-03,-2.178166806697845459e-01,7.527044415473937988e-02,6.676557660102844238e-02,-1.149956434965133667e-01,8.357799798250198364e-02,-7.560702413320541382e-02,6.324552744626998901e-02,1.745894551277160645e-01,-9.406994283199310303e-02,-2.153624445199966431e-01,5.323258414864540100e-02,-2.453421801328659058e-02,2.569101937115192413e-02,-2.024708548560738564e-03,-1.046823188662528992e-01,5.222135782241821289e-02,-1.533759385347366333e-02,-1.105973497033119202e-01,-5.131809785962104797e-02,1.514125317335128784e-01,-1.278022378683090210e-01,-1.890626363456249237e-02,1.916314065456390381e-01,6.779247894883155823e-03,9.674336761236190796e-02,-1.422509551048278809e-01,-3.780604526400566101e-02,1.474025696516036987e-01,-2.679397724568843842e-02,1.197937279939651489e-01,-1.183643043041229248e-01,-2.759703062474727631e-02,1.747351437807083130e-01,1.548883467912673950e-01,6.804275512695312500e-02,-3.594035748392343521e-03,-1.462904065847396851e-01,1.098639424890279770e-02,-8.703974634408950806e-02,1.084421649575233459e-01,-1.337110847234725952e-01,8.303429931402206421e-02,1.267274320125579834e-01,9.964350610971450806e-02,-1.048185825347900391e-01,-1.652215234935283661e-02,-1.475829631090164185e-01,1.171797141432762146e-01,-1.346252560615539551e-01,2.383957616984844208e-02,-7.547225803136825562e-02,-9.767093509435653687e-02,9.275542199611663818e-02,-1.210393533110618591e-01,-8.917260915040969849e-02,3.058375231921672821e-02,4.494776204228401184e-02,-5.385479703545570374e-02,-8.223118260502815247e-03,1.426821053028106689e-01,-4.403075948357582092e-02,9.562350809574127197e-02,-5.085425078868865967e-02,-1.276529729366302490e-01,-6.135880574584007263e-02,-3.505760803818702698e-02,-3.834035620093345642e-02,5.517810210585594177e-02,-4.342508316040039062e-02,2.867116127163171768e-03,-3.687808290123939514e-02,-1.225030869245529175e-01,8.434768021106719971e-02,1.329326480627059937e-01,-8.834768086671829224e-02,4.110581055283546448e-02,-7.464712858200073242e-02,-9.656313061714172363e-02,3.252431377768516541e-02,5.816619843244552612e-02,-1.753389835357666016e-01,6.678925827145576477e-03,3.994387388229370117e-02,2.794003859162330627e-02,-2.687872387468814850e-02,1.657785624265670776e-01,1.059157028794288635e-01,-5.772685632109642029e-02,4.583442211151123047e-02,-9.361125528812408447e-02,-9.543433040380477905e-02,8.012902736663818359e-02,-3.445360064506530762e-02,2.126760631799697876e-01,-1.020448580384254456e-01,1.593508943915367126e-02,-4.594111070036888123e-02,-7.852377742528915405e-02,-3.394431993365287781e-02,-1.340234130620956421e-01,-9.359515458345413208e-02,-5.091921240091323853e-02,7.762260735034942627e-02,-4.182491451501846313e-02,-1.242740303277969360e-01,-3.578894212841987610e-02,-1.338055282831192017e-01,1.111322864890098572e-01,-1.080129742622375488e-01,7.301323115825653076e-02,-1.147744283080101013e-01,3.589049354195594788e-02,9.126733243465423584e-02,6.605163216590881348e-02,-1.870750188827514648e-01,-5.270749679766595364e-04,-8.077669143676757812e-02,1.030834298580884933e-02,1.626944355666637421e-02,-1.407183054834604263e-02,6.855798512697219849e-02,-3.424602560698986053e-03,-1.399126052856445312e-01,9.289519488811492920e-02,-1.893359720706939697e-01,8.440541476011276245e-02,3.297805041074752808e-02,5.660105124115943909e-02,-4.690562840551137924e-03,-1.232492625713348389e-01,6.763255596160888672e-02,-2.788659930229187012e-02,-1.981652528047561646e-01
1.528632245026528835e-03,-6.448432058095932007e-02,-3.648955747485160828e-02,-6.592754274606704712e-02,-1.209136191755533218e-02,1.983637064695358276e-01,-1.698595434427261353e-01,1.533042639493942261e-02,8.305675536394119263e-02,-2.332454174757003784e-01,7.479625940322875977e-02,1.577792316675186157e-01,-1.474732160568237305e-01,-6.908321520313620567e-04,2.554492652416229248e-02,1.028568148612976074e-01,-1.050672829151153564e-01,4.879353940486907959e-02,-2.082784175872802734e-01,-1.204562857747077942e-01,-1.436834335327148438e-01,-1.055418476462364197e-01,-9.200933575630187988e-02,1.277336627244949341e-01,-8.724216371774673462e-03,1.174883800558745861e-03,-4.082885757088661194e-02,-7.924889028072357178e-02,-5.976884625852108002e-03,-1.536484993994235992e-02,4.211961105465888977e-02,-9.629230201244354248e-02,5.372973531484603882e-02,4.373912140727043152e-02,-1.146906241774559021e-01,-5.844398215413093567e-02,-5.230418592691421509e-02,9.015830606222152710e-02,2.863732911646366119e-02,-8.142709732055664062e-02,-9.383965283632278442e-03,4.704620316624641418e-02,9.659368544816970825e-02,1.576600968837738037e-01,1.085074469447135925e-01,1.675104605965316296e-03,-8.690023422241210938e-02,2.038743048906326294e-01,-3.241315716877579689e-03,1.208671405911445618e-01,9.492238610982894897e-02,-1.370673775672912598e-01,2.082562595605850220e-01,8.526722341775894165e-02,2.399327792227268219e-02,5.288663320243358612e-03,2.134086638689041138e-01,-2.225044965744018555e-01,6.994130462408065796e-02,2.826880197972059250e-03,4.737862944602966309e-02,-5.565753206610679626e-02,1.069506350904703140e-02,-1.671235561370849609e-01,-9.261182695627212524e-02,3.879546001553535461e-02,3.605527803301811218e-02,8.180566877126693726e-02,-9.539786726236343384e-02,2.967950701713562012e-02,5.383413657546043396e-02,-1.796974688768386841e-01,4.883491620421409607e-02,2.862055599689483643e-02,-6.228953227400779724e-02,-2.351285703480243683e-02,1.051311567425727844e-01,1.573508530855178833e-01,-1.875582151114940643e-02,2.056877873837947845e-02,-2.399060279130935669e-01,2.503604888916015625e-01,6.111563369631767273e-02,-1.043290123343467712e-01,-5.396549403667449951e-02,7.383617572486400604e-03,-2.143079489469528198e-01,9.853861480951309204e-02,-4.510592296719551086e-02,-2.413474023342132568e-01,9.182800352573394775e-02,-4.046317562460899353e-02,2.346657961606979370e-01,1.185278594493865967e-01,-8.375556021928787231e-02,-2.807984687387943268e-02,6.390174478292465210e-02,-9.895490109920501709e-02,-1.335044391453266144e-02,-1.670531742274761200e-02,-1.154573261737823486e-01,5.750275775790214539e-02,7.078447192907333374e-02,-4.591926187276840210e-02,1.331061124801635742e-01,3.581994026899337769e-02,1.054753139615058899e-01,1.120300665497779846e-01,-3.707836940884590149e-02,7.822294533252716064e-02,-8.733930438756942749e-02,-1.025843918323516846e-01,1.554304957389831543e-01,1.516386866569519043e-01,-1.380525082349777222e-01,1.855995357036590576e-01,-1.786001175642013550e-01,8.432658016681671143e-02,1.211803704500198364e-01,1.046990789473056793e-02,-9.752281010150909424e-02,8.117437362670898438e-02,-6.793214473873376846e-03,-8.354033529758453369e-02,-2.302696704864501953e-01,1.329704672098159790e-01,2.731904387474060059e-02,4.195867478847503662e-02,-2.630032598972320557e-01,-8.494178950786590576e-02,2.145926505327224731e-01,-9.463664144277572632e-03,1.815929710865020752e-01,-1.347455382347106934e-01,1.186160929501056671e-02,-5.763212963938713074e-02,-1.595978043042123318e-03,1.600353568792343140e-01,-1.092213019728660583e-02,-3.669920377433300018e-03,-2.979299724102020264e-01,-9.844501502811908722e-03,-1.241566240787506104e-01,-1.022679433226585388e-01,1.671445965766906738e-01,-6.040248274803161621e-02,-1.576813496649265289e-02,1.612210422754287720e-01,2.055683173239231110e-02,1.802515983581542969e-01,5.614882707595825195e-02,-5.922862142324447632e-02,-1.202616244554519653e-01,-1.708909496665000916e-02,4.566982388496398926e-02,1.385643798857927322e-02,1.412608027458190918e-01,2.008996009826660156e-01,-7.358528673648834229e-03,6.890493910759687424e-03,5.354978516697883606e-02,3.067920543253421783e-02,1.373455524444580078e-01,1.187607944011688232e-01,1.326634287834167480e-01,-4.586483910679817200e-02,2.722171843051910400e-01,1.544027924537658691e-01,-7.419826090335845947e-02,-2.040293812751770020e-01,1.216475889086723328e-01,8.588870055973529816e-03,-1.052129119634628296e-01,4.714642837643623352e-02,-4.560101032257080078e-02,2.063058167695999146e-01,-1.439208164811134338e-02,-1.039057970046997070e-01,-2.095588669180870056e-02,1.150594279170036316e-01,-2.517287246882915497e-02,-4.968510195612907410e-02,-1.527047157287597656e-01,-4.276700317859649658e-02,-6.697423756122589111e-02,-6.321860849857330322e-02,-7.655476033687591553e-02,3.599797561764717102e-02,2.037505507469177246e-01,1.173472590744495392e-02,-3.685544803738594055e-02,2.723120450973510742e-01,-5.373392626643180847e-02,9.944713115692138672e-02,-6.042428314685821533e-02,4.657051712274551392e-02,-4.302801936864852905e-02,1.524246204644441605e-02,-3.107940964400768280e-02,1.518462747335433960e-01
5.065333470702171326e-02,2.399630378931760788e-03,-1.337462961673736572e-01,-7.446012645959854126e-02,-1.005987599492073059e-01,3.394703567028045654e-02,-1.045989468693733215e-01,8.465843647718429565e-02,-5.462054628878831863e-03,1.790543645620346069e-01,-2.659638598561286926e-02,8.873245865106582642e-02,7.354423403739929199e-03,-6.620865315198898315e-02,-5.176158994436264038e-02,4.654481261968612671e-02,1.710157990455627441e-01,-1.237939447164535522e-01,-7.222283631563186646e-02,-4.799949377775192261e-02,-6.530371308326721191e-02,-5.436384677886962891e-02,2.031992226839065552e-01,1.153067965060472488e-02,1.224153712391853333e-01,1.093182489275932312e-01,1.125612575560808182e-02,-1.255261451005935669e-01,-7.886724174022674561e-02,-3.933042660355567932e-02,1.355330795049667358e-01,1.537647992372512817e-01,3.912705555558204651e-02,7.994655519723892212e-02,-1.129664182662963867e-01,1.473412103950977325e-02,1.253333389759063721e-01,1.512514501810073853e-01,-2.336103282868862152e-02,4.440005403012037277e-03,6.503622978925704956e-02,2.561159431934356689e-01,-9.243885427713394165e-02,-1.024839580059051514e-01,-1.343731582164764404e-01,-5.169359967112541199e-03,-2.557162009179592133e-02,3.443820402026176453e-02,-8.093994855880737305e-02,-8.540893346071243286e-02,-8.988951146602630615e-02,4.702549427747726440e-02,5.067005287855863571e-03,1.460688114166259766e-01,-2.168844453990459442e-03,5.397674441337585449e-02,2.854553423821926117e-02,-9.757039695978164673e-02,-1.563945710659027100e-01,1.665050089359283447e-01,4.979196935892105103e-03,-8.785030990839004517e-02,-9.731590747833251953e-02,-3.245773166418075562e-02,1.322213262319564819e-01,-1.683782041072845459e-01,7.688390091061592102e-03,-2.017779350280761719e-01,1.009273529052734375e-01,2.560151554644107819e-02,9.737639874219894409e-02,-1.754630655050277710e-01,1.061239615082740784e-01,-1.444999314844608307e-02,-1.220020838081836700e-02,4.433529824018478394e-02,4.156544338911771774e-03,-2.000754326581954956e-02,-5.123744904994964600e-02,-7.423253357410430908e-02,3.788741305470466614e-02,-1.109034866094589233e-01,8.379473537206649780e-02,3.754928335547447205e-02,-1.750268042087554932e-02,-4.696987941861152649e-02,-8.407803252339363098e-03,4.758596047759056091e-02,6.603049486875534058e-02,7.702831178903579712e-02,-1.190176699310541153e-02,8.857811987400054932e-02,5.675524100661277771e-02,8.429483324289321899e-02,1.507592201232910156e-01,-1.731756329536437988e-01,-1.172475889325141907e-01,1.777349039912223816e-02,-1.999825239181518555e-02,-7.925436645746231079e-02,8.839792758226394653e-02,-3.397732228040695190e-02,4.979235306382179260e-02,-7.807121425867080688e-02,-3.125966340303421021e-02,-1.273277550935745239e-01,2.579758502542972565e-02,-7.865451276302337646e-02,-1.304799318313598633e-01,6.870597600936889648e-02,1.968818530440330505e-02,1.561811864376068115e-01,3.697128221392631531e-02,5.126200988888740540e-02,-7.574067264795303345e-02,-4.911498352885246277e-02,1.132770031690597534e-01,-1.973917782306671143e-01,7.784020155668258667e-02,3.258419036865234375e-02,-3.999914228916168213e-02,9.846019744873046875e-02,-1.035143285989761353e-01,7.176607102155685425e-02,-1.692571789026260376e-01,1.802679300308227539e-01,-5.562149360775947571e-02,-1.122771948575973511e-01,1.323717534542083740e-01,4.042480513453483582e-02,7.740712910890579224e-02,-1.667687743902206421e-01,-1.138052567839622498e-01,4.866781085729598999e-02,-8.118333667516708374e-02,-1.466606557369232178e-01,-6.099138781428337097e-02,-1.961934007704257965e-02,1.243765503168106079e-01,7.355827838182449341e-02,-7.633988279849290848e-03,1.284389495849609375e-01,-1.817930117249488831e-02,9.201055765151977539e-02,-9.033820778131484985e-02,-3.544258698821067810e-02,-1.718796207569539547e-03,-1.246022880077362061e-01,1.001970171928405762e-01,3.456276655197143555e-02,-2.948621474206447601e-02,-6.030294299125671387e-02,4.832940921187400818e-02,2.828091382980346680e-02,4.842976853251457214e-02,-9.148647636175155640e-02,-2.548706531524658203e-02,-7.491522282361984253e-02,9.096162393689155579e-03,3.298804163932800293e-02,3.398026153445243835e-02,1.267492324113845825e-01,-8.312195539474487305e-02,1.396512091159820557e-01,-1.239568740129470825e-01,-1.379835698753595352e-02,7.189723849296569824e-02,-1.045001670718193054e-01,-1.047433391213417053e-01,-8.745830506086349487e-03,1.014397963881492615e-01,-2.554829418659210205e-01,2.068164944648742676e-01,4.789672791957855225e-02,-1.073409840464591980e-01,-7.249526679515838623e-03,-2.127505391836166382e-01,1.237994357943534851e-01,3.669383749365806580e-02,-1.589782536029815674e-01,1.866829395294189453e-01,-1.275265067815780640e-01,-1.042726859450340271e-01,4.694604873657226562e-02,-7.410841435194015503e-02,-4.790703952312469482e-02,6.931844353675842285e-02,-9.593768417835235596e-02,-7.718140631914138794e-02,7.981622219085693359e-02,7.870911806821823120e-02,1.329297572374343872e-01,2.419833689928054810e-01,1.515954434871673584e-01,1.187815442681312561e-01,-4.537782445549964905e-02,2.860934846103191376e-02,-1.402820497751235962e-01,-1.076787412166595459e-01,1.596200317144393921e-01
1.048472523689270020e-02,3.815706074237823486e-02,8.628177642822265625e-02,-1.173807233572006226e-01,7.013992965221405029e-02,4.121416807174682617e-02,1.060053408145904541e-01,-5.066543817520141602e-03,7.487751543521881104e-02,5.487287044525146484e-02,-7.378529012203216553e-02,-3.377141058444976807e-02,-9.627199172973632812e-02,8.113573491573333740e-02,8.476915955543518066e-02,-8.383690565824508667e-02,8.415468037128448486e-02,-1.166243031620979309e-01,2.098838984966278076e-02,-6.759996712207794189e-02,1.057848334312438965e-03,9.484845399856567383e-02,-5.919494479894638062e-02,-1.427716761827468872e-02,5.874949693679809570e-02,-5.844299495220184326e-02,-4.614689201116561890e-02,-7.012157142162322998e-02,1.124403923749923706e-01,-1.022316440939903259e-01,5.293437838554382324e-02,1.284317225217819214e-01,-6.138681620359420776e-02,1.226991564035415649e-01,1.013538986444473267e-01,1.116711497306823730e-01,6.315287947654724121e-02,-8.255952596664428711e-02,6.574749946594238281e-03,6.657086312770843506e-02,-5.274610966444015503e-02,8.525431156158447266e-02,1.308180838823318481e-01,2.747841179370880127e-02,1.316180378198623657e-01,-3.630866110324859619e-02,-8.442166447639465332e-02,3.923891484737396240e-02,-9.500689804553985596e-03,2.429223060607910156e-02,-1.028557121753692627e-02,-8.715026080608367920e-02,-1.317220628261566162e-01,-2.759134769439697266e-02,-4.001756012439727783e-02,-8.586488664150238037e-02,8.852994441986083984e-02,-1.136500090360641479e-01,9.576165676116943359e-02,-3.903968632221221924e-02,-6.769569218158721924e-02,-6.165172159671783447e-02,-4.092096537351608276e-02,-6.891028583049774170e-02,-9.302032738924026489e-02,1.951232552528381348e-02,-7.314555346965789795e-02,8.325883746147155762e-02,-1.230670288205146790e-01,3.140768408775329590e-02,-5.889607220888137817e-02,1.142516732215881348e-02,-6.725937128067016602e-02,-1.882366091012954712e-02,-4.162206500768661499e-02,6.753198802471160889e-02,-1.190073937177658081e-01,1.145829260349273682e-02,-1.131961494684219360e-01,-5.160780996084213257e-02,-2.577818185091018677e-02,-3.094017505645751953e-03,-6.142230331897735596e-02,-6.607755273580551147e-02,-1.141789630055427551e-01,-7.862785458564758301e-02,6.993956863880157471e-02,1.088003814220428467e-01,-1.646871864795684814e-02,7.950024306774139404e-02,-1.087452173233032227e-01,-7.265231013298034668e-02,-6.795870512723922729e-02,-1.774757355451583862e-02,-5.781016498804092407e-02,-9.168954193592071533e-02,9.121870994567871094e-02,-5.059149116277694702e-02,-7.725717872381210327e-02,-1.120738089084625244e-01,-1.014564260840415955e-01,1.969909667968750000e-02,-1.207745298743247986e-01,1.149000525474548340e-01,-9.304851293563842773e-02,9.946563839912414551e-02,-4.925394058227539062e-02,-4.724533110857009888e-02,-1.026431545615196228e-01,-6.814174354076385498e-02,-8.987618982791900635e-02,-8.213054388761520386e-02,-1.312187314033508301e-01,-6.356208771467208862e-02,2.746124565601348877e-02,1.084620207548141479e-01,-2.702806890010833740e-02,-3.311660140752792358e-02,8.071896433830261230e-02,7.902535796165466309e-02,-2.708389610052108765e-02,9.428842365741729736e-02,-1.249057054519653320e-02,7.130503654479980469e-03,-8.369515091180801392e-02,9.318673610687255859e-02,-6.068533658981323242e-02,8.670103549957275391e-02,-1.168261393904685974e-01,-4.432355612516403198e-02,3.500694036483764648e-02,8.636794984340667725e-02,5.514249205589294434e-02,1.973512768745422363e-02,-4.170789569616317749e-02,-1.783633977174758911e-02,-1.073115319013595581e-02,3.690198063850402832e-03,6.811544299125671387e-03,-5.998046696186065674e-02,1.221954375505447388e-01,5.376829206943511963e-02,6.955800950527191162e-02,-7.054007053375244141e-02,9.763807058334350586e-02,-1.022563576698303223e-01,-8.926898241043090820e-02,-8.471719920635223389e-02,5.173061788082122803e-02,-2.660129219293594360e-02,5.907535552978515625e-02,7.571682333946228027e-02,1.025829166173934937e-01,-9.217208623886108398e-02,-3.945545107126235962e-02,9.164665639400482178e-02,1.212498992681503296e-01,4.974752664566040039e-03,-8.068057894706726074e-02,-7.970060408115386963e-02,-1.144276857376098633e-01,-1.017274707555770874e-01,-9.953474998474121094e-02,2.207636833190917969e-02,1.166513562202453613e-01,1.172175556421279907e-01,-4.274798929691314697e-02,6.444269418716430664e-02,-1.139848753809928894e-01,-1.258540153503417969e-01,-1.288275867700576782e-01,-1.241898387670516968e-01,-1.210448816418647766e-01,1.244440674781799316e-02,-1.225618496537208557e-01,6.281420588493347168e-02,-3.456211835145950317e-02,-2.250069379806518555e-02,4.279071092605590820e-02,-5.790112912654876709e-02,1.140312254428863525e-01,2.424021065235137939e-02,-1.256790012121200562e-01,1.307904571294784546e-01,2.880543470382690430e-02,6.838400661945343018e-02,-1.109861433506011963e-01,6.898307800292968750e-02,-2.948559820652008057e-02,3.741227090358734131e-02,1.210468858480453491e-01,-8.197791874408721924e-02,6.389573216438293457e-02,8.776244521141052246e-02,-6.435226649045944214e-02,8.099132776260375977e-02,-1.531398296356201172e-02,-9.774588793516159058e-02,1.249185353517532349e-01,-4.138568788766860962e-02
-2.267543226480484009e-01,-1.710143387317657471e-01,7.017627358436584473e-02,-2.376589179039001465e-01,-1.235195323824882507e-01,-2.276389747858047485e-01,-1.186431869864463806e-01,-1.659053415060043335e-01,3.936640918254852295e-03,-1.930992156267166138e-01,-1.286994218826293945e-01,-1.078026965260505676e-01,1.621707677841186523e-01,7.324078679084777832e-02,-1.455049067735671997e-01,-1.646360009908676147e-01,3.523365557193756104e-01,-1.021573618054389954e-01,3.291676938533782959e-01,2.225927710533142090e-01,1.783133894205093384e-01,1.281604403629899025e-03,2.983601093292236328e-01,-1.690350770950317383e-01,2.053508460521697998e-01,-1.381210386753082275e-01,6.982807070016860962e-02,2.287080325186252594e-02,2.035241425037384033e-01,2.818829715251922607e-01,3.829327179118990898e-03,2.624442279338836670e-01,-3.321522772312164307e-01,-4.873547330498695374e-02,-2.162502408027648926e-01,-1.285935640335083008e-01,-1.288040429353713989e-01,2.935404479503631592e-01,-1.027422398328781128e-01,-1.708487421274185181e-01,-1.338479071855545044e-01,4.054329097270965576e-01,-1.002844795584678650e-01,-2.081957310438156128e-01,-1.537853386253118515e-02,-7.999422401189804077e-02,2.526073344051837921e-02,-8.687894791364669800e-02,-1.671932265162467957e-02,-1.618071198463439941e-01,-2.205688506364822388e-01,5.558568239212036133e-02,-2.299018651247024536e-01,5.855773575603961945e-03,-5.741216242313385010e-02,8.644614368677139282e-02,-3.603440895676612854e-02,-2.744209170341491699e-01,-2.001563608646392822e-01,3.044323921203613281e-01,4.922242090106010437e-02,4.822418093681335449e-02,-1.648080348968505859e-01,-8.497118204832077026e-02,-2.741975709795951843e-03,-9.128516912460327148e-02,-4.757575690746307373e-02,6.264166533946990967e-02,1.360663175582885742e-01,-1.744662076234817505e-01,-2.600176632404327393e-01,3.253731727600097656e-01,-1.482952386140823364e-01,-1.103075668215751648e-01,-6.355429440736770630e-02,1.778936535120010376e-01,-1.767141520977020264e-01,-7.545083761215209961e-02,-2.382043898105621338e-01,-2.545295059680938721e-01,-7.996367663145065308e-02,-2.941630780696868896e-01,-8.763998001813888550e-02,2.225767821073532104e-01,-8.627321571111679077e-02,-6.449922174215316772e-02,-1.035080328583717346e-01,-2.623590528964996338e-01,-2.936555258929729462e-02,-1.698650419712066650e-01,1.566022783517837524e-01,-2.304753661155700684e-01,-1.823799908161163330e-01,-1.802847087383270264e-01,-9.189464151859283447e-03,-1.307128518819808960e-01,-6.497961934655904770e-03,-9.711799025535583496e-02,1.265581846237182617e-01,-6.236604601144790649e-02,1.973820030689239502e-01,-2.084957808256149292e-01,3.118969500064849854e-01,-1.668563932180404663e-01,-2.202249318361282349e-01,-1.764969229698181152e-01,-3.980563953518867493e-02,-2.552932202816009521e-01,-2.685194090008735657e-02,1.492063421756029129e-02,-3.608746454119682312e-02,-1.441825763322412968e-03,1.135382205247879028e-01,-1.180393919348716736e-01,-2.612669579684734344e-02,-5.382516980171203613e-02,2.834919691085815430e-01,-3.325783610343933105e-01,-1.653043329715728760e-01,-1.699886471033096313e-02,1.111375354230403900e-02,-9.348461776971817017e-02,-1.784181296825408936e-01,1.214020252227783203e-01,-9.678344428539276123e-02,-1.554268300533294678e-01,-1.767679117619991302e-02,-1.158041507005691528e-01,2.624368369579315186e-01,1.498803347349166870e-01,-8.665625005960464478e-02,1.176073029637336731e-01,-2.856886014342308044e-02,-1.832734942436218262e-01,-1.047454401850700378e-01,-2.007361501455307007e-03,1.979697048664093018e-01,-7.167389243841171265e-02,-2.705346345901489258e-01,-1.791855692863464355e-02,3.309693932533264160e-01,4.356395453214645386e-02,-4.029770195484161377e-02,-4.304258525371551514e-02,-9.872081130743026733e-02,2.484490722417831421e-01,-1.781046539545059204e-01,-2.067386060953140259e-01,3.853614255785942078e-02,-1.681681424379348755e-01,2.135345935821533203e-01,-2.925444543361663818e-01,-3.544575721025466919e-02,2.614813745021820068e-01,-1.059982851147651672e-01,2.683633565902709961e-01,-1.380137354135513306e-01,-7.229190319776535034e-02,6.296148896217346191e-02,-2.911805175244808197e-02,2.019077986478805542e-01,-7.805459201335906982e-02,-1.208095997571945190e-01,-3.118186257779598236e-03,-7.627993356436491013e-03,5.307833780534565449e-04,-2.379079610109329224e-01,-4.919564351439476013e-02,-1.072051003575325012e-01,6.156305223703384399e-02,-8.203599601984024048e-02,-2.084959149360656738e-01,1.129075512290000916e-02,3.338706120848655701e-02,-6.334792077541351318e-02,-2.364562898874282837e-01,-2.447358369827270508e-01,-3.272965848445892334e-01,-1.274849921464920044e-01,-3.143585324287414551e-01,2.672325670719146729e-01,-2.064640074968338013e-01,-6.738281250000000000e-02,1.534390449523925781e-01,8.299733512103557587e-03,-1.186918392777442932e-01,1.299533694982528687e-01,-7.764925807714462280e-02,-1.233641281723976135e-01,4.676216281950473785e-03,7.083077728748321533e-02,1.307496130466461182e-01,-5.598148703575134277e-02,3.341764956712722778e-02,-8.996698260307312012e-02,-1.722536864690482616e-03,-1.276646107435226440e-01,2.444024384021759033e-02,-1.396672874689102173e-01,-1.095958054065704346e-01
7.742513716220855713e-02,-5.555625259876251221e-02,-1.604532003402709961e-01,4.295789897441864014e-01,-1.072187870740890503e-01,1.042522415518760681e-01,-6.455080956220626831e-02,-9.191789478063583374e-02,6.918595731258392334e-02,2.261490225791931152e-01,6.949580460786819458e-02,9.281891584396362305e-02,-1.487607955932617188e-01,4.602551460266113281e-02,7.505794614553451538e-02,-2.631286084651947021e-01,-1.048030108213424683e-01,-7.159815728664398193e-02,-1.710857450962066650e-02,5.078091472387313843e-02,5.519922822713851929e-02,-9.188532084226608276e-02,-2.418985590338706970e-02,1.745554953813552856e-01,6.033432111144065857e-02,-2.468527853488922119e-01,8.422545343637466431e-02,-1.021938323974609375e-01,-1.978075206279754639e-01,-1.357526630163192749e-01,-2.336364090442657471e-01,-1.638588607311248779e-01,1.233721375465393066e-01,-2.120465338230133057e-01,-2.084680348634719849e-01,2.679591178894042969e-01,6.050563231110572815e-02,-2.984225749969482422e-01,3.287554085254669189e-01,1.055040135979652405e-01,-1.281522512435913086e-01,-7.414447516202926636e-02,-1.185496449470520020e-01,3.415642678737640381e-01,1.401089876890182495e-01,1.730715036392211914e-01,-1.820246875286102295e-01,-2.742872238159179688e-01,7.803729176521301270e-02,-9.278843551874160767e-02,1.923882588744163513e-02,-2.010277062654495239e-01,2.362781763076782227e-01,-2.248056232929229736e-03,4.587948024272918701e-01,8.657918870449066162e-02,1.950730755925178528e-02,1.770332083106040955e-02,5.695266649127006531e-02,-1.684231013059616089e-01,2.870812825858592987e-02,-7.560205459594726562e-02,-3.700283914804458618e-02,2.193339616060256958e-01,1.136679500341415405e-01,-2.543896734714508057e-01,4.532466083765029907e-02,-5.454680696129798889e-02,4.556513205170631409e-02,-2.929627336561679840e-02,2.216937988996505737e-01,-2.369341850280761719e-01,2.981367707252502441e-01,-1.538888216018676758e-01,-1.603177487850189209e-01,3.691275417804718018e-02,4.385653510689735413e-02,-2.934539504349231720e-02,-1.406624168157577515e-01,3.320294916629791260e-01,-8.551872335374355316e-03,3.268916010856628418e-01,-6.395234912633895874e-02,-4.985174536705017090e-02,-1.651549041271209717e-01,-3.837352693080902100e-01,2.491582930088043213e-01,3.355896472930908203e-01,4.440991580486297607e-02,5.406668782234191895e-02,-1.668733358383178711e-01,2.534358501434326172e-01,3.917617201805114746e-01,-6.203226745128631592e-02,-1.695228815078735352e-01,3.868291527032852173e-02,-5.020137131214141846e-02,4.604447167366743088e-04,-9.379066526889801025e-02,1.435450315475463867e-01,9.642732143402099609e-02,7.529693096876144409e-02,7.996988296508789062e-02,3.929513990879058838e-01,-1.130510568618774414e-01,-4.670910909771919250e-02,1.441236287355422974e-01,1.975880116224288940e-01,-1.606968045234680176e-01,-7.412798702716827393e-02,-1.359301656484603882e-01,2.380719482898712158e-01,2.160220965743064880e-02,2.940829992294311523e-01,-1.587928384542465210e-01,-9.982708096504211426e-02,7.135688792914152145e-03,1.615460366010665894e-01,-1.029444411396980286e-01,2.257474809885025024e-01,1.299304515123367310e-01,1.079164166003465652e-02,-2.540562301874160767e-02,-1.836477369070053101e-01,8.318299427628517151e-03,-3.396842256188392639e-02,-3.045664913952350616e-02,9.761023521423339844e-02,7.093126326799392700e-02,-8.558949083089828491e-02,2.403233498334884644e-01,-3.167745769023895264e-01,-7.548119872808456421e-02,-1.300570666790008545e-01,1.246937066316604614e-01,-1.248945593833923340e-01,-1.720960885286331177e-01,3.110809251666069031e-02,-8.502788096666336060e-02,2.007928341627120972e-01,-5.422910675406455994e-02,-5.937543511390686035e-02,-1.577356755733489990e-01,-8.681951463222503662e-02,5.189940333366394043e-02,-9.377186000347137451e-02,3.180320188403129578e-02,3.726442344486713409e-03,4.503803327679634094e-02,2.105226963758468628e-01,-2.334200739860534668e-01,2.306431829929351807e-01,-5.843698978424072266e-03,-1.948879659175872803e-01,2.903648912906646729e-01,-1.982653439044952393e-01,-1.452240198850631714e-01,6.298598647117614746e-02,7.786714285612106323e-02,9.168774634599685669e-02,-1.911917477846145630e-01,-1.466850340366363525e-01,-1.613394916057586670e-01,5.745707824826240540e-02,-1.807073652744293213e-01,2.531581521034240723e-01,7.941555231809616089e-02,2.456876933574676514e-01,-9.958922863006591797e-02,-1.132178679108619690e-01,-1.149141490459442139e-01,-6.167423352599143982e-02,-7.921204715967178345e-02,-2.294228971004486084e-01,-6.265176087617874146e-02,6.826958805322647095e-02,-1.656396090984344482e-01,-1.850607991218566895e-01,-2.483979053795337677e-02,2.399747371673583984e-01,-1.135073006153106689e-01,1.552094370126724243e-01,-2.388103455305099487e-01,-2.596328258514404297e-01,-2.015889063477516174e-02,1.353547871112823486e-01,-3.346323370933532715e-01,3.636047989130020142e-02,2.151721268892288208e-01,-1.917299032211303711e-01,-1.082676425576210022e-01,1.404760479927062988e-01,-1.384566426277160645e-01,1.231017634272575378e-01,-2.168849110603332520e-02,-1.074385866522789001e-01,-1.744237840175628662e-01,-1.361497677862644196e-02,3.376290574669837952e-02,8.887089788913726807e-02
7.027014344930648804e-02,-3.717714175581932068e-02,8.134654909372329712e-02,-7.966174930334091187e-02,4.692246764898300171e-02,-1.059977337718009949e-01,1.263440027832984924e-02,-2.738348953425884247e-02,-1.610473841428756714e-01,5.836514011025428772e-02,2.532984875142574310e-02,-2.344296425580978394e-01,4.311596229672431946e-02,8.560829609632492065e-02,1.632742732763290405e-01,2.304394170641899109e-02,2.079997211694717407e-01,1.344799250364303589e-02,8.411555737257003784e-02,9.728255122900009155e-02,1.402046345174312592e-02,9.139524772763252258e-03,-8.615516871213912964e-02,-1.296106874942779541e-01,4.219423979520797729e-03,-6.122852489352226257e-02,1.875918060541152954e-01,-8.585275709629058838e-02,2.757391519844532013e-02,1.987591758370399475e-02,-1.915864795446395874e-01,1.217693928629159927e-02,1.086255908012390137e-01,1.013122126460075378e-02,-1.335886567831039429e-01,2.401721477508544922e-01,1.029210314154624939e-01,-1.211201548576354980e-01,-6.628330051898956299e-02,1.016234327107667923e-02,-7.331424206495285034e-02,-1.221659593284130096e-02,-3.806691616773605347e-02,1.039645746350288391e-01,1.637420356273651123e-01,-1.419533491134643555e-01,-5.064369365572929382e-02,5.973516777157783508e-02,-6.667196750640869141e-02,-1.031387876719236374e-02,5.846035853028297424e-02,-8.185527473688125610e-02,-7.857733406126499176e-03,-1.822805553674697876e-01,-2.143326029181480408e-02,1.757200360298156738e-01,-4.164295643568038940e-02,-3.509170934557914734e-02,3.773245261982083321e-03,4.148301854729652405e-02,-3.155734762549400330e-02,2.561653219163417816e-02,-2.025740444660186768e-01,-7.748695462942123413e-02,2.441902756690979004e-01,-5.601752549409866333e-02,1.837598904967308044e-02,2.203509444370865822e-03,-1.771609783172607422e-01,-9.956118464469909668e-02,7.945952564477920532e-02,1.263614743947982788e-01,4.649470001459121704e-02,-1.448136568069458008e-01,-5.222640186548233032e-02,-4.853768646717071533e-02,-3.977238759398460388e-02,1.566668897867202759e-01,-3.982751443982124329e-02,1.984051316976547241e-01,-7.894268259406089783e-03,1.017224267125129700e-01,-3.907169401645660400e-02,1.074693631380796432e-02,4.824216291308403015e-02,1.076100394129753113e-01,1.824765279889106750e-02,-4.650105535984039307e-02,1.495550125837326050e-01,8.913818746805191040e-02,7.839824259281158447e-02,-5.935020744800567627e-02,7.224354147911071777e-02,-2.633272483944892883e-02,1.017575152218341827e-02,2.181148827075958252e-01,7.026790827512741089e-02,-3.148619085550308228e-02,-1.580347567796707153e-01,-3.370567038655281067e-02,-1.959789693355560303e-01,1.598541140556335449e-01,7.232263684272766113e-02,-1.078508868813514709e-01,-2.506313286721706390e-02,-2.457162737846374512e-01,7.284364849328994751e-02,5.284134298563003540e-02,-1.535800248384475708e-01,-1.122441217303276062e-01,-1.361205428838729858e-02,-7.366049289703369141e-02,-1.257671713829040527e-01,-1.540555153042078018e-02,-3.477570414543151855e-02,-1.077084615826606750e-01,5.699736066162586212e-03,-1.823922693729400635e-01,-1.229585185647010803e-01,1.016475930809974670e-01,5.139963701367378235e-02,-3.674134612083435059e-02,-2.603909699246287346e-03,-1.932748258113861084e-01,-7.033150643110275269e-02,-7.755111902952194214e-02,-3.370608016848564148e-02,-9.933628141880035400e-02,1.204049810767173767e-01,-1.263896524906158447e-01,-1.139875203371047974e-01,-2.242010980844497681e-01,-1.378616690635681152e-01,-4.610193893313407898e-02,-1.517284512519836426e-01,-6.212112307548522949e-02,-3.423635289072990417e-02,1.681609600782394409e-01,-2.931453101336956024e-02,9.671223163604736328e-02,1.911159604787826538e-01,2.591697499155998230e-02,-1.261443346738815308e-01,-1.164768561720848083e-01,2.994987182319164276e-02,1.735733747482299805e-01,-1.195227056741714478e-01,-3.948217630386352539e-02,-2.066339179873466492e-02,-6.905241310596466064e-02,2.044185437262058258e-02,-9.417980909347534180e-02,1.536254137754440308e-01,1.974251121282577515e-02,-1.547614485025405884e-02,-1.651182323694229126e-01,2.261643065139651299e-03,-7.862826436758041382e-02,9.726856835186481476e-03,7.710555195808410645e-02,2.081070095300674438e-01,2.386340349912643433e-01,4.119305312633514404e-02,3.216895461082458496e-02,3.863607719540596008e-02,-1.715442091226577759e-01,-1.073450222611427307e-01,-1.228292807936668396e-01,-1.792711615562438965e-01,8.651888370513916016e-02,-1.216911524534225464e-01,-9.920640289783477783e-02,3.819479793310165405e-02,-3.338296338915824890e-02,-1.811253130435943604e-01,-7.910391688346862793e-02,-1.503807902336120605e-01,-1.272675991058349609e-01,5.570255592465400696e-02,5.667480826377868652e-02,-8.318986743688583374e-03,9.417536109685897827e-02,-3.579198569059371948e-02,2.549621760845184326e-01,3.741608560085296631e-02,-9.141499549150466919e-02,4.159829393029212952e-02,4.697101935744285583e-02,1.786704378901049495e-04,-1.195538714528083801e-01,-1.454481780529022217e-01,-1.332913935184478760e-01,-6.511455774307250977e-02,5.881763622164726257e-02,9.946263395249843597e-03,-4.355305805802345276e-02,6.048987433314323425e-02,-3.905062377452850342e-02,8.186804503202438354e-02,-4.088389873504638672e-02
-1.683504134416580200e-01,-1.780259460210800171e-01,-1.654751747846603394e-01,2.096882835030555725e-02,-6.389036774635314941e-02,-1.988675892353057861e-01,-1.209827288985252380e-01,-1.039360165596008301e-01,-1.614155024290084839e-01,7.740404456853866577e-02,-1.188115552067756653e-01,2.505182847380638123e-02,2.130445241928100586e-01,-2.870238721370697021e-01,-6.764003634452819824e-02,2.727125212550163269e-02,3.032007515430450439e-01,9.799753874540328979e-02,1.047091037034988403e-01,2.161700129508972168e-01,4.417902976274490356e-02,-3.419431298971176147e-02,1.046568453311920166e-01,-1.568934172391891479e-01,3.453443646430969238e-01,-2.161001786589622498e-02,1.068958863615989685e-01,2.248247526586055756e-02,1.093804836273193359e-01,1.796634793281555176e-01,-6.430044025182723999e-02,1.649584025144577026e-01,-2.277667969465255737e-01,9.382338821887969971e-02,-2.280736565589904785e-01,-2.157504111528396606e-01,-2.294304370880126953e-01,5.886477604508399963e-02,1.692614257335662842e-01,-9.740749001502990723e-02,1.709882318973541260e-01,1.358423680067062378e-01,-1.858879253268241882e-02,-1.877470463514328003e-01,-1.768192462623119354e-02,9.627560526132583618e-02,4.446944966912269592e-02,9.284672141075134277e-02,-2.227577567100524902e-01,-2.137127667665481567e-01,-3.000113666057586670e-01,-1.037156730890274048e-01,-1.112081669270992279e-02,6.385923177003860474e-02,-1.586921364068984985e-01,1.120441854000091553e-01,-7.825788110494613647e-02,-1.377491354942321777e-01,-1.976388543844223022e-01,1.955678761005401611e-01,4.698447510600090027e-02,-1.225676089525222778e-01,1.999030821025371552e-03,-8.195445686578750610e-02,5.714666843414306641e-02,-9.393327683210372925e-02,-9.212388843297958374e-02,-1.811110600829124451e-02,2.352291643619537354e-01,-1.272124201059341431e-01,-1.043008267879486084e-01,6.981897354125976562e-02,9.912020526826381683e-03,1.836766488850116730e-02,1.394984573125839233e-01,1.158849801868200302e-03,-1.805080659687519073e-02,1.657290197908878326e-02,-2.258945815265178680e-02,-1.155766695737838745e-01,1.624541729688644409e-01,-1.357504874467849731e-01,-1.093308851122856140e-01,1.911750882863998413e-01,-1.559269847348332405e-03,1.889219582080841064e-01,7.979857921600341797e-02,-1.347994208335876465e-01,-1.913969404995441437e-02,-3.244108753278851509e-03,6.207096204161643982e-02,-3.246708214282989502e-02,-9.050153195858001709e-02,1.340724434703588486e-02,3.356940746307373047e-01,4.532041773200035095e-02,-5.940657481551170349e-02,-1.887182891368865967e-01,-1.345496773719787598e-01,-4.956619441509246826e-02,6.814426183700561523e-02,-4.021219909191131592e-02,-1.639477610588073730e-01,8.127336949110031128e-02,-2.790720164775848389e-01,-2.875627204775810242e-02,4.834251105785369873e-02,-8.907245099544525146e-02,4.654404520988464355e-02,-6.451728940010070801e-02,-8.559028804302215576e-02,-1.598393321037292480e-01,-3.696198761463165283e-02,-2.070356309413909912e-01,-2.406723564490675926e-03,-1.202698647975921631e-01,1.891045272350311279e-01,-6.243493780493736267e-02,-9.849576652050018311e-02,2.035525813698768616e-02,-1.166584938764572144e-01,-1.456889659166336060e-01,6.092101684771478176e-04,-3.165277838706970215e-02,8.478703675791621208e-04,-5.462494213134050369e-03,2.632106770761311054e-04,-3.787122294306755066e-02,2.827342748641967773e-01,-1.836149394512176514e-01,-3.903149440884590149e-02,2.992975115776062012e-01,-2.088079601526260376e-01,-2.293708920478820801e-01,-2.286901175975799561e-01,-2.768590748310089111e-01,1.801877021789550781e-01,5.143247544765472412e-02,-6.381686031818389893e-02,1.028061136603355408e-01,3.425049483776092529e-01,4.271176457405090332e-02,-1.425420045852661133e-01,3.184268251061439514e-02,-1.891503930091857910e-01,-6.240243837237358093e-02,-1.415444258600473404e-02,-1.616646200418472290e-01,2.525821886956691742e-02,1.445437818765640259e-01,1.403185874223709106e-01,-2.030793577432632446e-01,3.233386278152465820e-01,1.378348171710968018e-01,9.897100180387496948e-02,2.604791224002838135e-01,-4.351578652858734131e-02,-8.772485889494419098e-03,-1.915909349918365479e-02,-7.756450027227401733e-02,-5.749482288956642151e-02,1.604408025741577148e-01,-1.680436134338378906e-01,1.713775098323822021e-01,-2.285780906677246094e-01,-1.218639835715293884e-01,-6.187573820352554321e-02,-3.091771528124809265e-02,-8.133603632450103760e-02,3.781685233116149902e-01,-2.162830904126167297e-02,-1.734911948442459106e-01,1.558449715375900269e-01,-1.402859017252922058e-02,3.940518945455551147e-03,-2.010127753019332886e-01,-2.428841590881347656e-02,-8.239296823740005493e-02,-9.844438731670379639e-02,-1.992556452751159668e-01,2.336461544036865234e-01,-9.654535353183746338e-02,4.512895643711090088e-02,-1.498578768223524094e-02,2.622088417410850525e-02,-2.011157274246215820e-01,1.219228003174066544e-02,-1.240517348051071167e-01,9.344302117824554443e-02,-3.680723905563354492e-02,-3.971527144312858582e-02,-4.654675722122192383e-02,1.548539698123931885e-01,2.001800388097763062e-01,1.405803412199020386e-01,2.537248730659484863e-01,1.018856912851333618e-01,3.793734312057495117e-02,-7.976619526743888855e-04,-1.895971968770027161e-02
4.257800430059432983e-02,1.085455641150474548e-01,-1.361689269542694092e-01,1.542458087205886841e-01,5.938642099499702454e-02,1.467406749725341797e-01,1.218121200799942017e-01,-1.282382309436798096e-01,-1.134112402796745300e-01,-4.138552024960517883e-02,-8.540093153715133667e-02,-8.936330676078796387e-02,-1.151274293661117554e-01,-1.711990535259246826e-01,-4.553536418825387955e-03,2.123851329088211060e-01,-1.230439692735671997e-01,1.050591841340065002e-01,-1.978644728660583496e-02,-1.459908634424209595e-01,1.061108261346817017e-01,5.860504135489463806e-02,3.545043990015983582e-02,-1.526391804218292236e-01,1.303920708596706390e-02,-3.634351864457130432e-02,-1.795274615287780762e-01,-9.062134474515914917e-02,-1.947599649429321289e-01,-1.302022784948348999e-01,1.571538746356964111e-01,4.445223510265350342e-02,1.485836133360862732e-02,1.700675860047340393e-02,2.284446964040398598e-03,9.368416666984558105e-02,-2.006957679986953735e-01,-5.358893051743507385e-02,-8.718864619731903076e-02,-2.965569682419300079e-02,-1.307140886783599854e-01,-6.056500971317291260e-02,-3.592443093657493591e-02,1.068288311362266541e-01,-1.168523132801055908e-01,2.471584826707839966e-01,-6.101828441023826599e-02,-9.274394810199737549e-02,5.678291618824005127e-02,-1.413780357688665390e-02,-1.271284418180584908e-03,-8.814235031604766846e-02,-1.719339936971664429e-01,7.063211500644683838e-02,-6.541673839092254639e-02,8.458225429058074951e-02,1.276143733412027359e-02,1.105443667620420456e-02,8.230861276388168335e-03,-7.392369210720062256e-02,5.738811567425727844e-02,4.243296384811401367e-02,7.301332801580429077e-02,-6.717772781848907471e-02,6.550418585538864136e-02,7.190752029418945312e-02,4.099800251424312592e-03,-1.091846674680709839e-01,-1.218040287494659424e-01,2.998635172843933105e-02,6.784274429082870483e-02,-4.462705180048942566e-02,1.542723476886749268e-01,1.758736521005630493e-01,6.088465452194213867e-02,7.884258776903152466e-02,6.226364988833665848e-03,9.018328785896301270e-02,-3.763591125607490540e-02,9.707346558570861816e-02,4.084936901926994324e-02,2.246032841503620148e-02,-8.308212459087371826e-02,-1.410066634416580200e-01,-7.140153646469116211e-02,-3.581018447875976562e-01,7.900378853082656860e-02,1.330902278423309326e-01,3.685379866510629654e-03,6.381100416183471680e-02,-3.896626830101013184e-02,-1.653548926115036011e-01,4.985655844211578369e-02,1.353884339332580566e-01,-7.177648693323135376e-02,3.793367370963096619e-02,3.408290445804595947e-02,2.405410632491111755e-02,-1.517680585384368896e-01,2.176633849740028381e-02,-3.995876386761665344e-02,1.987489908933639526e-01,5.931471241638064384e-04,-1.238033846020698547e-01,3.027180582284927368e-02,-2.320448458194732666e-01,1.616397202014923096e-01,1.418177634477615356e-01,9.233610332012176514e-02,1.760834641754627228e-02,-1.242626458406448364e-01,-9.278681874275207520e-02,1.482689380645751953e-01,-8.677127771079540253e-03,-1.272974461317062378e-01,-5.147359147667884827e-02,1.081617623567581177e-01,-2.355097793042659760e-03,-4.219098389148712158e-02,-9.293667227029800415e-02,3.647083789110183716e-02,-4.258196800947189331e-02,-8.762106299400329590e-02,1.270703971385955811e-01,-3.563432954251766205e-03,6.832364201545715332e-02,-2.021152377128601074e-01,1.318526268005371094e-01,8.373313397169113159e-02,1.709994859993457794e-02,-1.141272932291030884e-01,-1.142623722553253174e-01,7.278357446193695068e-02,3.212831169366836548e-02,9.113821201026439667e-03,1.937591880559921265e-01,3.149263933300971985e-02,1.426666975021362305e-01,7.459243386983871460e-02,-1.486372351646423340e-01,-1.198822110891342163e-01,-3.655777871608734131e-02,-6.392025202512741089e-02,-7.938633859157562256e-02,1.836349964141845703e-01,-1.949743926525115967e-01,4.398626275360584259e-03,7.004362344741821289e-02,-1.134613752365112305e-01,4.836414381861686707e-02,4.920538887381553650e-02,6.430961191654205322e-02,2.612272650003433228e-02,-4.509665071964263916e-03,-1.460273116827011108e-01,-7.145528495311737061e-02,-8.016849867999553680e-03,-1.080980673432350159e-01,-1.390902400016784668e-01,2.413666993379592896e-02,-1.154874861240386963e-01,4.472865909337997437e-02,3.440584614872932434e-02,-1.134599186480045319e-02,-2.249467559158802032e-02,2.353196404874324799e-02,-1.802647858858108521e-02,1.805065199732780457e-02,5.477789789438247681e-02,-1.822551488876342773e-01,-9.431316703557968140e-02,1.006133668124675751e-02,3.532728552818298340e-02,1.038639061152935028e-02,-1.354737430810928345e-01,-4.739351570606231689e-02,-2.029889971017837524e-01,-9.267689287662506104e-02,1.559461951255798340e-01,1.257403343915939331e-01,-8.672467619180679321e-02,5.162782594561576843e-02,1.490561068058013916e-01,2.446842007339000702e-02,1.175303664058446884e-02,5.585043504834175110e-02,-3.938430547714233398e-02,-6.058672070503234863e-02,9.861081838607788086e-02,1.091689839959144592e-01,-1.849007159471511841e-01,-1.918917447328567505e-01,-3.375266119837760925e-02,1.103791296482086182e-01,1.115061640739440918e-01,-1.882963478565216064e-01,-4.233002290129661560e-02,-5.835842806845903397e-03,2.115357071161270142e-01,1.571323350071907043e-02
3.049783222377300262e-02,1.341164857149124146e-01,3.476138785481452942e-02,8.148989826440811157e-02,7.707612961530685425e-02,-1.694872528314590454e-01,-9.896407276391983032e-02,-1.410884261131286621e-01,-1.069173142313957214e-01,-5.265360698103904724e-02,6.648005545139312744e-02,1.520604044198989868e-01,4.381673038005828857e-02,8.018807321786880493e-02,-1.029873117804527283e-01,4.919599369168281555e-02,-5.652701854705810547e-02,-4.322013258934020996e-02,-6.161689758300781250e-02,-2.817778475582599640e-02,-3.572885692119598389e-02,-1.180062368512153625e-01,-8.959233760833740234e-02,-1.554279923439025879e-01,8.799076825380325317e-02,-1.165770366787910461e-01,-3.876211121678352356e-02,1.680009216070175171e-01,-1.286112517118453979e-01,-6.421467661857604980e-02,9.421028941869735718e-02,2.663081884384155273e-02,3.701825439929962158e-02,-3.736884146928787231e-02,-1.459135711193084717e-01,6.522957235574722290e-02,-6.917325407266616821e-02,1.120088472962379456e-01,1.359976381063461304e-01,-1.090843603014945984e-01,-1.353664547204971313e-01,6.342660635709762573e-02,-8.118167519569396973e-02,-4.441321641206741333e-02,-1.012806147336959839e-01,-1.128997374325990677e-02,-2.451716177165508270e-02,9.410367161035537720e-02,-4.662109166383743286e-02,-3.678315505385398865e-02,-2.178131416440010071e-02,3.634858503937721252e-02,-1.297395825386047363e-01,1.725818216800689697e-01,-8.682791888713836670e-02,7.805056124925613403e-02,6.127075478434562683e-02,-2.688600867986679077e-02,-1.328316181898117065e-01,1.069940775632858276e-01,-2.134613320231437683e-02,-8.692594617605209351e-02,1.309898309409618378e-02,2.679244242608547211e-02,5.278063192963600159e-02,1.534846872091293335e-01,-1.097640469670295715e-01,6.791923195123672485e-02,-2.542813494801521301e-02,-1.465473175048828125e-01,-8.373052626848220825e-02,-2.768774144351482391e-02,4.129787907004356384e-02,-2.570010721683502197e-02,-9.403923153877258301e-02,3.319911658763885498e-02,-1.358237495878711343e-04,7.978674769401550293e-02,5.892265588045120239e-02,7.003079354763031006e-02,-9.407773613929748535e-02,-8.419947326183319092e-02,-8.359997719526290894e-02,2.927730977535247803e-02,-1.057181358337402344e-01,-7.524127606302499771e-03,1.648916155099868774e-01,5.828285962343215942e-02,1.140159815549850464e-01,2.190001308917999268e-02,3.815951943397521973e-02,-2.813875116407871246e-02,-1.624257303774356842e-02,-1.461481750011444092e-01,1.148505061864852905e-01,-9.850980341434478760e-02,-1.769736036658287048e-02,-1.129302382469177246e-01,1.117710117250680923e-02,-8.549477159976959229e-02,-1.124708876013755798e-01,1.111493334174156189e-01,-8.337637782096862793e-02,2.903817594051361084e-02,1.589474640786647797e-02,1.981081068515777588e-02,-8.289398252964019775e-02,-2.671930566430091858e-02,-5.389502644538879395e-02,-5.676151812076568604e-02,1.010500714182853699e-01,8.748771995306015015e-02,3.846810013055801392e-02,5.222248658537864685e-02,-1.958465902134776115e-03,-5.898671806789934635e-04,-2.455470710992813110e-02,-3.309524431824684143e-02,1.257559470832347870e-02,-1.374297738075256348e-01,8.045249618589878082e-03,-1.160609647631645203e-01,-8.371965668629854918e-05,-4.033733159303665161e-02,-5.368549749255180359e-02,2.151383087038993835e-02,6.675691157579421997e-02,-2.793188393115997314e-02,-1.291085034608840942e-01,-9.087289124727249146e-02,-8.030008524656295776e-02,-1.418413873761892319e-02,7.802601903676986694e-02,-3.540265932679176331e-02,-8.263709396123886108e-02,-1.196734756231307983e-01,4.687523096799850464e-02,-6.715457141399383545e-02,-3.002812340855598450e-02,1.030706986784934998e-01,2.454719319939613342e-02,-4.331511259078979492e-02,9.258467704057693481e-02,5.255147069692611694e-02,-4.735420644283294678e-02,-4.737406969070434570e-02,-5.695951357483863831e-02,-1.570556014776229858e-01,-4.110765829682350159e-02,-7.394113391637802124e-02,5.828504636883735657e-02,-1.374666243791580200e-01,1.552952527999877930e-01,-3.511696308851242065e-02,8.077950030565261841e-02,-4.534866288304328918e-02,-3.192264586687088013e-02,2.804674021899700165e-02,-1.054022610187530518e-01,9.896359592676162720e-02,-9.745396673679351807e-02,1.333884447813034058e-01,-1.330978125333786011e-01,-4.410068318247795105e-02,-3.096279501914978027e-02,1.608377881348133087e-02,9.840938262641429901e-03,-1.765437573194503784e-01,1.073027029633522034e-01,2.179266363382339478e-01,-1.111070215702056885e-01,-1.598950326442718506e-01,-3.844472393393516541e-02,-8.784368634223937988e-02,-3.876121342182159424e-02,2.426343038678169250e-02,1.202974840998649597e-01,-5.384139344096183777e-02,1.442327201366424561e-01,-4.244702309370040894e-02,5.768431350588798523e-02,2.484053373336791992e-02,-1.247102394700050354e-01,1.615504175424575806e-02,1.652906835079193115e-01,-8.785333484411239624e-02,1.352626532316207886e-01,-9.728360921144485474e-03,1.158877462148666382e-01,3.579712286591529846e-02,2.060879170894622803e-01,-1.601406633853912354e-01,2.034896984696388245e-02,8.520609885454177856e-02,-1.691639423370361328e-02,-4.497630521655082703e-02,5.609062034636735916e-03,-8.939772099256515503e-02,-1.049877237528562546e-02,-1.162260174751281738e-01
-5.021649971604347229e-02,8.191028237342834473e-02,-6.193181499838829041e-02,1.008496135473251343e-01,-1.191980540752410889e-01,-1.452192515134811401e-01,-4.015756398439407349e-02,-9.556672722101211548e-02,-3.951922431588172913e-02,-8.103280514478683472e-02,-1.510026631876826286e-03,2.547586150467395782e-02,-1.592140197753906250e-01,-5.292040109634399414e-02,9.092047810554504395e-03,-5.247187241911888123e-02,4.191482812166213989e-02,-1.243296861648559570e-01,-5.925984680652618408e-02,-5.805490538477897644e-02,-1.052175313234329224e-01,-6.439884006977081299e-02,-1.437026411294937134e-01,-5.771664157509803772e-02,-1.575283408164978027e-01,2.452849596738815308e-02,1.333825141191482544e-01,-6.856887787580490112e-02,6.397304683923721313e-02,-1.170468106865882874e-01,-1.010144799947738647e-01,-9.987534582614898682e-02,-3.881732374429702759e-02,-3.521658107638359070e-02,7.404295355081558228e-02,-5.906748399138450623e-02,8.635728806257247925e-02,-1.588625162839889526e-01,-4.003578796982765198e-02,-7.161986082792282104e-02,-5.189201235771179199e-02,1.341483592987060547e-01,1.418719142675399780e-01,3.739266842603683472e-02,-3.904274851083755493e-02,-1.162037719041109085e-02,-1.045317500829696655e-01,-1.327633261680603027e-01,3.285387158393859863e-02,-1.522496789693832397e-01,-1.332355290651321411e-01,-1.501162443310022354e-02,-3.634551167488098145e-02,-1.228049397468566895e-01,3.539577126502990723e-02,8.686460554599761963e-03,4.447203874588012695e-02,6.640694290399551392e-02,-3.198864310979843140e-02,1.682798415422439575e-01,-1.904374361038208008e-01,4.767210409045219421e-02,6.801853328943252563e-02,-5.830485001206398010e-02,-9.216338396072387695e-02,-1.389239281415939331e-01,6.844767183065414429e-02,2.110597640275955200e-01,6.921972334384918213e-02,-1.281946748495101929e-01,-3.975451365113258362e-02,8.493363857269287109e-02,-1.810024492442607880e-02,-1.917851865291595459e-01,8.664667606353759766e-03,-5.435882881283760071e-02,6.192519515752792358e-02,1.872001141309738159e-01,4.817927256226539612e-02,-1.069175526499748230e-01,-1.243295222520828247e-01,-3.613672032952308655e-02,-4.248441383242607117e-02,-4.036121070384979248e-02,-6.481798738241195679e-02,-2.086107432842254639e-01,3.594017028808593750e-02,1.014742627739906311e-01,-4.675519652664661407e-03,1.893206872045993805e-02,-3.689274424687027931e-03,-1.777204275131225586e-01,-4.144028574228286743e-02,1.081127896904945374e-01,3.581357002258300781e-02,6.406281888484954834e-02,-4.248318076133728027e-02,-1.292076855897903442e-01,9.627540409564971924e-02,-1.053065508604049683e-01,1.226308848708868027e-02,-1.498782169073820114e-02,1.166135594248771667e-01,-6.060948222875595093e-02,3.503203019499778748e-02,2.515068650245666504e-02,9.149539470672607422e-02,1.377137005329132080e-01,3.283490985631942749e-02,5.628846702165901661e-04,-6.268246099352836609e-03,1.767738163471221924e-01,-5.728240683674812317e-02,8.741376549005508423e-02,-4.552576318383216858e-02,2.350211888551712036e-02,1.165638342499732971e-01,-5.242745578289031982e-02,-6.849464774131774902e-02,2.208049781620502472e-02,8.685168577358126640e-04,1.114724203944206238e-01,-1.055519655346870422e-01,1.230240985751152039e-01,6.305182725191116333e-02,1.272526979446411133e-01,1.067740917205810547e-01,-1.421121209859848022e-01,-1.001093387603759766e-01,1.281398907303810120e-02,8.372091501951217651e-02,9.742808341979980469e-02,9.300295263528823853e-02,7.094551622867584229e-02,2.372630313038825989e-02,2.379746176302433014e-03,1.769813895225524902e-02,-5.154829472303390503e-02,-1.289642900228500366e-01,-7.641658931970596313e-02,-4.369902238249778748e-02,4.408410564064979553e-02,-1.331219449639320374e-02,-3.502909466624259949e-02,8.245539665222167969e-02,-1.255578100681304932e-01,6.173286959528923035e-02,-5.624996870756149292e-02,3.597525879740715027e-02,2.596646733582019806e-02,9.265819936990737915e-02,-1.339882016181945801e-01,-3.040831536054611206e-02,7.030683755874633789e-02,-4.981426894664764404e-02,5.275546014308929443e-02,1.504654288291931152e-01,-1.557312905788421631e-01,-3.893844783306121826e-02,-1.760748028755187988e-02,3.733238577842712402e-02,-3.312287479639053345e-02,-8.994451165199279785e-02,-1.403271406888961792e-02,-7.838439941406250000e-02,7.395138964056968689e-03,2.426799573004245758e-02,-4.406809434294700623e-02,-1.466090679168701172e-01,3.352023288607597351e-02,1.434615720063447952e-02,-8.128334581851959229e-02,-2.495858259499073029e-02,8.187825791537761688e-03,-4.602755606174468994e-02,-1.729368790984153748e-02,1.069072857499122620e-01,-1.496005803346633911e-01,8.160999417304992676e-02,1.069703139364719391e-02,1.641387641429901123e-01,5.484031140804290771e-02,2.547899447381496429e-02,-1.490419507026672363e-01,-1.222271919250488281e-01,1.113221272826194763e-01,-1.293518096208572388e-01,-5.737133324146270752e-02,-1.663154661655426025e-01,1.313377618789672852e-01,9.548081457614898682e-02,6.028307601809501648e-02,-7.830744981765747070e-02,8.406556397676467896e-02,-1.578838564455509186e-02,1.402618587017059326e-01,4.722426831722259521e-02,-4.107408970594406128e-02,1.379423737525939941e-01,5.202687904238700867e-02
-3.379835560917854309e-02,7.670192420482635498e-02,2.595279179513454437e-02,7.084709405899047852e-02,-2.087548747658729553e-02,1.242533605545759201e-02,-3.081897646188735962e-02,-8.647359907627105713e-02,1.192707866430282593e-01,1.692928187549114227e-02,-1.373972743749618530e-02,1.638873964548110962e-01,3.147467970848083496e-02,9.007333964109420776e-02,7.825349271297454834e-02,-1.120640635490417480e-01,6.769040226936340332e-02,4.355925321578979492e-02,6.278660148382186890e-02,9.230968356132507324e-02,7.099712640047073364e-02,6.274077109992504120e-03,-1.003794148564338684e-01,9.147657081484794617e-03,1.417548358440399170e-01,8.064477704465389252e-03,-4.196279495954513550e-02,-4.335009306669235229e-02,-1.003967821598052979e-01,8.222942054271697998e-02,-1.083213016390800476e-01,-8.692063391208648682e-02,-1.198216676712036133e-01,-8.537726849317550659e-02,-1.124309897422790527e-01,1.532242167741060257e-02,-6.262376159429550171e-02,1.876746565103530884e-01,1.932554319500923157e-02,9.164873510599136353e-02,-7.365907728672027588e-02,-8.965300768613815308e-02,7.926253229379653931e-02,1.572001166641712189e-02,-2.049305737018585205e-01,2.121483674272894859e-03,9.816954284906387329e-02,-6.983061879873275757e-02,3.932550083845853806e-03,-9.215692430734634399e-02,-4.040742665529251099e-02,-9.040762484073638916e-02,-7.867642492055892944e-02,-1.303417980670928955e-01,-1.043331846594810486e-01,-1.351147890090942383e-01,2.543197013437747955e-02,1.101747155189514160e-01,-7.340836338698863983e-03,-8.756874501705169678e-02,-2.756021171808242798e-02,9.983983822166919708e-03,7.084439694881439209e-02,-8.099471777677536011e-02,-6.181106343865394592e-02,3.424075245857238770e-02,-7.519220467656850815e-03,5.249868705868721008e-02,1.497504413127899170e-01,1.211141794919967651e-01,-1.676998585462570190e-01,8.009283244609832764e-02,-2.343141660094261169e-02,9.565684944391250610e-02,-1.243833824992179871e-02,-4.528414458036422729e-02,-3.045447356998920441e-02,1.362388134002685547e-01,4.726053774356842041e-02,-1.268038991838693619e-02,8.771789819002151489e-02,-1.159351244568824768e-01,-4.652259498834609985e-02,-1.334709376096725464e-01,9.199406951665878296e-02,6.060002837330102921e-03,-1.850933209061622620e-02,-8.342830091714859009e-02,6.137164309620857239e-02,6.239724159240722656e-02,-7.813590578734874725e-03,-1.229774877429008484e-01,-4.298290237784385681e-02,9.078481048345565796e-02,1.632047742605209351e-01,7.744452357292175293e-02,2.683148533105850220e-02,-2.973267983179539442e-04,-8.330722898244857788e-02,1.139964163303375244e-01,-1.081489548087120056e-01,1.006994917988777161e-01,5.993195623159408569e-02,1.110236644744873047e-01,-5.688020959496498108e-02,3.623570874333381653e-02,-5.216427147388458252e-02,-5.146607384085655212e-02,-3.574875369668006897e-02,-4.608339816331863403e-02,-1.644027605652809143e-02,4.961812496185302734e-02,7.951890677213668823e-02,-4.738396406173706055e-02,-1.074488386511802673e-01,-1.309822052717208862e-01,-3.081463836133480072e-02,-1.306221187114715576e-01,5.321920290589332581e-02,1.128246262669563293e-02,-1.557413581758737564e-02,-1.302915364503860474e-01,-2.720288373529911041e-02,9.883848950266838074e-03,1.229323819279670715e-02,9.481465071439743042e-02,1.159604117274284363e-01,5.709486454725265503e-02,9.512981772422790527e-02,-2.424476481974124908e-02,-7.417568471282720566e-03,2.053926326334476471e-02,-4.422667622566223145e-02,-7.404988259077072144e-02,-9.302403777837753296e-02,-9.198005497455596924e-02,-5.398105457425117493e-02,-1.754432730376720428e-02,-4.241219907999038696e-02,-3.028958104550838470e-02,-7.781683653593063354e-02,-7.404758036136627197e-02,-8.320549130439758301e-02,-1.023692935705184937e-01,-1.258315443992614746e-01,-1.279980689287185669e-01,1.139889657497406006e-01,-1.467401683330535889e-01,5.473428592085838318e-02,-1.114246174693107605e-01,-1.010291054844856262e-01,-1.295737922191619873e-01,8.174260705709457397e-02,-6.020455807447433472e-02,-7.373894006013870239e-02,-1.175026893615722656e-01,-1.517925411462783813e-02,-6.475322693586349487e-02,-1.092089712619781494e-01,-6.379698216915130615e-02,9.785948693752288818e-02,-1.412774920463562012e-01,-1.151710152626037598e-01,4.939932841807603836e-03,8.699609339237213135e-02,-2.784490212798118591e-02,-1.066367924213409424e-01,-8.451383560895919800e-02,-1.320713083259761333e-03,-4.313648119568824768e-02,-1.172640174627304077e-01,1.864187046885490417e-02,-9.826876968145370483e-02,-1.031436249613761902e-01,-1.276264041662216187e-01,1.813791168387979269e-04,-7.428887486457824707e-02,1.070105955004692078e-01,-1.786374486982822418e-02,7.091686129570007324e-02,-4.595690593123435974e-02,-1.122400611639022827e-01,-4.529269412159919739e-02,-3.063795715570449829e-02,-1.168215498328208923e-01,6.420267373323440552e-02,-3.051942680031061172e-03,1.202833428978919983e-01,-1.685032248497009277e-01,-1.564091742038726807e-01,-6.335081905126571655e-02,2.324504777789115906e-02,5.680127069354057312e-02,1.576722562313079834e-01,1.361468434333801270e-01,5.367499589920043945e-02,-4.475108534097671509e-02,6.930459290742874146e-02,-5.668297037482261658e-02,3.945454582571983337e-02
1.714663505554199219e-01,-1.690987944602966309e-01,-1.487937271595001221e-01,-1.003140956163406372e-01,-5.536202713847160339e-02,-4.787311702966690063e-02,8.280585706233978271e-02,2.353278920054435730e-02,-8.753236383199691772e-02,3.445233404636383057e-02,-1.116741448640823364e-01,-4.607992991805076599e-02,-7.517150789499282837e-02,-4.227478057146072388e-02,-1.453706473112106323e-01,-4.542319849133491516e-02,-9.927570819854736328e-02,-1.198424398899078369e-01,-3.563539311289787292e-02,-5.562633275985717773e-02,-9.030807763338088989e-02,-1.331926137208938599e-01,4.802516847848892212e-02,7.291111350059509277e-02,-1.638958901166915894e-01,-1.535000056028366089e-01,-6.243185326457023621e-02,-6.388922035694122314e-02,-9.357745945453643799e-02,5.727718397974967957e-02,7.428771257400512695e-02,1.909524202346801758e-02,2.665265696123242378e-03,-8.886547759175300598e-03,-6.727548688650131226e-02,-1.650012731552124023e-01,-5.754603538662195206e-03,1.071962118148803711e-01,4.993809014558792114e-02,-1.018390506505966187e-01,-1.314552426338195801e-01,6.382317747920751572e-03,-7.047428190708160400e-02,7.723524421453475952e-02,1.284309178590774536e-01,-3.346738219261169434e-02,-5.239590257406234741e-02,1.020043715834617615e-02,-4.925278574228286743e-02,-1.658641695976257324e-01,3.206169931218028069e-03,1.602309644222259521e-01,-6.557632982730865479e-02,1.202644109725952148e-01,1.289577805437147617e-03,-6.206699088215827942e-02,5.954206734895706177e-02,3.913992270827293396e-02,4.170674458146095276e-02,1.712905056774616241e-02,-8.294866979122161865e-02,-1.632598489522933960e-01,-1.405391395092010498e-01,-8.335446007549762726e-03,-5.531467124819755554e-02,1.494961529970169067e-01,9.396885870955884457e-04,-2.011266723275184631e-02,-1.761636734008789062e-01,-1.453767716884613037e-01,1.346381753683090210e-01,-2.979161217808723450e-02,1.458021700382232666e-01,6.472122669219970703e-02,1.096968576312065125e-01,3.495455533266067505e-02,-5.454833060503005981e-02,2.721979469060897827e-02,2.489861659705638885e-02,2.365871332585811615e-02,-1.054929271340370178e-01,1.098592802882194519e-01,1.093377098441123962e-01,5.760430544614791870e-02,-1.400223970413208008e-01,-1.060129180550575256e-01,9.912297129631042480e-03,8.886644244194030762e-02,-1.895849406719207764e-01,-1.311014443635940552e-01,1.419852674007415771e-01,-7.082143425941467285e-02,7.158876210451126099e-02,-3.128007352352142334e-01,-1.309640891849994659e-02,3.150722756981849670e-02,8.298674970865249634e-02,4.048682376742362976e-02,-7.873069494962692261e-02,-1.068888753652572632e-01,-1.377858668565750122e-01,-1.333694458007812500e-01,-8.130733668804168701e-02,1.234356611967086792e-01,-5.049575120210647583e-02,-4.966840893030166626e-02,2.787644334603101015e-04,-2.959824167191982269e-02,-4.087382182478904724e-02,-8.791849762201309204e-02,-9.730000048875808716e-02,1.756304949522018433e-01,1.232910454273223877e-01,-3.452003374695777893e-02,-1.759804189205169678e-01,-6.172860413789749146e-02,6.489223986864089966e-02,2.805208228528499603e-02,4.776246100664138794e-02,1.522230170667171478e-02,-9.912629425525665283e-02,-1.811488419771194458e-01,-1.338530480861663818e-01,-5.961651448160409927e-03,1.420103013515472412e-03,-1.781213581562042236e-01,-6.295431405305862427e-02,1.495058685541152954e-01,-7.692458480596542358e-02,-9.493365883827209473e-02,7.557358592748641968e-02,-4.351345449686050415e-02,4.760354384779930115e-02,2.332702279090881348e-02,1.062676832079887390e-01,-1.393261998891830444e-01,7.249952852725982666e-02,-3.952575102448463440e-02,-3.416672348976135254e-02,4.883749783039093018e-02,-4.418969154357910156e-02,1.851502954959869385e-01,-1.812404766678810120e-02,4.790935292840003967e-02,1.819861978292465210e-01,6.699012964963912964e-02,1.390446424484252930e-01,-5.362979322671890259e-02,1.109151318669319153e-01,-6.215849425643682480e-03,-1.518579721450805664e-01,-4.670424014329910278e-02,-8.980690687894821167e-02,1.178559660911560059e-01,-8.279078453779220581e-02,-1.039019152522087097e-01,-1.020033061504364014e-01,-1.516373604536056519e-01,-5.907540675252676010e-03,-1.380970180034637451e-01,3.719965368509292603e-02,-1.015049815177917480e-01,-1.496751904487609863e-01,-9.762741625308990479e-02,-1.274039298295974731e-01,9.368855506181716919e-03,-3.085432387888431549e-02,7.392102479934692383e-02,-1.098061129450798035e-01,-7.828280329704284668e-02,-1.812253445386886597e-01,-4.883820936083793640e-02,1.862362772226333618e-02,-1.380175352096557617e-02,-1.307381717197131366e-05,-4.498000070452690125e-02,5.381333455443382263e-02,1.424141377210617065e-01,-9.373792260885238647e-02,-8.323372155427932739e-02,-1.765309274196624756e-01,7.966958731412887573e-02,-1.644815206527709961e-01,-1.625436395406723022e-01,1.710632294416427612e-01,-1.616330593824386597e-01,-9.233429282903671265e-02,-1.740114577114582062e-02,-4.716157540678977966e-02,1.018847674131393433e-01,-9.863463789224624634e-02,2.176950424909591675e-01,-8.328024297952651978e-02,1.646031625568866730e-02,-2.117743939161300659e-01,-9.616841375827789307e-02,-5.964865535497665405e-02,-2.160793915390968323e-02,2.196178771555423737e-02,-5.738675594329833984e-02
