-2.027046531438827515e-01,5.995802953839302063e-02,2.727944217622280121e-02,-4.135364890098571777e-01,-1.383159309625625610e-01,3.485250053927302361e-03,3.916246592998504639e-01,6.509122848510742188e-01,6.616317480802536011e-02,-6.772218346595764160e-01,-1.744565069675445557e-01,1.829736828804016113e-01,3.013235926628112793e-01,2.085812091827392578e-01,4.579932615160942078e-02,-3.310508131980895996e-01,6.968308985233306885e-02,-1.870048344135284424e-01,-1.274193264544010162e-02,-2.461705654859542847e-01,3.900087997317314148e-02,7.787563800811767578e-01,-2.503296360373497009e-02,1.647291481494903564e-01,-3.302418589591979980e-01,6.723979115486145020e-01,-7.772509008646011353e-02,5.421963930130004883e-01,4.990743100643157959e-02,7.013715803623199463e-02,3.044538199901580811e-01,3.210199177265167236e-01,-2.622880972921848297e-03,2.390356510877609253e-01,5.297068953514099121e-01,-3.623224496841430664e-01,1.917362809181213379e-01,5.110258460044860840e-01,-3.391486406326293945e-01,3.817795962095260620e-02,1.460277736186981201e-01,-1.485330164432525635e-01,2.503493428230285645e-01,-2.500716149806976318e-01,-4.682136774063110352e-01,-6.426575779914855957e-01,1.255154907703399658e-01,-4.771060347557067871e-01,-1.608370989561080933e-01,7.220646739006042480e-01,1.414713710546493530e-01,7.369294166564941406e-01,-2.185049057006835938e-01,-2.422573789954185486e-02,-2.202063202857971191e-01,1.458524260669946671e-02,1.160822659730911255e-01,3.858950436115264893e-01,-2.826973795890808105e-01,1.077072545886039734e-01,-3.987139463424682617e-01,-3.438232094049453735e-02,-5.322916507720947266e-01,1.097330302000045776e-01,9.283253550529479980e-02,-2.148831784725189209e-01,-4.140458703041076660e-01,-2.445946633815765381e-02,5.940817594528198242e-01,-1.040820777416229248e-01,-2.922128736972808838e-01,2.745940983295440674e-01,-7.350044846534729004e-01,-3.428204953670501709e-01,-4.672877490520477295e-01,-1.765710264444351196e-01,5.877255201339721680e-01,2.848961390554904938e-02,-1.885683089494705200e-02,-1.979388445615768433e-01,5.604019761085510254e-01,-3.542338907718658447e-01,-1.472872197628021240e-01,-1.692390888929367065e-01,4.681158363819122314e-01,6.145730018615722656e-01,-4.484962821006774902e-01,-1.865015178918838501e-01,-1.322847455739974976e-01,-6.241491436958312988e-01,-6.425498425960540771e-02,7.629225403070449829e-02,-1.472889352589845657e-02,6.294474601745605469e-01,-1.858147233724594116e-01,-4.784932732582092285e-01,6.006028056144714355e-01,4.854654967784881592e-01,7.803425192832946777e-03,-4.391119480133056641e-01,-5.843429565429687500e-01,-2.962094843387603760e-01,-2.455682456493377686e-01,1.461391150951385498e-01,4.191455245018005371e-02,7.044061422348022461e-01,-1.468780636787414551e-01,-3.412824273109436035e-01,-9.408453106880187988e-02,-4.195044636726379395e-01,6.230961084365844727e-01,-1.110445521771907806e-02,-1.438785437494516373e-02,-6.087011098861694336e-02,6.808654665946960449e-01,1.049517616629600525e-01,-3.305943906307220459e-01,-3.638506829738616943e-01,6.493246555328369141e-01,2.432353645563125610e-01,-1.006417628377676010e-02,6.077916622161865234e-01,3.932297527790069580e-01,-5.001341551542282104e-02,-3.650751709938049316e-01,5.178529024124145508e-01,4.940616786479949951e-01,2.621369995176792145e-02,-3.857744634151458740e-01,4.688156545162200928e-01,2.241712510585784912e-01,-1.549298316240310669e-01,-4.803893342614173889e-02,9.175749123096466064e-02,-2.235810011625289917e-01,1.104433238506317139e-01,-1.468932330608367920e-01,6.502065807580947876e-02,1.379022840410470963e-02,-4.717532098293304443e-01,-1.926717758178710938e-01,-1.570014506578445435e-01,-3.267092704772949219e-01,1.515662670135498047e-01,2.077437192201614380e-01,-6.446182727813720703e-02,-4.455063045024871826e-01,-2.409364283084869385e-01,-3.594550788402557373e-01,1.563476771116256714e-02,3.930306434631347656e-02,-1.245459467172622681e-01,-2.828936576843261719e-01,-4.393582642078399658e-01,1.973225623369216919e-01,5.176961049437522888e-02,5.169619247317314148e-02,2.719000279903411865e-01,-8.963122963905334473e-02,-5.263980478048324585e-02,-3.051590323448181152e-01,6.617074459791183472e-02,-2.280600517988204956e-01,9.106902778148651123e-02,1.705587469041347504e-02,-7.292434573173522949e-02,2.382869422435760498e-01,1.184357777237892151e-01,4.050794839859008789e-01,5.770133137702941895e-01,-3.242068365216255188e-02,5.734143853187561035e-01,2.122704684734344482e-01,1.350344419479370117e-01,-4.519069790840148926e-01,-2.072011530399322510e-01,6.612254381179809570e-01,5.766683220863342285e-01,-2.123733460903167725e-01,-5.659347772598266602e-01,-1.235652342438697815e-01,-1.290071159601211548e-01,-4.516353309154510498e-01,-1.131736394017934799e-02,-2.908180840313434601e-02,1.319022625684738159e-01,1.155899018049240112e-01,-5.882800221443176270e-01,-2.882231473922729492e-01,2.282224148511886597e-01,7.871192693710327148e-02,1.869723498821258545e-01,2.853756248950958252e-01,-5.883741974830627441e-01,4.820874035358428955e-01,3.019903898239135742e-01,-8.061740547418594360e-03,1.313504278659820557e-01,-6.882129609584808350e-02,-3.384843096137046814e-02
8.684320747852325439e-02,-1.716779917478561401e-01,1.641068607568740845e-01,-9.911148250102996826e-02,-6.615706533193588257e-02,-2.989998459815979004e-02,2.992300316691398621e-02,4.356281831860542297e-02,3.895079717040061951e-02,-1.015284098684787750e-03,-1.049542892724275589e-02,2.255386486649513245e-02,-2.309324592351913452e-02,-6.561093032360076904e-02,-6.937739998102188110e-02,-1.317557040601968765e-02,8.194217085838317871e-02,-4.571160767227411270e-03,3.094186447560787201e-02,4.426156170666217804e-03,9.937828779220581055e-02,7.157021318562328815e-04,-1.284438967704772949e-01,4.208824411034584045e-02,-1.880019456148147583e-01,1.347925048321485519e-02,3.280119001865386963e-01,6.392110139131546021e-02,-6.931789219379425049e-02,-1.020213216543197632e-01,-6.545299291610717773e-02,-3.911649435758590698e-02,-7.081089168787002563e-02,4.665733873844146729e-02,1.033715158700942993e-01,2.133672125637531281e-02,4.865402728319168091e-02,-5.785654112696647644e-02,-9.967621415853500366e-02,-1.224431246519088745e-01,-4.579604789614677429e-02,-5.270610749721527100e-02,-4.309188574552536011e-02,-2.179803401231765747e-01,2.348998747766017914e-02,-1.273459382355213165e-02,1.336137503385543823e-01,-1.003783643245697021e-01,-1.491463780403137207e-01,1.274341065436601639e-02,1.657168567180633545e-02,2.742565609514713287e-02,4.311227053403854370e-02,-4.352363944053649902e-02,3.549881651997566223e-02,1.162046194076538086e-01,-3.547053411602973938e-02,-1.868528127670288086e-01,-1.178609356284141541e-01,-9.096051752567291260e-02,3.835082426667213440e-02,1.526728868484497070e-01,1.012435927987098694e-01,5.642132833600044250e-02,-1.183794364333152771e-01,-2.815372943878173828e-01,-2.961743250489234924e-02,3.269518166780471802e-02,-3.899160027503967285e-02,-1.291179507970809937e-01,2.499123960733413696e-01,4.192198440432548523e-02,-4.203831031918525696e-02,-6.670621782541275024e-02,1.852082461118698120e-02,-7.812125235795974731e-02,5.818094313144683838e-02,-2.164918929338455200e-02,-1.549062039703130722e-02,8.533120155334472656e-02,-5.385247245430946350e-02,6.364780943840742111e-03,1.243629679083824158e-01,2.669171057641506195e-02,-3.843232616782188416e-02,-5.390134081244468689e-02,-4.431756958365440369e-02,1.009030267596244812e-01,1.848123371601104736e-01,-7.329959422349929810e-02,1.267103552818298340e-01,8.241510391235351562e-02,1.200502831488847733e-02,-4.061603546142578125e-02,1.107068806886672974e-01,9.372410178184509277e-02,1.173408031463623047e-01,2.650786563754081726e-02,8.547365665435791016e-02,-1.944321766495704651e-02,7.514975219964981079e-02,-1.120086237788200378e-01,-2.731428481638431549e-02,-4.591012001037597656e-02,6.198640912771224976e-02,-3.155227750539779663e-02,1.144789606332778931e-01,-2.310804873704910278e-01,-2.653780579566955566e-01,-8.981983363628387451e-02,-3.185876458883285522e-02,-3.378492593765258789e-02,-1.910238265991210938e-01,6.620885431766510010e-02,1.956729739904403687e-01,-1.562604010105133057e-01,3.422289341688156128e-02,6.689974665641784668e-02,-7.392040453851222992e-03,-4.884555190801620483e-02,1.186810657382011414e-01,2.540201880037784576e-02,1.433445662260055542e-01,1.021767221391201019e-02,2.681307122111320496e-02,-6.673249602317810059e-02,-4.311537370085716248e-02,3.733760118484497070e-02,4.765920713543891907e-02,4.843730479478836060e-02,1.242801621556282043e-01,-1.766798272728919983e-02,-7.079821079969406128e-02,-6.017314270138740540e-02,1.173823401331901550e-01,-1.241783946752548218e-01,-9.764772653579711914e-02,-6.585606932640075684e-02,-6.239100545644760132e-02,1.337044686079025269e-01,5.074713379144668579e-02,1.702812016010284424e-01,5.620067939162254333e-02,-7.932950975373387337e-04,7.584413141012191772e-02,3.334819525480270386e-02,2.804427640512585640e-03,-4.672464728355407715e-02,-7.879863679409027100e-02,1.816591620445251465e-02,-6.010803952813148499e-02,1.901163756847381592e-01,-1.627936512231826782e-01,-4.594939947128295898e-02,1.301650553941726685e-01,-1.040735021233558655e-01,2.574743330478668213e-02,9.465233236551284790e-02,1.742897033691406250e-01,-3.860012814402580261e-02,3.482268005609512329e-02,1.863605082035064697e-01,-1.934874355792999268e-01,1.220451742410659790e-01,-1.648805849254131317e-02,1.916790306568145752e-01,1.776132546365261078e-02,3.457592427730560303e-02,-1.180790290236473083e-01,-4.907423630356788635e-02,-8.655960857868194580e-02,-8.804270625114440918e-02,2.182489782571792603e-01,-8.758990466594696045e-02,-7.848220877349376678e-03,8.781499415636062622e-02,1.867935498012229800e-04,-6.470167636871337891e-02,7.351632229983806610e-03,6.356611847877502441e-02,7.922505959868431091e-03,-1.511687934398651123e-01,-2.245643287897109985e-01,5.999456718564033508e-02,-1.464181300252676010e-02,8.322738111019134521e-02,5.052953213453292847e-02,-1.020799279212951660e-01,1.602322310209274292e-01,-1.352079361677169800e-01,3.054261021316051483e-02,1.042923107743263245e-01,7.567880302667617798e-02,-8.821026235818862915e-02,-2.527859248220920563e-02,-8.305792510509490967e-02,-3.649581968784332275e-02,-1.975090056657791138e-01,1.549626588821411133e-01,5.267741531133651733e-02
7.259357720613479614e-02,-3.562088310718536377e-02,7.709559053182601929e-03,3.639725223183631897e-02,-8.804901689291000366e-02,5.211863666772842407e-02,-3.457320109009742737e-02,8.611074835062026978e-02,-5.807380750775337219e-02,1.485508959740400314e-02,-1.173346936702728271e-01,1.177662685513496399e-01,1.230426207184791565e-01,6.385742872953414917e-02,-5.986921116709709167e-02,3.427727147936820984e-02,-1.753212809562683105e-01,-3.822615370154380798e-02,1.749404333531856537e-02,1.313920915126800537e-01,6.858776509761810303e-02,-1.324487477540969849e-01,1.952585019171237946e-02,6.482899934053421021e-02,8.228606730699539185e-02,-1.093183234333992004e-01,-1.112857982516288757e-01,-2.891283296048641205e-02,6.835803389549255371e-02,7.034726440906524658e-02,6.567329633980989456e-03,-2.998493984341621399e-02,1.127436980605125427e-01,6.829960644245147705e-02,-5.220150575041770935e-02,1.624368876218795776e-02,-9.557216614484786987e-02,-7.994027808308601379e-03,1.220028847455978394e-01,1.291156113147735596e-01,7.504658401012420654e-02,6.015102192759513855e-02,-6.624777801334857941e-03,-8.444009721279144287e-02,6.608439236879348755e-02,5.053437128663063049e-02,7.931158691644668579e-02,3.279992192983627319e-02,4.522607848048210144e-02,-2.876433171331882477e-02,-4.315054789185523987e-02,-8.245070278644561768e-02,1.041867360472679138e-01,1.166170742362737656e-02,6.004967540502548218e-02,4.577990621328353882e-02,1.089413370937108994e-02,-1.519810501486063004e-02,-7.483244687318801880e-02,7.196000963449478149e-02,-1.049618571996688843e-01,-2.617277204990386963e-02,1.023430526256561279e-01,9.605489671230316162e-03,3.502216935157775879e-02,-1.110337004065513611e-01,1.324900090694427490e-01,-1.124634221196174622e-01,9.870138019323348999e-04,1.059424784034490585e-02,-6.105460226535797119e-03,-1.192274317145347595e-01,6.774635612964630127e-02,-6.560703366994857788e-02,-7.493789494037628174e-02,-8.546524494886398315e-02,-6.904649734497070312e-02,-1.800125390291213989e-01,8.800756186246871948e-02,-1.181552186608314514e-02,-6.130728498101234436e-02,7.847399264574050903e-02,5.965672805905342102e-02,-2.976920828223228455e-02,-8.980736881494522095e-02,6.447122246026992798e-02,7.089878618717193604e-02,5.065420642495155334e-02,-1.146485209465026855e-01,6.511244177818298340e-02,9.411619603633880615e-02,-7.577008008956909180e-02,-6.481783092021942139e-02,3.941017016768455505e-02,-1.068071424961090088e-01,6.296085193753242493e-03,-1.671949774026870728e-02,1.306660473346710205e-03,-3.657648339867591858e-02,2.062428556382656097e-02,-4.361114278435707092e-02,1.139481887221336365e-01,1.600646823644638062e-01,7.035814225673675537e-02,7.192549109458923340e-02,-8.558617532253265381e-02,-2.730309590697288513e-02,1.825793273746967316e-02,-5.785401538014411926e-02,-1.492396183311939240e-02,-4.415100812911987305e-02,4.708528146147727966e-02,-6.732004880905151367e-02,6.599603220820426941e-03,-8.155483007431030273e-02,-4.215811565518379211e-02,5.937044508755207062e-03,7.365103065967559814e-02,6.367851980030536652e-03,3.445931896567344666e-02,2.400542050600051880e-02,-3.222449868917465210e-02,1.465888461098074913e-03,-1.128863841295242310e-01,1.606228649616241455e-01,-1.113195717334747314e-01,-6.308375298976898193e-02,-1.606351695954799652e-02,3.007648512721061707e-02,-8.872710168361663818e-02,-5.775986984372138977e-02,-7.828883081674575806e-02,3.404723852872848511e-02,9.210975468158721924e-02,1.398593634366989136e-01,-3.242164105176925659e-02,1.402304917573928833e-01,5.533789470791816711e-02,-1.594371646642684937e-01,-5.156929045915603638e-02,1.909716427326202393e-02,9.282708168029785156e-02,9.681358188390731812e-02,5.679851770401000977e-02,-4.760171845555305481e-02,1.033352222293615341e-03,6.211248785257339478e-02,-7.650703936815261841e-02,8.721106685698032379e-03,-1.135289594531059265e-01,-6.237127259373664856e-02,1.518228054046630859e-01,1.755842752754688263e-02,2.105111721903085709e-03,1.717102155089378357e-02,1.127071604132652283e-01,-1.359025985002517700e-01,2.861965820193290710e-02,8.782073855400085449e-02,-5.129405856132507324e-02,6.040779128670692444e-02,-1.922165155410766602e-01,-2.922088839113712311e-02,-1.121038105338811874e-02,-6.867901980876922607e-02,5.106722563505172729e-02,-1.008102484047412872e-02,-8.345800638198852539e-02,6.658159196376800537e-02,8.340291678905487061e-02,4.563641920685768127e-02,-4.184387996792793274e-02,-8.505693078041076660e-02,3.699060901999473572e-02,1.331084668636322021e-01,1.533085554838180542e-01,-1.042381152510643005e-01,4.946007579565048218e-02,1.536754071712493896e-01,2.676987461745738983e-02,-3.565422073006629944e-02,1.235484257340431213e-01,-4.064927343279123306e-03,7.830698788166046143e-02,1.024925336241722107e-01,2.127207256853580475e-02,5.440783128142356873e-02,-7.449466735124588013e-02,8.628052659332752228e-03,-3.789910674095153809e-02,-8.622564375400543213e-02,-2.377738431096076965e-02,3.843366727232933044e-02,7.970250397920608521e-02,-6.306642293930053711e-02,-1.749455742537975311e-02,1.068239882588386536e-01,-9.038332104682922363e-02,-1.918363571166992188e-01,1.756571792066097260e-02
1.341084484010934830e-02,-1.046177372336387634e-01,-3.289881721138954163e-02,-9.301068633794784546e-02,8.796347677707672119e-02,1.734886877238750458e-02,1.096235811710357666e-01,1.856034994125366211e-01,5.952874943614006042e-02,1.124989837408065796e-01,1.270861476659774780e-01,1.516647338867187500e-01,1.461463868618011475e-01,-1.134850010275840759e-01,-1.540512740612030029e-01,-2.161529958248138428e-01,-2.195378765463829041e-02,1.288508772850036621e-01,-7.613645493984222412e-02,-1.422391086816787720e-01,3.082659281790256500e-02,-2.503916993737220764e-02,1.821440756320953369e-01,1.073204278945922852e-01,-1.329257339239120483e-01,-1.602232456207275391e-03,4.598402604460716248e-02,-4.607459530234336853e-02,-1.095591038465499878e-01,8.280399441719055176e-02,1.663585007190704346e-01,-1.345985680818557739e-01,-1.199820712208747864e-01,9.192214161157608032e-02,1.166112869977951050e-01,-1.427003592252731323e-01,-2.910510897636413574e-01,-3.690631315112113953e-02,1.110933348536491394e-01,-2.377456277608871460e-01,1.126459315419197083e-01,-5.549006536602973938e-02,1.832283437252044678e-01,-3.548858463764190674e-01,-6.032477691769599915e-02,-2.282553613185882568e-01,-3.206008672714233398e-02,-3.373096287250518799e-01,-1.918587088584899902e-01,2.342322617769241333e-01,2.779316529631614685e-02,1.355552673339843750e-01,1.979737281799316406e-01,-6.304507702589035034e-02,7.447966188192367554e-02,-1.788145750761032104e-01,-3.724202886223793030e-02,-1.541997343301773071e-01,9.792383760213851929e-02,-9.228216111660003662e-02,7.412857841700315475e-03,1.437440514564514160e-02,-8.077128976583480835e-02,5.943546816706657410e-02,2.463913559913635254e-01,-1.252010613679885864e-01,-5.162703990936279297e-02,-1.369213014841079712e-01,1.813124567270278931e-01,-1.211585104465484619e-01,6.859066337347030640e-02,-1.060496121644973755e-01,9.544803947210311890e-02,-8.448860608041286469e-03,-3.100914955139160156e-01,7.556150853633880615e-02,3.236385583877563477e-01,-2.927798777818679810e-02,3.615116328001022339e-02,-5.426432937383651733e-02,-7.071767002344131470e-03,-1.330774463713169098e-02,-7.099743187427520752e-02,2.078409641981124878e-01,1.508512496948242188e-01,3.258166462182998657e-02,-3.426165282726287842e-01,3.364175930619239807e-02,-1.218779161572456360e-01,-1.002687215805053711e-01,8.983854204416275024e-03,2.261866033077239990e-01,-1.267801821231842041e-01,2.180130034685134888e-01,-4.925559088587760925e-02,6.737442314624786377e-02,-2.487235218286514282e-01,1.344061344861984253e-01,-3.118028119206428528e-02,-1.821885854005813599e-01,-2.855342924594879150e-01,-3.645504415035247803e-01,-9.987097978591918945e-02,-1.454462409019470215e-01,6.517963856458663940e-02,-4.417040199041366577e-02,-2.979686856269836426e-01,-6.835032254457473755e-02,-1.053200811147689819e-01,-4.902714863419532776e-02,-8.395400643348693848e-02,-2.738038301467895508e-01,5.142620578408241272e-02,3.166153281927108765e-02,-9.128622710704803467e-02,-2.166099250316619873e-01,-5.394905433058738708e-02,-1.697916723787784576e-02,1.757185608148574829e-01,1.663059592247009277e-01,1.086263582110404968e-01,8.523262292146682739e-02,1.520284265279769897e-01,3.369968384504318237e-02,4.672590643167495728e-02,1.699659377336502075e-01,-4.369341209530830383e-02,2.911186590790748596e-02,-1.827955096960067749e-01,5.074344202876091003e-02,6.668359972536563873e-03,-2.239013016223907471e-01,4.459061473608016968e-02,-1.229340583086013794e-01,1.189374946989119053e-03,-1.912844032049179077e-01,9.514174610376358032e-02,1.637820340692996979e-02,-1.006511822342872620e-01,2.219429425895214081e-02,2.950668334960937500e-02,-6.239644438028335571e-02,9.343488514423370361e-02,-9.249736554920673370e-03,9.200560301542282104e-02,1.438387334346771240e-01,-1.761403083801269531e-01,6.883005797863006592e-02,5.491394177079200745e-02,-2.515626549720764160e-01,-1.788920350372791290e-02,1.339328736066818237e-01,-2.330304682254791260e-01,-6.863404065370559692e-02,2.037280648946762085e-01,1.707731559872627258e-02,-1.404586583375930786e-01,2.625122070312500000e-01,2.139943689107894897e-01,1.716434769332408905e-02,-3.401243686676025391e-01,-2.317571491003036499e-01,-2.413816303014755249e-01,9.956248104572296143e-02,7.747153192758560181e-02,7.421075552701950073e-02,-5.402252450585365295e-02,-1.062133014202117920e-01,-2.936478145420551300e-02,5.944166332483291626e-02,-1.905026882886886597e-01,-9.784790873527526855e-02,5.196691676974296570e-02,2.584567964076995850e-01,-2.666531875729560852e-02,4.660796746611595154e-02,4.768411815166473389e-02,1.660205982625484467e-02,-5.764724686741828918e-02,1.723775081336498260e-02,-6.003222987055778503e-02,8.108705282211303711e-02,-2.359955757856369019e-01,1.491738134063780308e-03,-1.391631364822387695e-01,4.429782927036285400e-02,-1.850203871726989746e-01,-1.035856008529663086e-01,-6.870795786380767822e-02,-2.384811192750930786e-01,-1.798388659954071045e-01,2.038308978080749512e-01,1.083239912986755371e-01,-2.950728237628936768e-01,1.973392814397811890e-01,-3.005115687847137451e-02,1.498672515153884888e-01,1.543734129518270493e-02,1.087148338556289673e-01,1.961244791746139526e-01
-7.102806121110916138e-02,9.968792647123336792e-02,-1.265699267387390137e-01,-1.720441132783889771e-01,-1.392446737736463547e-02,-1.964659094810485840e-01,-2.444964051246643066e-01,-2.888526022434234619e-01,1.171872243285179138e-01,-4.090997576713562012e-02,-1.626950129866600037e-02,1.201421692967414856e-01,2.024609595537185669e-01,-3.059992939233779907e-02,-2.604383528232574463e-01,-1.695365160703659058e-01,1.645801514387130737e-01,-2.548796236515045166e-01,1.283347159624099731e-01,1.361844222992658615e-02,1.558411121368408203e-01,-3.411228582262992859e-02,8.177316933870315552e-02,-1.068784967064857483e-01,3.075645538046956062e-03,6.173833832144737244e-02,1.089125797152519226e-01,1.856275200843811035e-01,3.148219287395477295e-01,8.315220475196838379e-02,-3.607916086912155151e-02,2.038008123636245728e-01,-1.715819984674453735e-01,2.651603221893310547e-01,-2.911877632141113281e-01,-2.277349308133125305e-02,8.386929333209991455e-02,2.298483848571777344e-01,-2.152076214551925659e-01,-9.480861015617847443e-03,5.909655243158340454e-02,1.490780264139175415e-01,5.805299803614616394e-02,-5.955101177096366882e-02,-3.195876777172088623e-01,-2.358837239444255829e-02,-3.353260830044746399e-02,5.961954593658447266e-02,-4.455780237913131714e-02,8.849761448800563812e-03,-1.316513717174530029e-01,-1.073754653334617615e-01,-9.034556150436401367e-02,-2.988417819142341614e-02,4.483974771574139595e-04,-3.716138601303100586e-01,-3.858046233654022217e-02,-2.074747532606124878e-01,-2.382049523293972015e-02,9.809480607509613037e-02,2.193167991936206818e-02,-5.439591035246849060e-02,-3.809278458356857300e-02,-7.877273112535476685e-02,-6.218199431896209717e-02,-1.044015288352966309e-01,-2.980156540870666504e-01,9.366257116198539734e-03,-1.550597231835126877e-02,2.765451371669769287e-01,4.370018839836120605e-03,1.281898468732833862e-02,-1.694046705961227417e-01,-4.920760542154312134e-02,2.564143240451812744e-01,-4.216348752379417419e-02,-7.191149890422821045e-02,2.434131205081939697e-01,6.966642290353775024e-02,-1.640696078538894653e-02,9.669597446918487549e-02,-1.521639376878738403e-01,-9.865430742502212524e-02,4.137920215725898743e-02,5.921488255262374878e-02,1.638845503330230713e-01,-5.718011781573295593e-02,-1.724022626876831055e-01,-1.546659041196107864e-02,5.868275836110115051e-02,-1.165116280317306519e-01,1.165964230895042419e-01,9.528013318777084351e-02,-5.928295850753784180e-02,1.598806381225585938e-01,1.386419385671615601e-01,5.472725257277488708e-02,-2.476331144571304321e-01,1.017548888921737671e-01,7.126923184841871262e-03,6.439712643623352051e-02,5.779734347015619278e-03,1.405281573534011841e-02,2.221073210239410400e-01,-4.438060894608497620e-02,-3.351039811968803406e-02,1.191084161400794983e-01,5.260742828249931335e-02,1.647261530160903931e-02,-1.817997731268405914e-02,-1.324265450239181519e-01,9.398160129785537720e-02,3.821450769901275635e-01,1.868035644292831421e-01,-3.514576330780982971e-02,-1.211632508784532547e-02,-7.773466408252716064e-03,-7.791280001401901245e-02,-8.769249171018600464e-02,-2.442008629441261292e-02,1.476612985134124756e-01,-2.195944786071777344e-01,-1.562667936086654663e-01,1.078910008072853088e-02,-1.270809471607208252e-01,2.228317558765411377e-01,1.877613738179206848e-02,-3.767641633749008179e-02,2.085716426372528076e-01,-1.110322028398513794e-01,1.409338414669036865e-01,1.913286447525024414e-01,5.748267844319343567e-02,-1.848152875900268555e-01,1.040455400943756104e-01,-1.006847992539405823e-01,-1.409767121076583862e-01,6.744046509265899658e-02,2.397931925952434540e-02,1.101351231336593628e-01,6.555585563182830811e-02,-1.543297711759805679e-02,9.011167287826538086e-02,-6.707248836755752563e-02,-3.288077414035797119e-01,1.941287070512771606e-01,2.435153126716613770e-01,-2.288697510957717896e-01,4.464890062808990479e-02,-5.572764948010444641e-02,-2.626791894435882568e-01,-9.312001615762710571e-02,6.135653331875801086e-02,-2.485604435205459595e-01,-1.875256597995758057e-01,1.203322485089302063e-01,-1.610037870705127716e-03,1.100895777344703674e-01,1.926781684160232544e-01,-1.312623769044876099e-01,1.980167627334594727e-01,5.799402482807636261e-03,6.043595448136329651e-02,1.319039463996887207e-01,-1.908634155988693237e-01,-1.128832995891571045e-01,-1.983103454113006592e-01,-2.658171057701110840e-01,-1.019858270883560181e-01,1.569052785634994507e-01,-3.458958491683006287e-02,-2.649514973163604736e-01,6.553019583225250244e-02,1.984141319990158081e-01,1.435110867023468018e-01,-4.229566082358360291e-02,1.672311872243881226e-01,-6.912342458963394165e-02,-1.392233222723007202e-01,-7.944626361131668091e-02,1.674364358186721802e-01,-2.801481783390045166e-01,-2.708205766975879669e-02,1.413903385400772095e-01,1.494950950145721436e-01,-3.021239340305328369e-01,7.584445178508758545e-02,7.111686468124389648e-02,-1.006001904606819153e-01,7.932675629854202271e-02,1.369129866361618042e-01,3.738961368799209595e-02,7.012429088354110718e-02,2.503330111503601074e-01,6.672514230012893677e-02,3.292487561702728271e-01,2.350089699029922485e-02,-1.225012238137423992e-04,-7.908852398395538330e-02,-5.982574820518493652e-02
1.209736242890357971e-01,-1.259446144104003906e-01,1.103786304593086243e-01,1.221198961138725281e-01,-6.650121510028839111e-02,1.937913596630096436e-01,8.338323235511779785e-02,1.853803843259811401e-01,-3.207394480705261230e-02,-1.008222550153732300e-01,-2.225360088050365448e-02,-2.495802752673625946e-02,3.048798441886901855e-02,-4.363890737295150757e-02,1.272299885749816895e-01,2.925576083362102509e-02,9.689537435770034790e-02,-2.103864103555679321e-01,-1.345368381589651108e-02,-5.960837006568908691e-02,8.629821240901947021e-03,-2.236869558691978455e-02,-4.982265643775463104e-03,5.189423635601997375e-02,-6.134228780865669250e-02,6.573287397623062134e-02,-1.246037334203720093e-02,-1.432541757822036743e-01,-2.644074894487857819e-02,7.789821922779083252e-02,1.106517910957336426e-01,-4.535385221242904663e-02,1.030970960855484009e-01,5.532725481316447258e-04,1.789496093988418579e-01,-1.109137758612632751e-01,5.522554740309715271e-02,-1.762633025646209717e-02,-2.654364891350269318e-02,9.583120793104171753e-02,-2.334049344062805176e-02,-6.317289173603057861e-02,4.231156036257743835e-02,2.306502908468246460e-01,6.780757755041122437e-02,-4.156604036688804626e-02,1.830094456672668457e-01,8.344383537769317627e-02,-1.408808082342147827e-01,-4.444286972284317017e-02,2.618740126490592957e-02,-8.565636351704597473e-03,4.697177186608314514e-02,-2.576832100749015808e-02,1.087829470634460449e-01,1.544817388057708740e-01,-4.226732254028320312e-02,1.166789010167121887e-01,-1.001299545168876648e-01,-5.761033669114112854e-02,-2.387043684720993042e-01,5.907385423779487610e-02,-3.056246340274810791e-01,3.244755417108535767e-02,6.848518550395965576e-02,-2.194575034081935883e-02,6.048283353447914124e-02,6.426536478102207184e-03,-1.722753494977951050e-01,-3.558357059955596924e-02,7.959412783384323120e-02,3.788817906752228737e-03,8.337325602769851685e-02,-1.327474266290664673e-01,-1.084795445203781128e-01,-2.767666801810264587e-02,-1.194209009408950806e-01,1.062794998288154602e-01,1.109548583626747131e-01,7.329037040472030640e-02,-2.406161278486251831e-02,1.111011430621147156e-01,1.697213202714920044e-02,2.591880969703197479e-02,9.942949563264846802e-02,-9.220233559608459473e-02,1.397693753242492676e-01,-4.796775057911872864e-02,3.451351448893547058e-02,-1.147438883781433105e-01,6.309900432825088501e-02,-1.126567181199789047e-02,-3.949471563100814819e-02,-3.919600322842597961e-02,8.855679072439670563e-03,1.186527088284492493e-01,-7.859703898429870605e-02,1.520541012287139893e-01,-8.054214715957641602e-02,7.831203192472457886e-02,-6.778398156166076660e-02,9.096967428922653198e-02,1.334911435842514038e-01,1.533780246973037720e-01,4.824391007423400879e-02,1.384167671203613281e-01,-3.412872087210416794e-03,9.947668015956878662e-02,1.092400550842285156e-01,1.498244702816009521e-02,5.524484813213348389e-02,3.041198477149009705e-02,-1.839076429605484009e-01,1.204236131161451340e-02,-1.857855618000030518e-01,5.818059667944908142e-03,3.672401187941431999e-03,1.285582929849624634e-01,1.281745135784149170e-01,4.025234282016754150e-02,1.519975159317255020e-02,-6.063825916498899460e-03,8.475510030984878540e-02,-7.813400030136108398e-02,2.984664868563413620e-03,-1.726416498422622681e-01,-6.001600995659828186e-02,-8.989566564559936523e-02,5.558761209249496460e-02,1.071983724832534790e-01,-8.924981951713562012e-02,-5.119976773858070374e-02,5.685737822204828262e-03,2.476646564900875092e-02,1.336999684572219849e-01,9.098555147647857666e-02,-8.179959654808044434e-02,1.073651462793350220e-01,5.671168863773345947e-02,5.848858878016471863e-02,-1.032649651169776917e-01,-6.610920280218124390e-02,-1.048207432031631470e-01,-1.520068198442459106e-01,1.542856842279434204e-01,4.375403746962547302e-02,1.184637658298015594e-02,-1.484842132776975632e-02,-3.159260004758834839e-02,1.205629557371139526e-01,7.772225886583328247e-02,1.658191531896591187e-01,-9.976516664028167725e-02,3.177991136908531189e-02,-3.774638101458549500e-02,9.600286185741424561e-02,6.577870994806289673e-02,-4.130007233470678329e-03,6.088340887799859047e-04,-9.924716316163539886e-03,1.192261651158332825e-02,-8.620236068964004517e-02,1.805992573499679565e-01,-1.565764695405960083e-01,-7.892164587974548340e-02,-1.870491728186607361e-02,1.229336261749267578e-01,6.875547766685485840e-02,-1.454019360244274139e-02,-5.585208535194396973e-02,2.291178517043590546e-02,2.052766531705856323e-01,-2.537439344450831413e-03,2.007753774523735046e-02,8.578235656023025513e-02,2.205027639865875244e-01,-3.849010542035102844e-02,1.516972109675407410e-02,1.032818108797073364e-01,1.789440363645553589e-01,-4.677968099713325500e-02,-1.235226634889841080e-02,-9.635941684246063232e-02,-9.149335324764251709e-02,-1.641591340303421021e-01,1.931607872247695923e-01,1.105889081954956055e-01,-1.832187324762344360e-01,-5.395986884832382202e-02,-6.706693209707736969e-03,-1.993448883295059204e-01,-1.292403936386108398e-01,-6.198352947831153870e-02,-1.225060895085334778e-01,-1.012572273612022400e-01,-1.038216352462768555e-01,7.285760343074798584e-02,-9.132061153650283813e-02,-1.940555274486541748e-01,-1.234987601637840271e-01
-9.484404325485229492e-02,5.779422819614410400e-02,-1.392247080802917480e-01,-4.313860833644866943e-02,-1.155985817313194275e-01,-5.015689134597778320e-02,-6.906422972679138184e-02,-6.044354289770126343e-02,-5.467760562896728516e-02,1.556211560964584351e-01,-9.834890067577362061e-02,-6.967438012361526489e-02,1.101358756422996521e-01,7.562746107578277588e-02,-4.373882710933685303e-02,-1.055642440915107727e-01,2.453485876321792603e-02,-4.305234923958778381e-02,8.522684872150421143e-02,1.054351627826690674e-01,-5.198185518383979797e-02,1.069868505001068115e-01,6.674848496913909912e-02,1.739501208066940308e-02,1.436399370431900024e-01,2.067113295197486877e-02,-7.082279771566390991e-02,1.622227206826210022e-02,1.475822776556015015e-01,5.229753255844116211e-02,-6.537505984306335449e-02,1.466628909111022949e-01,-1.632922291755676270e-01,-6.923379749059677124e-02,-1.204056516289710999e-01,2.419395297765731812e-01,7.973657548427581787e-02,8.492355793714523315e-02,7.016129046678543091e-02,-1.213363334536552429e-01,-1.340951211750507355e-02,-2.601122483611106873e-02,-3.312684968113899231e-02,3.146744892001152039e-02,-7.576939463615417480e-02,7.947809249162673950e-02,5.685559287667274475e-02,7.609450817108154297e-02,-3.231620416045188904e-02,-6.828376650810241699e-02,-1.798243969678878784e-01,-1.035685464739799500e-01,-1.888616830110549927e-01,-5.466851592063903809e-02,-1.893157660961151123e-01,-3.340891376137733459e-02,-3.357112035155296326e-02,2.668459527194499969e-02,-1.480160802602767944e-01,9.339234977960586548e-02,8.131829649209976196e-02,-2.448033988475799561e-01,1.291801482439041138e-01,1.543329749256372452e-02,-6.819427013397216797e-03,1.815513148903846741e-02,-1.924404129385948181e-02,-2.353252619504928589e-01,7.376804947853088379e-02,1.889946311712265015e-02,-1.625590473413467407e-01,8.768554031848907471e-02,-8.558983355760574341e-02,1.511323265731334686e-02,1.841068267822265625e-01,-9.892830997705459595e-02,-2.162486761808395386e-01,3.191975876688957214e-02,-2.077368833124637604e-02,1.861895993351936340e-02,-2.007403969764709473e-02,-1.115436106920242310e-01,1.452894136309623718e-02,1.845068112015724182e-02,-1.070753559470176697e-01,-5.406885594129562378e-02,1.290226578712463379e-01,-1.853670775890350342e-01,4.414387978613376617e-03,2.018558382987976074e-01,-1.471971161663532257e-02,1.227204129099845886e-01,-1.749307811260223389e-01,-5.380011722445487976e-02,1.635030806064605713e-01,-2.200186625123023987e-02,1.063693389296531677e-01,-1.169579923152923584e-01,-2.139863744378089905e-02,1.864622086286544800e-01,1.903056800365447998e-01,6.140768527984619141e-02,-7.429984863847494125e-03,-1.473904848098754883e-01,2.408834174275398254e-03,-9.861467033624649048e-02,1.321200579404830933e-01,-1.413976699113845825e-01,8.907864242792129517e-02,1.178860589861869812e-01,7.797063142061233521e-02,-8.200692385435104370e-02,-2.850519865751266479e-02,-1.760664433240890503e-01,1.243008077144622803e-01,-1.144635379314422607e-01,1.685087010264396667e-02,-6.657745689153671265e-02,-9.844822436571121216e-02,9.828133881092071533e-02,-1.047474890947341919e-01,-9.195743501186370850e-02,2.905145473778247833e-02,7.719285041093826294e-02,-7.392814755439758301e-02,-2.666717022657394409e-02,1.354980617761611938e-01,-4.403075948357582092e-02,1.037928611040115356e-01,-4.548672959208488464e-02,-5.613642558455467224e-02,-3.156249225139617920e-02,-7.658240199089050293e-02,-5.305846408009529114e-02,3.973822668194770813e-02,-4.257242009043693542e-02,7.882703794166445732e-04,5.332917906343936920e-03,-1.309346705675125122e-01,1.072664409875869751e-01,1.372453123331069946e-01,-7.210689783096313477e-02,3.619175776839256287e-02,6.869782693684101105e-03,-5.086345598101615906e-02,3.015866689383983612e-02,5.711321532726287842e-02,-1.903298199176788330e-01,-5.490696523338556290e-03,4.485489800572395325e-02,2.372879907488822937e-02,-2.578305453062057495e-02,1.474180966615676880e-01,1.093820855021476746e-01,-9.408503025770187378e-02,1.036323085427284241e-01,-8.898717910051345825e-02,-1.581248939037322998e-01,1.031875759363174438e-01,-3.445360064506530762e-02,2.126416712999343872e-01,-8.961459249258041382e-02,-1.407441566698253155e-03,-9.902216494083404541e-02,-8.737533539533615112e-02,-3.371834009885787964e-02,-1.080484017729759216e-01,-1.050098463892936707e-01,-6.171360611915588379e-02,7.238431274890899658e-02,-4.211757704615592957e-02,-1.303924620151519775e-01,5.088029429316520691e-03,-7.470905780792236328e-02,1.082178130745887756e-01,-1.098632365465164185e-01,8.127109706401824951e-02,-1.408774107694625854e-01,3.690844774246215820e-02,8.679986000061035156e-02,8.089619129896163940e-02,-1.988653391599655151e-01,-1.640021987259387970e-02,-5.402966588735580444e-02,2.045300416648387909e-02,4.084141924977302551e-03,1.291003078222274780e-02,6.246758252382278442e-02,-2.423934638500213623e-02,-1.016339063644409180e-01,1.142576336860656738e-01,-1.889509111642837524e-01,8.558792620897293091e-02,2.948280423879623413e-02,4.085144773125648499e-02,5.969721358269453049e-03,-1.599827259778976440e-01,9.380530565977096558e-02,-4.844284430146217346e-02,-1.978936940431594849e-01
-4.654809460043907166e-02,-6.649108231067657471e-02,-5.548654496669769287e-02,-5.059389397501945496e-02,-1.209136191755533218e-02,1.509007215499877930e-01,-1.795456260442733765e-01,-3.065396659076213837e-02,9.424339979887008667e-02,-2.305100560188293457e-01,5.409250780940055847e-02,2.056491822004318237e-01,-1.143520474433898926e-01,4.204561188817024231e-02,2.671348862349987030e-02,9.072794020175933838e-02,-1.292628347873687744e-01,8.325821906328201294e-02,-1.919067353010177612e-01,-1.328911632299423218e-01,-9.716993570327758789e-02,-1.541644036769866943e-01,-2.970598265528678894e-02,1.129211559891700745e-01,7.461862266063690186e-02,1.905729644931852818e-03,-2.678744494915008545e-02,-7.560870051383972168e-02,1.253427565097808838e-01,6.026347354054450989e-02,-2.804432436823844910e-02,-9.773529320955276489e-02,1.744859106838703156e-02,1.021882444620132446e-01,-1.453865766525268555e-01,-1.205113250762224197e-02,-1.198126971721649170e-01,1.406117230653762817e-01,-7.359422277659177780e-03,-8.579610288143157959e-02,3.851849585771560669e-02,1.170895397663116455e-01,1.266216784715652466e-01,1.531688421964645386e-01,1.099708974361419678e-01,-1.884431950747966766e-02,-1.089065372943878174e-01,2.340458482503890991e-01,-3.481902182102203369e-02,7.963510602712631226e-02,1.334791928529739380e-01,-1.810636073350906372e-01,2.063686698675155640e-01,1.683233380317687988e-01,-3.328644903376698494e-03,7.029082160443067551e-03,2.295991331338882446e-01,-2.649358808994293213e-01,1.034940406680107117e-02,5.209660230320878327e-06,7.670485973358154297e-02,-1.161730960011482239e-01,3.021472506225109100e-02,-2.118467241525650024e-01,-2.683993987739086151e-02,6.334205716848373413e-02,4.003016743808984756e-03,2.386096119880676270e-02,-2.491331845521926880e-02,7.054533064365386963e-02,1.553408242762088776e-02,-2.214053422212600708e-01,5.746219679713249207e-02,2.777251973748207092e-02,-2.091066539287567139e-02,-3.138820081949234009e-02,5.466430261731147766e-02,1.326789855957031250e-01,-2.371208742260932922e-02,-1.754049095325171947e-03,-3.173794746398925781e-01,2.157902717590332031e-01,4.628510028123855591e-02,-4.215933755040168762e-02,-3.729260712862014771e-02,4.476290568709373474e-02,-2.342728972434997559e-01,7.748378068208694458e-02,1.357639953494071960e-02,-1.888008713722229004e-01,1.436591744422912598e-01,-6.087083369493484497e-03,2.320321947336196899e-01,6.646218150854110718e-02,-4.155659303069114685e-02,-3.884445503354072571e-02,8.361852169036865234e-02,-1.178923249244689941e-01,4.361473955214023590e-03,1.771225407719612122e-02,-1.460448354482650757e-01,1.953802444040775299e-02,6.316423416137695312e-02,-2.331427484750747681e-02,9.877850115299224854e-02,-3.641872480511665344e-02,6.517565995454788208e-02,1.169510707259178162e-01,-2.410593815147876740e-02,7.728958129882812500e-02,-1.598645299673080444e-01,-1.253728866577148438e-01,2.141733169555664062e-01,1.077465042471885681e-01,-1.880167275667190552e-01,1.760962158441543579e-01,-1.490404158830642700e-01,6.645463407039642334e-02,7.865402847528457642e-02,-4.131520166993141174e-02,-9.874476492404937744e-02,3.511510044336318970e-02,-9.426358155906200409e-03,-6.643390655517578125e-02,-2.487790584564208984e-01,1.473914831876754761e-01,2.088839747011661530e-02,4.195867478847503662e-02,-2.266556024551391602e-01,-1.473635733127593994e-01,2.387932240962982178e-01,5.822008848190307617e-02,1.640883088111877441e-01,-1.739210486412048340e-01,-3.318136930465698242e-02,-3.603796288371086121e-02,2.581226266920566559e-02,1.641424596309661865e-01,3.598694130778312683e-02,-6.121080368757247925e-02,-2.485083788633346558e-01,7.551207672804594040e-03,-1.156437098979949951e-01,-1.183194443583488464e-01,2.080501914024353027e-01,-1.988413371145725250e-02,1.869537681341171265e-02,1.426971107721328735e-01,7.224025577306747437e-02,1.728377342224121094e-01,3.305643051862716675e-02,-7.667993009090423584e-02,-8.196540921926498413e-02,-8.788776397705078125e-02,5.638431385159492493e-02,9.910547733306884766e-02,1.381835937500000000e-01,1.757910400629043579e-01,2.055698446929454803e-02,6.890493910759687424e-03,8.993326127529144287e-02,-2.901238948106765747e-02,7.432930171489715576e-02,1.279085129499435425e-01,6.832763552665710449e-02,-3.327252715826034546e-02,2.645787894725799561e-01,1.394470930099487305e-01,-1.346877515316009521e-01,-2.063307166099548340e-01,9.265275299549102783e-02,-8.020978420972824097e-02,-8.106306195259094238e-02,1.108594015240669250e-01,-6.107382476329803467e-02,1.403960883617401123e-01,-1.692044176161289215e-02,-1.281009316444396973e-01,-2.945003658533096313e-02,7.981891930103302002e-02,4.577995464205741882e-02,-2.038463018834590912e-02,-1.702950298786163330e-01,7.353023439645767212e-02,1.942508853971958160e-02,-3.028032742440700531e-02,-9.842268377542495728e-02,1.063596364110708237e-02,2.128416746854782104e-01,6.826125830411911011e-02,-1.048281788825988770e-02,2.604451477527618408e-01,4.138583317399024963e-03,1.275860071182250977e-01,-1.182548999786376953e-01,1.084433495998382568e-01,-3.958922252058982849e-02,7.084853947162628174e-02,-2.771469764411449432e-02,1.333765983581542969e-01
8.081515878438949585e-02,-2.950873412191867828e-02,-1.201656982302665710e-01,-8.224616199731826782e-02,-1.005987599492073059e-01,2.535127103328704834e-02,-8.988143503665924072e-02,8.186264336109161377e-02,-5.462054628878831863e-03,1.582462936639785767e-01,-2.659638598561286926e-02,8.252956718206405640e-02,3.248664364218711853e-02,-3.972211107611656189e-02,-5.109549686312675476e-02,3.954133018851280212e-02,1.679565012454986572e-01,-1.237939447164535522e-01,-7.155860215425491333e-02,-7.800052314996719360e-02,-1.082113664597272873e-02,-9.978312999010086060e-02,2.097838222980499268e-01,3.021934069693088531e-03,1.374949067831039429e-01,1.388318836688995361e-01,4.617307707667350769e-02,-2.013019621372222900e-01,-9.911157190799713135e-02,-5.018036440014839172e-02,1.225163117051124573e-01,1.445499807596206665e-01,6.260887533426284790e-02,1.113289967179298401e-01,-9.369838237762451172e-02,4.886426031589508057e-04,1.158406510949134827e-01,1.560776084661483765e-01,-4.090478643774986267e-02,5.364667251706123352e-02,5.347270518541336060e-02,2.564760148525238037e-01,-5.308823660016059875e-02,-1.618450433015823364e-01,-1.430501490831375122e-01,1.053598802536725998e-02,-3.633828833699226379e-02,2.119807153940200806e-02,-6.729758530855178833e-02,-7.881801575422286987e-02,-5.034735426306724548e-02,6.968795508146286011e-02,4.398874007165431976e-03,1.799123436212539673e-01,5.352542921900749207e-02,7.611350715160369873e-02,8.133457601070404053e-02,-1.098005920648574829e-01,-1.387937664985656738e-01,1.543093919754028320e-01,3.547953814268112183e-02,-5.152517184615135193e-02,-9.731590747833251953e-02,-8.126791566610336304e-02,1.451360136270523071e-01,-1.743684262037277222e-01,5.870430544018745422e-02,-2.017779350280761719e-01,1.049806103110313416e-01,-3.026968054473400116e-02,1.107225567102432251e-01,-2.683267891407012939e-01,5.040694400668144226e-02,-2.585247345268726349e-02,-2.061683870851993561e-02,1.111161895096302032e-02,1.999285258352756500e-02,-2.000754326581954956e-02,3.030757419764995575e-03,-1.181323975324630737e-01,2.592282183468341827e-02,-1.576126813888549805e-01,7.925482839345932007e-02,1.355820614844560623e-02,2.117658220231533051e-02,-3.510482236742973328e-02,-5.663466081023216248e-02,3.095723502337932587e-02,9.418175369501113892e-02,2.638647332787513733e-02,2.531253173947334290e-02,7.042552530765533447e-02,2.930484153330326080e-02,1.094743162393569946e-01,1.170690655708312988e-01,-1.734312921762466431e-01,-1.711636036634445190e-01,2.529129199683666229e-02,-2.483247965574264526e-02,-7.204041630029678345e-02,2.459522336721420288e-02,-7.781505584716796875e-02,6.356664001941680908e-02,-1.437348127365112305e-01,-2.063072659075260162e-02,-1.490112394094467163e-01,8.079216629266738892e-02,-1.461747139692306519e-01,-1.046294048428535461e-01,4.910723119974136353e-02,2.885934896767139435e-02,1.171969100832939148e-01,5.577914044260978699e-02,-1.691590063273906708e-02,-1.325483769178390503e-01,-6.160473823547363281e-02,9.345456212759017944e-02,-1.915399730205535889e-01,8.868804574012756348e-02,6.078835204243659973e-02,-4.671204462647438049e-02,9.865663945674896240e-02,-9.601650387048721313e-02,6.041650474071502686e-02,-1.129215583205223083e-01,1.672543436288833618e-01,-6.034100800752639771e-02,-1.122771948575973511e-01,1.000436469912528992e-01,3.992744535207748413e-02,9.880855679512023926e-02,-1.106836497783660889e-01,-8.780454844236373901e-02,4.513258859515190125e-02,-4.419412091374397278e-02,-1.338226497173309326e-01,-9.246944636106491089e-02,3.515796735882759094e-02,1.579999476671218872e-01,1.442764252424240112e-01,-1.473639905452728271e-02,9.561163187026977539e-02,-3.494819998741149902e-02,1.601573675870895386e-01,-6.469128280878067017e-02,-3.843966871500015259e-02,-3.045313805341720581e-02,-1.035144180059432983e-01,1.001938432455062866e-01,-2.599344030022621155e-02,-3.729651868343353271e-02,-2.672238647937774658e-02,5.112393200397491455e-02,5.526444315910339355e-02,-2.770257648080587387e-03,-9.696345031261444092e-02,-4.239432141184806824e-02,-1.324646323919296265e-01,-9.858869947493076324e-03,3.298804163932800293e-02,5.338718742132186890e-02,8.274605870246887207e-02,-7.986257970333099365e-02,1.580712944269180298e-01,-1.391440033912658691e-01,-3.703022003173828125e-02,9.190250933170318604e-02,-1.318430304527282715e-01,-1.598396450281143188e-01,-5.501346662640571594e-02,1.613417267799377441e-01,-3.356694877147674561e-01,2.494591176509857178e-01,1.014114990830421448e-01,-1.489150822162628174e-01,1.638776436448097229e-02,-3.160178959369659424e-01,1.585978865623474121e-01,-8.191654458642005920e-03,-1.650381386280059814e-01,1.799951195716857910e-01,-1.995628029108047485e-01,-1.520408540964126587e-01,1.451697782613337040e-03,-7.244011759757995605e-02,-2.508404292166233063e-02,6.807820498943328857e-02,-8.458702266216278076e-02,-1.097650453448295593e-01,1.072617769241333008e-01,1.071964278817176819e-01,1.438293606042861938e-01,2.805916965007781982e-01,1.491264253854751587e-01,9.194556623697280884e-02,-2.082257345318794250e-02,9.591807425022125244e-02,-1.073886975646018982e-01,-1.076787412166595459e-01,1.722942292690277100e-01
1.048472523689270020e-02,3.815706074237823486e-02,8.628177642822265625e-02,-1.173807233572006226e-01,7.013992965221405029e-02,4.121416807174682617e-02,1.060053408145904541e-01,-5.066543817520141602e-03,7.487751543521881104e-02,5.487287044525146484e-02,-7.378529012203216553e-02,-3.377141058444976807e-02,-9.627199172973632812e-02,8.113573491573333740e-02,8.476915955543518066e-02,-8.383690565824508667e-02,8.415468037128448486e-02,-1.166243031620979309e-01,2.098838984966278076e-02,-6.759996712207794189e-02,1.057848334312438965e-03,9.484845399856567383e-02,-5.919494479894638062e-02,-1.427716761827468872e-02,5.874949693679809570e-02,-5.844299495220184326e-02,-4.614689201116561890e-02,-7.012157142162322998e-02,1.124403923749923706e-01,-1.022316440939903259e-01,5.293437838554382324e-02,1.284317225217819214e-01,-6.138681620359420776e-02,1.226991564035415649e-01,1.013538986444473267e-01,1.116711497306823730e-01,6.315287947654724121e-02,-8.255952596664428711e-02,6.574749946594238281e-03,6.657086312770843506e-02,-5.274610966444015503e-02,8.525431156158447266e-02,1.308180838823318481e-01,2.747841179370880127e-02,1.316180378198623657e-01,-3.630866110324859619e-02,-8.442166447639465332e-02,3.923891484737396240e-02,-9.500689804553985596e-03,2.429223060607910156e-02,-1.028557121753692627e-02,-8.715026080608367920e-02,-1.317220628261566162e-01,-2.759134769439697266e-02,-4.001756012439727783e-02,-8.586488664150238037e-02,8.852994441986083984e-02,-1.136500090360641479e-01,9.576165676116943359e-02,-3.903968632221221924e-02,-6.769569218158721924e-02,-6.165172159671783447e-02,-4.092096537351608276e-02,-6.891028583049774170e-02,-9.302032738924026489e-02,1.951232552528381348e-02,-7.314555346965789795e-02,8.325883746147155762e-02,-1.230670288205146790e-01,3.140768408775329590e-02,-5.889607220888137817e-02,1.142516732215881348e-02,-6.725937128067016602e-02,-1.882366091012954712e-02,-4.162206500768661499e-02,6.753198802471160889e-02,-1.190073937177658081e-01,1.145829260349273682e-02,-1.131961494684219360e-01,-5.160780996084213257e-02,-2.577818185091018677e-02,-3.094017505645751953e-03,-6.142230331897735596e-02,-6.607755273580551147e-02,-1.141789630055427551e-01,-7.862785458564758301e-02,6.993956863880157471e-02,1.088003814220428467e-01,-1.646871864795684814e-02,7.950024306774139404e-02,-1.087452173233032227e-01,-7.265231013298034668e-02,-6.795870512723922729e-02,-1.774757355451583862e-02,-5.781016498804092407e-02,-9.168954193592071533e-02,9.121870994567871094e-02,-5.059149116277694702e-02,-7.725717872381210327e-02,-1.120738089084625244e-01,-1.014564260840415955e-01,1.969909667968750000e-02,-1.207745298743247986e-01,1.149000525474548340e-01,-9.304851293563842773e-02,9.946563839912414551e-02,-4.925394058227539062e-02,-4.724533110857009888e-02,-1.026431545615196228e-01,-6.814174354076385498e-02,-8.987618982791900635e-02,-8.213054388761520386e-02,-1.312187314033508301e-01,-6.356208771467208862e-02,2.746124565601348877e-02,1.084620207548141479e-01,-2.702806890010833740e-02,-3.311660140752792358e-02,8.071896433830261230e-02,7.902535796165466309e-02,-2.708389610052108765e-02,9.428842365741729736e-02,-1.249057054519653320e-02,7.130503654479980469e-03,-8.369515091180801392e-02,9.318673610687255859e-02,-6.068533658981323242e-02,8.670103549957275391e-02,-1.168261393904685974e-01,-4.432355612516403198e-02,3.500694036483764648e-02,8.636794984340667725e-02,5.514249205589294434e-02,1.973512768745422363e-02,-4.170789569616317749e-02,-1.783633977174758911e-02,-1.073115319013595581e-02,3.690198063850402832e-03,6.811544299125671387e-03,-5.998046696186065674e-02,1.221954375505447388e-01,5.376829206943511963e-02,6.955800950527191162e-02,-7.054007053375244141e-02,9.763807058334350586e-02,-1.022563576698303223e-01,-8.926898241043090820e-02,-8.471719920635223389e-02,5.173061788082122803e-02,-2.660129219293594360e-02,5.907535552978515625e-02,7.571682333946228027e-02,1.025829166173934937e-01,-9.217208623886108398e-02,-3.945545107126235962e-02,9.164665639400482178e-02,1.212498992681503296e-01,4.974752664566040039e-03,-8.068057894706726074e-02,-7.970060408115386963e-02,-1.144276857376098633e-01,-1.017274707555770874e-01,-9.953474998474121094e-02,2.207636833190917969e-02,1.166513562202453613e-01,1.172175556421279907e-01,-4.274798929691314697e-02,6.444269418716430664e-02,-1.139848753809928894e-01,-1.258540153503417969e-01,-1.288275867700576782e-01,-1.241898387670516968e-01,-1.210448816418647766e-01,1.244440674781799316e-02,-1.225618496537208557e-01,6.281420588493347168e-02,-3.456211835145950317e-02,-2.250069379806518555e-02,4.279071092605590820e-02,-5.790112912654876709e-02,1.140312254428863525e-01,2.424021065235137939e-02,-1.256790012121200562e-01,1.307904571294784546e-01,2.880543470382690430e-02,6.838400661945343018e-02,-1.109861433506011963e-01,6.898307800292968750e-02,-2.948559820652008057e-02,3.741227090358734131e-02,1.210468858480453491e-01,-8.197791874408721924e-02,6.389573216438293457e-02,8.776244521141052246e-02,-6.435226649045944214e-02,8.099132776260375977e-02,-1.531398296356201172e-02,-9.774588793516159058e-02,1.249185353517532349e-01,-4.138568788766860962e-02
-2.562351524829864502e-01,-1.696545779705047607e-01,1.034453436732292175e-01,-2.303186804056167603e-01,-1.235195323824882507e-01,-2.737197577953338623e-01,-1.704534590244293213e-01,-2.117115557193756104e-01,3.936640918254852295e-03,-2.028799206018447876e-01,-1.286994218826293945e-01,-1.790479272603988647e-01,1.123150885105133057e-01,6.060470640659332275e-02,-1.224804967641830444e-01,-1.643972545862197876e-01,4.133868515491485596e-01,-1.021573618054389954e-01,3.976461291313171387e-01,2.824245393276214600e-01,2.214754074811935425e-01,-5.003499984741210938e-02,2.844500243663787842e-01,-1.877786666154861450e-01,2.565585076808929443e-01,-1.893364936113357544e-01,5.078554525971412659e-02,6.920807994902133942e-03,2.096071392297744751e-01,3.039569854736328125e-01,-6.584014743566513062e-02,2.956013381481170654e-01,-3.315188586711883545e-01,-7.743387669324874878e-02,-2.500042617321014404e-01,-1.428631395101547241e-01,-1.288588792085647583e-01,2.669066190719604492e-01,-9.849132597446441650e-02,-1.965729296207427979e-01,-1.704708635807037354e-01,4.811505377292633057e-01,-1.074733436107635498e-01,-2.169322967529296875e-01,-3.685065603349357843e-04,-9.780612587928771973e-02,8.864942938089370728e-02,-1.205004528164863586e-01,-5.125713068991899490e-03,-1.890132874250411987e-01,-2.323503643274307251e-01,2.618907392024993896e-02,-2.097625881433486938e-01,2.579475985839962959e-04,-1.346277352422475815e-02,1.174329072237014771e-01,-2.921002730727195740e-02,-2.959997057914733887e-01,-1.971704810857772827e-01,3.690319955348968506e-01,4.922242090106010437e-02,8.584105968475341797e-02,-1.648080348968505859e-01,-9.979017823934555054e-02,-5.131524801254272461e-02,-1.383844465017318726e-01,-5.974011868238449097e-02,8.664717525243759155e-02,1.028955951333045959e-01,-1.995118260383605957e-01,-2.416217923164367676e-01,3.662005960941314697e-01,-1.441566646099090576e-01,-1.103075668215751648e-01,1.823166757822036743e-02,2.229113280773162842e-01,-1.715019494295120239e-01,-7.545083761215209961e-02,-2.400847822427749634e-01,-2.283487766981124878e-01,-1.339404284954071045e-01,-2.912992537021636963e-01,-1.101792305707931519e-01,2.841781675815582275e-01,-1.217195019125938416e-01,-1.146544814109802246e-01,-8.098842203617095947e-02,-2.807608842849731445e-01,-1.638385467231273651e-02,-1.222709640860557556e-01,1.439094841480255127e-01,-2.454733401536941528e-01,-1.876941621303558350e-01,-1.755183637142181396e-01,4.254132136702537537e-02,-1.106403246521949768e-01,-7.012642174959182739e-02,-1.346016228199005127e-01,1.698436588048934937e-01,-2.338468795642256737e-03,2.520941197872161865e-01,-1.728965193033218384e-01,3.663709461688995361e-01,-1.605944782495498657e-01,-1.972581893205642700e-01,-1.928723007440567017e-01,-9.308181703090667725e-03,-2.658640146255493164e-01,-5.816439166665077209e-02,2.554033510386943817e-02,-1.096343547105789185e-01,2.817322872579097748e-02,5.242036283016204834e-02,-1.137123107910156250e-01,-6.366082280874252319e-02,1.620905473828315735e-02,3.430301249027252197e-01,-3.300531804561614990e-01,-2.001253366470336914e-01,-4.053502529859542847e-02,1.111375354230403900e-02,-1.174333170056343079e-01,-2.161781489849090576e-01,1.597822159528732300e-01,-8.590679615736007690e-02,-1.466018557548522949e-01,-5.687530711293220520e-02,-1.158041507005691528e-01,3.215370178222656250e-01,1.746973991394042969e-01,-1.164544969797134399e-01,1.508266925811767578e-01,-3.707973659038543701e-02,-2.373007535934448242e-01,-1.118010357022285461e-01,-1.873094961047172546e-02,1.693031489849090576e-01,-1.964360661804676056e-02,-2.635280489921569824e-01,5.460015684366226196e-02,3.927920758724212646e-01,3.136446326971054077e-02,-4.675609618425369263e-02,-4.319980740547180176e-02,-4.250730946660041809e-02,2.770822048187255859e-01,-1.961794793605804443e-01,-1.696022897958755493e-01,8.000119775533676147e-02,-1.358262747526168823e-01,2.570018768310546875e-01,-2.882206141948699951e-01,-1.442637015134096146e-02,3.169392347335815430e-01,-1.368728578090667725e-01,2.592461705207824707e-01,-1.160743311047554016e-01,-1.029035672545433044e-01,2.260246314108371735e-02,-2.911805175244808197e-02,2.732326388359069824e-01,-7.251579314470291138e-02,-1.499532461166381836e-01,-3.221719339489936829e-02,-2.340188063681125641e-02,8.686485700309276581e-03,-2.293778210878372192e-01,-2.221677079796791077e-02,-1.714353114366531372e-01,2.512443251907825470e-02,-8.167248219251632690e-02,-2.369735240936279297e-01,3.348448127508163452e-02,-8.813366293907165527e-04,-7.528517395257949829e-02,-2.880508005619049072e-01,-2.545330524444580078e-01,-3.266749978065490723e-01,-1.084370687603950500e-01,-2.924361228942871094e-01,3.371121585369110107e-01,-2.326453924179077148e-01,-4.937679320573806763e-02,1.215399578213691711e-01,-2.238638699054718018e-02,-1.027109548449516296e-01,1.872907429933547974e-01,-7.764925807714462280e-02,-1.547980457544326782e-01,-1.933598425239324570e-03,6.137546896934509277e-02,8.588095754384994507e-02,-6.670071929693222046e-02,3.696938604116439819e-02,-1.205779984593391418e-01,-2.714674361050128937e-02,-1.289987266063690186e-01,-3.840053454041481018e-02,-1.396672874689102173e-01,-1.279130727052688599e-01
1.354761719703674316e-01,-4.589198529720306396e-02,-1.385012567043304443e-01,4.254121780395507812e-01,-1.072187870740890503e-01,1.558492630720138550e-01,-4.466949496418237686e-03,-4.314608871936798096e-02,6.918595731258392334e-02,1.985552906990051270e-01,6.949580460786819458e-02,7.316026836633682251e-02,-1.718523800373077393e-01,3.040328249335289001e-02,1.197900995612144470e-01,-2.720070779323577881e-01,-7.628687471151351929e-02,-7.159815728664398193e-02,-5.289761349558830261e-02,1.103575993329286575e-02,1.809775130823254585e-03,-9.420666843652725220e-02,-8.073567599058151245e-02,2.186571359634399414e-01,3.151171654462814331e-02,-2.184266299009323120e-01,1.390361338853836060e-01,-7.447595894336700439e-02,-1.810934990644454956e-01,-1.858569979667663574e-01,-2.606475949287414551e-01,-1.891907602548599243e-01,1.526253372430801392e-01,-2.200431376695632935e-01,-2.111960798501968384e-01,2.382287532091140747e-01,3.559182956814765930e-02,-3.148603439331054688e-01,3.126027286052703857e-01,1.103023812174797058e-01,-1.673841923475265503e-01,-1.377606689929962158e-01,-7.373040169477462769e-02,3.326301276683807373e-01,1.875074952840805054e-01,1.875354200601577759e-01,-1.162786260247230530e-01,-2.659724354743957520e-01,1.126395985484123230e-01,-1.477042883634567261e-01,7.979098707437515259e-02,-1.619141101837158203e-01,2.859153449535369873e-01,-4.655028227716684341e-03,4.453133344650268555e-01,1.013364121317863464e-01,-1.757293380796909332e-02,3.031644411385059357e-02,1.775256991386413574e-01,-1.481006890535354614e-01,2.838635630905628204e-02,-6.032618507742881775e-02,-4.808988422155380249e-02,2.490652948617935181e-01,9.412161260843276978e-02,-2.522558569908142090e-01,5.937580391764640808e-02,-3.621934354305267334e-02,3.563721477985382080e-02,-3.661157330498099327e-03,2.654523551464080811e-01,-2.913252115249633789e-01,3.030776381492614746e-01,-1.538888216018676758e-01,-1.505859196186065674e-01,2.966943569481372833e-02,1.974536478519439697e-02,-2.934539504349231720e-02,-1.393690109252929688e-01,3.578591346740722656e-01,3.661506623029708862e-02,3.830840587615966797e-01,-1.050536781549453735e-01,-7.941073924303054810e-02,-1.542164385318756104e-01,-3.683386147022247314e-01,2.148893922567367554e-01,4.005879759788513184e-01,9.456704556941986084e-02,5.151806026697158813e-02,-6.959714740514755249e-02,2.305587232112884521e-01,3.677442371845245361e-01,-4.987423866987228394e-02,-2.660570144653320312e-01,4.771815985441207886e-02,-7.037193328142166138e-02,1.000708900392055511e-02,-1.115946546196937561e-01,9.460479766130447388e-02,6.042200699448585510e-02,6.223466619849205017e-02,2.899764105677604675e-02,3.859736025333404541e-01,-9.306845068931579590e-02,-3.135137259960174561e-02,8.585929870605468750e-02,2.030732333660125732e-01,-1.822089701890945435e-01,-5.723544210195541382e-02,-1.569295525550842285e-01,2.285067141056060791e-01,4.859826341271400452e-02,2.923226654529571533e-01,-1.461331248283386230e-01,-1.563206315040588379e-01,-3.414663672447204590e-02,1.912066936492919922e-01,-6.708214432001113892e-02,2.281706035137176514e-01,1.130611971020698547e-01,3.618369251489639282e-02,4.258556757122278214e-03,-2.003307938575744629e-01,1.050734445452690125e-01,-4.734096303582191467e-02,-4.312473908066749573e-02,9.761023521423339844e-02,2.949381433427333832e-02,-1.229323744773864746e-01,2.662916779518127441e-01,-4.338427484035491943e-01,-5.857426300644874573e-02,-1.405212134122848511e-01,1.689999997615814209e-01,-1.191580817103385925e-01,-1.952530890703201294e-01,-4.483911674469709396e-03,-4.085959494113922119e-02,1.431251168251037598e-01,-9.262771904468536377e-02,-6.657877564430236816e-02,-1.513801068067550659e-01,-7.228573411703109741e-02,6.346771121025085449e-02,-1.391094177961349487e-01,1.328896079212427139e-02,7.000412791967391968e-02,3.919598832726478577e-02,1.983160674571990967e-01,-2.582152187824249268e-01,2.606896162033081055e-01,-8.879394829273223877e-02,-2.218509167432785034e-01,3.254181742668151855e-01,-1.865417063236236572e-01,-2.002036869525909424e-01,5.968585610389709473e-02,6.371425837278366089e-02,9.168774634599685669e-02,-2.598091363906860352e-01,-1.465050727128982544e-01,-1.734498292207717896e-01,5.073668435215950012e-02,-1.005765050649642944e-01,2.465541958808898926e-01,7.333823293447494507e-02,2.850331366062164307e-01,-9.842670708894729614e-02,-7.239265739917755127e-02,-1.222657412290573120e-01,-4.544606432318687439e-02,-1.048972532153129578e-01,-2.498285919427871704e-01,-5.363482236862182617e-02,1.175008490681648254e-01,-1.368293315172195435e-01,-1.565286964178085327e-01,-1.169690210372209549e-02,2.754419445991516113e-01,-1.653849333524703979e-01,1.529338359832763672e-01,-2.440195232629776001e-01,-2.771430313587188721e-01,-4.881615191698074341e-02,1.490305066108703613e-01,-3.655748069286346436e-01,3.636047989130020142e-02,2.530808150768280029e-01,-2.399105876684188843e-01,-4.832599312067031860e-02,1.796620041131973267e-01,-1.606257408857345581e-01,1.224000453948974609e-01,8.859782479703426361e-03,-1.201900988817214966e-01,-1.946314871311187744e-01,1.352756656706333160e-02,3.376290574669837952e-02,1.065647229552268982e-01
9.314621984958648682e-02,-5.048213154077529907e-02,9.999994188547134399e-02,-7.847591489553451538e-02,4.692246764898300171e-02,-8.424211293458938599e-02,3.807774186134338379e-02,-5.366920377127826214e-04,-1.610473841428756714e-01,5.225703865289688110e-02,2.532984875142574310e-02,-2.577899992465972900e-01,3.420948609709739685e-02,7.817669957876205444e-02,1.803368628025054932e-01,2.136640995740890503e-02,1.971992105245590210e-01,1.344799250364303589e-02,7.084552943706512451e-02,6.832437962293624878e-02,4.336732253432273865e-02,4.225298389792442322e-02,-1.137463599443435669e-01,-1.250949800014495850e-01,3.664974821731448174e-03,-4.854865372180938721e-02,2.071100175380706787e-01,-8.029142022132873535e-02,1.428576931357383728e-02,-1.268142135813832283e-03,-1.875981390476226807e-01,-2.806785888969898224e-02,1.306509673595428467e-01,3.756032790988683701e-03,-1.126701980829238892e-01,1.970896571874618530e-01,5.742637440562248230e-02,-1.250033825635910034e-01,-7.689691334962844849e-02,2.092925272881984711e-02,-8.069100230932235718e-02,-1.257079467177391052e-02,-3.358941152691841125e-02,1.128607168793678284e-01,1.740034669637680054e-01,-1.520562320947647095e-01,-3.861776739358901978e-02,4.851990565657615662e-02,-8.938792347908020020e-02,7.912876084446907043e-03,4.863212630152702332e-02,-9.060108661651611328e-02,-1.218120381236076355e-02,-2.399291396141052246e-01,-3.733941167593002319e-02,1.996818333864212036e-01,-4.824272543191909790e-02,5.333690904080867767e-03,1.345805823802947998e-02,1.445849426090717316e-02,-3.155734762549400330e-02,3.105053864419460297e-02,-2.025740444660186768e-01,-7.602461427450180054e-02,2.243437767028808594e-01,-3.067042864859104156e-02,3.068380802869796753e-02,1.381482090801000595e-02,-1.914397776126861572e-01,-1.117304638028144836e-01,8.175703883171081543e-02,1.148105859756469727e-01,6.095900014042854309e-02,-1.448136568069458008e-01,-6.952160596847534180e-02,-5.934967100620269775e-02,-3.152599558234214783e-02,1.647430807352066040e-01,-1.938980259001255035e-02,2.116792649030685425e-01,2.758891507983207703e-02,1.312870830297470093e-01,-4.038709774613380432e-02,-7.289794739335775375e-03,7.944698631763458252e-02,1.021465584635734558e-01,3.248225152492523193e-02,-5.909827724099159241e-02,1.450692862272262573e-01,6.142245605587959290e-02,1.007942259311676025e-01,-8.007517457008361816e-02,9.050306677818298340e-02,-2.448288910090923309e-02,-8.216844871640205383e-03,2.249830663204193115e-01,5.307932198047637939e-02,-1.147807762026786804e-02,-1.428016573190689087e-01,-6.523309648036956787e-02,-1.951002478599548340e-01,1.878977119922637939e-01,5.173772200942039490e-02,-1.001440957188606262e-01,-9.152993559837341309e-03,-2.231425195932388306e-01,6.446052342653274536e-02,7.469592243432998657e-02,-1.679552793502807617e-01,-9.131582081317901611e-02,-2.029928751289844513e-02,-9.981353580951690674e-02,-1.362866461277008057e-01,2.118209563195705414e-02,-4.960617795586585999e-02,-6.179328262805938721e-02,-2.352556958794593811e-02,-1.539440155029296875e-01,-1.086267307400703430e-01,1.111893802881240845e-01,5.139963701367378235e-02,-3.083204850554466248e-02,1.403575669974088669e-02,-1.932748258113861084e-01,-6.758890300989151001e-02,-7.774288952350616455e-02,-4.282545298337936401e-02,-9.933628141880035400e-02,9.213054180145263672e-02,-1.141620203852653503e-01,-1.239553689956665039e-01,-2.365449368953704834e-01,-1.366450339555740356e-01,-5.083148926496505737e-02,-1.614701896905899048e-01,-6.749384105205535889e-02,-1.036706566810607910e-01,1.420971006155014038e-01,-9.320031851530075073e-03,8.015345036983489990e-02,1.775623857975006104e-01,-2.804036065936088562e-02,-1.261443346738815308e-01,-1.164768561720848083e-01,3.365543857216835022e-02,1.470222473144531250e-01,-1.224899217486381531e-01,-2.631650678813457489e-02,-1.652894169092178345e-02,-7.690545916557312012e-02,2.411779202520847321e-02,-8.600765466690063477e-02,1.297270953655242920e-01,4.262548405677080154e-03,7.869799621403217316e-03,-1.845866441726684570e-01,-3.460942301899194717e-03,-8.071220666170120239e-02,-1.317321206443011761e-03,7.710555195808410645e-02,1.864828020334243774e-01,2.113589793443679810e-01,7.685351371765136719e-02,2.086330763995647430e-02,1.764622144401073456e-02,-2.186242938041687012e-01,-8.946893364191055298e-02,-9.984847903251647949e-02,-1.592803746461868286e-01,1.071923077106475830e-01,-1.388466507196426392e-01,-7.656289637088775635e-02,3.147584572434425354e-02,-1.625771075487136841e-02,-1.812679171562194824e-01,-5.689454451203346252e-02,-1.083331555128097534e-01,-9.297517687082290649e-02,6.993329524993896484e-02,7.112395763397216797e-02,-1.913403160870075226e-02,1.051739603281021118e-01,-3.866082523018121719e-03,2.495727837085723877e-01,2.556882984936237335e-02,-8.399393409490585327e-02,2.277101762592792511e-02,4.697101935744285583e-02,2.585365204140543938e-03,-1.629247069358825684e-01,-1.669252514839172363e-01,-1.430411189794540405e-01,-6.454137712717056274e-02,5.923220887780189514e-02,2.558869682252407074e-02,-1.620251871645450592e-02,2.338672988116741180e-02,-3.073542937636375427e-02,8.186804503202438354e-02,-2.574104256927967072e-02
-1.837758272886276245e-01,-1.926103979349136353e-01,-8.710132539272308350e-02,4.540979117155075073e-02,-6.389036774635314941e-02,-2.037069201469421387e-01,-1.044391989707946777e-01,-7.179345935583114624e-02,-1.614155024290084839e-01,6.724586337804794312e-02,-1.188115552067756653e-01,-3.265145793557167053e-02,1.601764112710952759e-01,-2.997526228427886963e-01,-5.485405027866363525e-02,1.350188162177801132e-02,3.299061357975006104e-01,9.611280262470245361e-02,7.249470800161361694e-02,2.371715307235717773e-01,-7.991173304617404938e-03,-3.867952898144721985e-02,4.999996721744537354e-02,-1.362619400024414062e-01,3.279962539672851562e-01,-4.369829967617988586e-02,1.196254342794418335e-01,2.762826718389987946e-02,7.294072210788726807e-02,1.640074402093887329e-01,-7.388732582330703735e-02,1.519022583961486816e-01,-2.209405452013015747e-01,6.789883971214294434e-02,-1.811114996671676636e-01,-1.960023343563079834e-01,-2.420772314071655273e-01,3.279262408614158630e-02,1.202163770794868469e-01,-1.068443953990936279e-01,1.166716292500495911e-01,1.607549190521240234e-01,-5.897318571805953979e-02,-1.907317787408828735e-01,-1.426266599446535110e-02,1.948735862970352173e-01,9.003368765115737915e-02,7.026959955692291260e-02,-2.329523861408233643e-01,-2.406740039587020874e-01,-2.828241884708404541e-01,-1.416936069726943970e-01,1.451068208552896976e-03,5.909956246614456177e-02,-1.144464537501335144e-01,1.768193691968917847e-01,-6.384476274251937866e-02,-1.620489209890365601e-01,-2.007979452610015869e-01,1.920142620801925659e-01,4.033056646585464478e-02,-8.346452564001083374e-02,-6.027847528457641602e-03,-1.038262993097305298e-01,7.482464425265789032e-03,-6.840906292200088501e-02,-8.524198830127716064e-02,-9.036724455654621124e-03,1.853315681219100952e-01,-1.266150176525115967e-01,-1.253783851861953735e-01,6.373117864131927490e-02,7.687785476446151733e-02,3.970090299844741821e-02,9.454103559255599976e-02,2.806826494634151459e-03,5.290130153298377991e-03,5.703750252723693848e-02,-8.037196099758148193e-02,-1.405620872974395752e-01,1.241705566644668579e-01,-1.114276647567749023e-01,-1.018997430801391602e-01,1.941653788089752197e-01,-2.638416551053524017e-02,1.607310175895690918e-01,1.023381277918815613e-01,-6.888993084430694580e-02,2.831002231687307358e-03,-5.153465643525123596e-02,1.065528020262718201e-01,-8.415845036506652832e-02,-9.218627214431762695e-02,2.161276713013648987e-02,3.440798521041870117e-01,7.586646825075149536e-02,-8.055856823921203613e-02,-1.723071038722991943e-01,-1.311270743608474731e-01,-4.629988223314285278e-02,6.229407340288162231e-02,-4.997275024652481079e-02,-1.681621521711349487e-01,7.593621313571929932e-02,-3.503786921501159668e-01,-2.249748818576335907e-02,1.065803840756416321e-01,-6.780858337879180908e-02,3.063894249498844147e-02,-2.058625593781471252e-02,-8.784520626068115234e-02,-1.348152458667755127e-01,-8.747398853302001953e-02,-2.287448197603225708e-01,-2.849617972970008850e-02,-1.167219355702400208e-01,2.046491950750350952e-01,-5.138271301984786987e-02,-7.131303846836090088e-02,1.176425721496343613e-03,-1.166584938764572144e-01,-1.137096062302589417e-01,4.187475889921188354e-02,-3.847770765423774719e-02,3.632390499114990234e-02,-3.881683573126792908e-02,2.072806097567081451e-02,-3.787122294306755066e-02,2.887196242809295654e-01,-1.848396956920623779e-01,-7.891031354665756226e-02,3.053137958049774170e-01,-2.191211134195327759e-01,-2.543956935405731201e-01,-2.449728697538375854e-01,-2.952260375022888184e-01,1.734785586595535278e-01,9.476227313280105591e-02,-1.059455648064613342e-01,1.381459385156631470e-01,3.553304076194763184e-01,2.846552431583404541e-02,-1.260317116975784302e-01,1.769748330116271973e-02,-1.767500340938568115e-01,-4.088322073221206665e-02,-5.282822623848915100e-02,-1.375400871038436890e-01,3.151018545031547546e-02,1.296534389257431030e-01,1.472840905189514160e-01,-1.910372376441955566e-01,3.251522779464721680e-01,1.505123674869537354e-01,9.916419535875320435e-02,2.499849349260330200e-01,-5.463119968771934509e-02,-1.864985562860965729e-03,-4.929553344845771790e-02,-7.756450027227401733e-02,-3.046710975468158722e-02,1.591914594173431396e-01,-9.222800284624099731e-02,1.927972584962844849e-01,-2.710422873497009277e-01,-1.298956722021102905e-01,-3.191515803337097168e-02,3.504744265228509903e-03,-9.333009272813796997e-02,3.536786139011383057e-01,-1.528608496300876141e-03,-1.446374356746673584e-01,1.543424576520919800e-01,-4.002114757895469666e-02,-2.713866531848907471e-02,-1.791475266218185425e-01,-3.443221002817153931e-02,-7.061544060707092285e-02,-7.924553751945495605e-02,-1.723103821277618408e-01,2.423558533191680908e-01,-1.186084300279617310e-01,5.423676967620849609e-02,-3.481373935937881470e-02,3.650587424635887146e-02,-1.568879038095474243e-01,5.668281391263008118e-02,-1.240517348051071167e-01,1.014788225293159485e-01,-8.862257935106754303e-03,-7.220467180013656616e-02,-5.121292546391487122e-02,1.120060458779335022e-01,2.026152461767196655e-01,6.843670457601547241e-02,2.117843925952911377e-01,1.344213485717773438e-01,1.655953191220760345e-02,-7.976619526743888855e-04,1.543747447431087494e-02
5.903111770749092102e-03,1.285055726766586304e-01,-9.684662520885467529e-02,1.297720521688461304e-01,5.938642099499702454e-02,1.382855027914047241e-01,1.621980816125869751e-01,-1.221399307250976562e-01,-1.134112402796745300e-01,-2.276939898729324341e-02,-8.540093153715133667e-02,-9.111732989549636841e-02,-1.265133023262023926e-01,-1.108001098036766052e-01,3.188458457589149475e-02,1.700371056795120239e-01,-1.269586235284805298e-01,1.414511799812316895e-01,-2.003675140440464020e-02,-1.392363160848617554e-01,9.773731231689453125e-02,7.962676137685775757e-02,2.425668947398662567e-02,-1.485980749130249023e-01,-6.818607915192842484e-03,-3.984635695815086365e-02,-1.664764881134033203e-01,-9.048386663198471069e-02,-2.352582961320877075e-01,-1.933421641588211060e-01,1.770245283842086792e-01,5.079724267125129700e-02,-7.422718685120344162e-03,1.307888049632310867e-02,-1.970573095604777336e-03,8.715818077325820923e-02,-1.421272754669189453e-01,-8.045297861099243164e-02,-4.611168056726455688e-02,-3.070565871894359589e-02,-9.110547602176666260e-02,-1.199715137481689453e-01,-5.927312001585960388e-02,9.422960877418518066e-02,-1.168523132801055908e-01,2.516167163848876953e-01,-1.422412134706974030e-02,-1.071895509958267212e-01,9.434489905834197998e-02,-1.589412242174148560e-02,-7.284276653081178665e-04,-1.117760241031646729e-01,-2.263054549694061279e-01,7.062122225761413574e-02,-9.404889494180679321e-02,5.921339243650436401e-02,4.108399525284767151e-02,2.683262713253498077e-02,-1.610725745558738708e-02,-9.767700731754302979e-02,8.252608031034469604e-02,4.058903083205223083e-02,5.734569951891899109e-02,-6.752383708953857422e-02,2.311915718019008636e-02,3.537658229470252991e-02,1.280621532350778580e-02,-9.673889726400375366e-02,-1.416856646537780762e-01,8.687143772840499878e-02,9.805546700954437256e-02,-3.280968964099884033e-02,1.592999696731567383e-01,1.381514966487884521e-01,5.744588747620582581e-02,8.642082661390304565e-02,1.491283718496561050e-02,9.018328785896301270e-02,-3.731472417712211609e-02,1.210055425763130188e-01,4.870007932186126709e-02,1.072362624108791351e-02,-8.899629116058349609e-02,-2.057616263628005981e-01,-1.164546534419059753e-01,-3.834747374057769775e-01,1.131563335657119751e-01,1.462313681840896606e-01,4.470047540962696075e-03,8.060191571712493896e-02,-4.106498509645462036e-02,-1.144427061080932617e-01,5.244999378919601440e-02,1.466269940137863159e-01,-9.574621170759201050e-02,6.141663342714309692e-02,3.635088726878166199e-02,-3.964574541896581650e-03,-1.368088722229003906e-01,3.043025732040405273e-02,-3.624992817640304565e-02,1.792344897985458374e-01,1.692072488367557526e-02,-1.456588506698608398e-01,3.955697640776634216e-02,-2.226911485195159912e-01,1.530601978302001953e-01,1.065722703933715820e-01,9.614167362451553345e-02,6.105553358793258667e-03,-8.342787623405456543e-02,-1.103323847055435181e-01,1.426089107990264893e-01,3.686847165226936340e-02,-1.054031401872634888e-01,-4.031326621770858765e-02,1.023842766880989075e-01,-8.218681439757347107e-03,-1.467023324221372604e-02,-9.567106515169143677e-02,3.647083789110183716e-02,-6.719169765710830688e-02,-1.143522337079048157e-01,1.756537556648254395e-01,2.364449575543403625e-02,8.232532441616058350e-02,-1.702116280794143677e-01,1.318526268005371094e-01,9.149584174156188965e-02,5.003305897116661072e-02,-1.148632466793060303e-01,-8.538794517517089844e-02,6.966015696525573730e-02,-1.231556572020053864e-02,-5.605942010879516602e-02,1.639418452978134155e-01,2.709299698472023010e-02,1.460042297840118408e-01,8.194428868591785431e-03,-9.806090593338012695e-02,-1.196983829140663147e-01,1.490521896630525589e-02,-7.516910880804061890e-02,-9.552107751369476318e-02,1.713650673627853394e-01,-2.098348289728164673e-01,7.262866944074630737e-02,3.352138772606849670e-02,-1.234912201762199402e-01,4.099432751536369324e-02,7.085984200239181519e-02,1.029883399605751038e-01,2.600024221464991570e-03,2.419513836503028870e-02,-1.493597477674484253e-01,-1.196787431836128235e-01,-2.567407488822937012e-02,-6.912018358707427979e-02,-1.062309667468070984e-01,2.413666993379592896e-02,-1.191364228725433350e-01,1.121920347213745117e-01,5.223456025123596191e-02,-2.035802602767944336e-02,-2.983609586954116821e-02,3.404290974140167236e-02,-3.357949107885360718e-02,8.621372282505035400e-02,8.293564617633819580e-02,-1.698754429817199707e-01,-8.311092108488082886e-02,-8.024954237043857574e-03,8.301692456007003784e-02,-2.658918313682079315e-02,-1.615930795669555664e-01,-5.467598512768745422e-02,-1.772842109203338623e-01,-8.835640549659729004e-02,1.846428513526916504e-01,1.446650326251983643e-01,-9.501268714666366577e-02,9.533086419105529785e-02,1.361012458801269531e-01,-2.328733727335929871e-02,-1.368216238915920258e-02,7.576386630535125732e-02,-5.362583696842193604e-02,-6.058672070503234863e-02,7.615524530410766602e-02,1.224394217133522034e-01,-1.804888248443603516e-01,-1.528835594654083252e-01,-2.979454584419727325e-02,1.182964295148849487e-01,1.338059604167938232e-01,-2.235118448734283447e-01,-4.767871648073196411e-02,-4.204498976469039917e-02,2.030295878648757935e-01,5.735511425882577896e-03
3.214781731367111206e-02,1.270970702171325684e-01,3.790897876024246216e-02,9.037708491086959839e-02,7.707612961530685425e-02,-1.672976613044738770e-01,-9.051108360290527344e-02,-1.389603614807128906e-01,-1.069173142313957214e-01,-5.265360698103904724e-02,6.648005545139312744e-02,1.491517871618270874e-01,4.381673038005828857e-02,8.196752518415451050e-02,-1.010815575718879700e-01,5.063391476869583130e-02,-5.652701854705810547e-02,-4.649652913212776184e-02,-6.161689758300781250e-02,-2.817778475582599640e-02,-3.572885692119598389e-02,-1.185698211193084717e-01,-8.686487376689910889e-02,-1.536121368408203125e-01,8.359628915786743164e-02,-1.165770366787910461e-01,-3.802124038338661194e-02,1.654593944549560547e-01,-1.286112517118453979e-01,-6.084516271948814392e-02,9.067850559949874878e-02,2.663081884384155273e-02,3.913395106792449951e-02,-3.736884146928787231e-02,-1.432416737079620361e-01,6.281300634145736694e-02,-6.917325407266616821e-02,1.039718911051750183e-01,1.350528299808502197e-01,-1.020225659012794495e-01,-1.379123479127883911e-01,6.342660635709762573e-02,-7.708383351564407349e-02,-4.517682269215583801e-02,-9.876608103513717651e-02,-1.062174607068300247e-02,-2.989596314728260040e-02,9.561908990144729614e-02,-4.662109166383743286e-02,-3.353211656212806702e-02,-2.264364063739776611e-02,3.726970776915550232e-02,-1.275828331708908081e-01,1.731044650077819824e-01,-8.031810075044631958e-02,8.018787950277328491e-02,6.645217537879943848e-02,-2.380168251693248749e-02,-1.261352300643920898e-01,1.069940775632858276e-01,-2.145253494381904602e-02,-8.635682612657546997e-02,1.311301998794078827e-02,2.333250641822814941e-02,5.133742466568946838e-02,1.497766524553298950e-01,-1.073152348399162292e-01,7.029315829277038574e-02,-3.190318867564201355e-02,-1.465473175048828125e-01,-8.445477485656738281e-02,-2.768774144351482391e-02,4.226659983396530151e-02,-1.973650045692920685e-02,-9.403923153877258301e-02,3.319911658763885498e-02,4.260520916432142258e-03,7.978674769401550293e-02,6.259220838546752930e-02,6.992776691913604736e-02,-9.407773613929748535e-02,-8.251604437828063965e-02,-8.989965170621871948e-02,2.927730977535247803e-02,-1.007554233074188232e-01,-1.325835380703210831e-02,1.649924963712692261e-01,5.998963490128517151e-02,1.106776297092437744e-01,2.100433595478534698e-02,4.283491894602775574e-02,-2.813875116407871246e-02,-1.531043369323015213e-02,-1.444649249315261841e-01,1.148505061864852905e-01,-8.951020985841751099e-02,-2.308313921093940735e-02,-1.101895868778228760e-01,1.033754833042621613e-02,-9.096580743789672852e-02,-1.124708876013755798e-01,1.122591868042945862e-01,-7.781042158603668213e-02,2.903817594051361084e-02,1.870081201195716858e-02,2.184435911476612091e-02,-8.289398252964019775e-02,-2.768421918153762817e-02,-5.389502644538879395e-02,-4.843513667583465576e-02,9.987354278564453125e-02,9.403016418218612671e-02,3.846810013055801392e-02,4.666047543287277222e-02,-1.958465902134776115e-03,2.551088109612464905e-03,-2.455470710992813110e-02,-3.156166151165962219e-02,1.313488930463790894e-02,-1.374297738075256348e-01,8.045249618589878082e-03,-1.114203408360481262e-01,2.334012882784008980e-03,-4.033733159303665161e-02,-5.254055559635162354e-02,2.162224985659122467e-02,6.033135578036308289e-02,-2.793188393115997314e-02,-1.291085034608840942e-01,-9.087289124727249146e-02,-8.508693426847457886e-02,-1.337664388120174408e-02,7.921148836612701416e-02,-2.692074887454509735e-02,-8.161441981792449951e-02,-1.253645420074462891e-01,4.732527583837509155e-02,-6.606883555650711060e-02,-2.590765617787837982e-02,1.036672443151473999e-01,2.454719319939613342e-02,-4.897380247712135315e-02,8.870203047990798950e-02,5.191781744360923767e-02,-4.590874910354614258e-02,-4.737406969070434570e-02,-5.695951357483863831e-02,-1.557062864303588867e-01,-4.330424219369888306e-02,-7.605942338705062866e-02,6.138651072978973389e-02,-1.308219283819198608e-01,1.526589244604110718e-01,-3.320597857236862183e-02,7.999858260154724121e-02,-4.534866288304328918e-02,-3.419169038534164429e-02,3.229650110006332397e-02,-1.054022610187530518e-01,9.896359592676162720e-02,-9.745396673679351807e-02,1.283454895019531250e-01,-1.292347759008407593e-01,-4.410068318247795105e-02,-2.875552698969841003e-02,1.555345393717288971e-02,1.391881797462701797e-02,-1.742141097784042358e-01,1.107917055487632751e-01,2.176301628351211548e-01,-1.121192127466201782e-01,-1.568301618099212646e-01,-3.844472393393516541e-02,-8.223026990890502930e-02,-3.876121342182159424e-02,2.667206712067127228e-02,1.210441961884498596e-01,-5.022876709699630737e-02,1.435608267784118652e-01,-4.070441797375679016e-02,5.768431350588798523e-02,2.264757268130779266e-02,-1.213639229536056519e-01,1.305441651493310928e-02,1.641351729631423950e-01,-8.578846603631973267e-02,1.352626532316207886e-01,-9.728360921144485474e-03,1.178074777126312256e-01,4.449738562107086182e-02,2.018637359142303467e-01,-1.605146974325180054e-01,2.008858695626258850e-02,7.634001970291137695e-02,-2.032156288623809814e-02,-5.224089324474334717e-02,5.609062034636735916e-03,-8.939772099256515503e-02,-1.049877237528562546e-02,-1.149353906512260437e-01
-7.830504328012466431e-02,7.352314889430999756e-02,-8.162999153137207031e-02,7.250209897756576538e-02,-1.191980540752410889e-01,-1.694057583808898926e-01,-5.168567225337028503e-02,-1.290351897478103638e-01,-3.951922431588172913e-02,-8.103280514478683472e-02,-1.510026631876826286e-03,4.166296124458312988e-02,-1.702172309160232544e-01,-6.470348685979843140e-02,-7.660231087356805801e-03,-4.193103313446044922e-02,4.191482812166213989e-02,-1.280274093151092529e-01,-5.466937273740768433e-02,-3.006570786237716675e-02,-1.052175313234329224e-01,-7.551175355911254883e-02,-1.303467750549316406e-01,-7.847321778535842896e-02,-1.195031553506851196e-01,1.875721849501132965e-02,1.171343848109245300e-01,-6.856887787580490112e-02,9.288544207811355591e-02,-8.144995570182800293e-02,-1.010305136442184448e-01,-8.812000602483749390e-02,-6.316556781530380249e-02,-3.782435134053230286e-02,4.719351977109909058e-02,-3.556648641824722290e-02,7.484492659568786621e-02,-1.324438601732254028e-01,-5.769732594490051270e-02,-8.330323547124862671e-02,-6.499474495649337769e-02,1.664341092109680176e-01,1.570099741220474243e-01,2.528317458927631378e-02,-5.862027034163475037e-02,-5.576662719249725342e-03,-9.372117370367050171e-02,-1.335809975862503052e-01,3.202246129512786865e-02,-1.878396123647689819e-01,-1.604798585176467896e-01,-2.072755247354507446e-02,-5.584231019020080566e-02,-9.908387064933776855e-02,1.421544980257749557e-02,-1.059378869831562042e-02,4.346066620200872421e-03,5.459075793623924255e-02,-4.374416172504425049e-02,2.023097723722457886e-01,-1.787740737199783325e-01,2.127064764499664307e-02,9.598777443170547485e-02,-6.886908411979675293e-02,-8.036318421363830566e-02,-1.489313840866088867e-01,6.394863873720169067e-02,1.999968737363815308e-01,9.194209426641464233e-02,-1.281946748495101929e-01,-5.158486217260360718e-02,8.952446281909942627e-02,-3.977235406637191772e-02,-1.825973242521286011e-01,8.664667606353759766e-03,-5.435882881283760071e-02,2.432949841022491455e-02,1.891647577285766602e-01,3.717193379998207092e-02,-1.044040322303771973e-01,-1.243295222520828247e-01,-5.736364051699638367e-02,-3.201887011528015137e-02,-3.577125072479248047e-02,-8.395789563655853271e-02,-1.923115849494934082e-01,4.668283835053443909e-02,7.633386552333831787e-02,1.383222639560699463e-03,8.962014690041542053e-03,-3.094496950507164001e-02,-1.777204275131225586e-01,-6.400016695261001587e-02,7.388001680374145508e-02,7.364719361066818237e-02,5.944556742906570435e-02,-4.955739900469779968e-02,-1.314483731985092163e-01,1.170380488038063049e-01,-7.172843813896179199e-02,3.962139040231704712e-02,-2.691044658422470093e-02,1.522841602563858032e-01,-6.060948222875595093e-02,1.256327331066131592e-02,-7.830543443560600281e-03,1.059966906905174255e-01,1.279320865869522095e-01,4.454509168863296509e-02,-1.454919204115867615e-02,-1.797831244766712189e-02,1.765806227922439575e-01,-5.728240683674812317e-02,5.917947739362716675e-02,-4.552576318383216858e-02,3.849389031529426575e-03,1.547756195068359375e-01,-4.426265507936477661e-02,-1.025226414203643799e-01,2.197056636214256287e-02,8.685168577358126640e-04,6.979850679636001587e-02,-1.085748672485351562e-01,1.602146476507186890e-01,5.287416279315948486e-02,1.059165447950363159e-01,9.505665302276611328e-02,-1.421121209859848022e-01,-1.001093387603759766e-01,-6.914257071912288666e-03,6.894259899854660034e-02,1.347629576921463013e-01,7.924388349056243896e-02,8.304498344659805298e-02,1.672678068280220032e-02,-2.850866178050637245e-03,5.104270949959754944e-02,-1.438257936388254166e-02,-1.289642900228500366e-01,-7.402204722166061401e-02,-4.369902238249778748e-02,4.444310814142227173e-02,-1.331219449639320374e-02,-4.604490846395492554e-02,6.279679387807846069e-02,-1.255578100681304932e-01,6.173286959528923035e-02,-8.385062217712402344e-02,4.673722758889198303e-02,2.713199704885482788e-02,8.498697727918624878e-02,-1.428997963666915894e-01,3.974006976932287216e-03,5.105028301477432251e-02,-7.853573560714721680e-02,8.662544935941696167e-02,1.436072289943695068e-01,-1.744388937950134277e-01,-5.423885583877563477e-02,-1.760748028755187988e-02,7.129357010126113892e-02,-2.239057049155235291e-02,-8.077982068061828613e-02,-3.531168401241302490e-02,-8.774161338806152344e-02,8.370528928935527802e-03,-2.332956355530768633e-04,-6.081997603178024292e-02,-1.466090679168701172e-01,3.352023288607597351e-02,1.928592473268508911e-02,-1.076861470937728882e-01,-2.495858259499073029e-02,3.110541030764579773e-02,-4.602755606174468994e-02,-3.813163191080093384e-02,8.703035861253738403e-02,-1.608138829469680786e-01,8.467777818441390991e-02,-6.612068973481655121e-03,1.968539357185363770e-01,4.292558506131172180e-02,3.479974344372749329e-02,-1.676126569509506226e-01,-1.214897409081459045e-01,9.592594951391220093e-02,-1.293518096208572388e-01,-5.737133324146270752e-02,-1.862501055002212524e-01,1.484907418489456177e-01,1.041311621665954590e-01,2.007967792451381683e-02,-5.969062075018882751e-02,1.220301017165184021e-01,-1.585204713046550751e-02,1.617835760116577148e-01,4.747313261032104492e-02,-1.785859465599060059e-02,1.379423737525939941e-01,1.311378274112939835e-02
-3.379835560917854309e-02,7.670192420482635498e-02,2.595279179513454437e-02,7.084709405899047852e-02,-2.087548747658729553e-02,1.242533605545759201e-02,-3.081897646188735962e-02,-8.647359907627105713e-02,1.192707866430282593e-01,1.692928187549114227e-02,-1.373972743749618530e-02,1.638873964548110962e-01,3.147467970848083496e-02,9.007333964109420776e-02,7.825349271297454834e-02,-1.120640635490417480e-01,6.769040226936340332e-02,4.355925321578979492e-02,6.278660148382186890e-02,9.230968356132507324e-02,7.099712640047073364e-02,6.274077109992504120e-03,-1.003794148564338684e-01,9.147657081484794617e-03,1.417548358440399170e-01,8.064477704465389252e-03,-4.196279495954513550e-02,-4.335009306669235229e-02,-1.003967821598052979e-01,8.222942054271697998e-02,-1.083213016390800476e-01,-8.692063391208648682e-02,-1.198216676712036133e-01,-8.537726849317550659e-02,-1.124309897422790527e-01,1.532242167741060257e-02,-6.262376159429550171e-02,1.876746565103530884e-01,1.932554319500923157e-02,9.164873510599136353e-02,-7.365907728672027588e-02,-8.965300768613815308e-02,7.926253229379653931e-02,1.572001166641712189e-02,-2.049305737018585205e-01,2.121483674272894859e-03,9.816954284906387329e-02,-6.983061879873275757e-02,3.932550083845853806e-03,-9.215692430734634399e-02,-4.040742665529251099e-02,-9.040762484073638916e-02,-7.867642492055892944e-02,-1.303417980670928955e-01,-1.043331846594810486e-01,-1.351147890090942383e-01,2.543197013437747955e-02,1.101747155189514160e-01,-7.340836338698863983e-03,-8.756874501705169678e-02,-2.756021171808242798e-02,9.983983822166919708e-03,7.084439694881439209e-02,-8.099471777677536011e-02,-6.181106343865394592e-02,3.424075245857238770e-02,-7.519220467656850815e-03,5.249868705868721008e-02,1.497504413127899170e-01,1.211141794919967651e-01,-1.676998585462570190e-01,8.009283244609832764e-02,-2.343141660094261169e-02,9.565684944391250610e-02,-1.243833824992179871e-02,-4.528414458036422729e-02,-3.045447356998920441e-02,1.362388134002685547e-01,4.726053774356842041e-02,-1.268038991838693619e-02,8.771789819002151489e-02,-1.159351244568824768e-01,-4.652259498834609985e-02,-1.334709376096725464e-01,9.199406951665878296e-02,6.060002837330102921e-03,-1.850933209061622620e-02,-8.342830091714859009e-02,6.137164309620857239e-02,6.239724159240722656e-02,-7.813590578734874725e-03,-1.229774877429008484e-01,-4.298290237784385681e-02,9.078481048345565796e-02,1.632047742605209351e-01,7.744452357292175293e-02,2.683148533105850220e-02,-2.973267983179539442e-04,-8.330722898244857788e-02,1.139964163303375244e-01,-1.081489548087120056e-01,1.006994917988777161e-01,5.993195623159408569e-02,1.110236644744873047e-01,-5.688020959496498108e-02,3.623570874333381653e-02,-5.216427147388458252e-02,-5.146607384085655212e-02,-3.574875369668006897e-02,-4.608339816331863403e-02,-1.644027605652809143e-02,4.961812496185302734e-02,7.951890677213668823e-02,-4.738396406173706055e-02,-1.074488386511802673e-01,-1.309822052717208862e-01,-3.081463836133480072e-02,-1.306221187114715576e-01,5.321920290589332581e-02,1.128246262669563293e-02,-1.557413581758737564e-02,-1.302915364503860474e-01,-2.720288373529911041e-02,9.883848950266838074e-03,1.229323819279670715e-02,9.481465071439743042e-02,1.159604117274284363e-01,5.709486454725265503e-02,9.512981772422790527e-02,-2.424476481974124908e-02,-7.417568471282720566e-03,2.053926326334476471e-02,-4.422667622566223145e-02,-7.404988259077072144e-02,-9.302403777837753296e-02,-9.198005497455596924e-02,-5.398105457425117493e-02,-1.754432730376720428e-02,-4.241219907999038696e-02,-3.028958104550838470e-02,-7.781683653593063354e-02,-7.404758036136627197e-02,-8.320549130439758301e-02,-1.023692935705184937e-01,-1.258315443992614746e-01,-1.279980689287185669e-01,1.139889657497406006e-01,-1.467401683330535889e-01,5.473428592085838318e-02,-1.114246174693107605e-01,-1.010291054844856262e-01,-1.295737922191619873e-01,8.174260705709457397e-02,-6.020455807447433472e-02,-7.373894006013870239e-02,-1.175026893615722656e-01,-1.517925411462783813e-02,-6.475322693586349487e-02,-1.092089712619781494e-01,-6.379698216915130615e-02,9.785948693752288818e-02,-1.412774920463562012e-01,-1.151710152626037598e-01,4.939932841807603836e-03,8.699609339237213135e-02,-2.784490212798118591e-02,-1.066367924213409424e-01,-8.451383560895919800e-02,-1.320713083259761333e-03,-4.313648119568824768e-02,-1.172640174627304077e-01,1.864187046885490417e-02,-9.826876968145370483e-02,-1.031436249613761902e-01,-1.276264041662216187e-01,1.813791168387979269e-04,-7.428887486457824707e-02,1.070105955004692078e-01,-1.786374486982822418e-02,7.091686129570007324e-02,-4.595690593123435974e-02,-1.122400611639022827e-01,-4.529269412159919739e-02,-3.063795715570449829e-02,-1.168215498328208923e-01,6.420267373323440552e-02,-3.051942680031061172e-03,1.202833428978919983e-01,-1.685032248497009277e-01,-1.564091742038726807e-01,-6.335081905126571655e-02,2.324504777789115906e-02,5.680127069354057312e-02,1.576722562313079834e-01,1.361468434333801270e-01,5.367499589920043945e-02,-4.475108534097671509e-02,6.930459290742874146e-02,-5.668297037482261658e-02,3.945454582571983337e-02
1.821356713771820068e-01,-1.702908128499984741e-01,-9.994398057460784912e-02,-5.247300490736961365e-02,-5.536202713847160339e-02,-3.771446272730827332e-02,1.034004464745521545e-01,3.894287347793579102e-02,-8.753236383199691772e-02,1.904059387743473053e-02,-1.116741448640823364e-01,-5.420213192701339722e-02,-8.335509151220321655e-02,-5.713561549782752991e-02,-1.191657409071922302e-01,-3.078606165945529938e-02,-1.222927570343017578e-01,-6.507976353168487549e-02,-3.119372390210628510e-02,-1.962530799210071564e-02,-9.076660126447677612e-02,-1.594771742820739746e-01,4.183014109730720520e-02,8.527115732431411743e-02,-1.515038907527923584e-01,-1.942567229270935059e-01,-6.202232465147972107e-02,-7.252011448144912720e-02,-7.157015800476074219e-02,5.452241003513336182e-02,5.964751914143562317e-02,1.073826663196086884e-02,1.531118527054786682e-02,-2.736203745007514954e-02,-3.672397509217262268e-02,-1.650012731552124023e-01,1.207779813557863235e-02,9.591617435216903687e-02,7.592105865478515625e-02,-7.015698403120040894e-02,-1.481208056211471558e-01,-5.665908101946115494e-03,-8.944731205701828003e-02,9.907703846693038940e-02,1.484481990337371826e-01,-1.762729883193969727e-02,-6.839821487665176392e-02,5.083351954817771912e-02,-1.128388289362192154e-02,-1.609224826097488403e-01,-3.392735123634338379e-02,1.359898746013641357e-01,-3.904622048139572144e-02,1.249000951647758484e-01,-1.171494461596012115e-02,-4.645634442567825317e-02,1.352600380778312683e-02,1.929417811334133148e-02,1.363466121256351471e-02,3.092359052971005440e-03,-8.916580677032470703e-02,-1.847449541091918945e-01,-1.414310634136199951e-01,-1.668212562799453735e-02,-7.844311743974685669e-02,1.934255212545394897e-01,5.673126131296157837e-02,-2.716455049812793732e-02,-1.668778061866760254e-01,-1.153076663613319397e-01,6.717698276042938232e-02,-2.352670021355152130e-02,1.649242937564849854e-01,6.820733845233917236e-02,1.358506530523300171e-01,6.009237840771675110e-02,-7.810449600219726562e-02,1.371055841445922852e-02,2.703077904880046844e-02,4.890498518943786621e-02,-1.406972855329513550e-01,1.267914772033691406e-01,6.933736801147460938e-02,5.205162987112998962e-02,-1.286924928426742554e-01,-1.238952800631523132e-01,9.015756659209728241e-03,9.627854079008102417e-02,-2.236107438802719116e-01,-1.311014443635940552e-01,1.592256426811218262e-01,-5.920413136482238770e-02,8.295630663633346558e-02,-3.392067849636077881e-01,5.183257628232240677e-03,2.839401178061962128e-02,7.035496085882186890e-02,4.493714123964309692e-02,-7.751501351594924927e-02,-4.041664302349090576e-02,-1.336947381496429443e-01,-1.178178191184997559e-01,-4.719255864620208740e-02,1.664574742317199707e-01,-3.937629237771034241e-02,-5.871120095252990723e-02,-5.332136061042547226e-03,4.193137865513563156e-03,-1.103744958527386189e-03,-1.151843219995498657e-01,-1.128465458750724792e-01,2.114539146423339844e-01,7.473254203796386719e-02,-3.164599463343620300e-02,-1.951207369565963745e-01,-2.976283989846706390e-02,1.196034625172615051e-01,3.486775979399681091e-02,4.281992837786674500e-02,2.987715229392051697e-02,-9.912629425525665283e-02,-2.015644609928131104e-01,-9.832354635000228882e-02,9.726818534545600414e-04,1.912518031895160675e-02,-2.024852037429809570e-01,-1.001196131110191345e-01,1.495058685541152954e-01,-8.073425292968750000e-02,-6.065959483385086060e-02,9.331993758678436279e-02,-3.371985629200935364e-02,5.527111887931823730e-02,2.339878492057323456e-02,6.630592048168182373e-02,-8.752442896366119385e-02,5.658805370330810547e-02,1.023797225207090378e-02,-2.463915571570396423e-02,4.678377881646156311e-02,-3.663679212331771851e-02,2.031294554471969604e-01,-1.520676165819168091e-02,6.502280384302139282e-02,1.953847557306289673e-01,4.551811516284942627e-02,1.816401332616806030e-01,-4.433166980743408203e-02,1.336877197027206421e-01,5.552676320075988770e-02,-1.192079633474349976e-01,-4.012369737029075623e-02,-6.247845664620399475e-02,9.477853029966354370e-02,-6.487311422824859619e-02,-1.130365729331970215e-01,-9.756705909967422485e-02,-1.829690635204315186e-01,-4.358291625976562500e-02,-1.380970180034637451e-01,7.778492569923400879e-02,-1.007471755146980286e-01,-1.318357884883880615e-01,-6.946435570716857910e-02,-1.446202993392944336e-01,-6.049738824367523193e-02,-1.568602584302425385e-02,9.274808317422866821e-02,-8.228848129510879517e-02,-9.607983380556106567e-02,-1.932404339313507080e-01,-7.480099052190780640e-02,-2.551993541419506073e-02,-1.733605749905109406e-02,2.260543033480644226e-02,-3.454549238085746765e-02,3.171007707715034485e-02,1.235295757651329041e-01,-7.717895507812500000e-02,-7.527677714824676514e-02,-1.571316868066787720e-01,9.566794335842132568e-02,-1.366090774536132812e-01,-2.039094269275665283e-01,1.556244641542434692e-01,-1.431400030851364136e-01,-9.668745845556259155e-02,-1.740114577114582062e-02,-3.078052774071693420e-02,8.159586787223815918e-02,-8.904787153005599976e-02,2.246647477149963379e-01,-8.977007120847702026e-02,4.459940642118453979e-02,-2.269642800092697144e-01,-1.027762442827224731e-01,-5.964865535497665405e-02,-9.244746528565883636e-03,2.196178771555423737e-02,-3.659145534038543701e-02
