3.386976942420005798e-02,-4.369319230318069458e-02,1.657892391085624695e-02,-1.137096993625164032e-02,-9.714064747095108032e-02,6.169164180755615234e-02,1.560731325298547745e-02,5.732033750973641872e-04,-8.801978081464767456e-02,4.586165025830268860e-02,-1.077840700745582581e-01,6.236588954925537109e-02,-5.167847033590078354e-03,-9.455936960875988007e-03,6.367471069097518921e-02,3.744141012430191040e-02,-5.496251210570335388e-02,2.446980960667133331e-02,1.158121507614850998e-02,2.527740038931369781e-02,1.722226850688457489e-02,-2.939074672758579254e-02,3.987048938870429993e-02,4.897082969546318054e-02,1.390742487274110317e-03,-3.071873215958476067e-03,1.218310743570327759e-02,-4.744450375437736511e-02,-2.720322087407112122e-02,1.077776867896318436e-02,-3.859798237681388855e-02,-3.697116672992706299e-02,1.244875369593501091e-03,3.822387009859085083e-02,1.003695372492074966e-02,-5.459404550492763519e-03,-6.639440543949604034e-03,7.476816885173320770e-03,1.993383839726448059e-02,-4.606859758496284485e-03,-1.140195131301879883e-02,1.057757437229156494e-02,8.930173516273498535e-02,4.178505390882492065e-02,5.332398414611816406e-02,4.549665376543998718e-02,3.598392941057682037e-03,5.547700077295303345e-02,-1.827682740986347198e-02,8.499608375132083893e-03,-2.094109728932380676e-02,-5.402579531073570251e-02,3.180742263793945312e-02,3.194798156619071960e-02,-3.201713040471076965e-02,6.391771882772445679e-02,-4.549116268754005432e-02,-3.551752865314483643e-02,-2.932245656847953796e-02,-3.619034588336944580e-02,-2.744413726031780243e-02,6.087869033217430115e-02,-1.340094767510890961e-02,-3.781847283244132996e-02,3.222768381237983704e-02,-5.436512641608715057e-03,4.951706901192665100e-02,-4.366245493292808533e-02,1.044230884872376919e-03,-1.007430106401443481e-01,-2.117451094090938568e-02,-1.334353908896446228e-02,-9.511141106486320496e-03,-4.790869355201721191e-02,5.689945444464683533e-02,-7.446286827325820923e-02,-4.502866044640541077e-02,-8.318784087896347046e-02,-4.818208981305360794e-03,3.934478759765625000e-02,-2.416599728167057037e-02,4.039231687784194946e-02,-3.168460354208946228e-02,6.066223606467247009e-02,1.810632832348346710e-02,2.629928058013319969e-03,4.418976232409477234e-02,-2.876257151365280151e-02,-9.216704219579696655e-02,2.809606865048408508e-02,-1.545530837029218674e-02,2.823700569570064545e-02,3.825941681861877441e-02,-4.147693049162626266e-03,-4.263737425208091736e-02,6.792686134576797485e-02,-1.156674232333898544e-02,-1.373230852186679840e-02,-1.040311623364686966e-02,4.710027948021888733e-02,4.345250874757766724e-02,4.648537375032901764e-03,3.344145044684410095e-02,1.906183734536170959e-02,1.183455623686313629e-02,1.447963621467351913e-02,-1.676760613918304443e-02,1.284483727067708969e-02,9.550821036100387573e-03,1.347220130264759064e-02,-4.045425727963447571e-02,1.483507174998521805e-02,3.500365465879440308e-02,-2.105349209159612656e-03,-6.090588495135307312e-02,2.112233638763427734e-02,5.341956391930580139e-02,3.914797306060791016e-02,-2.396096289157867432e-02,-2.426215633749961853e-02,-8.990998566150665283e-02,1.625110767781734467e-02,-3.206976875662803650e-02,-4.664359986782073975e-02,2.163279242813587189e-02,-4.735795315355062485e-03,-5.888571590185165405e-02,-8.370751887559890747e-02,3.895650431513786316e-02,-1.377374306321144104e-02,1.995579339563846588e-03,6.255166977643966675e-02,-7.683477550745010376e-02,1.061370503157377243e-02,3.255494311451911926e-02,4.046762362122535706e-02,2.643308043479919434e-02,2.989769726991653442e-02,-4.481573030352592468e-02,5.703319981694221497e-02,-1.493142731487751007e-02,9.402485936880111694e-02,-1.233307528309524059e-03,-2.751789614558219910e-02,5.477734655141830444e-02,3.540699556469917297e-02,2.098526433110237122e-02,3.533811494708061218e-02,-1.686768792569637299e-02,-6.295127794146537781e-03,3.486238792538642883e-02,7.149791717529296875e-02,9.124305099248886108e-03,6.420332193374633789e-02,5.719072371721267700e-02,3.784703463315963745e-02,-4.451762139797210693e-02,1.751355826854705811e-02,1.916469633579254150e-02,-1.199086681008338928e-01,-5.288519337773323059e-02,-1.104821041226387024e-01,1.734682358801364899e-02,1.675261370837688446e-02,-2.121972851455211639e-02,-8.854792453348636627e-03,3.690680488944053650e-02,3.419438749551773071e-02,-6.206805631518363953e-02,-1.194752287119626999e-02,-4.734241589903831482e-02,4.733198881149291992e-02,-2.099285461008548737e-02,1.105286777019500732e-01,3.156264312565326691e-03,4.582789167761802673e-02,-2.004053816199302673e-02,-4.098891094326972961e-02,3.004224784672260284e-02,4.175490513443946838e-02,7.156009972095489502e-02,5.275185103528201580e-04,-6.920579355210065842e-03,6.270874291658401489e-03,5.023936927318572998e-02,7.451273500919342041e-02,-2.737990766763687134e-02,2.082395926117897034e-02,7.275637984275817871e-02,-1.534827705472707748e-02,1.135548017919063568e-02,3.586414828896522522e-02,-8.439517114311456680e-04,2.319099567830562592e-02,-5.150304175913333893e-03,4.556767269968986511e-02,-2.512108907103538513e-02,2.968261204659938812e-02,-7.393838465213775635e-02,-3.464398533105850220e-02
