-6.780540198087692261e-02,2.381621161475777626e-03,9.967225044965744019e-02,-4.506290890276432037e-03,5.609319731593132019e-02,2.893010899424552917e-02,4.385536536574363708e-02,6.170556880533695221e-03,2.499466016888618469e-02,4.280870314687490463e-03,-4.483573138713836670e-02,9.388097561895847321e-03,7.850278913974761963e-02,3.925250470638275146e-02,7.923205383121967316e-03,5.823737382888793945e-02,3.271567076444625854e-02,6.345822662115097046e-02,9.071134030818939209e-02,4.983070120215415955e-02,7.006727904081344604e-02,1.467721909284591675e-02,-4.265842959284782410e-02,-2.546186186373233795e-02,-8.576648682355880737e-02,-4.642289597541093826e-03,9.874723106622695923e-02,5.846542119979858398e-02,1.260214447975158691e-01,2.224125713109970093e-02,-1.485555153340101242e-02,9.205679409205913544e-03,4.733614251017570496e-02,3.287960961461067200e-02,-4.133441299200057983e-02,2.152012661099433899e-02,7.815667241811752319e-02,-5.883449688553810120e-02,2.951465733349323273e-02,8.249986916780471802e-02,-2.112800441682338715e-02,3.941303491592407227e-02,3.373221680521965027e-02,5.574531480669975281e-02,3.893771767616271973e-02,-4.391733184456825256e-02,1.396207790821790695e-02,1.211652979254722595e-01,5.949391424655914307e-02,2.417450957000255585e-02,-5.462999269366264343e-02,2.000909298658370972e-02,2.179515175521373749e-02,-3.507125005125999451e-02,7.314813323318958282e-03,4.498915746808052063e-02,9.711941704154014587e-03,1.468190643936395645e-02,9.028615429997444153e-03,-3.502221405506134033e-02,1.870301179587841034e-02,4.249856248497962952e-02,5.608807876706123352e-02,-3.908061236143112183e-02,2.596293576061725616e-02,5.844690278172492981e-02,3.813304752111434937e-02,1.827383786439895630e-02,1.416716538369655609e-02,-2.909929491579532623e-02,4.519111663103103638e-02,3.471188992261886597e-02,1.811191141605377197e-01,1.092466413974761963e-01,4.406597465276718140e-02,3.953615576028823853e-02,-3.668992547318339348e-03,-6.423542276024818420e-03,9.474721550941467285e-02,2.983056381344795227e-02,7.587766647338867188e-02,7.574128359556198120e-02,3.978432714939117432e-02,2.806955762207508087e-02,3.728002309799194336e-02,3.152464050799608231e-03,-1.062368415296077728e-02,3.493244573473930359e-02,-3.729556128382682800e-02,2.710966393351554871e-02,3.951979056000709534e-02,4.385002329945564270e-02,2.945483662188053131e-03,5.379046127200126648e-02,-1.785525120794773102e-03,4.903491958975791931e-02,5.891362205147743225e-02,4.464873112738132477e-03,1.015291549265384674e-02,-2.025171741843223572e-02,7.149408757686614990e-02,2.364481054246425629e-02,3.433497995138168335e-02,2.030466450378298759e-03,2.262070961296558380e-02,-1.498308498412370682e-02,1.992382667958736420e-02,6.402414292097091675e-02,1.071892306208610535e-01,1.049465686082839966e-01,4.134106263518333435e-02,-8.190309628844261169e-03,1.236408501863479614e-01,-1.137275621294975281e-02,-5.029567703604698181e-02,4.552963003516197205e-02,-2.353206276893615723e-02,2.492427453398704529e-02,-2.379889599978923798e-03,6.110192742198705673e-03,6.329513341188430786e-02,-1.082457695156335831e-02,-5.709537863731384277e-02,-1.029187813401222229e-02,1.903578825294971466e-02,4.201227426528930664e-02,2.392215840518474579e-02,-1.969117857515811920e-02,5.420897901058197021e-02,2.298078127205371857e-02,2.864707447588443756e-02,-4.706161841750144958e-02,-7.353825867176055908e-02,-2.772240340709686279e-02,3.822010383009910583e-02,2.341286465525627136e-02,2.374468743801116943e-02,1.328275352716445923e-02,4.979915544390678406e-02,1.485728919506072998e-01,3.138884902000427246e-02,3.882817924022674561e-02,3.796606883406639099e-02,8.444947161478921771e-05,-3.939126804471015930e-02,1.006994098424911499e-01,-1.778339594602584839e-02,-4.275127127766609192e-02,-2.625902928411960602e-02,-2.840687148272991180e-02,-1.846944540739059448e-02,8.485722355544567108e-04,2.372981980443000793e-02,5.239518359303474426e-02,-9.823478758335113525e-03,5.385617911815643311e-02,1.103312149643898010e-01,1.397641152143478394e-01,-4.098479449748992920e-02,1.621074229478836060e-02,3.535066545009613037e-02,-5.501758307218551636e-03,-4.748935252428054810e-02,5.438023805618286133e-02,1.403874251991510391e-02,-1.972378604114055634e-02,5.725934728980064392e-02,-1.244047284126281738e-02,-1.180700305849313736e-02,1.345967948436737061e-01,4.956511035561561584e-02,1.538875326514244080e-02,-4.289140924811363220e-02,2.796331048011779785e-02,-1.280022971332073212e-02,7.799655944108963013e-02,8.166982233524322510e-02,1.829268783330917358e-02,-1.734299212694168091e-02,-6.811691075563430786e-02,-3.386043827049434185e-04,2.435777150094509125e-02,-1.957607641816139221e-02,-2.262644097208976746e-02,2.062377706170082092e-02,-4.183757118880748749e-03,5.669355019927024841e-02,2.864906936883926392e-02,1.125055849552154541e-01,4.145823791623115540e-02,-3.648041188716888428e-02,2.423922531306743622e-02,9.082099795341491699e-02,1.093422155827283859e-02,-7.460315525531768799e-02,-1.438780222088098526e-02,9.003229439258575439e-02,8.877948857843875885e-04,5.757727473974227905e-02,2.619734033942222595e-02
