-7.233442366123199463e-02,2.391061745584011078e-02,1.284364461898803711e-01,-8.134856820106506348e-03,2.996470220386981964e-02,3.420351818203926086e-02,3.864152729511260986e-02,-2.494177967309951782e-02,2.862093225121498108e-02,3.212608024477958679e-02,-4.483573138713836670e-02,-9.869646281003952026e-03,7.253997027873992920e-02,3.441478684544563293e-02,-1.126073021441698074e-02,3.995770588517189026e-02,2.852396294474601746e-02,5.510926246643066406e-02,8.160685747861862183e-02,4.661617800593376160e-02,6.924327462911605835e-02,-2.295593172311782837e-02,-4.265842959284782410e-02,-2.546186186373233795e-02,-8.576648682355880737e-02,1.908202655613422394e-02,1.201252788305282593e-01,8.853108435869216919e-02,1.380786895751953125e-01,-3.221295401453971863e-02,-1.485555153340101242e-02,-1.519077457487583160e-03,5.125898867845535278e-02,4.355436563491821289e-02,-3.549017384648323059e-02,8.266914635896682739e-03,8.147908002138137817e-02,-5.883449688553810120e-02,1.818794012069702148e-02,6.480581313371658325e-02,-3.730132803320884705e-02,2.266350202262401581e-02,5.901415646076202393e-02,5.801502242684364319e-02,1.448356825858354568e-02,-4.391733184456825256e-02,7.046951912343502045e-03,1.068373695015907288e-01,8.625933527946472168e-02,1.697786338627338409e-02,-5.462999269366264343e-02,2.974252216517925262e-03,2.278419584035873413e-02,-3.507125005125999451e-02,4.154359921813011169e-03,5.433104187250137329e-02,5.242756567895412445e-03,2.745988313108682632e-03,6.524538621306419373e-03,-5.470278486609458923e-02,5.179103091359138489e-02,7.701774686574935913e-02,4.458473995327949524e-02,-3.908061236143112183e-02,5.074363574385643005e-02,8.940772712230682373e-02,4.713138192892074585e-02,1.176298595964908600e-02,5.932709947228431702e-02,-2.909929491579532623e-02,6.005307286977767944e-02,2.169026993215084076e-02,1.979951113462448120e-01,1.261739432811737061e-01,4.631761088967323303e-02,6.311571598052978516e-02,-2.179072238504886627e-02,-1.089643873274326324e-02,1.276671141386032104e-01,-3.628148231655359268e-03,6.440671533346176147e-02,6.128530576825141907e-02,4.626379162073135376e-02,4.451011493802070618e-02,2.764068357646465302e-02,2.821220271289348602e-02,-4.820352047681808472e-02,1.930268295109272003e-02,-3.545522689819335938e-02,2.965738996863365173e-02,1.800695620477199554e-02,6.086236238479614258e-02,1.195371709764003754e-02,6.154953315854072571e-02,2.082417532801628113e-02,6.323461234569549561e-02,3.558089584112167358e-02,-1.074674446135759354e-02,-1.852981559932231903e-02,-3.507147729396820068e-02,6.242625787854194641e-02,-2.237050421535968781e-02,3.165542706847190857e-02,2.701553050428628922e-03,3.387019783258438110e-02,-1.234308537095785141e-02,9.781458647921681404e-04,5.648004636168479919e-02,1.188367456197738647e-01,8.763512223958969116e-02,2.294308133423328400e-02,2.205714769661426544e-02,1.251956522464752197e-01,3.057369776070117950e-02,-5.029567703604698181e-02,3.112835064530372620e-02,5.510100163519382477e-03,3.149642422795295715e-02,-2.773078717291355133e-02,2.853499166667461395e-02,6.739198416471481323e-02,4.387620463967323303e-02,-5.709537863731384277e-02,-2.343382313847541809e-02,3.331509605050086975e-02,5.805291235446929932e-02,1.361542847007513046e-02,4.085380118340253830e-03,7.526724040508270264e-02,4.835177678614854813e-03,-2.835871092975139618e-02,-3.566076979041099548e-02,-7.353825867176055908e-02,-2.673277631402015686e-02,3.319415077567100525e-02,6.375993043184280396e-02,2.805325761437416077e-02,-2.099028322845697403e-03,1.004720404744148254e-01,1.456600278615951538e-01,3.363455459475517273e-02,4.296668246388435364e-02,3.320533037185668945e-02,1.286989357322454453e-02,-3.939126804471015930e-02,1.431541740894317627e-01,-1.897384971380233765e-02,-4.275127127766609192e-02,-8.087418973445892334e-03,1.078076753765344620e-02,1.484049391001462936e-02,-5.735790356993675232e-03,2.661904878914356232e-02,4.678678512573242188e-02,-3.795077092945575714e-03,2.638084813952445984e-02,1.380948126316070557e-01,1.577983498573303223e-01,-4.098479449748992920e-02,-5.286694969981908798e-03,-5.812172312289476395e-04,-7.679673377424478531e-03,-4.748935252428054810e-02,5.572887137532234192e-02,4.835825785994529724e-02,-1.972378604114055634e-02,7.276341319084167480e-02,-8.684680797159671783e-03,-2.268525958061218262e-02,1.206831410527229309e-01,5.993050709366798401e-02,9.772288613021373749e-03,-4.289140924811363220e-02,4.679511487483978271e-02,-3.992218524217605591e-02,7.600054144859313965e-02,1.034272313117980957e-01,1.373838167637586594e-02,9.525910019874572754e-03,-6.811691075563430786e-02,6.815172266215085983e-03,1.850710064172744751e-02,-4.356020316481590271e-02,-1.449787430465221405e-02,4.015675932168960571e-02,3.156060120090842247e-04,4.792736098170280457e-02,-1.660192012786865234e-02,1.249743103981018066e-01,5.291330069303512573e-02,-3.405454754829406738e-02,4.983520135283470154e-02,8.540330082178115845e-02,-8.550060912966728210e-03,-7.793053239583969116e-02,-1.707216724753379822e-02,7.652554661035537720e-02,1.975225843489170074e-02,3.209979832172393799e-02,3.566553816199302673e-02
