-7.065572589635848999e-02,-2.991482429206371307e-02,-8.090688847005367279e-03,1.213771924376487732e-01,-3.724187240004539490e-02,5.277110729366540909e-03,1.118358075618743896e-01,-5.087075009942054749e-02,9.789333492517471313e-02,5.907526984810829163e-02,-2.807150781154632568e-02,-6.294397637248039246e-03,3.634839132428169250e-02,-1.743406243622303009e-02,4.500885959714651108e-03,1.800511777400970459e-02,-1.144141554832458496e-01,8.440490067005157471e-02,-8.433785289525985718e-02,8.998966775834560394e-03,-7.162693142890930176e-02,-5.795131996273994446e-02,-3.714226558804512024e-02,-9.392327815294265747e-02,1.212325990200042725e-01,-6.748007237911224365e-02,5.229173228144645691e-02,-8.236001431941986084e-02,3.240550681948661804e-02,-5.754378437995910645e-02,-2.768861828371882439e-03,-6.080536171793937683e-02,-1.382334381341934204e-01,-7.621569675393402576e-04,-4.540259391069412231e-02,-1.135216429829597473e-01,6.886078417301177979e-02,4.758075997233390808e-02,-5.501708388328552246e-02,2.728041261434555054e-02,-1.830548048019409180e-01,1.222718283534049988e-01,-1.122769992798566818e-02,-1.203939169645309448e-01,8.418976515531539917e-02,4.611661192029714584e-03,-5.433243513107299805e-02,-2.114515937864780426e-02,-6.674319505691528320e-02,-1.336251050233840942e-01,2.594428602606058121e-03,-1.643059402704238892e-01,-2.998804487287998199e-02,7.505965977907180786e-02,5.615657940506935120e-02,3.008062019944190979e-02,-1.661610156297683716e-01,3.899599611759185791e-02,5.200460553169250488e-02,-1.443390361964702606e-02,-5.257410183548927307e-02,4.138575866818428040e-02,6.039404775947332382e-03,-1.357858255505561829e-02,8.630258589982986450e-02,-7.892077416181564331e-02,2.547391131520271301e-02,-1.091341227293014526e-01,-1.223489865660667419e-01,4.570880904793739319e-02,5.547064542770385742e-02,9.025841951370239258e-02,-8.049351722002029419e-02,-6.893241405487060547e-02,-2.479306422173976898e-02,-3.561341390013694763e-02,-8.717058598995208740e-02,-1.373110115528106689e-01,3.841197350993752480e-03,-1.670266240835189819e-01,5.592944845557212830e-02,6.922876462340354919e-03,7.355869561433792114e-02,-1.890129782259464264e-02,3.555738925933837891e-02,-1.056384947150945663e-02,7.088404893875122070e-02,-9.674312919378280640e-02,1.104766502976417542e-03,-7.559730857610702515e-02,4.072102159261703491e-02,-6.297899782657623291e-02,7.856283336877822876e-02,-1.243940219283103943e-01,-7.336695492267608643e-02,-8.647599257528781891e-03,-2.761664800345897675e-02,6.647891551256179810e-02,-1.253714412450790405e-01,-2.772697433829307556e-02,-1.666285991668701172e-01,7.208957523107528687e-02,4.699142649769783020e-02,-2.585552819073200226e-02,-4.255239292979240417e-02,-4.022432863712310791e-02,5.377736315131187439e-02,-7.981295883655548096e-02,8.927720785140991211e-02,-9.145139902830123901e-02,-1.638622283935546875e-01,-7.972101122140884399e-02,6.168182939291000366e-03,-3.797051310539245605e-02,-9.474693238735198975e-02,-9.436662308871746063e-03,-9.641170501708984375e-02,-8.721385151147842407e-02,7.784773409366607666e-02,-1.103934571146965027e-01,-7.829717546701431274e-02,1.188864698633551598e-03,-4.216302931308746338e-02,-1.947944425046443939e-02,-1.396294087171554565e-01,-4.521146044135093689e-02,2.054551616311073303e-02,-4.224500153213739395e-03,4.844713583588600159e-02,1.092483196407556534e-02,-4.377248231321573257e-03,-8.235599100589752197e-02,-4.619989171624183655e-02,-1.511742472648620605e-01,-1.698943600058555603e-02,3.183586150407791138e-02,-1.037787646055221558e-02,-9.405692107975482941e-03,-1.204984709620475769e-01,-1.399568617343902588e-01,-9.033363312482833862e-02,-6.383828818798065186e-02,1.514457724988460541e-02,3.021441586315631866e-02,-3.177824243903160095e-02,-5.914637073874473572e-02,-8.510520309209823608e-02,-5.537872761487960815e-02,1.011348888278007507e-01,-4.705744609236717224e-02,1.102365925908088684e-01,-1.388745661824941635e-02,3.263843804597854614e-02,-2.436333149671554565e-02,-1.130342781543731689e-01,1.161865592002868652e-01,-8.305772393941879272e-02,1.805304549634456635e-02,5.799463018774986267e-02,-1.172113195061683655e-01,5.976229906082153320e-02,5.606179684400558472e-02,-4.134189710021018982e-02,-1.323213726282119751e-01,-1.712388843297958374e-01,7.165552675724029541e-02,-1.063724011182785034e-01,-1.785907447338104248e-01,-7.612147182226181030e-02,-6.180726364254951477e-02,-1.728464961051940918e-01,-1.317690908908843994e-01,-1.364015787839889526e-01,2.205026149749755859e-02,9.807067364454269409e-02,-5.065562576055526733e-02,-6.601996719837188721e-02,-4.940839111804962158e-02,-5.800619721412658691e-02,6.384793668985366821e-02,9.608225896954536438e-03,-1.726324707269668579e-01,7.478976994752883911e-02,1.386596634984016418e-02,-6.061809509992599487e-02,1.086441501975059509e-01,-1.515102237462997437e-01,-1.408624947071075439e-01,-1.038948073983192444e-01,-8.980739116668701172e-02,7.625756412744522095e-02,-8.217700570821762085e-02,-3.511934727430343628e-02,5.945931375026702881e-02,-6.862825155258178711e-02,5.335812643170356750e-02,7.062544673681259155e-02,-1.213043704628944397e-01,-1.578253954648971558e-01,-1.228605490177869797e-02
1.565421670675277710e-01,-9.405177086591720581e-03,1.174513548612594604e-01,1.001957952976226807e-01,6.479132175445556641e-02,1.964708417654037476e-01,-1.358353793621063232e-01,-8.369102329015731812e-02,-4.592910781502723694e-02,7.108507305383682251e-02,5.603970587253570557e-02,-2.787272632122039795e-01,4.772333055734634399e-02,1.554756611585617065e-01,8.523304760456085205e-02,1.502150297164916992e-01,7.177017629146575928e-02,1.094676405191421509e-01,-4.161003977060317993e-02,1.993894390761852264e-02,-4.666920006275177002e-02,5.524617154151201248e-03,-1.602707803249359131e-01,-2.300829859450459480e-03,-5.017485097050666809e-02,-1.773201376199722290e-01,-4.739890992641448975e-02,-2.317792363464832306e-02,6.657014042139053345e-02,-4.471190739423036575e-03,2.471183799207210541e-02,-7.617522776126861572e-02,1.497721672058105469e-01,-2.657417654991149902e-01,6.059094518423080444e-02,-7.501152902841567993e-02,-3.645855560898780823e-02,-5.787674337625503540e-02,-3.405876457691192627e-02,4.481562227010726929e-02,-1.564895361661911011e-01,-6.695685535669326782e-02,-2.995798550546169281e-02,4.915480036288499832e-03,1.819527298212051392e-01,1.032563224434852600e-01,-4.151350352913141251e-03,1.620277762413024902e-02,-2.301109582185745239e-02,1.905343681573867798e-02,-2.387853153049945831e-02,-1.768468171358108521e-01,1.443663090467453003e-01,-2.132002962753176689e-03,2.207577973604202271e-02,1.331961452960968018e-01,-7.269565016031265259e-02,-4.305277764797210693e-02,-1.163363084197044373e-02,3.692361339926719666e-02,3.854054957628250122e-02,9.937997907400131226e-02,7.087890058755874634e-02,-1.328260153532028198e-01,-2.118362635374069214e-01,1.107887253165245056e-01,4.465261474251747131e-02,-1.174149587750434875e-01,-1.816150844097137451e-01,-9.147556126117706299e-02,3.456735238432884216e-02,-7.129923254251480103e-02,3.722494840621948242e-02,-2.576998062431812286e-02,-8.717868477106094360e-03,7.061261683702468872e-02,-3.630454093217849731e-02,1.809676736593246460e-01,-1.521657705307006836e-01,1.322914846241474152e-03,-3.203004365786910057e-03,-4.668967425823211670e-02,-1.718703471124172211e-02,-6.988192349672317505e-02,6.857753731310367584e-03,-1.568203270435333252e-01,2.107625156641006470e-01,-3.623265400528907776e-02,1.696082800626754761e-01,1.189869120717048645e-01,1.404842827469110489e-02,-1.023694351315498352e-01,-1.135799568146467209e-02,-1.178659945726394653e-01,3.556760773062705994e-02,1.775618046522140503e-01,-6.110013648867607117e-02,-6.016837432980537415e-02,6.947487592697143555e-02,1.955384314060211182e-01,2.013013958930969238e-01,8.363710343837738037e-02,1.493280977010726929e-01,6.874955445528030396e-02,6.877670437097549438e-02,1.735871843993663788e-02,1.832773387432098389e-01,1.802749186754226685e-01,4.946187138557434082e-02,1.596884280443191528e-01,8.801931887865066528e-02,5.229439958930015564e-02,-4.236829653382301331e-02,-1.359573155641555786e-01,-4.382919892668724060e-02,-5.357382073998451233e-02,8.189871907234191895e-02,1.481721103191375732e-01,-1.779517829418182373e-01,-8.666541427373886108e-02,-9.577998518943786621e-02,-9.286060184240341187e-02,-4.000168293714523315e-02,-6.422334164381027222e-02,7.118729501962661743e-02,-1.173161566257476807e-01,-1.985235959291458130e-01,5.984905734658241272e-02,2.236581295728683472e-01,6.508204154670238495e-03,1.032529994845390320e-01,4.409364238381385803e-02,-9.614476561546325684e-02,4.678380116820335388e-02,1.759203076362609863e-01,9.524010866880416870e-02,1.166874095797538757e-01,1.829890459775924683e-01,7.234941422939300537e-02,1.059367433190345764e-01,-1.218349672853946686e-02,-1.927610300481319427e-02,9.815554320812225342e-02,-1.495182886719703674e-02,1.227794438600540161e-01,-5.663594976067543030e-02,1.431256532669067383e-01,-9.383930265903472900e-02,-9.096665680408477783e-02,2.317717671394348145e-02,-2.698753029108047485e-02,-3.486702451482415199e-03,9.248322248458862305e-02,2.124056369066238403e-01,8.841420710086822510e-02,-1.171695962548255920e-01,1.876610517501831055e-01,-2.456419318914413452e-01,-1.606594175100326538e-01,6.730365753173828125e-02,1.368715465068817139e-01,1.349924206733703613e-01,1.473609656095504761e-01,8.346118032932281494e-02,1.818037331104278564e-01,2.243931032717227936e-02,-1.044459175318479538e-03,2.251901626586914062e-01,8.365535736083984375e-02,-1.417778432369232178e-01,1.606200784444808960e-01,-2.445693872869014740e-02,-9.769447892904281616e-02,-6.797630339860916138e-02,1.385061740875244141e-01,7.581440359354019165e-02,-2.084187865257263184e-01,-2.546860575675964355e-01,7.401949167251586914e-02,1.943809837102890015e-01,1.017116978764533997e-01,-4.265504702925682068e-02,3.129780292510986328e-02,-5.308161489665508270e-03,-7.810206711292266846e-02,4.803172871470451355e-02,2.664250135421752930e-02,-8.022322319447994232e-03,8.351401239633560181e-02,-7.518178317695856094e-03,4.792312160134315491e-02,-7.827503979206085205e-02,-9.907815605401992798e-02,9.575053304433822632e-02,-9.314902871847152710e-02,-2.880479395389556885e-01,1.340531744062900543e-02,-1.239774823188781738e-01,6.616428494453430176e-02,-1.478223502635955811e-01
4.143455624580383301e-02,-3.834117576479911804e-02,-8.283325470983982086e-03,3.962181881070137024e-02,-2.958652935922145844e-02,-1.308632781729102135e-03,3.511196374893188477e-02,-1.425042003393173218e-01,-1.124279852956533432e-02,2.064687311649322510e-01,1.356163322925567627e-01,-1.539458930492401123e-01,7.759586721658706665e-02,-9.799242019653320312e-02,2.546906173229217529e-01,1.731774359941482544e-01,-4.739535227417945862e-02,-8.067668974399566650e-02,1.716579645872116089e-01,-5.185562744736671448e-02,3.648053109645843506e-02,-1.610604971647262573e-01,-1.004537101835012436e-02,-1.096101198345422745e-02,1.012807041406631470e-01,-1.112445965409278870e-01,-1.197275891900062561e-01,-6.717074662446975708e-02,1.624805927276611328e-01,5.241716280579566956e-02,-9.189383685588836670e-02,-4.028379917144775391e-03,1.859904266893863678e-02,-4.634503647685050964e-02,-8.948884159326553345e-02,1.989645510911941528e-01,8.861370384693145752e-02,-1.765657812356948853e-01,1.607945561408996582e-01,2.088037133216857910e-02,-2.490392513573169708e-02,3.533678874373435974e-02,5.946496967226266861e-03,2.298175394535064697e-01,2.285246998071670532e-01,1.922313570976257324e-01,-2.311409916728734970e-03,2.194456011056900024e-01,-5.636554211378097534e-02,-1.087383031845092773e-01,-6.123892962932586670e-02,-1.399826705455780029e-01,-2.944059297442436218e-02,9.119407832622528076e-02,6.712042540311813354e-02,9.332848712801933289e-03,-6.682285666465759277e-02,2.485177293419837952e-02,1.748928576707839966e-01,-1.706756418570876122e-03,2.273884713649749756e-01,2.184675037860870361e-01,7.849144190549850464e-02,5.258471146225929260e-02,-2.493682317435741425e-02,5.482216551899909973e-02,2.535500824451446533e-01,1.574971973896026611e-01,-3.074329160153865814e-02,-2.103330381214618683e-02,-2.994558960199356079e-02,-1.010316237807273865e-01,2.666307687759399414e-01,-7.212382555007934570e-02,2.042627781629562378e-01,3.628203645348548889e-02,-9.015394747257232666e-02,-1.025987416505813599e-01,-1.063833758234977722e-01,-1.474912744015455246e-03,-2.310097590088844299e-02,6.282973289489746094e-02,1.851271241903305054e-01,-3.101445920765399933e-02,-8.050841093063354492e-02,-9.074661880731582642e-02,4.538904502987861633e-02,4.696211218833923340e-02,2.868028730154037476e-02,5.771022289991378784e-02,1.756297498941421509e-01,7.694552838802337646e-02,-3.063647449016571045e-02,-2.075386047363281250e-01,1.286427229642868042e-01,7.681316137313842773e-02,-1.886393129825592041e-01,-1.005948632955551147e-01,-4.880773276090621948e-02,2.478550523519515991e-01,1.948923617601394653e-01,1.707954406738281250e-01,6.154071912169456482e-02,-3.439016174525022507e-03,1.553375273942947388e-01,-1.243151649832725525e-01,8.904955536127090454e-02,1.098062396049499512e-01,6.288181175477802753e-04,2.916148006916046143e-01,-9.104000777006149292e-02,-4.146378487348556519e-03,1.076851934194564819e-01,8.499973267316818237e-02,-5.362521857023239136e-02,7.349072396755218506e-02,8.861739933490753174e-02,1.374707221984863281e-01,-1.700244843959808350e-01,-3.492828458547592163e-02,-6.046983227133750916e-02,-1.661642938852310181e-01,-5.757318437099456787e-02,-5.702371243387460709e-03,6.141774356365203857e-02,-2.273302972316741943e-01,1.765267224982380867e-03,7.460683584213256836e-02,1.763029396533966064e-01,7.103072106838226318e-02,1.151409596204757690e-01,1.673375663813203573e-04,1.859946548938751221e-01,5.017057061195373535e-02,1.673842221498489380e-02,-4.083809256553649902e-02,3.023801147937774658e-01,2.210867851972579956e-01,1.713439263403415680e-02,1.871709227561950684e-01,1.155469045042991638e-01,-5.830598622560501099e-02,2.266515344381332397e-01,-7.506065070629119873e-02,3.999660164117813110e-02,2.150531411170959473e-01,2.397154867649078369e-01,7.039878517389297485e-02,7.568212598562240601e-02,6.231999490410089493e-03,3.403346240520477295e-02,4.798408225178718567e-02,3.987838327884674072e-02,2.669885158538818359e-01,8.510563522577285767e-03,2.967543005943298340e-01,1.324029564857482910e-01,5.426743254065513611e-02,1.253167688846588135e-01,8.890929818153381348e-02,7.124399393796920776e-02,2.153922058641910553e-02,6.254603713750839233e-02,3.328622505068778992e-02,1.660493761301040649e-01,5.592208728194236755e-02,-9.978614747524261475e-02,9.677527099847793579e-02,4.307762533426284790e-02,-1.713351905345916748e-02,1.787724196910858154e-01,-7.943906635046005249e-02,-1.267300993204116821e-01,1.400277763605117798e-02,1.877562850713729858e-01,1.443394422531127930e-01,-1.305616647005081177e-01,-8.742105960845947266e-02,1.484897434711456299e-01,1.085473746061325073e-01,-6.031538546085357666e-02,8.977515250444412231e-02,1.144730597734451294e-01,2.051390707492828369e-02,1.548032462596893311e-01,9.850343316793441772e-02,1.806880235671997070e-01,2.446885257959365845e-01,1.167867034673690796e-01,1.915724389255046844e-02,-3.450395539402961731e-02,5.489384010434150696e-02,-8.676964789628982544e-02,1.015422865748405457e-01,-7.575586438179016113e-02,4.582519084215164185e-02,-2.783246934413909912e-01,2.058064639568328857e-01,1.326792240142822266e-01,2.040359750390052795e-02
4.472246021032333374e-02,2.974968552589416504e-01,3.682764247059822083e-02,-5.489225685596466064e-02,-7.146625220775604248e-02,3.228095918893814087e-02,-4.900459572672843933e-02,5.378766357898712158e-02,7.240048050880432129e-02,8.922395110130310059e-02,-1.028026938438415527e-01,8.115509152412414551e-02,6.889180094003677368e-02,2.229903191328048706e-01,9.482545428909361362e-04,-2.397601492702960968e-02,6.858413666486740112e-02,5.656364560127258301e-02,5.476008355617523193e-02,1.140715852379798889e-01,-1.688183099031448364e-02,3.443051129579544067e-02,3.554806485772132874e-02,-4.421433806419372559e-02,-1.001318395137786865e-01,-5.676566157490015030e-03,-2.149623259902000427e-02,1.089612245559692383e-01,-5.420830473303794861e-02,-4.133376106619834900e-02,1.023666709661483765e-01,5.450677871704101562e-02,-1.244028657674789429e-01,-5.990875884890556335e-02,2.037706784904003143e-02,1.816934496164321899e-01,9.805662184953689575e-02,-1.412546634674072266e-01,1.083984319120645523e-02,-5.604156851768493652e-02,7.584535330533981323e-02,-1.265329569578170776e-01,-8.451678603887557983e-02,2.737707197666168213e-01,-2.221685051918029785e-01,1.862359493970870972e-01,7.700735330581665039e-02,-5.173185840249061584e-02,-1.650571823120117188e-01,-2.424364350736141205e-02,5.138916894793510437e-02,5.745708197355270386e-02,-5.348881706595420837e-02,-6.609750539064407349e-02,-1.316326484084129333e-02,2.870204159989953041e-03,-1.011369749903678894e-01,-9.632086381316184998e-03,1.095880866050720215e-01,1.508613377809524536e-01,6.907963752746582031e-02,-8.173849433660507202e-03,3.498089313507080078e-02,1.324219405651092529e-01,-2.040200829505920410e-01,2.161682844161987305e-01,1.124344244599342346e-01,-9.760534018278121948e-02,-2.671314869076013565e-03,2.514394819736480713e-01,1.070812046527862549e-01,1.389610469341278076e-01,1.192316319793462753e-02,2.454451844096183777e-02,-2.931517921388149261e-02,9.391251020133495331e-03,1.784204319119453430e-02,-8.337850123643875122e-02,-2.122433334589004517e-01,1.314910203218460083e-01,2.932425439357757568e-01,-4.339915886521339417e-02,2.066056728363037109e-01,-2.316583693027496338e-01,-1.369619369506835938e-01,-3.693904355168342590e-02,2.118028402328491211e-01,9.475351125001907349e-02,1.839597336947917938e-02,2.171051800251007080e-01,6.361568719148635864e-02,1.893386803567409515e-02,1.674897670745849609e-01,1.468027085065841675e-01,-1.724027246236801147e-01,4.988285154104232788e-02,-7.491953670978546143e-03,-2.686387002468109131e-01,-8.643820136785507202e-02,-2.431548200547695160e-02,-3.752987459301948547e-02,1.447659879922866821e-01,-1.553792506456375122e-01,-6.197831034660339355e-02,-6.977849453687667847e-02,1.199480667710304260e-01,9.048648178577423096e-02,6.751532852649688721e-02,1.412683278322219849e-01,-1.030648425221443176e-01,4.135658219456672668e-02,1.211705133318901062e-01,3.600297495722770691e-02,9.935400635004043579e-02,1.558225899934768677e-01,-6.084603071212768555e-02,1.384300142526626587e-01,9.930794686079025269e-02,8.124870806932449341e-02,6.505787372589111328e-02,-7.050696015357971191e-02,-1.124653741717338562e-01,5.358262732625007629e-02,-1.301916986703872681e-01,-1.283336728811264038e-01,7.924871146678924561e-02,2.553500533103942871e-01,-2.053746879100799561e-01,4.808745160698890686e-02,9.179467335343360901e-03,7.101746648550033569e-02,-1.663087159395217896e-01,9.426011145114898682e-02,9.254736825823783875e-03,1.112614106386899948e-02,-1.712309420108795166e-01,-1.573727279901504517e-01,3.940561786293983459e-02,-1.828543394804000854e-01,-3.136130794882774353e-02,1.437642704695463181e-02,1.859730780124664307e-01,9.399828501045703888e-03,3.241724520921707153e-02,1.666515767574310303e-01,-2.441643029451370239e-01,1.432832926511764526e-01,-3.983306884765625000e-02,-1.042382419109344482e-02,1.606608331203460693e-01,-1.695907711982727051e-01,-2.412010217085480690e-03,1.343068033456802368e-01,-8.200909942388534546e-02,5.731050297617912292e-02,-6.632635742425918579e-02,2.167613357305526733e-01,-5.434977263212203979e-02,-3.935795277357101440e-02,-3.683688119053840637e-02,7.150958757847547531e-03,6.311904639005661011e-02,5.959720164537429810e-02,6.711016595363616943e-02,-1.066512912511825562e-01,1.014080345630645752e-01,-7.050986401736736298e-03,6.344409286975860596e-02,5.878736451268196106e-02,6.132356077432632446e-02,5.627088248729705811e-02,-4.296638071537017822e-02,-7.076050341129302979e-02,-1.117042303085327148e-01,-8.047123253345489502e-02,-7.429867982864379883e-02,9.040115028619766235e-02,-8.646208792924880981e-02,1.995941810309886932e-02,1.044952645897865295e-01,2.803468890488147736e-02,1.347000896930694580e-01,1.957146078348159790e-01,-1.229379549622535706e-01,-1.107317283749580383e-01,-5.814624205231666565e-02,6.779911927878856659e-03,-2.116195671260356903e-02,9.990724921226501465e-02,-1.602286845445632935e-01,5.017431452870368958e-03,-5.915439501404762268e-02,-2.750525949522852898e-03,9.591828286647796631e-02,5.827874317765235901e-02,1.085575073957443237e-01,7.711821794509887695e-02,-3.547105006873607635e-03,7.444984279572963715e-03,1.175290904939174652e-02
2.247863709926605225e-01,-1.083552986383438110e-01,2.401529401540756226e-01,-2.673725597560405731e-02,1.311707198619842529e-01,1.864788234233856201e-01,1.305127292871475220e-01,2.809389531612396240e-01,2.465672977268695831e-02,-3.664847463369369507e-02,5.788817629218101501e-02,-2.903685569763183594e-01,-5.029094219207763672e-02,1.435712072998285294e-02,2.944515785202383995e-03,3.517178446054458618e-02,4.952858015894889832e-02,-2.459662705659866333e-01,-5.730180069804191589e-02,-1.329012960195541382e-01,7.280519604682922363e-02,3.205121159553527832e-01,9.140317887067794800e-02,1.653348058462142944e-01,-1.113468185067176819e-01,2.097482830286026001e-01,8.643009513616561890e-02,-1.075343564152717590e-01,-3.103251755237579346e-02,-1.425458341836929321e-01,2.042150497436523438e-02,-5.485366284847259521e-02,2.758151292800903320e-01,1.235718131065368652e-01,1.288259625434875488e-01,-8.972463756799697876e-02,8.274162560701370239e-02,6.698416173458099365e-02,-6.103244796395301819e-02,-2.523956820368766785e-02,1.402495335787534714e-02,3.910572826862335205e-02,9.247450530529022217e-02,-7.296048104763031006e-02,-3.036146797239780426e-02,-2.462912052869796753e-01,2.199367135763168335e-01,-2.284897267818450928e-01,-6.728214025497436523e-02,1.482691317796707153e-01,2.507523298263549805e-01,1.012294366955757141e-01,6.867952644824981689e-02,6.213658675551414490e-02,7.737456262111663818e-02,2.451151013374328613e-01,7.954757660627365112e-03,2.100945860147476196e-01,-5.400104075670242310e-02,9.003541618585586548e-02,-1.935537606477737427e-01,1.569647192955017090e-01,-7.548014819622039795e-02,-1.581855677068233490e-02,-1.350637823343276978e-01,-7.533000409603118896e-02,-8.227649331092834473e-02,1.755621135234832764e-01,5.434190388768911362e-03,-9.003452956676483154e-02,-2.296955510973930359e-02,1.206365823745727539e-01,1.199057325720787048e-01,-1.010225862264633179e-01,-8.438786864280700684e-02,1.747363954782485962e-01,9.757527709007263184e-02,2.115310877561569214e-01,1.622366011142730713e-01,1.402137875556945801e-01,7.872947305440902710e-02,7.171406410634517670e-03,4.916767589747905731e-03,1.955611258745193481e-01,7.714201509952545166e-02,4.011344164609909058e-02,-9.508927166461944580e-02,4.936187714338302612e-02,5.910236015915870667e-02,-9.716084599494934082e-02,6.004739925265312195e-02,-1.694228798151016235e-01,5.559340934269130230e-04,3.144496306777000427e-02,-6.146836653351783752e-02,-2.153075672686100006e-02,1.279340088367462158e-01,3.310376107692718506e-01,1.147757843136787415e-01,-1.586090624332427979e-01,1.614112108945846558e-01,-5.678812041878700256e-02,4.856999032199382782e-03,-8.357471227645874023e-02,1.713715195655822754e-01,1.376619637012481689e-01,-1.210245266556739807e-01,-6.927209347486495972e-02,6.385172903537750244e-02,5.172451958060264587e-02,3.569039329886436462e-02,-1.525391489267349243e-01,-2.352534979581832886e-01,-1.024289354681968689e-01,3.497300297021865845e-02,9.562595188617706299e-02,-1.570013910531997681e-01,-4.134737327694892883e-02,1.878770887851715088e-01,-1.627798676490783691e-01,-5.225948616862297058e-02,1.470600962638854980e-01,7.970601320266723633e-02,1.075646132230758667e-01,1.056607440114021301e-01,6.861983239650726318e-02,1.088940277695655823e-01,-7.229655981063842773e-02,4.593899101018905640e-02,2.415719181299209595e-01,-1.415088325738906860e-01,-1.385061070322990417e-02,-7.484664022922515869e-02,2.847113609313964844e-01,2.648333273828029633e-02,5.731999501585960388e-02,-6.484419852495193481e-02,1.150568276643753052e-01,1.658865213394165039e-01,1.577972024679183960e-01,-1.469631940126419067e-01,-6.293886154890060425e-02,-2.733505703508853912e-02,5.948362126946449280e-02,-2.857821993529796600e-02,-1.649896800518035889e-01,-2.219874113798141479e-01,1.254555135965347290e-01,-1.215475648641586304e-01,-1.180835589766502380e-01,3.559193015098571777e-01,1.796940267086029053e-01,-3.111350815743207932e-03,2.169764935970306396e-01,-1.126912683248519897e-01,1.503170747309923172e-02,-6.343987584114074707e-02,2.419977933168411255e-01,-1.522919237613677979e-01,-1.580761373043060303e-02,-2.844649553298950195e-02,-8.151204325258731842e-03,4.795749206095933914e-03,2.087257206439971924e-01,-6.738770008087158203e-02,1.046812906861305237e-02,2.343003153800964355e-01,3.515359386801719666e-02,1.475840657949447632e-01,-1.813196390867233276e-02,4.955625534057617188e-02,2.972381412982940674e-01,8.344286680221557617e-02,7.573130726814270020e-02,-2.594303786754608154e-01,2.382187247276306152e-01,1.428031325340270996e-01,1.310638338327407837e-01,1.091532856225967407e-01,-8.273581415414810181e-02,4.117725789546966553e-02,-1.600329577922821045e-01,-1.296972036361694336e-01,1.267565041780471802e-01,-2.232989072799682617e-01,7.908561080694198608e-02,1.061703711748123169e-01,-2.453115284442901611e-01,-1.620440036058425903e-01,2.157031297683715820e-01,-7.476829923689365387e-03,-4.348276183009147644e-02,-5.079438909888267517e-03,-2.802466750144958496e-01,1.618639975786209106e-01,-1.769608408212661743e-01,5.143313482403755188e-02,-1.335042268037796021e-01,8.928707987070083618e-02,5.522057786583900452e-02
-2.350886538624763489e-02,-5.317141488194465637e-02,-3.254635492339730263e-03,-2.653205394744873047e-01,-7.760610431432723999e-02,-7.784943282604217529e-02,-2.248803153634071350e-02,1.246326416730880737e-01,6.209358107298612595e-03,-6.366406381130218506e-02,-1.058211252093315125e-01,2.258541285991668701e-01,9.695494174957275391e-02,-1.580196171998977661e-01,-2.345447987318038940e-01,-1.357852667570114136e-01,-3.414929658174514771e-02,-1.455992013216018677e-01,1.651433110237121582e-01,-7.402423024177551270e-02,1.948630660772323608e-01,2.295057848095893860e-02,7.673921436071395874e-02,-1.597471088171005249e-01,1.626797318458557129e-01,2.144297957420349121e-01,-1.740542948246002197e-01,1.336466670036315918e-01,2.786968946456909180e-01,1.042305305600166321e-01,4.898077249526977539e-02,1.675413250923156738e-01,-1.120956391096115112e-01,1.712784618139266968e-01,-4.808395728468894958e-02,-1.496009528636932373e-01,-7.966261357069015503e-02,3.314494490623474121e-01,1.066764518618583679e-01,-1.823820769786834717e-01,6.500304490327835083e-02,1.424683630466461182e-01,2.282229065895080566e-01,-3.016826212406158447e-01,-9.730165451765060425e-02,-2.090746164321899414e-01,-1.219920814037322998e-02,-1.639505773782730103e-01,-1.264341771602630615e-01,1.898919939994812012e-01,1.584219038486480713e-01,1.698806881904602051e-01,-1.875009238719940186e-01,1.722579151391983032e-01,-9.385340660810470581e-02,8.493578061461448669e-03,3.960029408335685730e-02,9.155157953500747681e-02,7.771392166614532471e-02,-8.460518717765808105e-02,-9.880340099334716797e-02,-9.094814956188201904e-02,-2.352306805551052094e-02,-1.133463978767395020e-01,1.822974532842636108e-01,-1.944838464260101318e-01,-1.046337559819221497e-01,-4.046340659260749817e-02,8.258681744337081909e-02,-3.254228085279464722e-02,-5.147359147667884827e-02,1.620980203151702881e-01,-3.012170791625976562e-01,1.160972565412521362e-02,-5.728755518794059753e-02,8.055211603641510010e-02,-4.509367421269416809e-02,-4.419510811567306519e-02,1.161917895078659058e-01,-8.614569157361984253e-02,6.735082715749740601e-02,-1.296230852603912354e-01,-1.032788679003715515e-01,1.623723655939102173e-01,2.228396683931350708e-01,6.405153125524520874e-02,-1.723604202270507812e-01,-1.234880015254020691e-01,-4.320649802684783936e-02,-1.128751784563064575e-01,9.945338219404220581e-02,1.186802983283996582e-01,4.728653281927108765e-02,-4.725947801489382982e-04,7.154251635074615479e-02,-9.474870562553405762e-02,1.720243096351623535e-01,2.125142328441143036e-02,-1.039658486843109131e-01,-2.720854282379150391e-01,9.531379677355289459e-03,-2.522899806499481201e-01,-1.407807469367980957e-01,-7.554335892200469971e-02,-6.879544258117675781e-02,1.657497882843017578e-01,-2.111399471759796143e-01,-1.059359833598136902e-01,-1.793009042739868164e-02,1.427692547440528870e-02,5.094318836927413940e-02,-1.268104165792465210e-01,1.022067591547966003e-01,-3.339899331331253052e-02,1.024686917662620544e-01,4.037852957844734192e-02,9.072326123714447021e-02,-1.618009507656097412e-01,6.600539386272430420e-02,-1.126008778810501099e-01,6.808732450008392334e-02,6.710645556449890137e-02,-9.712253510951995850e-02,-7.972013950347900391e-02,-4.441945627331733704e-02,1.162849366664886475e-01,2.179807052016258240e-02,-4.874382168054580688e-03,6.332539767026901245e-02,1.691667884588241577e-01,1.147713586688041687e-01,4.100434482097625732e-02,6.547071039676666260e-02,-3.295901417732238770e-02,-2.336106151342391968e-01,6.823756545782089233e-02,2.426771968603134155e-01,3.181737288832664490e-02,8.309900015592575073e-02,-6.369084864854812622e-02,1.107468083500862122e-01,-1.399347484111785889e-01,2.948059514164924622e-02,-8.357550948858261108e-02,-5.847844760864973068e-03,9.516261518001556396e-02,-6.855078507214784622e-03,-1.857892423868179321e-01,4.828254505991935730e-02,-5.753840133547782898e-02,1.420191377401351929e-01,-1.403470337390899658e-01,7.883194088935852051e-02,-9.310056269168853760e-02,-2.779433736577630043e-03,2.832548618316650391e-01,-1.434313482604920864e-03,1.778045892715454102e-01,2.097179293632507324e-01,1.445894986391067505e-01,-6.878567487001419067e-02,-2.523704171180725098e-01,-4.683953523635864258e-02,8.952147513628005981e-02,-1.055415496230125427e-01,2.125447802245616913e-02,-7.272917032241821289e-02,-5.882300436496734619e-03,1.339653041213750839e-02,-1.082665403373539448e-03,-4.729854408651590347e-03,-3.424766240641474724e-03,1.177059486508369446e-01,3.342220783233642578e-01,-1.187796220183372498e-01,-5.080430209636688232e-02,3.784084692597389221e-02,1.855425536632537842e-01,-1.724749803543090820e-01,-5.786141008138656616e-02,1.094915568828582764e-01,-7.513751834630966187e-02,-7.691402733325958252e-02,1.887347847223281860e-01,1.517596840858459473e-01,-1.165397837758064270e-01,-6.967928260564804077e-02,-1.645507663488388062e-01,-2.212074846029281616e-01,1.344322878867387772e-02,1.514343172311782837e-01,1.006881985813379288e-02,1.703413277864456177e-01,-2.681434750556945801e-01,-2.819172292947769165e-02,1.720155030488967896e-01,-7.272627553902566433e-04,1.662558168172836304e-01,5.084008723497390747e-02,1.028775721788406372e-01
-2.300481125712394714e-02,-1.126566305756568909e-01,1.290653273463249207e-02,6.305330246686935425e-02,3.701261430978775024e-02,1.153064370155334473e-01,-1.462101489305496216e-01,-1.427821516990661621e-01,2.320443652570247650e-02,1.982969194650650024e-01,-9.932190924882888794e-02,-9.020350873470306396e-03,-5.023031309247016907e-02,6.296542286872863770e-02,-1.301282900385558605e-03,8.545049466192722321e-03,2.194224148988723755e-01,-1.821873933076858521e-01,1.230722144246101379e-01,1.184940263628959656e-01,1.097739338874816895e-01,2.650048770010471344e-02,1.873589009046554565e-01,-1.066456735134124756e-01,2.048703283071517944e-01,-6.763730198144912720e-02,-2.070954889059066772e-01,-6.715486198663711548e-02,1.587298065423965454e-01,5.798421800136566162e-02,1.741253305226564407e-03,-2.726276963949203491e-02,-1.557165384292602539e-02,-1.562030911445617676e-01,-3.108376637101173401e-02,2.068186737596988678e-02,-6.396084278821945190e-02,-1.803747713565826416e-01,1.997843086719512939e-01,2.271423488855361938e-01,-4.984255135059356689e-02,3.310870230197906494e-01,-8.242274820804595947e-02,2.654398381710052490e-01,1.640741974115371704e-01,3.225765526294708252e-01,4.127161204814910889e-02,-4.077019169926643372e-02,3.490701690316200256e-02,-3.845209628343582153e-02,4.193945229053497314e-02,-1.958685517311096191e-01,-2.135185338556766510e-02,-1.238758768886327744e-02,2.094231247901916504e-01,-8.163368701934814453e-02,-1.402072515338659286e-02,2.644308470189571381e-02,2.307428978383541107e-02,-4.355657100677490234e-02,1.158946305513381958e-01,-2.306807190179824829e-01,7.958570122718811035e-02,-1.113439351320266724e-01,6.740897148847579956e-02,1.302276402711868286e-01,1.103623881936073303e-01,-7.993259280920028687e-02,-1.650627702474594116e-02,5.507393181324005127e-02,3.325303643941879272e-02,1.068977043032646179e-01,1.559446752071380615e-01,-3.868668153882026672e-02,6.317313760519027710e-02,-1.327296905219554901e-02,-1.704458594322204590e-01,1.576985791325569153e-02,-1.871214434504508972e-02,3.328925371170043945e-02,-1.122015714645385742e-01,4.139660298824310303e-02,1.272340118885040283e-01,1.072381362318992615e-01,-1.151764914393424988e-01,-1.989725679159164429e-01,2.004456818103790283e-01,-4.608615860342979431e-02,9.928318113088607788e-02,2.942051552236080170e-02,-1.763196140527725220e-01,-6.091985478997230530e-02,1.747903227806091309e-01,-1.822380274534225464e-01,2.580057457089424133e-02,9.515290707349777222e-02,6.044987216591835022e-02,2.957588527351617813e-03,2.182120271027088165e-02,2.447513937950134277e-01,3.166314065456390381e-01,5.875426530838012695e-02,2.989734113216400146e-01,1.805150881409645081e-02,-3.223818540573120117e-02,-2.038720697164535522e-01,2.950213849544525146e-01,1.337361633777618408e-01,1.401508320122957230e-02,9.471093118190765381e-02,-5.515876039862632751e-02,1.826376616954803467e-01,-6.213407963514328003e-02,8.264936506748199463e-02,-2.916962653398513794e-02,-4.809135571122169495e-02,1.144522130489349365e-01,3.109196946024894714e-02,9.794827550649642944e-03,-1.314610689878463745e-01,-2.145151607692241669e-02,-6.106447428464889526e-02,-2.170019000768661499e-01,1.854113787412643433e-01,1.669742316007614136e-01,-6.790753453969955444e-02,-1.306505501270294189e-01,2.370302937924861908e-02,2.578901946544647217e-01,8.928729593753814697e-02,-1.547387093305587769e-01,1.934306770563125610e-01,-1.631329208612442017e-02,1.832243287935853004e-03,3.088903799653053284e-02,4.992853105068206787e-02,9.332535788416862488e-03,2.554090023040771484e-01,-9.541901201009750366e-02,2.957916855812072754e-01,1.277113556861877441e-01,2.722554504871368408e-01,1.763241589069366455e-01,3.972651064395904541e-02,-7.855679094791412354e-02,1.461112350225448608e-01,1.924038082361221313e-01,1.599893122911453247e-01,1.219412162899971008e-01,7.756455242633819580e-02,1.382386386394500732e-01,5.703229457139968872e-03,1.481587439775466919e-01,2.029783427715301514e-01,-9.031678736209869385e-02,-9.347134083509445190e-02,8.677154034376144409e-02,6.467440724372863770e-02,-7.106029242277145386e-02,-1.523070335388183594e-01,9.509704262018203735e-02,1.167454272508621216e-01,1.257788985967636108e-01,-9.193199872970581055e-02,3.772807493805885315e-02,8.946464955806732178e-02,-4.445421323180198669e-02,2.610454261302947998e-01,-4.179567843675613403e-02,-3.912574425339698792e-02,2.254930138587951660e-01,-1.507564038038253784e-01,9.883549995720386505e-03,-3.896075114607810974e-02,1.080877259373664856e-01,-3.324522823095321655e-02,-2.907479703426361084e-01,-9.406744688749313354e-02,7.616425305604934692e-02,1.517770905047655106e-02,1.273100078105926514e-01,1.248373314738273621e-01,-3.321846574544906616e-02,1.011452302336692810e-01,-1.849847845733165741e-03,1.031480133533477783e-01,-4.330987110733985901e-02,-1.449276953935623169e-01,-4.482790827751159668e-02,-3.425889834761619568e-02,3.953697532415390015e-02,-2.631827630102634430e-02,9.356031566858291626e-02,1.815212666988372803e-01,1.053405702114105225e-01,-1.800050437450408936e-01,6.840141117572784424e-02,-5.939502269029617310e-03,1.944553107023239136e-02,1.158038433641195297e-02
-1.491707712411880493e-01,1.252292245626449585e-01,-1.015745401382446289e-01,-8.586709201335906982e-02,-4.933195933699607849e-02,-1.572690606117248535e-01,-1.114174574613571167e-01,-3.389542922377586365e-02,5.347025580704212189e-03,-2.365047670900821686e-02,-1.264386922121047974e-01,1.233486160635948181e-01,5.047632381319999695e-02,-1.154768094420433044e-01,-2.092010378837585449e-01,3.726854221895337105e-03,-8.084554225206375122e-03,-6.566361337900161743e-02,-9.374753572046756744e-03,6.856266874819993973e-03,2.817206317558884621e-03,9.787303209304809570e-02,-8.938138186931610107e-02,8.303017914295196533e-02,-9.351523220539093018e-02,1.262485608458518982e-02,-2.762187458574771881e-02,2.089111693203449249e-02,2.160537987947463989e-02,4.674639180302619934e-02,-1.185231804847717285e-01,4.445677623152732849e-03,-1.933694183826446533e-01,-3.616052865982055664e-02,5.081736296415328979e-02,-1.930565387010574341e-02,-4.522833973169326782e-02,-3.840053454041481018e-02,7.312003523111343384e-02,-1.032578479498624802e-02,1.136718615889549255e-01,7.877917587757110596e-02,1.542950123548507690e-01,-2.433496899902820587e-02,8.057092130184173584e-02,7.537391036748886108e-02,-3.066597878932952881e-02,1.094938144087791443e-01,-8.713775128126144409e-02,1.268705129623413086e-01,-1.041275709867477417e-01,-1.349608227610588074e-02,-2.583583258092403412e-02,-9.226814657449722290e-02,-7.242976874113082886e-02,6.880059093236923218e-02,-2.589290216565132141e-02,-1.290499567985534668e-01,-6.677494943141937256e-02,-2.003901824355125427e-02,-8.004012703895568848e-02,-7.262332737445831299e-02,1.223417893052101135e-01,1.737821847200393677e-01,9.275420755147933960e-02,-1.795115172863006592e-01,1.270127445459365845e-01,4.898525774478912354e-02,-7.997272163629531860e-02,6.826299428939819336e-02,-1.871236413717269897e-02,7.383280992507934570e-02,-1.546480059623718262e-01,-3.902595490217208862e-02,1.172424331307411194e-01,8.921936899423599243e-02,1.525930017232894897e-01,3.405905887484550476e-02,8.391497284173965454e-02,-4.090014472603797913e-02,-1.353782601654529572e-02,-1.214025169610977173e-02,-3.942086920142173767e-02,-1.016593128442764282e-01,1.448685824871063232e-01,-9.608371555805206299e-02,-1.273217201232910156e-01,4.139604046940803528e-03,6.132351607084274292e-02,-1.719654724001884460e-02,-2.996262721717357635e-02,4.669125750660896301e-02,-1.100059524178504944e-01,1.225717887282371521e-01,1.063644886016845703e-01,-4.091621562838554382e-02,1.477460116147994995e-01,-1.692340523004531860e-01,5.111289769411087036e-02,6.038441509008407593e-02,6.914871931076049805e-02,-8.930779993534088135e-02,5.535720661282539368e-02,-1.904268413782119751e-01,2.950493246316909790e-03,-8.673926442861557007e-02,-3.878856822848320007e-02,-9.671869874000549316e-02,7.263831049203872681e-02,8.951026946306228638e-02,1.179668381810188293e-01,-5.341332289390265942e-04,-9.431069344282150269e-02,-1.325301826000213623e-01,-8.523691445589065552e-02,-1.148557960987091064e-01,6.071218103170394897e-02,-6.447888165712356567e-02,-9.624683111906051636e-02,9.467864036560058594e-02,-1.417090371251106262e-02,6.932932138442993164e-02,1.486141327768564224e-02,-8.200677484273910522e-02,5.372004956007003784e-02,9.704228490591049194e-02,-2.117326296865940094e-02,1.130596399307250977e-01,-1.055360510945320129e-01,-1.118354275822639465e-01,7.013569027185440063e-02,-8.452071994543075562e-02,-1.437583118677139282e-01,-7.094088941812515259e-02,-8.011031895875930786e-02,-4.122444987297058105e-02,-7.420867215842008591e-03,1.416224092245101929e-01,6.244048476219177246e-02,4.710974544286727905e-02,5.556193366646766663e-02,-5.441891029477119446e-02,1.694297045469284058e-02,-2.363104000687599182e-02,-7.454192638397216797e-02,-1.106909662485122681e-01,3.231323789805173874e-03,-2.675127051770687103e-02,-5.562847852706909180e-02,-4.748714342713356018e-02,-4.966065660119056702e-02,-3.253346309065818787e-02,-2.307338267564773560e-02,-5.859329551458358765e-02,-2.868972532451152802e-02,9.610591083765029907e-02,-7.275006920099258423e-02,6.707532703876495361e-02,4.998393729329109192e-02,-8.219388313591480255e-03,-8.535491302609443665e-03,-1.767080510035157204e-03,-6.601378321647644043e-02,-1.359322667121887207e-01,-1.796565055847167969e-01,-1.149395406246185303e-01,-2.581249363720417023e-02,5.169459059834480286e-02,4.232981055974960327e-02,4.867621883749961853e-02,1.241432875394821167e-02,-2.895240206271409988e-03,-9.950073063373565674e-02,-2.120370417833328247e-02,-6.933748722076416016e-02,-1.467239260673522949e-01,-3.613391518592834473e-02,3.727641189470887184e-03,3.921111300587654114e-02,-1.287082955241203308e-02,-6.220683082938194275e-02,-7.564744446426630020e-03,3.664105385541915894e-02,2.633194066584110260e-02,3.567632753401994705e-03,-1.246295422315597534e-01,-4.864982888102531433e-02,1.938810572028160095e-02,-5.746391136199235916e-03,-1.721040159463882446e-01,-1.671318858861923218e-01,5.365060269832611084e-02,-1.718707382678985596e-02,1.186795607209205627e-01,1.402660389430820942e-03,9.422050416469573975e-02,-6.794144213199615479e-02,1.460287123918533325e-01,-1.115350574254989624e-01,-7.431571930646896362e-02
7.930438220500946045e-02,7.982489466667175293e-02,-4.535064473748207092e-02,9.773507714271545410e-02,3.870710358023643494e-02,6.230847164988517761e-02,2.490512281656265259e-02,-1.311160326004028320e-01,1.158630624413490295e-01,6.140986829996109009e-02,7.262021303176879883e-02,2.990416288375854492e-01,2.043435722589492798e-01,-2.289505153894424438e-01,-1.474658399820327759e-01,-8.288694545626640320e-03,4.686128813773393631e-03,-9.021546691656112671e-02,7.737263105809688568e-03,-9.066455066204071045e-02,-1.747431233525276184e-02,-1.456670016050338745e-01,7.008373271673917770e-03,-2.619795203208923340e-01,1.943163760006427765e-02,1.144857928156852722e-01,1.231770962476730347e-02,4.838852211833000183e-02,2.019694000482559204e-01,9.412217140197753906e-02,1.165628209710121155e-01,-3.293184563517570496e-02,-6.712687760591506958e-02,2.125217914581298828e-01,-1.791254580020904541e-01,2.285934537649154663e-01,9.704650938510894775e-02,2.173272073268890381e-01,5.017747730016708374e-02,1.691748052835464478e-01,4.605260863900184631e-02,1.086673289537429810e-01,2.539597451686859131e-01,2.820375934243202209e-02,-5.671018268913030624e-03,6.044810637831687927e-02,-1.459252983331680298e-01,2.140838503837585449e-01,-5.321589484810829163e-02,-1.077941283583641052e-01,-1.110879033803939819e-01,-4.453001916408538818e-02,3.490336472168564796e-03,4.069389030337333679e-02,7.245909422636032104e-02,-7.334522157907485962e-02,9.266203269362449646e-03,-1.411950886249542236e-01,7.223622500896453857e-02,-4.621540661901235580e-03,-6.271035224199295044e-02,-1.419732719659805298e-01,1.779814511537551880e-01,1.481343507766723633e-01,1.632180809974670410e-01,9.876716881990432739e-02,2.440902404487133026e-02,-1.098037734627723694e-01,1.309430450201034546e-01,8.838851004838943481e-02,-2.939726971089839935e-02,-4.209638014435768127e-02,-1.646534353494644165e-01,-2.474129432812333107e-03,-1.400304120033979416e-02,-1.334285736083984375e-01,9.714286774396896362e-02,1.181907951831817627e-01,2.063265256583690643e-02,-4.269650205969810486e-02,3.584893420338630676e-03,4.860752448439598083e-02,-6.720543652772903442e-02,-9.075464308261871338e-02,-1.040405407547950745e-02,3.177244961261749268e-02,-1.560009121894836426e-01,9.031939506530761719e-02,-3.395036756992340088e-01,-6.101521104574203491e-02,-4.107847809791564941e-03,1.881711333990097046e-01,5.130277201533317566e-02,-3.516983613371849060e-02,4.558467119932174683e-02,2.110421285033226013e-02,1.287002563476562500e-01,-6.614269316196441650e-02,-2.050948739051818848e-01,-1.242745518684387207e-01,-1.456720232963562012e-01,-3.397623822093009949e-02,-1.545676887035369873e-01,6.109590083360671997e-02,-8.118782192468643188e-02,6.645002216100692749e-02,-2.705830931663513184e-01,7.712525129318237305e-02,1.076085492968559265e-01,-8.496012538671493530e-02,-1.349557787179946899e-01,2.948540635406970978e-02,1.006900742650032043e-01,6.547517329454421997e-02,-5.887959897518157959e-02,-7.992621511220932007e-02,3.794806450605392456e-02,8.774779736995697021e-02,-7.863719761371612549e-02,1.514550000429153442e-01,2.396624088287353516e-01,-1.540546864271163940e-01,-1.226575002074241638e-01,-2.097903192043304443e-01,1.307297497987747192e-01,3.823311068117618561e-03,9.757313877344131470e-02,2.665296895429491997e-03,-1.675979197025299072e-01,-1.372224241495132446e-01,4.232402145862579346e-02,9.505894035100936890e-03,1.817770749330520630e-01,-6.421510875225067139e-02,-9.215585887432098389e-02,5.782580003142356873e-02,-2.358100563287734985e-02,9.917810559272766113e-02,-2.038653790950775146e-01,1.207240372896194458e-01,-6.690067797899246216e-02,1.101842895150184631e-01,-2.241835556924343109e-02,-6.200864911079406738e-02,-3.282816708087921143e-02,2.074522078037261963e-01,9.680095314979553223e-02,6.850649416446685791e-02,-3.869830444455146790e-02,5.248614400625228882e-02,-2.431136071681976318e-01,1.589166224002838135e-01,5.305334925651550293e-02,-2.117572128772735596e-01,4.805567674338817596e-03,1.425321549177169800e-01,6.119624245911836624e-03,1.823950558900833130e-01,5.543891713023185730e-02,-7.589938491582870483e-02,-1.352114696055650711e-02,9.416063874959945679e-02,-9.598504006862640381e-02,-4.952284693717956543e-02,1.074986718595027924e-02,-3.573993593454360962e-02,5.822058767080307007e-02,-8.805911242961883545e-02,-1.870182007551193237e-01,6.099982932209968567e-02,-8.567991852760314941e-02,-2.614572942256927490e-01,2.180739678442478180e-02,9.357407689094543457e-02,2.250253856182098389e-01,-1.292048692703247070e-01,1.623373478651046753e-01,7.498662173748016357e-02,-2.319501480087637901e-03,5.530699342489242554e-02,1.525093019008636475e-01,1.887612640857696533e-01,-1.513204872608184814e-01,-1.219309791922569275e-01,1.250851806253194809e-02,6.735420227050781250e-02,-1.018051579594612122e-01,8.227942138910293579e-02,6.176547706127166748e-02,-2.456382364034652710e-01,-2.439912408590316772e-03,2.402305975556373596e-02,3.737882897257804871e-02,1.084862947463989258e-01,-1.887919008731842041e-01,2.039597630500793457e-01,-8.087006211280822754e-02,1.475846767425537109e-01,-8.483316749334335327e-02,-8.750197291374206543e-02
-1.267042756080627441e-01,-1.091629639267921448e-01,-1.797089539468288422e-02,-9.631194174289703369e-02,5.794002860784530640e-02,1.375190317630767822e-01,-1.368997097015380859e-01,9.849053621292114258e-02,1.886967010796070099e-02,7.438120990991592407e-02,-1.146475896239280701e-01,-2.841612556949257851e-03,-1.055032238364219666e-01,6.807872653007507324e-02,1.169924042187631130e-03,1.736340858042240143e-02,-1.781584322452545166e-02,1.163539513945579529e-01,-2.809231542050838470e-02,4.286089912056922913e-02,3.664257936179637909e-03,-6.556547433137893677e-02,-4.434409365057945251e-02,1.312202960252761841e-01,1.202991455793380737e-01,-6.503920257091522217e-02,-3.591175889596343040e-03,-2.047865688800811768e-01,-1.062118709087371826e-01,-7.231035828590393066e-02,2.705707401037216187e-02,3.958201780915260315e-02,-1.149465963244438171e-01,8.003922551870346069e-02,8.229360729455947876e-02,-1.132785156369209290e-01,1.186916157603263855e-01,1.695415824651718140e-01,-6.996436417102813721e-02,-4.592686891555786133e-03,5.182494595646858215e-02,2.698755078017711639e-02,6.230041384696960449e-02,-4.117858409881591797e-02,6.134923920035362244e-02,1.771796047687530518e-01,-1.633312366902828217e-02,-1.301121711730957031e-01,1.108050793409347534e-01,8.266566693782806396e-02,-4.215198382735252380e-02,-1.614627242088317871e-01,-5.205408483743667603e-02,3.685246035456657410e-02,-1.017156168818473816e-01,-1.411184668540954590e-01,4.840314388275146484e-02,-1.572866588830947876e-01,3.565382584929466248e-02,5.212033167481422424e-02,-7.658408139832317829e-04,8.383423835039138794e-02,1.012877896428108215e-01,-8.208250254392623901e-02,1.348313689231872559e-01,-8.573828637599945068e-02,-1.539094150066375732e-01,-4.972842335700988770e-02,-7.956378161907196045e-03,1.326564997434616089e-01,-1.290282309055328369e-01,-1.411059945821762085e-01,1.540954411029815674e-01,1.057238318026065826e-02,-2.128015831112861633e-02,-1.500974595546722412e-01,-3.906676918268203735e-02,-4.722680151462554932e-02,-1.229094266891479492e-01,2.832072041928768158e-02,3.366318298503756523e-03,8.366427570581436157e-02,-1.119648739695549011e-01,5.461830273270606995e-02,7.186840474605560303e-02,5.068740248680114746e-02,-1.067055314779281616e-01,-1.400283873081207275e-01,-8.791983127593994141e-02,-1.216153204441070557e-01,-1.934734918177127838e-02,1.314159831963479519e-03,2.531855832785367966e-03,-1.027808412909507751e-01,1.882871538400650024e-01,-8.396126329898834229e-02,-9.873443096876144409e-02,9.339372068643569946e-02,-6.658138334751129150e-02,-1.476565748453140259e-01,8.824171125888824463e-02,-2.043551066890358925e-03,-2.882210165262222290e-02,-2.684051170945167542e-02,-2.846294455230236053e-02,-1.620076149702072144e-01,-1.113717779517173767e-01,-6.230282410979270935e-02,-4.799171537160873413e-02,2.420375682413578033e-02,1.764291077852249146e-01,1.316893398761749268e-01,-6.686738226562738419e-03,-7.336095720529556274e-02,-7.230696082115173340e-02,1.154155507683753967e-01,-6.314254552125930786e-02,7.943293452262878418e-02,6.864896416664123535e-02,-1.481522917747497559e-01,7.885641418397426605e-03,2.112649194896221161e-02,5.166898015886545181e-03,2.613707818090915680e-02,1.621573977172374725e-02,-4.313624277710914612e-02,-8.964449167251586914e-02,-7.902237027883529663e-02,1.359905302524566650e-02,-1.160410940647125244e-01,-4.593694955110549927e-02,-6.956114433705806732e-03,1.917873974889516830e-03,-8.221811801195144653e-02,-1.934444159269332886e-02,1.228174474090337753e-02,8.797432482242584229e-02,8.895432949066162109e-02,3.804274648427963257e-02,1.069291830062866211e-01,9.725508838891983032e-02,4.877086263149976730e-03,3.106177784502506256e-03,-1.481022834777832031e-01,-1.733976788818836212e-02,1.138486117124557495e-01,4.893373325467109680e-02,-6.414483487606048584e-02,-3.549812361598014832e-02,1.098019406199455261e-01,4.881157656200230122e-04,-6.712311506271362305e-02,-1.598715595901012421e-02,1.297122836112976074e-01,-8.240725845098495483e-02,4.944105446338653564e-02,-1.264712028205394745e-02,1.136578340083360672e-02,1.053274888545274734e-02,-8.597875386476516724e-02,-1.810659468173980713e-02,-1.085598692297935486e-01,1.545187178999185562e-02,6.709040701389312744e-02,-1.480047106742858887e-01,1.462878435850143433e-01,1.844713836908340454e-01,9.327276051044464111e-02,-1.569692492485046387e-01,-9.513376653194427490e-02,-1.038578227162361145e-01,-1.139995902776718140e-01,-1.250141263008117676e-01,4.818218201398849487e-02,-1.489006262272596359e-02,5.158982053399085999e-02,2.285169064998626709e-02,-1.327403783798217773e-01,8.783431723713874817e-03,-3.368346765637397766e-02,1.305740028619766235e-01,9.278668463230133057e-02,-3.309449553489685059e-02,-1.631627976894378662e-02,3.911141678690910339e-02,7.917399704456329346e-02,4.931230470538139343e-02,2.697116509079933167e-02,-7.831239141523838043e-03,2.769749425351619720e-02,-1.639520376920700073e-02,-1.775829493999481201e-01,1.934155076742172241e-02,1.090241670608520508e-01,1.083972901105880737e-01,3.158239275217056274e-02,3.813877468928694725e-03,-9.932807832956314087e-02,-1.148680895566940308e-01,1.164143681526184082e-01
-1.328807920217514038e-01,3.013347275555133820e-03,1.159307807683944702e-01,1.843118667602539062e-01,-1.725924387574195862e-02,-7.343372702598571777e-02,-9.715578705072402954e-02,-5.285288393497467041e-02,1.315430551767349243e-02,-1.471760123968124390e-01,-5.109693109989166260e-02,-8.083260059356689453e-02,4.130442161113023758e-03,-1.286367923021316528e-01,-1.458911970257759094e-02,-9.814203530550003052e-02,4.274166375398635864e-02,4.850546270608901978e-02,7.819636166095733643e-02,8.115870878100395203e-03,-1.996926590800285339e-02,9.435582906007766724e-02,-2.418588101863861084e-02,-1.345565915107727051e-02,-1.525742709636688232e-01,-4.943726211786270142e-02,-5.091559514403343201e-02,-1.137334778904914856e-01,-4.549235850572586060e-02,-1.469713151454925537e-01,2.735618315637111664e-02,-1.619075238704681396e-02,-3.709218651056289673e-02,8.550572395324707031e-02,-2.825223654508590698e-02,2.861720137298107147e-02,-1.027215048670768738e-01,9.349727630615234375e-02,-1.581922322511672974e-01,3.806397318840026855e-03,-1.694327890872955322e-01,5.244686268270015717e-03,-9.214223921298980713e-02,-1.353049725294113159e-01,3.212695475667715073e-03,7.931869477033615112e-02,-5.840489268302917480e-02,-1.406784206628799438e-01,-8.894211798906326294e-02,2.310299314558506012e-03,9.297347068786621094e-02,6.011996418237686157e-02,7.522852718830108643e-02,-8.522205054759979248e-02,-9.265545010566711426e-02,-4.414327442646026611e-02,-6.267764419317245483e-02,-1.953386329114437103e-02,3.008997254073619843e-02,2.999448217451572418e-02,-2.242721319198608398e-01,-2.710825391113758087e-02,-9.042248874902725220e-02,-5.945416167378425598e-02,-9.803088009357452393e-02,5.113272741436958313e-02,-8.179980516433715820e-02,-1.171155199408531189e-01,4.311060905456542969e-02,9.649118036031723022e-02,-1.125043332576751709e-01,-7.907970249652862549e-02,2.837239019572734833e-02,-1.272279396653175354e-02,4.870116338133811951e-02,1.971307210624217987e-03,-1.848023682832717896e-01,3.725563362240791321e-02,-1.000257879495620728e-01,-4.508379846811294556e-03,-2.659653872251510620e-02,-1.307681649923324585e-01,6.500601302832365036e-03,-1.411025971174240112e-01,2.452035993337631226e-02,-4.394385591149330139e-02,-5.259669944643974304e-02,-7.606500387191772461e-02,1.950699090957641602e-02,-8.258193731307983398e-02,-3.556829644367098808e-03,7.049379497766494751e-02,9.373504668474197388e-03,-1.320155113935470581e-01,-6.639862060546875000e-02,-5.387476831674575806e-02,2.775075472891330719e-02,-4.896182939410209656e-02,-1.311791837215423584e-01,-7.352801505476236343e-03,7.487034797668457031e-02,9.432413615286350250e-03,-1.426734216511249542e-02,-6.943622976541519165e-02,7.789722830057144165e-02,-1.108837500214576721e-01,-1.184661686420440674e-01,-1.336940098553895950e-02,-6.989133358001708984e-02,-3.858963400125503540e-02,-1.891280114650726318e-01,4.487151280045509338e-02,6.345801800489425659e-02,-1.072986200451850891e-01,3.451890125870704651e-02,5.959466844797134399e-02,-6.270299851894378662e-02,-3.830942511558532715e-02,-9.329073131084442139e-02,-1.879536062479019165e-01,-4.342618957161903381e-02,-1.285922229290008545e-01,-5.786307156085968018e-02,-3.057636693120002747e-02,5.550544336438179016e-02,-1.497119665145874023e-01,-1.202758401632308960e-01,9.123129397630691528e-02,2.576976083219051361e-02,5.942864343523979187e-03,7.547763735055923462e-02,-4.579775780439376831e-02,-1.022536531090736389e-01,5.823381617665290833e-02,-2.968083694577217102e-02,-1.407913118600845337e-01,-1.109335720539093018e-01,-8.584652841091156006e-02,-1.975814700126647949e-01,5.389660131186246872e-03,2.090865932404994965e-02,-5.839630588889122009e-02,-1.442375034093856812e-01,-1.643616706132888794e-01,9.262850880622863770e-02,3.841443732380867004e-02,-5.551786720752716064e-02,-2.306772023439407349e-02,-6.094264239072799683e-02,-1.150385290384292603e-01,5.802031606435775757e-02,-9.243763238191604614e-02,4.108129069209098816e-02,-1.576293376274406910e-03,-2.021942660212516785e-02,9.913440793752670288e-02,2.075829170644283295e-02,1.674370467662811279e-02,-3.624857589602470398e-02,-2.908448455855250359e-03,-2.558744698762893677e-02,-1.827512308955192566e-02,2.416125312447547913e-02,-7.910163700580596924e-02,5.497963726520538330e-02,-7.094112038612365723e-02,-1.412703394889831543e-01,-1.287854369729757309e-02,-8.795669674873352051e-02,-1.132913380861282349e-01,-7.508821785449981689e-02,4.661858081817626953e-02,-8.369807898998260498e-02,-2.199654653668403625e-02,7.051625102758407593e-02,-2.566749975085258484e-02,-1.139626875519752502e-01,-2.755136042833328247e-02,-4.360690712928771973e-02,-1.696287691593170166e-01,1.038855761289596558e-01,-1.107624918222427368e-01,-4.178697988390922546e-02,1.109346002340316772e-01,1.204309687018394470e-01,-8.179822564125061035e-02,-1.304848492145538330e-01,4.525588080286979675e-02,-3.905054181814193726e-02,-1.602602601051330566e-01,8.913901448249816895e-02,-1.104967892169952393e-01,-2.027041912078857422e-01,-1.021156013011932373e-01,-1.519291251897811890e-01,9.081491827964782715e-02,7.777184993028640747e-02,-1.332458555698394775e-01,7.836099714040756226e-02,-4.766976088285446167e-02
-8.243548870086669922e-02,6.891459971666336060e-02,4.334828816354274750e-03,-1.354908198118209839e-01,7.211025804281234741e-02,3.157262131571769714e-02,2.725421786308288574e-01,2.274244129657745361e-01,1.675697714090347290e-01,-2.631630897521972656e-01,5.963826924562454224e-02,-1.616983115673065186e-01,1.338539570569992065e-01,1.090935096144676208e-01,-1.570021212100982666e-01,-2.436767816543579102e-01,1.155450120568275452e-01,-1.226102337241172791e-01,-3.010123036801815033e-02,-5.867953412234783173e-03,3.059630654752254486e-02,2.506031990051269531e-01,1.238147765398025513e-01,9.637181460857391357e-02,5.875775963068008423e-02,2.802960574626922607e-01,-1.372456997632980347e-01,1.655064225196838379e-01,1.702101677656173706e-01,1.162035614252090454e-01,1.581561006605625153e-02,1.801950633525848389e-01,1.354501098394393921e-01,8.706150203943252563e-02,1.587380468845367432e-01,-1.001765280961990356e-01,-5.679175723344087601e-03,1.860911995172500610e-01,-3.909209370613098145e-02,-7.918321341276168823e-02,5.411077290773391724e-02,6.499863415956497192e-02,1.521015167236328125e-01,-1.722553819417953491e-01,-2.080070972442626953e-01,-2.663784623146057129e-01,-3.529492393136024475e-02,-1.224227547645568848e-01,-2.232372201979160309e-02,2.741692364215850830e-01,2.088828235864639282e-01,2.227937877178192139e-01,-1.742024272680282593e-01,9.054229408502578735e-02,-2.269561141729354858e-01,3.496296331286430359e-02,-3.852247819304466248e-02,1.752253472805023193e-01,-7.750572264194488525e-02,-4.361391533166170120e-03,-2.073484510183334351e-01,-6.597938016057014465e-03,-2.866773009300231934e-01,-1.192275211215019226e-01,9.297289699316024780e-02,3.682990372180938721e-02,-1.713075637817382812e-01,-1.659238785505294800e-01,1.230014264583587646e-01,-1.205573603510856628e-01,-1.055333688855171204e-01,8.355631679296493530e-02,-3.728604614734649658e-01,-8.289390802383422852e-02,-2.126769572496414185e-01,5.260563269257545471e-02,1.894588172435760498e-01,-9.548025578260421753e-02,6.083241477608680725e-02,-1.210406571626663208e-01,1.422400921583175659e-01,-3.809009119868278503e-02,4.361259285360574722e-03,1.110853105783462524e-01,9.808509051799774170e-02,1.500332355499267578e-01,-5.144779384136199951e-02,7.106805592775344849e-02,1.372495442628860474e-01,-2.880552113056182861e-01,-9.016752243041992188e-02,-1.528835892677307129e-01,-1.202638819813728333e-01,2.714175879955291748e-01,-3.659878671169281006e-02,-1.868782639503479004e-01,1.860397122800350189e-02,3.296600282192230225e-01,5.602413043379783630e-02,-5.302957445383071899e-02,-6.323553621768951416e-02,-9.350811690092086792e-02,1.474929228425025940e-02,1.037101633846759796e-02,9.322181344032287598e-02,1.891153603792190552e-01,-1.159717142581939697e-01,-1.703066676855087280e-01,-3.027637302875518799e-02,-1.667720964178442955e-03,1.223909780383110046e-01,-4.170360788702964783e-02,-1.117223650217056274e-01,7.189900428056716919e-02,8.932996541261672974e-02,2.245180308818817139e-01,-6.573960930109024048e-02,-4.345253109931945801e-02,1.200077608227729797e-01,-8.399766683578491211e-02,-6.010616943240165710e-02,9.716314077377319336e-02,2.390241920948028564e-01,3.070589154958724976e-02,4.327703732997179031e-03,7.229079306125640869e-02,4.168590903282165527e-02,2.525913156569004059e-02,-1.301430910825729370e-01,6.716266274452209473e-02,-3.374100849032402039e-02,-9.963483549654483795e-03,-1.583177447319030762e-01,5.422061309218406677e-03,-8.074812591075897217e-02,-2.092470973730087280e-02,-9.092178195714950562e-02,1.393116563558578491e-01,9.406238794326782227e-02,-4.096719622611999512e-02,-4.011183977127075195e-02,-1.142931878566741943e-01,-1.190764904022216797e-01,-8.939237892627716064e-02,-6.091392040252685547e-02,-5.867392569780349731e-02,-8.725029975175857544e-02,-7.422326505184173584e-02,2.114239893853664398e-02,-2.116003260016441345e-02,1.010616719722747803e-01,3.738050162792205811e-02,-2.072547823190689087e-01,-1.647297441959381104e-01,-9.120219945907592773e-02,2.290225774049758911e-01,1.525363177061080933e-01,1.854760050773620605e-01,-5.664432793855667114e-02,-1.176349818706512451e-01,-5.449386313557624817e-02,-1.437485218048095703e-01,-1.311433222144842148e-02,2.012954652309417725e-01,-2.999733202159404755e-02,-2.126759439706802368e-01,2.207392901182174683e-01,-5.205433443188667297e-02,1.925391261465847492e-03,5.751330032944679260e-02,-2.184568718075752258e-02,1.397383958101272583e-01,5.144379660487174988e-02,1.501335948705673218e-01,-2.955688238143920898e-01,-4.009211063385009766e-02,1.586274951696395874e-01,2.552262544631958008e-01,-2.139508426189422607e-01,-1.347834765911102295e-01,5.817781761288642883e-02,-4.876894131302833557e-02,-1.372151970863342285e-01,1.376535147428512573e-01,-1.313258707523345947e-01,-6.892855279147624969e-03,8.333275467157363892e-02,-2.661779522895812988e-01,-1.317775249481201172e-01,1.781473904848098755e-01,3.229529038071632385e-02,-3.505907580256462097e-02,2.607319056987762451e-01,-2.321846038103103638e-01,8.252864331007003784e-02,1.846543252468109131e-01,1.126206144690513611e-01,-1.131101860664784908e-03,2.282177098095417023e-03,4.788796603679656982e-02
5.844300240278244019e-02,6.447345763444900513e-02,1.773566007614135742e-02,1.404430121183395386e-01,-1.061161160469055176e-01,1.576074510812759399e-01,-1.452732738107442856e-02,-1.350719928741455078e-01,-4.150750860571861267e-02,2.536456882953643799e-01,-7.509548217058181763e-03,-4.593099653720855713e-02,-9.766209125518798828e-02,1.175227165222167969e-01,2.583215236663818359e-01,2.639065086841583252e-01,-1.637090295553207397e-01,5.077101662755012512e-02,-3.709913790225982666e-02,2.360662221908569336e-01,-4.950591176748275757e-02,-1.089573726058006287e-01,-2.336001992225646973e-01,1.363683044910430908e-01,7.764154672622680664e-02,-2.802538573741912842e-01,-2.729738503694534302e-02,-8.646501600742340088e-02,-1.444947719573974609e-01,5.923713371157646179e-02,2.177959866821765900e-02,-9.378945082426071167e-02,1.371330767869949341e-02,-1.269383579492568970e-01,6.128405407071113586e-02,2.072945982217788696e-01,-6.424196064472198486e-02,-2.073862403631210327e-01,1.008109897375106812e-01,1.267791390419006348e-01,-8.992256969213485718e-02,-3.177507221698760986e-02,-1.673271879553794861e-02,2.164364308118820190e-01,1.948747336864471436e-01,3.395224511623382568e-01,1.253093183040618896e-01,1.587608605623245239e-01,-3.939034417271614075e-02,-2.165294885635375977e-01,-1.331167072057723999e-01,-1.698396205902099609e-01,2.175019085407257080e-01,1.603882387280464172e-02,3.638921072706580162e-03,1.037993729114532471e-01,8.340261876583099365e-02,3.164454922080039978e-02,2.333370968699455261e-02,7.676915079355239868e-02,1.669069975614547729e-01,2.319756299257278442e-01,6.597658991813659668e-02,7.882670313119888306e-02,-7.289935648441314697e-02,1.919977366924285889e-01,1.013627201318740845e-01,1.585551351308822632e-01,-1.438427250832319260e-02,1.955282408744096756e-03,5.791534483432769775e-02,-8.071304857730865479e-02,2.999633550643920898e-01,5.810303241014480591e-02,1.376866847276687622e-01,-1.240994967520236969e-02,-2.085133939981460571e-01,9.695822745561599731e-02,-7.868239283561706543e-02,2.565096914768218994e-01,-5.477976799011230469e-02,6.633207947015762329e-02,1.235060915350914001e-01,-1.423401534557342529e-01,-1.113790944218635559e-01,-1.863971799612045288e-01,1.527792215347290039e-01,1.033203527331352234e-01,3.387538716197013855e-02,3.951032161712646484e-01,-2.175053581595420837e-02,-5.732144042849540710e-02,9.432432800531387329e-02,-5.634591355919837952e-02,-8.010526001453399658e-02,1.215063333511352539e-01,-1.570001840591430664e-01,-1.311123520135879517e-01,8.736295998096466064e-02,2.937587797641754150e-01,1.844189167022705078e-01,3.047132194042205811e-01,1.761756539344787598e-01,2.089326232671737671e-01,8.504100888967514038e-02,-8.245915919542312622e-02,1.893989145755767822e-01,6.878998130559921265e-02,1.685124039649963379e-01,2.393689304590225220e-01,5.389015004038810730e-02,1.987233459949493408e-01,-4.304367676377296448e-02,4.310751333832740784e-02,-6.330565363168716431e-02,-5.153684318065643311e-02,2.089048624038696289e-01,1.940608620643615723e-01,-7.538990676403045654e-02,-9.386061877012252808e-02,2.285898476839065552e-02,-1.886755786836147308e-02,-1.133488714694976807e-01,1.071744710206985474e-01,1.553741097450256348e-01,-1.184575185179710388e-01,2.350970357656478882e-02,2.095773443579673767e-02,5.265435948967933655e-02,-1.600033193826675415e-01,1.236614510416984558e-01,1.513048857450485229e-01,1.559401303529739380e-01,7.444948703050613403e-02,2.006083279848098755e-01,2.110940217971801758e-02,-2.326725982129573822e-02,5.322417244315147400e-02,-1.536949258297681808e-02,5.972756817936897278e-02,5.297873169183731079e-02,5.728704854846000671e-02,1.513785123825073242e-01,-5.147088319063186646e-02,2.623055689036846161e-02,-6.672675907611846924e-02,1.653108447790145874e-01,2.839234471321105957e-01,1.645659953355789185e-01,1.767830103635787964e-01,8.981507271528244019e-02,6.194719672203063965e-02,1.439833939075469971e-01,1.745769232511520386e-01,2.292927801609039307e-01,8.745998144149780273e-03,2.363798022270202637e-01,-9.506420046091079712e-02,-1.168806999921798706e-01,-3.761525824666023254e-02,1.966432183980941772e-01,3.704772144556045532e-02,1.370552778244018555e-01,-1.034378856420516968e-01,1.174886301159858704e-01,1.876992136240005493e-01,8.055368810892105103e-02,2.503264844417572021e-01,3.377190604805946350e-02,-8.360790461301803589e-02,1.851139962673187256e-01,-1.130157932639122009e-01,1.554081030189990997e-02,-1.558514535427093506e-01,2.960360646247863770e-01,2.331397831439971924e-01,-1.483939588069915771e-01,-5.028049647808074951e-02,2.667000293731689453e-01,2.076116800308227539e-01,1.067754775285720825e-01,1.307410895824432373e-01,1.403644531965255737e-01,5.163055285811424255e-02,-1.186972931027412415e-01,8.773861825466156006e-02,-4.747603088617324829e-02,8.732127398252487183e-02,1.215994805097579956e-01,-1.330239418894052505e-02,4.264696687459945679e-02,1.005970910191535950e-01,-3.360072150826454163e-02,3.835388720035552979e-01,-1.350176334381103516e-01,6.702699698507785797e-03,-1.152579858899116516e-01,3.441821783781051636e-02,7.271404564380645752e-02,8.159151673316955566e-02
-2.190175652503967285e-02,9.383964538574218750e-02,-1.274795085191726685e-01,-1.477923691272735596e-01,2.719160169363021851e-02,5.258733406662940979e-02,-1.509289592504501343e-01,6.198948621749877930e-02,-2.583589218556880951e-02,1.922600418329238892e-01,-3.956529125571250916e-02,2.254757285118103027e-01,1.671217679977416992e-01,7.127559185028076172e-02,-3.758843243122100830e-02,-6.026650965213775635e-02,-4.988853260874748230e-02,4.323670268058776855e-02,-1.098346486687660217e-01,-3.037062846124172211e-02,2.215895219705998898e-04,1.132916212081909180e-01,3.368974849581718445e-02,5.375855788588523865e-02,9.186525642871856689e-02,9.378657490015029907e-02,-1.908942759037017822e-01,-1.050495579838752747e-01,6.797099020332098007e-03,1.115490123629570007e-01,-6.014870479702949524e-02,-3.871466964483261108e-02,-1.162267848849296570e-01,7.458433508872985840e-02,-7.738336175680160522e-02,4.319581668823957443e-03,1.396756805479526520e-02,1.052317544817924500e-01,5.966980010271072388e-02,8.880665525794029236e-03,1.578794568777084351e-01,1.042146235704421997e-01,1.641505062580108643e-01,2.430576086044311523e-01,-8.890346437692642212e-02,1.795798987150192261e-01,-1.595887243747711182e-01,1.211453601717948914e-01,7.310035079717636108e-02,-1.903977096080780029e-01,1.569119244813919067e-01,5.829093232750892639e-02,-6.773627549409866333e-02,-4.013587161898612976e-02,2.151217497885227203e-02,-1.494593322277069092e-01,1.091326475143432617e-01,-1.407072227448225021e-02,-1.254501007497310638e-02,1.333366185426712036e-01,4.196736216545104980e-02,4.457127302885055542e-02,-2.725871279835700989e-02,-2.296409755945205688e-02,1.137599498033523560e-01,2.151708602905273438e-01,1.830162107944488525e-02,9.980254806578159332e-03,-4.908873140811920166e-02,7.705000694841146469e-03,-2.459581047296524048e-01,-1.047998815774917603e-01,2.632013149559497833e-02,-2.301641943631693721e-04,1.233230903744697571e-01,-1.362277120351791382e-01,-5.091395229101181030e-02,1.476183682680130005e-01,-1.690126508474349976e-01,2.758678048849105835e-02,3.369688987731933594e-02,-2.919934131205081940e-02,3.457154612988233566e-03,2.334001660346984863e-02,-6.383412331342697144e-02,1.410469859838485718e-01,8.248364552855491638e-03,4.275026917457580566e-02,-2.407520543783903122e-03,1.819817908108234406e-02,-2.449018508195877075e-01,1.478799730539321899e-01,1.275698840618133545e-01,-3.200512751936912537e-02,6.312687881290912628e-03,-7.136289030313491821e-02,-4.267685487866401672e-02,9.217035025358200073e-03,4.560770001262426376e-03,-4.761288315057754517e-02,1.632692664861679077e-01,3.893031552433967590e-02,1.876500248908996582e-01,1.875643283128738403e-01,5.826033651828765869e-02,1.925191492773592472e-03,5.307086184620857239e-02,1.734088212251663208e-01,4.677798971533775330e-02,-3.420075774192810059e-02,5.866555869579315186e-02,9.408314526081085205e-02,1.593968421220779419e-01,8.720313757658004761e-02,-1.182684451341629028e-01,1.537233144044876099e-01,1.408593654632568359e-01,1.560860779136419296e-02,-1.205987557768821716e-01,2.249693870544433594e-01,2.267987281084060669e-01,-7.842484116554260254e-02,-2.470520287752151489e-01,7.832440733909606934e-02,6.213529407978057861e-02,1.482250392436981201e-01,1.229294538497924805e-01,-1.310011595487594604e-01,-1.282538622617721558e-01,3.989245370030403137e-02,1.098391935229301453e-01,-1.741626299917697906e-02,6.172903627157211304e-02,-1.133870929479598999e-01,-9.292235225439071655e-02,-9.995906800031661987e-02,2.013508044183254242e-02,-1.158618330955505371e-01,5.830898880958557129e-02,-6.158244982361793518e-02,-3.766326233744621277e-02,5.136690288782119751e-02,-7.779247313737869263e-02,9.991660714149475098e-02,-1.529736537486314774e-02,7.152377814054489136e-02,1.033841297030448914e-01,7.307802140712738037e-02,1.018418520689010620e-01,1.711057722568511963e-01,9.845057129859924316e-02,-2.129567265510559082e-01,1.459787338972091675e-01,-3.192304447293281555e-02,1.102016493678092957e-01,-8.257324248552322388e-02,1.250040680170059204e-01,2.967322245240211487e-02,1.260338723659515381e-01,-1.053816676139831543e-01,1.270231604576110840e-01,4.049408435821533203e-02,1.726472675800323486e-01,-9.467382729053497314e-02,-4.142444208264350891e-02,-1.130615621805191040e-01,-2.216535247862339020e-02,-9.534254670143127441e-02,-1.080338209867477417e-01,8.751480281352996826e-02,1.255828142166137695e-01,-1.195556949824094772e-02,-5.832716822624206543e-02,7.351539283990859985e-02,1.088143736124038696e-01,5.502358078956604004e-02,-7.774411886930465698e-02,-1.063271909952163696e-01,3.969947248697280884e-02,-1.130677908658981323e-01,1.549432873725891113e-01,2.323580235242843628e-01,5.101601779460906982e-02,1.184015069156885147e-03,1.974455267190933228e-01,-3.313674777746200562e-02,-9.567674994468688965e-02,-1.455563306808471680e-01,-4.273687303066253662e-02,1.229591593146324158e-01,-1.596440523862838745e-01,1.326007246971130371e-01,5.739624053239822388e-02,2.690604031085968018e-01,-2.569562382996082306e-02,6.107451394200325012e-02,2.372526749968528748e-02,3.741699829697608948e-02,-2.767676413059234619e-01,1.524703800678253174e-01
1.802582442760467529e-01,1.274345964193344116e-01,1.457847654819488525e-01,8.893100917339324951e-02,-3.123719990253448486e-02,1.460570096969604492e-01,1.526965647935867310e-01,1.106384545564651489e-01,-1.643529087305068970e-01,-1.030704975128173828e-01,1.060189679265022278e-01,-4.541047662496566772e-02,-5.018156766891479492e-02,1.749933362007141113e-01,7.177298516035079956e-02,-4.807522147893905640e-02,4.725692793726921082e-02,-1.160577088594436646e-01,-3.045641072094440460e-02,8.255571126937866211e-02,-2.280088141560554504e-02,1.614948213100433350e-01,-2.365360558032989502e-01,1.702036708593368530e-01,-1.146082878112792969e-01,4.369467124342918396e-02,2.380524128675460815e-01,3.358598053455352783e-02,2.766153216361999512e-02,-1.357219368219375610e-01,4.784028511494398117e-03,-3.760885447263717651e-02,1.371218711137771606e-01,4.760192241519689560e-04,3.183956742286682129e-01,-2.750957570970058441e-02,9.527650475502014160e-02,-6.867856532335281372e-02,-5.407831445336341858e-02,1.065751258283853531e-02,5.870953574776649475e-02,-1.485613286495208740e-01,1.040515750646591187e-01,-7.872544974088668823e-02,-1.768993213772773743e-02,-1.794367432594299316e-01,1.906311661005020142e-01,-8.331053704023361206e-02,8.389084041118621826e-02,2.527261078357696533e-01,1.721700280904769897e-01,1.891425102949142456e-01,6.648606061935424805e-02,-8.930352330207824707e-02,-9.818463772535324097e-02,1.148731335997581482e-01,4.221132770180702209e-02,1.122467294335365295e-01,9.336461126804351807e-02,8.246893435716629028e-02,3.621167317032814026e-02,1.607021987438201904e-01,-1.954102516174316406e-01,-8.909769356250762939e-02,-1.640873104333877563e-01,5.525727570056915283e-02,-4.314959049224853516e-02,2.268810383975505829e-02,9.291882067918777466e-02,-1.579606235027313232e-01,5.011020973324775696e-02,3.672611340880393982e-02,-1.237021982669830322e-01,-1.247205436229705811e-01,-1.271092593669891357e-01,-1.666005551815032959e-01,1.322878599166870117e-01,4.760220274329185486e-02,3.313556313514709473e-02,1.479982119053602219e-02,1.339417248964309692e-01,-1.915701478719711304e-02,-6.210473552346229553e-02,-4.334061220288276672e-02,1.966709196567535400e-01,1.514168828725814819e-01,-3.008386492729187012e-02,-2.992327138781547546e-02,6.769549846649169922e-02,-3.796587139368057251e-02,1.068723760545253754e-02,-1.279030591249465942e-01,-4.680153727531433105e-02,2.675015032291412354e-01,-1.028570085763931274e-01,-4.580852389335632324e-02,8.170017600059509277e-02,7.105658948421478271e-02,-2.038941904902458191e-02,-1.089773327112197876e-01,-8.652677759528160095e-03,-1.154145225882530212e-02,4.422122146934270859e-03,-6.827292591333389282e-02,2.998072504997253418e-01,2.585701644420623779e-01,5.805274844169616699e-02,-1.126123964786529541e-02,3.601352870464324951e-02,8.740856312215328217e-03,1.060560196638107300e-01,6.085909530520439148e-02,5.312300100922584534e-02,-1.974457688629627228e-02,2.557197809219360352e-01,1.366600394248962402e-01,-1.765032410621643066e-01,7.277152687311172485e-02,1.127808913588523865e-01,-5.258376523852348328e-02,-1.006265133619308472e-01,1.294917613267898560e-01,2.753741443157196045e-01,-4.658720269799232483e-02,-1.021309420466423035e-01,7.786471396684646606e-02,6.351017951965332031e-02,-6.098767369985580444e-02,1.123023219406604767e-02,8.292081952095031738e-02,-3.654645755887031555e-02,-5.655267462134361267e-02,1.685560680925846100e-02,1.360700875520706177e-01,-2.000909484922885895e-02,4.121549054980278015e-02,-1.284642368555068970e-01,-2.966889366507530212e-02,1.447915434837341309e-01,-1.667400896549224854e-01,5.480988416820764542e-03,-2.054318189620971680e-01,-1.074137762188911438e-01,-1.329147219657897949e-01,1.267189532518386841e-01,-1.343612372875213623e-01,2.012697234749794006e-02,7.603857666254043579e-02,-1.564403474330902100e-01,1.033184379339218140e-01,9.563391655683517456e-02,1.515357941389083862e-01,-2.341025769710540771e-01,-1.219986826181411743e-01,7.037744671106338501e-02,-6.734651327133178711e-02,5.247278138995170593e-02,6.337762624025344849e-02,-1.977583318948745728e-01,2.952640317380428314e-02,-1.910459697246551514e-01,-2.116714976727962494e-02,7.645920664072036743e-02,5.356593523174524307e-03,2.202518731355667114e-01,-9.753901511430740356e-02,5.279349535703659058e-02,-1.175315305590629578e-01,1.119436696171760559e-01,-2.959270216524600983e-02,1.336334496736526489e-01,2.698148190975189209e-01,-1.086239293217658997e-01,-2.347376570105552673e-02,-1.206367760896682739e-01,2.946605160832405090e-02,1.599584966897964478e-01,1.206260174512863159e-01,5.289138108491897583e-02,-1.309725791215896606e-01,-2.428458072245121002e-02,-2.965385280549526215e-02,8.387439697980880737e-02,7.192108780145645142e-02,-6.910829246044158936e-02,6.445229053497314453e-02,1.222212165594100952e-01,-1.988354511559009552e-02,-2.829821780323982239e-02,-3.737439960241317749e-02,2.148844152688980103e-01,-3.713580965995788574e-02,-5.244848132133483887e-02,-1.237822249531745911e-01,1.442587189376354218e-02,1.148417312651872635e-02,-2.605774998664855957e-02,-5.770501494407653809e-02,6.487289816141128540e-02,-4.758739471435546875e-02
1.985199600458145142e-01,1.369792520999908447e-01,1.332349926233291626e-01,-1.449002027511596680e-01,7.880952209234237671e-02,4.755260422825813293e-02,1.165553480386734009e-01,5.344626307487487793e-02,7.878661900758743286e-02,-2.069619745016098022e-01,-1.325919032096862793e-01,2.671890333294868469e-02,-8.106607128866016865e-04,1.580706089735031128e-01,-4.891480877995491028e-02,4.646667465567588806e-02,-4.987693205475807190e-02,6.316088885068893433e-02,-2.388860471546649933e-02,-1.205958649516105652e-01,5.750167742371559143e-02,1.964992284774780273e-01,-7.713208347558975220e-02,-4.438986629247665405e-02,7.367618381977081299e-02,1.487545520067214966e-01,1.500687599182128906e-01,1.349826455116271973e-01,-1.340780127793550491e-02,2.719056233763694763e-02,1.726113408803939819e-01,1.427625566720962524e-01,1.048367470502853394e-01,1.111114472150802612e-01,1.226777583360671997e-01,-1.837273538112640381e-01,-9.907285869121551514e-02,1.959838122129440308e-01,-1.016481295228004456e-01,-8.383750170469284058e-02,7.040451467037200928e-02,-1.187815368175506592e-01,2.527149021625518799e-01,-1.519719809293746948e-01,-2.693544924259185791e-01,-1.793880611658096313e-01,5.917282775044441223e-02,1.235294248908758163e-02,-5.951401218771934509e-02,3.249359726905822754e-01,1.721904277801513672e-01,2.140457779169082642e-01,-1.198133826255798340e-01,2.316413074731826782e-02,-2.971931397914886475e-01,1.859237849712371826e-01,1.383904814720153809e-01,1.633861213922500610e-01,-8.828938752412796021e-02,4.439546167850494385e-02,-8.913388848304748535e-02,1.711135208606719971e-01,-1.382153481245040894e-01,1.751992106437683105e-01,2.423659116029739380e-01,1.951267421245574951e-01,4.738429933786392212e-02,-4.105082526803016663e-02,4.502682015299797058e-02,-1.510730832815170288e-01,1.108060106635093689e-01,1.558268722146749496e-02,-1.700391918420791626e-01,1.291295140981674194e-01,-2.620247006416320801e-01,-7.676606625318527222e-02,3.904171288013458252e-02,1.395380347967147827e-01,7.410130649805068970e-02,3.737946972250938416e-02,5.903097987174987793e-02,1.567694172263145447e-02,-5.482204258441925049e-02,-9.409384429454803467e-02,3.513842225074768066e-01,2.532300651073455811e-01,-1.081973016262054443e-01,4.124486818909645081e-02,9.803219139575958252e-02,-2.534077465534210205e-01,6.165665760636329651e-02,7.941187173128128052e-02,-1.390696018934249878e-01,2.661502659320831299e-01,5.190675612539052963e-03,-1.843614727258682251e-01,6.692551821470260620e-02,1.294934898614883423e-01,-1.208410188555717468e-01,-1.479033976793289185e-01,-1.928732842206954956e-01,4.031446203589439392e-02,-2.769145369529724121e-01,-3.164711222052574158e-02,2.177330702543258667e-01,2.370004355907440186e-01,-2.055370956659317017e-01,-1.391158550977706909e-01,-5.074854940176010132e-03,7.001230493187904358e-03,1.945515424013137817e-01,-2.056817859411239624e-01,4.424315690994262695e-02,1.174797788262367249e-01,2.001719176769256592e-01,2.005366832017898560e-01,-1.432146038860082626e-02,-1.281013488769531250e-01,1.975775510072708130e-01,7.955835759639739990e-02,7.495418936014175415e-02,2.358511686325073242e-01,2.258675694465637207e-01,-9.765288792550563812e-03,-5.976220965385437012e-02,4.082579538226127625e-02,1.742481142282485962e-01,6.676572561264038086e-02,-1.211637631058692932e-01,-1.081660971976816654e-03,5.130865797400474548e-02,-4.295394569635391235e-02,-1.075502708554267883e-01,2.686304152011871338e-01,-7.481317967176437378e-02,4.579095169901847839e-02,-4.354112967848777771e-02,2.178869210183620453e-02,1.739074438810348511e-01,-1.343325078487396240e-01,-1.470104157924652100e-01,-1.192185804247856140e-01,9.479267150163650513e-02,-9.574575722217559814e-02,-5.346262082457542419e-02,-1.504968665540218353e-02,-7.274596020579338074e-03,2.162115275859832764e-02,-1.266890615224838257e-01,2.409386076033115387e-02,4.726532101631164551e-02,-9.553209878504276276e-03,-1.175876781344413757e-01,-4.841213300824165344e-02,1.123155653476715088e-01,2.637027800083160400e-01,1.603980958461761475e-01,1.273626983165740967e-01,9.448844939470291138e-02,8.138860762119293213e-02,-2.052713632583618164e-01,-1.332697123289108276e-01,7.818375527858734131e-02,1.544895917177200317e-01,6.524752825498580933e-02,-1.288324594497680664e-01,7.768929004669189453e-02,-2.026049792766571045e-01,2.014843672513961792e-01,2.034194320440292358e-01,1.628037095069885254e-01,5.749830976128578186e-02,2.644430100917816162e-02,2.858453094959259033e-01,-2.136377431452274323e-02,1.577418595552444458e-01,3.253175914287567139e-01,2.622238695621490479e-01,-9.743270464241504669e-03,-4.056820180267095566e-03,7.769479416310787201e-03,-7.332931272685527802e-03,-1.892318427562713623e-01,9.853763505816459656e-03,7.877265103161334991e-03,1.370661705732345581e-01,1.882553994655609131e-01,-1.032224446535110474e-01,5.288032814860343933e-02,1.067925095558166504e-01,1.061469390988349915e-01,-1.376804523169994354e-02,1.814144104719161987e-01,-1.636510789394378662e-01,1.205785423517227173e-01,2.958448529243469238e-01,1.733108609914779663e-02,5.722544621676206589e-03,1.900723725557327271e-01,6.854239851236343384e-02
8.500879257917404175e-02,-1.229360476136207581e-01,-1.011480391025543213e-01,1.841851919889450073e-01,-3.211673349142074585e-02,2.173575013875961304e-01,-3.982646390795707703e-02,-1.158357933163642883e-01,3.122260607779026031e-02,2.607975900173187256e-01,-3.911243006587028503e-02,-1.079277992248535156e-01,5.540715157985687256e-02,-8.934733271598815918e-02,1.767520457506179810e-01,1.077004745602607727e-01,1.495628505945205688e-01,-4.244096949696540833e-02,4.382870346307754517e-02,1.058011278510093689e-01,-3.608657792210578918e-02,-2.733782865107059479e-02,-7.022212445735931396e-02,-8.737090975046157837e-02,1.197591423988342285e-01,-4.442568123340606689e-02,-1.685237139463424683e-01,-5.295903235673904419e-02,-1.747437119483947754e-01,-9.855771064758300781e-02,2.672458067536354065e-02,-7.581399381160736084e-02,2.509011887013912201e-03,-1.556308120489120483e-01,3.309426084160804749e-02,-2.292290516197681427e-02,-2.386425435543060303e-02,-3.081367015838623047e-01,2.236436009407043457e-01,5.530562624335289001e-02,-1.235015764832496643e-01,1.106713861227035522e-01,1.439397130161523819e-02,1.085286810994148254e-01,2.021718919277191162e-01,1.631687879562377930e-01,-1.906778663396835327e-02,1.113798618316650391e-01,-6.827515363693237305e-02,-2.925492636859416962e-02,-6.565698981285095215e-02,-2.328399121761322021e-01,1.719909012317657471e-01,5.108587443828582764e-03,2.493093460798263550e-01,1.077901050448417664e-01,-5.096897110342979431e-02,-1.003226488828659058e-01,5.421083793044090271e-02,9.950688108801841736e-03,-1.151307374238967896e-01,1.005073785781860352e-01,1.766076125204563141e-02,2.496143616735935211e-02,-9.150794707238674164e-03,-1.058991998434066772e-02,9.059424698352813721e-02,1.571481674909591675e-01,-1.462587062269449234e-02,-7.707444578409194946e-02,1.707105934619903564e-01,-2.767306752502918243e-02,1.119913905858993530e-01,1.228523626923561096e-02,-1.155035346746444702e-01,5.366983264684677124e-02,-1.361549794673919678e-01,6.964085251092910767e-02,-3.049869555979967117e-03,1.240905746817588806e-01,2.185560390353202820e-02,6.553640961647033691e-02,1.810260266065597534e-01,-6.088879331946372986e-02,-1.498789489269256592e-01,-3.751270473003387451e-02,-2.057544421404600143e-03,1.171800419688224792e-01,1.346766054630279541e-01,5.919415503740310669e-02,-1.137419603765010834e-02,-1.853889524936676025e-01,2.417051233351230621e-02,-6.145747378468513489e-02,9.773413091897964478e-02,2.366136461496353149e-01,-1.561958063393831253e-02,-9.707825630903244019e-02,-2.081929473206400871e-03,5.623724684119224548e-02,3.522404655814170837e-02,-1.542783807963132858e-02,1.122704818844795227e-01,8.663614094257354736e-02,1.012471839785575867e-01,-1.561402808874845505e-02,6.186767667531967163e-02,1.446811407804489136e-01,-1.492266654968261719e-01,1.626997888088226318e-01,-5.330035462975502014e-02,4.671944677829742432e-02,-1.154650002717971802e-01,3.217554464936256409e-02,-6.732650846242904663e-02,-1.481265872716903687e-01,2.890112064778804779e-02,2.334281355142593384e-01,-9.048272669315338135e-02,5.265944078564643860e-02,-8.145922422409057617e-02,-2.043034285306930542e-01,-1.699655503034591675e-02,9.060724824666976929e-02,2.598965764045715332e-01,-2.689119800925254822e-02,-7.362122181802988052e-03,-1.018590107560157776e-01,1.525906473398208618e-01,-7.430195808410644531e-02,-1.013280972838401794e-01,-6.954588741064071655e-02,-4.811957851052284241e-02,-4.704301059246063232e-02,1.293437033891677856e-01,5.356568470597267151e-02,-1.586774736642837524e-01,-7.674124836921691895e-02,-1.457416564226150513e-01,4.611228406429290771e-02,8.673896640539169312e-02,3.372034430503845215e-02,1.402405835688114166e-02,6.248239427804946899e-02,-5.887086503207683563e-03,1.654076203703880310e-02,-1.010630056262016296e-01,1.618083566427230835e-01,-6.075640558265149593e-04,-1.029640585184097290e-01,-6.887537427246570587e-03,2.167203426361083984e-01,4.169320315122604370e-02,7.997839152812957764e-02,-7.921517640352249146e-02,1.270184107124805450e-02,4.714914411306381226e-02,1.419308185577392578e-01,3.451255708932876587e-02,-8.405560627579689026e-03,1.097311899065971375e-01,1.811285763978958130e-01,3.132671862840652466e-02,2.701357193291187286e-02,1.236560847610235214e-02,7.175330072641372681e-02,5.512417852878570557e-02,2.509989738464355469e-01,-8.448331058025360107e-02,-1.690930277109146118e-01,3.119560703635215759e-02,4.492628574371337891e-02,-1.313439011573791504e-01,-4.057906568050384521e-02,7.203532010316848755e-02,1.693223714828491211e-01,-2.174813598394393921e-01,-3.847849369049072266e-02,5.507141351699829102e-02,5.403944849967956543e-02,6.423456966876983643e-02,1.240917220711708069e-01,9.792760759592056274e-02,-1.481043696403503418e-01,5.165683850646018982e-02,1.163099259138107300e-01,3.055146336555480957e-02,3.997393697500228882e-02,-8.575441688299179077e-02,-7.750189304351806641e-02,-1.057334616780281067e-01,-6.035089120268821716e-02,-1.017389595508575439e-01,-7.472440134733915329e-03,-1.425827741622924805e-01,-2.529858350753784180e-01,-5.437687784433364868e-02,-1.057506352663040161e-01,-6.701756268739700317e-02,-1.648050360381603241e-02
1.037251651287078857e-01,6.755362451076507568e-02,-4.605586174875497818e-03,2.595220208168029785e-01,-1.158425658941268921e-01,1.350107789039611816e-01,-1.739270091056823730e-01,-9.544297307729721069e-02,-3.851144388318061829e-02,1.077983900904655457e-01,6.885233521461486816e-02,1.648011654615402222e-01,-3.315416350960731506e-02,-6.058657541871070862e-02,6.710520386695861816e-02,8.497750759124755859e-02,-1.249565370380878448e-02,-1.696433871984481812e-01,1.870654523372650146e-01,1.981051564216613770e-01,1.958863288164138794e-01,-1.985330730676651001e-01,-8.310984820127487183e-03,-4.161375015974044800e-02,1.123624071478843689e-01,-8.149046450853347778e-02,-8.179708570241928101e-02,-5.614951625466346741e-02,-8.686270564794540405e-02,1.962437778711318970e-01,-3.833334520459175110e-02,4.952249303460121155e-02,8.402321487665176392e-02,-7.695320248603820801e-02,-1.538818608969449997e-02,1.034969165921211243e-01,1.958830058574676514e-01,-1.654913723468780518e-01,2.109250724315643311e-01,1.159796342253684998e-01,6.494536530226469040e-03,9.408067166805267334e-02,-7.729516178369522095e-02,2.680680453777313232e-01,1.683291196823120117e-01,2.686074972152709961e-01,-1.164490431547164917e-01,2.243022620677947998e-01,2.077773399651050568e-02,-2.477887272834777832e-01,-2.628114446997642517e-02,-1.603974550962448120e-01,-5.551710724830627441e-02,-1.111585050821304321e-01,1.455859988927841187e-01,-4.323767498135566711e-02,-7.038965821266174316e-02,5.624118447303771973e-02,-2.419385686516761780e-02,6.461387872695922852e-02,6.692245602607727051e-02,-1.112031936645507812e-01,9.949010610580444336e-02,3.979068621993064880e-02,1.859517693519592285e-01,6.530307233333587646e-02,1.448198109865188599e-01,-1.432249415665864944e-02,8.340408653020858765e-02,2.119417041540145874e-01,1.536340117454528809e-01,2.803060412406921387e-02,1.631517410278320312e-01,3.120369650423526764e-02,1.233798712491989136e-01,8.034098148345947266e-02,-1.936185546219348907e-02,5.693515762686729431e-02,8.735515177249908447e-02,4.593190923333168030e-02,-4.389875382184982300e-02,1.804980933666229248e-01,3.105129348114132881e-03,-1.640851348638534546e-01,-5.850467830896377563e-02,-5.345754325389862061e-02,1.965456753969192505e-01,1.682094186544418335e-01,5.308767315000295639e-03,4.172499477863311768e-01,-7.337108254432678223e-02,2.208501100540161133e-01,2.037906646728515625e-01,-2.237948328256607056e-01,4.370209202170372009e-02,2.075009495019912720e-01,6.319762021303176880e-02,-2.049120366573333740e-01,1.252263039350509644e-01,3.259303569793701172e-01,8.766248822212219238e-02,1.224192380905151367e-01,9.330185502767562866e-02,2.193304747343063354e-01,3.858702257275581360e-02,2.516052685678005219e-02,3.255867660045623779e-01,2.454705685377120972e-01,4.461902752518653870e-02,3.869987279176712036e-02,-2.753468416631221771e-02,1.640364229679107666e-01,1.263131797313690186e-01,1.922081857919692993e-01,-1.389361172914505005e-01,-1.331155300140380859e-01,1.776647269725799561e-01,1.917955428361892700e-01,-6.816477049142122269e-03,8.147515356540679932e-02,4.350917041301727295e-02,-2.151194959878921509e-01,-6.574685126543045044e-02,3.510302398353815079e-03,1.516433954238891602e-01,3.435180708765983582e-02,-9.817633032798767090e-02,4.726933687925338745e-02,1.498196870088577271e-01,-6.399028003215789795e-02,-2.084266208112239838e-02,4.211311787366867065e-02,1.609301865100860596e-01,-1.770331412553787231e-01,8.159689605236053467e-02,1.144427359104156494e-01,1.100490242242813110e-02,1.342941671609878540e-01,-1.637883111834526062e-02,1.018784865736961365e-01,1.661453396081924438e-01,1.210149377584457397e-01,8.024448901414871216e-02,-1.969742588698863983e-02,-1.209433525800704956e-01,1.080686450004577637e-01,2.703531682491302490e-01,1.972662806510925293e-01,1.705142259597778320e-01,2.310647666454315186e-01,-2.062856778502464294e-02,1.460758000612258911e-01,2.677493393421173096e-01,8.706565015017986298e-03,8.850896358489990234e-02,2.968555130064487457e-02,-1.474658260121941566e-03,-1.079804170876741409e-02,2.674357965588569641e-02,6.255279481410980225e-02,1.885955482721328735e-01,3.352449461817741394e-02,2.162294685840606689e-01,-2.228061705827713013e-01,-1.264878213405609131e-01,2.508808076381683350e-01,-1.317622023634612560e-03,1.231119036674499512e-01,5.898414552211761475e-02,8.009487390518188477e-02,8.560480922460556030e-02,-1.802674233913421631e-01,2.771020121872425079e-02,-8.610411733388900757e-02,2.218325585126876831e-01,2.357046119868755341e-02,-1.106363385915756226e-01,-2.210479676723480225e-01,8.986528962850570679e-02,2.557574212551116943e-01,1.312640011310577393e-01,2.257321625947952271e-01,6.179453060030937195e-02,1.023099794983863831e-01,1.078093945980072021e-01,7.874921709299087524e-02,3.076710179448127747e-02,7.095166295766830444e-02,1.095554307103157043e-01,-9.173087775707244873e-02,-8.395496010780334473e-02,7.782889157533645630e-02,4.421748593449592590e-02,4.136763513088226318e-01,-1.330710649490356445e-01,8.409114181995391846e-02,-5.031384155154228210e-02,1.132704615592956543e-01,-1.171690225601196289e-01,-2.408897038549184799e-03
7.658816128969192505e-02,-5.045441910624504089e-02,3.861806169152259827e-02,1.085992977023124695e-01,-9.631929546594619751e-02,-7.240106910467147827e-02,-8.041238039731979370e-02,-2.114041447639465332e-01,2.268044278025627136e-02,1.763653755187988281e-01,9.123669564723968506e-02,1.336760967969894409e-01,3.969882056117057800e-02,5.765970796346664429e-02,1.152896210551261902e-01,8.396510779857635498e-02,-1.055162623524665833e-01,-2.010576874017715454e-01,6.521289050579071045e-02,8.707173913717269897e-02,1.051468867808580399e-02,-1.657277643680572510e-01,-2.686497382819652557e-02,5.569426342844963074e-02,1.492022871971130371e-01,-3.688504174351692200e-02,-1.818785220384597778e-01,4.270468279719352722e-02,9.983558207750320435e-02,1.523012667894363403e-01,6.745238602161407471e-02,6.963476538658142090e-02,8.142694085836410522e-02,-3.101846389472484589e-02,-1.356508582830429077e-02,7.211050391197204590e-02,8.986183255910873413e-02,-1.766515970230102539e-01,1.512454599142074585e-01,-2.888285554945468903e-02,1.198287010192871094e-01,2.038469165563583374e-01,1.840334087610244751e-01,2.732991576194763184e-01,7.691566646099090576e-02,1.475530266761779785e-01,1.299896836280822754e-01,2.100532054901123047e-01,-3.468413278460502625e-02,-5.103052780032157898e-02,-8.030356839299201965e-03,-1.943291425704956055e-01,6.527943164110183716e-02,3.258734568953514099e-02,3.493343889713287354e-01,-1.340688019990921021e-01,3.363472223281860352e-02,-1.389405578374862671e-01,8.096903562545776367e-02,-1.127243228256702423e-02,1.072742044925689697e-01,1.578444987535476685e-01,2.259912192821502686e-01,3.844269737601280212e-02,4.482146725058555603e-02,8.227417618036270142e-02,5.627343431115150452e-02,9.273716807365417480e-02,-1.276719868183135986e-01,1.509344875812530518e-01,1.052777096629142761e-01,-1.212887316942214966e-01,1.138272956013679504e-01,6.080013886094093323e-02,7.655482739210128784e-02,1.528289020061492920e-01,-1.665292233228683472e-01,6.212644279003143311e-02,1.622652634978294373e-02,-5.032430216670036316e-02,-6.985160708427429199e-02,8.644816279411315918e-02,1.992271393537521362e-01,-5.899684131145477295e-02,-1.108326613903045654e-01,-4.135245084762573242e-02,1.051353216171264648e-01,1.540879905223846436e-01,2.195742726325988770e-02,2.059695720672607422e-01,-9.657574445009231567e-02,1.473418325185775757e-01,-5.349535960704088211e-03,-2.130838781595230103e-01,5.181526020169258118e-02,1.298013776540756226e-01,5.075485631823539734e-02,-9.165665507316589355e-02,4.758594557642936707e-02,1.551212221384048462e-01,1.908937692642211914e-01,1.159553453326225281e-01,8.205494284629821777e-02,2.703155279159545898e-01,1.203547045588493347e-01,-1.092905998229980469e-01,7.589644193649291992e-02,9.073619544506072998e-02,8.403160423040390015e-02,1.745525598526000977e-01,-1.962369494140148163e-02,1.309845000505447388e-01,5.318594723939895630e-02,1.037990394979715347e-02,-1.415495872497558594e-01,-1.160479113459587097e-01,1.697222590446472168e-01,9.742870181798934937e-02,-1.239273175597190857e-01,9.836561232805252075e-02,2.577017992734909058e-02,-1.188778132200241089e-01,-6.014440953731536865e-02,6.415959214791655540e-04,1.992329806089401245e-01,6.119107082486152649e-02,-3.633333137258887291e-03,-5.036966502666473389e-02,2.325610816478729248e-01,-1.930420100688934326e-02,-8.148154243826866150e-03,1.558115929365158081e-01,2.070331573486328125e-02,6.539750844240188599e-02,1.795960068702697754e-01,-8.909003436565399170e-02,1.836077421903610229e-01,7.180655747652053833e-02,9.591074287891387939e-02,5.332758277654647827e-02,1.198228597640991211e-01,2.449717372655868530e-01,5.340792238712310791e-02,-1.052843654179014266e-04,1.451944857835769653e-01,3.948013857007026672e-02,3.242940008640289307e-01,6.210998818278312683e-02,-8.062014356255531311e-03,7.094882428646087646e-02,-2.089967951178550720e-03,5.109559372067451477e-02,2.591581642627716064e-01,1.415607929229736328e-01,-8.411990851163864136e-02,8.017081022262573242e-02,9.176345169544219971e-02,5.813752859830856323e-02,-2.026554197072982788e-02,-1.000913307070732117e-01,1.186466738581657410e-01,1.139693483710289001e-01,1.949554383754730225e-01,1.131773889064788818e-01,-8.697395026683807373e-02,8.260981738567352295e-02,5.028039589524269104e-02,1.629277318716049194e-01,-1.490457057952880859e-01,-1.317177861928939819e-01,8.570978790521621704e-02,-1.136249825358390808e-01,1.006695255637168884e-01,9.142267704010009766e-02,1.867997497320175171e-01,5.890657380223274231e-02,-7.789099123328924179e-03,-4.054969549179077148e-02,6.558640301227569580e-02,2.762263407930731773e-03,2.500864677131175995e-02,1.741178035736083984e-01,7.880980148911476135e-03,1.200591623783111572e-01,5.415886640548706055e-02,1.004377678036689758e-01,9.625174105167388916e-02,2.015259861946105957e-01,1.174529790878295898e-01,1.246690675616264343e-01,1.372733116149902344e-01,-7.117851823568344116e-02,-5.627675354480743408e-02,3.922204673290252686e-01,-1.506624817848205566e-01,-1.019524484872817993e-01,7.750106602907180786e-02,-1.005097106099128723e-01,-2.092431187629699707e-01,-1.121998112648725510e-02
