-2.513651736080646515e-02,1.746511645615100861e-02,-2.173171937465667725e-02,-9.485085494816303253e-03,4.165173321962356567e-02,-9.344660490751266479e-02,-1.091027036309242249e-01,-9.146199375391006470e-02,-7.393156737089157104e-02,-5.444969283416867256e-04,-2.521811984479427338e-02,-5.911963060498237610e-02,2.268623560667037964e-03,-4.966727271676063538e-02,-8.146835118532180786e-02,4.885247722268104553e-02,1.946002244949340820e-02,2.761230431497097015e-02,9.242612868547439575e-03,4.540484398603439331e-02,-8.923388086259365082e-03,-4.323124140501022339e-02,-3.843691572546958923e-02,7.305656373500823975e-02,-2.841649577021598816e-02,-3.973989933729171753e-02,-4.419717192649841309e-02,-2.193355932831764221e-02,-2.858995832502841949e-02,-7.004591822624206543e-02,5.464250221848487854e-03,-2.171386219561100006e-02,-7.469345629215240479e-02,-6.293115764856338501e-02,-1.340869255363941193e-02,4.108069837093353271e-02,-7.855522446334362030e-03,-5.041396617889404297e-02,-6.200277805328369141e-02,2.748876996338367462e-02,-5.296964570879936218e-02,-6.293153762817382812e-02,-4.952700808644294739e-02,6.059333309531211853e-02,-1.786417886614799500e-02,-2.076746709644794464e-02,-4.283751174807548523e-02,-1.361584477126598358e-02,-7.286071032285690308e-02,-5.018848925828933716e-02,-7.699427660554647446e-03,-1.589938998222351074e-02,-8.578223735094070435e-02,-4.492959380149841309e-02,1.087478082627058029e-02,1.724633947014808655e-02,-2.521660178899765015e-02,-1.201557088643312454e-02,-7.586552947759628296e-02,-1.757298037409782410e-02,-1.159828007221221924e-01,-5.291443318128585815e-03,-3.939265385270118713e-02,-6.582516431808471680e-02,-3.129913285374641418e-02,9.491464006714522839e-04,6.035587750375270844e-03,8.534972555935382843e-03,-7.224708795547485352e-03,-1.301032863557338715e-02,-2.043913491070270538e-02,-1.810285076498985291e-02,-3.086382895708084106e-02,-1.675788126885890961e-02,-7.581026852130889893e-02,2.091662399470806122e-02,3.693830221891403198e-02,-1.801051758229732513e-02,1.713375188410282135e-02,2.457807568134739995e-06,-9.517575800418853760e-02,5.965412594377994537e-03,-2.071335446089506149e-03,-5.231664702296257019e-02,-6.557520478963851929e-02,-2.562898583710193634e-02,-6.762466393411159515e-03,8.460431359708309174e-03,-5.574131011962890625e-02,2.121253870427608490e-02,2.668883278965950012e-02,-1.377935111522674561e-01,-3.597638383507728577e-02,-2.911624498665332794e-02,2.217385917901992798e-02,1.846165582537651062e-02,-9.405598044395446777e-02,-7.071559876203536987e-02,5.728092789649963379e-02,-1.737157106399536133e-01,-5.090557038784027100e-02,6.422793492674827576e-03,-8.432547003030776978e-02,-1.847320050001144409e-02,-4.805994033813476562e-02,-1.423985883593559265e-02,-6.308295298367738724e-03,-1.410215497016906738e-01,-5.690614506602287292e-02,-2.251506038010120392e-02,2.137114666402339935e-02,3.016822040081024170e-02,-6.173257529735565186e-02,-9.980788454413414001e-03,-3.253151476383209229e-02,7.633016444742679596e-03,3.207090497016906738e-02,1.119202747941017151e-02,1.021558567881584167e-01,6.087190285325050354e-02,-2.842528559267520905e-02,-1.434595286846160889e-01,-4.846604168415069580e-02,-5.970259010791778564e-02,-5.610648542642593384e-02,-3.507830947637557983e-02,-6.401792913675308228e-02,-4.230809281580150127e-04,8.048104122281074524e-03,4.779578745365142822e-02,8.617786690592765808e-03,-3.500247374176979065e-03,-2.220888435840606689e-02,1.969677396118640900e-03,-1.119060367345809937e-01,-6.969867646694183350e-02,-5.435641389340162277e-03,-2.417652681469917297e-02,1.033304631710052490e-02,-4.777168482542037964e-02,3.005240857601165771e-02,3.232495114207267761e-02,4.766302183270454407e-02,6.102122366428375244e-02,-4.888704046607017517e-02,-2.154881693422794342e-02,-4.699344187974929810e-02,-2.238650247454643250e-02,-4.747529700398445129e-02,-3.502469509840011597e-02,-3.352344408631324768e-02,-6.467368453741073608e-02,-8.818662166595458984e-02,-1.057182252407073975e-01,5.486765131354331970e-02,-1.881727203726768494e-02,-6.324176490306854248e-02,4.515297710895538330e-02,2.372141741216182709e-02,-3.223673254251480103e-02,-3.552640788257122040e-03,-1.016322989016771317e-03,1.994925364851951599e-02,-2.199965156614780426e-02,-6.114668771624565125e-02,-1.015904545783996582e-01,-8.729605376720428467e-02,6.454938650131225586e-02,-6.932325195521116257e-03,-2.756278961896896362e-02,-4.126304760575294495e-03,-5.541969835758209229e-02,9.923066012561321259e-03,6.489021237939596176e-03,3.350203484296798706e-02,-1.077004522085189819e-01,-5.685579404234886169e-02,-2.795206010341644287e-02,-6.123131886124610901e-02,-1.728382147848606110e-02,4.445488378405570984e-02,-3.203845396637916565e-02,-7.300312817096710205e-02,6.103186169639229774e-04,-7.209448516368865967e-02,6.489764153957366943e-02,-5.865256488323211670e-02,-7.037287950515747070e-02,-5.568636208772659302e-02,-3.765831934288144112e-03,-4.403165355324745178e-02,-1.092628389596939087e-01,-4.986240342259407043e-02,1.714546419680118561e-02,-1.792696118354797363e-02,-1.009209081530570984e-02,7.160270120948553085e-03,-8.680493384599685669e-02,4.537576809525489807e-02,2.020796388387680054e-02
