4.554589465260505676e-02,3.356171073392033577e-03,5.347894877195358276e-02,7.742919027805328369e-02,3.375934809446334839e-02,1.114849448204040527e-01,-3.118265420198440552e-02,2.412436529994010925e-02,4.604830220341682434e-02,4.051292315125465393e-02,-3.960054367780685425e-02,1.515362039208412170e-02,6.252738088369369507e-02,4.761889111250638962e-03,9.991302341222763062e-02,3.361161565408110619e-03,9.748160094022750854e-02,-4.685733467340469360e-02,-1.952642342075705528e-03,3.584489971399307251e-02,2.426702715456485748e-02,-1.674891822040081024e-02,4.417984932661056519e-02,8.210723102092742920e-02,5.207955092191696167e-02,6.970394402742385864e-02,1.239716038107872009e-01,5.082843080163002014e-02,-2.165926992893218994e-02,1.007773131132125854e-01,1.088016703724861145e-01,9.465627372264862061e-03,1.495862901210784912e-01,5.390203744173049927e-02,1.667258702218532562e-02,7.472793757915496826e-02,1.064922288060188293e-02,-4.134112969040870667e-02,3.972459584474563599e-02,-2.618547156453132629e-02,-6.313799414783716202e-03,-8.525155484676361084e-02,2.691522613167762756e-02,2.030439674854278564e-02,-2.221419103443622589e-02,2.532063610851764679e-02,-7.144644856452941895e-02,3.922026604413986206e-02,3.262782469391822815e-03,-6.040484830737113953e-02,-1.005376223474740982e-02,-1.637655682861804962e-02,7.613131403923034668e-02,-8.212248980998992920e-02,4.175179451704025269e-02,-2.746803313493728638e-02,9.327148646116256714e-02,5.034839734435081482e-02,-3.248652070760726929e-02,2.292211912572383881e-02,-5.435331910848617554e-02,1.192292049527168274e-01,-8.605501055717468262e-02,-8.691547438502311707e-03,-1.058377325534820557e-02,1.040289178490638733e-02,-5.539364647120237350e-04,-9.224656224250793457e-02,1.312597375363111496e-02,2.534947171807289124e-02,-6.210444495081901550e-02,-2.139683812856674194e-02,-7.257015258073806763e-02,4.191704839468002319e-02,-6.539044529199600220e-02,4.710026830434799194e-02,5.092309042811393738e-02,-3.533706068992614746e-02,7.992887496948242188e-02,4.491780698299407959e-02,-6.556159816682338715e-03,8.097357302904129028e-02,1.459207981824874878e-01,8.360695838928222656e-02,1.690041273832321167e-02,9.182824939489364624e-02,-6.056992337107658386e-02,-7.942324131727218628e-02,-2.652878873050212860e-02,-4.765574634075164795e-02,8.255453407764434814e-02,-1.058885361999273300e-03,8.723308145999908447e-02,-6.412388384342193604e-02,2.092462405562400818e-02,6.280373036861419678e-02,4.982455819845199585e-02,5.398255214095115662e-02,-2.946113608777523041e-02,-2.982342988252639771e-02,-6.820736080408096313e-02,6.340629607439041138e-02,3.857897967100143433e-02,-2.901429869234561920e-02,1.043089255690574646e-01,-3.856825083494186401e-02,-6.914374977350234985e-02,3.958587720990180969e-02,-1.566219516098499298e-02,9.164325892925262451e-02,-2.121892385184764862e-02,5.704626441001892090e-02,3.716821782290935516e-03,5.511939153075218201e-02,4.461048543453216553e-02,-1.259980443865060806e-02,-2.836557850241661072e-02,-5.443006008863449097e-02,3.186215832829475403e-02,-9.056367911398410797e-03,-1.940219663083553314e-02,1.212101336568593979e-02,-2.560990490019321442e-02,2.469085715711116791e-02,1.417338699102401733e-01,-7.918729446828365326e-03,3.525629639625549316e-02,1.266043074429035187e-02,-1.731680519878864288e-02,-3.580334037542343140e-02,4.793248325586318970e-02,-8.161548525094985962e-02,-7.117775082588195801e-02,-5.740973167121410370e-03,9.047979116439819336e-02,-1.308508310467004776e-02,-2.792784571647644043e-02,-4.636519774794578552e-02,-2.511903829872608185e-02,-5.135642737150192261e-02,-1.930583640933036804e-02,5.854437127709388733e-02,5.168080329895019531e-03,2.286620810627937317e-02,1.933981105685234070e-02,2.594785206019878387e-02,-7.385721057653427124e-02,-8.095550537109375000e-02,2.466047368943691254e-02,1.114985556341707706e-03,7.546791434288024902e-02,-8.820381760597229004e-02,-4.626543074846267700e-02,-2.994611300528049469e-02,3.822820261120796204e-02,-8.024013787508010864e-02,-1.409532222896814346e-02,3.894247487187385559e-02,9.832255542278289795e-02,-8.544366061687469482e-02,1.051969379186630249e-01,7.318852096796035767e-02,4.541513696312904358e-02,1.235938668251037598e-01,-8.097586221992969513e-03,4.870966449379920959e-02,5.706802010536193848e-02,-5.520702898502349854e-02,-4.915133118629455566e-02,1.045666262507438660e-01,1.132947765290737152e-02,2.525427192449569702e-02,-4.006432369351387024e-02,-5.275726690888404846e-02,-4.906979855149984360e-03,-1.017079427838325500e-01,-4.410477727651596069e-02,-1.441494561731815338e-02,-2.922557527199387550e-03,8.647070080041885376e-02,6.397818773984909058e-02,2.380481548607349396e-02,1.228427961468696594e-01,-3.762499988079071045e-02,-7.334525883197784424e-02,-1.045064069330692291e-02,-4.260727390646934509e-02,-5.374560505151748657e-02,3.771951049566268921e-02,4.303722083568572998e-02,4.015079885721206665e-02,8.734772354364395142e-02,4.207099601626396179e-02,-5.469883233308792114e-02,-6.940534710884094238e-02,1.952524110674858093e-02,-2.442506514489650726e-02,-3.931669145822525024e-02,1.063597351312637329e-01,5.151678994297981262e-02
