1.450696289539337158e-01,-8.516550809144973755e-02,5.575860142707824707e-01,2.555006146430969238e-01,-1.066725254058837891e-01,-1.358249634504318237e-01,2.912303991615772247e-02,-5.833637714385986328e-02,-2.404312342405319214e-01,3.736117482185363770e-01,3.809690475463867188e-02,4.490188881754875183e-02,2.439982444047927856e-01,-7.360195741057395935e-03,4.682492464780807495e-02,2.167751640081405640e-01,-1.075421348214149475e-01,-3.626317679882049561e-01,5.896657109260559082e-01,-3.962121307849884033e-01,6.211952567100524902e-01,1.763297244906425476e-02,3.112714039161801338e-03,-1.284697800874710083e-01,-7.667052000761032104e-02,-1.258277893066406250e-01,1.603933721780776978e-01,-6.150795146822929382e-02,2.970461845397949219e-01,-5.169274657964706421e-02,-2.680526077747344971e-01,1.653507798910140991e-01,2.314911931753158569e-01,-1.753029823303222656e-01,-3.149969875812530518e-01,-2.048145681619644165e-01,4.102368056774139404e-01,2.891649007797241211e-01,1.408818364143371582e-01,-4.267099201679229736e-01,-2.958710491657257080e-01,2.794594503939151764e-02,3.558661639690399170e-01,3.888937830924987793e-01,-1.620623618364334106e-01,-1.395011544227600098e-01,7.496292144060134888e-02,2.366893589496612549e-01,3.190840184688568115e-01,2.612014114856719971e-02,-2.512310445308685303e-01,2.616964280605316162e-01,1.339699774980545044e-01,-1.905526071786880493e-01,2.494376897811889648e-01,9.840442985296249390e-02,-2.680392749607563019e-02,-2.530084252357482910e-01,1.406477987766265869e-01,-1.668643951416015625e-01,-1.634165048599243164e-01,-1.961182504892349243e-01,2.507637441158294678e-01,4.075228273868560791e-01,4.559653997421264648e-01,1.752419583499431610e-02,4.478025436401367188e-02,-7.708068192005157471e-02,-1.669865399599075317e-01,-1.883976012468338013e-01,-1.700103133916854858e-01,-2.696106731891632080e-01,-4.970854893326759338e-02,1.925971359014511108e-01,5.370796471834182739e-02,2.161479443311691284e-01,7.064547389745712280e-02,-1.638217121362686157e-01,1.369940191507339478e-01,4.151175320148468018e-01,-1.907479166984558105e-01,1.690632402896881104e-01,-1.329065710306167603e-01,-2.354965060949325562e-01,-7.525850832462310791e-02,-1.265306025743484497e-01,-3.684598207473754883e-02,7.043433189392089844e-02,2.498943358659744263e-01,-1.720594912767410278e-01,-9.132947772741317749e-02,-8.219512552022933960e-02,-1.744568347930908203e-02,-1.265911906957626343e-01,1.291847042739391327e-02,-4.873430728912353516e-02,-1.577624231576919556e-01,-7.808631658554077148e-02,1.535386443138122559e-01,1.194868385791778564e-01,-3.880390226840972900e-01,-1.672095358371734619e-01,2.913330681622028351e-02,-1.307919770479202271e-01,-2.209485620260238647e-01,3.012379705905914307e-01,-1.627874821424484253e-01,-1.758906841278076172e-01,1.452695857733488083e-02,-2.810744047164916992e-01,1.667532883584499359e-02,-3.427939713001251221e-01,-1.117678135633468628e-01,6.139904856681823730e-01,-3.924704492092132568e-01,-4.314382374286651611e-01,-4.347239434719085693e-01,2.883247435092926025e-01,-2.259051352739334106e-01,1.385385394096374512e-01,3.964525759220123291e-01,-3.370560109615325928e-01,-7.950640469789505005e-02,4.092720448970794678e-01,2.723152935504913330e-01,7.475679367780685425e-02,2.187490910291671753e-01,-1.691614240407943726e-01,-2.928207218647003174e-01,-1.504178196191787720e-01,1.385021805763244629e-01,-3.771263360977172852e-01,5.255523920059204102e-01,9.076722711324691772e-02,-9.572612494230270386e-02,2.523578107357025146e-01,5.304945632815361023e-02,1.045342236757278442e-01,-2.231168746948242188e-01,-1.853563338518142700e-01,-1.756253391504287720e-01,-9.297475218772888184e-02,-1.317635625600814819e-01,-2.082641869783401489e-01,2.712619900703430176e-01,-2.654587626457214355e-01,1.979627758264541626e-01,-3.140383362770080566e-01,-2.730280458927154541e-01,-1.328467577695846558e-01,2.116505205631256104e-01,-1.822205483913421631e-01,-2.054837644100189209e-01,-2.326293289661407471e-01,-1.878325194120407104e-01,2.276939153671264648e-01,-9.523197263479232788e-02,-1.000579595565795898e-01,6.870812177658081055e-01,-4.162587523460388184e-01,-3.307391107082366943e-01,-9.609529376029968262e-02,-1.839303225278854370e-02,-1.529816538095474243e-01,-9.976056963205337524e-02,8.306617289781570435e-02,2.621893584728240967e-01,5.518764853477478027e-01,4.873523414134979248e-01,3.073343634605407715e-01,-2.403595149517059326e-01,1.930433064699172974e-01,7.577499747276306152e-02,3.010667562484741211e-01,-1.806120574474334717e-01,8.433539420366287231e-02,-5.891897901892662048e-02,-2.120362371206283569e-01,2.958769798278808594e-01,-9.942506253719329834e-02,5.177052617073059082e-01,2.623842358589172363e-01,-1.572218090295791626e-01,-7.250466942787170410e-02,4.069045931100845337e-02,-4.379710257053375244e-01,2.972467541694641113e-01,2.149680405855178833e-01,-1.228517517447471619e-01,-7.837688177824020386e-02,-5.286851897835731506e-02,-1.212145313620567322e-01,4.100812077522277832e-01,-2.120793908834457397e-01,2.021128125488758087e-02,-3.105578571557998657e-02,4.782667756080627441e-01,-9.829630702733993530e-02,-1.567448675632476807e-01,4.629232883453369141e-01
2.548046223819255829e-02,2.136912494897842407e-01,1.747660525143146515e-02,4.615611210465431213e-02,-5.908763036131858826e-02,5.961966887116432190e-02,1.079177930951118469e-01,1.783221662044525146e-01,1.318015996366739273e-02,7.350478321313858032e-02,6.188437715172767639e-02,-2.858374640345573425e-02,-1.001387834548950195e-01,-3.312462195754051208e-02,-7.956171035766601562e-02,3.187023848295211792e-02,1.072842106223106384e-01,-6.068439781665802002e-02,1.625272259116172791e-02,3.128563240170478821e-02,1.012454777956008911e-01,7.036500424146652222e-02,9.197167120873928070e-03,2.184408530592918396e-02,-4.238830879330635071e-02,-2.594891376793384552e-02,-4.014248028397560120e-02,-1.126164421439170837e-01,3.995826467871665955e-02,2.815275080502033234e-02,-4.780219122767448425e-02,-8.227178454399108887e-02,9.000394493341445923e-02,-1.035102456808090210e-01,-3.221375495195388794e-02,-6.400531530380249023e-02,7.299415767192840576e-02,6.398911774158477783e-02,-6.248879060149192810e-02,-6.700324267148971558e-02,-6.119141355156898499e-02,-6.653927266597747803e-02,5.348566174507141113e-02,2.852248772978782654e-02,-1.798614412546157837e-01,1.423893123865127563e-01,-9.356368100270628929e-04,-3.223462030291557312e-02,1.488794535398483276e-01,6.516697257757186890e-02,7.362227141857147217e-02,-2.125399373471736908e-02,-5.287447944283485413e-02,8.841497451066970825e-02,-1.640839725732803345e-01,-2.810701169073581696e-02,-1.250464916229248047e-01,-1.902087330818176270e-01,-1.480467058718204498e-02,2.852224744856357574e-02,-1.460146531462669373e-02,-2.239266932010650635e-01,5.052331089973449707e-02,3.038825653493404388e-02,4.573895037174224854e-02,7.644963264465332031e-02,-6.395022571086883545e-02,2.764720655977725983e-02,3.167165443301200867e-02,1.141120493412017822e-01,-2.268109917640686035e-01,7.147205621004104614e-02,1.284809112548828125e-01,-1.589111983776092529e-01,-7.872245460748672485e-02,7.601989060640335083e-02,9.176404774188995361e-02,6.792279332876205444e-02,7.933853566646575928e-02,1.012742370367050171e-01,-4.188290238380432129e-02,1.833560764789581299e-01,-3.275480121374130249e-02,-1.867665201425552368e-01,-1.267937123775482178e-01,-4.111404344439506531e-02,-5.651381984353065491e-02,1.953467726707458496e-03,9.939726442098617554e-02,2.067500054836273193e-01,-1.734002381563186646e-01,4.583693295717239380e-02,-5.879079923033714294e-02,-7.424785196781158447e-02,-1.147980690002441406e-01,-5.311498418450355530e-03,-5.132053792476654053e-02,-1.952189952135086060e-01,-6.891510635614395142e-02,-1.001615822315216064e-01,-5.217244848608970642e-02,-9.460111707448959351e-02,-1.295128464698791504e-01,-6.453712936490774155e-03,1.652753353118896484e-01,-6.513062864542007446e-02,-1.148603782057762146e-01,-8.738664910197257996e-03,-4.425767064094543457e-02,-6.082206964492797852e-02,1.218043491244316101e-01,-3.262753132730722427e-03,-4.113209620118141174e-02,-3.408410400152206421e-02,-8.208204805850982666e-02,-2.535087764263153076e-01,1.008363515138626099e-01,-8.583266288042068481e-02,5.004025623202323914e-02,1.391883194446563721e-01,-6.785956025123596191e-02,-6.621646881103515625e-02,2.348247729241847992e-02,5.682578310370445251e-02,-5.750707536935806274e-02,-1.508984901010990143e-02,-6.413254886865615845e-02,4.503558203577995300e-02,-8.844476193189620972e-02,-2.701643668115139008e-02,1.063394360244274139e-02,1.537114977836608887e-01,-5.872241407632827759e-02,-1.947258710861206055e-01,4.569602012634277344e-02,-1.217632181942462921e-02,-6.145637482404708862e-03,-6.798225641250610352e-02,4.413878172636032104e-02,3.048382140696048737e-02,-5.173919349908828735e-02,-3.554931143298745155e-03,-2.032424807548522949e-01,1.893605440855026245e-01,1.965836137533187866e-01,-2.672498114407062531e-02,-1.113671716302633286e-02,-5.705237016081809998e-02,-3.036354668438434601e-02,-1.306280791759490967e-01,1.023200005292892456e-01,-2.937105484306812286e-02,-7.526230812072753906e-02,1.577018648386001587e-01,-9.040417522192001343e-02,-1.946668773889541626e-01,-4.491685330867767334e-02,1.516297757625579834e-01,7.873413711786270142e-02,-5.230859667062759399e-02,-1.717672348022460938e-01,-3.391050919890403748e-02,-1.189012080430984497e-01,2.708353847265243530e-02,-1.772238463163375854e-01,1.484981924295425415e-02,-2.921024858951568604e-01,4.170446842908859253e-02,-1.145312935113906860e-01,2.292396128177642822e-02,-3.188098594546318054e-02,1.447230577468872070e-01,1.395343150943517685e-02,-4.566623643040657043e-02,-1.176114752888679504e-01,-1.360339522361755371e-01,-2.121058404445648193e-01,4.072097688913345337e-02,6.883755326271057129e-03,4.925529658794403076e-02,-3.745085746049880981e-02,-1.561671681702136993e-02,-1.469131261110305786e-01,2.085254341363906860e-01,1.760356500744819641e-02,-4.884616285562515259e-02,7.665482163429260254e-02,1.198060661554336548e-01,6.433280557394027710e-02,-1.016741394996643066e-01,1.175438165664672852e-01,5.017276853322982788e-02,1.217122524976730347e-01,-9.577559679746627808e-02,1.147156134247779846e-01,-5.490497499704360962e-02,8.992525190114974976e-02,1.417095661163330078e-01,5.937312170863151550e-02,1.082586357370018959e-03
-1.632090806961059570e-01,-7.344552874565124512e-02,4.929432272911071777e-02,5.430309101939201355e-02,-3.271421790122985840e-02,-1.748745739459991455e-01,-9.900162927806377411e-03,-1.209470853209495544e-01,5.047247931361198425e-02,-6.080173328518867493e-02,-1.152017191052436829e-01,9.409283101558685303e-02,-1.142914742231369019e-01,-1.049474924802780151e-01,-1.396371126174926758e-01,1.322336792945861816e-01,-8.284433931112289429e-02,1.503702849149703979e-01,5.871801078319549561e-02,5.916454270482063293e-02,4.808784276247024536e-02,-1.783385574817657471e-01,2.473801374435424805e-02,1.364714652299880981e-01,-1.255947798490524292e-01,-1.326629072427749634e-01,1.033704504370689392e-01,2.556226216256618500e-02,-6.283733993768692017e-02,-6.238501146435737610e-02,-6.588874012231826782e-02,-4.187695682048797607e-02,-7.534791715443134308e-03,4.582558199763298035e-02,-2.098206430673599243e-03,3.856043890118598938e-02,5.685269832611083984e-02,-5.840561911463737488e-02,1.069995015859603882e-01,-7.906839251518249512e-02,8.552706241607666016e-02,-1.057610660791397095e-01,-7.974827289581298828e-02,1.956366747617721558e-02,7.984216511249542236e-02,1.472472958266735077e-02,6.357144564390182495e-02,3.724099323153495789e-02,-1.297110468149185181e-01,8.664365112781524658e-02,4.922487959265708923e-02,-7.828326523303985596e-02,-2.519383467733860016e-02,-6.636129319667816162e-02,1.081986129283905029e-01,-6.725631654262542725e-02,1.277352720499038696e-01,-7.224889844655990601e-02,-1.893867999315261841e-01,-2.868200652301311493e-02,-1.675752848386764526e-01,6.633614189922809601e-03,8.794388175010681152e-02,-3.966062143445014954e-02,2.530523575842380524e-02,-4.775574430823326111e-02,1.067266911268234253e-01,-7.539644092321395874e-02,-5.809910595417022705e-02,7.669843733310699463e-02,8.207450807094573975e-02,-9.463675320148468018e-02,1.226545125246047974e-02,-1.381490379571914673e-02,-1.223778352141380310e-01,1.456228643655776978e-02,2.864583022892475128e-02,8.381818979978561401e-02,-6.755226850509643555e-02,-6.699419766664505005e-02,-2.155743241310119629e-01,6.485103815793991089e-02,5.296622216701507568e-02,-1.329747736454010010e-01,6.944046914577484131e-02,4.082281887531280518e-02,-1.853859797120094299e-02,-2.022709697484970093e-02,1.123533248901367188e-01,7.191555202007293701e-02,2.520819939672946930e-02,-2.161736041307449341e-01,4.390705749392509460e-02,-4.431419074535369873e-02,9.794625639915466309e-02,-2.067857794463634491e-02,-1.366283595561981201e-01,4.028534889221191406e-02,3.733048215508460999e-02,-7.910017669200897217e-02,1.166499219834804535e-02,-1.428000181913375854e-01,2.862315997481346130e-02,-2.418789546936750412e-03,-1.360289007425308228e-01,-4.277023300528526306e-02,6.807224452495574951e-02,-3.469174355268478394e-02,3.708159551024436951e-02,-1.691872030496597290e-01,1.684447526931762695e-01,-3.835111623629927635e-03,-2.313183248043060303e-02,5.520147085189819336e-02,-1.478594094514846802e-01,-5.704763159155845642e-02,8.819881826639175415e-03,-1.193510089069604874e-02,1.676970124244689941e-01,-1.216673702001571655e-01,1.138055846095085144e-01,-1.019052937626838684e-01,-1.476780921220779419e-01,-1.219747513532638550e-01,2.503960207104682922e-02,9.737218916416168213e-02,3.607234731316566467e-02,1.477779541164636612e-02,-3.447817638516426086e-02,-8.107012510299682617e-02,-9.347519278526306152e-02,5.812884122133255005e-02,7.930867373943328857e-02,-8.987774699926376343e-02,-1.634356938302516937e-02,-3.922957926988601685e-02,1.476236730813980103e-01,6.234365701675415039e-02,8.343148231506347656e-02,5.994310602545738220e-02,1.318975538015365601e-01,-5.418477579951286316e-03,7.292628753930330276e-03,2.629111288115382195e-03,-1.138299182057380676e-01,-1.559646129608154297e-01,6.533472239971160889e-02,-1.077376957982778549e-02,6.459615658968687057e-03,-1.153032258152961731e-01,-1.345933824777603149e-01,2.168752625584602356e-02,3.940081968903541565e-02,1.123679429292678833e-02,2.082447856664657593e-01,8.994417637586593628e-02,-2.209872007369995117e-01,6.014559790492057800e-02,3.537302091717720032e-02,-8.751266449689865112e-02,-3.027341514825820923e-02,-4.309701267629861832e-03,-2.237664908170700073e-02,-1.239135395735502243e-02,6.059494242072105408e-02,-2.205478250980377197e-01,-9.665276110172271729e-02,-9.610661864280700684e-02,1.781163737177848816e-03,-1.015384048223495483e-01,-5.431495606899261475e-02,-5.738981999456882477e-03,3.396182088181376457e-03,2.036099135875701904e-02,3.593238769099116325e-03,-2.690182998776435852e-02,-2.719792127609252930e-01,4.680972546339035034e-02,4.634347930550575256e-02,-1.269385665655136108e-01,-1.014153137803077698e-01,-2.030823826789855957e-01,-1.666725128889083862e-01,-9.678623825311660767e-02,-8.789157122373580933e-02,2.542665228247642517e-02,-5.000765994191169739e-02,-3.410205245018005371e-03,1.241395343095064163e-02,4.398537427186965942e-02,-9.804361313581466675e-02,-2.488136440515518188e-01,2.395219169557094574e-02,1.875352929346263409e-03,2.004106156527996063e-02,-5.856371484696865082e-03,-9.740491956472396851e-02,-5.710351467132568359e-02,-3.669505938887596130e-02,-1.496373116970062256e-01
1.466930806636810303e-01,2.246609926223754883e-01,-3.493023291230201721e-02,1.929747313261032104e-02,-1.031811162829399109e-01,-7.380057871341705322e-02,1.019360646605491638e-01,-4.871455579996109009e-02,-1.879009306430816650e-01,7.074236869812011719e-02,9.918114542961120605e-02,-1.164092123508453369e-01,3.707682341337203979e-02,-1.917885541915893555e-01,-2.144573032855987549e-01,3.843023255467414856e-02,1.158123612403869629e-01,3.741760551929473877e-02,1.766704916954040527e-01,-5.853120982646942139e-02,-7.448878884315490723e-02,4.945578519254922867e-03,3.623879328370094299e-02,6.129975989460945129e-02,1.355574876070022583e-01,1.284522116184234619e-01,-1.797131896018981934e-01,7.180019468069076538e-02,1.256485283374786377e-02,-1.004430055618286133e-01,1.576642990112304688e-01,-1.520768646150827408e-02,1.616248190402984619e-01,-2.307251840829849243e-02,1.282017529010772705e-01,8.884234726428985596e-02,3.144038096070289612e-02,1.538016796112060547e-01,-1.993847265839576721e-02,-2.024528682231903076e-01,-1.238741055130958557e-01,-4.435031861066818237e-02,2.174853384494781494e-01,6.236662156879901886e-03,1.404202133417129517e-01,-1.589117497205734253e-01,4.542737454175949097e-02,-1.558542400598526001e-01,1.772919446229934692e-01,-5.213621258735656738e-02,-1.445414684712886810e-02,7.950673997402191162e-02,-5.573730543255805969e-02,-1.960527449846267700e-01,-1.961334235966205597e-02,-1.064011156558990479e-01,-6.605880334973335266e-03,-1.057791933417320251e-01,-1.166710630059242249e-02,-9.806153923273086548e-02,9.852150827646255493e-02,-4.622685909271240234e-02,-9.049766510725021362e-02,-7.147482037544250488e-02,7.876444607973098755e-02,-3.198594972491264343e-02,1.334278099238872528e-02,-4.439077153801918030e-02,7.819118350744247437e-02,-2.140197902917861938e-01,7.356803119182586670e-02,-2.915789606049656868e-03,4.725607857108116150e-02,-5.156403407454490662e-02,1.580710709095001221e-01,-2.531498856842517853e-02,-9.402403980493545532e-02,1.640277802944183350e-01,-1.648345738649368286e-01,1.476032137870788574e-01,9.128465899266302586e-04,1.157235652208328247e-01,-5.456769838929176331e-02,1.203667595982551575e-01,1.179995313286781311e-01,3.372975066304206848e-02,-1.001997068524360657e-01,5.909045040607452393e-02,-1.235668174922466278e-02,6.831991672515869141e-02,3.204579697921872139e-03,4.569073673337697983e-03,4.385383427143096924e-02,-3.559700399637222290e-02,-2.238329797983169556e-01,1.135675609111785889e-01,-5.711298435926437378e-02,2.864426933228969574e-02,1.429587304592132568e-01,2.672849595546722412e-02,-6.061356514692306519e-02,3.871993348002433777e-02,-1.653115302324295044e-01,3.371291980147361755e-02,-2.491548284888267517e-02,5.343514680862426758e-02,1.167864426970481873e-01,-6.678626686334609985e-02,-4.679391160607337952e-03,-3.208714071661233902e-03,2.866959385573863983e-02,-1.509318351745605469e-01,-3.336890414357185364e-02,8.171071857213973999e-02,-4.731912538409233093e-02,1.209997758269309998e-02,-1.630403399467468262e-01,-8.401280641555786133e-02,-5.305156111717224121e-02,1.812442541122436523e-01,-6.767844408750534058e-02,1.464654058218002319e-01,5.606017261743545532e-02,-8.052803575992584229e-02,5.079191550612449646e-02,-3.823193907737731934e-02,3.881074115633964539e-02,-1.620950996875762939e-01,3.486096113920211792e-02,-5.675240606069564819e-02,6.485524773597717285e-02,-3.398773968219757080e-01,8.086773753166198730e-02,-2.265499345958232880e-02,1.663553863763809204e-01,-9.426660835742950439e-03,7.648970186710357666e-02,4.356659948825836182e-02,6.100934743881225586e-02,-8.438945561647415161e-02,-3.386127762496471405e-03,-4.878520849160850048e-04,1.163109466433525085e-01,-1.358171645551919937e-02,2.900815010070800781e-01,5.346871167421340942e-02,1.358366757631301880e-01,-3.311008960008621216e-02,-1.477150022983551025e-01,-6.791356205940246582e-02,1.115650311112403870e-01,3.624486625194549561e-01,-6.018211320042610168e-02,5.142840743064880371e-02,7.632477581501007080e-02,1.134283840656280518e-01,1.973495446145534515e-02,-1.008083447813987732e-01,1.380284689366817474e-02,-2.766674757003784180e-01,1.786299794912338257e-01,4.114286229014396667e-02,8.721356838941574097e-02,6.339331716299057007e-02,3.465141654014587402e-01,-1.478684842586517334e-01,-2.912134528160095215e-01,-4.056213051080703735e-02,-1.304161846637725830e-01,9.952585399150848389e-02,7.253156509250402451e-03,2.718745470046997070e-01,1.587851941585540771e-01,4.535402730107307434e-02,8.445721864700317383e-02,1.084359809756278992e-01,-1.327902525663375854e-01,-5.408070236444473267e-02,-3.697443380951881409e-02,4.324348270893096924e-02,-1.241184398531913757e-01,-2.180565148591995239e-03,3.253919770941138268e-03,6.160304695367813110e-02,-7.067130506038665771e-02,-1.118157282471656799e-01,8.998432196676731110e-03,2.799205295741558075e-02,-8.015181124210357666e-02,3.344443067908287048e-02,-2.141500264406204224e-01,6.592907011508941650e-02,5.378991365432739258e-02,7.005724310874938965e-02,-2.009895145893096924e-01,1.675965785980224609e-01,1.227218359708786011e-01,-1.092274338006973267e-01,-1.066291145980358124e-02,-1.221565082669258118e-01
1.012737080454826355e-01,-6.850143522024154663e-02,-1.079345270991325378e-01,-2.787006497383117676e-01,2.292186170816421509e-01,1.403030753135681152e-01,-7.976986467838287354e-02,-1.802857667207717896e-01,-1.321118921041488647e-01,-2.243011444807052612e-01,1.557704806327819824e-01,2.727253735065460205e-01,3.279973194003105164e-02,-1.392136514186859131e-01,-1.273420751094818115e-01,-2.325682044029235840e-01,2.310602813959121704e-01,2.266165167093276978e-01,1.629652231931686401e-01,-1.626497954130172729e-01,-3.717457652091979980e-01,2.258626073598861694e-01,-1.544652730226516724e-01,1.769978255033493042e-01,-1.744742095470428467e-01,4.377398267388343811e-02,-8.244737237691879272e-02,-1.729347109794616699e-01,-3.593563139438629150e-01,1.233908981084823608e-01,2.225177437067031860e-01,-1.003077253699302673e-01,1.709581613540649414e-01,3.658086061477661133e-01,2.839578986167907715e-01,2.664694488048553467e-01,-1.491877138614654541e-01,-2.761784791946411133e-01,2.844412624835968018e-01,-6.892739236354827881e-02,7.567443698644638062e-02,7.332213222980499268e-02,-1.463300287723541260e-01,-3.774954974651336670e-01,2.415394037961959839e-01,2.246492952108383179e-01,2.634338848292827606e-02,2.715744376182556152e-01,-4.066746830940246582e-01,2.839932441711425781e-01,1.025975421071052551e-01,-2.604029374197125435e-03,8.855290710926055908e-02,2.636240981519222260e-02,-3.721363842487335205e-01,2.196824550628662109e-01,4.545113146305084229e-01,1.631943285465240479e-01,-2.758181393146514893e-01,2.199750393629074097e-01,1.175959687680006027e-02,-1.900700270198285580e-03,2.293972373008728027e-01,-3.327372670173645020e-01,-2.417705655097961426e-01,-3.948377445340156555e-02,4.373393487185239792e-03,1.847491711378097534e-01,3.037094473838806152e-01,-5.129162967205047607e-02,4.390474408864974976e-02,-2.778879366815090179e-02,-6.594499200582504272e-02,-4.963537752628326416e-01,3.548637032508850098e-02,-6.082980707287788391e-02,-2.972565591335296631e-01,1.127606183290481567e-01,1.830528378486633301e-01,-1.573392301797866821e-01,2.853911556303501129e-02,-8.173084259033203125e-02,2.671901583671569824e-01,1.980208158493041992e-01,1.725048273801803589e-01,3.796579688787460327e-02,3.295777142047882080e-01,2.298996299505233765e-01,1.990410238504409790e-01,1.197610273957252502e-01,1.736484020948410034e-01,3.362096846103668213e-02,3.151898682117462158e-01,1.657061278820037842e-01,2.441296167671680450e-02,8.068215101957321167e-02,1.712695322930812836e-02,5.365820135921239853e-03,-3.691919893026351929e-02,1.016366630792617798e-01,3.118728995323181152e-01,4.331129416823387146e-02,2.442272379994392395e-02,2.478665858507156372e-01,7.000502198934555054e-02,-2.105706036090850830e-01,2.223471105098724365e-01,5.422781407833099365e-02,-1.647908799350261688e-02,1.429345756769180298e-01,1.920413672924041748e-01,1.410611122846603394e-01,9.735005907714366913e-03,-2.470232993364334106e-01,-7.225641608238220215e-02,3.069869987666606903e-02,2.949979603290557861e-01,-3.208648264408111572e-01,-3.330566287040710449e-01,-1.592526882886886597e-01,5.634659156203269958e-02,8.508500456809997559e-02,5.612182244658470154e-02,-3.355177342891693115e-01,-5.252608656883239746e-01,1.949066072702407837e-01,-1.346185803413391113e-01,3.772682547569274902e-01,1.052305325865745544e-01,4.901776090264320374e-02,-4.506883025169372559e-01,-1.762763038277626038e-02,-3.549526333808898926e-01,-4.435511305928230286e-02,-9.329534322023391724e-02,1.566915400326251984e-02,2.955296949949115515e-04,3.516556024551391602e-01,3.258354067802429199e-01,9.148920327425003052e-02,2.824496924877166748e-01,2.365386188030242920e-01,1.361517161130905151e-01,2.996902465820312500e-01,1.693175546824932098e-02,1.725006252527236938e-01,-2.642632722854614258e-01,2.254237830638885498e-01,-3.085963241755962372e-02,3.165621161460876465e-01,-1.018563359975814819e-01,2.228990010917186737e-02,1.372259259223937988e-01,7.878223061561584473e-02,1.148007884621620178e-01,7.268490642309188843e-02,1.837004125118255615e-01,7.701656781136989594e-03,-3.686554729938507080e-01,3.214444592595100403e-02,1.493505537509918213e-01,1.060662441886961460e-03,2.807212062180042267e-03,-7.176724821329116821e-02,2.704190649092197418e-02,1.118100434541702271e-01,-9.104026854038238525e-02,-3.740442097187042236e-01,-2.484223097562789917e-01,-2.914386987686157227e-01,3.137809038162231445e-01,-1.142366304993629456e-01,-8.587103337049484253e-02,1.141982227563858032e-01,2.718447148799896240e-01,-5.220203846693038940e-02,-2.145015448331832886e-01,1.810012012720108032e-01,-1.716298907995223999e-01,-2.668978571891784668e-01,-3.596106171607971191e-01,-2.024457007646560669e-01,4.567372053861618042e-02,-8.033475279808044434e-02,3.511012792587280273e-01,2.914307639002799988e-02,-2.183738201856613159e-01,2.150509506464004517e-01,-3.092974051833152771e-02,-4.932603240013122559e-02,5.594110116362571716e-02,-7.229466736316680908e-02,-1.117072850465774536e-01,2.687526345252990723e-01,-2.032232433557510376e-01,-1.254110597074031830e-02,-1.079631894826889038e-01,3.943223878741264343e-02,2.216743826866149902e-01,-4.341149926185607910e-01
1.685533225536346436e-01,1.033602878451347351e-01,-1.519452035427093506e-01,-2.079440653324127197e-01,-7.394661754369735718e-02,-5.548214539885520935e-02,-1.196837425231933594e-01,-5.649940669536590576e-02,-2.318261265754699707e-01,-2.047996968030929565e-01,-4.502801597118377686e-02,5.538253858685493469e-02,3.814949467778205872e-02,-2.834678813815116882e-02,-6.136672943830490112e-02,-9.545611217617988586e-03,-2.626955509185791016e-01,-1.224114894866943359e-01,5.338404327630996704e-03,3.865852206945419312e-02,-2.571723796427249908e-02,-5.654375255107879639e-02,-8.389598131179809570e-02,1.244855448603630066e-01,1.183192357420921326e-01,2.449764870107173920e-02,1.383210718631744385e-01,-3.911498188972473145e-01,7.203090190887451172e-02,-1.141669452190399170e-01,3.828779980540275574e-02,-1.417079102247953415e-02,-9.283749014139175415e-02,-1.279470920562744141e-01,1.580054499208927155e-02,1.069692522287368774e-01,-3.762663528323173523e-02,-3.116163983941078186e-02,-2.222643420100212097e-02,-2.741608023643493652e-01,4.123904742300510406e-03,-1.032242104411125183e-01,-6.430245935916900635e-02,-1.793247908353805542e-01,3.398956358432769775e-02,6.156376376748085022e-02,1.855561584234237671e-01,-1.465242803096771240e-01,6.116595864295959473e-02,-4.953429452143609524e-04,-1.152235046029090881e-01,-4.467154294252395630e-02,-1.892351955175399780e-01,2.454620320349931717e-03,-4.641930386424064636e-02,-2.374275401234626770e-02,-1.339484304189682007e-01,1.035576835274696350e-01,-3.331029713153839111e-01,-1.970715820789337158e-02,-7.813998498022556305e-03,1.012982279062271118e-01,-3.058303520083427429e-02,-1.103643104434013367e-01,-4.085973836481571198e-03,1.097942795604467392e-02,6.725538522005081177e-02,-6.302086263895034790e-02,4.059894010424613953e-02,6.645931303501129150e-02,1.827385127544403076e-01,-7.905731350183486938e-02,8.547324687242507935e-02,1.048612669110298157e-01,1.185236722230911255e-01,-8.742993324995040894e-02,-2.910539805889129639e-01,-5.937580019235610962e-02,-4.246493056416511536e-02,-8.910872042179107666e-02,-5.312335561029613018e-04,-3.798345476388931274e-02,-1.201683431863784790e-01,1.155168786644935608e-01,-9.725734591484069824e-02,-1.101991683244705200e-01,1.264005750417709351e-01,1.490294560790061951e-02,1.543510258197784424e-01,-4.624279215931892395e-02,5.342286080121994019e-02,-1.735029518604278564e-01,1.392257660627365112e-01,1.091311722993850708e-01,1.847969889640808105e-01,-7.151889055967330933e-02,-2.185574024915695190e-01,1.612599566578865051e-02,-5.163577198982238770e-02,-5.826236680150032043e-02,1.012295037508010864e-01,9.807922691106796265e-02,6.822885572910308838e-02,-2.030235379934310913e-01,3.035169467329978943e-02,-2.356335222721099854e-01,-8.246882935054600239e-04,-4.078349098563194275e-02,-9.325412660837173462e-02,-5.040058121085166931e-02,1.074958145618438721e-01,1.354877352714538574e-01,-3.392889499664306641e-01,-9.568989276885986328e-02,-2.104081809520721436e-01,3.874057903885841370e-02,6.121477112174034119e-02,-1.236188188195228577e-01,4.025147110223770142e-02,-2.703813612461090088e-01,-9.386770427227020264e-02,-5.057309940457344055e-02,-9.223232627846300602e-04,-1.438998728990554810e-01,1.016209796071052551e-01,4.227219894528388977e-02,6.238663569092750549e-03,-1.383467614650726318e-01,5.585169792175292969e-02,-8.512510359287261963e-02,-1.370724886655807495e-01,-1.353041231632232666e-01,-4.881722107529640198e-02,4.393584281206130981e-02,1.307841949164867401e-02,-1.620168536901473999e-01,1.759619452059268951e-02,-9.416882693767547607e-02,-6.253597140312194824e-02,-9.634840488433837891e-02,1.380615234375000000e-01,5.979387834668159485e-02,1.803883463144302368e-01,-8.634123951196670532e-03,7.277879118919372559e-02,5.829345062375068665e-02,6.169770285487174988e-02,-2.029176205396652222e-01,2.240380458533763885e-02,-3.059224225580692291e-02,-1.550841033458709717e-01,-1.068467050790786743e-01,-1.228540763258934021e-02,1.032048538327217102e-01,1.012612432241439819e-01,-4.349629208445549011e-02,-9.158632159233093262e-02,-4.379826039075851440e-02,-1.019471287727355957e-01,5.172081664204597473e-02,7.722041755914688110e-02,7.059376686811447144e-02,4.322817921638488770e-02,-5.268695577979087830e-02,-2.593751251697540283e-01,-1.535806208848953247e-01,3.442146256566047668e-02,-5.056581273674964905e-02,-4.390454292297363281e-02,-8.198123425245285034e-03,-4.454365000128746033e-02,-1.609105989336967468e-02,1.615829467773437500e-01,-7.833625376224517822e-02,1.527592688798904419e-01,5.307664396241307259e-04,-2.148112207651138306e-01,-1.324426680803298950e-01,-7.719096262007951736e-03,-1.113267019391059875e-01,-9.903822094202041626e-02,1.009296718984842300e-02,3.369481861591339111e-02,9.040438383817672729e-02,-1.319859176874160767e-01,1.694884002208709717e-01,-1.393271535634994507e-01,-2.308315485715866089e-01,2.818587422370910645e-02,7.717619091272354126e-02,8.927552402019500732e-02,-2.359677851200103760e-02,-5.716306716203689575e-02,1.411563903093338013e-01,-6.296500563621520996e-02,7.170880585908889771e-02,9.006613492965698242e-02,-2.812853157520294189e-01,-1.162670850753784180e-01,-7.121366262435913086e-02
-1.468554511666297913e-02,-1.219545230269432068e-01,1.808111220598220825e-01,6.506178528070449829e-02,3.299651667475700378e-02,-1.136528253555297852e-01,-2.291459888219833374e-01,5.261491984128952026e-02,-7.908337563276290894e-02,2.028380781412124634e-01,-1.504518240690231323e-01,-2.366077341139316559e-02,9.950803965330123901e-02,-3.435221314430236816e-01,-4.068063572049140930e-02,4.030384123325347900e-02,9.844531118869781494e-02,-2.838272042572498322e-02,9.369164705276489258e-02,8.898872882127761841e-02,2.420324087142944336e-02,2.222523093223571777e-02,2.450713142752647400e-02,-3.768056631088256836e-02,-9.359693527221679688e-02,6.618093699216842651e-02,-1.902396604418754578e-02,4.205781966447830200e-02,3.523542359471321106e-02,-8.000810444355010986e-02,-9.062687307596206665e-02,-1.708376705646514893e-01,-6.871253997087478638e-02,-2.683134190738201141e-02,5.412036925554275513e-02,1.881959885358810425e-01,-1.441417038440704346e-01,-4.466356709599494934e-02,7.988547533750534058e-02,-1.471815854310989380e-01,-7.885338366031646729e-02,-9.383440017700195312e-03,-6.893602758646011353e-02,-8.940859138965606689e-02,6.090004369616508484e-02,-6.478555500507354736e-02,-3.105124235153198242e-01,3.099431842565536499e-02,-4.089451953768730164e-02,-2.251152321696281433e-02,-8.387670665979385376e-02,-1.965480297803878784e-01,-2.276594191789627075e-02,-6.009210273623466492e-02,-1.170989032834768295e-02,-2.244194224476814270e-02,-7.319391239434480667e-03,-1.093524768948554993e-01,-5.071734637022018433e-02,1.536282012239098549e-03,2.064370363950729370e-02,6.575985252857208252e-02,1.797780543565750122e-01,-3.141687437891960144e-02,-6.680848449468612671e-02,1.591144949197769165e-01,1.081417426466941833e-01,-1.716982945799827576e-02,-1.256346106529235840e-01,-1.206823252141475677e-02,-1.124734580516815186e-01,5.531822144985198975e-02,9.938519448041915894e-02,-8.497528731822967529e-02,-1.631598919630050659e-02,-2.244338840246200562e-01,-1.887203305959701538e-01,8.002216927707195282e-03,2.322692424058914185e-01,-6.833453476428985596e-02,-1.055242419242858887e-01,6.880824267864227295e-02,-1.127227917313575745e-01,7.001153379678726196e-02,-1.786722093820571899e-01,6.407448090612888336e-03,1.356551498174667358e-01,-2.080505341291427612e-02,5.431986972689628601e-02,-7.384959608316421509e-03,-3.239198413211852312e-04,7.274910807609558105e-02,-1.170912683010101318e-01,-5.747113004326820374e-02,8.652807772159576416e-02,1.210029348731040955e-01,6.689662486314773560e-02,7.925561815500259399e-02,-4.729530215263366699e-02,-1.245503723621368408e-01,-6.414127349853515625e-02,1.745492368936538696e-01,6.197080761194229126e-02,4.556884616613388062e-02,-8.961322158575057983e-02,2.057763040065765381e-01,-2.993807792663574219e-01,-7.060225307941436768e-02,-1.186979748308658600e-02,-9.205091919284313917e-05,-8.738528192043304443e-02,1.525990962982177734e-01,-1.005724966526031494e-01,3.245918452739715576e-02,-2.135443985462188721e-01,1.524320542812347412e-01,-2.452823333442211151e-02,9.080816805362701416e-02,5.900032818317413330e-02,-6.229670345783233643e-02,4.688504338264465332e-02,-1.623027026653289795e-01,5.278523266315460205e-02,-1.235212236642837524e-01,7.010193169116973877e-02,5.976599454879760742e-02,-1.102774292230606079e-01,1.163888946175575256e-01,-7.137506734579801559e-03,9.717229753732681274e-02,7.539752870798110962e-03,-5.713755637407302856e-02,9.025292843580245972e-02,1.351322084665298462e-01,-6.556613743305206299e-02,1.713614016771316528e-01,-1.578525304794311523e-01,-5.900161713361740112e-02,-1.397101953625679016e-02,6.531433761119842529e-02,-7.903051376342773438e-02,-6.073773838579654694e-03,-1.004457995295524597e-01,1.539776623249053955e-01,2.521759830415248871e-02,6.585132330656051636e-02,2.348212599754333496e-01,7.899307459592819214e-02,5.900824442505836487e-02,1.357894577085971832e-02,-1.196471080183982849e-01,-7.529743760824203491e-02,-1.376856118440628052e-01,-2.284513041377067566e-02,-2.191708236932754517e-01,-9.687582403421401978e-02,-8.649358153343200684e-02,1.289255470037460327e-01,5.060349032282829285e-02,2.191904038190841675e-01,-8.647345751523971558e-02,-2.622080966830253601e-02,-5.861483886837959290e-02,-5.162666365504264832e-02,5.730597302317619324e-03,2.029981650412082672e-02,1.630942970514297485e-01,5.680447444319725037e-02,1.212983131408691406e-01,-6.215313076972961426e-02,1.447143703699111938e-01,-9.301411360502243042e-02,-7.500945776700973511e-02,1.505639702081680298e-01,-1.261217594146728516e-01,9.887628257274627686e-02,-1.074128895998001099e-01,1.319201141595840454e-01,1.009764969348907471e-01,3.245515003800392151e-02,1.665585786104202271e-01,-5.452100886031985283e-04,3.467384725809097290e-02,1.641021519899368286e-01,-1.744852215051651001e-02,-1.709586381912231445e-02,-1.620372980833053589e-01,-5.149034783244132996e-02,-5.000909417867660522e-02,5.817841738462448120e-02,6.663460284471511841e-02,-1.260138750076293945e-01,-1.288824975490570068e-01,-1.117969602346420288e-01,5.109897255897521973e-02,-5.037801340222358704e-02,7.563903182744979858e-02,-6.493492424488067627e-02,1.306708008050918579e-01,1.238440796732902527e-01
4.038180038332939148e-02,4.125016182661056519e-02,-4.545978456735610962e-02,9.604679793119430542e-02,5.997912585735321045e-02,-5.831595882773399353e-02,9.398372843861579895e-03,2.700064703822135925e-02,-1.238262932747602463e-02,-3.713136771693825722e-03,1.022959277033805847e-01,-1.685296930372714996e-02,1.114436984062194824e-01,-3.520270437002182007e-02,-1.087205708026885986e-01,6.795963738113641739e-03,5.006730929017066956e-02,1.571848094463348389e-01,-9.183001518249511719e-02,-3.705084696412086487e-02,-1.661092229187488556e-02,1.280288100242614746e-01,-1.038026213645935059e-01,-1.340362131595611572e-01,1.513457205146551132e-02,-7.152565568685531616e-02,-2.292465269565582275e-01,4.247183352708816528e-02,8.803749829530715942e-02,5.623819306492805481e-02,-8.468585461378097534e-02,-2.367947483435273170e-03,-1.497206389904022217e-01,1.086837798357009888e-01,-1.166650652885437012e-01,-1.985385268926620483e-01,4.586815461516380310e-02,-1.820343732833862305e-01,8.008920401334762573e-02,-3.936172649264335632e-02,-2.755283713340759277e-01,1.804036647081375122e-02,1.991326548159122467e-02,9.350703656673431396e-02,-1.682064384222030640e-01,-5.983074381947517395e-02,-1.029887273907661438e-01,2.039953833445906639e-03,5.068003758788108826e-02,6.480935961008071899e-02,-1.028960943222045898e-01,-2.704481407999992371e-02,-2.873328886926174164e-02,-3.525707125663757324e-02,-9.509355574846267700e-02,1.518057584762573242e-01,-6.625929474830627441e-02,-6.180411204695701599e-02,-6.096200644969940186e-02,3.474888857454061508e-03,-6.123760342597961426e-02,5.229236930608749390e-02,4.993260651826858521e-02,1.239151731133460999e-01,4.984430596232414246e-02,-1.302403360605239868e-01,6.606322526931762695e-02,-5.324669927358627319e-02,1.499410271644592285e-01,8.775922656059265137e-02,-1.911728531122207642e-01,1.106289308518171310e-02,-9.879060834646224976e-02,1.281981021165847778e-01,-9.339395165443420410e-02,1.538219600915908813e-01,1.384554058313369751e-01,8.001261204481124878e-02,3.322170674800872803e-02,1.379662901163101196e-01,5.544063169509172440e-03,-1.254554688930511475e-01,-1.081351861357688904e-01,3.783604502677917480e-02,1.076839417219161987e-01,-7.455454021692276001e-02,5.553964874707162380e-04,1.721421778202056885e-01,-1.522693317383527756e-02,1.653581857681274414e-02,2.390990220010280609e-02,-8.597297221422195435e-02,5.287247523665428162e-02,-4.802950099110603333e-02,-1.859640479087829590e-01,-8.408183604478836060e-02,1.017168387770652771e-01,7.054758071899414062e-02,1.285341382026672363e-01,-5.832687020301818848e-02,-1.149062514305114746e-01,4.011235013604164124e-02,-1.062303036451339722e-01,1.059318780899047852e-01,-4.538877308368682861e-02,9.483317285776138306e-02,1.125392913818359375e-01,-1.766833513975143433e-01,-2.361810803413391113e-01,9.981061518192291260e-02,4.258733242750167847e-02,1.187208294868469238e-01,-3.908273577690124512e-02,1.353649199008941650e-01,7.843856513500213623e-02,-2.239301651716232300e-01,-7.405214011669158936e-02,1.626877635717391968e-01,6.909488141536712646e-02,1.589151769876480103e-01,-9.915597736835479736e-02,-8.747815340757369995e-02,4.120437800884246826e-02,5.786510929465293884e-02,4.039964079856872559e-02,8.938451856374740601e-02,-9.189315140247344971e-02,1.076221540570259094e-01,-1.365155130624771118e-01,2.042504996061325073e-01,1.286540925502777100e-01,1.225918158888816833e-01,-4.846068099141120911e-02,4.460377246141433716e-02,-2.084092237055301666e-02,-1.042365506291389465e-01,-6.028786301612854004e-02,6.863664835691452026e-02,4.393002763390541077e-02,1.700533437542617321e-03,-8.907253295183181763e-02,-1.014742162078619003e-02,6.825936585664749146e-02,1.017901524901390076e-01,-7.462883368134498596e-03,-1.399017497897148132e-02,-8.344330638647079468e-02,-2.510891109704971313e-02,5.441135168075561523e-02,-4.541468992829322815e-02,3.110596165060997009e-02,9.239741414785385132e-02,-1.614458709955215454e-01,-3.102373480796813965e-01,-8.356277644634246826e-02,-2.359031140804290771e-02,1.207177788019180298e-01,-4.042682051658630371e-02,6.181114353239536285e-03,-7.267994433641433716e-02,1.597927212715148926e-01,1.771983057260513306e-01,-3.633895516395568848e-02,-2.147042304277420044e-01,-1.901372335851192474e-02,2.038259990513324738e-02,-8.823050558567047119e-02,1.192985177040100098e-01,-7.838979363441467285e-02,-5.935738608241081238e-02,-4.457899183034896851e-02,-2.107067555189132690e-01,-1.092467010021209717e-01,-2.671260852366685867e-03,1.110750734806060791e-01,2.455365657806396484e-02,1.314990967512130737e-01,-4.053500667214393616e-02,-9.858158230781555176e-02,6.259463727474212646e-02,-6.435329467058181763e-02,4.993898421525955200e-02,-1.611491292715072632e-01,7.507222890853881836e-02,3.094121627509593964e-02,-1.229971460998058319e-02,1.329662203788757324e-01,-2.134458534419536591e-02,-1.534108668565750122e-01,-1.052275970578193665e-01,-9.689677506685256958e-02,-1.061460096389055252e-02,4.433390125632286072e-02,-1.198395639657974243e-01,-8.951475471258163452e-02,-1.124574095010757446e-01,6.922438740730285645e-02,7.490758597850799561e-02,1.625735661946237087e-03,5.799449235200881958e-02
-1.673866957426071167e-01,1.563417911529541016e-01,1.263635046780109406e-02,-2.548081278800964355e-01,3.440413996577262878e-02,6.959994137287139893e-02,-1.115545630455017090e-02,1.490884721279144287e-01,2.772474884986877441e-01,-2.729192674160003662e-01,4.719096794724464417e-02,6.777374539524316788e-03,-1.353663671761751175e-02,-1.272354573011398315e-01,7.610898464918136597e-02,-8.657042682170867920e-02,2.608992345631122589e-02,-3.757364302873611450e-02,-2.457256466150283813e-01,-1.389070004224777222e-01,-1.312644779682159424e-01,-5.711558833718299866e-02,7.257037609815597534e-02,2.823445200920104980e-01,2.175067961215972900e-01,-6.214224547147750854e-02,1.504128277301788330e-01,6.216868758201599121e-03,-2.743521630764007568e-01,1.010812819004058838e-01,1.523582339286804199e-01,-1.406469941139221191e-01,8.758758753538131714e-02,6.244010850787162781e-02,1.215463876724243164e-01,-4.234182089567184448e-02,4.871123470366001129e-03,-1.782389283180236816e-01,1.198241263628005981e-01,5.470617860555648804e-02,4.287925548851490021e-03,-1.085742861032485962e-01,5.664381384849548340e-02,-1.703080236911773682e-01,-7.849790900945663452e-02,-7.793509960174560547e-02,1.665956825017929077e-01,1.384932547807693481e-01,4.202944785356521606e-02,1.458143536001443863e-02,-8.543949574232101440e-02,-8.438625186681747437e-02,-1.468545347452163696e-01,1.172997057437896729e-01,5.057549476623535156e-02,1.181427091360092163e-01,-1.546684652566909790e-02,1.389414221048355103e-01,6.968194246292114258e-02,9.992949664592742920e-02,7.899136096239089966e-02,2.192218154668807983e-01,-1.607191711664199829e-01,7.291149348020553589e-02,-4.662441834807395935e-02,-1.256609428673982620e-02,-4.869760200381278992e-02,4.598371684551239014e-02,-1.769753843545913696e-01,2.800082229077816010e-02,3.948252648115158081e-02,-3.074977919459342957e-02,-1.112802792340517044e-02,-2.836734950542449951e-01,-1.594526320695877075e-01,-1.947488188743591309e-01,6.438452005386352539e-02,9.674170985817909241e-03,-1.143489927053451538e-01,-1.996077448129653931e-01,-6.943847052752971649e-03,-1.461180895566940308e-01,-1.017195582389831543e-01,2.837768197059631348e-01,8.521139621734619141e-02,-9.004126489162445068e-02,-8.267019689083099365e-02,3.810122236609458923e-02,-7.687332481145858765e-02,1.375342607498168945e-01,-1.372527331113815308e-01,8.162792026996612549e-02,-8.801846206188201904e-02,1.120056733489036560e-01,-1.150387674570083618e-01,5.928240343928337097e-02,-1.667140051722526550e-02,-3.691684920340776443e-03,-1.087058410048484802e-01,-6.035527214407920837e-02,6.518194079399108887e-02,4.462240636348724365e-02,9.093821048736572266e-02,-7.186911534518003464e-05,2.135852277278900146e-01,-3.958224132657051086e-02,-1.593182682991027832e-01,7.422906812280416489e-03,-3.999911248683929443e-02,-6.390567123889923096e-02,8.667372912168502808e-02,3.942913189530372620e-02,-1.942904591560363770e-01,-7.059145718812942505e-02,1.100544724613428116e-02,2.020106166601181030e-01,-1.348569840192794800e-01,-9.381142258644104004e-02,-4.425342381000518799e-02,-1.585676707327365875e-02,-2.717075124382972717e-02,7.440828531980514526e-02,-7.879193127155303955e-02,-2.177140563726425171e-01,-1.505895704030990601e-01,7.270576804876327515e-02,-6.497318297624588013e-02,8.721820265054702759e-02,1.078672632575035095e-01,4.390210285782814026e-02,-1.540900859981775284e-02,1.048019081354141235e-01,-2.055326253175735474e-01,2.098740078508853912e-02,2.956839092075824738e-02,-1.643154472112655640e-01,1.201758757233619690e-01,5.745626613497734070e-02,3.162415325641632080e-02,-5.985804647207260132e-02,-1.239410135895013809e-02,1.040911003947257996e-01,1.186399236321449280e-01,1.226809099316596985e-01,-8.870638906955718994e-02,-5.643499642610549927e-02,4.991334304213523865e-02,2.308411337435245514e-02,-1.531036347150802612e-01,5.585336685180664062e-02,-3.165218234062194824e-01,-1.441998332738876343e-01,-9.167061001062393188e-02,2.690912038087844849e-02,1.366614103317260742e-01,2.306822836399078369e-01,-4.753420501947402954e-02,-1.259059924632310867e-02,-1.110159158706665039e-01,2.253905534744262695e-01,1.083251610398292542e-01,-1.846912950277328491e-01,2.187259644269943237e-01,1.547062247991561890e-01,1.581225991249084473e-01,-5.722000449895858765e-02,2.670315802097320557e-01,-3.369659185409545898e-02,3.903149068355560303e-02,-2.879146635532379150e-01,1.011890992522239685e-01,-3.330126404762268066e-02,3.397286310791969299e-02,-2.099591121077537537e-02,-9.932983666658401489e-02,-1.022862549871206284e-02,7.291877176612615585e-03,-1.705663800239562988e-01,-1.300245523452758789e-01,-1.233471333980560303e-01,-6.241318210959434509e-02,-6.228398159146308899e-02,4.562614858150482178e-02,-1.177935227751731873e-01,-3.948582336306571960e-03,2.664753198623657227e-01,-1.385966986417770386e-01,-2.312762737274169922e-01,1.402406543493270874e-01,9.663319587707519531e-02,2.032548934221267700e-01,-1.257991492748260498e-01,-1.773160547018051147e-01,5.903445184230804443e-02,8.572933822870254517e-02,-8.560789376497268677e-02,1.946032419800758362e-02,7.534860819578170776e-02,-2.252527885138988495e-02,-1.998529434204101562e-01
7.821984589099884033e-02,9.305773675441741943e-02,-3.941426426172256470e-02,9.689258038997650146e-02,4.991288483142852783e-02,-3.896336257457733154e-02,1.245981603860855103e-01,-6.262650340795516968e-02,-7.200209796428680420e-02,-1.015006303787231445e-01,1.117845028638839722e-01,-1.288167387247085571e-02,-1.214215978980064392e-01,-1.171182766556739807e-01,-1.221096590161323547e-01,-6.223527342081069946e-02,6.937006115913391113e-02,1.698662340641021729e-02,4.538030922412872314e-02,5.422031879425048828e-02,-5.896528065204620361e-02,1.165713071823120117e-01,-1.254151761531829834e-01,9.984204173088073730e-02,-1.247819513082504272e-02,6.925418972969055176e-02,-8.839772641658782959e-02,-4.660806059837341309e-02,4.859346151351928711e-02,6.306937336921691895e-02,-8.303073048591613770e-02,-1.170954182744026184e-01,5.392849445343017578e-03,3.514111042022705078e-03,-9.474381804466247559e-02,8.104908466339111328e-02,4.058629274368286133e-02,-2.046610414981842041e-02,-4.440635442733764648e-03,7.837653160095214844e-03,5.288431048393249512e-02,7.155802845954895020e-02,-9.049783647060394287e-02,-2.642669528722763062e-02,1.035520434379577637e-01,1.138494908809661865e-02,-1.093568280339241028e-01,-4.438256472349166870e-02,6.345389783382415771e-02,-4.738771915435791016e-02,-2.620898932218551636e-02,3.596618771553039551e-03,1.257407814264297485e-01,-1.294980794191360474e-01,-1.283737868070602417e-01,-1.148436218500137329e-02,1.126751601696014404e-01,-1.207978650927543640e-01,1.116602122783660889e-02,-1.150514185428619385e-02,-9.052971005439758301e-02,1.882041990756988525e-02,7.754500210285186768e-02,2.074576914310455322e-02,-1.859398931264877319e-02,-4.320194572210311890e-02,-2.561835199594497681e-02,6.971475481986999512e-02,3.547134995460510254e-02,-1.193725541234016418e-01,-6.109008193016052246e-02,1.399534940719604492e-02,-9.769161045551300049e-02,-1.370066404342651367e-02,9.129881858825683594e-02,1.275569200515747070e-02,3.083214163780212402e-03,-1.118526458740234375e-01,9.415368735790252686e-02,-2.507755905389785767e-02,8.658544719219207764e-02,-4.623946547508239746e-02,-2.100303769111633301e-03,-3.032816946506500244e-02,-8.758135139942169189e-02,-1.176020503044128418e-01,3.522710502147674561e-02,-3.320438414812088013e-02,-6.046152859926223755e-02,7.727071642875671387e-02,-6.601971387863159180e-02,-1.306011080741882324e-01,9.772869944572448730e-02,7.589086890220642090e-03,2.622804045677185059e-02,-1.225363463163375854e-01,-1.235229074954986572e-01,7.277677953243255615e-02,-4.917730391025543213e-02,3.069654107093811035e-02,1.174590289592742920e-01,1.196882575750350952e-01,6.614956259727478027e-02,6.459015607833862305e-02,1.317787319421768188e-01,-1.039279624819755554e-01,8.354051411151885986e-02,-6.174759566783905029e-02,7.163038849830627441e-02,1.810316741466522217e-02,-2.787140011787414551e-02,-3.075152635574340820e-03,4.379041492938995361e-02,-1.740785688161849976e-02,8.618630468845367432e-02,9.195397794246673584e-02,-1.102694571018218994e-01,-6.814054399728775024e-02,-1.068575829267501831e-01,-4.209456592798233032e-02,3.002412617206573486e-02,1.161626428365707397e-01,5.918276309967041016e-02,-1.853444427251815796e-02,-4.521489143371582031e-03,7.717676460742950439e-02,1.095090806484222412e-02,-9.091754257678985596e-02,-7.245204597711563110e-02,1.667392253875732422e-02,-3.474594652652740479e-02,-2.796097844839096069e-02,3.486257791519165039e-02,1.777289807796478271e-02,-5.670234560966491699e-02,-4.336419701576232910e-02,1.684549450874328613e-02,-3.960888832807540894e-02,3.067648410797119141e-02,1.183380037546157837e-01,-9.449392557144165039e-03,5.179311335086822510e-02,6.002573668956756592e-02,3.012844920158386230e-02,-1.008883938193321228e-01,5.550138652324676514e-02,8.684822916984558105e-02,-3.292991220951080322e-02,8.110722899436950684e-02,-1.089756414294242859e-01,-6.936439871788024902e-02,7.107019424438476562e-02,1.228852123022079468e-01,-9.428640455007553101e-02,6.923262774944305420e-02,-1.660546660423278809e-02,-9.186945855617523193e-03,-9.382561594247817993e-02,-4.637268930673599243e-02,-2.083167433738708496e-03,-2.832711488008499146e-02,-7.889795303344726562e-02,5.881948769092559814e-02,6.469865143299102783e-02,1.318660825490951538e-01,-1.184683591127395630e-01,7.749244570732116699e-02,7.204526662826538086e-02,2.529752254486083984e-02,-1.315835416316986084e-01,-1.071249097585678101e-01,1.130833625793457031e-01,-4.017442464828491211e-03,1.303282529115676880e-01,1.080375760793685913e-01,-2.913067489862442017e-02,7.925373315811157227e-02,1.606787741184234619e-02,8.202612400054931641e-03,3.078073263168334961e-02,1.201592236757278442e-01,-1.050293445587158203e-03,-1.414056867361068726e-02,4.158824682235717773e-03,-5.663301050662994385e-02,7.394200563430786133e-02,-6.638609617948532104e-02,-4.405487328767776489e-02,-7.069356739521026611e-03,6.127718091011047363e-02,-4.719009995460510254e-02,5.428037047386169434e-02,-7.311233878135681152e-02,-1.137080043554306030e-01,-4.272013902664184570e-03,1.263159364461898804e-01,-8.416610956192016602e-02,9.474785625934600830e-02,-5.828068405389785767e-02,-9.923338890075683594e-02
-2.310457974672317505e-01,-2.015096694231033325e-01,-1.303727477788925171e-01,-2.840031981468200684e-01,8.404897153377532959e-02,1.567483097314834595e-01,1.836075074970722198e-02,7.128901779651641846e-02,1.363493800163269043e-01,-5.143418163061141968e-02,1.746853291988372803e-01,-2.517439797520637512e-02,-2.531744241714477539e-01,-1.473382860422134399e-01,-5.698841437697410583e-02,6.737138144671916962e-03,-4.582758992910385132e-02,-1.116405054926872253e-01,-2.465244531631469727e-01,7.709413021802902222e-02,-5.097053200006484985e-02,8.543398231267929077e-02,2.802884578704833984e-01,-1.729330271482467651e-01,-6.396523863077163696e-02,-1.328539848327636719e-01,5.738981999456882477e-04,-1.227011010050773621e-01,2.224707007408142090e-01,1.990169882774353027e-01,-8.749814331531524658e-02,-1.721248179674148560e-01,-1.182556450366973877e-01,1.475501805543899536e-01,1.933014020323753357e-02,7.609000056982040405e-02,-1.158130392432212830e-01,-9.414592385292053223e-02,2.981010265648365021e-02,1.734482944011688232e-01,-2.509047649800777435e-02,2.050656639039516449e-02,-4.225105512887239456e-03,-9.808698296546936035e-02,2.738704159855842590e-02,2.378902882337570190e-01,4.093269631266593933e-02,-1.055185347795486450e-01,1.536377370357513428e-01,8.916150778532028198e-03,1.492523849010467529e-01,-2.015504390001296997e-01,-2.121235728263854980e-01,3.773958608508110046e-02,1.252880990505218506e-01,-2.359891682863235474e-01,-3.856962546706199646e-02,-9.573414921760559082e-02,6.705123931169509888e-02,-5.785100907087326050e-02,-1.440250575542449951e-01,-1.266635358333587646e-01,9.531790018081665039e-02,1.069118753075599670e-01,-1.009557098150253296e-01,-1.129419282078742981e-01,6.021799519658088684e-03,1.765839755535125732e-01,-1.320676207542419434e-01,2.130555221810936928e-03,-1.159426644444465637e-01,2.372271120548248291e-01,8.661110699176788330e-02,-3.518696129322052002e-01,2.002371661365032196e-02,2.316034026443958282e-02,-7.075354456901550293e-02,7.134877890348434448e-02,1.208730414509773254e-01,9.530958533287048340e-02,-7.730644661933183670e-03,-9.315588325262069702e-02,1.907812505960464478e-01,1.125465705990791321e-01,1.127394959330558777e-01,3.442644700407981873e-02,2.403100952506065369e-02,3.318542987108230591e-02,4.846910387277603149e-02,1.875589787960052490e-02,-7.162684947252273560e-02,-7.945518940687179565e-02,8.017935603857040405e-02,-1.870972067117691040e-01,2.152275592088699341e-01,-1.501340568065643311e-01,8.159634470939636230e-02,8.928567171096801758e-03,1.028349027037620544e-01,7.464200258255004883e-02,1.187280640006065369e-01,9.292396903038024902e-02,-9.036295861005783081e-02,9.792631864547729492e-02,2.711531817913055420e-01,-3.985831514000892639e-02,2.055644690990447998e-01,-1.322385668754577637e-01,1.943939737975597382e-02,5.886160582304000854e-02,6.385403126478195190e-02,4.433048889040946960e-02,-1.110490933060646057e-01,-1.236800774931907654e-01,-1.641725748777389526e-02,6.867965310811996460e-02,-1.806246489286422729e-01,-1.081666126847267151e-01,-1.003517359495162964e-01,-8.431681990623474121e-02,7.352791726589202881e-03,-9.754616767168045044e-02,-7.947238534688949585e-02,1.173617467284202576e-01,-1.389545351266860962e-01,1.243127956986427307e-01,-1.635510325431823730e-01,-1.301342248916625977e-01,6.598936021327972412e-02,-2.547614872455596924e-01,2.975738346576690674e-01,-3.668291866779327393e-02,4.015591740608215332e-02,3.008900582790374756e-02,6.584995239973068237e-02,8.944581449031829834e-02,2.123204618692398071e-01,-8.378516882658004761e-02,1.741276979446411133e-01,3.863436356186866760e-02,-2.416439503431320190e-01,-2.377353794872760773e-02,-4.035910591483116150e-02,-2.015401609241962433e-02,1.026214882731437683e-01,-2.031071037054061890e-01,1.097597479820251465e-01,5.582137033343315125e-02,2.139291316270828247e-01,1.940337866544723511e-01,6.054739654064178467e-02,-3.157780505716800690e-03,7.331968098878860474e-02,-1.238313093781471252e-01,-6.044737994670867920e-02,-1.087964698672294617e-01,1.057786792516708374e-01,-5.545698571950197220e-03,-6.729856133460998535e-02,5.866882950067520142e-02,1.061768159270286560e-01,2.608392834663391113e-01,5.972914397716522217e-03,1.756030321121215820e-01,-4.363859444856643677e-02,1.029429212212562561e-01,1.544598583132028580e-02,-1.503282636404037476e-01,-2.027102559804916382e-01,-8.598964661359786987e-02,1.986099332571029663e-01,3.847929835319519043e-02,-3.960485756397247314e-02,1.281465739011764526e-01,-5.449934303760528564e-02,1.653360426425933838e-01,5.108286440372467041e-02,1.110790967941284180e-01,-1.232446450740098953e-02,1.049050539731979370e-01,-2.698492109775543213e-01,-1.210304275155067444e-01,-6.957459449768066406e-02,1.694284528493881226e-01,2.836074493825435638e-02,-6.776846200227737427e-02,1.187456995248794556e-01,-1.418157294392585754e-02,-2.013491243124008179e-01,-6.594667583703994751e-02,-1.054392680525779724e-01,-1.788527965545654297e-01,-4.807695001363754272e-02,1.048637703061103821e-01,1.613317877054214478e-01,-7.001201063394546509e-02,5.224238336086273193e-02,4.439390823245048523e-02,7.601271569728851318e-02,4.723824188113212585e-02
-1.498963832855224609e-01,-1.826656013727188110e-01,-2.912935987114906311e-02,-1.585346087813377380e-02,-2.096823044121265411e-02,-1.600525528192520142e-02,-1.572696305811405182e-02,-5.715994536876678467e-02,8.844891190528869629e-02,1.701005250215530396e-01,-1.165450289845466614e-01,-1.319032814353704453e-02,-4.042161628603935242e-02,2.016089558601379395e-01,-1.619516462087631226e-01,-1.367860138416290283e-01,-1.093693152070045471e-01,9.485368430614471436e-02,1.353044249117374420e-02,7.924773730337619781e-03,-6.087448075413703918e-02,-1.172689199447631836e-01,-7.704661041498184204e-02,-1.305310875177383423e-01,-2.160486578941345215e-01,-3.369077667593955994e-02,-1.061742529273033142e-01,1.236450895667076111e-01,-1.503686457872390747e-01,-1.482917666435241699e-01,-9.378600120544433594e-02,-1.373964548110961914e-01,-2.269466593861579895e-02,9.090422838926315308e-02,4.967898875474929810e-02,1.555222123861312866e-01,-1.608266830444335938e-01,-7.299360632896423340e-02,-1.800830103456974030e-02,2.482230030000209808e-02,-1.381203252822160721e-02,-6.671053171157836914e-02,1.486925058998167515e-03,8.803714066743850708e-02,6.284958682954311371e-03,1.160245109349489212e-02,-5.207585915923118591e-02,8.910196274518966675e-02,1.145162433385848999e-01,-4.396725073456764221e-02,9.991849772632122040e-03,-1.602779887616634369e-02,-4.780348762869834900e-02,-2.218707092106342316e-02,-1.785418242216110229e-01,1.780476048588752747e-02,3.421168029308319092e-02,1.177188754081726074e-01,-1.071631610393524170e-01,2.430114895105361938e-02,-1.040548458695411682e-01,-1.243306025862693787e-01,4.079494625329971313e-02,-6.573961675167083740e-02,-1.475927084684371948e-01,-2.041873037815093994e-01,-1.432333290576934814e-01,1.650636456906795502e-02,1.946965605020523071e-01,3.290586173534393311e-02,-1.524979434907436371e-02,9.201090037822723389e-02,-1.889481693506240845e-01,-7.185021042823791504e-02,-1.740645319223403931e-01,-7.823307067155838013e-02,-9.464997053146362305e-02,-6.861592084169387817e-02,-6.960970908403396606e-02,-9.682889282703399658e-02,-4.271659534424543381e-03,-3.283960977569222450e-03,2.134399712085723877e-01,5.685930326581001282e-02,-3.303279355168342590e-02,2.235229909420013428e-01,7.202717661857604980e-02,7.564445585012435913e-02,9.139078110456466675e-02,7.622865028679370880e-03,2.100842297077178955e-01,2.333172410726547241e-02,1.279958337545394897e-01,-2.775738760828971863e-02,-7.644111290574073792e-03,-1.677496545016765594e-02,5.283937230706214905e-02,-2.438970655202865601e-01,-5.750279501080513000e-02,6.689561903476715088e-02,1.993344873189926147e-01,-1.046569459140300751e-02,-2.359187304973602295e-01,-1.003876421600580215e-02,-1.735926866531372070e-01,-1.711718440055847168e-01,2.308230660855770111e-02,-1.561959385871887207e-01,-1.390104144811630249e-01,1.475573033094406128e-01,5.660831555724143982e-02,1.936654597520828247e-01,-1.375934332609176636e-01,-1.405861973762512207e-01,1.321595162153244019e-01,-1.829718351364135742e-01,9.052799642086029053e-02,-5.114760622382164001e-02,-8.402459323406219482e-02,3.298856690526008606e-02,-2.541638910770416260e-01,6.080418452620506287e-02,8.582652360200881958e-02,-4.284537956118583679e-02,-1.659776419401168823e-01,1.943822503089904785e-01,-1.430975794792175293e-01,3.616474568843841553e-02,-3.597277775406837463e-02,3.174499608576297760e-03,-8.305352926254272461e-02,-1.804677695035934448e-01,-1.775827556848526001e-01,6.567479576915502548e-03,-1.806725412607192993e-01,-8.514329791069030762e-02,-9.825809299945831299e-02,-7.915074378252029419e-02,-5.750794336199760437e-02,2.314504086971282959e-01,-6.961609423160552979e-02,6.547210365533828735e-02,5.665346607565879822e-02,-5.226044356822967529e-02,-6.569168716669082642e-02,8.587080985307693481e-02,-3.112023770809173584e-01,-7.430148869752883911e-02,2.267303131520748138e-02,-1.418732106685638428e-01,-1.182494238018989563e-01,-3.854723274707794189e-02,1.182372793555259705e-01,-1.447272747755050659e-01,-1.964689344167709351e-01,-1.810991913080215454e-01,-1.483637988567352295e-01,1.095974892377853394e-01,7.469511777162551880e-02,6.505807489156723022e-02,8.738847076892852783e-02,2.175941765308380127e-01,-9.592493623495101929e-02,5.362330749630928040e-02,2.358337305486202240e-02,1.062137857079505920e-01,-9.054626524448394775e-02,4.446768760681152344e-02,-2.062494456768035889e-01,9.629296511411666870e-02,-5.860444158315658569e-02,1.263743638992309570e-01,-6.392157077789306641e-02,-7.862704247236251831e-02,7.497036457061767578e-02,1.307148188352584839e-01,-1.193067878484725952e-01,-8.760615251958370209e-03,-2.444186992943286896e-02,4.644424840807914734e-02,-1.463960111141204834e-01,1.071100383996963501e-01,-1.248157694935798645e-01,-1.555584520101547241e-01,-2.811799570918083191e-02,-1.965172141790390015e-01,-2.729168161749839783e-02,-1.629503369331359863e-01,-1.886575669050216675e-01,-1.745430529117584229e-01,-8.215792477130889893e-02,-2.647618949413299561e-01,-1.334160715341567993e-01,-1.015070676803588867e-01,3.104549832642078400e-02,-2.011068016290664673e-01,-1.065556034445762634e-01,9.874137118458747864e-03,1.172818839550018311e-01,-1.918803155422210693e-01
-4.259240999817848206e-02,1.254722774028778076e-01,9.744951874017715454e-02,-1.206561997532844543e-01,7.213134318590164185e-02,3.960027173161506653e-02,-1.506329327821731567e-01,-1.024927347898483276e-01,-1.083696931600570679e-01,-8.919377624988555908e-02,-7.293327152729034424e-02,7.831487804651260376e-02,-6.144946813583374023e-02,-1.134081855416297913e-01,2.977240830659866333e-02,-6.127114593982696533e-02,-9.933038800954818726e-02,-2.896841149777173996e-03,-1.167224273085594177e-01,4.817921668291091919e-02,-1.761849075555801392e-01,1.299784891307353973e-02,4.961444810032844543e-02,-2.176360972225666046e-02,-4.088468477129936218e-02,4.854667931795120239e-02,-6.233908236026763916e-02,3.476067259907722473e-02,-7.580182701349258423e-02,-8.181157708168029785e-02,5.045398697257041931e-02,-1.557487249374389648e-01,-1.058036908507347107e-01,-5.745725706219673157e-02,2.364422939717769623e-02,5.358585342764854431e-02,-1.215585991740226746e-01,6.796810030937194824e-02,-1.214956566691398621e-01,-8.501316606998443604e-02,7.132185995578765869e-02,1.191977262496948242e-01,-7.484535127878189087e-02,9.792453795671463013e-02,-3.928221017122268677e-02,1.733890473842620850e-01,1.313114911317825317e-01,-3.130021318793296814e-02,2.578351087868213654e-02,5.496681854128837585e-02,6.618399173021316528e-02,-1.026570200920104980e-01,-3.690259158611297607e-02,1.221319958567619324e-01,-1.071632206439971924e-01,-5.167641863226890564e-02,-4.569120705127716064e-02,-1.305714994668960571e-01,-1.313142031431198120e-01,-4.614686965942382812e-02,-1.001899242401123047e-01,-1.852199435234069824e-02,1.336205154657363892e-01,-1.573219150304794312e-01,-9.221699088811874390e-02,-5.113634746521711349e-03,-1.778700621798634529e-03,7.018693536520004272e-02,1.392596811056137085e-01,7.319030910730361938e-02,1.595447659492492676e-01,7.801820337772369385e-02,-1.226578727364540100e-01,-6.221876293420791626e-02,-1.304864585399627686e-01,-5.379461497068405151e-02,1.293532699346542358e-01,2.978421188890933990e-02,-7.578285411000251770e-03,5.908455327153205872e-02,-5.704703927040100098e-02,-1.921423012390732765e-03,1.972370594739913940e-01,1.390679180622100830e-01,1.141370460391044617e-01,1.810575276613235474e-01,1.997148543596267700e-01,1.447578370571136475e-01,1.077385321259498596e-01,6.939576566219329834e-02,-3.602309525012969971e-02,2.576684579253196716e-02,-1.084664557129144669e-02,-1.605742722749710083e-01,-3.057686239480972290e-02,-1.206677630543708801e-01,-5.876008793711662292e-02,-2.059180885553359985e-01,2.745362184941768646e-02,1.076278556138277054e-02,5.740751326084136963e-02,5.743664503097534180e-02,8.858724683523178101e-02,1.306535601615905762e-01,-1.133944746106863022e-02,-8.397555910050868988e-03,2.651835083961486816e-01,1.124377325177192688e-01,6.754167377948760986e-02,1.084046140313148499e-01,1.238245815038681030e-01,1.116492375731468201e-01,1.632099449634552002e-01,9.213435649871826172e-02,-1.341922134160995483e-01,-7.012954354286193848e-02,1.450879722833633423e-01,3.451332822442054749e-02,-3.229188546538352966e-02,-1.065378114581108093e-01,5.544767528772354126e-02,1.327451914548873901e-01,-1.082903668284416199e-01,-1.800932437181472778e-01,-8.226212859153747559e-02,5.705164372920989990e-02,-2.995251677930355072e-02,1.251755747944116592e-02,-1.513520330190658569e-01,-1.814434491097927094e-02,-3.850971534848213196e-02,-9.567769244313240051e-03,3.177445754408836365e-02,7.428406924009323120e-02,-5.683367699384689331e-02,-7.107895612716674805e-02,6.322055310010910034e-02,-1.002038344740867615e-01,1.561224162578582764e-01,1.276868432760238647e-01,1.379336789250373840e-02,1.038727629929780960e-02,-9.168312698602676392e-02,-4.556160420179367065e-02,1.297472715377807617e-01,1.363772340118885040e-02,-2.127022296190261841e-01,1.520938938483595848e-03,-4.452894628047943115e-02,6.473110616207122803e-02,-7.943394035100936890e-02,-1.008158251643180847e-01,-3.565441444516181946e-02,1.480655223131179810e-01,6.897150538861751556e-03,2.754836343228816986e-02,6.254005432128906250e-02,1.078525856137275696e-01,3.213337808847427368e-02,6.674183905124664307e-02,-2.184750512242317200e-02,9.962189197540283203e-02,-4.537652805447578430e-02,6.866265088319778442e-02,7.762417197227478027e-02,-1.181987300515174866e-01,1.794690452516078949e-02,-1.082361340522766113e-01,1.824143342673778534e-02,6.139641162008047104e-03,1.598331928253173828e-01,-8.888647705316543579e-02,-5.536494404077529907e-02,2.886734902858734131e-02,-3.603360801935195923e-02,-8.245307207107543945e-02,-6.063018366694450378e-02,-1.350578665733337402e-01,-1.892260015010833740e-01,-9.196922928094863892e-02,1.335452347993850708e-01,-9.313882142305374146e-02,1.118647679686546326e-01,-4.477279260754585266e-02,2.395100146532058716e-02,-6.450195610523223877e-02,-9.351631253957748413e-02,8.108329959213733673e-03,5.739077925682067871e-02,2.405309118330478668e-02,1.631895154714584351e-01,3.616762533783912659e-02,-1.354334652423858643e-01,1.126389652490615845e-01,-1.169237568974494934e-01,-4.084607213735580444e-02,-1.372373849153518677e-01,9.775690734386444092e-03,-9.683094173669815063e-02,-2.775423601269721985e-02
-7.648563385009765625e-02,1.864716410636901855e-01,4.166072979569435120e-02,-1.725394278764724731e-02,-1.380864810198545456e-02,-1.583566814661026001e-01,-7.283484190702438354e-02,-4.207672923803329468e-02,1.114960014820098877e-01,-2.337741851806640625e-02,-1.165798604488372803e-01,1.237513944506645203e-01,2.064037322998046875e-02,-4.263922572135925293e-02,8.129325509071350098e-02,-1.753669790923595428e-02,5.959267541766166687e-02,-1.009613499045372009e-01,2.092417925596237183e-01,1.179156452417373657e-01,-7.894878834486007690e-02,3.703793883323669434e-02,-1.039642170071601868e-01,8.784437924623489380e-02,6.792517751455307007e-02,-1.280943304300308228e-01,-1.711320504546165466e-02,-4.071614518761634827e-02,-2.927158772945404053e-01,1.870455918833613396e-03,-1.996928593143820763e-03,-1.365849524736404419e-01,2.085333913564682007e-01,1.543640494346618652e-01,-1.217606589198112488e-01,-1.941046118736267090e-02,5.447165668010711670e-02,9.109354764223098755e-02,1.482527852058410645e-01,-6.846057623624801636e-02,6.894868612289428711e-02,-1.638900190591812134e-01,9.539984166622161865e-02,-1.163528785109519958e-01,8.980356901884078979e-02,-8.025079965591430664e-02,2.462042421102523804e-01,7.887297309935092926e-03,5.385923013091087341e-02,-1.993923932313919067e-01,-4.824477061629295349e-02,-1.060246080160140991e-01,-1.862696111202239990e-01,-1.353452056646347046e-01,5.935969203710556030e-02,1.997828185558319092e-01,5.599308013916015625e-02,6.906613707542419434e-02,-1.167592853307723999e-01,1.221465021371841431e-01,-6.883244961500167847e-02,-1.512941718101501465e-01,1.483562518842518330e-03,-6.576972454786300659e-02,7.705222815275192261e-03,-1.180437281727790833e-01,8.126403391361236572e-02,-7.800191640853881836e-02,-2.008651010692119598e-02,1.953047066926956177e-01,-1.014076843857765198e-01,6.654770113527774811e-03,1.614746749401092529e-01,8.152267895638942719e-03,-1.515042185783386230e-01,1.496354043483734131e-01,-1.000678241252899170e-01,8.360592275857925415e-02,8.272548764944076538e-02,-1.570709496736526489e-01,8.249834924936294556e-02,7.135761529207229614e-02,7.398891448974609375e-02,-4.299611970782279968e-02,1.845066249370574951e-01,-4.994580149650573730e-02,1.181662157177925110e-01,-3.398540616035461426e-02,2.912618964910507202e-02,-1.806494896300137043e-03,1.637329757213592529e-01,-8.585409820079803467e-02,-6.865449249744415283e-02,-1.395095586776733398e-01,2.405104041099548340e-02,5.259839072823524475e-02,-9.306585788726806641e-02,-1.640553623437881470e-01,1.392633840441703796e-02,-1.338008418679237366e-02,9.166876971721649170e-02,4.474145174026489258e-02,6.330663710832595825e-02,1.092763841152191162e-01,-8.838932961225509644e-02,-1.565291136503219604e-01,4.091599956154823303e-02,1.095092073082923889e-01,-1.166128292679786682e-01,-1.796293705701828003e-01,9.102824330329895020e-02,-3.538390249013900757e-02,2.081221342086791992e-02,6.643095612525939941e-02,-7.743718475103378296e-02,1.089545637369155884e-01,1.086919456720352173e-01,6.951422989368438721e-02,6.523862481117248535e-02,1.120277792215347290e-01,-5.154742673039436340e-02,5.745739489793777466e-02,-5.378808453679084778e-02,4.874262493103742599e-03,1.263100206851959229e-01,5.875280126929283142e-02,1.216679140925407410e-01,-8.523871004581451416e-02,7.749778032302856445e-02,3.400135785341262817e-02,3.693801164627075195e-02,-1.534474343061447144e-01,-6.642340123653411865e-02,4.852347820997238159e-02,-1.957987397909164429e-01,-1.310868561267852783e-01,1.062533035874366760e-01,2.968622744083404541e-01,7.411822676658630371e-02,-1.549769639968872070e-01,4.278212320059537888e-03,2.266599610447883606e-02,1.748053580522537231e-01,-8.153263479471206665e-02,4.512837156653404236e-02,-7.380747795104980469e-02,2.880995720624923706e-02,1.986325532197952271e-01,2.488919347524642944e-02,1.926538348197937012e-02,8.266039192676544189e-02,-1.029106974601745605e-01,2.658576145768165588e-02,-2.277626097202301025e-02,7.984188944101333618e-02,-1.838190704584121704e-01,-7.210553437471389771e-02,-1.406041681766510010e-01,6.613264232873916626e-02,-8.868124336004257202e-02,1.707358658313751221e-02,8.823652565479278564e-02,4.067389760166406631e-03,-4.757255315780639648e-03,-3.978691622614860535e-02,-1.851426959037780762e-01,7.914832979440689087e-02,4.802071303129196167e-02,1.262359786778688431e-02,-3.714056685566902161e-02,1.082097887992858887e-01,-7.244537025690078735e-02,-1.913928091526031494e-01,1.124837622046470642e-02,1.223953440785408020e-01,-9.346906095743179321e-02,-1.125437095761299133e-01,-1.969198323786258698e-02,-1.815879791975021362e-01,-4.032503440976142883e-02,1.562832891941070557e-01,7.786487042903900146e-02,7.414756715297698975e-02,-2.826667577028274536e-02,1.916648447513580322e-01,1.582479029893875122e-01,5.583559162914752960e-03,1.853791996836662292e-02,1.610598415136337280e-01,1.734017878770828247e-01,-1.295027881860733032e-01,-1.989196985960006714e-01,5.355375260114669800e-02,3.248670604079961777e-03,9.718408435583114624e-02,-1.749326474964618683e-02,-6.691195070743560791e-02,1.208203192800283432e-02,6.640672683715820312e-02,7.254939991980791092e-03
1.295551806688308716e-01,3.473813831806182861e-01,-1.901281028985977173e-01,-2.194336503744125366e-01,-1.246963217854499817e-01,-1.557509452104568481e-01,-6.878556311130523682e-02,-5.621201917529106140e-02,1.037683561444282532e-01,8.083342015743255615e-02,-1.234480813145637512e-01,2.428850904107093811e-02,-1.189391016960144043e-01,-5.449796840548515320e-02,-1.768313348293304443e-02,1.604749560356140137e-01,3.094688244163990021e-02,-2.133386284112930298e-01,1.437952071428298950e-01,-5.442990735173225403e-02,-2.997762709856033325e-02,-1.380808353424072266e-01,1.187287941575050354e-01,-1.099088788032531738e-01,-1.657443791627883911e-01,-7.451932877302169800e-02,-1.178735047578811646e-01,1.755417906679213047e-04,-2.603906095027923584e-01,1.640179194509983063e-03,3.387750387191772461e-01,-5.542886257171630859e-02,-1.781054586172103882e-01,-1.010874956846237183e-01,1.753115057945251465e-01,-7.742284983396530151e-02,-5.268343165516853333e-02,-1.265279501676559448e-01,-1.655639559030532837e-01,2.424255758523941040e-02,-1.034743040800094604e-01,2.742190659046173096e-01,4.177749156951904297e-02,-2.144670188426971436e-01,1.672437787055969238e-01,1.505685746669769287e-01,-8.040152490139007568e-02,3.152337968349456787e-01,-3.398992121219635010e-02,-1.148128658533096313e-01,1.925314068794250488e-01,1.141022965312004089e-01,-2.741183340549468994e-01,1.202974095940589905e-01,-1.151446774601936340e-01,-2.056949436664581299e-01,2.190843969583511353e-01,2.001815587282180786e-01,7.647190988063812256e-02,2.156426161527633667e-01,-1.072443649172782898e-01,2.705530524253845215e-01,-2.475098818540573120e-01,-2.340620607137680054e-01,1.163411140441894531e-01,5.941499769687652588e-02,8.293474465608596802e-02,7.395913451910018921e-02,-4.416219890117645264e-02,-3.378553688526153564e-02,1.096978709101676941e-01,6.161949783563613892e-02,1.019443795084953308e-01,7.199959456920623779e-02,-1.123630106449127197e-01,3.891714662313461304e-02,-8.319121599197387695e-02,4.083332717418670654e-01,2.855619974434375763e-02,5.903328303247690201e-03,1.114502549171447754e-03,-2.608414553105831146e-02,-1.262993067502975464e-01,2.573789358139038086e-01,-2.621541023254394531e-01,-8.733692020177841187e-02,-1.454473882913589478e-01,-5.106074735522270203e-02,-4.327208176255226135e-02,1.639681309461593628e-01,-1.175881102681159973e-01,1.000187024474143982e-01,-1.254977732896804810e-01,2.592925131320953369e-01,-1.723916083574295044e-01,2.605384588241577148e-01,6.086103618144989014e-02,4.356277361512184143e-02,-9.685588628053665161e-02,-1.698894351720809937e-01,-1.314084976911544800e-01,-1.659563928842544556e-01,-4.982347413897514343e-02,8.226794004440307617e-02,2.535732984542846680e-01,-1.190071776509284973e-01,-1.347888261079788208e-01,1.466743201017379761e-01,5.398248136043548584e-02,-5.294797196984291077e-02,3.506204187870025635e-01,1.451741605997085571e-01,1.140067651867866516e-01,-3.248876333236694336e-02,5.194067955017089844e-02,1.401514410972595215e-01,2.479498833417892456e-01,-2.169988900423049927e-01,-1.174982115626335144e-01,3.227215632796287537e-02,8.438129909336566925e-03,2.027448415756225586e-01,1.254519820213317871e-02,-2.442681193351745605e-01,-1.657656878232955933e-01,-1.633051931858062744e-01,4.193948507308959961e-01,5.594225227832794189e-02,1.544951945543289185e-01,-1.454710215330123901e-01,-1.016199812293052673e-01,-7.292465120553970337e-02,-2.485021799802780151e-01,-9.272057563066482544e-02,3.233560919761657715e-02,-1.819142550230026245e-01,-1.379735916852951050e-01,6.906132213771343231e-03,-5.745362117886543274e-02,1.453912444412708282e-02,-1.323895603418350220e-01,1.571677029132843018e-01,6.176317855715751648e-02,-1.314733270555734634e-02,8.242578804492950439e-02,3.687781095504760742e-01,-3.139858320355415344e-02,1.582107692956924438e-01,7.888425886631011963e-02,-9.423202835023403168e-03,1.124576926231384277e-01,1.269047707319259644e-02,2.486260980367660522e-01,9.858175367116928101e-02,1.120101585984230042e-01,2.162705063819885254e-01,-1.570779085159301758e-02,-7.097738236188888550e-02,-1.006993371993303299e-02,2.836350500583648682e-01,-1.852493584156036377e-01,-1.569876968860626221e-01,2.814857065677642822e-01,1.618371158838272095e-01,1.549759805202484131e-01,-7.119927555322647095e-02,2.355357706546783447e-01,-3.230111002922058105e-01,1.141802966594696045e-01,-7.247029989957809448e-02,2.958759963512420654e-01,-8.739237673580646515e-03,-6.943064276129007339e-03,-4.069375693798065186e-01,1.829788088798522949e-01,-1.083856970071792603e-01,4.160850495100021362e-02,-1.763561554253101349e-02,-2.564809471368789673e-02,-2.188917435705661774e-02,-6.422385107725858688e-03,3.530531376600265503e-02,-5.629012733697891235e-02,-1.236174255609512329e-03,3.285792889073491096e-03,1.543995887041091919e-01,-1.302677989006042480e-01,1.294242143630981445e-01,3.570585846900939941e-01,2.124772369861602783e-01,2.074065990746021271e-02,-5.666938051581382751e-02,-1.418376415967941284e-01,-3.658148646354675293e-02,-1.661472320556640625e-01,2.903734147548675537e-01,-2.027470022439956665e-01,-1.697081029415130615e-01,-2.492869459092617035e-02,-1.207631547003984451e-03
-1.979466900229454041e-02,8.262164890766143799e-02,-1.251011788845062256e-01,1.850207895040512085e-02,4.530018568038940430e-02,9.413420408964157104e-02,-1.583001464605331421e-01,8.223962970077991486e-03,1.220591366291046143e-01,-8.995935320854187012e-02,-1.519925147294998169e-01,-9.875510632991790771e-02,-1.325165778398513794e-01,1.563174724578857422e-01,-6.689148396253585815e-02,-1.905944645404815674e-01,1.565514691174030304e-02,1.250957846641540527e-01,-9.271262586116790771e-02,2.549431920051574707e-01,-8.950788527727127075e-02,1.271686106920242310e-01,4.241263493895530701e-02,7.865164428949356079e-02,-9.915980696678161621e-02,2.962511405348777771e-02,-4.540218785405158997e-02,8.474702946841716766e-03,-2.047968357801437378e-01,-5.559991300106048584e-02,8.321829140186309814e-03,3.129035234451293945e-02,-2.779631875455379486e-02,7.883694022893905640e-02,2.946180105209350586e-02,1.023713797330856323e-01,1.346662756986916065e-03,-2.456947043538093567e-02,8.340998552739620209e-03,9.131257981061935425e-02,-3.724570572376251221e-02,-1.557722873985767365e-02,-1.634659618139266968e-01,-2.106181383132934570e-01,4.015608131885528564e-02,5.366266891360282898e-02,-2.425714395940303802e-02,-4.817873612046241760e-02,7.416101545095443726e-02,-5.494343116879463196e-02,6.348607689142227173e-02,-1.242696195840835571e-01,-9.882713109254837036e-02,1.019205152988433838e-01,1.550147077068686485e-03,-6.193847209215164185e-02,-9.795893728733062744e-02,2.715353071689605713e-01,-1.194258704781532288e-01,5.437900871038436890e-02,-9.051032364368438721e-02,2.357261478900909424e-01,9.402190148830413818e-02,-1.798784881830215454e-01,8.283805102109909058e-03,-1.064519733190536499e-01,-3.235755115747451782e-02,-7.150404900312423706e-02,1.323713660240173340e-01,9.488714858889579773e-03,3.428275138139724731e-02,-1.410568654537200928e-01,-1.562575250864028931e-02,9.715054184198379517e-02,1.149179443018510938e-04,-1.605259180068969727e-01,6.114442273974418640e-02,6.641302257776260376e-02,-1.528025418519973755e-01,-1.215500310063362122e-01,-6.539532542228698730e-02,6.543848663568496704e-02,-8.246320486068725586e-02,1.604726910591125488e-01,4.956998862326145172e-03,2.260704040527343750e-01,5.925442650914192200e-02,1.368340253829956055e-01,1.104094758629798889e-01,4.185597971081733704e-02,5.468578636646270752e-02,-1.108874008059501648e-01,6.404036283493041992e-02,-5.275342613458633423e-02,1.101560741662979126e-01,5.832110345363616943e-02,-1.762457750737667084e-02,1.449496746063232422e-01,1.053892001509666443e-01,-7.111386954784393311e-02,-4.993341490626335144e-02,3.463856875896453857e-02,-3.257735446095466614e-02,6.710830330848693848e-02,1.799267530441284180e-02,-1.386922504752874374e-02,4.537935182452201843e-02,-5.204942077398300171e-02,5.614668503403663635e-02,-4.635198786854743958e-02,-1.535444427281618118e-02,-3.532040491700172424e-02,1.245004907250404358e-01,-8.907684683799743652e-02,2.054124325513839722e-02,2.420810759067535400e-01,1.014135926961898804e-01,-1.082063764333724976e-01,-6.654169410467147827e-02,4.058901965618133545e-02,-1.973514556884765625e-01,1.379112303256988525e-01,6.442490220069885254e-02,-2.713045775890350342e-01,2.500906288623809814e-01,8.936224132776260376e-02,-1.665193289518356323e-01,8.480003476142883301e-02,1.443613916635513306e-01,-1.373188477009534836e-02,-6.680981814861297607e-02,-6.825484335422515869e-02,-2.143092267215251923e-02,1.386093050241470337e-01,1.360591500997543335e-01,-5.569972842931747437e-02,7.984198629856109619e-02,-1.090845093131065369e-01,1.661072075366973877e-01,1.131067276000976562e-01,1.105798035860061646e-01,-9.880974888801574707e-02,-1.006583198904991150e-01,-7.363080978393554688e-02,-5.864489078521728516e-02,-1.203146651387214661e-01,8.474977314472198486e-02,6.628132611513137817e-02,1.616875678300857544e-01,1.372263580560684204e-01,-4.165603220462799072e-02,-6.489023566246032715e-02,-9.075190126895904541e-02,1.989993005990982056e-01,6.083901971578598022e-02,-1.494688540697097778e-01,-8.204422891139984131e-02,-1.174832135438919067e-01,-9.348389506340026855e-02,5.118769034743309021e-02,3.067090734839439392e-02,1.775616779923439026e-02,-4.588494077324867249e-02,-2.622450329363346100e-02,5.742006003856658936e-02,-3.387565165758132935e-02,4.042271524667739868e-03,-2.396798580884933472e-01,-1.491857022047042847e-01,7.701107114553451538e-02,-1.098819300532341003e-01,-1.124508902430534363e-01,2.120335400104522705e-02,-1.110175997018814087e-01,1.643317639827728271e-01,-6.591689586639404297e-02,-8.887241780757904053e-02,-1.131675466895103455e-01,-8.083622902631759644e-02,2.142701856791973114e-02,-1.607908606529235840e-01,-7.336122542619705200e-02,4.030065238475799561e-02,4.360248893499374390e-02,-8.556361496448516846e-02,-3.113932348787784576e-02,-8.550576865673065186e-02,-1.045276373624801636e-01,1.227316409349441528e-01,9.170070290565490723e-02,-4.476787056773900986e-03,4.289216920733451843e-02,-8.751387707889080048e-03,-5.014396458864212036e-02,-1.568701304495334625e-02,-4.944969713687896729e-02,-2.009680308401584625e-02,6.128503754734992981e-02,-6.906963139772415161e-02,-2.628030776977539062e-01
-1.727624982595443726e-01,-1.299363374710083008e-01,-2.538333237171173096e-01,-1.585251539945602417e-01,3.405353426933288574e-02,2.115294784307479858e-01,-2.186314761638641357e-01,4.052801430225372314e-02,1.082353219389915466e-01,-1.505130082368850708e-01,-2.269104123115539551e-02,-1.947288960218429565e-01,-4.279400035738945007e-02,1.212765574455261230e-01,-1.159890443086624146e-01,3.131426870822906494e-02,7.280959933996200562e-02,7.800401002168655396e-02,-4.357916489243507385e-02,-6.847190111875534058e-02,-1.512951999902725220e-01,-4.432750493288040161e-02,-1.788970977067947388e-01,-1.026578620076179504e-01,2.041129767894744873e-01,6.569188833236694336e-02,-1.817602105438709259e-02,-4.107734933495521545e-02,-1.263949722051620483e-01,1.810700893402099609e-01,-1.726024150848388672e-01,3.761522844433784485e-02,1.917255371809005737e-01,-2.333728820085525513e-01,-1.537866294384002686e-01,-1.421949546784162521e-02,-2.600660026073455811e-01,-1.197350546717643738e-01,1.099340841174125671e-01,1.344633996486663818e-01,-9.970725513994693756e-03,-1.198215782642364502e-01,-1.353190839290618896e-01,1.151796337217092514e-02,-1.182372048497200012e-01,4.593767970800399780e-02,7.296009361743927002e-02,-7.022844254970550537e-02,-2.152697443962097168e-01,4.174171388149261475e-02,8.629620075225830078e-02,-1.571009308099746704e-01,-9.421060979366302490e-02,2.608316540718078613e-01,-1.242541358806192875e-03,-6.338165700435638428e-02,2.416836284101009369e-02,-1.058023720979690552e-01,4.631938785314559937e-02,-7.076428085565567017e-02,-3.697046265006065369e-02,-3.475255519151687622e-02,1.407454609870910645e-01,-2.115847077220678329e-03,-1.503871530294418335e-01,-7.045350968837738037e-02,-1.569531410932540894e-01,-1.759278401732444763e-02,-1.460813134908676147e-01,2.136174291372299194e-01,3.143653739243745804e-03,2.102476358413696289e-01,-6.953945755958557129e-02,8.492662757635116577e-02,2.391114598140120506e-03,-1.478165090084075928e-01,4.414984211325645447e-02,1.788129657506942749e-01,-1.937052905559539795e-01,-4.546890407800674438e-02,1.384953781962394714e-02,-1.353497803211212158e-01,-1.442013233900070190e-01,-7.544360309839248657e-02,-1.458080708980560303e-01,-4.209546372294425964e-02,-6.348052620887756348e-02,1.614260673522949219e-02,-1.537027657032012939e-01,-2.731113135814666748e-01,6.751523353159427643e-03,-7.981685921549797058e-03,1.470749452710151672e-02,-8.784215315245091915e-04,-2.689135968685150146e-01,-9.022813290357589722e-02,1.703779250383377075e-01,-9.004684537649154663e-02,1.982198059558868408e-01,-1.982678323984146118e-01,2.875862419605255127e-01,-1.126339510083198547e-01,4.518157988786697388e-02,-7.258247584104537964e-02,1.137955114245414734e-01,5.408699437975883484e-02,5.056779086589813232e-02,-9.592369198799133301e-02,-1.547465920448303223e-01,-3.742028772830963135e-02,-2.326392233371734619e-01,-1.934795081615447998e-01,2.173198163509368896e-01,-1.182315405458211899e-02,6.694349646568298340e-02,1.246559172868728638e-01,-6.624023616313934326e-02,4.376282915472984314e-02,3.220421671867370605e-01,-9.804916381835937500e-02,-1.362439393997192383e-01,-1.704078167676925659e-01,1.293441206216812134e-01,-1.893807202577590942e-01,4.913957044482231140e-02,-1.446151733398437500e-01,-1.530140936374664307e-01,1.690255291759967804e-02,-1.491936743259429932e-01,2.883259356021881104e-01,2.213970869779586792e-01,1.233439967036247253e-01,-1.379904001951217651e-01,-7.022295892238616943e-02,3.150843456387519836e-02,-1.020635068416595459e-01,3.163230419158935547e-02,-4.534814879298210144e-02,-6.886935979127883911e-02,6.926485151052474976e-02,1.036840900778770447e-01,2.476296424865722656e-01,-2.153838574886322021e-01,-5.223213694989681244e-03,-2.121270895004272461e-01,6.394213438034057617e-02,-5.423666536808013916e-02,1.217585653066635132e-01,1.052131354808807373e-01,-6.329804658889770508e-02,9.795256704092025757e-02,-1.251157820224761963e-01,4.809839185327291489e-03,-1.539409160614013672e-01,7.042675465345382690e-02,1.094571873545646667e-01,-6.690167635679244995e-02,9.901856631040573120e-02,-5.701506137847900391e-02,5.549909174442291260e-02,-2.977737598121166229e-02,-2.573955990374088287e-02,-2.547509670257568359e-01,2.306315861642360687e-02,-1.999640651047229767e-02,-1.173370778560638428e-01,-9.220408648252487183e-02,-6.360102910548448563e-03,-1.070241555571556091e-01,-1.454585641622543335e-01,-1.160078942775726318e-01,-8.968474715948104858e-02,6.670317798852920532e-02,4.735415056347846985e-02,4.876609519124031067e-02,-5.019304528832435608e-02,-1.075977906584739685e-01,-1.010749042034149170e-01,7.866097241640090942e-02,1.402127891778945923e-01,1.237773243337869644e-02,-1.868033707141876221e-01,1.030967161059379578e-01,-6.113744899630546570e-02,2.025798261165618896e-01,1.164171844720840454e-01,-9.481186419725418091e-02,7.367350906133651733e-02,-2.505715489387512207e-01,-6.273257732391357422e-02,-4.149421118199825287e-03,1.445020437240600586e-01,-8.358694612979888916e-03,-7.874470204114913940e-02,1.567883938550949097e-01,-4.906969144940376282e-03,-1.893922984600067139e-01,1.426254510879516602e-01,-2.141224220395088196e-03,-2.100661210715770721e-02
4.940613359212875366e-02,1.630928181111812592e-02,1.539259552955627441e-01,-2.824923396110534668e-01,-3.991020098328590393e-02,-1.595349013805389404e-01,-2.103312611579895020e-01,-1.946467608213424683e-01,5.703974515199661255e-02,-5.587130412459373474e-02,-2.425976097583770752e-02,-2.731669694185256958e-02,-1.922151446342468262e-01,-1.021933108568191528e-01,2.413457036018371582e-01,-9.316089749336242676e-02,2.851202525198459625e-02,-2.089508622884750366e-01,1.120044663548469543e-01,-2.675278782844543457e-01,2.361331284046173096e-01,-1.757003962993621826e-01,-5.938715115189552307e-02,-1.848369091749191284e-01,1.012426912784576416e-01,-1.574463248252868652e-01,-1.743631064891815186e-02,-1.085889115929603577e-01,8.556533604860305786e-02,-1.127588078379631042e-01,-1.536604315042495728e-01,-1.984107196331024170e-01,-1.154508814215660095e-01,-1.593815237283706665e-01,-9.272592514753341675e-02,-5.619429796934127808e-02,-2.153174728155136108e-01,-2.675619348883628845e-02,-1.357757747173309326e-01,-1.060416549444198608e-01,-1.631394624710083008e-01,1.210089847445487976e-01,7.652319967746734619e-02,2.213927060365676880e-01,-1.367967277765274048e-01,-8.959817141294479370e-02,-2.239851504564285278e-01,-2.010162174701690674e-02,2.087515294551849365e-01,-2.194520458579063416e-02,-2.217993438243865967e-01,6.209389492869377136e-02,6.169264391064643860e-02,-7.251187413930892944e-02,1.984810382127761841e-01,-1.253964900970458984e-01,-8.652894198894500732e-02,-1.064260378479957581e-01,-8.741241693496704102e-02,-1.788334571756422520e-03,7.204494625329971313e-02,8.838109672069549561e-02,1.999459415674209595e-01,2.264712750911712646e-01,1.023339331150054932e-01,-1.390381529927253723e-02,1.280604004859924316e-01,-8.484312333166599274e-03,-9.335757931694388390e-04,-2.008842863142490387e-02,-1.149776354432106018e-01,2.023951150476932526e-02,-3.220351785421371460e-02,6.166731193661689758e-02,-5.587658658623695374e-02,-1.719395816326141357e-01,5.474171042442321777e-02,9.167737513780593872e-02,-1.504567712545394897e-01,-1.145624965429306030e-01,-4.906860366463661194e-02,2.578888647258281708e-02,-1.452413052320480347e-01,1.730527915060520172e-02,-9.412886947393417358e-02,7.203763723373413086e-02,8.984344080090522766e-03,-1.574823558330535889e-01,-1.209919154644012451e-01,5.026236176490783691e-02,1.322960406541824341e-01,1.489792391657829285e-02,-9.977930039167404175e-02,9.693072736263275146e-02,-1.468547284603118896e-01,-1.670427247881889343e-02,1.289024353027343750e-01,1.175504028797149658e-01,2.796525694429874420e-02,-1.537844724953174591e-02,-2.167610824108123779e-02,-4.593259468674659729e-02,1.151201501488685608e-01,-1.265316754579544067e-01,-8.425313979387283325e-02,-2.695828080177307129e-01,-1.136703789234161377e-02,5.292107909917831421e-02,-2.119812369346618652e-02,-4.796061664819717407e-02,-1.908523291349411011e-01,-6.762488931417465210e-02,-2.917078435420989990e-01,9.079800546169281006e-02,-1.101493388414382935e-01,1.127452496439218521e-02,-1.302707046270370483e-01,-6.201794743537902832e-02,-5.375430732965469360e-02,-2.021185457706451416e-01,2.578695118427276611e-01,-2.138521336019039154e-02,-1.191852167248725891e-01,3.840841352939605713e-01,1.473878417164087296e-02,1.953165233135223389e-01,1.557105630636215210e-01,-9.989316761493682861e-02,-9.052741527557373047e-02,2.998051233589649200e-02,-3.520273789763450623e-02,1.574769429862499237e-02,1.855567246675491333e-01,1.826307736337184906e-02,-9.194199740886688232e-02,7.371201366186141968e-02,1.005320399999618530e-01,-9.090892039239406586e-03,-1.260873675346374512e-01,-1.076434999704360962e-01,9.575704485177993774e-02,-7.967022061347961426e-02,-1.598206907510757446e-02,-1.181974560022354126e-01,6.459484342485666275e-03,-1.382061094045639038e-01,1.530778706073760986e-01,7.408152520656585693e-02,1.780436784029006958e-01,-9.380204975605010986e-02,-5.433768406510353088e-02,-1.350307464599609375e-01,-1.552678793668746948e-01,-2.657609060406684875e-02,-1.430398672819137573e-01,-9.936337172985076904e-02,-2.832467108964920044e-02,5.562853068113327026e-02,1.503926962614059448e-01,4.508218541741371155e-02,-1.480003744363784790e-01,-1.188621968030929565e-01,-1.583096385002136230e-01,2.244029939174652100e-02,1.426743529736995697e-02,-1.757744885981082916e-02,1.471636146306991577e-01,1.844277530908584595e-01,3.498012423515319824e-01,8.521970361471176147e-02,9.574724733829498291e-02,6.472105532884597778e-02,-1.745275259017944336e-01,-1.427478808909654617e-02,-1.201498210430145264e-01,2.866804413497447968e-02,9.725362993776798248e-03,-1.038872078061103821e-01,1.956719458103179932e-01,-2.006727829575538635e-02,3.311622142791748047e-02,1.189724449068307877e-02,5.606237053871154785e-02,1.545553952455520630e-01,-9.506575763225555420e-02,-3.505412489175796509e-03,4.040452837944030762e-02,-3.412659838795661926e-02,-9.501730650663375854e-02,-7.283833622932434082e-02,1.348743289709091187e-01,-8.921878179535269737e-04,-1.291531324386596680e-01,-8.023083955049514771e-02,6.865409761667251587e-02,-6.289899349212646484e-02,2.841432392597198486e-01,-1.522129923105239868e-01,-1.531222015619277954e-01,2.259363234043121338e-01
7.253806106746196747e-03,-7.318744063377380371e-02,-1.256370991468429565e-01,-2.182291597127914429e-01,9.297029674053192139e-02,-6.872917059808969498e-03,-1.783328354358673096e-01,1.006024479866027832e-01,1.230966858565807343e-02,6.500394642353057861e-02,4.434275627136230469e-02,5.249358713626861572e-03,-2.079849392175674438e-01,1.571848839521408081e-01,-1.541039347648620605e-01,-2.061424702405929565e-01,3.016363680362701416e-01,2.574453055858612061e-01,4.393653571605682373e-02,-1.185780912637710571e-01,-3.175773024559020996e-01,2.247202843427658081e-01,2.300153672695159912e-02,-7.608513534069061279e-02,1.174693480134010315e-01,-1.343152970075607300e-01,5.583337694406509399e-02,4.513926804065704346e-02,-2.611174583435058594e-01,-1.562388539314270020e-01,5.763258785009384155e-02,-1.789031177759170532e-01,5.366712808609008789e-02,-8.666584640741348267e-02,1.520407050848007202e-01,-8.854201994836330414e-03,-1.201799586415290833e-01,-2.878609001636505127e-01,1.604357659816741943e-01,1.838672012090682983e-01,-9.045609086751937866e-02,4.352328181266784668e-02,-2.482238858938217163e-01,8.523122221231460571e-02,-1.023782119154930115e-01,1.640845388174057007e-01,-2.644570469856262207e-01,5.534572899341583252e-02,-1.496805995702743530e-02,6.131222471594810486e-02,3.974048048257827759e-02,1.865888573229312897e-02,5.412866920232772827e-02,-9.809364378452301025e-02,-1.353138592094182968e-02,2.105288393795490265e-02,1.782267391681671143e-01,1.441360712051391602e-01,-4.755728878080844879e-03,3.448575735092163086e-02,8.788210898637771606e-02,-1.780290342867374420e-02,1.553731113672256470e-01,-1.570867598056793213e-01,-2.617241442203521729e-01,-1.067207101732492447e-02,-8.888869732618331909e-02,3.154280185699462891e-01,2.353758066892623901e-01,-1.527781337499618530e-01,-2.274728566408157349e-02,3.704200685024261475e-02,-6.452275812625885010e-02,-6.055975705385208130e-02,-1.294066309928894043e-01,2.008919231593608856e-02,1.080729067325592041e-02,1.942768692970275879e-02,2.969478070735931396e-02,2.571332454681396484e-02,-6.366350688040256500e-03,-6.842515617609024048e-02,-1.194892674684524536e-01,-1.984947919845581055e-02,3.193657696247100830e-01,1.376770883798599243e-01,-1.066689472645521164e-02,4.861465841531753540e-02,-7.590629905462265015e-02,2.173110842704772949e-02,1.350639164447784424e-01,6.170646473765373230e-02,-1.403232067823410034e-01,-1.193123608827590942e-01,4.586444701999425888e-03,-2.694211900234222412e-01,5.577456206083297729e-02,-1.599192470312118530e-01,-1.746959537267684937e-01,-1.788515895605087280e-01,-1.490286588668823242e-01,9.115600585937500000e-02,-5.321670323610305786e-02,1.895911395549774170e-01,-2.253354191780090332e-01,-4.220452159643173218e-02,2.169119566679000854e-01,-5.082967132329940796e-02,-4.095096141099929810e-02,2.021499574184417725e-01,1.309649348258972168e-01,-5.834646150469779968e-02,2.198057174682617188e-01,-4.810456186532974243e-02,2.032865583896636963e-01,2.043151669204235077e-02,1.170809268951416016e-01,-1.053756177425384521e-01,-1.804447770118713379e-01,2.084954231977462769e-01,9.341884404420852661e-03,-7.482188194990158081e-02,4.465822502970695496e-02,-1.138675734400749207e-01,1.169958859682083130e-01,-8.353736251592636108e-02,-4.544723033905029297e-02,3.914005160331726074e-01,-1.791577190160751343e-01,-9.412804618477821350e-03,1.148492842912673950e-01,-1.792562603950500488e-01,9.759771078824996948e-02,-1.393717229366302490e-01,2.699885983020067215e-03,-1.295717358589172363e-01,-3.380786180496215820e-01,1.818998530507087708e-02,-3.871576394885778427e-03,2.539915144443511963e-01,-1.474391669034957886e-01,3.647579550743103027e-01,-1.032912135124206543e-01,1.822017431259155273e-01,-1.667386591434478760e-01,6.015408318489789963e-03,1.530951168388128281e-02,1.170871332287788391e-01,-5.596538260579109192e-02,2.438191697001457214e-02,-2.069381028413772583e-01,-1.106250882148742676e-01,-2.780112624168395996e-02,8.181361854076385498e-02,-2.728828974068164825e-02,-5.106525495648384094e-02,2.999588549137115479e-01,1.993365287780761719e-01,-4.266402497887611389e-02,7.070577703416347504e-03,-2.127167433500289917e-01,-4.294235724955797195e-03,1.545606553554534912e-01,-1.488565802574157715e-01,-1.332723200321197510e-01,-1.459548436105251312e-02,-1.230678260326385498e-01,1.077368333935737610e-01,-3.203862607479095459e-01,-1.541901938617229462e-02,1.160442680120468140e-01,-1.133843958377838135e-01,-1.864733397960662842e-01,6.210358440876007080e-02,-5.275123938918113708e-02,-1.708929985761642456e-01,-1.293789297342300415e-01,-6.524617969989776611e-02,-2.336159199476242065e-01,4.389225840568542480e-01,-6.469573080539703369e-02,-3.314929902553558350e-01,4.116902127861976624e-02,-8.611654490232467651e-02,-8.593335747718811035e-02,-1.229804009199142456e-01,-5.872014909982681274e-02,6.339892745018005371e-02,-9.953166544437408447e-02,5.785829573869705200e-02,-1.444641351699829102e-01,8.523595519363880157e-03,2.113860659301280975e-02,-2.560704052448272705e-01,3.754855990409851074e-01,5.292115733027458191e-02,-1.715141534805297852e-01,3.332300484180450439e-02,7.549468427896499634e-02,-8.397599309682846069e-02
