1.250229775905609131e-01,2.283391207456588745e-01,-1.537233293056488037e-01,-8.501079678535461426e-02,-8.482233434915542603e-02,-3.520364686846733093e-02,2.126403898000717163e-01,-3.924307227134704590e-02,-4.039094597101211548e-02,1.141959130764007568e-01,7.924059778451919556e-02,1.267636567354202271e-01,1.070868894457817078e-01,-8.789181709289550781e-02,1.867034733295440674e-01,1.680928915739059448e-01,8.852903731167316437e-03,-2.470624446868896484e-01,7.170849014073610306e-03,-1.295707561075687408e-02,1.219341233372688293e-01,1.823239028453826904e-01,3.084214925765991211e-01,1.257162392139434814e-01,-1.086736992001533508e-01,-8.200489729642868042e-02,1.459196656942367554e-01,-1.363718062639236450e-01,3.812199458479881287e-02,-3.458027169108390808e-02,1.572872549295425415e-01,2.468904852867126465e-02,-5.684020742774009705e-02,2.261517494916915894e-01,1.262048482894897461e-01,1.342465132474899292e-01,-1.455338858067989349e-02,1.138026267290115356e-01,-1.704635322093963623e-01,-5.633061379194259644e-02,1.363988071680068970e-01,1.945455819368362427e-01,-9.364391118288040161e-02,1.367197036743164062e-01,1.007295250892639160e-01,3.216776251792907715e-02,2.242533415555953979e-01,4.767578095197677612e-02,-6.162937358021736145e-02,-6.952267885208129883e-02,1.149335652589797974e-01,1.358525604009628296e-01,-1.923070102930068970e-01,-1.457185447216033936e-01,-9.261202067136764526e-02,-1.640044152736663818e-02,-8.992276340723037720e-02,7.243208587169647217e-02,2.712049987167119980e-03,-8.536203950643539429e-02,1.032476127147674561e-01,1.972835659980773926e-01,-1.258339732885360718e-01,8.479150384664535522e-02,4.951524361968040466e-02,2.195152640342712402e-01,1.060910299420356750e-01,-4.584570974111557007e-02,-1.942913681268692017e-01,-4.822575487196445465e-03,1.419678032398223877e-01,3.843984100967645645e-03,1.938752681016921997e-01,-3.322914242744445801e-02,1.845312714576721191e-01,8.556042611598968506e-02,-1.457694321870803833e-01,3.848375678062438965e-01,1.001206785440444946e-01,-4.978587850928306580e-03,-9.803417325019836426e-02,4.173593223094940186e-02,-2.096369676291942596e-02,1.492300331592559814e-01,6.400192528963088989e-02,-2.104195021092891693e-02,7.646672427654266357e-02,1.164959967136383057e-01,-3.013947978615760803e-02,8.722477406263351440e-02,-1.046766340732574463e-01,1.917375996708869934e-02,-4.814568161964416504e-02,-1.254998445510864258e-01,6.432172656059265137e-02,3.361416757106781006e-01,2.501472644507884979e-02,-9.877479821443557739e-02,-8.144685626029968262e-02,-7.225025445222854614e-02,1.718797534704208374e-01,1.189649328589439392e-01,1.367731019854545593e-02,1.988088339567184448e-02,2.162933200597763062e-01,-1.840889006853103638e-01,-5.961904674768447876e-02,-1.078895255923271179e-01,4.090971313416957855e-03,-1.998717933893203735e-01,1.589198783040046692e-02,-1.182291191071271896e-02,-8.194508031010627747e-03,-3.650559484958648682e-02,-4.558661952614784241e-02,1.921676695346832275e-01,1.844825446605682373e-01,9.976025670766830444e-03,-5.935511738061904907e-02,8.290028572082519531e-02,-1.546587701886892319e-02,2.345086336135864258e-01,3.478490710258483887e-01,5.304593965411186218e-02,1.453302651643753052e-01,-1.455764565616846085e-02,1.137154698371887207e-01,-1.100826561450958252e-01,2.729251794517040253e-02,2.595006953924894333e-04,-1.500486731529235840e-01,-1.205931305885314941e-01,2.479830086231231689e-01,4.238535463809967041e-02,2.179278582334518433e-01,7.741980254650115967e-02,-1.769322715699672699e-02,-2.640849351882934570e-02,-2.663135994225740433e-03,-9.123898297548294067e-02,1.694927215576171875e-01,-6.363362073898315430e-02,1.216445192694664001e-01,-2.761495485901832581e-02,3.137449026107788086e-01,5.692413449287414551e-02,2.011338919401168823e-01,4.918017238378524780e-02,5.379788950085639954e-02,-5.523756518959999084e-02,-3.901209309697151184e-02,2.201186716556549072e-01,6.868049502372741699e-02,1.884513348340988159e-01,1.352809667587280273e-01,1.662909388542175293e-01,-9.055425226688385010e-02,1.134597435593605042e-01,-7.105295360088348389e-02,1.393565833568572998e-01,-1.990720070898532867e-02,-1.697610318660736084e-01,2.119103372097015381e-01,3.471153788268566132e-03,-9.127343073487281799e-03,-2.012037932872772217e-01,-6.883213669061660767e-02,-6.665047258138656616e-02,1.565784513950347900e-01,-6.418742984533309937e-02,-2.105605453252792358e-01,-9.105957299470901489e-02,2.095940262079238892e-01,-1.786132007837295532e-01,1.779983043670654297e-01,1.214363202452659607e-01,-1.820085197687149048e-02,-5.822774395346641541e-02,-7.261572033166885376e-02,-8.748565614223480225e-02,-1.096013411879539490e-01,-9.032107889652252197e-02,6.021094322204589844e-02,-6.878791749477386475e-02,-3.147130087018013000e-02,9.575302898883819580e-02,4.840439930558204651e-02,1.555303204804658890e-02,2.280279546976089478e-01,1.063141226768493652e-01,2.062969803810119629e-01,-1.340978741645812988e-01,-4.055978357791900635e-02,-3.321738168597221375e-02,-4.283267632126808167e-02,1.709655076265335083e-01,9.816986322402954102e-02,6.109435856342315674e-02,1.584358215332031250e-01,1.810161583125591278e-02
-1.030743494629859924e-02,-1.449894309043884277e-01,6.073695048689842224e-02,6.730584055185317993e-02,-5.744215473532676697e-02,5.613349750638008118e-02,1.297486275434494019e-01,5.185513291507959366e-03,-1.601034849882125854e-01,2.488351911306381226e-01,-1.039624214172363281e-02,6.339440494775772095e-02,2.389238961040973663e-02,-2.060616165399551392e-01,1.326950043439865112e-01,1.480766758322715759e-02,-1.064326688647270203e-01,8.292131870985031128e-02,-1.650614589452743530e-01,-1.001351550221443176e-01,8.557596057653427124e-02,1.648352295160293579e-01,-7.910620421171188354e-02,-1.664206758141517639e-02,-1.535425037145614624e-01,8.176486194133758545e-02,-7.404997944831848145e-02,2.168613970279693604e-01,1.534001082181930542e-01,9.211100637912750244e-02,-1.032427027821540833e-01,-3.518845140933990479e-02,-1.682903617620468140e-01,1.535621434450149536e-01,2.920351363718509674e-02,-2.145980894565582275e-01,2.381264232099056244e-02,-1.339545249938964844e-01,-1.489308029413223267e-01,-2.138181328773498535e-01,-8.415105193853378296e-02,1.170697063207626343e-02,1.307612955570220947e-01,1.985313445329666138e-01,-5.090489611029624939e-02,1.103755831718444824e-02,-2.388099133968353271e-01,1.081276088953018188e-01,-7.830257713794708252e-02,-8.337345905601978302e-03,7.248290628194808960e-02,-1.749789863824844360e-01,2.198695689439773560e-01,-7.929068058729171753e-02,-1.490116566419601440e-01,-3.114825785160064697e-01,7.607512176036834717e-02,-1.221263930201530457e-01,-4.767088964581489563e-02,8.655284345149993896e-02,-4.428917169570922852e-02,-1.493866890668869019e-01,1.046349555253982544e-01,1.750226765871047974e-01,-2.765010483562946320e-02,2.137891054153442383e-01,-4.315878450870513916e-02,7.448172569274902344e-02,-5.844899639487266541e-02,-9.259319305419921875e-02,-3.020221590995788574e-01,4.279543086886405945e-02,1.810062974691390991e-01,-2.302084863185882568e-02,-1.502716094255447388e-01,3.640412539243698120e-02,3.071376681327819824e-02,3.704175353050231934e-02,-9.205778129398822784e-03,4.451351985335350037e-02,1.497527509927749634e-01,5.884373933076858521e-02,-3.618597611784934998e-02,-1.679358929395675659e-01,7.599872350692749023e-02,-2.285676896572113037e-01,-1.077678278088569641e-01,-3.037680871784687042e-02,4.859883710741996765e-02,1.570911407470703125e-01,-9.382119029760360718e-02,-1.089096367359161377e-01,-2.172038555145263672e-01,-1.493885070085525513e-01,-7.355445623397827148e-02,1.398342549800872803e-01,5.205031018704175949e-03,1.643990911543369293e-02,-2.611811272799968719e-02,6.103414297103881836e-02,-2.098522782325744629e-01,5.792417004704475403e-02,-7.554147392511367798e-02,-3.470815718173980713e-02,1.268548071384429932e-01,7.072567008435726166e-03,-2.992867305874824524e-02,2.516902610659599304e-02,2.634219825267791748e-02,3.928566351532936096e-02,1.144991628825664520e-02,-6.184751167893409729e-02,-1.174263581633567810e-01,1.603124886751174927e-01,-9.681893140077590942e-02,-1.377469748258590698e-01,-1.232358142733573914e-01,2.021886110305786133e-01,6.508533656597137451e-02,2.531104348599910736e-02,1.581408530473709106e-01,1.191713958978652954e-01,-5.628166720271110535e-02,3.055523633956909180e-01,3.883456066250801086e-02,2.029242180287837982e-02,-2.962134592235088348e-02,-2.567964792251586914e-02,-2.166498266160488129e-02,3.227269649505615234e-02,6.681718677282333374e-02,-5.281900241971015930e-02,4.294803366065025330e-02,3.904898837208747864e-02,-1.364375799894332886e-01,1.104145944118499756e-01,5.543372780084609985e-02,7.016809284687042236e-02,-2.536159008741378784e-02,-2.354948669672012329e-01,-3.721594214439392090e-01,7.161066681146621704e-02,-2.155735939741134644e-01,-8.632333576679229736e-02,-1.085710711777210236e-02,-1.297180503606796265e-01,9.899380058050155640e-02,-1.339016854763031006e-01,-6.695068627595901489e-02,4.144685715436935425e-02,2.472811378538608551e-03,4.528313875198364258e-03,3.800538927316665649e-02,-1.965523958206176758e-01,-1.119617596268653870e-01,-6.424301117658615112e-02,6.888582557439804077e-02,2.040244266390800476e-02,2.397749871015548706e-01,-9.846233762800693512e-03,-9.212604910135269165e-02,8.735933899879455566e-02,8.175972104072570801e-02,-1.899041421711444855e-02,1.205497160553932190e-01,-9.935905225574970245e-03,-1.591690443456172943e-02,1.502039879560470581e-01,1.379187554121017456e-01,1.732354760169982910e-01,7.388473302125930786e-02,-1.030530855059623718e-01,7.910542935132980347e-02,-4.944104701280593872e-02,-6.945380568504333496e-02,2.249053567647933960e-01,2.399633824825286865e-01,1.687000095844268799e-01,1.366858482360839844e-01,-4.474287107586860657e-02,1.131166815757751465e-01,-7.343177497386932373e-02,-5.004921182990074158e-02,2.358995378017425537e-01,3.633704781532287598e-02,-2.360798418521881104e-01,-1.327340211719274521e-02,9.979405999183654785e-02,6.248782202601432800e-02,-2.404692023992538452e-01,1.281462013721466064e-01,3.900839015841484070e-03,7.492902129888534546e-02,-4.511082544922828674e-02,-9.283849596977233887e-02,-9.462128579616546631e-02,3.106642700731754303e-02,-3.232813626527786255e-02,-6.333979219198226929e-02,1.868533343076705933e-01
-3.460954176262021065e-03,5.275994539260864258e-02,-3.914649412035942078e-02,-8.128500729799270630e-02,5.879289470613002777e-03,8.697590231895446777e-02,8.002046495676040649e-02,6.107112858444452286e-03,1.523497849702835083e-01,2.498602569103240967e-01,1.598588675260543823e-01,5.079511180520057678e-02,2.655873261392116547e-02,1.167193725705146790e-01,4.748496413230895996e-02,-4.464322701096534729e-02,2.501129209995269775e-01,1.288680080324411392e-02,1.720383167266845703e-01,-2.055108919739723206e-02,1.094471216201782227e-01,2.440892606973648071e-01,8.578880131244659424e-02,1.204191334545612335e-02,9.282904677093029022e-03,-1.295428872108459473e-01,1.668301038444042206e-02,-2.704841317608952522e-04,1.322668343782424927e-01,1.477387733757495880e-02,1.342957466840744019e-01,7.985916733741760254e-02,1.340650171041488647e-01,9.673431515693664551e-02,1.749362051486968994e-01,2.141907112672924995e-03,1.224655434489250183e-01,-2.329928614199161530e-02,5.614417791366577148e-02,-2.555943429470062256e-01,8.868324011564254761e-02,3.377900421619415283e-01,-8.303803205490112305e-02,6.657109409570693970e-02,-1.468965709209442139e-01,-1.194644644856452942e-01,8.620705455541610718e-02,1.443038135766983032e-01,1.276534944772720337e-01,4.920501634478569031e-02,1.870666295289993286e-01,4.043345805257558823e-03,1.803943663835525513e-01,1.788198575377464294e-02,8.082804083824157715e-02,1.486478447914123535e-01,-5.734320729970932007e-02,-1.186059601604938507e-02,2.280499935150146484e-01,4.667850211262702942e-02,1.919173373607918620e-04,-2.158460766077041626e-01,3.308147192001342773e-02,1.930727958679199219e-01,3.500566631555557251e-02,2.431427501142024994e-02,2.173139899969100952e-02,2.227831333875656128e-01,-1.680036038160324097e-01,-6.375686824321746826e-02,-1.571822762489318848e-01,1.555856615304946899e-01,1.696239262819290161e-01,-1.987500935792922974e-01,2.045230008661746979e-02,-8.607009053230285645e-02,-2.798923989757895470e-03,2.176453471183776855e-01,1.978224217891693115e-01,3.263220936059951782e-02,9.608855098485946655e-02,2.949803471565246582e-01,-3.366155177354812622e-02,2.325728163123130798e-02,1.440751701593399048e-01,3.990881517529487610e-02,2.566998302936553955e-01,1.353128552436828613e-01,2.724958360195159912e-01,-6.143434438854455948e-03,6.106503680348396301e-02,3.497176989912986755e-02,1.267216801643371582e-01,1.131290495395660400e-01,2.557771205902099609e-01,2.356172911822795868e-02,3.177284821867942810e-02,-3.749559819698333740e-02,2.497255243360996246e-02,9.166384488344192505e-02,2.354172058403491974e-02,2.392400801181793213e-02,-7.859566062688827515e-02,1.762176752090454102e-01,-4.114283248782157898e-02,1.482438575476408005e-02,6.386361271142959595e-02,6.979477405548095703e-02,8.609221875667572021e-02,-5.194997414946556091e-02,-1.246817503124475479e-02,-4.019325971603393555e-02,1.745526939630508423e-01,1.351062208414077759e-01,-5.608692392706871033e-02,2.356525883078575134e-02,-6.590399146080017090e-02,7.851447165012359619e-02,-5.875123664736747742e-03,1.030481085181236267e-01,2.416314035654067993e-01,5.934032797813415527e-02,1.570371091365814209e-01,7.658556103706359863e-02,1.774420589208602905e-01,-4.213159531354904175e-02,-6.635149568319320679e-02,-4.801603779196739197e-02,1.177702695131301880e-01,-9.443008154630661011e-02,-1.143370792269706726e-01,-1.535016149282455444e-01,2.236839532852172852e-01,-4.327699169516563416e-02,1.480328738689422607e-01,3.586452826857566833e-02,-2.286824584007263184e-02,-1.732576824724674225e-02,1.610825210809707642e-01,2.735883754212409258e-04,-5.455707386136054993e-02,4.190889000892639160e-02,-1.236926466226577759e-01,-8.238430321216583252e-02,2.290730327367782593e-01,4.673729464411735535e-02,2.701034545898437500e-01,4.292002320289611816e-02,4.647520929574966431e-02,-5.565759539604187012e-02,-1.497455500066280365e-02,-7.061893702484667301e-04,-5.494079738855361938e-02,1.325153093785047531e-02,-9.051628410816192627e-02,-1.092124357819557190e-01,1.302911043167114258e-01,3.130457103252410889e-01,-5.702348053455352783e-02,-8.833325654268264771e-02,1.687911897897720337e-02,5.366611853241920471e-02,1.055303439497947693e-01,7.192498445510864258e-02,-2.566569447517395020e-01,-6.791871041059494019e-02,-5.510597303509712219e-02,2.629011869430541992e-02,1.000853776931762695e-01,1.787609159946441650e-01,-1.219769790768623352e-01,3.666564524173736572e-01,1.145851984620094299e-01,-5.647602304816246033e-02,-1.609355360269546509e-01,1.849810332059860229e-01,9.437908977270126343e-02,-8.746124058961868286e-02,2.059458047151565552e-01,2.075371518731117249e-02,-1.118469089269638062e-01,7.697205990552902222e-02,-3.015776351094245911e-02,4.197772592306137085e-02,8.486812561750411987e-02,-4.586639255285263062e-02,-1.003796309232711792e-01,2.245228886604309082e-01,2.878562808036804199e-01,-8.241248875856399536e-02,-2.370605431497097015e-02,-5.003638565540313721e-02,6.536035984754562378e-02,-9.069829247891902924e-03,1.495639830827713013e-01,-9.863912314176559448e-02,1.779222190380096436e-01,2.346427291631698608e-01,-1.015937793999910355e-02,-1.093205157667398453e-02
2.348762750625610352e-02,-6.989679485559463501e-02,5.445566773414611816e-02,-2.361087054014205933e-01,1.781354695558547974e-01,1.324962228536605835e-01,1.068346947431564331e-02,6.499251723289489746e-02,2.490956783294677734e-01,-6.838139891624450684e-02,2.698700428009033203e-01,1.801923066377639771e-01,1.415729671716690063e-01,5.798192694783210754e-02,-1.445000916719436646e-01,-7.453460991382598877e-02,2.408679127693176270e-01,1.478716582059860229e-01,2.602644264698028564e-01,8.968035131692886353e-02,-1.423507481813430786e-01,4.396392777562141418e-02,1.563966274261474609e-02,3.781161829829216003e-02,-1.002945378422737122e-01,4.198967292904853821e-02,-1.123249754309654236e-01,1.688696444034576416e-01,-9.273358434438705444e-02,1.610654145479202271e-01,1.115690916776657104e-01,-7.577806711196899414e-02,1.621791422367095947e-01,-1.181039363145828247e-01,1.368969231843948364e-01,2.076625823974609375e-01,-1.561747770756483078e-02,-1.842334866523742676e-01,2.129277437925338745e-01,2.244290560483932495e-01,1.379805952310562134e-01,-5.747641995549201965e-02,1.745070517063140869e-01,-7.341182325035333633e-03,5.711331218481063843e-02,9.738321602344512939e-02,4.032529518008232117e-02,1.259944885969161987e-01,6.749180145561695099e-03,1.369331926107406616e-01,1.141645573079586029e-02,-9.570764750242233276e-02,3.304191827774047852e-01,3.137735649943351746e-02,9.849300235509872437e-02,2.276332080364227295e-01,1.756279766559600830e-01,-7.958057522773742676e-02,1.255451589822769165e-01,5.081315059214830399e-03,-1.771151274442672729e-01,-3.584587946534156799e-02,1.778683215379714966e-01,-1.523359566926956177e-01,-1.091660037636756897e-01,-1.007685214281082153e-01,-3.973020985722541809e-02,1.353061497211456299e-01,1.112963035702705383e-01,-5.158720910549163818e-02,8.141897618770599365e-02,-1.493147388100624084e-02,-1.551192253828048706e-01,6.201410293579101562e-02,-7.864682376384735107e-02,1.460237428545951843e-02,-5.235733836889266968e-02,-2.151475660502910614e-02,1.990551501512527466e-01,9.270843118429183960e-02,-4.236008971929550171e-02,-5.457759648561477661e-02,2.099188975989818573e-02,2.029663650318980217e-03,2.227010391652584076e-02,2.618915140628814697e-01,2.785419225692749023e-01,3.351821005344390869e-01,1.339062154293060303e-01,-3.115054965019226074e-01,6.521907448768615723e-02,8.631769567728042603e-02,2.787490189075469971e-01,4.878754913806915283e-02,1.191537082195281982e-01,-2.936787307262420654e-01,1.013706400990486145e-01,-9.882059693336486816e-02,-1.219685561954975128e-02,3.269436955451965332e-02,2.542007863521575928e-01,3.678740467876195908e-03,-1.744194328784942627e-02,1.789420992136001587e-01,-1.424454618245363235e-02,1.136264503002166748e-01,2.462796121835708618e-01,-3.004893474280834198e-02,1.939667910337448120e-01,1.993535608053207397e-01,4.851516801863908768e-03,-4.170886054635047913e-02,1.542403846979141235e-01,-1.269678212702274323e-02,5.405860021710395813e-02,1.563549041748046875e-01,4.459874331951141357e-02,-6.590535491704940796e-02,-1.047845464199781418e-02,-1.434167940169572830e-02,-7.356635481119155884e-02,6.755540147423744202e-03,-5.178173631429672241e-02,-1.874472498893737793e-01,5.807129666209220886e-02,1.931883096694946289e-01,-1.786256879568099976e-01,7.202719897031784058e-02,1.563193649053573608e-01,3.538929857313632965e-03,-1.404674798250198364e-01,-1.300384402275085449e-01,7.998331636190414429e-02,1.272080242633819580e-01,5.852964520454406738e-02,1.701695919036865234e-01,-4.262651130557060242e-02,1.105873882770538330e-01,2.753156721591949463e-01,1.737500280141830444e-01,3.132166266441345215e-01,-3.058850765228271484e-02,1.471990197896957397e-01,1.500067263841629028e-01,-7.846426218748092651e-02,6.678099185228347778e-02,-1.453990787267684937e-01,2.064028531312942505e-01,-8.270171284675598145e-02,9.051420539617538452e-02,1.039187163114547729e-01,3.583810105919837952e-02,8.760854601860046387e-02,-1.104438770562410355e-02,-8.692400529980659485e-03,-2.012990042567253113e-02,2.265932038426399231e-02,1.187025830149650574e-01,8.797389455139636993e-03,-2.876347117125988007e-02,7.610619813203811646e-02,1.169710382819175720e-01,-1.714602112770080566e-01,1.488529443740844727e-01,1.064880844205617905e-02,-1.346381567418575287e-02,-1.175856292247772217e-01,-9.110195189714431763e-02,-1.365607976913452148e-01,-4.545267671346664429e-02,1.455989032983779907e-01,3.562672436237335205e-02,-2.482267767190933228e-01,1.329636871814727783e-01,1.670936346054077148e-01,-1.849232986569404602e-02,-1.656448990106582642e-01,5.549108237028121948e-02,2.281770855188369751e-02,1.180634573101997375e-01,-2.409985475242137909e-02,-5.739050731062889099e-02,1.025926470756530762e-01,-2.223870009183883667e-01,2.792371213436126709e-01,2.473786845803260803e-02,4.752288386225700378e-02,3.653649613261222839e-02,-1.284155547618865967e-01,1.359813846647739410e-02,2.225498668849468231e-03,7.423413544893264771e-02,-1.226542890071868896e-02,-2.700843382626771927e-03,2.011791169643402100e-01,-1.188659071922302246e-01,-1.862104535102844238e-01,1.178068816661834717e-01,-2.382923066616058350e-01,-3.522437438368797302e-02
3.113738633692264557e-02,2.737510949373245239e-03,1.679529622197151184e-02,1.142601147294044495e-01,-6.334760785102844238e-02,1.244847252964973450e-01,8.800055086612701416e-02,7.012601196765899658e-02,1.598915159702301025e-01,1.104101613163948059e-01,1.666818112134933472e-01,-9.905823320150375366e-02,9.099408984184265137e-02,4.071565344929695129e-02,-2.374328970909118652e-01,1.433344334363937378e-01,-1.438549999147653580e-02,7.257849909365177155e-03,-1.937648802995681763e-01,2.254059910774230957e-01,-5.054305493831634521e-02,5.999011546373367310e-02,-1.950534582138061523e-01,7.210648059844970703e-02,-3.033249676227569580e-01,-6.139016896486282349e-02,4.675688222050666809e-02,1.534213572740554810e-01,-5.302917212247848511e-03,-1.561729758977890015e-01,-1.199802905321121216e-01,6.255473941564559937e-02,2.125817388296127319e-01,2.401047199964523315e-02,-3.579037263989448547e-02,1.075806692242622375e-01,-1.464376449584960938e-01,-1.309162676334381104e-01,-1.466312110424041748e-01,3.246075659990310669e-02,1.814527064561843872e-01,-2.213629633188247681e-01,-1.928299665451049805e-01,1.187665853649377823e-02,2.493317425251007080e-01,7.515888661146163940e-02,1.093942597508430481e-01,-4.480524957180023193e-01,-1.641826927661895752e-01,1.680041700601577759e-01,-3.841280564665794373e-02,9.294704347848892212e-02,-4.390441626310348511e-02,1.319799572229385376e-01,1.495207846164703369e-02,1.487525254487991333e-01,1.056713312864303589e-01,-8.534989319741725922e-03,1.430952101945877075e-01,-2.772990167140960693e-01,1.062759980559349060e-01,-1.128425598144531250e-01,-1.186914891004562378e-01,-6.294723600149154663e-02,-9.004705399274826050e-02,4.518353566527366638e-02,-4.774053767323493958e-02,2.841979265213012695e-02,-9.982847422361373901e-02,2.349739074707031250e-01,7.936473190784454346e-02,3.464841097593307495e-02,4.224902391433715820e-02,1.795063167810440063e-01,2.850693836808204651e-02,3.862724080681800842e-02,6.162234768271446228e-02,-1.351599544286727905e-01,-6.037231534719467163e-02,-7.065095007419586182e-02,-1.685550063848495483e-01,-1.461900584399700165e-02,2.869935147464275360e-02,8.318686485290527344e-02,4.964536800980567932e-02,-2.337603084743022919e-02,1.779914647340774536e-01,-1.936450600624084473e-01,-1.959276050329208374e-01,-1.406526267528533936e-01,-1.944042444229125977e-01,2.737393788993358612e-02,-1.256712526082992554e-01,-7.133770734071731567e-02,8.997546881437301636e-02,-2.175951935350894928e-02,-6.928921490907669067e-02,1.339568756520748138e-02,1.587211340665817261e-01,-7.879805564880371094e-02,2.743070125579833984e-01,-9.650165587663650513e-02,1.547867432236671448e-02,2.079304680228233337e-02,-1.269512530416250229e-02,1.748973317444324493e-02,-3.163076564669609070e-02,-1.752032153308391571e-02,3.640554146841168404e-03,-1.650578975677490234e-01,1.261255890130996704e-01,8.587106317281723022e-02,8.598241955041885376e-02,5.593231320381164551e-02,-1.290298402309417725e-01,-1.410716325044631958e-01,1.586074531078338623e-01,1.326504945755004883e-01,1.746015846729278564e-01,-1.088519245386123657e-01,-1.110255494713783264e-01,-7.803248707205057144e-03,1.962365955114364624e-02,-1.381539702415466309e-01,1.806185543537139893e-01,-4.580602422356605530e-02,1.165910996496677399e-02,-1.264095157384872437e-01,-1.567870527505874634e-01,1.572149097919464111e-01,1.600847989320755005e-01,8.707666397094726562e-02,3.531085699796676636e-02,-1.553481072187423706e-01,-4.025662317872047424e-02,5.533156916499137878e-02,-9.995326399803161621e-02,-4.049922525882720947e-02,-9.095467627048492432e-02,-1.620815098285675049e-01,2.087782621383666992e-01,-1.500137336552143097e-02,-1.445481628179550171e-01,2.340410202741622925e-01,-2.411787658929824829e-01,-9.372193599119782448e-04,-6.188479810953140259e-02,7.126759737730026245e-02,4.935789853334426880e-02,1.250655204057693481e-01,-1.469049900770187378e-01,-1.329719573259353638e-01,2.401995845139026642e-02,-8.474233746528625488e-02,5.326565727591514587e-02,7.573023438453674316e-03,-5.799893662333488464e-02,-1.879880428314208984e-01,1.012012213468551636e-01,-7.575342059135437012e-02,1.252707988023757935e-01,-2.163286805152893066e-01,-2.067693918943405151e-01,1.358427852392196655e-01,-2.468313090503215790e-02,-8.311969786882400513e-02,-1.366037279367446899e-01,4.430777952075004578e-02,-1.843819469213485718e-01,-3.262094780802726746e-02,6.265759468078613281e-02,-2.152997702360153198e-01,-9.480227530002593994e-02,-7.600078731775283813e-02,-5.516273155808448792e-02,5.208747088909149170e-02,-3.992724418640136719e-02,1.100547388195991516e-01,-6.563592702150344849e-02,1.277836412191390991e-01,1.537234187126159668e-01,-1.821043193340301514e-01,-5.978058651089668274e-02,2.648389041423797607e-01,4.589290544390678406e-02,3.117009624838829041e-02,2.549867630004882812e-01,8.723008446395397186e-03,-2.429741919040679932e-01,1.155889779329299927e-01,-2.090232223272323608e-01,-1.099376231431961060e-01,-2.233106195926666260e-01,3.776700422167778015e-02,-1.410828679800033569e-01,1.422639340162277222e-01,-5.472447723150253296e-02,-6.324668973684310913e-02,2.036231569945812225e-02,-1.718888878822326660e-01
-3.103043325245380402e-02,7.023376226425170898e-02,5.017611384391784668e-02,-1.439314782619476318e-01,3.085875511169433594e-02,2.038424760103225708e-01,-6.664902716875076294e-02,6.627149134874343872e-02,2.727898582816123962e-02,-1.632153540849685669e-01,9.630204737186431885e-02,-1.523051112890243530e-01,1.372717916965484619e-01,1.710200756788253784e-01,-1.226431950926780701e-01,-8.650272339582443237e-02,1.534024178981781006e-01,1.474820226430892944e-01,4.960294067859649658e-02,2.310579270124435425e-01,6.838338822126388550e-02,-4.415458068251609802e-02,1.648723483085632324e-01,3.355246968567371368e-03,2.015268504619598389e-01,2.240928821265697479e-02,7.502318173646926880e-02,1.121211796998977661e-01,7.246367633342742920e-02,1.543055772781372070e-01,2.416655421257019043e-02,1.109569221735000610e-01,1.415509432554244995e-01,-5.002443119883537292e-02,2.622521482408046722e-02,8.653194457292556763e-02,1.682705581188201904e-01,-1.664563119411468506e-01,3.697834163904190063e-02,4.098795056343078613e-01,1.708173304796218872e-01,1.902030110359191895e-01,8.097974210977554321e-02,6.615245342254638672e-02,-6.666185706853866577e-02,-2.261146157979965210e-01,6.375868618488311768e-02,-2.975408360362052917e-02,-6.904949247837066650e-02,-9.172522276639938354e-02,8.432798832654953003e-02,1.050502210855484009e-01,2.164996229112148285e-02,6.540458649396896362e-02,-3.298259153962135315e-02,4.176206886768341064e-03,-9.129757434129714966e-02,2.022306807339191437e-02,2.276731655001640320e-02,-1.064379364252090454e-01,-6.436624377965927124e-02,1.281170248985290527e-01,3.378996998071670532e-02,-3.084908938035368919e-03,-2.328419983386993408e-01,-2.350088357925415039e-01,-1.228118911385536194e-01,-1.710473895072937012e-01,9.745178371667861938e-02,1.598562747240066528e-01,1.049450188875198364e-01,2.999546378850936890e-02,-3.235047683119773865e-02,7.400362193584442139e-02,-2.535409294068813324e-02,1.300776004791259766e-01,1.249601319432258606e-01,4.299356788396835327e-02,2.450597845017910004e-02,-6.265125423669815063e-02,-5.553380027413368225e-02,-1.719933301210403442e-01,2.373506687581539154e-02,-3.322204947471618652e-02,7.497188448905944824e-02,3.570138514041900635e-01,-4.766131564974784851e-02,1.291855424642562866e-01,-1.015858575701713562e-01,-4.028689116239547729e-02,-1.413272507488727570e-02,-8.433092385530471802e-02,-5.609774217009544373e-02,1.753666847944259644e-01,-1.392183452844619751e-01,-2.687958776950836182e-01,2.876402735710144043e-01,3.716875612735748291e-02,1.351742297410964966e-01,1.090661510825157166e-01,3.440161421895027161e-02,2.077687382698059082e-01,1.585545986890792847e-01,8.743107318878173828e-02,8.560990542173385620e-02,1.504988223314285278e-01,8.055309206247329712e-02,-4.713147412985563278e-03,4.790983721613883972e-02,-6.024169549345970154e-02,-1.911749541759490967e-01,3.743939101696014404e-02,1.141064018011093140e-01,1.331257820129394531e-01,1.732673346996307373e-01,1.944130957126617432e-01,1.751607656478881836e-01,-4.342582449316978455e-02,2.434837967157363892e-01,1.214198768138885498e-01,-1.556050777435302734e-01,-7.293117791414260864e-02,-3.409209102392196655e-02,-9.067687392234802246e-02,1.425971835851669312e-01,-3.194033633917570114e-03,-9.353283047676086426e-02,1.050736606121063232e-01,4.985208436846733093e-02,2.205715179443359375e-01,1.048983782529830933e-01,-2.484273537993431091e-02,-1.120316982269287109e-01,9.507060050964355469e-02,1.638866513967514038e-01,3.688406571745872498e-02,-9.162387251853942871e-02,-1.699598729610443115e-01,7.016662508249282837e-02,2.236815690994262695e-01,2.097008675336837769e-01,1.789782196283340454e-01,1.437375992536544800e-01,1.182154100388288498e-02,-5.216461792588233948e-02,3.997828066349029541e-02,-9.779995679855346680e-02,2.859051823616027832e-01,9.774475544691085815e-02,-1.138698905706405640e-01,1.594383865594863892e-01,1.114624203182756901e-03,-1.330932229757308960e-01,1.643171459436416626e-01,1.311115641146898270e-02,9.483507275581359863e-02,1.598109304904937744e-01,9.677086025476455688e-03,-2.247548475861549377e-02,2.438149303197860718e-01,4.382939040660858154e-01,-3.211328387260437012e-02,4.355880618095397949e-02,3.965193033218383789e-02,2.226299196481704712e-01,-1.460554823279380798e-02,-7.654435187578201294e-02,8.247946202754974365e-02,-5.108739435672760010e-02,-2.882329002022743225e-02,1.666620224714279175e-01,4.598267260007560253e-04,-8.590987324714660645e-02,-6.315601617097854614e-02,1.117419376969337463e-01,-1.780521869659423828e-02,9.686419367790222168e-02,2.282351702451705933e-01,-1.987585127353668213e-01,1.238740086555480957e-01,-5.715391039848327637e-02,5.690874904394149780e-02,2.721765078604221344e-02,-7.422841619700193405e-03,4.885372146964073181e-02,3.275621235370635986e-01,-1.895147189497947693e-02,-6.015870347619056702e-02,-5.275243148207664490e-02,-5.251600220799446106e-02,2.769098803400993347e-02,-5.765789374709129333e-02,-1.801258921623229980e-01,8.098334074020385742e-02,2.698978781700134277e-01,5.324753746390342712e-02,-1.952245384454727173e-01,9.627397358417510986e-02,-1.251711994409561157e-01,-6.473238021135330200e-02
-1.132086664438247681e-01,1.785372644662857056e-01,1.258023232221603394e-01,-2.620955705642700195e-01,9.376646019518375397e-03,-6.015462800860404968e-02,-9.530416131019592285e-02,-7.426679879426956177e-02,-9.869529306888580322e-02,3.796013444662094116e-02,-1.971754617989063263e-02,-3.290403783321380615e-01,-1.717397421598434448e-01,7.038132101297378540e-02,3.623957931995391846e-02,-3.115726821124553680e-02,2.395962923765182495e-02,5.702668800950050354e-03,-6.931416690349578857e-02,-1.489140540361404419e-01,-8.429501205682754517e-02,-1.325352489948272705e-01,-4.232664033770561218e-02,3.676898032426834106e-02,-1.235065888613462448e-02,2.327037304639816284e-01,7.114607095718383789e-02,8.031721413135528564e-02,-3.807307407259941101e-02,8.950807154178619385e-02,-2.675463631749153137e-02,8.966729044914245605e-02,9.807041846215724945e-03,-6.547508388757705688e-02,-1.467042863368988037e-01,-1.811354458332061768e-01,-2.301102280616760254e-01,1.511149853467941284e-01,-3.635194897651672363e-02,-6.009548902511596680e-02,1.517763584852218628e-01,-2.499100416898727417e-01,6.681507080793380737e-02,1.116162836551666260e-01,-1.448141783475875854e-01,3.971030190587043762e-02,1.207674816250801086e-01,-7.291826605796813965e-02,1.060498878359794617e-01,-1.675752550363540649e-01,1.095720231533050537e-01,-8.357318490743637085e-02,2.256128042936325073e-01,1.058429703116416931e-01,-1.321172565221786499e-01,-2.943122684955596924e-01,-2.278895825147628784e-01,4.356195032596588135e-02,8.391351439058780670e-03,6.226659938693046570e-02,-1.477487087249755859e-01,-1.178836673498153687e-01,8.451644331216812134e-02,3.859119489789009094e-02,4.449015110731124878e-02,5.722064990550279617e-03,-4.905418958514928818e-03,-8.667843043804168701e-02,-1.340545415878295898e-01,1.156655419617891312e-02,1.395810842514038086e-01,1.676177829504013062e-01,1.502261906862258911e-01,1.491404026746749878e-01,1.025554090738296509e-01,-8.507209271192550659e-02,1.057621687650680542e-01,-1.129962578415870667e-01,-2.265918701887130737e-01,-1.717076450586318970e-01,-1.019568517804145813e-01,-2.296079695224761963e-01,6.292529404163360596e-02,-1.147270575165748596e-01,-3.310617804527282715e-02,8.926323801279067993e-02,-2.499456405639648438e-01,4.724487662315368652e-02,-8.974701166152954102e-02,1.259277760982513428e-01,5.448651500046253204e-03,2.677033469080924988e-02,-1.375770866870880127e-01,-2.685930132865905762e-01,-6.051210686564445496e-02,-2.010499127209186554e-02,1.484788209199905396e-01,-5.455515161156654358e-02,-1.423545926809310913e-01,9.974407404661178589e-02,1.262134164571762085e-01,-1.616736054420471191e-01,8.559664338827133179e-02,8.662881702184677124e-02,3.409270346164703369e-01,8.389785885810852051e-02,4.967337101697921753e-02,6.000192835927009583e-02,1.061746850609779358e-02,-7.398996502161026001e-02,-7.873167283833026886e-03,2.381182461977005005e-02,4.324488714337348938e-02,8.090864866971969604e-02,-1.879099011421203613e-01,-1.986197084188461304e-01,-2.602226734161376953e-01,-7.309213280677795410e-02,7.410050183534622192e-02,-1.081691533327102661e-01,9.360819309949874878e-02,-3.711030259728431702e-02,9.823519736528396606e-03,-1.038876548409461975e-01,1.593846641480922699e-02,-1.609581261873245239e-01,-1.180582270026206970e-01,-2.840928733348846436e-01,5.032996833324432373e-02,-9.367965161800384521e-02,8.350725471973419189e-02,5.919959861785173416e-03,5.426038056612014771e-02,2.537706121802330017e-02,-4.029647633433341980e-02,6.354098021984100342e-02,1.558707356452941895e-01,6.706519983708858490e-03,-1.542955189943313599e-01,-1.419266164302825928e-01,3.058212064206600189e-02,-2.061398923397064209e-01,-3.827203065156936646e-02,-1.753161847591400146e-01,8.322031050920486450e-02,8.984296023845672607e-02,6.190954148769378662e-02,-4.128032922744750977e-02,-5.507604777812957764e-02,-1.416364610195159912e-01,-2.378277629613876343e-01,-7.637403160333633423e-02,1.364194750785827637e-01,5.206668749451637268e-02,1.108583658933639526e-01,1.690761651843786240e-03,-1.395510286092758179e-01,3.848942369222640991e-02,5.728976055979728699e-02,-1.172693520784378052e-01,4.292925074696540833e-02,4.440648015588521957e-03,1.385622564703226089e-02,-2.542533874511718750e-01,1.275369077920913696e-01,-3.944394178688526154e-03,-6.534496694803237915e-02,-1.072469130158424377e-01,4.076247662305831909e-02,1.217492595314979553e-01,-1.214128583669662476e-01,1.122318953275680542e-01,1.936994940042495728e-01,-1.471416652202606201e-02,1.205239593982696533e-01,6.999411433935165405e-02,-1.860527545213699341e-01,-1.450233161449432373e-01,8.975336700677871704e-02,1.643578521907329559e-02,-1.611178666353225708e-01,3.346768394112586975e-02,-9.022777527570724487e-02,7.348861545324325562e-02,-2.546824216842651367e-01,-7.188915461301803589e-02,4.892245680093765259e-02,4.752002283930778503e-02,-4.050665721297264099e-02,-8.618882298469543457e-02,-3.464929759502410889e-02,6.943164020776748657e-02,-1.287365108728408813e-01,6.193423643708229065e-03,5.076736584305763245e-02,-2.405400872230529785e-01,-1.237382069230079651e-01,7.280136644840240479e-02,-7.302805781364440918e-02,-5.546953529119491577e-02
-5.215681716799736023e-02,-8.035959675908088684e-03,5.623593926429748535e-02,-2.012943178415298462e-01,2.274077236652374268e-01,1.961690485477447510e-01,-1.655330359935760498e-01,-1.154223904013633728e-01,-3.358510509133338928e-02,2.104894630610942841e-02,2.167562991380691528e-01,-1.079324707388877869e-01,-4.277330636978149414e-02,2.178441584110260010e-01,-6.817670655436813831e-04,-2.545921830460429192e-03,2.499143183231353760e-01,2.476321756839752197e-01,1.111530065536499023e-01,2.554380297660827637e-01,-8.929923921823501587e-02,1.502035856246948242e-01,-1.753751933574676514e-01,1.654620617628097534e-01,1.762958988547325134e-02,2.951903827488422394e-02,1.690225210040807724e-03,-3.090191818773746490e-02,-1.031841933727264404e-01,5.575165897607803345e-02,7.303960621356964111e-02,1.164209768176078796e-01,2.434020116925239563e-02,1.741334795951843262e-01,2.593955211341381073e-02,3.545328974723815918e-01,-7.097005844116210938e-03,-5.866862460970878601e-02,6.526175141334533691e-02,5.158674344420433044e-02,-5.910231173038482666e-02,1.282898485660552979e-01,5.078728497028350830e-02,1.948760822415351868e-02,1.176871359348297119e-01,-7.368025369942188263e-03,-1.830892637372016907e-02,1.515029668807983398e-01,-1.513748914003372192e-01,2.320249229669570923e-01,1.883331090211868286e-01,-1.290079355239868164e-01,-6.729178712703287601e-04,1.182526648044586182e-01,3.315759077668190002e-02,2.774194478988647461e-01,2.257854789495468140e-01,4.051716253161430359e-02,-3.681895881891250610e-02,2.605111524462699890e-02,6.369038671255111694e-02,8.513631671667098999e-02,1.533778160810470581e-01,-2.053764462471008301e-01,-2.125339210033416748e-01,6.441690027713775635e-02,1.258534342050552368e-01,2.060479819774627686e-01,-3.445764072239398956e-03,-1.422006636857986450e-01,2.165075391530990601e-02,-3.595028072595596313e-03,-1.567309498786926270e-01,-2.998921275138854980e-01,-1.563460081815719604e-01,1.015871390700340271e-01,-3.127545863389968872e-02,1.199075356125831604e-01,2.822578549385070801e-01,-1.039811875671148300e-02,-3.406592458486557007e-02,1.296686232089996338e-01,1.365517377853393555e-01,-1.941898092627525330e-02,1.712287031114101410e-02,9.239134937524795532e-02,1.448612809181213379e-01,1.288603097200393677e-01,3.225011005997657776e-02,6.846766453236341476e-03,-8.386975154280662537e-03,1.016454771161079407e-02,1.780197322368621826e-01,1.037831045687198639e-02,4.256626591086387634e-02,6.548290699720382690e-02,-1.429368183016777039e-02,-6.928566843271255493e-02,1.015884801745414734e-01,4.550421983003616333e-02,-5.897973850369453430e-02,-6.992667168378829956e-02,-9.216038137674331665e-02,1.524719446897506714e-01,-9.561129659414291382e-02,1.717764437198638916e-01,-1.681943237781524658e-01,-3.733199834823608398e-02,-1.905183540657162666e-03,1.547987945377826691e-02,1.160228252410888672e-01,9.655964374542236328e-02,-1.416003145277500153e-02,1.141102015972137451e-01,1.041556745767593384e-01,6.942073255777359009e-02,1.571343988180160522e-01,-1.784684062004089355e-01,-2.042166292667388916e-01,-1.836554147303104401e-02,1.469181478023529053e-01,1.514261029660701752e-02,6.423157453536987305e-02,-3.500311821699142456e-02,1.427558064460754395e-01,1.195400953292846680e-02,-5.382204055786132812e-02,1.887135356664657593e-01,3.234116733074188232e-02,-1.111020073294639587e-01,-1.252071559429168701e-01,-1.884774565696716309e-01,-6.279829889535903931e-02,-3.635118901729583740e-02,1.221201289445161819e-02,1.657448709011077881e-02,-1.471716761589050293e-01,1.211179494857788086e-01,1.423779726028442383e-01,3.478850424289703369e-02,1.034243497997522354e-02,5.046055093407630920e-02,3.938087075948715210e-02,6.003195419907569885e-02,1.837341673672199249e-02,1.750612258911132812e-02,1.407594829797744751e-01,3.190059959888458252e-02,5.020270496606826782e-02,3.168226405978202820e-02,1.999646872282028198e-01,2.324216514825820923e-01,7.727697491645812988e-02,-4.628678411245346069e-02,-5.462042987346649170e-02,2.088044285774230957e-01,1.338258236646652222e-01,2.262390218675136566e-02,3.236899897456169128e-02,7.055556774139404297e-02,1.101867631077766418e-01,-1.301334053277969360e-01,4.725760594010353088e-02,-9.978386573493480682e-03,-8.072970807552337646e-02,1.904617547988891602e-01,-9.489333629608154297e-02,1.238730326294898987e-01,-8.631519228219985962e-02,2.513339370489120483e-02,6.303629279136657715e-02,-1.742469966411590576e-01,1.478812191635370255e-02,6.114641204476356506e-02,9.905880317091941833e-03,-5.024424567818641663e-02,-2.572546303272247314e-01,1.778349578380584717e-01,1.245169267058372498e-01,-1.474903970956802368e-01,-1.882950663566589355e-01,-2.458717301487922668e-02,-1.146435365080833435e-01,-1.346768736839294434e-01,3.237611949443817139e-01,-2.227583341300487518e-02,-4.000504687428474426e-02,2.717548012733459473e-01,-1.428838670253753662e-01,-8.753116428852081299e-02,-3.690910711884498596e-02,6.259161233901977539e-02,-1.882901415228843689e-02,-7.044523954391479492e-02,6.504335254430770874e-02,-1.401816457509994507e-01,-1.653768122196197510e-02,3.391946107149124146e-02,4.082214087247848511e-02,-2.904685139656066895e-01
5.127124860882759094e-02,1.900860667228698730e-01,-1.513219438493251801e-02,3.891119733452796936e-02,4.978054761886596680e-02,-1.055633649230003357e-01,2.545806951820850372e-02,1.926541700959205627e-02,5.602067336440086365e-02,1.084776148200035095e-01,-8.171497285366058350e-02,1.742681711912155151e-01,-2.011357992887496948e-02,-1.071121096611022949e-01,4.632886499166488647e-02,2.484814822673797607e-02,1.146696358919143677e-01,1.458867192268371582e-01,-1.610174179077148438e-01,-1.471994817256927490e-01,-9.656631946563720703e-02,7.081682980060577393e-02,7.763609290122985840e-02,1.318829804658889771e-01,2.150746881961822510e-01,7.483727484941482544e-02,1.757554113864898682e-01,-3.692248137667775154e-03,-1.175315752625465393e-01,-3.437788784503936768e-02,1.368044018745422363e-01,1.381055563688278198e-01,-8.067340403795242310e-02,2.667315900325775146e-01,1.591606438159942627e-01,8.848883211612701416e-02,-1.189398840069770813e-01,1.951396912336349487e-01,5.104161798954010010e-02,1.061299964785575867e-01,3.364676237106323242e-02,7.395119220018386841e-02,1.861773803830146790e-02,-1.748516857624053955e-01,-1.047933399677276611e-01,3.393139690160751343e-02,3.336877524852752686e-01,1.956010460853576660e-01,-1.475320905447006226e-01,-1.337919831275939941e-01,2.353637665510177612e-01,-1.497691590338945389e-02,-1.157723739743232727e-01,-3.436946123838424683e-02,5.802008137106895447e-02,2.860609255731105804e-02,-9.908122569322586060e-02,4.885673895478248596e-02,-5.171434488147497177e-03,6.400073319673538208e-02,1.357486546039581299e-01,3.439355790615081787e-01,-3.817917313426733017e-03,-7.495803385972976685e-02,2.367905676364898682e-01,-1.163598895072937012e-01,-8.022217452526092529e-02,1.516475901007652283e-02,7.172720879316329956e-02,5.272646248340606689e-02,2.233067005872726440e-01,-9.734732098877429962e-03,-3.185139223933219910e-02,7.783505320549011230e-02,-1.649320721626281738e-01,-1.071366854012012482e-02,-1.441380232572555542e-01,2.270779162645339966e-01,2.482818998396396637e-02,6.354530155658721924e-02,9.881860017776489258e-02,-9.084738790988922119e-03,-4.538350179791450500e-02,2.804746031761169434e-01,-6.728462874889373779e-02,1.374968588352203369e-01,-2.858060598373413086e-01,1.347337067127227783e-01,-1.872600913047790527e-01,7.666176557540893555e-02,-5.506552010774612427e-02,2.712006680667400360e-02,-5.455970764160156250e-02,7.097277790307998657e-03,-1.080392152070999146e-01,4.787826910614967346e-02,6.648597121238708496e-02,1.501394063234329224e-01,-5.964164808392524719e-02,-6.168865039944648743e-02,-5.307467654347419739e-02,1.345553398132324219e-01,-1.101105660200119019e-02,1.245965287089347839e-01,-3.729038313031196594e-02,-6.566440314054489136e-02,-8.211357146501541138e-02,2.180142328143119812e-02,-7.041362114250659943e-04,1.632515043020248413e-01,2.406973391771316528e-02,2.334721572697162628e-02,2.754453420639038086e-01,-1.019257009029388428e-01,3.436726704239845276e-02,9.902770817279815674e-02,4.036249592900276184e-02,-7.316676527261734009e-02,-2.495553791522979736e-01,8.184941858053207397e-02,5.022765323519706726e-02,6.250000000000000000e-02,1.633544862270355225e-01,1.072183400392532349e-01,-1.380860954523086548e-01,-2.348791807889938354e-01,-1.394900144077837467e-03,-7.074930518865585327e-02,1.312272250652313232e-01,-1.848708139732480049e-03,-2.096379995346069336e-01,2.005090704187750816e-03,1.987493783235549927e-02,-7.581905927509069443e-03,-1.571071445941925049e-01,-2.373375371098518372e-02,-8.545929193496704102e-02,2.036842703819274902e-01,-4.869258031249046326e-02,3.267483785748481750e-03,1.285805702209472656e-01,-7.724165916442871094e-02,2.475503534078598022e-01,1.272745989263057709e-02,1.295524537563323975e-01,2.093219757080078125e-01,1.024313345551490784e-01,4.642440006136894226e-02,3.565387427806854248e-01,-6.292020529508590698e-02,1.269244104623794556e-01,1.771768629550933838e-01,-1.185653544962406158e-02,1.577060371637344360e-01,2.540653645992279053e-01,2.278353869915008545e-01,1.751034706830978394e-01,8.978609740734100342e-02,-1.429549306631088257e-01,6.132980436086654663e-02,2.128752693533897400e-02,-4.253456741571426392e-02,-4.578623629640787840e-04,5.475499480962753296e-02,1.625154539942741394e-02,-4.091344028711318970e-02,1.505471318960189819e-01,-6.551560759544372559e-02,7.144408673048019409e-02,-4.624298587441444397e-02,2.801124937832355499e-02,-1.259703636169433594e-01,1.172961667180061340e-02,-7.333378493785858154e-02,2.355250418186187744e-01,7.335934042930603027e-02,-8.941329270601272583e-02,1.779938489198684692e-01,-1.723125278949737549e-01,4.940290004014968872e-02,4.279403388500213623e-02,-7.119791954755783081e-02,-7.133421301841735840e-02,-2.690846025943756104e-01,-2.077539684250950813e-03,2.179028838872909546e-01,-1.813622266054153442e-01,-8.048774302005767822e-02,6.382661312818527222e-02,2.986577153205871582e-02,-2.204034850001335144e-02,1.439539939165115356e-01,1.204558908939361572e-01,6.697711348533630371e-02,1.738393120467662811e-02,3.889316320419311523e-02,1.144761815667152405e-01,3.065062686800956726e-03,2.592367827892303467e-01,-5.687459185719490051e-02
1.304651051759719849e-01,5.169950425624847412e-02,8.301888406276702881e-02,-4.218819141387939453e-01,-1.446402072906494141e-02,-2.920930087566375732e-02,-4.587152507156133652e-03,1.095797717571258545e-01,1.068549752235412598e-01,1.223519630730152130e-02,2.675224840641021729e-01,-5.676613003015518188e-02,-1.207600459456443787e-01,4.837129730731248856e-03,-1.632458157837390900e-02,-1.100543290376663208e-01,3.525866270065307617e-01,1.849098205566406250e-01,1.458796560764312744e-01,1.683446578681468964e-02,6.897635757923126221e-02,1.218643933534622192e-01,3.573954105377197266e-02,7.081861048936843872e-02,7.718249410390853882e-02,5.166626535356044769e-03,2.377403527498245239e-01,-7.635394483804702759e-02,4.853538796305656433e-02,1.309498548507690430e-01,1.001100540161132812e-01,-2.287453785538673401e-02,1.053308770060539246e-01,-1.134608238935470581e-01,3.612661361694335938e-02,1.099395453929901123e-01,3.600253164768218994e-02,2.274814806878566742e-02,1.738748997449874878e-01,-2.593251504004001617e-02,-3.110253624618053436e-02,3.018079400062561035e-01,1.008696039207279682e-03,-1.167533695697784424e-01,3.380191326141357422e-02,2.296685054898262024e-02,-8.067569136619567871e-02,2.279066741466522217e-01,-7.181157357990741730e-03,1.026300434023141861e-02,4.972887039184570312e-02,8.761367760598659515e-03,2.331742830574512482e-02,-7.783575356006622314e-02,6.834850460290908813e-02,1.504361629486083984e-01,-2.694257907569408417e-02,3.511295467615127563e-02,7.712874561548233032e-02,1.759207695722579956e-01,1.023190543055534363e-01,-1.140625867992639542e-02,1.804563999176025391e-01,-4.682461544871330261e-02,-6.926126033067703247e-02,-1.119849979877471924e-01,-6.258453428745269775e-02,-2.081347815692424774e-02,1.626601815223693848e-01,9.688908606767654419e-02,2.029169164597988129e-02,1.540112942457199097e-01,-3.151041269302368164e-02,1.172568649053573608e-02,4.554297775030136108e-03,-3.071152977645397186e-02,-1.500607728958129883e-01,6.563758850097656250e-02,2.200314849615097046e-01,-1.155281141400337219e-01,1.265398561954498291e-01,-9.424200654029846191e-02,2.634053677320480347e-02,-2.596151269972324371e-02,9.300103038549423218e-02,3.329069912433624268e-01,1.584874698892235756e-03,9.407471865415573120e-02,5.939785391092300415e-02,-1.446700841188430786e-01,7.978640496730804443e-02,-7.013504952192306519e-02,1.915464550256729126e-01,1.426953226327896118e-01,-2.087826281785964966e-02,-3.355715051293373108e-02,1.912558102048933506e-03,2.008288353681564331e-01,1.035168245434761047e-01,2.307223714888095856e-02,1.204748302698135376e-01,-2.805288508534431458e-02,-2.085050195455551147e-02,2.077468633651733398e-01,-1.443215608596801758e-01,-2.708084508776664734e-02,-8.563338965177536011e-02,1.695659905672073364e-01,4.837753251194953918e-02,1.248583197593688965e-01,1.027135774493217468e-01,8.285079151391983032e-02,2.352819889783859253e-01,4.926073923707008362e-02,5.022635683417320251e-02,3.628212213516235352e-01,1.983269453048706055e-01,-2.762919962406158447e-01,1.089814901351928711e-01,-8.454035967588424683e-02,9.391634166240692139e-02,1.333066523075103760e-01,-5.936968326568603516e-02,-4.882764071226119995e-02,1.015820540487766266e-02,1.336720734834671021e-01,-1.107943728566169739e-01,-1.204497143626213074e-01,4.585961624979972839e-02,1.840744167566299438e-01,-4.780370742082595825e-02,7.893705368041992188e-02,2.022708579897880554e-02,-3.287539258599281311e-02,-3.060734644532203674e-02,1.727045476436614990e-01,-1.229677870869636536e-01,4.953304678201675415e-02,1.062892377376556396e-01,3.198208808898925781e-01,3.576719388365745544e-02,-6.150980666279792786e-02,-1.203351467847824097e-01,-6.170589011162519455e-03,-2.007199078798294067e-01,-2.976370602846145630e-02,2.019281387329101562e-01,1.978411972522735596e-01,1.564252823591232300e-01,-8.215019106864929199e-02,-5.130054801702499390e-02,3.019135619979351759e-04,-5.969034135341644287e-02,-1.206054631620645523e-02,6.764473021030426025e-02,6.768971215933561325e-03,3.590219020843505859e-01,2.300535738468170166e-01,-1.021482944488525391e-01,1.792902499437332153e-01,1.516225636005401611e-01,6.577015668153762817e-02,5.445844680070877075e-02,5.130118876695632935e-02,-3.052175231277942657e-02,-3.402981162071228027e-02,1.351875066757202148e-02,-1.674325019121170044e-01,-4.794291779398918152e-02,3.863961249589920044e-02,6.719175726175308228e-02,-7.928765378892421722e-03,-9.372204542160034180e-02,9.883350133895874023e-02,1.314689870923757553e-02,6.309881061315536499e-02,1.631581336259841919e-01,1.200788617134094238e-01,1.498280838131904602e-02,1.964658349752426147e-01,-1.192245930433273315e-01,-4.982831329107284546e-02,3.081339411437511444e-02,-9.838550537824630737e-02,-4.801341565325856209e-04,2.159738987684249878e-01,-2.057488560676574707e-01,-1.128140985965728760e-01,6.814762204885482788e-02,-1.725073531270027161e-02,7.151921838521957397e-02,1.293502449989318848e-01,-1.336664520204067230e-02,5.582796782255172729e-02,9.136794134974479675e-03,-2.236427925527095795e-02,-9.738609194755554199e-02,8.040578663349151611e-02,1.744712740182876587e-01,-8.249031007289886475e-02
-1.099594682455062866e-02,-2.158371210098266602e-01,2.079105675220489502e-01,-8.883694559335708618e-02,-8.163078874349594116e-02,-2.496218774467706680e-03,-1.456711255013942719e-02,4.573901370167732239e-02,1.644812971353530884e-01,1.269431263208389282e-01,-2.230008244514465332e-01,6.736732274293899536e-02,-1.811566054821014404e-01,4.189394041895866394e-02,8.421872556209564209e-02,4.074215888977050781e-02,-7.785867899656295776e-02,-1.031306385993957520e-01,2.821259796619415283e-01,-2.193865031003952026e-01,5.563529953360557556e-02,-1.551427394151687622e-01,-1.922706812620162964e-01,-5.430732667446136475e-02,-2.922051399946212769e-02,9.166416712105274200e-03,-2.119100689888000488e-01,6.818735599517822266e-02,1.684365421533584595e-01,-3.301354497671127319e-02,-3.427961468696594238e-02,-2.511428594589233398e-01,2.479285597801208496e-01,-9.334605932235717773e-02,3.183602541685104370e-02,-4.181666672229766846e-02,-1.665461808443069458e-02,2.889184057712554932e-01,-5.694636330008506775e-02,-1.303503215312957764e-01,5.622242391109466553e-02,-2.309588044881820679e-01,2.107775062322616577e-01,9.408614039421081543e-02,2.809105999767780304e-02,-1.107541248202323914e-01,1.452242396771907806e-02,1.398226022720336914e-01,9.084939956665039062e-02,1.561836060136556625e-02,-1.451944708824157715e-01,1.234040334820747375e-01,1.915430724620819092e-01,-6.529133021831512451e-02,-1.483365595340728760e-01,4.088534042239189148e-02,-7.838047295808792114e-02,-1.000192388892173767e-01,-8.048666268587112427e-02,-6.722933799028396606e-02,-1.189329996705055237e-01,-2.384592890739440918e-01,-1.059449613094329834e-01,2.791535295546054840e-02,5.524209141731262207e-02,1.025782451033592224e-01,2.323030307888984680e-02,3.222679346799850464e-02,-9.485567361116409302e-02,-1.625829637050628662e-01,-1.439161896705627441e-01,-1.071373820304870605e-01,-7.977933436632156372e-02,3.856939449906349182e-02,6.415618211030960083e-02,-8.831121027469635010e-02,-2.129585146903991699e-01,-1.719149202108383179e-01,-1.274317353963851929e-01,1.510803867131471634e-02,5.938472598791122437e-02,1.395954042673110962e-01,1.852724254131317139e-01,-2.197091095149517059e-02,-4.382713511586189270e-02,-4.594735801219940186e-02,-1.629375666379928589e-01,6.282109767198562622e-02,2.018193341791629791e-02,-9.109012782573699951e-02,-4.268291965126991272e-02,2.926058508455753326e-02,-2.874363213777542114e-03,-1.349168419837951660e-01,-2.277334630489349365e-01,7.558059412986040115e-03,-1.404475271701812744e-01,1.068449318408966064e-01,-1.286876052618026733e-01,-2.280374243855476379e-02,-1.572686135768890381e-01,2.070724032819271088e-02,3.135461825877428055e-03,-7.433603703975677490e-02,-8.251281827688217163e-02,3.811321686953306198e-03,-6.431072950363159180e-02,1.788403373211622238e-03,-1.221567913889884949e-01,9.427434951066970825e-02,-2.293577976524829865e-02,-2.412794083356857300e-01,-1.717673987150192261e-01,1.268421262502670288e-01,-4.524995386600494385e-01,-2.242740988731384277e-01,-2.017232030630111694e-01,-2.748206816613674164e-02,-2.810465693473815918e-01,3.644520044326782227e-02,1.271363347768783569e-01,-7.421472668647766113e-02,-1.368871033191680908e-01,-2.027198672294616699e-02,-1.869217492640018463e-02,-4.049814119935035706e-02,4.059130325913429260e-02,-1.888656318187713623e-01,-7.598888874053955078e-02,-2.538272738456726074e-01,-4.233187064528465271e-02,-1.960396319627761841e-01,2.002901434898376465e-01,2.005072236061096191e-01,-1.050466299057006836e-02,-8.713816106319427490e-02,5.974562466144561768e-02,-7.256999611854553223e-02,-1.326199620962142944e-01,-6.071409583091735840e-02,-1.893752366304397583e-01,-1.029712632298469543e-01,-1.739791482686996460e-01,-1.274539530277252197e-01,6.986978650093078613e-02,-1.321999877691268921e-01,-1.225611101835966110e-02,-1.258560549467802048e-02,-1.266671717166900635e-01,-3.159598708152770996e-01,5.432821437716484070e-02,2.237203717231750488e-01,8.415260910987854004e-02,-1.837530881166458130e-01,-2.543779015541076660e-01,-1.474570780992507935e-01,-2.036765962839126587e-01,1.399281024932861328e-01,2.010302394628524780e-01,-3.134308457374572754e-01,-1.451230347156524658e-01,-1.032287925481796265e-01,2.341805212199687958e-02,-2.761794894468039274e-04,5.769824236631393433e-02,-3.365333750844001770e-02,-7.052424550056457520e-02,1.958195492625236511e-02,2.857989072799682617e-01,1.080002542585134506e-02,1.546942722052335739e-02,-7.529288064688444138e-03,4.467644542455673218e-02,1.406266689300537109e-01,-3.137511909008026123e-01,5.369007587432861328e-02,-1.414893418550491333e-01,9.467054903507232666e-02,8.386538922786712646e-02,1.120299194008111954e-02,7.719897478818893433e-02,8.989773690700531006e-02,-5.069128796458244324e-02,-1.928197592496871948e-02,-9.037861973047256470e-02,-7.706313580274581909e-02,-8.460897952318191528e-02,8.329609408974647522e-03,-9.806932508945465088e-02,3.670940175652503967e-02,-1.292099654674530029e-01,2.575803920626640320e-02,-1.091103553771972656e-01,-1.679569333791732788e-01,4.750440828502178192e-03,1.296432167291641235e-01,-3.631726279854774475e-02,-1.191061660647392273e-01,7.200814783573150635e-02,4.683445207774639130e-03
-3.505890443921089172e-02,-2.246646732091903687e-01,1.450408697128295898e-01,4.763925075531005859e-02,-7.667806744575500488e-02,-8.201076090335845947e-02,9.930186904966831207e-03,1.003580912947654724e-01,3.439937531948089600e-02,8.663389831781387329e-02,-1.148076727986335754e-03,-2.275657504796981812e-01,-7.444650679826736450e-02,-8.847847580909729004e-03,1.216959878802299500e-01,1.940360516309738159e-01,9.628938883543014526e-02,6.861585378646850586e-02,-6.244200281798839569e-03,1.206018123775720596e-02,6.657317280769348145e-02,2.103715240955352783e-01,1.114592403173446655e-01,-3.070642799139022827e-02,9.278933703899383545e-02,1.956026554107666016e-01,-5.760405585169792175e-02,-3.008861653506755829e-02,2.857767641544342041e-01,3.809091076254844666e-02,-3.101926669478416443e-02,-3.630740195512771606e-02,-1.197462826967239380e-01,-1.191928163170814514e-01,-1.527495980262756348e-01,-1.457481533288955688e-01,-9.449940174818038940e-02,1.539444178342819214e-02,-2.820375189185142517e-02,-1.186600774526596069e-01,-9.425838291645050049e-02,5.707445740699768066e-02,-1.429976671934127808e-01,1.266502290964126587e-01,-4.598866775631904602e-02,5.268770456314086914e-02,1.544880568981170654e-01,6.777422036975622177e-03,-2.443386055529117584e-02,-8.627189695835113525e-02,7.240650802850723267e-02,-1.542098820209503174e-01,9.909493476152420044e-02,-5.425444617867469788e-02,-1.012334674596786499e-01,-3.556245267391204834e-01,-1.672002673149108887e-01,-5.345389991998672485e-02,1.354981362819671631e-01,-1.192486938089132309e-02,-1.359754800796508789e-01,-8.112513273954391479e-02,2.378551987931132317e-03,2.324048429727554321e-01,-4.199515655636787415e-02,6.994859874248504639e-02,1.194071769714355469e-01,-1.568063646554946899e-01,-8.821447938680648804e-02,4.518248140811920166e-02,-4.466645419597625732e-02,-3.475351259112358093e-02,1.350898742675781250e-01,-1.487222616560757160e-04,1.533219665288925171e-01,-6.101542711257934570e-02,3.744214773178100586e-03,1.858012676239013672e-01,1.156473457813262939e-01,-6.130126118659973145e-02,-5.349141359329223633e-02,2.055528461933135986e-01,9.935740381479263306e-02,-1.596056669950485229e-02,7.844422757625579834e-02,3.694302588701248169e-02,-2.254287153482437134e-01,4.921618528896942735e-05,-1.683079749345779419e-01,5.149804055690765381e-02,-1.635209321975708008e-01,-1.897024959325790405e-01,-1.649444401264190674e-01,-3.656198829412460327e-02,3.114915080368518829e-02,-3.675027564167976379e-02,-7.554783672094345093e-02,-7.889785617589950562e-02,-6.723861396312713623e-02,6.605120748281478882e-02,7.271660119295120239e-02,-1.210070922970771790e-01,1.631479412317276001e-01,-6.901200115680694580e-02,-1.096415594220161438e-01,7.930654287338256836e-02,-7.917296141386032104e-02,-6.882878392934799194e-02,-8.431664109230041504e-02,-2.293546497821807861e-02,2.685697749257087708e-02,-6.992758065462112427e-02,2.589046023786067963e-02,1.228146776556968689e-01,6.321714818477630615e-02,-1.416471153497695923e-01,1.047771722078323364e-01,8.436123281717300415e-02,1.084117665886878967e-01,-9.652882814407348633e-02,3.913637623190879822e-02,1.232035979628562927e-01,1.731877923011779785e-01,1.832553297281265259e-01,5.596255417913198471e-03,-8.523144759237766266e-03,-1.149248927831649780e-01,-2.040421962738037109e-01,-3.747658059000968933e-02,-4.545686300843954086e-03,4.615446552634239197e-02,1.120075657963752747e-01,9.908778965473175049e-02,-1.602353602647781372e-01,-6.093505024909973145e-02,-4.010397195816040039e-02,2.895031869411468506e-01,6.232932582497596741e-02,-1.656745821237564087e-01,-1.205335631966590881e-01,-3.500722348690032959e-02,-8.023374527692794800e-02,4.806783422827720642e-02,2.070767246186733246e-02,-1.320950835943222046e-01,-6.013154238462448120e-02,9.152641892433166504e-02,-1.514440178871154785e-01,1.004801597446203232e-03,6.096588820219039917e-02,-3.666806221008300781e-01,-1.294455230236053467e-01,9.087003767490386963e-02,-3.099049068987369537e-02,2.564884349703788757e-02,-1.107183173298835754e-01,3.309819102287292480e-02,-6.098294979892671108e-04,2.609892189502716064e-01,-8.125783503055572510e-02,-6.612838711589574814e-03,1.489886492490768433e-01,1.759812086820602417e-01,-6.776465475559234619e-02,8.857893198728561401e-02,-1.626563630998134613e-02,7.109834253787994385e-02,1.753706857562065125e-02,-7.200095802545547485e-02,1.564852446317672729e-01,-1.871570050716400146e-01,1.057892218232154846e-01,5.152830854058265686e-02,1.081347763538360596e-01,-8.998385816812515259e-02,4.583380743861198425e-02,-2.686509490013122559e-02,9.810435585677623749e-03,7.101612538099288940e-02,1.733096539974212646e-01,1.306637078523635864e-01,-4.752429202198982239e-02,8.110588043928146362e-02,-1.796999722719192505e-01,-5.357430875301361084e-02,-1.471507847309112549e-01,1.053313631564378738e-02,6.083719432353973389e-03,-9.646746329963207245e-03,-1.996855996549129486e-02,-2.103894054889678955e-01,4.468230903148651123e-02,9.903156757354736328e-02,5.735453590750694275e-02,-6.082135811448097229e-02,2.213992737233638763e-02,3.986309096217155457e-02,-1.123621910810470581e-01,-6.654512882232666016e-02,2.629057765007019043e-01
-1.663946919143199921e-02,3.413020446896553040e-02,7.223897427320480347e-02,2.382182031869888306e-01,3.173827379941940308e-02,-5.855017155408859253e-02,5.849618092179298401e-02,3.514965996146202087e-02,-5.120142176747322083e-02,-8.381874859333038330e-02,-1.120897457003593445e-01,-1.411457359790802002e-01,2.166107147932052612e-01,-3.468009456992149353e-02,-1.450730413198471069e-01,1.444834005087614059e-02,8.385232836008071899e-02,-3.715102747082710266e-02,-2.075122892856597900e-01,8.490321040153503418e-02,1.423383504152297974e-01,-7.222356647253036499e-02,1.189927291125059128e-02,8.055032789707183838e-02,9.414490312337875366e-02,-2.747945254668593407e-03,-7.526370137929916382e-02,9.332352131605148315e-02,1.844560727477073669e-02,1.140497401356697083e-01,-9.554842114448547363e-02,1.335049420595169067e-01,-1.437050849199295044e-01,-2.161765098571777344e-01,-2.161339670419692993e-01,-1.947238892316818237e-01,-1.165611073374748230e-01,1.746531724929809570e-01,6.228312477469444275e-02,2.215063720941543579e-01,1.390204876661300659e-01,-3.675563633441925049e-01,2.702395021915435791e-01,1.000074744224548340e-01,2.769796550273895264e-02,-1.707336679100990295e-02,2.426597923040390015e-01,-1.650094091892242432e-01,-1.461471170186996460e-01,8.796066790819168091e-02,1.349562779068946838e-02,3.910676762461662292e-02,-3.970858640968799591e-03,2.996013164520263672e-01,-7.879451848566532135e-03,9.704571217298507690e-03,-1.301290988922119141e-01,1.125745624303817749e-01,3.175183758139610291e-02,-1.564002931118011475e-01,1.632528752088546753e-01,1.265427321195602417e-01,-2.242901474237442017e-01,6.715766340494155884e-02,-2.194085717201232910e-02,-2.813546545803546906e-02,-1.013873843476176262e-03,-5.073747597634792328e-03,-3.658234700560569763e-02,1.205181181430816650e-01,2.030793428421020508e-01,3.780176118016242981e-02,-9.383098036050796509e-02,3.942668437957763672e-01,7.380167394876480103e-02,1.903671473264694214e-01,3.938544094562530518e-01,8.147925138473510742e-02,7.727967947721481323e-02,1.028982624411582947e-01,7.110532373189926147e-02,-8.445577323436737061e-02,-1.184972003102302551e-02,9.194857440888881683e-03,1.042018979787826538e-01,1.529803723096847534e-01,-9.439820051193237305e-02,5.502413213253021240e-02,-2.113876640796661377e-01,2.282189391553401947e-02,-2.092164009809494019e-01,-3.672661632299423218e-02,-2.287082821130752563e-01,8.152577280998229980e-02,-1.245333552360534668e-01,2.407926833257079124e-03,1.337210834026336670e-01,-1.028242334723472595e-01,2.706354260444641113e-01,1.150154024362564087e-01,-2.687697298824787140e-02,-1.609755447134375572e-03,5.397483333945274353e-02,1.982250064611434937e-01,3.181753158569335938e-01,-5.438247695565223694e-02,1.750521957874298096e-01,-1.200307384133338928e-01,-6.628144532442092896e-02,-1.836724765598773956e-02,-1.771400719881057739e-01,-1.871084272861480713e-01,2.163612982258200645e-03,2.313436754047870636e-02,-6.117656081914901733e-02,-7.078469544649124146e-02,4.439372941851615906e-02,1.417125463485717773e-01,1.850925534963607788e-01,1.663817167282104492e-01,-1.456266492605209351e-01,-7.761873304843902588e-02,6.839320808649063110e-02,1.856042444705963135e-01,1.687557250261306763e-01,-2.532923594117164612e-02,1.135615035891532898e-01,1.855202391743659973e-02,3.439815249294042587e-03,1.341973245143890381e-02,2.386408746242523193e-01,1.426577270030975342e-01,-1.408659368753433228e-01,7.991065084934234619e-02,-2.164216525852680206e-02,-1.758721470832824707e-01,-3.740380704402923584e-02,-9.559474140405654907e-02,5.189714580774307251e-02,-2.521512284874916077e-02,1.773774921894073486e-01,4.082145914435386658e-02,1.672154366970062256e-01,-1.402457244694232941e-02,-1.434416025876998901e-01,1.330104619264602661e-01,-7.578690536320209503e-03,-2.926908060908317566e-02,9.376343339681625366e-02,-4.379732161760330200e-02,-9.544634073972702026e-02,9.464325010776519775e-02,1.192497909069061279e-01,7.509336620569229126e-02,9.147289395332336426e-02,1.306402087211608887e-01,4.603812843561172485e-02,-4.702987521886825562e-02,1.342142671346664429e-01,8.757026493549346924e-02,2.885723114013671875e-01,1.024409011006355286e-01,1.354914754629135132e-01,8.918479830026626587e-02,1.667137593030929565e-01,-4.659435246139764786e-03,-3.177396953105926514e-02,1.104122772812843323e-01,-1.877249777317047119e-01,-8.454208821058273315e-02,-1.638587750494480133e-02,-1.700308471918106079e-01,-5.224301293492317200e-02,-1.922814995050430298e-01,8.694864064455032349e-02,4.780467972159385681e-02,9.301871806383132935e-02,5.673952400684356689e-02,-2.299185842275619507e-02,2.165577411651611328e-01,7.427048683166503906e-02,-8.777642995119094849e-02,-5.434082821011543274e-02,1.780645735561847687e-02,-2.065762579441070557e-01,2.067793756723403931e-01,2.665518224239349365e-01,-7.082443684339523315e-02,-1.683051586151123047e-01,-3.711506724357604980e-02,-8.829306811094284058e-03,-1.985454559326171875e-01,-1.647738553583621979e-02,2.250310182571411133e-01,-8.364319801330566406e-02,3.039542771875858307e-02,2.570673227310180664e-01,1.126915961503982544e-01,-1.800221800804138184e-01,-4.671517014503479004e-02
-7.115671783685684204e-02,-1.938754767179489136e-01,-7.438519503921270370e-03,-1.845194548368453979e-01,1.741506606340408325e-01,8.986344188451766968e-02,1.605639457702636719e-01,-9.919632971286773682e-02,1.508033871650695801e-01,-8.594070561230182648e-03,1.400495916604995728e-01,-7.323130965232849121e-02,4.625925049185752869e-02,-2.229672297835350037e-02,-5.739462003111839294e-02,2.914449013769626617e-02,-6.324155628681182861e-02,-1.201150286942720413e-02,9.274554997682571411e-02,9.221057593822479248e-02,-3.487747162580490112e-02,5.612822994589805603e-02,1.247409731149673462e-02,1.105676591396331787e-01,-6.388395093381404877e-03,1.230670437216758728e-01,-6.312330812215805054e-02,1.444283425807952881e-01,-2.437776885926723480e-02,1.984990015625953674e-02,-2.081505768001079559e-02,-2.075609564781188965e-01,1.478276997804641724e-01,-4.931837785989046097e-03,2.957561425864696503e-02,8.992019295692443848e-02,1.113535910844802856e-01,1.197642460465431213e-01,1.895653009414672852e-01,4.007999785244464874e-03,8.043695241212844849e-03,7.684667408466339111e-02,-6.442923843860626221e-02,9.531959146261215210e-02,2.282434999942779541e-01,1.258379518985748291e-01,9.592249058187007904e-03,2.122862190008163452e-01,4.671805724501609802e-02,3.497483208775520325e-02,-1.374830007553100586e-01,8.611872792243957520e-02,4.695919528603553772e-02,-6.499536335468292236e-02,1.309964619576931000e-02,2.878037653863430023e-02,1.932514309883117676e-01,-3.936766460537910461e-02,1.344835013151168823e-01,1.637868583202362061e-01,-4.455701261758804321e-02,-1.490693688392639160e-01,1.703011393547058105e-01,-1.291357725858688354e-01,-1.982852667570114136e-01,-1.920713037252426147e-01,8.463098108768463135e-02,4.126554727554321289e-02,4.178904369473457336e-02,6.648194789886474609e-02,4.974804446101188660e-02,-2.027986645698547363e-01,-1.460173130035400391e-01,-2.832211740314960480e-02,-2.696263045072555542e-02,2.028743028640747070e-01,2.011814862489700317e-01,-2.559027969837188721e-01,6.602633744478225708e-02,-5.517853051424026489e-02,-7.341521233320236206e-02,-1.720862984657287598e-01,-9.078493714332580566e-02,-1.305581927299499512e-01,6.689500808715820312e-02,1.031069830060005188e-01,1.225455105304718018e-01,-1.203905045986175537e-01,-4.185671731829643250e-02,-1.257084459066390991e-01,1.016656011343002319e-01,-2.993739442899823189e-03,1.358307600021362305e-01,-6.472222041338682175e-03,-1.371415145695209503e-02,-1.018175780773162842e-01,-1.871631294488906860e-01,1.668316870927810669e-02,8.944509178400039673e-02,2.619034796953201294e-02,1.801408976316452026e-01,7.915263622999191284e-02,9.471857920289039612e-03,2.088406980037689209e-01,-2.872630953788757324e-02,6.600970029830932617e-02,3.733131103217601776e-03,-4.843140766024589539e-02,8.478081971406936646e-02,-2.154838666319847107e-02,1.314238458871841431e-01,-8.365400135517120361e-02,-9.041129052639007568e-02,1.331935822963714600e-01,1.056665629148483276e-01,8.170510083436965942e-02,5.643599480390548706e-02,8.690898306667804718e-03,-7.287143170833587646e-02,-6.080324947834014893e-02,1.008644551038742065e-01,-3.423271700739860535e-02,7.992797344923019409e-02,-2.164646685123443604e-01,-4.851685091853141785e-02,1.454085260629653931e-01,-1.220456510782241821e-02,7.796427607536315918e-02,-2.419707551598548889e-02,1.553909033536911011e-01,6.001712009310722351e-02,9.237945079803466797e-02,-1.440384835004806519e-01,-1.327936500310897827e-01,-1.651950329542160034e-01,1.934448927640914917e-01,-1.131095737218856812e-01,9.100712090730667114e-02,2.320894747972488403e-01,1.614069938659667969e-01,1.465772837400436401e-01,2.072864621877670288e-01,-9.701517969369888306e-02,1.699136346578598022e-01,-5.510205030441284180e-02,-4.935594275593757629e-02,2.185614034533500671e-02,9.304040670394897461e-02,9.860052913427352905e-02,2.693877816200256348e-01,1.819738298654556274e-01,-1.788800507783889771e-01,7.118266075849533081e-02,-2.085438743233680725e-02,-3.318760171532630920e-02,2.351880632340908051e-02,9.479638934135437012e-02,1.577113568782806396e-01,-3.968420997262001038e-02,1.755658909678459167e-02,3.623901307582855225e-02,3.284404799342155457e-02,-1.551696658134460449e-01,-8.743844926357269287e-02,-1.735250279307365417e-02,1.276878118515014648e-01,-8.924245834350585938e-02,1.030568704009056091e-01,-8.866228163242340088e-02,-4.658829048275947571e-02,1.565016061067581177e-01,2.352152206003665924e-02,-1.071402281522750854e-01,2.201972715556621552e-02,-4.646337032318115234e-02,2.692719176411628723e-02,-2.337145060300827026e-01,1.443733721971511841e-01,2.010219693183898926e-01,-3.836574405431747437e-02,-1.017195954918861389e-01,-6.933647091500461102e-04,1.060467362403869629e-01,5.796802043914794922e-02,1.724362820386886597e-01,-1.283703446388244629e-01,1.678419560194015503e-01,1.847870200872421265e-01,4.255809262394905090e-02,1.977103389799594879e-02,4.881360009312629700e-02,-7.703856378793716431e-02,4.444745555520057678e-02,-2.052862942218780518e-01,1.034058034420013428e-01,-1.116860806941986084e-01,1.828072816133499146e-01,-7.592924684286117554e-02,8.913099765777587891e-02,-3.518699482083320618e-02
1.459312587976455688e-01,6.409445405006408691e-02,-7.729226350784301758e-02,9.763517975807189941e-02,-1.229791194200515747e-01,-1.081013455986976624e-01,2.060021758079528809e-01,4.722626879811286926e-02,-1.352538168430328369e-02,-2.296031825244426727e-02,-1.888656765222549438e-01,1.051747798919677734e-01,1.553223580121994019e-01,2.852210588753223419e-02,-1.215844228863716125e-01,7.098147273063659668e-02,6.251282058656215668e-03,1.975341700017452240e-02,1.338759362697601318e-01,4.743145406246185303e-02,9.148707985877990723e-02,-1.168488636612892151e-01,8.040238916873931885e-02,4.194050654768943787e-02,1.168474107980728149e-01,1.813716441392898560e-02,-5.138628184795379639e-02,-3.156118094921112061e-02,-4.058629740029573441e-03,-1.501670572906732559e-03,-1.294183582067489624e-01,2.335644364356994629e-01,5.973482131958007812e-02,-1.887481845915317535e-02,-1.895485259592533112e-02,-6.785720586776733398e-02,2.869246602058410645e-01,1.380483806133270264e-01,-3.509964421391487122e-02,4.003360867500305176e-02,-2.020398080348968506e-01,-1.741687208414077759e-02,1.149410828948020935e-01,2.066167742013931274e-01,1.452185772359371185e-02,3.461015224456787109e-02,-9.869819507002830505e-03,1.237760484218597412e-02,4.331193864345550537e-02,9.776034951210021973e-02,-1.618739068508148193e-01,-1.092061325907707214e-01,2.799449265003204346e-01,-1.212170068174600601e-02,2.302427440881729126e-01,1.404331177473068237e-01,7.863429188728332520e-02,-1.057933941483497620e-01,-6.437714397907257080e-02,-1.148706749081611633e-01,3.713401779532432556e-02,1.104609295725822449e-01,-5.934495851397514343e-02,2.883137576282024384e-02,-3.149993345141410828e-02,-2.691054940223693848e-01,7.602301985025405884e-02,4.141861572861671448e-03,-1.444866508245468140e-02,3.838604688644409180e-02,-6.062793731689453125e-02,4.527254402637481689e-02,-5.336650833487510681e-02,2.220187634229660034e-01,1.692935824394226074e-01,1.323862075805664062e-01,1.702812314033508301e-02,-8.763617277145385742e-02,1.469423323869705200e-01,1.820842474699020386e-01,-1.191600109450519085e-03,-3.987300395965576172e-02,-8.796787261962890625e-02,2.370629087090492249e-02,5.337877944111824036e-02,1.094892504625022411e-03,5.606429651379585266e-02,9.287771582603454590e-02,-6.289350800216197968e-03,3.484687302261590958e-03,1.024865135550498962e-01,-5.972788110375404358e-02,1.691665202379226685e-01,1.236998438835144043e-01,-6.581182032823562622e-02,-9.405883401632308960e-02,-3.001732751727104187e-02,-1.010605469346046448e-01,3.654420748353004456e-02,-5.771267786622047424e-02,4.854667931795120239e-02,-5.952725932002067566e-02,1.781914085149765015e-01,2.141978740692138672e-01,1.321312338113784790e-01,8.715315163135528564e-02,2.487159073352813721e-01,-2.855168469250202179e-02,1.003559678792953491e-01,6.982758641242980957e-02,-2.494611591100692749e-01,-4.462619125843048096e-02,2.339676767587661743e-01,1.030346602201461792e-01,1.554713100194931030e-01,-5.749705806374549866e-02,7.929377257823944092e-02,3.964119255542755127e-01,9.200717508792877197e-02,9.829214774072170258e-03,1.033326610922813416e-02,-1.481598056852817535e-02,-1.064987033605575562e-01,9.353469312191009521e-02,-7.500702142715454102e-02,3.891804814338684082e-02,2.503320947289466858e-02,-4.585643764585256577e-03,-1.668136566877365112e-01,1.241043582558631897e-01,2.232314199209213257e-01,1.140564531087875366e-01,6.543195992708206177e-02,9.288523346185684204e-02,4.315332695841789246e-02,2.103833854198455811e-02,-7.098271697759628296e-02,-8.304816670715808868e-03,-1.984712854027748108e-02,-4.326779022812843323e-02,1.125829219818115234e-01,5.455022677779197693e-02,1.072230413556098938e-01,1.240254342555999756e-01,-6.495688576251268387e-03,4.397996515035629272e-02,-2.431215494871139526e-01,-5.325103923678398132e-02,-5.121893808245658875e-02,-7.584259845316410065e-03,8.324959874153137207e-02,1.579061448574066162e-01,2.506989426910877228e-02,1.534633617848157883e-02,1.982908323407173157e-02,-7.185579836368560791e-02,4.054203629493713379e-02,-1.957803368568420410e-01,6.897300481796264648e-02,-1.438999474048614502e-01,2.681711018085479736e-01,1.732394993305206299e-01,-6.569371372461318970e-02,-7.813261449337005615e-02,-4.583175852894783020e-02,-1.047695353627204895e-01,6.544738262891769409e-02,2.936599850654602051e-01,2.413564026355743408e-01,-3.108001686632633209e-02,-6.481473147869110107e-02,9.810572862625122070e-02,-1.979264020919799805e-01,-2.839693427085876465e-02,-9.466879814863204956e-02,4.373419657349586487e-02,4.143210873007774353e-02,-2.660228498280048370e-02,-1.037377715110778809e-01,3.076941668987274170e-01,7.324133813381195068e-02,2.668776810169219971e-01,4.313597828149795532e-02,1.168471947312355042e-01,-9.328854829072952271e-02,-1.079350933432579041e-01,2.511947751045227051e-01,8.427459746599197388e-02,-1.532442271709442139e-01,-9.277724474668502808e-02,2.989990869536995888e-03,3.122868388891220093e-02,1.848966777324676514e-01,-1.891322284936904907e-01,-2.971746921539306641e-01,-3.729137033224105835e-02,2.321558594703674316e-01,3.377289772033691406e-01,-3.656618669629096985e-02,-8.372116088867187500e-02
-3.460948355495929718e-03,5.617359280586242676e-02,4.965302720665931702e-02,-3.007470965385437012e-01,4.265543445944786072e-02,-5.617541447281837463e-02,1.710135936737060547e-01,1.059467270970344543e-01,4.597438126802444458e-02,-1.227654889225959778e-01,-1.799026131629943848e-01,1.146067902445793152e-01,1.773987337946891785e-02,-8.413524180650711060e-02,7.165293395519256592e-02,1.347052901983261108e-01,1.429637968540191650e-01,3.075310587882995605e-02,1.170657426118850708e-01,-4.210545867681503296e-02,-4.058309644460678101e-02,6.321952678263187408e-03,7.032471895217895508e-02,-7.932539284229278564e-02,-2.881141938269138336e-02,-6.618337333202362061e-02,-1.896125227212905884e-01,-1.243710219860076904e-01,2.833883464336395264e-02,9.011732041835784912e-02,8.216335624456405640e-02,-1.086492091417312622e-01,7.992053776979446411e-02,3.311600536108016968e-02,3.135916311293840408e-03,1.075640916824340820e-01,7.536686956882476807e-02,1.382626295089721680e-01,7.006414979696273804e-02,-9.841082990169525146e-02,1.154469400644302368e-01,9.484876692295074463e-02,4.513721540570259094e-02,7.139621302485466003e-04,8.001316338777542114e-02,3.183621764183044434e-01,-6.804277002811431885e-02,-6.295811384916305542e-02,-1.044447347521781921e-01,9.766194224357604980e-02,-2.677108719944953918e-02,-8.980347216129302979e-02,-4.706005379557609558e-02,7.376987487077713013e-02,-1.654503680765628815e-02,-6.561759114265441895e-02,1.725037097930908203e-01,-2.151996642351150513e-01,1.049490645527839661e-01,7.824369706213474274e-03,-4.681305959820747375e-02,5.743974447250366211e-02,1.526455879211425781e-01,-2.249845266342163086e-01,9.382317773997783661e-03,8.881380409002304077e-02,1.527006477117538452e-01,3.351484537124633789e-01,2.256326526403427124e-01,3.549116663634777069e-03,-1.954833120107650757e-01,1.446016877889633179e-01,7.811628747731447220e-04,-1.085909754037857056e-01,7.923050969839096069e-02,5.279175192117691040e-02,-1.535464893095195293e-03,-8.778531849384307861e-02,3.198047727346420288e-02,5.345631390810012817e-02,-9.945867210626602173e-02,-5.753796175122261047e-02,-1.292725950479507446e-01,1.040670089423656464e-02,-7.695597014389932156e-04,3.232074156403541565e-02,4.781454801559448242e-02,-4.242252185940742493e-02,5.540098622441291809e-02,-1.488229185342788696e-01,1.595166474580764771e-01,4.045550152659416199e-02,1.388968080282211304e-01,-3.803262487053871155e-02,-2.089496329426765442e-02,-1.648001521825790405e-01,4.164306819438934326e-02,3.050702624022960663e-02,-7.975399494171142578e-02,2.415350265800952911e-02,-4.533679410815238953e-02,3.407736122608184814e-02,-3.399748727679252625e-02,3.644006559625267982e-03,-1.554445177316665649e-01,-6.025877781212329865e-03,1.434212028980255127e-01,9.111604094505310059e-02,7.665277272462844849e-02,1.120082587003707886e-01,1.762467063963413239e-02,7.059238851070404053e-02,-3.842462971806526184e-02,-6.716751307249069214e-02,8.867191523313522339e-02,2.158217430114746094e-01,-6.304967403411865234e-02,-1.297554522752761841e-01,2.876482345163822174e-02,-6.073527038097381592e-03,7.115362584590911865e-02,4.442496970295906067e-02,-2.960170386359095573e-03,-2.684248387813568115e-01,-2.093350589275360107e-01,-1.442580390721559525e-02,-1.293610185384750366e-01,1.645456552505493164e-01,-2.555872127413749695e-02,-2.097077220678329468e-01,5.138581153005361557e-03,1.798097416758537292e-02,1.189636625349521637e-02,-1.736216098070144653e-01,-3.660533204674720764e-02,1.278484612703323364e-01,8.878477662801742554e-02,-1.924586296081542969e-02,2.235275059938430786e-01,1.460163444280624390e-01,8.655855804681777954e-02,1.315621882677078247e-01,2.521922811865806580e-02,1.611625105142593384e-01,-2.114154994487762451e-01,-3.023927100002765656e-02,-2.601810172200202942e-02,-1.524340212345123291e-01,-4.284668713808059692e-02,1.850492134690284729e-02,5.302220210433006287e-02,-2.060980070382356644e-03,-7.273474335670471191e-02,-1.895844750106334686e-02,7.704201340675354004e-02,-6.172882858663797379e-03,1.123789846897125244e-01,-8.725392818450927734e-02,3.929398953914642334e-02,8.334090560674667358e-02,-1.751251220703125000e-01,3.073443286120891571e-02,8.902274072170257568e-02,5.685516819357872009e-02,-5.324007570743560791e-02,-9.336551278829574585e-02,1.683550328016281128e-01,1.328014135360717773e-01,-1.013045012950897217e-01,-9.593845345079898834e-03,1.581852883100509644e-02,1.763257384300231934e-02,-1.384918689727783203e-01,6.926676630973815918e-02,-1.181834861636161804e-01,-2.712245285511016846e-01,-2.416348159313201904e-01,1.642054505646228790e-02,3.491931781172752380e-02,1.084712073206901550e-01,-1.364822685718536377e-01,-4.423994198441505432e-02,1.190854534506797791e-01,-1.473126560449600220e-01,1.331617496907711029e-02,3.025178983807563782e-02,-1.380952149629592896e-01,1.777201145887374878e-02,-1.341928839683532715e-01,1.527604833245277405e-02,-3.529362380504608154e-02,8.737563341856002808e-02,-3.890604944899678230e-03,-1.083349809050559998e-01,5.800997465848922729e-02,-2.997675444930791855e-03,-9.772997349500656128e-02,-4.312539007514715195e-03,-7.361419964581727982e-03,-1.702637076377868652e-01
2.412513829767704010e-02,1.040024086833000183e-01,-7.807752490043640137e-02,-6.323942542076110840e-02,1.148562580347061157e-01,1.081625968217849731e-01,1.443780064582824707e-01,8.612442761659622192e-02,6.665229052305221558e-02,-1.601682007312774658e-01,-2.134810239076614380e-01,1.526997238397598267e-01,2.711581438779830933e-02,-3.288502246141433716e-02,-3.291597589850425720e-03,-5.319053679704666138e-02,1.746063083410263062e-01,1.386152356863021851e-01,2.720655687153339386e-02,-1.344134658575057983e-01,1.745896488428115845e-01,2.094024121761322021e-01,-5.838432908058166504e-02,3.413873165845870972e-02,-5.556382611393928528e-02,-3.757799416780471802e-02,-1.452012807130813599e-01,-1.041982546448707581e-01,-1.077279914170503616e-02,3.484869003295898438e-02,2.935981936752796173e-02,1.638033688068389893e-01,3.990740515291690826e-03,4.657081142067909241e-02,-6.083353981375694275e-02,-3.433554247021675110e-02,-3.828939795494079590e-02,9.467808902263641357e-02,8.140868693590164185e-02,-3.414891287684440613e-02,-8.044455200433731079e-02,-5.698131397366523743e-02,-1.606444269418716431e-02,6.581771373748779297e-02,-1.194438785314559937e-01,-5.599479749798774719e-02,2.158222049474716187e-01,2.009502798318862915e-01,1.120684519410133362e-01,1.089459005743265152e-02,-8.676150441169738770e-02,-9.459853917360305786e-02,-6.019143853336572647e-03,1.377620249986648560e-01,-1.122570689767599106e-02,-1.001523807644844055e-02,-6.779580563306808472e-02,5.221999809145927429e-02,9.326075762510299683e-02,-7.383601367473602295e-02,-2.403369918465614319e-02,1.237204000353813171e-01,2.159050665795803070e-03,5.578205734491348267e-02,1.033114343881607056e-01,-1.965840719640254974e-02,-1.942962110042572021e-01,8.176085539162158966e-03,7.103326171636581421e-02,1.625344157218933105e-01,-8.560145646333694458e-02,7.071687281131744385e-02,-1.825136095285415649e-01,2.390644513070583344e-02,-1.139747574925422668e-01,-4.079403728246688843e-02,-9.269231813959777355e-04,1.073099076747894287e-01,-3.983995690941810608e-02,4.685949068516492844e-03,6.778929382562637329e-02,1.277509480714797974e-01,-1.656597703695297241e-01,3.399457037448883057e-01,3.392187878489494324e-02,3.837737441062927246e-02,-1.142269894480705261e-01,6.226051971316337585e-02,-9.728071838617324829e-02,9.757740795612335205e-02,-1.495101600885391235e-01,1.178724318742752075e-01,-9.641691111028194427e-03,7.535298168659210205e-02,-8.191889524459838867e-02,-1.249691247940063477e-01,8.844097703695297241e-02,1.370812505483627319e-01,-4.675617069005966187e-02,-6.928569078445434570e-02,-1.508425027132034302e-01,-1.398332715034484863e-01,7.805928587913513184e-02,8.197925239801406860e-02,-6.382037699222564697e-02,1.183662638068199158e-01,1.496513634920120239e-01,1.305244714021682739e-01,-2.606754563748836517e-02,1.202034950256347656e-01,1.815092265605926514e-01,-7.168364524841308594e-02,3.983658254146575928e-01,1.209032461047172546e-01,8.211501687765121460e-02,1.245580166578292847e-01,6.842750310897827148e-02,-1.555723398923873901e-01,3.122873231768608093e-02,5.717773362994194031e-02,-1.288021057844161987e-01,-1.440360546112060547e-01,5.622704327106475830e-02,9.432119131088256836e-02,-5.960590392351150513e-02,-1.950928121805191040e-01,2.194921374320983887e-01,2.478877305984497070e-01,7.446891814470291138e-02,8.907648175954818726e-02,-5.987442564219236374e-03,1.138527989387512207e-01,-1.619133651256561279e-01,-6.959472596645355225e-02,7.275313138961791992e-02,4.960805177688598633e-02,-3.216857090592384338e-02,-4.994069039821624756e-02,1.213455572724342346e-01,1.203799024224281311e-01,8.058211207389831543e-02,2.733291089534759521e-01,3.475825488567352295e-02,2.126044780015945435e-01,5.982776638120412827e-04,1.587592959403991699e-01,-1.234709993004798889e-01,1.498721688985824585e-01,-4.093443509191274643e-03,-1.826535165309906006e-01,1.970312297344207764e-01,2.202647924423217773e-01,-2.297727018594741821e-02,9.665223956108093262e-02,1.239755600690841675e-01,7.858173549175262451e-02,1.664648354053497314e-01,-2.830652892589569092e-02,1.027478463947772980e-02,1.530814170837402344e-01,3.667708486318588257e-02,-1.387129873037338257e-01,1.086304080672562122e-03,1.266880929470062256e-01,-5.405120551586151123e-02,3.777942806482315063e-02,1.571303457021713257e-01,4.482844844460487366e-02,2.689101547002792358e-02,-1.277142614126205444e-01,3.440097719430923462e-02,-1.113973706960678101e-01,7.462004572153091431e-02,1.283320039510726929e-01,6.645496934652328491e-02,-5.130399367772042751e-04,2.033993415534496307e-02,1.088932529091835022e-02,-1.022098287940025330e-01,5.508688092231750488e-02,-6.115121021866798401e-02,-1.670148409903049469e-02,-1.398292183876037598e-02,1.081502363085746765e-01,1.153809875249862671e-01,1.063698232173919678e-01,-3.983972594141960144e-02,-8.938243985176086426e-02,1.068073660135269165e-01,-4.204903915524482727e-02,-1.323340833187103271e-01,1.226267442107200623e-01,8.111833035945892334e-02,1.397679448127746582e-01,4.472859203815460205e-02,1.456856429576873779e-01,-4.635630548000335693e-02,-7.621701341122388840e-03,-4.828544333577156067e-02,-1.141757518053054810e-02
1.552909016609191895e-01,1.126860082149505615e-01,-1.333189010620117188e-01,-9.959603101015090942e-02,-9.028852730989456177e-02,-6.332586705684661865e-02,1.281990786083042622e-03,-6.544131785631179810e-02,4.138943180441856384e-02,8.188965916633605957e-02,-8.147150278091430664e-02,6.914340425282716751e-03,-6.144050508737564087e-02,-8.360029011964797974e-02,1.920572966337203979e-01,4.718993604183197021e-02,1.252464205026626587e-01,1.099608466029167175e-01,4.079360514879226685e-02,-1.423647701740264893e-01,-8.770020678639411926e-03,2.382721900939941406e-01,1.505418270826339722e-01,-1.741775274276733398e-01,1.419082563370466232e-02,1.096044704318046570e-01,-1.018477901816368103e-01,-5.067047849297523499e-02,-6.901325285434722900e-02,2.887559831142425537e-01,1.147274374961853027e-01,-1.520811580121517181e-02,-1.774187572300434113e-02,3.251784667372703552e-02,-4.978644475340843201e-02,-5.167275667190551758e-02,1.461185663938522339e-01,-1.406087260693311691e-02,1.289250999689102173e-01,1.514351963996887207e-01,-2.029635906219482422e-01,1.059186682105064392e-01,-2.080163061618804932e-01,-1.564705222845077515e-01,6.169955246150493622e-03,1.604585498571395874e-01,5.295517388731241226e-03,5.221888050436973572e-02,1.729014911688864231e-03,-1.199823711067438126e-02,9.728494286537170410e-02,1.493186950683593750e-01,3.510187193751335144e-02,1.453483700752258301e-01,-1.904949545860290527e-01,-1.900604218244552612e-01,-5.902325361967086792e-02,5.396004393696784973e-02,-1.725810766220092773e-01,1.768218129873275757e-01,7.047422230243682861e-02,1.231852918863296509e-02,1.012585163116455078e-01,-2.235111966729164124e-02,9.695260226726531982e-02,-7.074202597141265869e-02,9.114331007003784180e-02,-4.312624782323837280e-02,-2.306919172406196594e-02,2.612513117492198944e-02,-1.404120773077011108e-01,2.742591500282287598e-01,-6.333494931459426880e-02,-9.823913872241973877e-02,-4.251122847199440002e-02,-8.776524662971496582e-02,-1.217758655548095703e-01,2.109148949384689331e-01,1.060522161424160004e-02,-1.430894732475280762e-01,1.196444928646087646e-01,-3.866098821163177490e-02,-1.823996603488922119e-01,1.694643497467041016e-01,1.518743783235549927e-01,-2.015638202428817749e-01,-4.028199985623359680e-02,-4.815353825688362122e-02,-2.259988039731979370e-01,1.577346473932266235e-01,-7.860347628593444824e-02,1.251363158226013184e-01,-1.305773109197616577e-01,-3.955534100532531738e-02,-3.020072877407073975e-01,-1.071588248014450073e-01,2.325604408979415894e-01,1.644683927297592163e-01,-2.576477825641632080e-01,1.378676146268844604e-01,-1.470045149326324463e-01,-3.539836406707763672e-01,-1.605947464704513550e-01,-3.987503796815872192e-02,1.241862680763006210e-02,-2.096334397792816162e-01,-7.893672585487365723e-02,2.490073966328054667e-04,-1.624807268381118774e-01,2.348517477512359619e-01,1.285489946603775024e-01,-2.928046882152557373e-02,1.961602419614791870e-01,-1.932700537145137787e-02,-1.820724084973335266e-02,7.450637966394424438e-02,2.299061864614486694e-01,-1.877693831920623779e-01,6.322482973337173462e-02,3.998227789998054504e-02,-2.317348420619964600e-01,-1.562043372541666031e-02,3.831218555569648743e-02,1.101176813244819641e-02,-1.368227601051330566e-01,-2.082262635231018066e-01,9.842851012945175171e-02,3.051242046058177948e-02,1.163859888911247253e-01,8.221769705414772034e-03,3.882073611021041870e-02,-3.990858048200607300e-02,2.347658388316631317e-02,-8.684526383876800537e-02,1.263298392295837402e-01,-2.050241891993209720e-04,-3.063530921936035156e-01,5.836693570017814636e-02,2.677213214337825775e-02,-1.677589304745197296e-02,-9.596012532711029053e-02,-5.068054050207138062e-02,1.809580177068710327e-01,-2.499011531472206116e-02,-1.641060560941696167e-01,2.725882828235626221e-01,-1.748772412538528442e-01,7.579259574413299561e-02,-4.186450317502021790e-02,-2.777989581227302551e-02,7.248437404632568359e-02,7.581565529108047485e-02,-7.980792224407196045e-02,1.543333567678928375e-02,1.926362514495849609e-02,1.146857887506484985e-01,3.157390356063842773e-01,-1.093061715364456177e-01,-9.362754970788955688e-02,2.475378364324569702e-01,-1.081250049173831940e-02,-5.689984653145074844e-03,2.075857073068618774e-01,2.801525592803955078e-02,-1.672457009553909302e-01,1.641989946365356445e-01,1.497669517993927002e-01,-2.130224704742431641e-01,8.757644146680831909e-02,-2.469062805175781250e-02,7.230296730995178223e-02,6.741538178175687790e-03,3.719330951571464539e-02,-1.662296652793884277e-01,7.151642441749572754e-02,-1.374695003032684326e-01,2.561666369438171387e-01,8.046893030405044556e-02,-1.599086523056030273e-01,6.750534754246473312e-03,2.835949510335922241e-02,1.592794656753540039e-01,1.072849482297897339e-01,-7.783529907464981079e-02,-1.220564022660255432e-01,1.609690487384796143e-01,-1.283723711967468262e-01,-1.210839152336120605e-01,7.395023107528686523e-02,9.375902265310287476e-02,-4.858511686325073242e-02,-5.307295545935630798e-02,6.643422693014144897e-02,5.083889886736869812e-02,-4.158431291580200195e-02,-6.758099421858787537e-03,-1.857648491859436035e-01,7.999184727668762207e-02,6.326296180486679077e-02,1.388534009456634521e-01
-3.101718239486217499e-02,-2.241706699132919312e-01,8.279108256101608276e-02,7.123561576008796692e-03,-4.235606640577316284e-02,7.787908427417278290e-03,1.941217631101608276e-01,-4.208583850413560867e-03,2.110293358564376831e-01,-3.430115059018135071e-03,-2.274515107274055481e-02,1.201391145586967468e-01,5.626234784722328186e-02,4.348851740360260010e-03,2.094246000051498413e-01,1.115096285939216614e-01,1.337573230266571045e-01,1.350839287042617798e-01,9.075064957141876221e-02,-2.127576470375061035e-01,4.183817282319068909e-02,1.748221553862094879e-02,-6.171534955501556396e-02,-2.333533763885498047e-02,-1.198635175824165344e-01,1.148679945617914200e-02,-1.101281717419624329e-01,-4.087070934474468231e-03,2.265632599592208862e-01,-3.850213438272476196e-02,-8.136156201362609863e-02,-9.420952200889587402e-02,5.622705072164535522e-02,1.783996820449829102e-01,2.577054314315319061e-02,-7.722845673561096191e-02,-1.901279538869857788e-01,-2.491099201142787933e-02,7.992739230394363403e-02,-1.884232461452484131e-01,1.916676387190818787e-02,-7.126348465681076050e-02,1.031870618462562561e-01,-7.622813433408737183e-02,-2.511267960071563721e-01,1.981612294912338257e-01,3.349447250366210938e-01,1.225435081869363785e-02,1.761794090270996094e-01,-3.173197060823440552e-02,2.042594701051712036e-01,-1.747418344020843506e-01,-3.502250090241432190e-02,5.454790592193603516e-02,3.417406603693962097e-02,4.592072591185569763e-02,2.906647697091102600e-02,3.318251296877861023e-02,1.544872969388961792e-01,-8.303117007017135620e-02,8.517086505889892578e-02,-1.062412708997726440e-01,6.566996872425079346e-02,1.849069893360137939e-01,1.772923171520233154e-01,1.270151734352111816e-01,4.260822013020515442e-02,1.901584118604660034e-01,-7.376446574926376343e-02,1.088747382164001465e-01,8.708386868238449097e-02,1.068862434476613998e-02,8.382426947355270386e-02,-1.273366510868072510e-01,-7.046197354793548584e-02,-1.941861510276794434e-01,1.292606741189956665e-01,8.650714159011840820e-02,8.664792776107788086e-02,6.592221558094024658e-02,3.921426087617874146e-02,-4.154689237475395203e-02,1.510368287563323975e-01,7.887090742588043213e-02,5.452632531523704529e-02,9.447324275970458984e-02,4.781657457351684570e-02,1.467689406126737595e-02,9.442823380231857300e-02,-8.525479584932327271e-02,1.682417392730712891e-01,6.519172340631484985e-02,-3.426348417997360229e-02,1.736836880445480347e-01,1.626311428844928741e-02,-2.185975462198257446e-01,-1.511406153440475464e-01,3.602945804595947266e-02,3.897287324070930481e-02,-3.123843111097812653e-02,-4.711202345788478851e-03,8.460199460387229919e-03,-2.767717652022838593e-02,1.075929701328277588e-01,-2.716772556304931641e-01,6.849376112222671509e-02,9.782658517360687256e-02,-1.035593599081039429e-01,-1.695682257413864136e-01,-1.832703351974487305e-01,5.771862715482711792e-02,1.435704976320266724e-01,5.192098766565322876e-02,2.290121465921401978e-02,-2.830398455262184143e-02,6.507424265146255493e-02,-4.834998771548271179e-02,-6.752978079020977020e-03,2.216565981507301331e-02,-3.828508779406547546e-02,3.359790518879890442e-02,1.024641282856464386e-02,9.903728216886520386e-02,-3.594265505671501160e-02,7.468565553426742554e-02,1.978725939989089966e-01,-1.345113962888717651e-01,1.412415057420730591e-01,2.404799014329910278e-01,3.477322682738304138e-02,2.775986213237047195e-03,-2.824100852012634277e-01,1.582882106304168701e-01,-1.816154867410659790e-01,2.116348780691623688e-02,1.742689013481140137e-01,1.248236000537872314e-01,4.346841946244239807e-02,6.119411811232566833e-02,1.520170718431472778e-01,1.416882779449224472e-02,1.644391566514968872e-02,2.817717753350734711e-02,7.553813606500625610e-02,-8.536446094512939453e-02,-1.404435485601425171e-01,5.567081645131111145e-02,6.848946213722229004e-02,2.197991311550140381e-01,1.265712529420852661e-01,3.988089039921760559e-02,-8.499409258365631104e-02,-1.580335646867752075e-01,-4.659688845276832581e-02,-2.490017097443342209e-03,-1.605026051402091980e-02,-1.183832585811614990e-01,1.026541441679000854e-01,-9.681554883718490601e-02,-1.170408427715301514e-01,-1.346390843391418457e-01,3.626640141010284424e-02,-9.625788033008575439e-02,1.123584955930709839e-01,3.032090514898300171e-02,4.941750783473253250e-03,-4.333981499075889587e-02,-2.112043201923370361e-01,-6.896224338561296463e-03,1.450691521167755127e-01,-2.806044928729534149e-02,-1.736119389533996582e-01,-1.964313238859176636e-01,-1.984164817258715630e-03,2.894234843552112579e-02,7.044136524200439453e-02,-1.266729086637496948e-01,-1.155028939247131348e-01,7.727951556444168091e-02,1.533525735139846802e-01,1.925257891416549683e-01,2.968914248049259186e-02,5.066257715225219727e-02,-6.720269098877906799e-03,1.037052497267723083e-01,-8.782251924276351929e-02,-3.938431292772293091e-02,1.140270754694938660e-02,-1.269093900918960571e-01,1.314058899879455566e-01,-7.598567754030227661e-02,2.026512026786804199e-01,-1.681974679231643677e-01,-1.886572875082492828e-02,-8.429645746946334839e-02,3.392238914966583252e-02,1.830466240644454956e-01,-1.058444604277610779e-01,1.121762916445732117e-01,-1.164482161402702332e-02
